-2.795196908667230140e-02 6.394352038269385252e-02 -1.198581235795796946e-03 7.914344853252019973e-02 1.064766785328739342e-02 -9.346857515464518373e-02 7.781326906891393447e-02 -1.052206243027354604e-01 6.122384681060945993e-02 -5.788216424944876703e-02 5.028025005692129956e-02 -1.047390811860682974e-01 -3.189084377077816557e-02 -8.005816372311996831e-02 9.947097186616310482e-02 -7.871006157977733508e-02 -7.954514076786224630e-02 -5.834205699206010398e-02 -3.748351791648544401e-02 -9.851925910388643903e-02 -8.518345008820801811e-02 -7.372000218736868282e-02 4.721824510563889243e-03 -9.217455387279878398e-02 -5.971954430589437174e-02 6.215254705946585828e-02 3.717931470759209406e-02 9.262668699951782936e-02 4.623934593393237008e-02 8.217504335271651195e-02 3.417823123658449147e-02 -5.536330242517778499e-02 2.186120565495923429e-02 -5.193865978528231647e-02 1.020667813165454518e-01 -9.638387054635158546e-02 -8.070723442109029033e-02 7.177818563741869551e-02 2.059894922563632047e-02 -8.141759116075679426e-02 -2.916189277387255460e-02 -6.054573780508659686e-02 7.292499296990193058e-02 5.545008346636398633e-02 3.972218510638909905e-02 -6.258618084907789647e-02 4.328277019913699219e-04 -6.584707021209734723e-02 3.647289727533411380e-02 -4.481611312878979597e-02 -9.683953831741877460e-02 -9.880702866767913928e-02 -4.429743983089133585e-02 -6.715126144378434636e-02 9.338638408677532587e-02 5.167506830469034002e-02 -9.116423297006582757e-03 5.470129170917534256e-02 7.442641327633753301e-02 3.832916215749593057e-06 -1.042632371682412629e-01 -9.527012861639536090e-02 7.902870914930300306e-02 2.983385082756317627e-02 -5.028700068720549227e-02 1.551434671054735624e-03 1.030405897664595227e-01 6.003980256138204824e-02 -7.331239572636349955e-02 6.064469159284067989e-02 1.025706739302217479e-01 -9.121939767833490281e-03 8.439410035468652982e-02 -5.486758738932626459e-03 -9.928313370998388676e-02 -6.065676335846789669e-02 -3.594979982043793737e-02 -8.151064278007032204e-02 -4.700700752779864156e-02 5.858746981294114808e-02 -6.269975383561669779e-02 2.697286000297755351e-02 8.498135293354676378e-02 -6.965389860949806888e-02 4.488052103909735604e-04 -6.390174990950206468e-02 -3.391719796999229791e-02 -1.038707358741322861e-01 -3.235591712347452714e-02 -4.382983752714830761e-02 -6.345735879280642311e-02 -4.408345829615183814e-02 7.897344059757041568e-02 7.771879104733074410e-03 3.734939866366658590e-02 1.067593690440906823e-01 2.167503915895527614e-02 -5.356642194302667359e-02 -1.019313113148663241e-01 5.925284473269892827e-02 -1.230040920427816556e-02 1.037909246994390966e-01 -5.192817278968996780e-02 -5.581221203220120691e-02 1.522552621749659676e-02 -7.256576015727934925e-02 -7.890716127261916679e-02 1.075536616126825454e-02 7.515435576423910857e-02 1.329771844211946955e-02 -8.782423665940675139e-02 1.271885396858731844e-02 1.764550516276759337e-02 -8.087286422732987978e-02 5.619334480345183902e-03 -2.568238288479681233e-02 -4.538753693110439413e-02 -7.248526352254536231e-02 4.792721167863970427e-02 7.308808581908479707e-03 -3.278583117979910061e-02 6.698619843852797462e-02 -1.065149765999582644e-02 6.352294895699246192e-03 7.207024468443559706e-02 7.011465090783673693e-02 3.418540856965279762e-02 -9.768605018608872426e-02 3.699428604062192372e-02 3.349969842485490956e-02 6.670501395591144078e-02 -4.104338714020702716e-02 -3.726792600367864750e-02 -5.980108751272093619e-03 5.776352832674443855e-02 4.843875345436172986e-02 1.054466699518378653e-01 -8.658426210542938262e-02 -1.913953466245061491e-02 -8.436991240320287910e-02 -3.628032881060905962e-02 -4.629907147105782883e-02 7.871604033099072195e-02 -2.425247850172032246e-02 -6.566333422497712402e-02 -5.593251610006100272e-02 -8.743741700701281039e-02 -3.476612239760586837e-02 9.371783906065918324e-02 -9.512885193713646256e-03 9.861040782392238579e-02 8.492490318710163577e-02 3.393604855963391898e-03 -3.797284353378640315e-02 5.301088587389965467e-02 7.075242447745473673e-02 -4.029355908884438286e-02 3.042129812157535421e-03 -2.254693968005738042e-02 7.807119877044607636e-02 4.944610131602350522e-02 -8.446908721543179566e-02 6.839338053244607696e-02 5.392270142063868704e-02 1.069865457802977593e-01 -1.460777556229429178e-03 -2.278855309971195703e-02 1.433160640265660965e-02 -5.376239779343384290e-02 -2.689542536881536078e-02 -6.841107886923369907e-02 -1.025754315222441732e-01 -4.593613260727029413e-02 1.234850834722758459e-02 1.058641916853409193e-01 8.838925613202343323e-02 -5.533165217822431231e-02 6.147313221114254767e-02 -5.868812611803415902e-02 4.840374425294225597e-02 2.322046094706860936e-02 -8.146008052981172642e-02 -9.807236900957401471e-02 -5.932273724120223218e-02 8.526187365243320659e-02 4.718686708067563323e-02 6.672620288202446570e-02 -1.050516510979178919e-01 -7.993027284529886922e-02 4.387928707304661335e-02 -3.920129869331952233e-02 9.018590561287985474e-02 -4.823265421678030358e-03 -4.302596052742082428e-02 -9.648487352044923457e-03 9.706766470447501793e-02 -5.015834825423741428e-02 -8.374637041436019946e-02 -7.130158762622458568e-02 -1.912010463262308474e-02 8.121427026136165961e-02 6.914535795088829276e-03 -5.039301800248606467e-02 4.159526113953301851e-03 -1.072317943462854223e-01 8.245532119360623677e-03 -6.818898656071364917e-02 -1.071030241417288281e-01 -4.826748057023491634e-02 7.316079176691532571e-02 4.797621687949987779e-02 7.774944240149969654e-02 -6.484906716816518646e-02 -3.173826927414390153e-02 -6.920601656841667004e-02 6.311197792952728813e-02 2.533554671084143044e-03 -2.981261319920219463e-03 -6.538972943555687589e-02 2.918056011716111189e-02 -1.799809663557870587e-02 3.486442624481188995e-02 5.555454709260734814e-02 2.301776076142715913e-02 -5.204723549531527910e-02 -1.739628407376551597e-02 6.242275485958870274e-02 -8.382611518053946498e-02 -9.674588133778136423e-02 5.656100733196024050e-02 3.338476670653213463e-02 7.870269627645221089e-02 -8.292065184090759503e-03 2.749803848571062345e-02 -6.951562570241915859e-03 -3.339647064134403792e-02 6.904313427319627716e-02 -1.043324641301500155e-01 -3.096664330219862926e-02 8.118758950917992490e-02 -1.006419131866543443e-02 -5.592613852252040912e-02 7.928985905777474752e-02 7.691971911466693491e-03 1.021353594173424056e-01 4.481084320820885591e-02 -1.016066207840500418e-01 1.310811467185599329e-02 9.227431028297858329e-02 1.024068815049412606e-01
-8.998338923436977055e-02 -5.927965387136928388e-02 4.228806925803327288e-02 7.617950296911493724e-02 -2.339042474836127219e-02 -4.621969255608784910e-02 8.571498634827998120e-02 -7.938946420664345915e-02 3.069714632650834274e-02 -5.067827314642733838e-02 8.306807849472054583e-02 1.231011406387461961e-02 -7.799236177110918655e-02 4.235674348408550310e-02 8.583418251729950030e-03 -7.845485490432684006e-02 -5.921234854092898708e-02 8.035250476254372776e-02 5.926385720796088774e-02 -9.032473598630449962e-02 1.145109552118861729e-01 1.087416935754909192e-01 4.689573272457230740e-02 -8.800070002221241361e-02 9.306623003288899687e-02 -2.720199634485978915e-04 6.624158266299419451e-02 3.322327492947615979e-02 -5.613747362413439718e-02 -3.974858558111702550e-02 -1.422051870197874393e-02 -2.077895017969005886e-02 -4.112887116459302238e-03 -5.507621216269077691e-02 -5.342357934690850074e-02 -7.255379558269100387e-03 1.086751352258299719e-01 3.437887402647429175e-02 -1.071863287317095098e-01 -2.242983949372737151e-02 4.756780636804916473e-02 4.612735433482244990e-02 -4.480212285336269279e-02 -3.267454725166398649e-02 -8.922633428994231064e-02 1.073835430397925006e-01 3.354727434369339512e-02 -8.766171756117158154e-02 -8.863234970743357442e-04 -6.011023440144683955e-02 6.103467303860498488e-02 -1.032284624731544115e-01 7.204708757032896038e-02 -9.466142007382763110e-03 1.075733616592904930e-02 -5.520352429640427994e-02 -4.332882460299777166e-03 -1.135708230294076165e-01 1.846324474521662297e-03 3.255351525290033771e-03 -9.731970627393808637e-02 1.103291090145939873e-01 1.695628586303438504e-02 8.049450338818439632e-02 8.301792665490680123e-02 -1.155230143994828013e-02 1.800378611043533528e-03 -2.884861601868390912e-02 1.003096318014776722e-01 -6.617704256643268390e-02 -3.929819110222620981e-02 -6.346866592962092934e-02 4.954145362089019261e-02 -3.387770974475607516e-02 -1.042197627981411440e-01 -9.658429941001088481e-02 -4.538477870090156657e-02 1.050892119848373663e-01 5.788682658948604565e-02 -3.698360247687589031e-02 8.962939639888437005e-03 5.611237141620241398e-02 2.556881677875294523e-02 -4.281470907278447577e-04 -1.012635058032429619e-01 -2.509512491660605832e-02 8.225814667808171998e-02 4.893026855278251319e-02 8.489033062004833208e-02 -9.253143798756781335e-02 -8.669636659590247707e-02 1.330163127599060836e-02 -1.037731797594573652e-01 -2.351451276432925657e-03 -1.489455614513756493e-02 5.895154859149075166e-02 5.156361587487672676e-02 1.129044385280554841e-01 2.052927457182131266e-02 -7.921509904041529326e-02 1.003170094429276099e-01 6.200693355877249374e-02 -9.119518561090693420e-02 1.071283234010415170e-01 -5.172013845935771043e-02 -6.397374611664037591e-02 1.003584507249498103e-01 8.604356479357881671e-02 3.226095195473362848e-02 -4.998775730901544589e-02 -9.465142616853208790e-02 -4.650937162516620427e-02 -2.265437423696232272e-02 -7.489280269096505738e-02 1.790876208084611967e-02 2.540118799999375662e-02 4.177478767296514267e-02 5.819804155078966285e-02 7.317411625033590217e-02 8.776780394146968534e-02 1.039825173270638725e-01 1.776130669981395085e-02 -7.732480474030360706e-02 9.140890092988264437e-02 2.775957615590331565e-02 -1.594418961458356904e-02 8.522650363499759130e-02 -4.361869677726976091e-03 4.941582974310981813e-02 -8.782850832570365807e-02 1.052526550224626989e-01 -5.082887327646677667e-02 -9.901181504716519144e-02 -8.455424799369146149e-02 4.664430283300293606e-03 -2.267849487910590656e-02 -6.283064881678328967e-04 1.182492905486968657e-03 6.572764269014472194e-02 3.578644081471621385e-02 8.559632262168336003e-02 -7.237732651736823730e-02 -2.093547587471460136e-02 -9.568001022605171491e-02 -8.940773016938483031e-02 -4.183124107023920152e-02 2.036778401168914260e-02 5.342791309330246347e-02 4.195956883697132822e-02 -4.602827090294155793e-02 -1.091131571207018397e-01 4.271290036153239239e-02 -3.857002422884261289e-02 -1.057504140766943879e-01 1.859332360237462428e-02 1.761913777979176240e-02 1.005254020423453215e-01 -2.666195818751221358e-02 8.073848330999310041e-02 3.658530112853884686e-02 -4.237921254765470574e-02 2.184831254108741960e-02 5.237250326162266878e-02 -5.930989958440285176e-02 -1.153418303448793258e-01 -4.476376545019644659e-02 1.083725066294351086e-01 -2.207591179446109081e-02 -5.549801577237618855e-02 5.802460095166226545e-02 1.858608323501088899e-02 -4.714884840089973717e-02 -7.570034443271908553e-02 -9.536265086116781087e-02 -4.855864599171795526e-02 -2.977278321031618172e-02 8.587629901842881719e-02 -2.055917686216717985e-02 1.076796683880551081e-01 -1.701963662731764346e-03 2.707913209573942909e-02 -8.507140956939002185e-02 5.563802582444538763e-02 -2.412194849077099398e-02 -3.475309292744493267e-02 -6.383729399928657344e-02 3.122103214290442713e-02 -6.894109641150593382e-02 -1.343719679025578984e-05 1.013488953624528538e-01 -3.617774722912632523e-02 8.936428041107742637e-02 -1.546044454155609191e-02 4.745677876938356882e-02 -1.438259535127947228e-02 -9.808728422637424949e-02 -8.675412834107687488e-02 -8.803903809679304582e-03 3.622527633754984294e-02 -7.519069670442576903e-02 5.197263209942373091e-02 2.701930938702071933e-02 -3.946291144765598502e-02 -5.440253714306771821e-02 -7.667489436083896326e-02 1.309421668499192309e-02 -8.207260122405314606e-02 1.106051492878626086e-01 5.265237579129593108e-03 5.852391408464362871e-02 -2.860647704461033100e-02 -2.052070886082213094e-02 1.136440931892787054e-01 6.847590569999321974e-02 6.623436508580876625e-02 -5.122076496391278488e-02 7.998869779314006501e-02 -2.685097096709182507e-02 -7.695228637345331857e-02 -3.826190142338905392e-02 2.481783922713158216e-02 3.912385338522103573e-02 2.751262702817879047e-02 6.004946531815545316e-03 6.568484559925608091e-02 -3.179394278703210480e-02 -6.188069361698111254e-02 -8.791365718813862196e-02 1.833465587021478743e-02 8.324897492057398152e-02 -8.995483297695165692e-02 -6.762638519871737308e-02 3.625972572501195285e-02 -1.305115807270670805e-03 -1.791177078918582133e-02 -8.752563948306539554e-02 2.317079897275824141e-02 -3.336098729785521438e-02 3.443194471676280094e-02 -2.179131716427794990e-02 -6.496635575615876401e-02 6.100342527991352293e-02 9.645316621790149536e-02 6.505819048416619510e-02 -4.127364519034614626e-02 7.352526975239144502e-02 -1.889067254560675146e-02 -4.248263149882045009e-02 -2.420284958279560888e-02 1.826270865834843382e-02
-3.704418818110993133e-02 -1.043374401354271036e-01 -5.702487737860546801e-02 -1.034203915462428708e-01 -7.437978992203088391e-02 -1.118221855490211386e-01 -7.597332877258716755e-02 -1.172023009081672174e-01 -9.402704385926000802e-03 1.037698134391288329e-01 4.047365892853584807e-02 -1.057478334322791425e-01 -6.945687296727119653e-02 -3.759254881037054578e-03 -6.876125035886049286e-02 5.047977058285752633e-02 -2.990847887263245811e-02 5.884727908909898053e-02 1.072072423096231096e-04 8.427378129405722895e-02 5.003268700864663826e-02 4.395128560450821398e-02 8.624752344939994042e-02 -6.149463055716378190e-02 5.253527904465090520e-03 1.235774430209742383e-02 5.575341240354685785e-02 -2.419783425708946570e-02 4.271379538120540637e-02 4.042435877753729895e-02 -1.799714107831541787e-02 -5.833487940014820544e-02 -1.638475000246882723e-02 6.942893711408344715e-02 7.944353255330692531e-02 3.027309714746693331e-02 2.083927172984897849e-03 8.895017554083935185e-02 -5.517695210257650418e-02 -1.140710725616021631e-01 6.311217004204668080e-02 -4.145071433539363609e-02 -2.574123063445403828e-02 6.347683853944281751e-02 -3.012299724941313456e-02 5.151298301120081635e-02 -6.563840961060966872e-02 -1.134854053210894026e-01 9.008561645106572327e-03 -1.109918307629579187e-01 9.055397972244483284e-02 -4.144140048799097031e-02 -8.971119967138446727e-02 -1.085595360975125379e-01 -9.066098541192044169e-02 5.681787600302395241e-02 -4.476691084394758546e-02 5.210486376256803775e-02 -5.995815181633243340e-02 9.304394198951264350e-02 7.646333364132668065e-02 5.797345346832868951e-02 -5.914072309493449003e-02 -2.958166274172067262e-02 -2.697282573347406509e-02 5.229154984952576884e-02 8.998810130465276919e-03 2.436595653477660606e-02 6.644007308683191892e-02 -4.135688155149087886e-02 1.165970912539906756e-01 6.719131406091044534e-02 2.571772711500704481e-02 9.666834665657740534e-04 2.798855921740346295e-02 -1.138410488761890244e-01 -1.145748868644041879e-01 -3.338905410073395030e-02 -1.747525825108026468e-02 4.584770036844117332e-03 6.197415943271367827e-02 -7.634873988262190492e-02 3.719170392605676556e-02 3.159118331402425983e-02 2.169990731208521970e-02 -2.899880063229179350e-02 -1.765953409288537057e-02 -1.440858785894982928e-03 8.736092734388478664e-02 -4.928964320607461674e-02 -1.076932665547044587e-01 3.648324223851066167e-02 -4.776435787399776339e-02 -6.101633558598060225e-02 3.454161826284585929e-02 6.837962375496214884e-02 -7.728896106467897376e-02 -1.105475824515229633e-01 5.746658217346022057e-02 2.485487576089786751e-02 5.794293971980939151e-02 1.105740612613456131e-01 5.163117505549980057e-02 4.669754891615547632e-02 -4.989841877575043605e-02 4.338669853686398514e-02 -6.038302481233692731e-02 7.127289107738632445e-02 -5.906533022205331246e-02 -7.066652134670464713e-02 6.319481693067155459e-02 -2.486591141728012114e-02 -4.231049478631776495e-02 4.236009438560486146e-02 1.717739528388835535e-02 5.947876576900381490e-02 2.463277538606178929e-02 2.413602670725456881e-02 -5.933807637403528540e-02 -1.078658573274089982e-01 -1.321171821514878150e-03 -2.356578871609391404e-02 -3.659892371292527286e-02 -2.395006078899944435e-02 -3.925723488577778642e-02 -3.679966518845377565e-02 -3.962933414630212536e-02 2.795959203765418372e-02 1.011648680535033318e-01 4.486658059806909044e-02 1.661813053722032210e-02 8.531787657491468613e-02 1.046246235920870460e-01 -8.630961491283379791e-03 5.114127774124111597e-02 5.551779173257520052e-03 -2.504753753937419627e-02 -1.150299505977458309e-01 4.131720565567665454e-02 -8.952070931030370327e-03 -5.533700738108176392e-02 -6.516151863759052365e-02 -7.139764633287697115e-02 6.863501877287515873e-02 2.574711738193606863e-03 9.859642604300800084e-02 -3.382082158173749242e-02 -6.624555108769863976e-02 1.045537580725470171e-02 5.936744037827168530e-02 3.403141791539520539e-02 -6.869996331369905562e-02 -1.392514713822460941e-02 -3.024670935238662692e-02 -1.004671642984961005e-01 2.444614152099671214e-02 7.704007973679502519e-02 1.111434233037654207e-01 -9.208142327313070807e-02 6.781585665479197833e-02 -3.767689037256986145e-02 -7.849252913154039502e-02 5.404173041403073641e-02 -5.563545377588538163e-03 -7.304004822469498115e-02 -3.815004652284202658e-02 6.185988330860194701e-02 4.808581109819799054e-02 -9.106746369795946927e-02 7.235694792779942368e-03 -8.634638358331832297e-02 8.306072678603647341e-02 -4.470223091161442536e-02 2.803177104968289715e-02 5.434809827589394404e-02 1.015798194502498808e-01 1.052142051483712093e-01 -4.100763965579717202e-02 1.755731819168887195e-02 2.545227061673051294e-02 -1.071314699014971061e-01 8.566008101010154363e-02 -2.568558134436304402e-02 -8.272039824277521713e-02 3.988046056144825546e-02 -2.533287415741923565e-02 -6.714427423645284720e-02 5.104174660094464022e-02 -4.224205862968643567e-03 -2.413506800393467461e-02 1.049106297405110882e-01 -2.789610270212734833e-02 -7.009634030531206039e-02 1.012335603205060802e-01 9.505057577336881169e-02 -8.700579527348929754e-02 1.031781603730729802e-01 5.730871749505782320e-02 6.213054469873485752e-02 5.284616251456962510e-02 -4.418396147898811382e-02 5.026115808047194183e-02 9.209527938520069290e-02 -4.445375881160199688e-02 -2.379607851108778149e-02 -4.877177212367533876e-02 4.431176888953980431e-02 -4.071508403689475669e-02 5.112152964475701056e-02 1.054162708727356540e-01 9.120099465153264084e-02 7.222878525246870240e-02 1.342655004368658450e-02 -4.636211370687514516e-02 -4.095690444288441895e-02 9.041480628410224207e-02 4.286671372673733771e-02 -8.694486486212471554e-02 5.415354367419071557e-02 6.106536631540237722e-03 2.062603946888017653e-02 -5.443650409348253089e-02 2.141590009930450199e-03 8.848021633121405660e-02 -7.007977985674181121e-02 6.548399988286961182e-02 -3.166643875326510121e-02 -3.060866084880278434e-02 4.076268860517127252e-02 -1.635425221442070656e-02 5.254933253854481706e-02 -8.626293496152843965e-02 -6.010802251329892126e-02 7.997050759888241211e-02 2.159530948501698147e-02 1.459805064984433590e-02 7.373202415894297701e-02 6.902763478043684453e-02 4.511091598608146097e-02 3.419642578481531942e-02 -3.253626320899560831e-02 -1.050260463392267418e-01 -7.552156583316840810e-02 -1.309120164876466201e-02 1.147776117198589518e-01 9.063100388088489445e-02 5.234850128202954422e-02 -9.036167697301555890e-02 -7.508143723126864399e-02 7.944419267120375605e-02
1.105116645206900491e-02 3.197866549970879851e-02 7.258355735426683109e-02 -2.337744446873949236e-02 3.121090458789470279e-02 -4.801505623057749500e-02 9.413084709996109856e-02 1.478966994070110390e-02 -3.416433630441056968e-02 -4.973034549991503517e-02 5.848140090479813508e-02 9.466987928663798957e-02 -8.765844539399210433e-02 -6.605371364808747259e-02 -1.709164876188142002e-02 3.257709338626128825e-02 1.080509403889958614e-02 -2.238280467646150407e-02 8.560435247807803016e-02 2.500845901238628322e-02 -1.832183174499411177e-02 1.290050521959290077e-02 4.355753651230501872e-02 -9.996545333680244283e-02 5.290609966047738616e-02 2.981548876693794134e-02 7.786612664354973512e-02 2.551861589860961871e-02 9.129585915918902311e-03 8.458052482656393256e-02 -4.152096920547896503e-02 -9.178869597528244162e-02 9.942271706923201668e-02 8.900032572277466469e-02 -8.533483311008299710e-02 4.777774417048362421e-02 2.452942775115313223e-02 3.918251200827322506e-02 -5.175842694975836544e-02 7.066354042410155634e-02 9.244049588709810084e-02 4.772765731779704534e-02 1.003777097597799428e-01 -8.386566387377680787e-02 -3.701476151093274769e-02 -9.119274774693020280e-02 -3.651503078597411519e-03 1.090567863097612403e-02 -5.824995774932748699e-02 -7.540907167587490578e-02 8.250474900491261421e-02 1.058650567318486675e-02 1.282703404736140924e-02 -6.491770826943103756e-02 -2.879026805542969289e-02 9.942521057907392767e-02 4.906253929635846084e-02 2.517564648372844563e-02 4.426469034634259586e-02 5.096045736806198434e-02 4.202011156360350996e-02 -7.687255102787846073e-02 8.277291147920586012e-02 -9.711747893105063256e-02 -3.904577814336061825e-02 1.017316188262919058e-01 -1.007053775017041214e-01 2.132202976563318461e-02 2.779891820141128927e-02 -4.318947935780136083e-02 -2.873883352793834764e-02 1.021085755168929382e-01 -6.793936727013295818e-02 1.044420029443676873e-01 7.267223130124532415e-02 -5.985967986927748230e-02 -4.774371744227912107e-02 -1.058442385964211835e-01 1.024198992480384457e-01 3.159365211162048354e-02 4.448506303046470545e-02 -5.852089143918762226e-02 -5.229867552828165039e-02 -5.404440502988580586e-02 6.970719260047812671e-02 6.569965017091149162e-02 -5.149177432968545659e-02 -7.532660018183831574e-02 -5.535019643577396287e-02 -8.668965188021013346e-02 5.127517492075466671e-02 7.319259173315605105e-02 -9.238061204039260677e-02 -2.435210060905829491e-02 -1.570491194886969311e-02 1.752638857856952948e-02 -4.847348216683784738e-02 7.551806296721091938e-02 -5.165456807635250558e-02 -4.556604589149305246e-02 1.060833193624678879e-02 -6.091940071597042039e-02 -8.055015377624452633e-02 -2.236994686764487428e-02 -2.862681297963612370e-02 2.616894062417554970e-02 8.359665964560888951e-02 1.925150454385772189e-02 3.363107715505076617e-02 6.138751709617740193e-02 3.262021164970007464e-02 4.487755192981051494e-02 -9.257662518313408695e-02 1.029473259556575732e-01 -9.933697130955081167e-02 5.722656556324609567e-02 1.138100750180127615e-02 -4.617288942069563279e-02 9.487838847929554176e-02 9.613126809166747111e-02 -8.746608788081551566e-02 8.579281885130317364e-02 -5.298288138007845732e-02 -6.260674346064420970e-02 1.859926524888006610e-02 8.520711339776973481e-02 -3.152299590277692770e-02 -1.018951468734921456e-01 1.091021651043568713e-01 -7.519056782027368734e-03 9.581927080518259920e-02 -8.720451606250306797e-02 7.239181152703307032e-02 -7.991751246212944193e-02 9.508941274139787181e-02 1.064484473696164224e-01 8.854588916053805769e-03 4.289602397975401243e-02 7.620666868175715591e-02 -1.632266046710553059e-02 8.482958516158473072e-02 -1.037801196303021756e-01 1.023799609401448985e-01 -5.241483796615485635e-02 -3.964844709045352994e-02 6.022553700764816942e-02 -1.068495800511631410e-03 2.883562329415363321e-02 -8.264570929977772817e-02 -3.399076136426134459e-02 9.469076208433890862e-02 3.523327825987104117e-02 2.862971567951375085e-02 9.769341752411078716e-02 4.240418512325747763e-02 -8.876735425934664803e-02 -6.793605721134510222e-02 -8.520205935066840763e-02 4.603320369819030589e-02 -1.438527004980165967e-02 -9.069974292098725854e-02 -9.762279766747629373e-03 -7.997617928655741115e-02 -3.790858599865761652e-02 -7.485039922232933352e-02 -7.456580656087120375e-03 -3.703378420504156027e-03 5.056326055694729954e-02 9.735774371931410487e-02 1.029562132508426986e-01 -2.334291014103282227e-02 6.903465686182642079e-03 -9.570754662945143987e-02 8.032677222554390761e-02 7.803850550945970466e-02 3.917696035918891151e-02 -6.295918078802874296e-02 4.440501304590283027e-02 -5.848512065756418521e-02 8.821659623138965178e-02 -8.619125304077653038e-02 -7.653449279646570846e-02 7.331680198562173789e-02 -2.615286705875752293e-02 2.644936588719650275e-02 -1.056350805263663387e-02 -2.092179166066557641e-02 1.884320487609747810e-02 5.273998475384282514e-02 -9.053198179714552762e-02 -6.037577239162914000e-02 -6.176995914117350273e-02 9.104016882615140194e-03 -1.177613243888674631e-02 -7.365797809072668900e-02 9.420575800609573905e-03 6.772082185251670355e-03 1.031257794511876436e-01 3.671833745990905548e-03 1.849612626364607534e-02 3.044069359881755588e-02 -9.263071446203971493e-02 4.706018596169831564e-02 3.311162786702808586e-02 -6.988148789153357521e-02 -5.468098822150411348e-02 1.033448396811224579e-01 9.638278525073760983e-02 -4.951874081827944973e-02 1.299845116204632889e-02 -7.789594638269371762e-02 -7.596992351571513202e-02 -7.453590506631893597e-02 -4.383638860362359946e-02 -3.096874307657409425e-02 -9.902066465335574927e-03 8.364830306839621255e-02 -9.933529488027523224e-02 -7.111535469887370065e-02 2.486069632352680761e-02 -1.797450424114761802e-02 -9.926001237744977446e-02 -4.639688069946017873e-02 5.481432035208856635e-02 -8.074196459539091653e-02 5.102776307747798612e-02 4.275276690058580492e-02 -6.670786607531396795e-02 1.156053632019380523e-02 -3.789181880273913977e-02 -7.215065871954047527e-02 5.427146503043517312e-02 8.042241278822291617e-02 -7.277518072638107516e-02 -8.801667933016857348e-02 -3.095145959987410933e-02 -7.890229231342874017e-02 8.110300140871916363e-02 -4.715328368437700021e-03 1.016554609238317225e-01 3.459583724660592746e-02 7.534968596364535753e-02 -5.823777990589552173e-02 3.940701502718661764e-02 -4.457333861942242709e-02 -7.329137135371452220e-03 3.892391086822744994e-03 3.730812503048987205e-02 4.739079517926642754e-02 2.515879097287980828e-02
9.205659905625118711e-02 1.547457039822933839e-02 -9.682726512746270275e-02 -5.785311157282693739e-02 -4.011924362787289144e-02 -5.651940992807744091e-02 -4.191546899371393492e-02 -7.856500236761548850e-02 5.992582382844657829e-02 5.882979401894878474e-03 6.940724596478684699e-03 5.478386368494613662e-02 -1.772528700548221814e-02 7.322250845591290330e-03 2.802280758063992877e-02 -4.909550210403489795e-02 3.665095915481765554e-02 -2.947093277883676074e-02 -8.211231897265440505e-02 -5.788016624576310803e-03 4.854318771388467513e-02 5.476434612666301882e-02 2.047293571760933246e-03 -5.049615375138823137e-02 -3.590817710147137243e-02 3.824962804433681453e-03 -5.672609539768249526e-02 2.978398199665011764e-02 -1.150518264626495119e-01 -9.657947405333217050e-02 3.524687539771290123e-02 -1.237040017863430541e-02 9.309624764328974789e-02 3.118537107937243910e-02 -1.026187547596380811e-01 4.259522393976686999e-02 5.401012068554759959e-02 9.336720274862723989e-02 7.959182259961822270e-02 3.706446772237480952e-02 1.068228109020042671e-01 3.840658838899897037e-02 -4.006882576804920992e-02 -1.493451989561897942e-03 -4.259902896175307013e-05 -6.279539018252883187e-02 6.143875521850912513e-02 -8.274212326509230997e-02 8.899991540071710769e-03 -3.197366127164276428e-02 -6.239804052489694719e-02 -4.375266472884897784e-02 1.187463740651914165e-02 9.740777513635996698e-02 -1.055689636264496231e-02 1.082486725691672730e-01 -2.092352875384938943e-02 -5.897588116102955164e-02 7.177455542480196127e-02 1.066088740168486260e-01 -3.872448567263067631e-02 -5.939991321743038483e-02 6.780550438976222505e-02 -5.981760196637200822e-02 4.873065765622572321e-02 6.848685413256847335e-03 1.042347401177153021e-01 1.040116393762424013e-02 5.412399617643962046e-03 6.556889574478338978e-02 2.519898607665570223e-02 7.308370326553535745e-02 -4.208016758281914182e-02 -6.487754973899825806e-02 -9.967711333429235543e-02 -2.293073763541120941e-02 6.220530651841475918e-04 -1.035784713274917612e-01 8.524413394427109159e-02 -1.037741361454747741e-01 -6.588174440797432696e-02 -2.845334006928437395e-02 -9.533214539197845672e-02 6.427449917721632378e-02 1.025249027320422439e-02 -7.055407953724493475e-02 5.155040518892164275e-02 2.970295954129080485e-02 -3.933528573407763657e-02 6.993031755122765258e-02 4.334698220910196062e-03 3.159026022007989376e-02 9.317586532660798726e-02 4.580849301396451752e-03 6.357463010630069744e-02 -4.088798338363305862e-02 -9.353074794702065375e-02 6.023985383382503972e-02 -5.471502658881848696e-02 6.007053682507138698e-02 7.698673123515055450e-02 -1.182760482249715570e-03 5.793452270494085093e-02 4.553792490156052114e-02 6.830052364895568273e-02 1.248666916235774069e-02 5.629062088286797272e-02 3.661708142174473907e-02 -1.153979047564738236e-01 -3.014278450829384337e-02 -1.019961518145512669e-01 9.265285789107272074e-02 -9.617697442030748167e-02 -6.149015194262784367e-02 1.062097769223863813e-01 2.133980785908034736e-02 6.058665657922236020e-02 5.015516738600470092e-02 3.476191185372960041e-02 3.611133065861835134e-02 -1.753776362712490197e-02 -3.898501838612592613e-02 -9.148854738726719393e-02 1.105805423423733697e-01 8.332771070746644582e-02 -4.441058651846084560e-02 -7.364683089051264619e-02 2.638715199742248246e-02 7.229354410679622589e-02 -1.457735073063917003e-02 -2.441637667556459737e-02 7.934004751845179226e-02 7.147206821896442963e-02 -6.951969089193812956e-02 -5.123483003671461256e-02 -4.606611680677110549e-02 6.443358837213135348e-02 -4.420734012425478476e-02 -7.056469092556058587e-02 1.071977068483918050e-01 -4.747616637157770630e-03 -4.297718401576216402e-02 7.520623143050962633e-02 8.866617458025027876e-02 -2.518150395470695503e-03 2.587970848540632751e-02 -2.264583329016001817e-02 -7.205538415316002990e-03 4.502658846518427238e-02 5.278974101789446483e-02 6.347541560807723471e-02 4.033204551476978969e-03 1.000733187347200778e-02 6.800006500880358129e-02 5.235106335606056621e-02 -7.269898677494275596e-02 -6.255806434692294526e-02 1.074523271949150149e-01 1.641164090420213842e-02 9.259528466304330074e-02 -1.142774773440094066e-01 -4.414928789555869204e-02 6.588660112760131617e-03 3.001774637702662313e-02 -9.341907963688443617e-02 -2.487546663502648164e-02 -3.256107419515140433e-02 -1.137680689213207419e-01 1.014061253791742612e-01 -9.032496430467903958e-02 1.395194344002567526e-03 6.431686100731678901e-02 1.013725442257424197e-01 -8.032174006775107816e-03 -6.779015221598408414e-02 -7.618308468059738388e-03 3.966974921214692223e-02 2.090644961158930060e-02 -3.274384742267225784e-02 -2.186557309408152655e-02 6.063225134376233616e-02 -5.348612265780447114e-04 9.931941011345019055e-02 -4.851880025737885516e-02 -4.140493738284693054e-02 -5.562180808008019423e-02 1.089138837748366562e-01 9.071065849366238831e-02 -5.717508466391262728e-02 7.252609841335093399e-02 -1.647061041996118400e-02 -4.610001455029751755e-02 1.096068160417605075e-01 3.640075834491744711e-02 7.470033310438219110e-02 3.308503788438652699e-02 -7.596875216584882129e-02 9.784560696306474070e-02 -1.634287983100662575e-02 1.529987690955021337e-02 4.304921479897994702e-02 1.716042334981654482e-02 -9.172094486304124827e-02 9.773354977960242718e-02 3.007912881698089624e-02 6.244670282578287240e-02 7.818726014148506820e-03 1.009513725249259058e-01 -5.966148614405431157e-03 -3.053948796710728025e-02 9.954053936000982483e-02 1.733010641134768298e-02 -7.178146551275388365e-02 2.647787832902210453e-02 5.218093093123870457e-02 5.821203018583867572e-02 2.690353845815500813e-02 1.064831444326427429e-01 -1.129677213816472903e-01 -1.441816954647896082e-02 9.930105809698036579e-02 -1.157274018660555542e-01 1.948326835831403619e-02 1.677796962986841806e-02 6.097565840886985666e-02 8.529962926854769978e-02 -5.424544958712164411e-02 1.049891106696670684e-01 3.680850937425506758e-02 -1.065490967148496476e-01 1.078409715568543065e-01 9.268040568924487688e-02 1.186058075858912285e-02 -1.005993083973975438e-01 1.990173758887472250e-02 -1.040672486844140959e-01 9.569195257840326652e-02 -3.418703715899926165e-02 -4.404317694980743048e-02 -7.607192431962904455e-02 4.518562120129502452e-02 -6.913940441212858279e-02 1.566625879127237463e-03 -2.722842458900918278e-02 9.332122044900151292e-02 -1.409544269813491069e-02 -1.018635999454398783e-01 5.325261620548601971e-02 -7.469730338716236429e-03 -2.797217681188389482e-02
1.123498603015194719e-01 4.863436009765573220e-02 -6.146286079686201151e-03 1.049755041782335502e-01 -4.012770152781193651e-03 -7.568553574079291135e-02 -4.898502304425694787e-02 -8.749241176509225948e-02 -3.309102073886401735e-02 1.087877319407033472e-01 1.988387820967009098e-03 -5.997221178610011999e-02 1.005301608380372580e-01 4.914990216383718913e-02 1.814453733009618180e-02 -1.805717403113576286e-02 -2.952300507535216695e-02 4.524730117629371245e-02 -4.592251286162760127e-02 6.483983060505091323e-02 7.211978618912168182e-02 5.748172669207748248e-02 -4.749755210891352941e-02 -6.083216947633958427e-02 9.087363256245682697e-02 -6.161326598135398458e-02 7.155253715892835598e-02 -2.218678271146018455e-02 8.812069087061734363e-02 -4.640545952221028503e-02 6.028856073719689179e-03 5.458186428829238379e-02 -6.899500263744801076e-02 6.281134845018220003e-02 6.143917742373891655e-02 -2.895438584746185678e-03 -3.685757501168373737e-03 -8.558719582883496033e-03 -7.078793569783582706e-02 8.209250887078194114e-02 -1.757945855846694549e-02 1.060868174611515474e-01 -1.171969705767706982e-01 -9.676091161638637750e-02 -3.447859396666054510e-02 9.806398698148133253e-02 -1.714879052338264681e-02 2.003894802165780489e-02 -4.548837344108912217e-02 7.690976429786125501e-02 1.952040717884160476e-02 -4.553242098703441654e-02 -1.699381740599188381e-02 7.030596113675673109e-02 -7.650158342739850348e-02 -1.057200458252323394e-02 6.833028393773862841e-02 4.592818878440657615e-02 1.072842841211941456e-01 -5.546969016978090666e-02 -8.926953497985506969e-02 7.205187633057365260e-02 -8.706193854314976666e-02 -8.301649419849077560e-02 1.513204748674595868e-02 2.577380589134688205e-02 -8.154608001381191684e-02 8.414417824729857054e-02 -5.773510491569799896e-02 1.202186838397003299e-01 8.720965486693382784e-02 -7.268546319421426150e-02 -1.065839592599835406e-01 8.391899818867690208e-02 -3.408518167709797403e-02 -3.429375488076072398e-02 9.846095626117674915e-02 -9.141188059386384790e-02 3.816960965344796605e-03 -5.555705814402143311e-02 3.844492231614500544e-02 5.852106197731224424e-02 -9.026743074249322929e-02 -9.383204356021759840e-02 6.175351567813052583e-02 1.002417041864343550e-01 2.794867719046894433e-02 -2.010609806188026066e-03 1.162956846157581908e-02 -8.327997937945790657e-03 -7.271693313206789577e-02 5.241440897745414107e-02 5.273764908833056958e-02 8.499082159813863002e-02 4.727522386280277877e-02 2.364536652936032740e-02 -9.253853594026813234e-02 2.576721738361486408e-02 3.225795016665733428e-02 7.712700481990032719e-02 8.811839889630133926e-02 5.406170619838279040e-02 1.831046658646637293e-02 -4.999761130485725485e-02 9.392022428249728605e-02 -1.013723811092377414e-01 -4.790644654166058281e-02 3.517799474859287234e-02 7.106553392563733085e-02 2.979719596128558787e-02 -5.629951134197536122e-02 -6.569266945074700437e-02 -3.411704651659908105e-03 -7.631418509735785061e-02 -7.939564612592575621e-02 2.438834767383558574e-02 8.810184269814548552e-02 -4.511885470035197770e-02 -8.061468473350766328e-02 1.075830032723989194e-01 9.787805713339171876e-02 2.154949236438231247e-02 2.758442327511264128e-02 -9.171313956556562119e-02 6.095906097697892378e-02 -2.304335042217873011e-02 2.597570070644853943e-02 -3.630724800783138861e-02 -4.288392955506937360e-02 1.084890076798894903e-01 6.881926598865023559e-02 -8.689177048233621969e-02 3.272390850058728290e-02 -3.175705324589071094e-02 -2.037737895194887891e-02 3.028233875887020518e-02 9.843850001075540174e-03 6.896307545039981335e-02 -7.494814006044148158e-02 -1.421536350155247486e-02 -9.363448439907601228e-02 8.302849397834508038e-02 -1.071285572275804121e-01 8.550142646154872128e-02 4.342961330619289628e-02 1.071722787953374584e-01 -4.787421440832852898e-03 8.013751764845023634e-03 1.116680431279227365e-02 5.734236417116563705e-02 -7.678615440217589905e-02 -4.549350649246395456e-02 1.105445897659284027e-01 8.282110968832880060e-02 -9.996623034629799343e-02 8.442475838188502613e-02 -1.091830939847214799e-01 -5.252094187249472385e-02 3.653761083406637661e-02 4.458686813334286625e-02 -5.970432968340803198e-02 8.698022365784310872e-02 -1.454971078282256240e-02 -3.626973156271316029e-02 -1.105636224823955405e-02 -4.719210803193976678e-02 -1.115975910002779681e-01 4.291665470648566016e-02 -2.679017858134491968e-03 -5.198047023012554446e-03 -3.141507657259291764e-02 2.140281154974423700e-02 -2.199313421355131998e-02 -2.419356040609357480e-02 -3.287615683618815010e-03 2.513467370929253764e-02 5.316023786702528398e-02 1.101434128050172642e-02 -8.324748981463182818e-02 6.069266219034314541e-02 9.507747537309299557e-02 -5.351462609523933989e-02 -6.675483998119390028e-02 -4.582894288768989306e-03 -2.059079705120715753e-02 2.503871293765920492e-02 -8.043210997686074670e-02 1.140180264682850719e-01 -6.637029403682644102e-02 -3.937345319767011909e-02 7.775419438329924868e-03 7.317795744603693142e-03 -4.368242867565563271e-03 -1.242927270245738902e-02 -3.559899738467105224e-02 -3.090715359756560782e-02 -8.775456838527306846e-02 1.161882148226494466e-01 -7.823610110125286954e-02 4.872879655059460247e-02 -1.314984472944837751e-02 -7.239951968387668690e-02 -3.138316425979600921e-02 1.877794190683434311e-02 4.359713248870332458e-02 -3.497385374843419575e-02 -4.889278955227290696e-02 7.193992361503470656e-02 -3.109509028370638362e-02 -2.493256653334196410e-02 -4.391716908917767809e-02 -8.237320476667333441e-03 3.652301587702495855e-02 -7.835702487196237465e-02 1.205241221072586855e-01 -7.819333961962866494e-03 -6.328967432157996120e-02 -4.368949312897080217e-02 -7.611284904146398134e-02 2.960253602273143006e-02 -6.062129505900217680e-02 -1.480657894172911215e-02 1.156665473281178191e-01 9.036406556908413434e-02 -1.922188421362823994e-03 -4.485189814053089363e-02 1.031781518225936001e-01 1.774750912047217549e-02 -9.371541971374058866e-02 6.798778886616613226e-02 -9.265934663169645910e-03 1.453156859117049615e-02 -1.087248301600932110e-01 6.278151298018957993e-02 8.005793131965328879e-02 -8.265899132068929567e-02 2.317256044636490167e-02 4.604664126358795628e-02 -3.891691938523410971e-02 2.360597866301193670e-02 -1.598547266871638492e-02 5.765128978607785004e-02 8.009242212166189923e-02 6.132508344883416673e-02 9.029260902155191587e-03 8.547682196877071092e-02 8.822126228825086236e-02 -3.840863970429200108e-02 1.811793435101346356e-02 9.805295577828300468e-02
-6.153602503800997131e-02 -5.694933246512277891e-02 -8.121224518516384494e-02 -2.320252612390451968e-02 -5.902356313913668939e-02 5.426232206455017942e-02 -8.136202086429965286e-02 -1.195286496800141568e-02 4.535563351366617840e-02 -1.161905610972098837e-02 4.507383367854214326e-03 -9.556574583725040151e-02 4.206681138584968810e-02 8.052987328263862266e-02 -5.778963579589591060e-02 -3.662815362820071030e-02 -2.322755839046804910e-02 3.771734142506442955e-02 6.170629592316310280e-02 5.066938778023311746e-02 5.868732962450107227e-02 -8.673433993825600818e-02 -1.507822235977572534e-02 -1.021155778127956631e-01 1.567870866439156560e-02 -6.908749311679038274e-02 -5.556532556849454185e-02 -1.050273219136059893e-01 -6.009622735731832283e-02 9.781759803291516231e-02 3.459811768650158936e-02 -1.133527964235843399e-01 3.360363145131410600e-02 9.819589638238281071e-02 7.575884763014721635e-02 -4.969903037756651099e-02 1.061652485225155346e-01 4.048460774417300678e-02 -1.991495721194561086e-02 -9.832512153659472842e-02 -9.377172562027492886e-02 -7.271171779693329229e-02 3.878458305262925260e-02 -6.377358338564621809e-02 6.100567439524831603e-02 -1.966667550704685741e-02 -4.094149035962672822e-02 -4.102946363832653265e-02 -3.532351509130043921e-02 4.650482978797586264e-02 -4.731872045286900086e-02 -2.685863793485486137e-02 1.076731630010465540e-01 8.161332057484799174e-02 2.193101213354040763e-02 -9.191419963121734427e-02 3.772214651427516219e-02 2.130832444081122087e-02 -8.085581760298440890e-02 -8.844821961167829982e-02 8.071902330246584489e-02 -8.049430743165009172e-02 9.235058893880537800e-02 -5.101407924956975759e-02 9.670127774496636852e-02 -9.851083219605986235e-03 9.291070786014393734e-02 1.743419030260464492e-02 -2.027409150774223123e-02 4.944911770136183049e-02 4.296551316802638132e-02 -6.114159778179419774e-02 9.163807271533626342e-02 7.819436154939525541e-02 -1.033332599547591435e-01 -5.263264821564348633e-02 2.588092876805693499e-02 5.077846634646761281e-02 -5.755911492024074622e-02 5.941540756928462112e-03 -8.104166242757857019e-02 4.011222488781521905e-02 8.116820140556061866e-03 7.799362140774013241e-02 -3.024297046112972565e-02 1.030688829311680321e-01 -5.011355126744965194e-02 -6.344900850703316664e-02 4.774984924419408555e-02 3.916343609930284658e-02 -1.060311320779976918e-01 4.660117220792508314e-02 8.918562717291626807e-03 6.288097901005204604e-02 -6.132827387088554336e-03 -9.868452337136994490e-02 -2.262861140575362154e-02 6.339799998354780919e-02 -3.277584952217214159e-02 -3.639029283038528600e-02 -7.559181086398028548e-02 -8.463029276790862143e-02 -1.018781952929830904e-02 -1.539033683116211755e-02 2.868250062053291985e-02 5.640120933879084510e-03 4.751281117099628165e-03 -3.754620542604995836e-02 1.100384626858438714e-01 2.299833327615544501e-02 -3.463459275606489696e-02 2.539246454226911157e-02 -2.126130119759736536e-02 4.644101694117809542e-02 1.026655586913509388e-01 1.032610085016622686e-01 -9.711346454282779317e-02 -1.237360815972932300e-03 -9.650535005386398635e-02 -4.922801380770863711e-02 -5.900950640874394471e-02 2.870419357184898421e-02 -9.082440409963150885e-02 -8.212466421115008353e-02 -9.458768006402656914e-02 -9.546127549244202981e-02 7.214733140315539306e-02 -8.054141132023465155e-02 -9.581450560515912540e-02 -1.089645997404020128e-01 6.887418207361840905e-02 5.329536851453492430e-02 5.817307088129586301e-02 -4.397615829633051698e-02 9.572615319859094363e-02 1.003228896515111629e-01 2.693188240993073246e-02 -9.691474339287584061e-02 1.120095968453188595e-01 -3.365058077510546530e-02 -5.173121925434899515e-02 -4.388297981563116928e-02 7.748652924372151363e-02 2.967270700387610038e-02 7.300220448529448625e-02 8.055462504480032093e-02 -8.973007865833458607e-02 -7.656433721435901285e-02 5.907059273155370466e-02 1.243248097668646791e-03 -2.564357399022585554e-02 -6.071536034161237848e-03 9.537632711732581259e-02 -5.956864493375434166e-02 9.345910239196880687e-02 8.161491453494283677e-03 -7.873061399109672343e-02 4.744000108781570857e-02 -5.219140096569634818e-03 -8.395382070905337002e-02 3.657500497557550356e-02 8.354617194978314343e-02 -8.027776071445757999e-02 -3.480735520256600379e-02 2.779140126537672090e-02 6.791123497481444532e-03 1.429079347792866321e-02 7.333635950088760944e-03 -9.112903163318657532e-03 4.638405668364346118e-02 -5.815163636388769042e-02 -4.661092351833814179e-02 2.848715142927773364e-02 1.342708086451616274e-02 -9.381874926302190276e-02 -9.625423479795626458e-02 7.528643766773815416e-02 2.561633182016880700e-02 -2.429069526181359268e-02 -7.378617945158517932e-02 -1.303266022558943055e-02 -8.155762380897690900e-02 9.291666729591166463e-02 9.945895136866042541e-02 4.929810991419324162e-02 -8.374233609670238276e-02 6.169889131942477012e-02 6.999279041110570421e-02 -2.566196951891147604e-02 4.050831754526234424e-02 -6.660432565885869571e-02 -1.009615388699090927e-01 4.300178897789201475e-03 -2.275620535708020031e-02 9.378689442121702913e-02 -4.099983688965350842e-02 6.457371395411537485e-02 8.557511466652978349e-02 1.371048601438588227e-02 7.154214343236135754e-02 -4.313161524707216643e-02 3.735393944276913978e-04 -4.735568540754300088e-02 8.924017568530716663e-03 -2.335045365406082651e-02 1.481130913360433760e-02 -6.457796904085269518e-02 -4.945032338211553108e-02 4.656259800498939450e-02 7.882411376889553178e-02 3.064322356341236259e-02 -1.020215528606509825e-01 -3.078805470285770479e-02 -8.317408308321188118e-03 7.250912461530129027e-02 8.129285834850270842e-02 -8.997476221889619263e-02 -9.044889092179403400e-02 -8.278027340533872236e-03 3.309727559121943691e-02 -8.343060075348586457e-02 -9.299785496056403589e-02 4.126254464988994564e-02 9.779341898311515180e-02 8.419093696345716915e-02 3.187282191053558700e-02 -3.658749657861205123e-02 -5.626672076075763668e-02 -8.475670231033172186e-02 -5.117973363188119129e-02 -5.245841261293129193e-02 -4.777428093162851969e-02 1.084447732799048540e-02 -4.858482962501942809e-02 -3.934692742581097358e-02 5.681694626424307892e-02 1.848906103078833824e-02 -7.309659292710976586e-02 3.087569327397125460e-02 -2.610331493443862963e-02 1.018390824663691595e-03 8.500766243173771275e-02 -2.668139195022622978e-02 6.110920392680148361e-02 -1.093976024478221232e-01 3.495090253765207461e-02 -1.417696457968199708e-02 -7.016124375234862598e-03 8.240015694413289904e-02 -1.049719564910648467e-01
-1.677371847654392928e-02 6.218473805957863004e-02 -3.404277834036443379e-02 1.541687089272265887e-02 -4.553618762692801525e-02 7.915187774838813861e-02 -5.454781198731711855e-02 -3.453113087233006945e-02 2.308660583274504616e-02 -5.008660100403960168e-03 -2.259751244493684794e-02 -3.406911729761897493e-04 -7.751177906175419144e-03 -9.701116099782797556e-03 1.013926995383495205e-01 -7.620999730177455654e-03 2.339060192371741898e-02 -5.371037604138841765e-02 -3.636587343548063067e-02 -1.370459476327546286e-03 -6.890742483265345497e-02 -6.247105934955563683e-02 -1.145501697015709613e-01 6.918115418675722939e-02 1.903924307769974417e-03 -9.532451547157580474e-03 -8.032218754610636821e-04 9.208855520943924622e-02 -5.915819405374800333e-02 -7.761217644878831701e-02 -1.304215835259507671e-03 -1.035216634391454213e-02 -2.802819953046331233e-02 -7.982135592469981333e-02 -8.345109376620594988e-02 3.279355923690792374e-02 -1.210487587522093324e-02 6.637271142390009648e-02 3.964016448845109411e-03 -7.463615262499831426e-02 6.711723159380456050e-02 9.326666151489248179e-04 6.083391700889068804e-02 1.080599120712081307e-01 -4.312558209269754493e-03 9.482707499965439824e-02 7.080348241773014306e-02 2.910300428660530722e-02 6.727167414865053811e-03 6.423523479129827907e-02 7.797980915561618376e-02 -6.188006508825164009e-02 4.473771632835046169e-02 -9.008893567779097111e-02 -8.376369677389627899e-02 -2.540086758087634414e-02 9.253705879803426904e-02 -5.251381232843027602e-02 -1.037202712206175409e-01 -3.506374925010068144e-02 -7.055750286985489061e-02 -6.902118392537322233e-02 -6.758380456722923400e-04 -1.009059453670019674e-01 -7.114558682507333628e-03 -7.047623556915122434e-02 -7.352969712400231339e-02 -3.222102781993438358e-02 -5.010872337130815868e-02 1.123831903976054009e-01 6.002977800479048116e-03 6.211588162826140597e-02 -4.458645425904686488e-02 8.778216250515499114e-03 1.561297340757387790e-02 -5.754714753898138718e-02 -5.285721500498743314e-02 1.043803920723949171e-03 9.160119037554209642e-02 -4.315264497256551812e-02 -6.831241691989259346e-02 5.438831672734247696e-02 5.294720141112980311e-02 1.045114171116277441e-01 9.384917540832900251e-02 1.282562595430715045e-03 -3.998254585356038338e-02 5.584796484706979619e-02 9.462928072672416313e-02 -8.638347752322347861e-02 1.073118134536709539e-02 -1.074918584965487284e-01 -6.338723040356647465e-02 1.639685233570421785e-02 5.662481168275483590e-02 7.308465583884668493e-02 2.581420272561467388e-03 -7.752032158298476083e-02 3.545519480169495585e-02 -1.874984386832699232e-02 8.153960474349276899e-02 -7.489493721232980128e-02 -8.904468644693525059e-02 5.768915502131379686e-02 -8.006127991607082939e-02 -5.344804398848000682e-02 -1.006436832791115198e-02 1.663486324800585170e-02 -9.865318852197585420e-02 1.155366093095690355e-01 9.419528721066514065e-02 5.703698843824997478e-02 5.015755672220097855e-02 1.811544257696054427e-02 6.044752697587209983e-02 -5.445553021596178517e-02 -6.776260843098015109e-03 -5.470401197098268692e-02 -5.548280510858092512e-02 8.919237617567686571e-02 -7.213990904282377437e-02 7.213670588591047927e-02 -1.038880671451914393e-02 -9.319810096447528336e-02 -6.521842763652270503e-02 -3.357258633980675366e-02 -9.476261160974891462e-02 -8.144745056861034394e-02 -7.496968276285397026e-02 -1.721048603947545469e-02 9.156912115734762436e-02 -3.978008541505371684e-03 2.010194556488101997e-02 4.470082923704970373e-02 -8.248649886031737821e-02 2.197299109548763590e-02 9.664131312801894913e-02 9.608701533487425117e-02 -1.134926390445547828e-01 -9.651032159928164822e-02 -9.515028951434509330e-03 -9.811947154634537149e-02 -6.974392541378374166e-02 -3.804609223536813134e-02 -2.482812191161164542e-02 -1.188102056900014608e-01 -3.525737641461171995e-02 -6.335460818704655162e-02 1.034003153441250128e-01 8.844675168722280698e-03 -9.338151964048861664e-02 -2.628203733244614468e-02 2.492622938796007839e-02 3.060574148403476594e-02 2.061274605763467258e-02 4.425528166426999366e-02 1.277944579600298267e-02 3.932628485444159688e-02 6.547779464846034680e-02 -7.770275903530934891e-02 -4.435246088473577403e-02 -1.074582427425714165e-01 1.255136828972600212e-02 9.278479805340020259e-02 -4.711669151179621873e-02 -4.077619947937585754e-02 4.130454692727617699e-02 -4.543362183531077236e-02 3.609266539096046833e-02 -5.824899231670205291e-02 6.876174998188842868e-02 -4.810162862200833417e-02 -4.058783036475584888e-02 8.099926299138154873e-02 -4.078114595951293220e-02 -1.069904373831704336e-01 5.704787874480871795e-02 5.244919036525729286e-03 -2.256042239614410028e-02 -2.124166784597885868e-02 2.767149556646482725e-02 1.068559898682424625e-01 7.704212703720034194e-02 8.665259748992011624e-02 -1.388385870889801733e-02 -1.030205411381901887e-01 -1.070017005504731444e-01 4.825751388182273477e-02 -1.635445356532787622e-02 3.726691135654809639e-02 -4.761826915410787703e-02 -9.490705203986425642e-02 -4.297763883485931783e-04 -1.073799521781355071e-01 -9.695685797120894012e-02 -7.266929609256458922e-02 -3.037669759739365649e-02 -1.744508522959696897e-02 -1.040119729716736524e-01 -2.607247898452193582e-02 8.488792981093741530e-02 -1.025746248396560423e-01 4.897529484256837179e-02 -7.188830330156795179e-02 -8.946459825358007989e-02 -5.579724585948033638e-02 -9.398526411062466113e-02 -9.802779878565465177e-02 6.111526233032548577e-02 6.253666196709574410e-02 9.310925427790611719e-02 -9.604362499060492553e-02 1.494680336585401358e-02 2.981711889562151108e-02 -3.582125467684357627e-04 8.915711447648762278e-02 2.401413180201702330e-02 -8.978100459870068384e-02 2.023074114897032219e-02 3.008081189122266408e-02 8.324133445582286572e-02 3.547576918022171677e-02 7.755340309750984040e-02 -4.907138799715389521e-03 -7.526725515066059850e-03 -1.075027369333778939e-02 1.233657781985787565e-02 4.783686153587256989e-02 -2.338875951594878919e-02 -1.200846330203323292e-01 2.110673590964599888e-02 -5.512086722901728825e-02 3.733125584599856356e-02 8.287006018958696651e-02 5.201293090806231173e-02 -1.136948960205204084e-01 -3.150691618373722969e-02 2.903341285425731916e-02 6.215432866174121912e-02 6.829700606395702756e-02 8.776110362044345359e-02 3.712935948774909178e-02 -8.892605685953514083e-02 -1.138448096624938427e-01 -2.506030731154356914e-03 3.191352536815437319e-02 2.628174431992366666e-02 2.948524875205212406e-02 -6.238225212048607859e-02 9.671832195111436381e-02
7.590410191897944969e-02 -4.804166575142154727e-02 2.453752966141049818e-02 7.242587500599050043e-04 -9.294858785143612911e-02 -8.221978574732879963e-02 -1.574399884775203387e-03 -3.164106374929560872e-02 -6.810462495794242233e-05 3.662043470641426768e-02 -3.331982338352085932e-02 2.044161333404815456e-02 -1.021522042186561174e-01 -3.340367177843461821e-02 9.671260565077112459e-02 -3.497788504747699305e-03 -6.842023128522625730e-02 -8.842399808568024433e-02 -2.497623153174985400e-02 -2.901049653742188497e-02 -8.331433366204676894e-02 -5.186072905759279983e-02 -8.994113899130569412e-02 4.340118211972161799e-02 1.000499503262888973e-01 -6.431724846619502056e-02 -3.085308847945082700e-02 -7.329121272250735397e-02 9.459608559399877714e-02 8.562327697616153865e-02 1.064281001529665954e-01 2.787408834980516226e-02 4.707262037024792511e-02 8.914036254417032068e-02 1.743978669437041412e-02 -3.058522518288555800e-02 -4.643514186848957809e-04 7.238817629614202609e-02 4.379435084488370045e-02 -7.718025374540236905e-02 -2.115413844219605349e-02 8.611903823429482852e-02 -3.694298557119464477e-02 2.588874459537737413e-02 7.999553408159604251e-02 -2.345543574438066839e-03 9.798818664616540386e-02 8.221290584113426919e-03 3.146043284116964434e-02 3.175586771493170337e-03 1.647448980653952455e-02 1.871183952185522664e-02 -9.085782899962635550e-02 6.959962213267323339e-02 1.020138302574809391e-01 2.855879969198711274e-02 6.748155512796578936e-02 -1.099126879699207499e-01 4.309230600557970026e-02 1.019428008812465342e-01 -6.246215429857726598e-02 -4.602605250392495517e-02 6.022266935058206982e-02 -7.558016453212494656e-02 9.962632298992379898e-02 -8.074650550508086222e-02 -1.055284522425943283e-01 -2.812032119677565500e-02 -6.542500313923255151e-02 8.131548567469827626e-02 -7.269785018026007732e-03 -8.767756195028585109e-02 7.188510240285266029e-02 1.077596510255179711e-02 4.799799165012305635e-02 -9.427777994339707479e-02 1.119426438146758906e-02 6.947890191803690607e-02 4.533917304409103288e-02 -8.190753117064399069e-02 2.964071177046524730e-02 -6.236622040346610080e-02 -7.165789362783549221e-02 -2.870549661051982268e-03 8.697745589482629158e-02 -1.096462779926504413e-02 -1.819606651233290559e-02 9.711132270106681563e-02 -4.284376498517193654e-02 -3.226705423379947618e-02 -3.746370455941905320e-02 3.275277182029075196e-02 -5.304518090643065009e-02 7.298029573340975018e-02 -1.165322201085842030e-01 2.369464051710579167e-02 7.132297165457725241e-02 -2.210074112523339324e-02 -4.108593046409649355e-03 -7.036984083976992321e-02 3.460559259430600471e-02 4.172945499758187737e-02 2.951015542349688658e-02 -8.010865146359234801e-02 -1.154762958617267521e-01 9.688656138772729770e-04 3.123520822682445547e-02 -3.931463908097164450e-02 5.728920340262624172e-02 -3.122700775113401023e-02 -1.054141192404318417e-01 2.404575317550244201e-02 -2.246189237185123450e-02 7.724124455014642898e-02 3.838135969008569896e-03 1.839843463699900386e-02 -7.588285566315007211e-03 7.306588083835291458e-02 1.147782291516239034e-01 1.056590403353066809e-01 5.987734774726641979e-02 -1.045687490010719783e-01 6.694779374571570296e-02 -5.283272737083020976e-02 -9.373850383974437206e-02 3.732123907680717778e-02 1.986032597068982872e-02 3.015954833682011130e-02 -2.432736178808727473e-02 -1.174798377844937514e-01 5.943824860745748617e-02 1.060499414620955788e-01 -6.602750639495617857e-02 2.314715330179236905e-02 4.706748992907849871e-02 -2.223817048248927924e-02 1.362201581979290144e-02 -4.723987027324767773e-02 -2.024282973883389375e-02 3.040458280583571010e-02 1.089655185138220517e-01 2.280866521320130957e-02 8.743791036969032759e-02 2.549744880431375343e-02 -8.438003984368695407e-03 1.048449293642719077e-02 -1.015747918126636978e-01 -6.023131437991064568e-02 -5.732364442218289280e-02 1.592451877850007552e-02 -1.668226421361632128e-02 -3.230891310376525494e-02 2.362648425035669339e-02 6.931874092425492628e-02 -9.466011272410589095e-02 -3.152091132659649853e-02 -5.666865674924606577e-02 9.869876080062214840e-02 -8.078440844287569644e-02 -9.545261552048640852e-02 -5.534554196412599242e-02 1.046153941001034260e-01 3.497721031641647799e-02 4.164785505897219964e-02 2.798638994990144610e-02 6.138425453585820424e-02 -1.940690638959126184e-03 -9.061567213874269222e-02 4.739834956311627517e-02 3.711848816089079184e-02 1.944373072450703097e-03 -8.586017019210714918e-02 -6.368529916863929774e-04 -8.818111597788388240e-03 3.095664722310766115e-02 5.489275752511244000e-02 3.268514914279444655e-02 6.527607848842012506e-02 1.248948889620997288e-01 -8.065124421528015175e-02 -3.455090230432933396e-02 9.366658389865423207e-02 -8.617623656623588091e-02 -5.925512467198624372e-02 1.643016699018625543e-02 -6.641211757714680225e-03 3.424695007542710723e-02 -7.555743241759700635e-02 7.372136100896202471e-02 -7.564153773741609521e-02 8.679980323708563761e-02 -2.073848818756437659e-02 -1.362641144703413340e-02 -4.722174462719456317e-02 2.952096426519699307e-02 1.241498198326007434e-02 -1.005921548196587467e-01 -3.383806304938299925e-02 -1.676274772810259529e-03 8.240822533335949440e-02 8.698618815878553928e-03 -9.695733543767168228e-02 8.344814754142902691e-02 -1.182294804645975250e-01 6.182393046800271907e-02 1.129061852438723035e-01 -2.362866297362680584e-02 3.502004556886734177e-02 7.060487196152284706e-02 6.933757909657942142e-02 1.711322274862096815e-02 5.041455836754554776e-02 1.043775367171343033e-01 -7.022746548629046903e-02 3.662688236487299243e-02 -9.875606098411129907e-02 -8.088377827700080069e-02 3.531572168047252686e-02 1.139298958121403443e-02 8.761452264334383677e-02 -6.459630917437023112e-02 1.050499001522163522e-02 -5.556108447404872752e-02 -5.414145893255582764e-02 -9.832156736743002945e-02 4.656933689040910346e-02 4.512810868012616383e-02 4.152836410236443454e-02 5.990340187629479562e-02 1.402004837516537990e-03 -5.286185644786038640e-02 -5.533516495679997871e-02 2.074547475555417811e-02 2.542620827205945705e-02 7.884124684299385899e-02 -4.588342926743265576e-02 9.818111568594076188e-02 9.752734647584021532e-02 2.952334944732638161e-02 3.910448299477114337e-02 8.460375295703566334e-02 -6.367116591359368860e-02 -4.158042183602125852e-02 1.002161520684811680e-01 -1.749214608705206356e-02 -5.443869046788668564e-02 -1.082609272027926367e-01 -1.099570080936098648e-01 8.488806919703703602e-02 -3.013622511080397970e-02
2.711588160368501917e-03 8.035399256086453446e-02 2.956036651130350065e-02 -6.092499755085314245e-02 -2.024485748137188137e-02 -7.245642684598731231e-02 -5.323458447478022354e-02 4.515104599023103682e-02 5.553549614957745822e-03 -1.003913405787400931e-02 7.527260131295925027e-02 4.084859566745576570e-02 2.166511378691117137e-02 -3.329135556750709157e-02 6.602610325988304829e-02 -7.943301718122039445e-02 6.724468920768712776e-02 2.779464870814788227e-02 4.778106844739638676e-02 -1.440075903731177775e-02 1.663449502760518117e-02 -2.023868068929206634e-02 -7.351225585863323253e-02 2.154262164371218216e-02 -2.378910892618293915e-02 -5.314460353053927083e-02 -1.528493136915469279e-02 -4.770418488709319421e-02 -7.631249596084802023e-02 -1.068923315627986342e-01 -9.298330591096463926e-03 -5.809606600403170035e-02 7.329488941482223407e-02 -7.808108912508357480e-02 1.539901657347621418e-02 2.382895961568775103e-02 7.438440456516173978e-03 6.922210801202602348e-02 7.475166721603736242e-02 -2.133181619825911569e-03 -1.020285452201395576e-01 -8.812516520385738072e-02 8.710504715109271268e-02 -2.492434633910111871e-03 -1.005642124702689905e-01 -5.123262076983506330e-02 2.026423901827241816e-02 -5.777580648733734309e-02 1.123000579013370102e-02 -8.279377068247885385e-02 -6.233751384405736284e-02 8.115511592925539475e-02 -7.553629623376234559e-02 -9.729424804680009142e-02 -2.777723008034500146e-02 9.489904108237757693e-03 9.216283590468546394e-02 8.997183141713736843e-02 -9.335336104789547507e-02 2.222536754429667652e-02 6.619504394773262357e-02 -5.406935559592558616e-02 7.367971363416582486e-02 -8.103831753603255028e-02 8.493445951556029272e-02 -9.082889933106810809e-03 -1.013536617198993878e-01 1.165756947410510891e-01 9.382296022353978082e-02 -1.968727729111421909e-02 9.308240256396183021e-02 -2.276189266306355777e-02 -2.520033984297744955e-03 2.101772267553401671e-02 -1.139465933980667450e-01 2.260276201759211373e-02 5.520229036628403890e-02 5.132397601352124477e-04 6.638545472048670848e-02 -1.967365944915175704e-02 -9.351154925600337064e-02 6.963916139312188855e-04 -6.542756157603059342e-02 -9.319184487144549500e-02 2.584155869663765787e-02 2.501439300456198209e-02 -9.636365879046865368e-02 1.653300965411882983e-02 -1.991545680838452403e-02 -6.694836697068858034e-02 9.224075129066833592e-03 5.468778195342484383e-02 6.137539966381724138e-02 2.147855752541450586e-02 -6.899061310154964988e-02 -3.806572970920991950e-02 -8.541706833599020665e-02 5.478962439164274112e-02 -1.417256422088402842e-03 -4.503939891255353406e-02 -7.548067605553218651e-02 -1.737940315595216945e-02 -6.307620107802867915e-02 7.654581995666868977e-02 5.949156088513552626e-02 -5.396817454907016504e-02 6.305449067119342499e-03 -3.238833549126822475e-02 -6.930609786363643721e-02 5.582673298021074981e-02 -1.426073965706754938e-03 -1.163471406373249306e-01 9.960434415364737004e-02 -8.948045858762494753e-02 9.626823395511877046e-02 7.053894004142099994e-02 -6.123844954979339866e-02 2.965376078708431562e-02 -5.635137290190390252e-02 1.036702438271168147e-01 -6.496397303683010271e-02 8.725166407011748781e-02 2.009985778482521225e-03 1.452828855182753537e-02 7.135725355704859718e-02 -1.027576853823655711e-01 -2.916817995108577852e-02 1.064590378039176471e-01 -2.736519382770743677e-02 -6.081876974210335962e-02 1.042011701056489853e-01 -6.203976370954911689e-03 -1.043192993860624362e-01 1.885802604758823886e-02 4.048705752827547188e-02 2.018021513820282206e-02 6.938681059612129831e-02 -4.555200044709765972e-02 -1.001041994842734872e-01 9.273414381382044658e-02 7.479565601448742718e-02 -3.571231341692993055e-02 -1.573059838150631801e-02 1.408999388241217836e-02 2.168363290531701015e-02 6.869092924758356256e-02 9.796196890631859999e-02 1.111713833293730969e-01 -9.045229363890193441e-02 -2.203219240836882045e-02 6.943433513811548587e-03 1.572785556023200207e-02 8.106980722319377664e-02 2.492648791283324020e-02 -8.072361131764406450e-02 -4.801924304066622351e-02 6.611890676360550334e-02 -1.183266079111195829e-01 3.227084736390768704e-02 6.516715639487173639e-02 7.765882268419015133e-02 -1.073740504450115402e-01 -7.007671503780671385e-02 -9.460856790795026117e-02 3.505610001400849551e-02 4.706906687286934246e-03 -2.471210421719093053e-02 3.038125783575534519e-02 -7.331118065841260578e-02 -2.145839232505554126e-02 2.069218975784593156e-03 4.061832778239320152e-02 9.616604491656045861e-02 -1.450331608621943831e-02 -7.899849809744149964e-02 -4.594172434815138595e-02 1.018187841811584032e-01 -1.391236666736011054e-02 -8.779947498645112799e-03 6.951054843707939190e-02 -5.840194942511481996e-03 8.690278476464123603e-02 -1.221350751163704229e-01 -4.551812403940153073e-02 1.727422543717426276e-02 -1.635603051399102392e-02 3.870375292687394664e-02 3.902471997886432925e-02 -6.662919526671090553e-02 -1.030604316706086338e-03 -1.595150038981507992e-02 -9.468565936824000504e-04 -6.074277509326974495e-02 4.169945717272038194e-02 8.368620053908057410e-02 2.446470721174645244e-03 2.231930461547007583e-02 -6.853332392458993949e-02 2.250203487840533520e-02 -1.068527130118821361e-01 4.837146987218773203e-02 -2.663368728622788825e-02 9.763150506622424174e-02 -1.139793798663232272e-01 8.698702941913603881e-02 6.353985113952682895e-02 7.018706941847679959e-02 -6.309203208001946950e-02 1.151092398247213766e-02 -4.118932262071355044e-02 6.319890854969874294e-03 3.703835577243322352e-02 -7.250909380227162082e-02 1.039745333630561902e-01 6.361868771888042062e-02 9.962939045547994366e-02 -6.034881264879646962e-02 3.463437579760150070e-02 -2.988328527181165553e-02 -7.125596401393796686e-02 4.903422105256249192e-02 3.190809721285448042e-02 -3.068090083936043586e-02 -1.124103867947743446e-01 -1.111356721886010007e-01 4.375522287539795191e-02 1.004777752888846853e-01 -9.346964377103830074e-03 3.005242994191628311e-02 1.365402096879325955e-01 -6.465298399997447543e-02 -1.033921934544687338e-01 -4.836621754304921972e-02 8.696150132900365773e-03 -5.134415252436149574e-02 5.939478535562585371e-02 -6.995270266567067685e-02 8.312916202535919341e-02 -1.079810146677926026e-02 7.711049998614821765e-02 7.141718946925232347e-02 -5.699837075328779978e-02 7.221356650163886226e-02 6.612958808189889348e-02 -4.408519538992087400e-02 4.419020808513666326e-02 -5.270227640472750774e-02 -9.690594041495756428e-02 -5.266248853810202857e-02 1.634134985899769743e-02
8.114174734367445019e-02 -8.295559782462218201e-02 1.797909603215899852e-03 8.694061239108145933e-03 -3.048333876914613438e-02 6.080690876275552520e-02 9.372174283580518572e-02 8.222494203910994670e-02 7.413169848337772261e-02 -7.741072144598748483e-02 -4.289717956530413739e-02 -1.443186886708994546e-02 4.649161911608595127e-02 5.858144338761990533e-02 6.423009681535261917e-02 -1.885640300003791833e-02 1.632825959133536384e-02 -1.826985250134262329e-02 1.082767046605244976e-01 -5.622152279244353734e-02 -3.936797774745735834e-02 -8.789733740640684467e-02 8.181931852628976376e-02 -8.437435301964522905e-03 1.145812911663649653e-02 4.843628024376515906e-02 8.160817320201695091e-02 6.700597614260322965e-02 -1.042366428537796902e-01 5.992118432367382619e-02 -3.731909681789235406e-02 4.994680742874656187e-02 -1.449924759104719886e-02 8.261247354439511803e-02 -3.234794021810585146e-02 -1.872909401892611583e-02 -1.219668757852892041e-02 -6.340288710369018643e-02 -1.181128378064371098e-01 -5.794022466310984332e-02 -8.530054340826886961e-02 -1.071623384761245801e-02 -7.116519050802971869e-02 4.834762360363522443e-02 6.422786107976463654e-02 4.373109758752290188e-02 -8.561724110769165785e-02 2.629541235087760886e-02 4.361403677236259935e-02 -1.466242282989439413e-02 -8.420133418312976403e-02 -1.008192286372459751e-01 -1.119144842445127103e-01 -4.343802734332420645e-02 2.624493249896995770e-02 9.476821369862604982e-02 -4.826848552183642810e-02 -1.544642437774765981e-02 6.092551852588364014e-02 1.111693113079375572e-01 1.844943039029434823e-02 -4.679959684350310650e-02 2.592643072727065720e-02 -5.791056693926512761e-02 -6.982794632443657667e-02 1.002940098406736313e-01 -5.992208125801469498e-02 8.709254634129862116e-02 -6.629097869889022387e-02 7.188572285304706266e-02 1.150434457114855036e-01 9.031110877032039186e-02 2.049275758342533268e-02 -3.306787207175259508e-02 8.158210273435589910e-02 2.694881421103446223e-02 -1.109167763174338933e-01 9.847171857295257402e-02 3.270530244621429328e-02 -2.190524436683474394e-02 -2.933401646935875767e-02 -9.338244408051334100e-02 1.075780373866348366e-01 9.008521296066182571e-02 -3.295830632624348333e-02 -6.202396930867265512e-02 -3.118542637726169978e-02 2.951881470300457555e-02 9.208013585576133031e-02 5.472246522507365901e-02 8.296418378066859611e-02 -6.961899929830567268e-02 -8.278437844101742271e-02 8.920961093603070602e-02 -9.040752175982331995e-02 -2.022392168980109706e-02 -1.023413885156638087e-01 -4.118002557376193584e-02 -9.514455698353425223e-04 -8.809835546762107006e-02 -2.708960051911622063e-02 -3.854580810702644411e-02 -4.565033616206722045e-02 -4.586437025668924083e-02 8.451522022364857389e-02 -2.696869062757257379e-02 7.562879835169988851e-02 -9.181978157137374308e-02 7.506624062818320620e-02 -5.867459999664047937e-02 -1.111349881434053888e-01 -6.453222498496501147e-02 -7.359262217749165669e-02 -1.758522818104125626e-02 -8.987393611760595424e-02 -6.673109721912653947e-02 5.680741620817938292e-02 3.639863819585858334e-02 -1.004788924268853884e-01 2.662968644617989822e-02 7.235796949262660038e-02 9.854696329812086264e-02 8.856316398418723201e-02 -7.204900338990551101e-02 8.038708539332606318e-02 5.841680319222008338e-02 -5.112163092133353154e-02 5.501909877794135262e-02 6.046276903238544109e-02 2.394111760621890975e-03 8.666806271808734363e-03 3.159836174106157858e-02 -7.195675484481599271e-03 -8.460754313053776843e-02 -9.557663608117991649e-02 -1.003160311411380318e-01 -1.754552654652169474e-02 7.622998539485556502e-02 8.156048327072931703e-02 -4.539206999176535057e-02 -3.564133981302333026e-02 -1.159755992744085223e-01 -2.772414282349469714e-03 3.277555400184394702e-02 6.890371697296995834e-02 2.522670810128059896e-02 -2.603184254542013909e-02 6.964653447938787267e-02 -2.277786678008365817e-02 -6.506036132530293448e-02 -5.209925349671271771e-03 2.721095343854198351e-02 -3.267350998796261091e-02 -5.708553297435638163e-02 1.267890289629387129e-03 -7.189953826003532555e-02 4.110454174327551023e-03 -1.581304795517507467e-02 -3.126162069893978490e-02 7.196603242118179700e-02 -3.677402477360377370e-02 7.247433029358235634e-02 1.168713059603876669e-01 -1.089369938788686647e-02 -4.211243125158659756e-02 5.648316539833703881e-02 1.952433421213883510e-02 -2.374309920544543859e-02 -7.911625623002696561e-02 5.359317759167495782e-02 -2.425721793260774209e-02 3.541617124121790305e-02 5.830503427405091255e-02 -3.068446727351999484e-02 -8.508458057744140712e-02 -8.402535589407937600e-02 -4.665971344775986934e-02 -4.467502142742239835e-02 3.269219041132570558e-02 9.712064535350643790e-02 6.900351811490176845e-02 6.739282120748782412e-02 8.986110944763972541e-02 8.935768408734681700e-02 -1.006468280894923517e-01 -7.219424630003802579e-02 4.903222122783669479e-02 8.394586658839682525e-02 -8.219875994094054394e-02 1.020358832689448048e-01 6.625284857812463457e-02 -2.911645573243515361e-02 -8.863735813712690648e-02 3.061970617721301163e-02 4.084513969468315381e-02 3.309371596408097749e-02 -5.084858374825046434e-02 5.322247034562420376e-02 1.383294468423412402e-02 -9.577488498857837651e-02 -2.754929041090404054e-02 -8.388753284818926959e-02 4.421614466831608886e-03 5.078458594696702577e-02 5.795748292194725232e-02 5.681887955985731598e-02 -4.620601295414440701e-02 -8.254057320112176410e-02 -7.236286630194334324e-02 -5.046182822651799210e-02 1.017000568409572592e-01 4.119254592772442214e-02 -5.553773711383282186e-02 -8.566793206678464945e-02 7.122413241100451764e-02 6.986721365241499448e-02 -6.090015084873130063e-03 1.055154044839362766e-02 1.920324229441116443e-02 3.289123056387702193e-02 2.986885363232988713e-03 6.201006774160010629e-04 -8.187953458848892807e-02 4.814540277902803339e-02 -6.889507187144054690e-02 -6.930974121605379401e-02 8.421055104577367112e-02 5.501845024019776792e-02 -6.111471754163771281e-02 -2.546128391044217079e-02 -9.242366548202876619e-02 7.781735188360852651e-02 1.325472679241033840e-02 7.761372720220403865e-02 1.586876889667303281e-02 5.729684630428528297e-02 3.216881465204229906e-02 -1.803447325415028293e-02 1.563213558666598849e-02 6.239982175171546880e-02 -8.916262821183418286e-02 5.609924143805558594e-02 -1.676530761208312043e-02 -2.415552680405876756e-02 -9.294503628775753479e-02 -5.079628047574190342e-02 2.611494449513936285e-03 -1.042862628522935320e-01 -7.064299484150646236e-03 -1.364636700404585345e-02
1.245209781405053895e-01 -2.175522655235966746e-02 7.448947596336334687e-02 7.571632561676669426e-02 -8.526649666822538887e-02 1.087976769009296601e-01 -4.242374155921172646e-02 -3.712015597156804320e-02 2.401995587490112979e-02 5.711422978124159472e-02 5.510379342598439173e-02 -1.004122909065049141e-01 -8.324761903365335280e-02 1.274450417100582086e-02 -9.204643751336030744e-02 -7.748444169136334270e-02 1.032326544025980036e-01 9.305625614005498536e-02 4.193699909871662773e-02 2.131717171414758416e-02 2.164029236846652660e-02 -6.822890144331514306e-02 5.329856923221129583e-02 4.446880392624935618e-02 -3.765551202378976392e-02 3.870621391910571835e-02 -8.651257135021626909e-02 -5.167126355922439795e-02 7.405076142311249610e-02 -1.265857166971815218e-01 3.210392238934359210e-02 -2.085187770628472298e-02 -5.736832745687161367e-02 -4.301760336101279059e-02 5.510855855268484427e-02 -8.095870906911840914e-02 -5.024350510808919812e-02 -4.790084896079920690e-02 5.637436612289796999e-03 -5.737867193304581337e-02 8.528396968095695863e-02 -2.308563469815904864e-02 7.873432289080350976e-02 -4.482612781556797460e-02 -5.209468476302167583e-02 6.710007800586843818e-02 -8.788113398345388794e-02 -3.842528221164688562e-02 -6.948581892088388778e-02 5.634991208497082404e-02 9.171860830645159335e-02 1.020562339338388080e-01 7.749704871247435622e-02 -6.756073798619295634e-02 -8.594054798345038271e-02 8.388599511874439418e-02 5.215892210502615783e-02 -1.116329200889341761e-01 -5.870939529051501238e-02 -2.986476173074744875e-02 1.395493595072739429e-02 1.024861471021766557e-01 6.028235817895112592e-02 2.723537208810143662e-02 6.659520382673125849e-02 9.066083408319616788e-02 -9.876742170330087001e-02 3.813912774725114821e-03 -7.398966259356709596e-02 -5.309933258243096366e-02 -4.142633793894897470e-03 4.114086407127390266e-02 -1.182979298412687418e-02 -3.766648902102193164e-02 3.208543785690032291e-02 -6.159032764762002732e-02 -8.175115649089386566e-03 -8.622071536290411287e-02 -4.517030418612645419e-03 -1.071413201266778192e-01 7.410047151055358661e-02 1.258542654496241572e-02 9.981641118723530437e-02 -2.143284033283841816e-02 -4.679770586866914550e-02 -4.666779395970122729e-02 -3.925913694607392757e-02 4.528259080388334634e-02 -8.258641392738078069e-02 5.791621692142382739e-03 -3.250458695053298763e-02 1.899346209848144437e-02 9.732893418288619813e-02 9.331685728869408558e-02 -4.450920028480017526e-02 6.054684015062709174e-02 2.742345701377004591e-02 6.662740549957123226e-02 -2.985957178151871227e-02 -6.350637767461922434e-02 -8.307905438089088768e-02 2.066873079010303829e-02 -5.327852560344328164e-02 -7.514331679760073712e-02 -6.746764329234408719e-02 -1.107821444094944478e-02 -9.651147787047373305e-02 -3.788813103929523918e-02 5.995720504623171243e-02 -2.046408286671080878e-02 2.853150329624051795e-02 -8.760627248982988391e-02 5.860010776651966569e-02 -1.129580963324296750e-01 -5.135290038642675858e-02 -4.529040626005136766e-02 -7.633278156174014284e-02 -5.552393347610919128e-02 6.730586078199321531e-02 -9.969749908500120938e-02 -3.720831375488369008e-02 8.205688807499864068e-02 -3.823182652555496414e-02 -8.089677296715855337e-02 4.517013915101366489e-02 3.872145808703562897e-02 -8.326385747633993639e-02 1.179098986079289008e-02 3.769846156083125205e-02 7.221836814853304330e-03 3.979598069327960896e-02 -2.688624391144301892e-02 7.680033413738933390e-02 -4.830482354281172286e-02 -6.972457735527808065e-02 6.694728403683811169e-02 4.422170448488069866e-02 9.165487760628659997e-02 -6.247093558238326488e-02 8.540791409714156013e-02 9.112650883485813591e-02 1.699989960100742326e-02 4.842603835762820247e-02 -1.845293360029969312e-02 5.612991185187179988e-02 -5.445646613220998106e-02 -4.370641963430889343e-02 3.462141564442285102e-02 5.994404185441351562e-02 -6.419453954657478034e-02 -3.694042254681111082e-02 8.878283742827635175e-03 3.042479061511118091e-02 8.225373843366184934e-02 2.230455894228560582e-02 -3.152956448006559442e-02 -1.730545633919488083e-02 6.519523806811773625e-02 -9.346280975297607818e-02 3.126642390353780165e-02 -5.240735862516019555e-02 8.880411930639683926e-02 6.373815044306044286e-02 -9.045207706322627716e-02 -5.895557277042839245e-02 -4.518501742993660114e-02 -7.229805845517597862e-02 -9.604826591050097395e-02 -5.978523069051276673e-02 7.419015978062688810e-02 9.198211386977456216e-02 1.012130497786702249e-01 -6.471911353024377422e-06 -1.161514404038403309e-01 4.186033419466099470e-02 -1.852769878618369670e-02 -8.002847259104731159e-02 2.795482970125185915e-02 -9.634559270536992293e-02 -4.406536968230359563e-02 5.100426099752640441e-02 3.961835613920614008e-02 8.343806541957791978e-02 3.646466446407644474e-02 -6.346653358877664408e-02 -9.959976454902194631e-03 8.423150384654101708e-02 -4.527124733896046790e-03 -3.581514749446636225e-02 3.187012274847939031e-02 2.570098421732166377e-03 -7.537153141036588566e-02 6.595449088953884986e-02 -6.618780241767710515e-02 1.077824970795497259e-02 1.026274839071746742e-01 6.131153469064580530e-02 -1.189308556546136153e-01 9.504098770283805897e-02 1.940269613577310162e-03 -3.676359620358074509e-02 -2.246462261360993029e-02 -8.224659878484892606e-02 -9.557076628410987595e-02 4.208587123314951051e-02 6.722128740205685071e-02 1.500748691380704436e-02 -3.894863370611213044e-02 4.124528108681389110e-02 2.256072895443315268e-02 -4.119549525233986986e-02 6.032751311582707637e-02 8.591272912050122723e-02 4.258804314746587188e-02 -1.034825236133935095e-01 7.488720626736471153e-02 7.116904708245387623e-02 4.108921472808482050e-02 -9.254043521731772359e-02 -1.981134135614289957e-02 -6.534033712165510099e-02 -6.046985410483925877e-02 -1.979009367585185530e-02 3.572467132206409712e-02 -3.456077484810085587e-02 5.264636000738180666e-02 -1.033353235772022372e-01 -5.359098937022311465e-02 -3.895445532067577654e-02 5.554413418198043267e-02 1.097250321361790126e-01 -9.100618207889513145e-02 -9.286997117326884713e-04 -5.995615763730222786e-02 4.273175239590150387e-02 1.807899243540393112e-03 1.117650510986203105e-01 -1.032392829104950525e-02 2.041130527698272260e-02 7.511716112781742505e-02 2.280277695130300195e-02 9.292919290857661052e-02 -4.007790362793484801e-02 5.255019884517771189e-02 9.559018492206258766e-02 -8.286841104087191989e-02 4.863059569211976990e-02 -9.372310239981224578e-04 3.956383237290962002e-02 -3.330865901289066511e-02
6.055457987214155763e-02 8.219300574266687198e-02 4.256836512682964785e-02 1.947893689608095474e-02 2.120617903922751915e-02 -1.115694515243595003e-01 3.231125797338416095e-02 -6.291009277089106011e-02 2.247189762389568274e-02 7.877375747545600770e-02 1.074113240484369514e-01 1.186416538871004067e-01 1.439682014465390805e-02 4.163451018053562075e-02 -8.808403152145817885e-03 -7.139162455944178531e-02 1.111214330929403277e-01 5.069811940347910412e-02 7.998634586153442749e-02 4.080361421695587534e-04 -3.047751905402655906e-02 3.802034743603102673e-02 -1.075927664832102976e-01 2.819413461089756434e-03 -9.134591852785550747e-02 1.159443109000433091e-02 -6.310479792323256398e-02 -3.423850993587473912e-02 7.576242213811892889e-02 2.852040849191136290e-02 9.034694939383462742e-02 4.128565011903529564e-02 -4.413271556076511087e-02 2.226217921870826590e-03 2.424293816322596259e-02 -7.205934363638052953e-02 2.223207264575247609e-03 1.082478276038124909e-01 -6.601360893616445291e-02 8.451833804656368188e-03 1.148247427009475574e-01 -5.374497649898633128e-02 -1.604990094222124089e-02 -4.324107028987962675e-02 9.251054957038094828e-02 4.048611851504260728e-02 -3.665722689407843477e-03 5.572566747320388536e-02 -5.906853555941049549e-02 8.511983277821370819e-02 2.946869834253892928e-02 1.142414481609234783e-01 6.680801587034054800e-02 3.127406366921962888e-02 -6.950756086090328911e-02 9.883592879362800010e-02 1.109024899181449419e-01 9.525806993956958957e-02 6.861732666071564124e-02 -5.645651833024790955e-02 9.975520378634060437e-02 2.658108807673845511e-03 -2.582723568554920815e-02 6.184725322857070190e-02 8.909457602433470957e-02 7.152704935753796678e-02 3.448661724030392672e-02 2.837195440171498897e-02 3.394550714790191270e-02 -2.146685460836844292e-02 8.162410777538743611e-02 -4.904477046207368629e-02 1.220330132818992358e-01 2.091348919359615338e-02 7.400053806566554704e-02 -4.155607373185114806e-02 1.005478859886629744e-01 -1.072883877522056578e-02 3.961611752679528031e-02 1.007587267565429739e-01 6.137847520298804482e-02 -3.576292581886692662e-02 -1.137209640529354276e-01 -6.079085719272164096e-03 -5.579150296061222147e-02 2.370258343043545046e-03 9.476202618876715389e-02 5.577165840210511483e-02 1.142311034031525258e-01 7.018511235670943371e-02 -5.424379136491040698e-02 -6.159358828832955240e-02 -7.542544363236705629e-02 4.050527897715553577e-02 2.818064208517798847e-03 9.678280437725657326e-02 8.675268770869244694e-02 9.960154251336257591e-02 9.520036322644960178e-03 -4.009572157656669800e-02 1.131276193415796660e-01 -4.395127002305390662e-02 -4.711782600777465052e-02 2.727026202369294949e-03 -2.357489161802894459e-02 -3.818826884182917325e-02 -5.727683410825262778e-02 -5.146657470940038670e-02 3.309057786291560305e-02 1.431937260731776934e-02 8.593215003888218795e-02 -4.471126915574656635e-02 8.425638315199171502e-02 5.354356866910644358e-02 6.413060149334443016e-02 3.711313926211787760e-03 9.253291231657817528e-02 -7.281190262813623526e-02 8.167035974561466516e-02 -2.373198199456323394e-03 4.632389058489039257e-02 6.664917688998661660e-02 -3.697292975612930660e-02 1.251616466167746189e-01 6.950064458127726448e-03 -1.613169860911659731e-02 4.932624657635698712e-02 1.121356647452530046e-02 1.009804580789924744e-01 -1.136404922354114222e-01 -1.948074899562568865e-02 1.241932178378206825e-01 -9.458792753086389671e-02 7.778851370163411549e-02 -8.451822856571775122e-02 -3.617175288436824676e-02 5.757771085621082169e-02 -9.499574067195126759e-02 4.290850910261880674e-02 -7.328183403940212448e-02 -7.558300232588328893e-02 3.365272104629325051e-02 9.857424471164756563e-03 -1.374008862228205674e-02 2.995426389223908650e-02 -3.961021693151203782e-02 -9.995236039097221692e-02 6.822211732618008173e-02 9.068732647599710150e-02 6.534571082860032853e-02 8.234961243662008989e-02 7.342286578570045297e-02 -8.872302839733599289e-02 2.571282066496322766e-02 4.945778679079221307e-02 2.029014479274630391e-03 3.903244908072802527e-02 -1.084020693425650703e-02 -5.885220413121303173e-02 8.336075649004781596e-02 -7.602179813010181975e-02 -1.977739336161206743e-02 -6.537693799002515516e-02 1.280606829802369978e-02 -6.603301724309898479e-02 1.023583385829894832e-01 4.104415710455919242e-02 7.692564403085831726e-02 8.704000873431632507e-03 -7.297974769251786009e-02 -4.302931846911241948e-02 9.001883366949643001e-03 5.544622882979248490e-02 -6.010372559925639124e-02 4.056693827748193010e-02 4.973463788806566782e-02 4.477001295937093478e-02 7.295092668185730600e-02 -1.693111573791980171e-02 -7.018690492769943945e-03 8.440848746298353772e-03 5.166065721617028872e-02 9.550199618956162206e-02 4.751506288950690590e-03 3.919716752506290092e-02 -9.715644594383066046e-03 2.913656443223604231e-03 3.995995012757617981e-02 -6.066976257434788383e-02 -5.485735236189422104e-02 4.641308563961491634e-02 7.859120801693737779e-02 -6.320042105053640807e-03 -8.491030224908718838e-02 -2.571219262358792612e-02 4.857912579173932766e-02 8.226027287027451451e-02 8.884375954775111661e-02 -5.461287896827433930e-02 -1.168243451511621483e-01 2.333821266729260019e-03 -5.888117913765445605e-02 -3.954137171449654750e-03 -3.916007187745863122e-02 2.019349244554443507e-02 -8.680865863521494696e-02 5.120797531234962119e-02 -6.098347212041008159e-02 -5.065807092173881671e-02 -3.921843163683576966e-02 1.907416566748732986e-02 -5.795631274985933723e-02 -4.244176174053383016e-02 -5.358721491103850959e-02 8.139420676943474875e-02 9.888751002798911588e-03 -1.070485279673670104e-01 -6.415067410129587921e-02 4.752456850385743115e-02 3.741579591161289797e-02 7.938333605057398823e-03 7.132643972302671331e-02 -1.188366851208516040e-01 -8.516318809758723074e-02 8.045405948679888730e-02 -8.225458907801100339e-02 8.571331624856326492e-02 4.104894537500589601e-03 -1.353174502291007095e-02 -3.593095669462789167e-04 1.043028589455417265e-01 7.350149565602030755e-02 6.503929884139800222e-02 -1.583037543195751212e-02 -8.231171532986102102e-02 1.180350861047059149e-02 5.692230458526861825e-02 -3.220286802254514885e-02 9.839784380839504407e-02 1.248003783177255646e-02 -6.239207691678064910e-02 1.388891630740275718e-02 -9.866757892875493985e-02 -7.271289280940361477e-03 -6.214976504325761542e-02 -5.486877739368769408e-02 -2.412079871485912214e-03 -4.023977068373186389e-02 -8.094854660928374468e-02 -2.051503787171617479e-03
1.086138037102558074e-01 9.535331657741517863e-02 -2.247633372864779253e-02 -2.210459227453936276e-02 -4.859319230020765074e-02 4.294611325311888800e-02 2.537394441531159311e-02 5.940275618389488643e-02 -2.742056587624894584e-02 -4.013494278348195970e-02 1.039398435163749190e-01 -3.910765416159240476e-02 7.951193652258717326e-02 -4.778209883477085168e-02 7.900201745758569927e-02 -1.351815609564947437e-02 -7.591927285205853082e-02 -5.324639344202582170e-02 -8.047731730238105730e-02 -8.579788670964386132e-02 4.532866127576906656e-02 -2.575470374268518103e-02 -2.181919023826129917e-03 -7.330466872411985080e-02 -5.666801544151982978e-02 4.019440880051689674e-02 2.734328703569683175e-02 6.673764084763682616e-03 5.229962416149213505e-02 6.747127324404941784e-02 8.845914580828638518e-02 -6.542140724556246012e-02 -1.883679905301558627e-02 -4.581917162480955014e-02 2.143395457364637852e-02 1.959015829019260593e-02 9.656216017107904781e-02 -2.147965694258315711e-02 9.319592133433485248e-02 3.308309537456792515e-02 6.298414805238995717e-02 -4.667190177928845496e-02 -5.797606831319952053e-02 7.093165173101145804e-02 5.596487642424330389e-02 -2.851711096740586898e-02 -9.341356224253477558e-02 -7.567318215892947231e-02 7.123778661143277680e-02 1.503312180564228204e-04 3.824730991103796052e-02 -6.269379858883830647e-02 4.910955280075631618e-02 3.179051633451919490e-02 7.864968132685429270e-02 4.598442280908540680e-02 -6.696960202118691641e-02 9.159235537281942841e-02 -8.008872763476779233e-02 -7.913810899974355051e-02 -9.104687642442878259e-02 -4.688753819853233584e-02 -1.104556743536680152e-01 8.882032508579533470e-02 1.122048712057102798e-01 -7.725258884666502679e-02 -2.650521883430110096e-02 -2.243283316648813849e-02 2.546798974485939976e-02 1.879223214720307511e-02 -6.672853944118228853e-02 9.494576380253863523e-02 -7.289672766509669444e-02 8.676447735296378971e-02 1.059573952173366307e-01 8.903490473187194998e-02 -3.231094671742820723e-02 -7.323463686448618282e-02 -2.851256913438262805e-02 1.886833142707827066e-02 5.007863066584249817e-03 -1.147664685882576058e-01 2.745594600341601590e-03 5.204808559148896979e-02 -9.517828836087957600e-02 7.672260800613830631e-03 -6.972573721103084154e-02 -1.174417971158661124e-02 -3.164156945025636825e-02 9.331873323937731057e-02 -5.531716577685247965e-02 6.433172885219676229e-02 -9.799300263902796515e-02 1.244551664374645705e-01 5.479619800507468108e-02 7.589636588969042585e-02 6.928969540211697697e-02 3.705849697454340758e-02 -9.201075712560576048e-03 3.017669495266370877e-02 6.189168427097554298e-02 -5.122899825101486643e-02 -1.327712962488333467e-02 5.747649811032010114e-02 9.757557160434614241e-02 4.926718289604406498e-02 1.341343438634034872e-02 -9.099698618143220452e-02 -8.833934715691280082e-02 -1.020837844242667297e-01 5.555678271705846022e-02 -1.210286976614998178e-01 -1.675041681374493316e-02 2.602375987735995599e-02 -9.054443149814302150e-03 6.819744085876983108e-02 -7.504652609623278792e-02 -3.894928123204378749e-03 -1.023645659798324420e-01 -3.523876576542157857e-02 1.180223486066000332e-01 -7.725517287040781222e-02 -2.079242750120864278e-02 6.954984032943141437e-02 -1.709428738293206074e-02 3.004892405487084514e-02 -1.047780433138657680e-01 1.250459767280551748e-01 1.042759256219424474e-01 7.734243163055944115e-02 5.336132865849563950e-02 5.241384729540388837e-02 -9.904929126197821107e-03 7.809832641266487019e-03 4.756295092525038293e-02 3.267566098898674887e-02 6.012948102954955576e-02 -1.268818006058976787e-02 -8.699019377129736663e-02 4.403651187846006898e-02 9.850232422121997511e-02 4.853231131583393698e-02 4.269887702959519749e-02 6.108855097820372476e-02 -7.069026884717129200e-02 -7.174943697218226502e-02 -5.649610610165327340e-02 6.445436934131958118e-02 -5.827041552250758830e-03 -7.075647120587930106e-02 -1.105112252108903098e-01 7.144713855627359000e-02 8.564296078902983167e-02 1.223955466725887564e-01 2.636059422604243932e-02 -3.744086469385843330e-02 -1.554448076844000375e-02 7.924905105556893925e-02 3.301800644586198787e-03 -1.170481307654410233e-02 4.325138179507401898e-02 7.913233856259499488e-02 -1.140366987836827911e-02 4.749589216136669567e-02 -1.104261192364173888e-01 -1.040747978475517338e-01 -5.945873518418490905e-02 4.436800250708974706e-03 -5.775158380597138902e-02 1.214199971284463109e-02 -6.873418435831343820e-02 7.715251502230913161e-02 -6.169820283076756645e-02 7.338351645990867644e-02 -1.048547632802488694e-01 -1.074912876912094140e-01 3.954661231249003567e-02 5.246384441644308394e-02 7.548457834362175267e-02 1.412343425941870942e-02 -8.352975938766281361e-02 -7.870564465913573726e-02 -4.895651895720670721e-02 2.245152132385224916e-02 6.559533129082691094e-02 7.194087154115934302e-02 -9.108050327303204852e-02 -3.066512909972046036e-02 -9.298806155375380356e-02 8.947736955740448125e-03 4.645472946374120879e-03 -2.003321648635202068e-02 -1.824369522733050933e-02 6.951121296994666743e-02 -4.416006962831926091e-02 9.904831513670075971e-02 2.811054051061898963e-03 -5.801236042241222218e-04 1.563892076864875982e-02 -1.109880932120948290e-03 -5.351445090401683174e-02 -1.544020000109664822e-02 1.132902831417891276e-01 3.896230301409434049e-02 -4.467843376014209167e-02 2.950090972701826901e-03 -3.214282312647128402e-03 -8.066328606161833614e-02 -3.787687211462881232e-02 1.860250370698735348e-02 7.924344533842260507e-02 -9.054030945952665221e-02 4.109143208550478793e-02 -6.143017605179985907e-02 4.045403955578589367e-02 -4.927683438895865548e-02 -4.568975904748197314e-02 -6.894260355083832448e-02 9.867595517312380271e-02 -6.790101490581931798e-02 -3.552177411461249906e-02 -4.684355011854384951e-03 3.592130818191245634e-02 3.232592498744178006e-02 1.797445336840194224e-02 -3.726390438905173574e-02 -8.368232703171769871e-02 -3.732859854601560529e-02 7.758755246385219684e-02 8.785775537974668814e-02 -9.148977433027283279e-03 5.315786334400084828e-02 3.577562548620458888e-02 -4.950527505614776835e-02 1.435569653859997130e-02 -7.585285931999090347e-02 -7.318248253090016420e-02 -1.009142518573581497e-02 6.911818243861039823e-02 7.240399029563766853e-02 5.890100269260024890e-02 9.951634892037983238e-02 9.928708205520062058e-02 3.349449548245110597e-02 2.374488075977253948e-02 -7.873915552793432637e-02 -5.418828279051911279e-02 -2.468392118806861379e-02 -5.277589840497257795e-03 3.109928581697679606e-02
2.909768425359563274e-02 -4.152342947056696099e-02 -1.665913846067446774e-02 4.671712680354613706e-02 8.135992150044754623e-02 3.749146717284365660e-02 -9.668802341639822981e-03 -2.317714075369370352e-02 -3.013144484029865386e-02 3.521545886784881174e-02 -2.236872770093185914e-02 5.890843678686103618e-02 -5.008750835221360137e-02 3.625682354099344328e-03 -9.649475502126841908e-02 8.486361632158161139e-02 -2.844168006410333419e-02 4.038611235932518945e-02 -8.983834366384364778e-02 5.583026330297336665e-02 6.373685863688570430e-02 -7.165189729269644259e-02 -2.259456173668897283e-02 -3.179145777884986868e-02 6.914188913193387853e-02 7.751046398765899792e-02 -4.779930263741970914e-03 -4.504864407263665937e-02 -4.844900389868751767e-02 1.838611112288748503e-02 -3.680087208405297128e-02 -5.456208043063879437e-03 -5.514588362327665916e-02 2.382227203687154599e-02 -9.048080352905060741e-02 -9.057239458531587961e-02 7.777615230895626453e-02 1.064423899923683386e-01 -7.397895962803530123e-02 -4.297118246669291014e-02 -6.189549593350716569e-03 2.866025885489133923e-02 3.400361236637942063e-03 3.878134467356945253e-02 -6.674992959219457067e-02 8.813539075544517265e-02 -1.735018634092895182e-02 1.001349901996399505e-01 -6.938333889049221916e-03 1.073604209770097906e-01 -5.559194744422937817e-02 4.768020083093300887e-03 4.802044195538522631e-02 -6.808201430365184992e-02 -2.271352610472869224e-02 -5.342045697612018973e-02 -3.792646241184767508e-02 8.451835678470359658e-02 3.487859994226066157e-02 1.102727979090850352e-01 -3.171470315812029150e-02 8.003764414396213889e-02 2.862906526027567990e-03 8.678610134679172472e-02 -2.561447584300692581e-02 2.409806025427680808e-04 -6.849022968594777050e-02 -2.367569071652089047e-02 3.920876771417994983e-02 5.766867194920645423e-02 1.012023400949054464e-01 1.062141382687512847e-01 -6.802597141469529651e-02 3.106996720071296750e-02 -6.475164310636546960e-02 -4.357668996513420351e-02 5.916672632714001408e-03 9.904255577348156092e-02 3.299719768002643688e-02 9.240696121215056721e-03 1.009938900515744975e-01 -9.086291367293174853e-03 8.509548721587674447e-02 6.681974655881822711e-02 -4.621988737827657789e-02 5.614789867151612213e-02 -6.156973712717116881e-02 -5.536287524910462471e-02 1.179773217268097613e-01 6.322081012974278824e-02 -2.551935483872375121e-02 2.871907938999903806e-03 6.104992297247547467e-02 5.268256884415323943e-02 8.486151953519821545e-02 -4.863619030769516377e-02 -8.587398356054566639e-02 1.040272765962692719e-01 -8.483301852031428780e-02 -8.274860911359302462e-02 -7.034518685640089863e-02 6.545752035081213449e-02 -6.564069933072422258e-02 -3.663886622141721006e-02 1.028041619516697862e-02 7.634340223142326021e-02 1.122602518193205057e-01 -6.770712614639800772e-03 -2.940689966974147085e-02 7.976923813532436902e-02 6.298252360546986728e-02 4.701014349034027262e-02 1.344394954122159550e-02 -6.292372117072358995e-02 1.689487084650878948e-02 8.117486261717545351e-03 -3.473102680454573377e-02 -6.825817074263798578e-02 -8.192172623127247366e-02 1.049383660092491760e-01 -7.899639351758054595e-02 -2.806871506259812910e-02 1.023551002445888120e-01 4.671375534539403546e-02 6.623307179679972789e-02 -1.506136309548889579e-02 2.204093211598730576e-02 -1.031980739383947781e-03 1.241671817757964286e-01 -8.116138733170037700e-02 7.075792465393548891e-02 1.047387956011378018e-01 1.062859980916064651e-01 4.062134677220493456e-02 -6.957098514832665836e-02 5.050139494713188487e-02 9.285632408276303651e-02 -1.331772423479451149e-02 1.596222121615600495e-02 -4.310534528496513113e-02 7.136780498199847556e-02 -6.087042742804114892e-02 -9.158911275455960607e-03 -4.905229226103126339e-02 7.675779950207069213e-02 3.454392781453580370e-03 -1.032900170943697044e-01 -1.076700474732029435e-02 -2.117913955870865186e-02 7.092210827161220255e-02 5.431617404519022141e-02 -8.995304911115034607e-02 -2.628240534955870664e-02 3.994060281374393201e-02 -5.009498334252485141e-02 9.110676960690231030e-02 -2.652513170674652282e-02 -5.037570214313186884e-02 -9.227148865321840865e-02 -1.015285512542756508e-01 4.039104603391947129e-02 -5.990612364446389060e-02 5.466873228807535984e-02 -4.197747476902315145e-02 7.179873549486115447e-02 -7.165511407354722972e-02 -4.334147463830908403e-02 -7.162068771795662703e-02 1.437970836728221478e-02 -6.931787388758668678e-02 -1.180082229373266428e-01 4.254939655725241583e-04 -5.696748672352733994e-02 6.006502579890516183e-03 4.351233377678326991e-02 6.026677667023924191e-04 -4.693678615281870331e-03 8.902472410668536840e-02 1.145895018723347980e-01 3.497671243365264165e-02 -7.264558295326557780e-02 9.645715520546881139e-02 -7.996220849427083943e-02 -1.091044488843405658e-01 -1.661139687281841526e-02 5.279687095014099635e-02 3.366084361264175956e-02 4.041087401602182910e-02 2.962329088944313377e-02 9.546333172848908699e-02 -8.195809401430183272e-02 6.269938035089722694e-02 7.863452109501919973e-02 9.356698060773382952e-02 -1.172908344702653094e-01 7.550644219573719729e-02 -9.426964340148129284e-02 7.687017323445843875e-02 -5.745510120049381053e-02 1.729098191142285773e-02 -2.133957061037267469e-02 9.081396684810565112e-02 -7.110882431382289925e-02 -7.248451040105099996e-02 -4.052320312790910761e-02 -3.880433450556183828e-02 7.452450997961490575e-02 -1.892212690148541501e-02 -1.448952268525461815e-02 -4.921604708483471452e-02 -4.851394425888949646e-02 9.155987901455162059e-02 3.417145881576548472e-02 6.537585184773916924e-02 -2.510933192287608320e-02 -5.225727120307518264e-02 -7.515391019700411179e-02 4.520115452354857288e-02 1.285117230986076997e-01 4.731428377665748003e-02 -3.648054988268392002e-02 3.838959782681472532e-02 8.780391134056406144e-02 -6.894948473695436397e-02 -8.369600390497548836e-02 -6.404284054931798364e-02 -5.318629363944004512e-02 6.099975976304562036e-02 1.015857727152318646e-01 -1.015608105179633194e-02 5.794896318664128493e-02 -3.296956276924294799e-02 -4.623187497028889703e-02 -3.171423246085921382e-02 -1.065421971542202667e-01 -4.169766795969929302e-02 -5.083183822235625565e-02 -9.764921498917322751e-02 -5.738222418896569282e-02 -1.135708905677971711e-02 3.879050668903295113e-02 6.800887719373449603e-02 8.353898244913367244e-02 -4.309069182726732840e-04 -4.387727308026743295e-02 -1.047900011516837981e-01 -1.620279690615385182e-02 -2.994419991883925936e-02 6.616200103591750314e-02 -1.004928490493279120e-01
