-6.691824105263296588e+03 6.691819331745988165e+03
2.685449296728025729e+03 -2.685427976185865191e+03
-3.867468291634349953e+03 3.867484361599169006e+03
6.514177450096667599e+02 -6.514206851445483153e+02
1.263529035429391115e+04 -1.263528609768790920e+04
-7.615197656112768527e+02 7.615403971638036182e+02
-5.209386644000716842e+03 5.209418407378835582e+03
-1.238440838856875189e+03 1.238431618004809479e+03
5.113874637525917933e+03 -5.113852410496434459e+03
1.304579215579879019e+03 -1.304579343994895680e+03
-1.683987358201115967e+03 1.683996685481110944e+03
-8.755866441731126542e+03 8.755895083703981072e+03
1.317829530442616033e+03 -1.317830541866400836e+03
-1.177644382531182600e+03 1.177649280144433760e+03
-2.115110609660370301e+03 2.115092391550642333e+03
-1.655295424974044863e+03 1.655284541563939456e+03
8.500708234160758366e+03 -8.500683866325012787e+03
-2.701118458503387046e+03 2.701141211729681800e+03
4.506430828687587109e+02 -4.506223236064925004e+02
2.761560685432217269e+03 -2.761552153169386202e+03
-6.722888646581748617e+03 6.722889209310531442e+03
1.926458022388098834e+04 -1.926456305925087145e+04
2.772071863687273435e+03 -2.772056417091298499e+03
-3.054618781696203951e+04 3.054624401293931078e+04
3.413458647643336008e+03 -3.413440517231723788e+03
-1.867538239496560664e+03 1.867538196988562049e+03
-8.157087411356540542e+03 8.157044047135101209e+03
9.859215334292193802e+02 -9.859265760395674079e+02
1.714244364643036988e+03 -1.714211829468164069e+03
-1.444436636552014534e+03 1.444425869136511210e+03
-4.810779955690455608e+03 4.810792648389533497e+03
2.197916153904438943e+03 -2.197907116322556249e+03
-1.314122902408710615e+03 1.314140602036604832e+03
4.849530838350472550e+03 -4.849501721151513266e+03
1.065658911321089181e+04 -1.065656407260362721e+04
7.277138362223234935e+02 -7.277182858162649381e+02
1.439421564628789838e+03 -1.439425362921982924e+03
2.202932453173725662e+03 -2.202943128848849483e+03
-1.574750736804276130e+03 1.574759872306786747e+03
-5.448681782596066114e+03 5.448707825499750470e+03
1.753945434875662613e+03 -1.753899571327179729e+03
2.449178300503696391e+03 -2.449191248967235879e+03
9.299827769122748578e+02 -9.299819030924250001e+02
3.050497525292208593e+03 -3.050492881474748629e+03
2.597375646615952064e+03 -2.597400382630498370e+03
1.191161874445197100e+02 -1.191159839779669767e+02
1.482348824422944745e+04 -1.482347964279411644e+04
-4.787540362607678617e+02 4.787846471122629737e+02
5.165121280703624507e+02 -5.164805884659672301e+02
-4.806235962669776200e+03 4.806226947752472370e+03
-4.242560911030790521e+03 4.242525344552059323e+03
9.174002655401742231e+03 -9.174006061735186449e+03
-1.913693589067280300e+03 1.913707474768599695e+03
1.137151001681860726e+04 -1.137150005009513188e+04
6.589663602708847975e+03 -6.589613333125724239e+03
-2.034640390337071040e+03 2.034633253542752072e+03
-3.407575907292767624e+03 3.407586320723694371e+03
-1.384786035629176331e+04 1.384795980996165963e+04
-9.122765251094751875e+03 9.122762648300933506e+03
-2.185923424342428916e+03 2.185915930848115750e+03
5.839100845026119714e+03 -5.839104870447314170e+03
-7.867008886937055649e+02 7.866871611233032127e+02
-2.859970007710360733e+03 2.859971370350063808e+03
-1.275732146596558778e+03 1.275729119690561447e+03
-3.219227771869284879e+03 3.219224597374859513e+03
2.382833287206579826e+03 -2.382828100404956785e+03
1.447133695702932710e+04 -1.447135686080943924e+04
2.164725903908159125e+03 -2.164723372807581200e+03
3.887437086237594031e+03 -3.887444703883783859e+03
7.035139861579500575e+02 -7.035222240451330435e+02
-2.298097172537934057e+03 2.298101429655002903e+03
-4.211847910332219726e+03 4.211898464071084163e+03
-9.859881949772847292e+03 9.859918829509309944e+03
1.821727224300733724e+03 -1.821701837037011046e+03
-4.970919706682479955e+03 4.970910968531492472e+03
5.311019081538323917e+03 -5.311042572008656862e+03
-8.055773982645898286e+03 8.055787261260684318e+03
-1.496354099011422477e+03 1.496346879599553631e+03
-8.658639089669030000e+03 8.658650319863247205e+03
1.797338851965816957e+03 -1.797360330758247983e+03
3.413205942223662532e+02 -3.413179880823045096e+02
-4.296231271007262876e+03 4.296255512037412700e+03
-1.178525620846221955e+03 1.178507033426096314e+03
3.888843388377554220e+02 -3.888817792307805803e+02
1.977251512516985258e+03 -1.977250706862043444e+03
-6.245992052737835365e+03 6.246011553433819245e+03
-3.627726449208244958e+03 3.627709886913035916e+03
-1.779188619308912166e+03 1.779206780119153336e+03
-3.030682184868936019e+03 3.030668696499669750e+03
2.493543909662839724e+03 -2.493551609957961773e+03
-4.480328707914693950e+03 4.480344330600648391e+03
-3.719676961511531772e+02 3.719783730977530922e+02
-9.332299531664120877e+02 9.331939628262675797e+02
-8.296895169576873741e+02 8.296925114630231519e+02
3.853913511443302014e+02 -3.853790793970798632e+02
5.202817639301602867e+03 -5.202786747785899024e+03
-2.504697422741108767e+03 2.504699121373228536e+03
-2.498516725660530938e+03 2.498543702667845992e+03
-1.327264798155348217e+03 1.327265562889650937e+03
1.087932720603313328e+03 -1.087926990785626003e+03
2.005376929756354912e+03 -2.005377051510949286e+03
-1.481866001796124692e+02 1.481890510935913881e+02
9.032909274332305358e+03 -9.032885534503195231e+03
-3.429488517484287513e+02 3.429485742425952139e+02
2.708609794246291131e+03 -2.708546376204967146e+03
-6.919271647351833963e+02 6.919218788719610984e+02
-1.346997342085913442e+04 1.346994556850866684e+04
-4.009137101698597689e+03 4.009142864358992028e+03
8.046559761192225778e+03 -8.046518001092932536e+03
5.839460631925157941e+01 -5.838478938806292717e+01
-1.123674894747507551e+03 1.123681628239491147e+03
1.623035581757627369e+03 -1.623028647417453612e+03
-2.854825071151116845e+03 2.854830949810853781e+03
-8.848206293837392877e+02 8.848267542382709507e+02
7.447701073410467870e+03 -7.447771771729076136e+03
7.402994135070836137e+02 -7.402853269435149741e+02
-1.698956726362144764e+03 1.698948695172123735e+03
-2.165509256227791047e+04 2.165511233046892448e+04
1.928629177318321126e+03 -1.928630404808211097e+03
6.355900553121550729e+03 -6.355885109231788192e+03
-1.804811924030565933e+03 1.804831896201325890e+03
1.062531982862077530e+04 -1.062529498779580535e+04
-4.362335117288541369e+03 4.362336992485268638e+03
9.772418827774541569e+03 -9.772427949370816350e+03
6.269778781208739019e+03 -6.269716298950703276e+03
3.736218907966841471e+03 -3.736212839345365410e+03
-2.035232243744938387e+03 2.035302136043055725e+03
-3.944014123245869087e+03 3.944008259731451744e+03
-2.706809438361669891e+02 2.706763201292706071e+02
1.945896286697441610e+03 -1.945866858478552786e+03
5.545240450078708818e+03 -5.545238061688620292e+03
-7.674998041764847585e+02 7.674893251023813718e+02
2.085569912567962092e+03 -2.085547111952435444e+03
7.856987561076692145e+03 -7.857004512452162999e+03
-9.700527045840797655e+03 9.700535754891803663e+03
6.987623548151534123e+03 -6.987570161898290280e+03
-4.254054928060718339e+03 4.254043243979351246e+03
-3.975408675574378321e+03 3.975406525663600860e+03
-2.604148174834132078e+03 2.604146409186143501e+03
2.924681202220463092e+03 -2.924669270511723880e+03
-1.589342686409930138e+03 1.589355428764293720e+03
-2.030849579706646182e+03 2.030861035873305809e+03
-2.392354324831801932e+03 2.392336014080469795e+03
-1.171164754182040633e+04 1.171163114922162822e+04
1.174453828740387507e+03 -1.174441309743728198e+03
5.009918248214121377e+03 -5.009905614204108133e+03
-1.425817620617781358e+03 1.425806139900841572e+03
-1.349169326752170491e+03 1.349175714075522137e+03
5.013545392206966426e+03 -5.013548345434090152e+03
3.488616542492358349e+03 -3.488617335852965425e+03
-3.549271266645051583e+03 3.549307738750165299e+03
-3.293444634398231756e+03 3.293467469454201819e+03
5.339190055327445407e+03 -5.339178386928615510e+03
-5.350752485640303348e+03 5.350756024120845723e+03
-3.948645008976539884e+03 3.948663441113360932e+03
3.990288496660105011e+01 -3.990598023851180187e+01
4.528379436605648152e+03 -4.528375625351558483e+03
9.547427114439142315e+01 -9.546094337701106269e+01
9.360553224785344355e+02 -9.360555198381407536e+02
9.821625750040652747e+02 -9.821552415066719277e+02
-7.573234699887359056e+03 7.573228987262439659e+03
5.238227506630756579e+03 -5.238225489629393451e+03
4.485537014565033132e+03 -4.485570550032216488e+03
-8.048434505623736186e+02 8.048435076145974563e+02
8.634049384565423679e+03 -8.634059178832312682e+03
-4.256503107341798568e+03 4.256496195582780274e+03
2.299126712575586225e+03 -2.299086396153061287e+03
5.955146048539136245e+03 -5.955127612314290673e+03
-2.704873898531969644e+03 2.704874184555012562e+03
-1.208385474810920277e+04 1.208385381565646276e+04
1.037703897421311012e+03 -1.037712966712624393e+03
-2.846153141585812136e+03 2.846147307918728529e+03
-9.355593086956569095e+03 9.355597695072667193e+03
7.302984063941330533e+02 -7.302832865163431961e+02
-1.058711233926559089e+03 1.058714385946161201e+03
1.948509891840731143e+02 -1.948471593912067874e+02
-6.442133060947289778e+02 6.442318897874392860e+02
-3.131309546957766543e+03 3.131323386551116528e+03
-4.248457180511049955e+02 4.248564831247722395e+02
2.466017821797704528e+02 -2.465912582177820696e+02
9.992273239814247063e+03 -9.992278589435403774e+03
-3.468149168285602173e+03 3.468172841087277448e+03
-1.398447365452379699e+03 1.398441571330753959e+03
-1.695462690823962475e+03 1.695446577762155130e+03
-3.571247886004104657e+03 3.571243587385757110e+03
6.577754246355416399e+02 -6.577725392948796070e+02
5.110125985378012956e+03 -5.110131066619812373e+03
2.394572439918003511e+03 -2.394570397212633452e+03
-1.220828415854184459e+04 1.220831862234750224e+04
-5.800087526144796357e+03 5.800103643668151562e+03
1.138311905301036495e+04 -1.138307686779690266e+04
-3.268165058736841274e+03 3.268160874084914212e+03
7.230368258955058991e+02 -7.230228954590825197e+02
5.055207776190716686e+03 -5.055203418962846627e+03
1.888845329324887643e+03 -1.888852510132337784e+03
2.200413180803234354e+02 -2.200295861591139328e+02
6.589468945424414414e+02 -6.589358410502131846e+02
1.238986815145430955e+04 -1.238987801124986436e+04
-6.907342567673245867e+03 6.907400427670485442e+03
-5.807613576228645798e+03 5.807634827367784965e+03
1.882648474813524899e+03 -1.882638016483731008e+03
1.871814442967905961e+03 -1.871811795564511158e+03
3.990832857525211352e+02 -3.990849202666877318e+02
1.881213618289234546e+03 -1.881216608103642557e+03
4.537195802991800520e+02 -4.537013763106861006e+02
-8.802966980639935173e+02 8.803083985827040578e+02
7.592872860822518305e+03 -7.592874281262647855e+03
3.462017661696097093e+03 -3.462007357572081219e+03
1.915733077990295897e+03 -1.915724821307384900e+03
4.636735380103871648e+03 -4.636719513822818044e+03
4.604378929196305762e+03 -4.604375990410742816e+03
-2.173643765436532703e+03 2.173645230740277839e+03
1.193952450357714406e+04 -1.193949580083371438e+04
6.821509887063479255e+03 -6.821515687628321757e+03
-1.045112500475831439e+03 1.045129304417695721e+03
6.102875366902822861e+03 -6.102857676150119005e+03
-1.796993942078982946e+04 1.797015536102475744e+04
9.746267317885212833e+02 -9.746245370630167599e+02
-1.489750425528828600e+03 1.489770898138646317e+03
8.158320549557472987e+03 -8.158357435603673366e+03
-6.159685324973848765e+03 6.159738243086892908e+03
-4.776814965504186148e+02 4.777142426966279345e+02
-1.095575194284294412e+03 1.095562410654413270e+03
6.417169963096253014e+03 -6.417156785277172276e+03
1.841645621821556460e+03 -1.841637543149669000e+03
4.914890988428505807e+03 -4.914881481246537078e+03
5.538124601159391204e+03 -5.538127185473398640e+03
7.309849188088310257e+02 -7.309314800615647982e+02
-2.216424641908936792e+03 2.216423270895899805e+03
8.060389880260943301e+02 -8.060587331607193846e+02
1.801648721576428215e+04 -1.801648231025851419e+04
-4.106771700389675061e+03 4.106777881290743608e+03
-2.070327910638498724e+04 2.070330990214222402e+04
-1.987690971238216207e+03 1.987700295323148111e+03
-5.273817528998370108e+02 5.273811033984511596e+02
-9.383346820903020671e+02 9.383216454560082411e+02
7.959174643823171209e+03 -7.959219075031042848e+03
4.433340656421062704e+03 -4.433357273291065212e+03
2.102377357181320804e+03 -2.102399415912822406e+03
-4.488280313728188048e+03 4.488374871053320021e+03
-3.462791480402718662e+03 3.462795487783350836e+03
-1.292613788353043856e+04 1.292615404470312023e+04
7.174416117995751847e+02 -7.174438783781979510e+02
-1.337051496049086381e+03 1.337036094257874765e+03
-8.786748000393768052e+02 8.786865462860384923e+02
5.935861426645180472e+03 -5.935843941221779460e+03
2.944440083168628917e+02 -2.944307548393489924e+02
-5.525596681653623818e+02 5.525618877869910648e+02
-2.232636535030424625e+02 2.232652127018720876e+02
-4.172096039764553097e+03 4.172101115106745056e+03
