1.510414372122430450e+03 -1.510400374771928000e+03
6.025436238690794198e+03 -6.025410174120093870e+03
-2.732936658822204663e+03 2.732936214950028443e+03
1.999303313486087063e+03 -1.999306798145572429e+03
-2.888284993982774722e+02 2.888513864320766515e+02
3.332274467890382311e+03 -3.332279510645434129e+03
-2.104399084217750897e+03 2.104383950795903729e+03
-3.897551306243998624e+03 3.897551585771923328e+03
2.107825608122480844e+03 -2.107824220728723049e+03
9.126555350030765112e+03 -9.126517573457520484e+03
-5.088978268234512143e+03 5.088998345026500829e+03
6.873146075837819808e+03 -6.873146150557435249e+03
1.832059656472256393e+03 -1.832044912812920302e+03
-3.186802017551824520e+03 3.186822951310698045e+03
2.511418835513186423e+02 -2.511399414654520115e+02
2.225574158914358577e+03 -2.225564522446105912e+03
1.755122162833276889e+02 -1.754979048152599717e+02
-7.713193272692061328e+03 7.713187297332428898e+03
3.684097421089621093e+03 -3.684087913071718503e+03
1.075456370233943380e+04 -1.075453988342655430e+04
-4.973513468463952449e+03 4.973497673887000929e+03
5.090628232458480852e+03 -5.090619412056183137e+03
-7.134552399777738174e+03 7.134539780172983228e+03
-5.266798704769182223e+03 5.266784080408440786e+03
1.153711714768292950e+03 -1.153705426587684315e+03
-7.804806990409483660e+02 7.804814866310425714e+02
4.413580685682634794e+03 -4.413571836095989966e+03
1.355021148276817257e+03 -1.355004669050812481e+03
-5.347975342930363695e+03 5.347989960082186371e+03
7.956996851705725931e+02 -7.956981815805193037e+02
2.060978056543267485e+02 -2.060971043430145073e+02
-3.555956801308082504e+03 3.555971191740303766e+03
2.185477460155055269e+03 -2.185471440139865081e+03
-2.999021335438365895e+03 2.999029888545654103e+03
1.039651300164755594e+04 -1.039650955761668229e+04
-1.115435159018014383e+04 1.115434462998171693e+04
1.090974288633885590e+04 -1.090973271023432790e+04
-4.942810101805478553e+03 4.942852741357824925e+03
-5.769345584513873291e+03 5.769363353396925959e+03
-1.681855941517726387e+04 1.681860112407960696e+04
-1.639507892568833995e+03 1.639546685697561770e+03
9.366605943406193546e+03 -9.366603438933143480e+03
1.464585678909799753e+03 -1.464597416668405458e+03
3.115563966997569878e+02 -3.115252057852085272e+02
-3.550749574625147488e+03 3.550760847674610886e+03
2.402096955762670405e+03 -2.402097819321947100e+03
-6.197459736271224756e+03 6.197464574963029008e+03
1.193584519039890984e+04 -1.193585546724774940e+04
5.102701831237017132e+02 -5.102676406908212812e+02
-7.856890203270213533e+02 7.856924560556940378e+02
-3.090654380947143181e+03 3.090653546982831358e+03
-2.110305486800228209e+03 2.110313161655139993e+03
-7.943800654169308473e+03 7.943809912577811701e+03
8.604009116422776060e+03 -8.604008555864513255e+03
-1.579607533638069071e+03 1.579609140661853417e+03
2.889085667337049927e+03 -2.889064572877809042e+03
2.326261306748445350e+03 -2.326261618105293564e+03
-2.608861770807285666e+03 2.608863479727046069e+03
-2.899381725747478413e+03 2.899392167978523503e+03
1.195090815253366600e+03 -1.195066910928781908e+03
-3.562375175751602001e+03 3.562398299857172788e+03
4.260918503365726792e+03 -4.260916797257785220e+03
-3.180898929126376061e+03 3.180935813207757747e+03
-4.801393719815920122e+03 4.801391901043994949e+03
-2.336594273691171111e+03 2.336580568125953050e+03
-2.899557727318413072e+03 2.899550100467316497e+03
1.367933847676637015e+04 -1.367931905735970577e+04
-1.620552621480137532e+03 1.620565383694399770e+03
2.345265735236098408e+04 -2.345266453515385001e+04
6.044019595899035266e+03 -6.044015583474454615e+03
7.042295597774787893e+03 -7.042293286915853969e+03
-1.373898383024536088e+03 1.373915835349181407e+03
7.247465437449985984e+03 -7.247447084296991306e+03
1.778671266619324888e+04 -1.778656560965885001e+04
-1.153386739579769892e+04 1.153390365421833849e+04
2.271959830094039262e+03 -2.271946944349514069e+03
-1.134669958673529436e+04 1.134671891733545817e+04
-2.282734536859853506e+03 2.282739129098613375e+03
-1.486225501223797619e+04 1.486223690533832632e+04
-4.973892672090220913e+03 4.973891581290000431e+03
-4.747827093210071325e+01 4.747844904806061095e+01
1.234213298688835857e+04 -1.234215556163972542e+04
-5.660319464433659959e+03 5.660324246955236958e+03
2.009862788254013140e+02 -2.009825006437113188e+02
6.902700189953325207e+02 -6.903028740288918925e+02
-2.768924982892100161e+03 2.768915216311082531e+03
-9.620902865372112501e+03 9.620889576866371499e+03
6.727885455541008923e+02 -6.727941761250986019e+02
-2.220127816267359776e+03 2.220170275653794306e+03
1.130981476900947382e+04 -1.130981903728630641e+04
7.165694890316786768e+03 -7.165689774634826790e+03
1.265710707239213662e+03 -1.265719075565812091e+03
-1.840749409854118767e+03 1.840753560189767768e+03
5.756579768634484935e+03 -5.756569876151986136e+03
5.100665713246253290e+02 -5.100617800863983575e+02
7.417034897421933238e+03 -7.417022140376901007e+03
-1.395152225570464907e+04 1.395149459400144769e+04
-3.150364770876345574e+03 3.150373602576320991e+03
-5.384114033224339437e+03 5.384123971696194531e+03
4.379656354543323687e+03 -4.379650371890033966e+03
-6.184384450351496525e+03 6.184393204568790679e+03
-5.101138436944092973e+03 5.101124614527788253e+03
5.209523183009519016e+03 -5.209496790321296430e+03
6.387386742244341804e+03 -6.387376567644887473e+03
-1.267389777423086343e+02 1.267387544915191029e+02
-5.797247321048284903e+02 5.797286911410610628e+02
2.829079343123945364e+03 -2.829081042589305980e+03
-2.890453487452163699e+03 2.890460004773824039e+03
-4.889607497919476373e+03 4.889614388109535867e+03
6.063760057627729111e+03 -6.063772747809442990e+03
-1.057934404029843790e+03 1.057947915327535156e+03
-7.377982671632610163e+02 7.377612480563943791e+02
-1.250061503662627729e+02 1.250038809545767435e+02
-1.046921982886138721e+03 1.046962146092696230e+03
-1.437164365548405613e+03 1.437171351468247849e+03
6.946937527793792469e+03 -6.946932174852490789e+03
6.017998853228100415e+02 -6.018013186225214213e+02
6.666196759278391255e+02 -6.666071612733612710e+02
-7.879675482726797782e+02 7.879771414074803033e+02
-4.188112510166485663e+03 4.188125771063298998e+03
-1.090674077063487857e+03 1.090709845977447912e+03
-1.158748079433045859e+04 1.158747260385244954e+04
-3.363637517151240900e+03 3.363640950538128891e+03
5.450135467069524566e+03 -5.450113632568171852e+03
-7.060518240419398353e+03 7.060568677284030855e+03
8.937618385833147840e+02 -8.937672076073125709e+02
-1.024174876678011788e+04 1.024180709104333800e+04
3.588665135732551789e+03 -3.588657461596939356e+03
6.087491989562776325e+03 -6.087459010882280381e+03
-1.282068126414472135e+04 1.282069943309076552e+04
2.254550844226875597e+03 -2.254562475343020196e+03
-4.990200465103858733e+03 4.990234858370347865e+03
9.107317930114739283e+03 -9.107329456521030806e+03
-2.488054753592277848e+03 2.488050810835179163e+03
-9.445665395945674391e+03 9.445667056849530127e+03
-3.970411959991113690e+03 3.970429037125122250e+03
8.182732293925391787e+02 -8.182878018437186256e+02
-2.440526917676067569e+03 2.440529109479921317e+03
-2.116059989304516421e+03 2.116079881292977916e+03
1.941672542492041248e+04 -1.941674090919538503e+04
5.088278226853027263e+03 -5.088271863486413167e+03
3.301958088212632447e+03 -3.301966115774128411e+03
2.383605825555094725e+03 -2.383602298953834179e+03
-1.062419936179874821e+04 1.062424549292528354e+04
-8.397530968375001976e+03 8.397546519383615305e+03
2.750376039076845700e+02 -2.750252249023119475e+02
2.548451956114608038e+03 -2.548456988947798891e+03
-6.885622319268561114e+03 6.885655321671729325e+03
-1.073615461292937107e+04 1.073616756593173523e+04
1.278641285781650367e+02 -1.278660564267756854e+02
1.249855765868391245e+03 -1.249832854429881991e+03
4.133758816996372843e+03 -4.133754584055377563e+03
-4.567073700308283151e+02 4.566883006380637653e+02
5.861674930192298234e+03 -5.861673698964255891e+03
-3.678010248528607917e+02 3.678258042002271395e+02
4.417606141544711136e+02 -4.417496195409294160e+02
-1.230251939397001479e+04 1.230255983430262859e+04
-1.007727098022515383e+04 1.007730389944179660e+04
-3.996917057301889145e+02 3.996970931649087220e+02
5.610667369416783004e+02 -5.610096839102407102e+02
2.901929578752444286e+03 -2.901925031932235925e+03
6.874746121944861443e+03 -6.874724339768126811e+03
-1.050405026193746016e+04 1.050406371103368656e+04
1.399614571362177685e+03 -1.399628436202660396e+03
-2.886125412970977777e+02 2.886532446109486045e+02
1.107670189402482356e+04 -1.107668840772957083e+04
-8.883569605688033334e+03 8.883579586121923057e+03
3.611203189446782289e+03 -3.611212658559814372e+03
2.154361120222828322e+04 -2.154354586165987712e+04
1.130336067373955666e+04 -1.130335521770880950e+04
-4.283172671274614913e+03 4.283156556541099235e+03
3.278783164514101372e+03 -3.278781499314271059e+03
3.442323980659761673e+03 -3.442332385425702341e+03
5.480201298096331811e+03 -5.480194266199746380e+03
7.210754123762465497e+03 -7.210774437609338747e+03
5.342109005355832778e+03 -5.342107772996796484e+03
7.885172506080645690e+03 -7.885162942652735182e+03
-5.802459434627719020e+03 5.802493153397150309e+03
-5.187000503673504682e+03 5.187004306863366764e+03
-4.000461047799507469e+03 4.000448590312114902e+03
-3.980939048928530610e+03 3.980951048971876389e+03
-1.897891749703017922e+03 1.897866649098062226e+03
-3.306053825383149160e+03 3.306083007561899649e+03
8.896360571458944833e+02 -8.896488709222292073e+02
2.145280047831134652e+03 -2.145298986329859872e+03
-2.962687251410908175e+03 2.962683546528119678e+03
1.051256323921844523e+04 -1.051251786051901763e+04
6.383596056694335857e+03 -6.383601920518490260e+03
3.302538099589782178e+03 -3.302543814896478125e+03
-1.479447834907026845e+03 1.479474934938856677e+03
-9.008988823740943189e+03 9.008993351821856777e+03
7.674060337318547681e+03 -7.673993799640429643e+03
-9.789611687409105798e+03 9.789592207981360843e+03
5.063557623245228569e+03 -5.063564284625983419e+03
-6.430672174638120850e+02 6.430628858609716190e+02
-1.233903564533124882e+04 1.233904383933116333e+04
-3.361530942961760047e+03 3.361531368110838685e+03
2.493038889625695447e+03 -2.493023318343751725e+03
-3.217317988532663549e+02 3.217449041088896138e+02
6.185125047515347433e+03 -6.185137130268592955e+03
1.498806387324942079e+03 -1.498799438909742094e+03
-7.403414348757569314e+03 7.403408010807808751e+03
2.563000367353104139e+03 -2.562985156525671300e+03
-2.491543898659190381e+04 2.491545478292395273e+04
-1.015601205016812673e+04 1.015602909855368125e+04
1.926446017819285544e+03 -1.926450435253686010e+03
-6.531151166340510827e+03 6.531158107577302872e+03
7.244896174255436563e+03 -7.244867176212162121e+03
1.419095858443834004e+03 -1.419100754802054325e+03
2.564391573707552379e+04 -2.564389158035735454e+04
3.743105423957752009e+03 -3.743126855976111983e+03
-1.305167253089794031e+03 1.305180735105474014e+03
-1.986257455983215550e+03 1.986242820218122233e+03
-8.095955137291089159e+02 8.096019476943686186e+02
1.242472855868015904e+04 -1.242471205982776883e+04
7.924063432321775508e+03 -7.924046441771296486e+03
7.400308805432678128e+02 -7.400336954477820655e+02
4.542126240083742232e+03 -4.542130045359470387e+03
-1.449429097994670883e+02 1.449440015058517019e+02
-8.864880727664174628e+03 8.864861598015964773e+03
6.436299268371420112e+03 -6.436309794015366606e+03
-1.010349338581116172e+03 1.010349269409266526e+03
-1.619710716966147447e+04 1.619716495624678646e+04
-8.027405907312390809e+02 8.027694883310623482e+02
-2.265018773107766719e+03 2.265009356929423575e+03
4.944172143764826615e+03 -4.944161893924403557e+03
-1.384410239023977738e+04 1.384411503317537245e+04
4.509535576857269916e+02 -4.509640867664202233e+02
-4.676145836464111198e+03 4.676133573351227824e+03
-6.030595003051971617e+03 6.030623119999643677e+03
3.949237240371961889e+03 -3.949228112332268211e+03
-7.429678046804925543e+03 7.429664396585254508e+03
2.214788586279033552e+03 -2.214772715752767908e+03
-2.899177382077825769e+03 2.899176120284217177e+03
2.218308651926232415e+03 -2.218293676454867636e+03
2.774179426781346592e+03 -2.774163666573470891e+03
-5.070712262356550127e+03 5.070697251021720149e+03
5.737153064306679880e+03 -5.737152702144019713e+03
1.895676568881932326e+03 -1.895679674823997630e+03
2.918093166019215460e+03 -2.918095735734772461e+03
-1.172264262797565607e+03 1.172272076173444475e+03
-6.140853752767552578e+02 6.140844717475620200e+02
-9.911496936067196657e+02 9.911524135800873410e+02
6.036162032153139080e+03 -6.036167419730691108e+03
4.442077741852125655e+03 -4.442068541396631190e+03
-2.486592080065983282e+03 2.486620437856737226e+03
-8.265705971292974937e+03 8.265738847834170883e+03
6.187723057137405704e+03 -6.187686343707026936e+03
3.701826317498362187e+03 -3.701819212092703310e+03
-6.257433776783345820e+02 6.257497010271995350e+02
