9.618823643943673233e+03 -9.618767403421021299e+03
-1.880616292582628375e+04 1.880615044769814995e+04
3.894758097664321213e+02 -3.894600764404494839e+02
9.960278068508237993e+03 -9.960276969295424351e+03
2.353030795496441351e+04 -2.353029868253408495e+04
4.414970206609857996e+03 -4.415023896625738416e+03
1.954272765981535485e+03 -1.954313913581640008e+03
6.198915382655890426e+03 -6.198924955351317294e+03
-2.944120117368123465e+04 2.944118396785249934e+04
-4.013240436827884878e+03 4.013237382634998539e+03
1.358931555404543542e+04 -1.358928786231358390e+04
-9.141308951765746315e+03 9.141318730193321244e+03
-2.505326549005234119e+04 2.505325372460345534e+04
1.277788326963011787e+04 -1.277787472574222556e+04
-1.444295810262199666e+03 1.444303146029835261e+03
5.183812348480240871e+03 -5.183808744725842189e+03
-2.504995767014888406e+04 2.504996875291601464e+04
2.677876378425713483e+04 -2.677880169667208975e+04
7.927645242471971869e+03 -7.927646603479678561e+03
1.363438161429788124e+03 -1.363402203326120798e+03
7.426009420272996067e+03 -7.426006712065631291e+03
-6.953829997466758869e+03 6.953923657826873750e+03
1.080861293933229535e+04 -1.080861039369194077e+04
-1.269427642352905241e+04 1.269425106911754119e+04
3.238440609854897048e+03 -3.238426358244585572e+03
-5.520310748014616365e+03 5.520290838906975296e+03
-9.784730661787678400e+03 9.784687097200599965e+03
-1.530818175640670415e+04 1.530819972959778897e+04
5.974047341180732474e+03 -5.974048328055025195e+03
2.620141970543042589e+03 -2.620156205264836899e+03
-1.610808963432267774e+03 1.610811526767560281e+03
1.552152103528730004e+04 -1.552155775931619246e+04
1.561183537212760712e+03 -1.561176750556240222e+03
-3.596694221601941535e+03 3.596697734157886316e+03
1.398366324799826180e+04 -1.398367986078511967e+04
-5.147311673692340264e+04 5.147319450200159918e+04
1.571436775875241801e+04 -1.571438954947710954e+04
-2.744010822334123077e+03 2.744017629454002417e+03
1.679215072713511836e+04 -1.679216334279134753e+04
-5.177611921096762671e+03 5.177615712931863527e+03
1.244031660169280076e+04 -1.244028577293477429e+04
-6.476327929868946376e+04 6.476342954005017236e+04
-1.012682536023824650e+04 1.012682560985531381e+04
4.247140755641692522e+03 -4.247128270747676652e+03
8.725006029575120920e+03 -8.725029503283658414e+03
1.015731116116266548e+03 -1.015750608207195910e+03
1.950650352854286393e+04 -1.950652738128160854e+04
1.994254669147358072e+04 -1.994260949258905021e+04
-4.796734405811977012e+03 4.796744893623956159e+03
-4.169283131545533251e+03 4.169273173517438408e+03
7.480624717581698496e+04 -7.480641323079902213e+04
-2.557241312268865659e+04 2.557240981905666195e+04
7.462931429064527038e+03 -7.462839881205367419e+03
1.962984003951760678e+04 -1.962987642666111788e+04
3.332550169645154256e+03 -3.332503206329347449e+03
3.905067811804790108e+04 -3.905063946273073088e+04
-1.272877083614332514e+04 1.272884009715069260e+04
-1.118997249270847533e+04 1.118998292169199703e+04
8.821045578234301502e+03 -8.821056130507648049e+03
8.923191892542819915e+03 -8.923197916945973702e+03
-2.683240984397629290e+03 2.683287975693849148e+03
-2.201937412624381068e+03 2.201947508349425334e+03
-4.092504784428398125e+03 4.092512199245538795e+03
-6.580156104603516724e+03 6.580212776190332079e+03
-9.521305633975765886e+03 9.521321481859846244e+03
-4.244023624544177437e+03 4.244001802087354008e+03
6.964075764310255181e+02 -6.964104613509643968e+02
-9.759586932637663267e+03 9.759606929919516915e+03
-8.312345817057241220e+03 8.312349058771811542e+03
1.579840343918801955e+04 -1.579839003755166232e+04
-7.285000153605458763e+03 7.284967693497029359e+03
-4.982307871575555328e+04 4.982336914487589092e+04
-5.093181635680057298e+03 5.093202865271054179e+03
1.765932690012000239e+04 -1.765934426798778804e+04
-1.696036071315668596e+04 1.696037451254390180e+04
-2.901571324754067973e+03 2.901542565235482471e+03
4.321031371247992502e+04 -4.321030879866944451e+04
2.105454026133995285e+03 -2.105417131948182941e+03
-8.600987672564850072e+03 8.600991849703214029e+03
-8.914728825895137561e+03 8.914764944359005312e+03
-4.261271045592530572e+04 4.261285504173209483e+04
6.084636665290667224e+03 -6.084672435660991141e+03
-1.925665533929399680e+04 1.925669397920407209e+04
1.041610898471547625e+04 -1.041610031571816216e+04
1.428047239944292596e+04 -1.428041828630753116e+04
2.410568465721039320e+04 -2.410573670831200434e+04
5.701146584073172562e+03 -5.701118683825305197e+03
1.469938858985789193e+04 -1.469942410095536979e+04
-2.146656878443627647e+04 2.146659439345407736e+04
3.560030201341475913e+04 -3.560026542499010975e+04
-2.275344427759819519e+04 2.275341145174807752e+04
4.067936221179839777e+04 -4.067932193138674484e+04
-3.841697179042239441e+03 3.841670540800150775e+03
8.443568369790828001e+03 -8.443602677814142226e+03
-1.950509470162767684e+03 1.950500347720924765e+03
-6.407715243661154091e+03 6.407742731563879715e+03
-3.890930277481515077e+03 3.890977793576064869e+03
1.603702917858707951e+04 -1.603700399991942868e+04
-3.994259586819607648e+02 3.993892416086255253e+02
2.843569931051366439e+03 -2.843530670177940920e+03
-3.421311407637111643e+03 3.421321953350479816e+03
-5.701183788562500922e+03 5.701248765320866369e+03
3.515026681713073049e+04 -3.515032294605307106e+04
2.920268697200097904e+03 -2.920274506450880381e+03
2.072749991952936034e+04 -2.072748382799523824e+04
1.227257111341067457e+03 -1.227248812270405324e+03
-3.147899975735039698e+04 3.147898714021822525e+04
-6.446948400587955803e+03 6.446964055826490039e+03
-3.363992790361502557e+03 3.363995238377636269e+03
-6.681200267553982485e+03 6.681244301750499289e+03
2.467408900150185218e+03 -2.467404200350746578e+03
1.162241708816422943e+04 -1.162241405073649003e+04
-3.604257536612617514e+03 3.604213613824293134e+03
-1.004227173956891784e+04 1.004226584276209360e+04
1.025247100326318468e+04 -1.025250579138342437e+04
-2.162155972132035095e+04 2.162160297760960020e+04
-2.276723280409121071e+04 2.276731108629037044e+04
-3.108347129179294643e+04 3.108352199723561353e+04
-4.272828268464619759e+04 4.272832588998629944e+04
-3.659041371596732643e+04 3.659040655354384216e+04
-4.791819599116609425e+03 4.791830298120384214e+03
-1.004914533700766879e+04 1.004913609487186477e+04
2.403517942573455002e+04 -2.403519154511902161e+04
-7.692061432717305252e+03 7.692080052871178850e+03
1.306620501494409837e+04 -1.306615408928773104e+04
-3.945182982025583624e+04 3.945185568697860435e+04
2.760182084463245701e+03 -2.760200069425883157e+03
3.281824254818604095e+04 -3.281824380879741511e+04
3.761484866092265293e+03 -3.761480721974394328e+03
4.688300457024281786e+04 -4.688302026074052992e+04
4.984565713953092200e+03 -4.984540733951511356e+03
5.986890064332224574e+04 -5.986885651802771463e+04
6.649997937846739660e+03 -6.650081560858459852e+03
-5.412547311857430032e+03 5.412522035450238036e+03
2.490398888897080542e+04 -2.490397647700623202e+04
-7.184417758269331898e+03 7.184456770864300779e+03
1.930649354736168971e+04 -1.930643940233381363e+04
-6.135629463653604034e+02 6.135609798087825766e+02
6.167907255534648357e+03 -6.167906555926198052e+03
-9.763102817650695215e+03 9.763093947599874809e+03
1.650266376381785085e+04 -1.650258696187229725e+04
-1.630196521381261482e+04 1.630199973047754611e+04
4.003339951410875801e+04 -4.003343993274751119e+04
-1.310697176117241906e+04 1.310692365811629861e+04
1.649372514806726394e+04 -1.649368944630932674e+04
-2.442927284673352187e+04 2.442925680317956721e+04
1.173644268474321143e+04 -1.173642212192288025e+04
-2.044956022121579508e+03 2.044936719095626358e+03
1.571466179339190967e+04 -1.571470025090847048e+04
-9.050382710836573096e+03 9.050410844129261022e+03
1.817665755165069277e+04 -1.817665364521728407e+04
4.096483510458833734e+03 -4.096484909163855264e+03
-2.535063791229544586e+04 2.535068291303174919e+04
-8.351061960216666193e+03 8.351097860203477467e+03
-1.894225492029662564e+04 1.894222797837850885e+04
-8.727576854212147737e+03 8.727586851559370189e+03
-1.598905782751683000e+04 1.598900579618690972e+04
-5.728052338218511068e+03 5.728064565242338176e+03
-2.094457829421276983e+03 2.094520297074323025e+03
-8.980596517733100336e+04 8.980599477868832764e+04
1.808219694306058955e+03 -1.808218568888352820e+03
1.338685966029610063e+04 -1.338691690051399928e+04
5.579934884955121379e+04 -5.579932531028324593e+04
-4.173895357235442134e+02 4.173542818037803954e+02
4.273013082816876704e+03 -4.273021489080671017e+03
-4.871937786757365393e+04 4.871938091233361774e+04
-3.745658496239775559e+01 3.747511818321345345e+01
6.947612203551041603e+03 -6.947589845816735760e+03
-3.592289374457785743e+04 3.592292091994376096e+04
1.819222210521061788e+04 -1.819218236713392253e+04
1.595097824868478892e+04 -1.595094157338429068e+04
1.319713224119427832e+04 -1.319705582984174544e+04
-2.575454270549971261e+04 2.575456340575754803e+04
-1.427904842541061225e+04 1.427901832016674052e+04
1.827456692312606901e+04 -1.827450117245364527e+04
-4.397011953282201830e+03 4.396943145843206366e+03
1.027772457667908202e+04 -1.027769776108325459e+04
-3.433038012492786947e+03 3.433081735794381530e+03
1.149379579883304177e+04 -1.149374704439663401e+04
5.090909665418700570e+03 -5.090940696096578904e+03
-9.148233646131020578e+03 9.148238997433240002e+03
1.672355486034208661e+04 -1.672353938990490860e+04
8.231448514907686331e+03 -8.231481180736465831e+03
-6.396844190420148152e+03 6.396867425796417592e+03
-1.537697606995759270e+04 1.537697513457583045e+04
4.803660195277108869e+03 -4.803602761813765028e+03
1.130035191724920514e+04 -1.130034230051731720e+04
-2.955389565640711226e+03 2.955335696692483907e+03
3.334992710336205346e+04 -3.334994119071968453e+04
-1.988283323106469470e+04 1.988291504449986314e+04
4.289344591680157464e+03 -4.289351749490568181e+03
-4.288144972749053522e+03 4.288106540488628525e+03
2.292576958335020026e+04 -2.292584170755130253e+04
1.426965377980868652e+04 -1.426965973063396814e+04
3.427812526249886287e+04 -3.427811920691072010e+04
4.528815044181716075e+03 -4.528784344456256804e+03
-1.660294402025728232e+03 1.660248072380241865e+03
-2.798922766121038876e+04 2.798931415968831789e+04
1.977125387713076634e+02 -1.976879783502809005e+02
-3.961573526237437181e+04 3.961580064178701286e+04
-6.965821244578564801e+02 6.965705425491105416e+02
-1.656763583775319785e+04 1.656766573837881515e+04
-2.181276505321657169e+03 2.181265801904486580e+03
1.220210447415761155e+04 -1.220211141174296790e+04
1.371246782259022802e+04 -1.371244503969193465e+04
1.430952142952978647e+04 -1.430957797709310762e+04
-8.437029460681751516e+02 8.437027788155146482e+02
1.946026582506005070e+03 -1.946021061491774162e+03
7.893124979489100042e+03 -7.893118996353921830e+03
-2.081844306566506930e+04 2.081850783873840555e+04
-2.460985394107981483e+04 2.460985930745049336e+04
-1.328406174447818557e+04 1.328406319729005736e+04
-1.880675850939120573e+04 1.880674424178564004e+04
9.409854851805244834e+03 -9.409863286516390872e+03
-4.015939797290952356e+03 4.015978426193087216e+03
-7.105897414907797611e+03 7.105908879669738781e+03
-2.412466735898318439e+04 2.412471922353620175e+04
-2.742214206826727604e+04 2.742218524158112268e+04
2.037377056364304008e+04 -2.037375889216142969e+04
-1.195419763877743026e+04 1.195424701747619838e+04
6.214251020367475576e+03 -6.214199923123051121e+03
-1.263048496972863359e+04 1.263051439124141143e+04
-2.792708140308868315e+04 2.792701599861395880e+04
1.733392005959828748e+04 -1.733390373554847974e+04
-9.320749985814676620e+03 9.320733654899937392e+03
7.569931057837652043e+04 -7.569938137420566636e+04
-6.101582008147986926e+03 6.101608854468163372e+03
-4.640805074889778916e+04 4.640808987243969750e+04
-1.243008307629297997e+04 1.243005368670880125e+04
1.316453917258482579e+04 -1.316450020199351457e+04
-9.109978901335420232e+03 9.110002269577395055e+03
4.769818249118032327e+03 -4.769830085833986232e+03
-1.748606514412244724e+04 1.748613403321650549e+04
1.384333452427141492e+04 -1.384332257825455599e+04
-7.755925310153579630e+02 7.756428196621418465e+02
-1.745494991231292443e+04 1.745496585166460136e+04
-2.998890154007280216e+03 2.998879715389472949e+03
2.472112798485043095e+04 -2.472118010221513032e+04
4.554660972095480247e+02 -4.554893486593282432e+02
1.156680482203844804e+04 -1.156681847383723107e+04
5.929409662078376277e+04 -5.929411879325367045e+04
-1.193347043357617076e+04 1.193351810617791489e+04
6.219424385321059162e+03 -6.219455362881271867e+03
-1.660830889730342460e+04 1.660831685594022565e+04
2.276020558903824349e+04 -2.276024228803082951e+04
1.012787962646432425e+04 -1.012793149797176011e+04
-1.236650631305480601e+03 1.236633003450446267e+03
-2.024342953329013835e+04 2.024342613404117583e+04
1.304382928229981917e+04 -1.304375531230654997e+04
-9.386843588851386812e+03 9.386839778002009552e+03
