3.521815226262497902e+08
4.395040203247014284e+08
-4.644982583245380521e+08
3.744353664721195102e+08
3.015437551716773510e+08
1.194235592251152098e+08
-1.182678798933469653e+08
4.374272659141412377e+08
-1.133616764152023345e+08
-4.470001701195285320e+08
-3.856001538060959578e+08
6.852781668205057383e+08
-4.119526716559776664e+08
4.192678965389916301e+08
4.413761731304389834e+08
-4.622007777975935340e+08
-4.232871683280743361e+08
-1.404283605041519701e+08
7.061943976194563508e+07
-4.625022076155126095e+08
-4.493012943955139518e+08
-3.444192289023007154e+08
4.310950750541698337e+08
-3.464975524481290579e+07
-1.372360556968327165e+08
1.291640512339483798e+08
4.086382894506576061e+08
3.093894279134773016e+08
-2.715565011975955218e+07
-4.290023342614367604e+08
2.088469781332495809e+08
6.494260407809008658e+07
4.088736586614270806e+08
1.333236902924304008e+08
-3.952149265473327041e+08
1.819821455469398573e+07
3.045452521715961695e+08
-2.071714166186177433e+08
4.411368922220441103e+08
-3.988845191295210272e+07
4.820151408815150149e+06
-3.127677850324164629e+08
-3.615417753813493252e+08
2.621201106673323214e+08
-4.584988196508128047e+08
4.141550677064087391e+08
-2.203431385347696245e+08
-4.395915949972027540e+08
-3.726772790877440572e+07
-4.584622685013607740e+08
-3.912842895051243901e+08
2.497523912210671697e+05
-3.462285141913856268e+08
4.405178448833646178e+08
1.730059882170893848e+08
-1.365485945294758379e+08
-6.749343356764192879e+07
-4.536970051673921347e+08
-3.991723047674405575e+08
-4.626762940782866478e+08
-1.371927212284801602e+08
3.307287133116774559e+08
-2.482239718460978270e+08
-5.505279700312685221e+07
-2.314796474958481789e+08
3.201093230615540147e+08
-4.609687020494379997e+08
1.114655695512831956e+08
-1.918595021601353884e+08
1.258139129862929583e+08
-4.427539538078024387e+08
4.141714904387887716e+08
1.188785600808045566e+08
1.585587489117886066e+09
2.821249684256713390e+08
-4.465695149792861938e+08
-1.946506115299524069e+08
3.793258707265741825e+08
1.117945474788195938e+08
-3.677923869176209569e+08
2.197159726700741649e+08
-4.355175058768910170e+08
-4.511257172712529898e+08
4.035584427165930271e+08
3.038340471441402435e+08
-3.228807540713789463e+08
3.622556916560420990e+08
2.148937504826661348e+08
7.547703323863008022e+08
2.569782991200270057e+08
-2.986155214945905209e+08
-1.576703504365745783e+08
-4.630425063236405849e+08
1.780271826531688571e+08
-3.771281438806567192e+08
4.411246767332019210e+08
1.933400960432073474e+08
-4.393766656473994255e+08
1.373025923916789591e+08
4.406955125758842826e+08
3.026070261581420302e+08
1.202975695531166494e+08
3.707803991382679939e+08
1.953747916803437471e+08
3.828273206863874197e+08
4.344225350729424953e+08
-4.273465004493376017e+08
-4.200921274089833722e+06
2.048655312632328272e+08
-4.361758768440088034e+08
-4.179253980701777339e+08
9.695863440048314631e+07
-4.626502653241835833e+08
1.583625036229260921e+09
-2.211864867064406276e+08
4.080592440806721449e+08
3.010507712202992439e+08
1.808577312910979390e+08
-1.329013257277745008e+08
4.192150620379626751e+08
1.916115342472972348e+07
8.988077322763743401e+08
8.459463671348685026e+08
3.725165924662476182e+08
-8.048936956021434069e+07
3.971405375964502692e+08
2.711057869783251882e+08
-8.990228102385994792e+07
-1.509142825394079089e+08
2.982418070932387114e+08
2.812285348848848343e+09
-4.586636952006446123e+08
-3.821775848163777590e+08
1.434593705046924949e+08
3.145469531679047346e+08
-2.431667415818180740e+08
2.513576842180508971e+08
-4.247851341437002420e+08
1.593372390376698375e+08
1.234005777517813444e+09
3.612532842679911852e+08
9.016620558260717988e+07
1.180779370160490721e+08
-2.591383009987599254e+08
3.827217162753205299e+08
-4.292794510445681810e+08
3.754427524974868298e+08
2.312552744894551039e+08
-3.017945735607770085e+08
4.079193819872299433e+08
1.621423432504747212e+08
1.269706296969522834e+08
-3.556221813196099997e+08
-3.345049062027637362e+08
-3.176448507680078149e+08
-3.201794453240534663e+08
2.328889059339555502e+08
3.085530259106960297e+08
1.149987430854886770e+08
-4.600619073264368773e+08
3.873179183055744171e+08
1.956012658097407222e+08
-3.896173287707629204e+08
2.497609316381624341e+08
2.164611407398361266e+08
-2.234571090170632675e+07
1.399125929926267862e+08
-3.578413571306642294e+08
1.170291581916438788e+08
2.989819785897569358e+07
-2.525192308138688803e+08
-6.504677957365903258e+07
-1.806919736755147576e+07
-3.911708547968866825e+08
3.072441711964527369e+08
-1.109205937406934351e+08
3.707882229425982833e+08
-4.606459288238222599e+08
-2.280710333789238241e+06
3.672727918189423680e+08
3.503176059072339535e+08
-2.484147721654886007e+08
-1.676040445755490065e+08
-1.878774495199110210e+08
-2.287528755746291578e+08
-3.322622667972404957e+08
3.943867487365106344e+08
2.381849545314198732e+08
3.809875335213319063e+08
-3.636263466514013410e+08
-3.186538277829853296e+08
-2.019029811519384980e+08
8.572400030954453349e+07
5.925514008521406353e+07
-3.881940080026978254e+08
6.850078512141196728e+08
4.396794022981399894e+08
-3.414923514204309881e+07
3.333114056235584021e+08
-4.137094365572867393e+08
4.407932942112391591e+08
-7.660528720008730888e+07
-4.382545654893320799e+07
4.343871927474479079e+08
4.231244043627601862e+08
-4.554000204620114565e+08
-1.238959366592309028e+08
4.414285700708290935e+08
-9.916159946283569932e+07
3.813213889406923056e+08
-4.049215567465611100e+08
1.191100144283807129e+08
1.742002929939999580e+08
-1.237806034986760855e+09
-9.758866984096435830e+06
-3.923217608173042536e+08
-3.605514402880704403e+08
-4.254411440083822012e+08
9.018122938628402352e+07
1.951390820881968141e+08
-2.609491714870409369e+08
3.962301286712089777e+08
3.544066852857037783e+08
-1.714710742658009529e+08
1.118777700289114267e+08
-2.272054056837210655e+08
3.920162140866156816e+08
-1.171518326250380874e+08
3.752328923226246238e+08
2.147947980764788985e+08
-3.434103447542881966e+08
3.632423085718344450e+08
3.923578231577290297e+08
2.250010322806524634e+08
1.169176493723989427e+08
-3.942460274040750265e+08
-2.184172878402193487e+08
-1.074283852109236240e+09
3.799833150722301006e+08
-5.827608092413704097e+07
-3.728436956895182133e+08
-4.133877681778056622e+08
4.413824462496896982e+08
-4.242239480333903432e+08
2.952915060116820931e+08
3.749126612748348713e+08
-6.827300865349811316e+07
6.693336901908792555e+07
3.474677007911761403e+08
-2.959620041835255027e+08
1.448468448603055477e+09
-2.187243063983328044e+08
-2.392281594219994843e+08
-4.464417633895287514e+08
-3.446515643812184334e+08
3.553235758216780424e+08
8.085190705376558937e+06
-7.001219349842822552e+07
4.391228044310312271e+08
2.674052144358265400e+08
3.005643757591820955e+08
-4.587166356318744421e+08
-4.449305341178880930e+08
4.238260825869888067e+08
2.469179149877942801e+08
-1.935249168205415606e+08
3.920640397584972382e+08
1.306810052235930920e+09
-4.524654924275498986e+08
-6.959865900693386793e+07
-4.638667744016535878e+08
-5.809128480310226440e+09
1.092257953638438284e+08
-3.724767489880773425e+08
-3.921348620001754165e+08
4.319581984996935725e+08
4.345184464626237154e+08
3.971718734712859392e+08
-4.557589406306976080e+08
-1.727219546572875977e+08
4.074941349632680416e+08
4.410946584362131357e+08
5.144323835077995062e+07
4.026316834145400524e+08
-8.630740131474775076e+07
4.410149218428078294e+08
-7.780917562995065749e+07
-1.757296534172208011e+08
-3.819504657136274576e+08
3.064343084490624666e+08
-4.579538739908633232e+08
1.830024674432153702e+08
2.273614475925349593e+08
1.649736716143181086e+09
1.259418268781920224e+08
-3.925253415350481272e+08
-3.234429936360991001e+08
2.357430240179461241e+07
-6.095534835325154662e+07
-1.103202818652297497e+09
1.006587740856659561e+08
-4.624532063126157522e+08
3.831395035005029440e+08
3.601493302549675107e+08
-4.028428063593041897e+08
-4.403773028992267847e+08
-1.477493616148858070e+09
-3.603399758082813621e+08
-4.569285285556116104e+08
-3.492793981695371866e+08
4.154494921617214680e+08
-3.660028640975363255e+08
-3.752201046101992726e+08
-1.195019630205499828e+08
-2.423496894722878337e+08
-3.624747019256373644e+08
-1.181288168512775451e+08
1.451470959434338212e+08
-1.039207727076120019e+09
-1.126956951677430607e+07
-1.047484846027336121e+08
-2.073232172843974829e+08
-4.259093851836186647e+08
-1.714259036510199308e+08
-2.746372501620635390e+08
-5.957115905638351440e+08
-4.446789506518791318e+08
3.501894210283747315e+08
1.634166126340460300e+09
-1.346865852695996761e+08
-4.556049796094335914e+08
1.251500850976599693e+09
-3.863502239982016087e+08
4.384183713866849542e+08
-2.114434631490970552e+08
2.453916838775570095e+08
3.372566775921924114e+08
-2.992298439307610393e+08
-3.731505763640617132e+08
-5.447660108380845748e+06
1.960373592910704017e+08
2.930563155943328142e+08
-2.860307063001011685e+07
1.215319341819794476e+08
-3.188364049044833183e+08
-4.632405965457406044e+08
-5.889463768043678999e+07
-2.507153755802725852e+08
3.302551273690720201e+08
3.181163496719198823e+08
-4.025605480981955528e+08
-3.142753488553836346e+08
1.646687474780029655e+08
3.815907138613007069e+08
3.470844160603217483e+08
3.197618477065745592e+08
1.823769092473223805e+07
-4.126689431763561964e+08
2.658147963967038691e+08
3.294213928564247489e+07
-4.152387483987387419e+08
2.361661839448860884e+08
4.130174797240685225e+08
-2.133334355030708313e+08
2.788490290216867328e+08
-4.643544380747538805e+08
4.414463183001878262e+08
-2.897492430997332335e+08
-4.495154498223028183e+08
4.314001514408637285e+08
-4.551852576865836382e+08
4.408737535336832702e+07
-2.665636981995255351e+08
-4.433183760957849622e+08
-1.652734579553537369e+08
-4.604960517128945589e+08
-2.010315307863103151e+08
-4.628066243475036621e+08
2.106013460338005424e+08
-4.435543779911606312e+08
-1.589051490655325651e+08
4.412543768505476713e+08
2.972136250106497407e+08
-4.623679993456698656e+08
4.102147986573363543e+08
-1.777351050307565928e+08
1.248053384016063213e+08
-1.915700826205790937e+08
1.962879578012543917e+08
1.251412696239275336e+08
-2.450183728460374475e+08
-2.515844719764290452e+08
1.744772063663827181e+08
4.272483227280085087e+08
4.396297923466235399e+08
1.523429278634449840e+08
3.896388800965745449e+08
-2.894305247405692339e+08
1.121946950400744677e+08
-3.623911291363383532e+08
