2.564137194834906235e+07
1.540947191307886541e+08
-1.444333048084814847e+08
1.614126235064333081e+08
9.339464592939297855e+07
1.663560692762223445e+07
-1.424116944293411374e+08
-1.231963383909612745e+08
-1.345769607238297164e+08
-9.140636553257827461e+07
-9.371478383658257127e+07
-8.630960702122519910e+07
-1.423958133202701807e+08
-2.978934244602661952e+07
-1.440572869276118875e+08
-3.058833222900036722e+07
-4.305296895097235590e+07
4.519745108522716165e+07
1.163651121858230680e+08
8.647098724006327987e+07
9.316810769846376777e+07
1.049406031808649302e+08
-1.354963373633159399e+08
3.693324665362089872e+07
-1.210795614423075318e+08
6.794948219627417624e+07
7.618649850051392615e+07
-1.333157275114521831e+08
-1.185446006019054651e+08
-2.855268351485560834e+07
-9.550817718374364078e+07
-1.401973687530476749e+08
-4.470706588776781410e+07
-7.550055119692885876e+07
3.936517908235390671e+06
-1.124062311014736593e+08
-1.221271388803184181e+08
-1.422104395635968745e+08
-7.524796181501519680e+07
1.573380973456657827e+08
1.123491085840740502e+08
-5.564353090043617785e+07
-2.840247584666284919e+07
-3.672090591276480258e+07
4.221370741680549085e+07
-1.227485123882332817e+07
-3.258368244185295328e+07
-3.971729012817613315e+06
8.760777981180247664e+07
9.600161826355165243e+08
1.572650747770670652e+08
-1.058978382965048254e+08
-7.715222990934988856e+07
1.770416613672905564e+08
1.331705899469438493e+08
7.686825377340540290e+07
-1.029118516079946160e+08
-1.431650097326786518e+08
1.589434740647819638e+08
9.036249944900648296e+07
1.132538108436010778e+08
-2.723942351493716240e+09
1.477293660239052176e+08
-1.209867270642587394e+08
-1.291118469570891857e+08
-3.381292102491151541e+07
1.588173772119222879e+08
-1.172100205108722597e+08
9.118727656596672535e+07
-1.376366083938461244e+08
1.173054882318373621e+08
-3.325397729969917610e+07
4.332299585213580867e+05
-1.267920804172689319e+08
3.805492238567036390e+07
-1.433654244647427797e+08
-1.300825994080029428e+08
1.420162889920402169e+08
-1.257382455352142900e+08
-4.221454334672193229e+07
-1.435717252501095831e+08
-1.425670674620790482e+08
1.298234793205494136e+08
-1.375936401696978807e+08
1.047113661125837713e+08
-1.414091316377126873e+08
-3.001452174249040708e+07
-1.241424931240597069e+08
1.220411197217327058e+08
-8.049443741361743212e+07
7.554566821763348579e+07
-4.689927294592138380e+07
9.533394140464904904e+07
1.328895141703062654e+08
6.420260260861677676e+07
1.583699117809419334e+08
-1.432285516833788157e+08
-5.390828684072127193e+07
-1.909176266792897135e+07
-9.759780403533473611e+07
-1.274114925465779006e+08
-1.436590859201624691e+08
3.558272128830677271e+07
-1.409904067692226171e+08
-1.135011863002039790e+08
1.555247990060772002e+08
-1.397387637915914059e+08
1.556735996522197127e+08
-9.097607771563678980e+07
1.205314770335679054e+08
-9.952420451502260566e+07
-1.107473737827156484e+08
1.640584303034567833e+08
-1.186420150739243776e+08
-3.224630222984424978e+07
-3.493031140372990072e+07
-8.637891047572221141e+05
1.033586577620871365e+08
-1.387902605186187625e+08
1.737138171947305277e+07
2.644328049315747619e+07
-6.958572576602596045e+08
2.269529984014892951e+07
-3.554821793328364193e+07
1.130608365063960850e+08
-1.423390880468744636e+08
-1.179205518727525622e+08
-1.143475397293665111e+08
8.272110955680117011e+07
1.245365667716353238e+08
6.243539301844175160e+07
1.651560191276403069e+08
-1.444063084950450063e+08
-1.372505206218370795e+08
1.641649402397426367e+08
5.843585364333302714e+06
8.551336204043889046e+07
-8.575652502292913198e+07
1.677457665368422270e+08
4.572074265351819992e+07
-1.421907578064070940e+08
3.927841891415468417e+06
7.835378933952865005e+07
-4.887289070925043523e+07
1.641617192500530720e+09
1.578768150638384819e+08
8.480480772223420441e+07
-9.177064970512789488e+07
-1.210898404855022132e+08
-1.178203687748918533e+08
-1.947404122010175884e+08
-8.639638490438081324e+06
-7.908895171113052964e+07
-9.122919199364690483e+07
1.503450177837741077e+08
-1.138078648761579096e+08
-9.638086224372582138e+07
1.603995649555233419e+08
-6.092970798392368853e+07
-1.135425266466631740e+08
4.876755691774078459e+07
3.970956397482107859e+06
-1.289636390153640956e+08
9.587992100598126650e+07
-5.447526593619810045e+07
7.675284228106768802e+06
-1.067470869962049425e+08
-4.448073006092721224e+07
-9.359193624810114503e+07
1.442622360653451979e+08
1.461882137660887241e+08
-2.295017266873147339e+07
-1.299872046083559692e+08
-1.025140174627467692e+08
1.644317210650402009e+08
-1.272734347342029959e+08
1.565264715129536986e+08
-3.694553718190371245e+07
-2.593495534081947990e+06
1.560896943287878931e+08
1.415542364396042824e+08
1.654744301403861642e+08
-1.053753910815648735e+08
-1.432241478551838398e+08
1.542204143785483837e+08
1.547137167936433852e+08
-1.010452823423906788e+07
1.191316283638499677e+08
1.984110010482370853e+08
5.839234276877068728e+07
-1.136745161337072849e+08
3.269999455778320879e+07
-1.018389800658472478e+08
-1.126825674612220526e+08
-5.838833113701841235e+07
-4.476429368229053915e+07
1.217371691929371506e+08
2.613533889101729915e+07
-1.473592749193571694e+07
1.621987690009627640e+08
1.042176243181866705e+08
1.221305205401323289e+08
1.673079227375133932e+08
-5.230082591323214769e+07
4.905904374924641103e+06
1.674407451869308054e+08
-1.425175470071771741e+08
5.344988929793321341e+07
-6.199528442452080548e+07
-1.355382622833023965e+07
-1.441127919936209321e+08
-1.163920363911978006e+08
-1.147621478694626689e+08
-1.443163557829602361e+08
-1.444402315192438364e+08
6.164340563114898205e+08
-9.479256461257886887e+07
-2.564410528416916132e+08
-1.289940145636444986e+08
-1.148553748910973966e+08
1.595599469603817165e+08
1.978135379565120935e+08
6.537550595627798140e+07
1.101587267874167860e+08
1.144711383064861596e+08
-6.081480334863851219e+07
-1.443348226861056685e+08
1.527617214601740837e+08
1.394384179944639206e+08
-1.444390233188226223e+08
1.556256681236996651e+08
2.669489217877995968e+08
2.804901412162379920e+07
3.562082525179710984e+07
-8.455105365482610464e+07
-8.682807638505837321e+07
1.607162862785030007e+08
-1.444411631475752592e+08
-8.484488221206071973e+07
-3.774697950158379972e+07
-1.176320134945952892e+08
-3.396054613093517721e+07
-1.085357641276370287e+08
-8.367080569504587352e+07
-3.381899966057498008e+07
1.375058951088683307e+07
1.751364457995134592e+08
-9.731723923728489876e+07
8.111176672681918740e+07
-9.341821921350690722e+07
-1.392978930979915261e+08
-2.490294742941206694e+07
6.760774740273708105e+07
9.571026696617254615e+07
1.329410849229118377e+08
6.995851016396924853e+07
5.746511329216323048e+07
-1.332253388085245043e+08
-9.949670401681743562e+07
1.680695805160868168e+08
9.471523468180315197e+07
7.687106137444236875e+07
-1.270452127681176364e+08
-1.233620683313336968e+08
-4.038538566861447692e+07
-1.444718198566197455e+08
-2.844588084174626041e+06
-8.553332185092833638e+07
-8.852052031413872540e+07
1.381848322033566236e+07
-1.421222969730713367e+08
9.634859966185805202e+07
1.003376553932096660e+08
6.009238408516623825e+07
1.677136688306767941e+08
6.854644076570791006e+07
1.542578384723746479e+08
-6.571986867380748689e+07
7.942950993566831946e+07
2.303231510983632505e+07
-6.814020143346957862e+07
-9.787652639964789152e+07
-6.572222563923479617e+07
-3.908435775907924026e+07
-5.414162936601130962e+08
-4.347102336513504386e+07
-1.286268251660354435e+08
-2.391001590750472620e+07
1.663126713062020540e+08
1.232683590063270330e+08
1.581149604944504565e+06
-5.368110325006009638e+07
-1.823954691198678315e+07
9.450010987924098969e+07
-1.368241245618337393e+08
-3.385053078914659470e+07
-6.168581371341690421e+07
-1.307717708353469521e+08
1.584579475540054217e+07
7.112783682608261704e+07
1.081757112748627216e+08
1.261272283154722452e+08
7.545525147774234414e+07
1.099215060520190746e+08
4.423095868441836536e+07
-1.409812485360999703e+08
-1.316206229078431427e+08
7.915774237653654069e+06
-1.121983407486689091e+08
-5.901481817615653574e+07
1.623945980561981201e+08
-1.394262360510901213e+08
1.604875485228550732e+08
3.895795678362681717e+07
1.529811062526149154e+08
-1.303796060518299192e+08
1.020235892453875244e+08
-1.199960734460284710e+08
-5.830400881996248662e+07
1.633552127919259071e+08
1.185091283377995491e+08
8.834960582905562222e+07
8.621064686625662446e+07
-1.607434493407262862e+07
1.498806464354365468e+08
1.428139484364200234e+08
1.218731095218130350e+08
3.766475776018569618e+07
9.417616162242589891e+07
-6.376087654446478933e+07
8.157791686457914114e+07
-3.516377086974865291e+06
1.677485450802058876e+08
1.623824313793014288e+08
1.484785740264846981e+08
1.675064258745282590e+08
1.145796134633862674e+08
-9.109938906816212833e+07
1.389873704323231429e+07
1.281008479019722492e+08
1.634772700058125854e+08
-1.404244226449541748e+08
-1.209040584582278728e+08
8.100296867459636927e+07
-1.336582136372296512e+08
-1.213782436039707810e+08
1.677365035989017785e+08
-1.180945454963209033e+08
-1.280995637317148149e+08
1.043585936623258442e+08
-6.196082649495408684e+07
6.712709307789286971e+07
3.085194139247812033e+08
-5.435981027753213793e+07
-1.437147916344574690e+08
9.413580912548315525e+07
1.280583758554945439e+08
1.050152331539930403e+08
-1.317857596025025994e+08
1.509099318948075175e+08
1.673920428685537577e+08
-3.664990018038836122e+07
-2.360557515757697821e+07
-1.253337287350939512e+08
6.164649944315324724e+07
-7.775528464259865880e+07
-1.109091171239835322e+08
7.719011513617408276e+07
1.287661146916792095e+08
1.058495272215099335e+08
-1.252238492288994938e+08
-2.454389604451667145e+07
-1.322310270322761536e+08
-1.444472284230082631e+08
-1.171110214236491024e+08
-1.399067524062506258e+08
4.082634439055876434e+07
-2.993207721209215373e+07
1.231070276058480293e+08
4.982879266031751037e+07
1.283242871660555005e+08
-1.057144173366600126e+08
1.420375811866538525e+08
1.621856674773288667e+08
-1.301508627042311132e+08
1.236055104563462138e+08
-4.730756796182480454e+07
1.427675906841917634e+08
-1.240020832100888491e+08
1.656151436883383393e+08
9.661376304663632810e+07
-1.402398880322782695e+08
3.385955304326366186e+08
9.371375899791368842e+07
-8.629208344546073675e+07
-4.549754824131628871e+07
-6.262565295669805259e+07
1.633076292224262357e+08
7.162363017068742216e+07
1.665959727641562223e+08
