3.120699865717623234e+08 1.697437190073939800e+09 9.788267881137487411e+09 -6.914066676072766781e+08 -1.205091462920248032e+09 4.720234111177685857e+08 -5.491372857021865845e+08 5.383864796004167795e+08 -1.976599955008507967e+09 -1.171209718241044998e+09 -2.538182203380442619e+09 8.554929795398164988e+08 5.424105561634446383e+08 7.301186225401687622e+08 9.938907847072640657e+08 -2.692293853433826447e+09 1.490289110860060930e+09 6.147413866102124453e+08 -1.013177398880758882e+07 -9.838299676453475952e+08 1.560793281950165749e+09 -8.975315508046972752e+08 -1.236129903039751053e+09 -5.385192531740241051e+08 9.644426240970127285e+07 -5.202302338336309433e+09
-2.359074209435084793e-02 1.724641811222688698e-02 -6.724789835249106104e-04 1.590182272949199407e-02 1.927485303485737544e-02 4.189028698235337800e-02 -8.860183296350479520e-03 -3.595119289493317258e-03 2.346197948598868765e-02 3.809489088822764352e-02 2.321600395044271306e-02 -4.951069580830531197e-02 -3.483766667065732632e-03 6.134324345067964680e-03 1.679628876066345811e-01 2.623729906689928858e-03 -6.736846739715999718e-03 -9.361068910630630097e-03 3.295579063266033948e-02 -2.160932863305032800e-02 2.534745513568287863e-03 -1.327462589282923586e-02 2.705580169067628785e-02 -5.368702452650182810e-02 -2.135271288221089470e-01 -1.044452521496050737e-02
-5.110793588970680237e+09 1.845705604387470627e+10 -3.158091430694520950e+09 -4.720088215727285004e+10 -3.462137015816992188e+10 -3.896453749722011566e+09 -4.600143111276674652e+10 -7.928552940508036613e+08 2.733042860559257269e+08 -2.597051229449495316e+10 9.840595352211404800e+09 -2.167351033010548592e+09 2.735879956763515949e+09 -1.588173491596937180e+09 5.446952430883274078e+09 -3.829154541127427673e+10 -1.928859065673141098e+10 3.498025221985524178e+09 4.799686356400938034e+09 2.074436859797843323e+11 2.836649483835805130e+10 -2.822193284355341721e+10 8.169213109869937897e+09 1.891834701079211712e+09 1.867337214774891853e+09 -3.648008226978669739e+10
-3.813207071681398025e-02 -4.358512931313877903e-02 7.318436455052341506e-04 1.021101324988125947e-02 -9.981798984801762767e-03 1.374805996184586265e-01 1.355365211247201024e-03 1.109465560059934158e-01 -1.629732639561344478e-03 -4.660750452987384024e-02 -5.502497870368831118e-02 -3.318215969076390021e-02 6.075220855417417382e-02 5.742599943865952378e-02 5.294438578650053490e-02 -6.950034989289900766e-03 2.125199143468829710e-02 -1.027735863939483740e-01 -5.315284911361804754e-02 3.385115813796017725e-03 1.514359572745161905e-03 -1.125355106012457685e-03 1.165723183166476190e-02 -1.593718432419348741e-01 7.214166669848452729e-02 9.718706561645876207e-03
1.862173578211975128e-02 -6.361195891815941972e-02 -1.741060582634505055e-02 -5.779995072163510161e-02 -3.853689436897951570e-02 1.168482899978215764e-02 -8.324058445131429784e-02 7.483787451453170758e-02 -5.686785783967814902e-03 -3.604246823374467751e-02 -1.138571231738960340e-02 9.785794841185899151e-03 -6.622632177938304540e-03 2.340647488662098152e-02 -1.037942980428404292e-02 7.679770507504964094e-03 1.529507534925099443e-02 9.897324490662674432e-03 -4.269406857343767923e-03 -6.220460355346769249e-02 1.090358403121077444e-02 9.590871518891221081e-02 -2.128907253997157009e-02 -1.152484786909912379e-02 -1.881370570961321889e-03 1.538651454028206189e-01
-4.940357504344590187e+09 1.767295803194533157e+10 -3.038629535619281769e+09 -4.528533444546010590e+10 -3.317233688015088272e+10 -3.783341897077235699e+09 -4.410896605637799835e+10 -7.353751334084973335e+08 2.001104758542721272e+08 -2.482170411609299469e+10 9.552510233392108917e+09 -1.976539929283606052e+09 2.568605156048110008e+09 -1.527182273796066046e+09 5.212600112059471130e+09 -3.670202004951152039e+10 -1.862392780932926941e+10 3.342220089998819828e+09 4.549579183376032829e+09 1.984233388940342102e+11 2.714717840911869431e+10 -2.707675463254393768e+10 7.970985751853904724e+09 1.922450325064667225e+09 1.787364376713994741e+09 -3.455743077651405334e+10
1.303892872364068867e-01 -4.901668921843488347e-03 3.551948253199966286e-03 -1.640906592892690807e-02 -5.190620555402006460e-03 -5.681611053652838722e-03 6.315553342898104668e-03 -9.795494434429152797e-02 -5.156783624733696919e-02 -1.456163896100134275e-02 2.225718904162086315e-02 -2.511968660632708517e-01 4.513512745708971735e-02 1.050573775634263129e-01 9.684522319921884392e-02 -1.454669449732766233e-02 2.355218048665320627e-02 -7.427280289106842279e-03 6.703991656184170658e-03 -1.334495434198956516e-03 -5.679940014964563084e-03 3.755698626979110579e-03 1.476262463138347525e-02 -2.515518139541890463e-02 2.990797514174111521e-02 1.337366706994114196e-02
-1.119122452328107329e+03 8.615916446872237429e+03 -3.375847051430770807e+04 1.010977102777370646e+02 1.513735782250571356e+04 1.410106741957682289e+03 -4.420085082707448237e+03 -1.342957296215785027e+04 -1.394664288503641365e+04 1.211706802258578500e+04 3.441943851474065923e+02 1.507523692656753701e+04 1.954585491006446318e+03 -1.401817711912776576e+04 -2.374677873930693022e+04 -7.569031068431496578e+02 -3.265678068462158990e+03 -3.855447787732979577e+03 1.514922631664061191e+04 -7.891004563903545204e+03 -2.116741456879105681e+04 -2.104714144528443740e+03 4.979205439228523755e+04 -6.797345387259246309e+03 7.425699549668715008e+03 2.315481357697818021e+04
-6.804753801910387589e-02 5.199079034876422090e-02 4.389830946891964958e-03 1.932466181459273694e-02 5.442067786000723967e-02 -1.279456961997874759e-02 -3.253292942577569458e-03 4.967051695383840892e-02 -1.960627415352209774e-02 2.409658742741160528e-03 -2.099042581764605855e-02 -8.168174973858844529e-03 -8.259342098138919980e-03 2.284525892001525171e-02 6.409588308529400730e-03 -7.046702829265955037e-02 -5.404818854670772124e-03 -3.062422626877830869e-03 -5.751106985247144907e-03 -4.278714487376374803e-02 -1.770636111338182855e-02 3.006824122253603376e-02 1.015093461938597688e-02 3.039151829241106689e-02 -6.546964460032050383e-04 4.881518787716736946e-03
-4.978092912146447890e-02 -2.909451860187677128e-03 2.652451781376954573e-03 1.823146587778166298e-03 -5.771256499593056810e-03 -8.321883321802261979e-02 -2.858605472060347149e-03 1.350469836755732560e-02 4.280641276777738535e-02 1.556128650390583082e-02 -1.371311657248155610e-02 -8.286755261732262415e-03 7.877550657919621391e-02 -5.359513565418735220e-02 -8.933109592230452020e-03 -4.398245482635633127e-03 3.235138717938043900e-03 -2.455675175551302880e-02 -4.401208693991508214e-02 3.054109385627065600e-03 -1.235309609240800577e-02 -2.030464484564970667e-03 8.618377985347226711e-02 7.444437820703195263e-02 -9.803483817976525044e-03 4.180413073311838382e-03
-2.224049008209353848e-03 5.257627667716925635e-02 5.513848626489335075e-02 3.906801954714856501e-02 -2.755302650058197994e-02 2.212959324743386802e-02 -1.668052792022834963e-01 -6.815438680641441871e-02 3.091402372360780096e-02 -3.315092648106567758e-02 -5.766380220764086295e-02 -1.058756345397492971e-01 1.418648276261328355e-02 -9.183539640390014566e-03 9.121424046435587518e-02 3.413824579331232317e-02 -5.049635814789630098e-03 -4.335108046830121048e-02 -1.395518297017587020e-02 2.127822012353268455e-02 6.932711849441303142e-03 7.018462147450947597e-02 1.437548291770528730e-01 3.934308435185294994e-03 -1.114520950471592081e-01 5.896857914650374677e-02
-2.505911862616566274e-02 -1.239871590335331428e-03 -2.350695772974516293e-03 4.046627878962978479e-03 1.137468573682897874e-02 1.822312451338124403e-02 -1.712819881803584118e-04 -1.394576919401969289e-02 -1.108734503962069060e-02 -9.156659519323817609e-03 -3.411611937125141533e-03 9.883554817184386776e-02 -8.499827649979242727e-02 2.929763877203062777e-02 -1.036771898458619529e-02 4.093936726889299896e-03 8.961245289778155959e-03 -9.802013810030256458e-02 2.677576557951368702e-02 -7.593609466891949877e-03 1.475977755589076915e-02 -2.453737342547158279e-03 6.787903683074624286e-03 1.345751123938488357e-02 3.326186680943633150e-02 -1.979789515008925291e-05
3.914808583103728294e+09 4.747611883205224037e+09 -2.054748489929899216e+09 3.010850083526908159e+08 -2.653762590227027535e+08 -1.737263628240196228e+09 -2.322012950272644043e+09 -2.053910245275045395e+09 4.119733654484705925e+09 -2.668168880337792397e+09 -6.429848968429848671e+09 -1.502428728176039934e+09 -3.499237646272435665e+09 3.442753945460052490e+09 1.014772629580276251e+09 -2.092172604709928989e+09 -1.817957332706843948e+10 -1.623928796549034119e+09 2.974262036331128597e+09 3.547650644316206455e+09 -1.069241011861923695e+09 2.046024741379578114e+09 2.611137922505308533e+10 -2.289729320051793098e+09 1.065186708770512819e+09 -5.497628203839425087e+09
-7.480737721768138636e-03 -3.190139588800892934e-02 7.794531965085923012e-03 -3.583727481785002177e-03 -1.482037725620557328e-02 1.660388276487031328e-02 -1.950669815709834415e-02 5.794921871207666525e-03 -3.046985131113123801e-02 3.756367262240976890e-02 -3.927277335145046115e-04 -2.285043568317381840e-02 -1.320630532533002485e-02 -2.489045633497168758e-02 6.048003039355259736e-02 8.806560994948857413e-03 -5.994002396947043648e-02 3.577051691783134785e-02 -1.496465196797414250e-02 -1.424020171563991112e-02 6.551969210688025902e-02 2.189450444256769990e-02 -2.853261405220615735e-02 1.956307720090806959e-02 2.037071879776568978e-04 6.785106130037427824e-03
-5.180720756514469147e+09 1.868218965041189957e+10 -3.255097020988170624e+09 -4.780006555395238495e+10 -3.507921129048120117e+10 -3.961298326947240829e+09 -4.657832752819319153e+10 -7.395287316974992752e+08 2.578126375890014172e+08 -2.628674071618310928e+10 1.001802617166494751e+10 -2.189100935564085007e+09 2.726802327366489410e+09 -1.580965805033081532e+09 5.465728332590903282e+09 -3.880849946342391968e+10 -1.961985114654132843e+10 3.631766376963933945e+09 4.990764340593774796e+09 2.098099228361837463e+11 2.875827204932370758e+10 -2.862133531065660095e+10 8.369520307560984612e+09 1.728204871980974913e+09 1.894721431941759586e+09 -3.663298874805078888e+10
-3.971588419595773606e-02 -4.017890678294165629e-02 1.847349379095812594e-02 -3.820589778104494655e-02 4.731713967480574712e-02 -5.248804069810852901e-02 1.176063428048959754e-02 7.584968205684607112e-02 2.915357155815443899e-02 1.725242110785417393e-02 -8.331767532083683009e-03 -6.684749161442725407e-02 4.249884159593988325e-02 1.578523183679054337e-02 1.993407656456961385e-01 -6.124558506549976009e-03 -1.516339757992161454e-02 -4.661890793895953622e-02 3.024609709876276142e-02 -1.302873911838836780e-02 -4.859331398218919018e-02 -1.924978911342604959e-02 -4.241695199718652221e-02 -4.124117439953672165e-02 -1.339386906047141182e-02 3.920811654895948843e-03
-2.848926198384546180e-02 2.936776833599877290e-02 -5.642622611371297392e-01 4.198177004938175028e-02 -2.951968560850062873e-02 -7.113755869778070999e-03 -1.001278306110192085e-01 2.237049749465246443e-02 1.322066488262277351e-02 -8.815745574892539654e-03 2.985592052151041231e-02 2.987103912744467314e-03 1.542393294264779446e-02 1.835008925041746800e-02 1.321991477630628416e-02 -3.593162652675488400e-02 4.018613496246708355e-02 6.399033878270793049e-04 2.505845066740027688e-02 1.680141023750081342e-02 -6.141201135859172128e-02 -5.359289263077421372e-02 7.047905813703625455e-03 -3.136078455368239426e-02 -3.070730938789777500e-02 6.748216980076859883e-01
1.341511787961328049e-02 -7.009362500216481662e-02 -1.063733162478519012e-01 3.718514609257490139e-02 -6.132180681895231522e-02 -4.133179745477402744e-03 3.044318016156323525e-02 -1.008662473073180903e-02 6.507302114147706443e-03 -1.274933523284632955e-02 -3.323859093362398209e-02 -7.165415570488598701e-03 1.954726463895506373e-04 -1.653443733661708308e-03 1.543658177505790804e-02 1.106743645479875277e-01 6.886403328727033757e-02 5.646133852559520605e-03 5.372616088549064112e-03 1.156038640997053470e-03 -3.999815753311160987e-02 6.369792758825300327e-02 4.230147960316557598e-02 6.938867244070176651e-04 2.782037173242285760e-03 -5.755782262686762185e-02
1.421459251520615816e+07 -7.940962038328412920e+06 6.870591702072827145e+06 2.260316204509706050e+07 1.739815050919593871e+07 7.028827255818046629e+06 1.959474657973885536e+07 -1.212443435780333169e+07 -8.712142105659561930e+05 -3.939000971017858246e+05 -1.609377071752779372e+07 -3.309762746896246448e+06 4.426563345122966915e+06 1.997798489883119706e+06 -2.369601693460778333e+06 2.170659985449099541e+07 1.658327055590611324e+07 2.928090926389212720e+06 2.407465060631071031e+07 -5.387761311094609648e+07 -8.796696104272844270e+06 1.644725530509030819e+07 -1.470920746010732464e+07 -3.216122977999536321e+07 -1.711792365844227374e+06 -2.151411500743487477e+07
2.438692525964287221e+08 -3.800796723077166826e+07 1.036324448038037419e+08 1.648974203836306632e+08 1.310008579662030041e+08 1.371255833961167336e+08 -6.294834652762819827e+07 -2.527720905546529293e+08 -9.670707123724770546e+07 2.208279417437743396e+07 -6.756532632499976456e+07 -8.455563459626698494e+07 1.094697956093476713e+08 2.407932456045084447e+07 6.018104874609823525e+07 1.833612869221327603e+08 1.067821770824170858e+08 2.087437884054268003e+08 1.232141064818372875e+08 -5.147222583500857949e+08 -5.199160401338077337e+07 1.608017242853635848e+08 -1.287935964547131360e+08 -1.171343368421031535e+08 -4.316461059997166395e+08 6.760273271819700301e+07
8.634655703897020430e+03 1.360737958816015089e+04 -5.506343478208161832e+04 -2.608591449559509783e+04 3.871320472460309247e+04 1.968145221384368779e+04 -2.877250097709995316e+03 6.492006517964592058e+04 4.032683307025960403e+03 1.673981011476720596e+04 8.065817020725606199e+03 3.434768124162734239e+03 1.622484577678986534e+04 -1.866729414733065641e+04 -1.363507847033914295e+05 -1.884036614264500531e+04 5.771758787530026893e+03 1.279492488668798178e+05 -3.855399603943992406e+04 -5.845611335003153363e+04 1.509380274993127023e+04 2.158884890168797938e+04 1.961548597838668502e+04 -2.166992889512011516e+03 -6.293114781242865865e+04 3.591946742212930258e+04
-5.497644860191736221e+08 2.727542678860929489e+09 6.500275877771383286e+09 9.896984097563104630e+08 -9.585086619189704895e+09 1.848493427759850621e+08 -9.145344645203827620e+08 6.860070286468466759e+09 -1.641544617658402920e+09 -1.606126715568981647e+09 -3.690966684337333679e+09 1.250560869070822716e+09 -1.527532455158916235e+09 1.752754611397694349e+08 -2.768039882314288616e+08 5.072649006562216878e+08 1.762401506497243881e+09 -1.363436461905066371e+08 -2.762159277953657627e+09 2.931902385180906296e+09 1.579798233959825277e+09 2.142509077282109261e+09 1.336338561933041096e+09 1.708058226399161816e+09 1.250289114068947077e+09 -9.215971976992582321e+09
-3.057144380784866959e+07 4.361159358836332709e+07 -8.057742533239534125e+06 -1.088283121965826899e+08 -8.508801883517163992e+07 -1.465356476140189171e+07 -1.027495812718648911e+08 1.686516487295071036e+07 6.806817389392123558e+06 -4.558548882524493337e+07 2.974182001227229461e+07 -3.064810795498902909e+06 1.880593309541390277e+06 -6.545062622790720314e+06 1.470972141671721265e+07 -9.245684231977498531e+07 -4.392618977834500372e+07 -4.769153811158945784e+06 -3.661204938167931885e+07 4.577656537408546805e+08 5.960951675222744793e+07 -6.674747067543500662e+07 2.451676071051998436e+07 5.881425480488165468e+07 9.691945295335181057e+06 -7.435811027721416950e+07
7.350984472055582634e-03 -1.482271949430421544e-02 9.490888219714388452e-03 5.715852033611820357e-03 -3.491644884512940666e-04 1.585369554670772868e-02 -1.917840272226560214e-02 7.571767350676575359e-02 -1.427655694283096743e-01 1.335755376907558217e-03 -1.235201324780677359e-02 -4.311995650782619524e-03 4.866232408526874331e-02 -1.308987736519359388e-02 -4.961191956596747166e-02 -2.206818918089823583e-02 3.864701116546694765e-02 5.456589616865675785e-02 1.226678467038889303e-02 7.950022522460508181e-03 -2.051141304979869212e-02 -1.033640180384534082e-03 2.655134292856473066e-02 6.459045865971152489e-03 -1.116152437965409194e-02 6.891521912760571180e-04
-2.452410067060545318e-02 3.512012150900547820e-03 -8.568106061348949171e-03 1.213764083855553566e-02 1.041605159868510405e-02 6.872654588922924579e-02 -6.944150043354035268e-03 2.256292766089338514e-02 5.481111919929478743e-02 1.392235887151429229e-02 5.518043083283737799e-03 3.787241241923383888e-03 -1.691028881646981785e-02 -2.241262685333505686e-02 -5.388705570420882981e-03 -8.592644039502080403e-03 1.464465530665529092e-02 4.498112658738243064e-02 -8.372763095197847949e-03 -4.737341742923765857e-03 -3.653662341700902177e-02 2.100393606618193489e-03 -2.318864800328813980e-02 -7.449754258330361367e-02 -1.401862037042046066e-02 -2.427954767756591338e-03
1.653762336902483730e+04 4.015512447658554265e+03 3.753040221689523605e+04 5.369960656907586781e+03 -7.333353176291656382e+03 1.302584999534717463e+04 3.548878443130951382e+03 -1.966889443631938411e+04 9.362884595386209185e+03 -2.551884484182708911e+04 -3.623254005361977761e+04 -1.160485713656078588e+04 1.657431797041302707e+04 -1.418351919161224714e+03 4.976075387295320070e+03 1.526197039564730039e+04 3.331289162959415262e+04 -9.182015253447345458e+03 1.761649425265601167e+04 1.490299124226551503e+05 3.707678189760845271e+03 1.688299304232588838e+04 -4.041286549414790352e+04 -2.753542565099094645e+04 6.718883784611008195e+03 -1.745651808369445789e+05
7.710140388186744414e+06 -1.220322097655749880e+07 -3.820639631268724799e+06 2.032670609042257443e+07 3.042926652218378708e+07 2.786826440093318000e+06 2.803543266186448932e+07 -1.517642570563782007e+07 5.647085390291561373e+06 1.925245603746388108e+06 -1.280097998165794462e+07 -3.035067202368041500e+06 4.497952489574050531e+06 6.004367564847673057e+05 -3.989207557265148032e+06 1.952714737304363400e+07 1.619747979740611091e+07 -7.135711136595365591e+06 2.473636553589759022e+07 -4.456616121539596468e+07 -1.222561080102187395e+07 1.175453933653073199e+07 -1.759999437731413543e+07 -3.089874598563235626e+07 1.329785881647533178e+07 -2.402071863145034388e+07
-5.097300128278335571e+09 1.837871631673892212e+10 -3.177528160423166275e+09 -4.702816359037598419e+10 -3.447999792851657104e+10 -3.893779276181889534e+09 -4.582911603072853088e+10 -7.800164584647150040e+08 2.559703539122475386e+08 -2.585061102657005692e+10 9.846324961824260712e+09 -2.143637304004061460e+09 2.708240402826620102e+09 -1.578474827272337914e+09 5.416097446686115265e+09 -3.815732865003440094e+10 -1.926176120087421417e+10 3.505650187243760109e+09 4.797729627184962273e+09 2.064942464148126526e+11 2.825680223940257263e+10 -2.813194222653571320e+10 8.182027877194047928e+09 1.874993837175073147e+09 1.847578451471797943e+09 -3.615472130826662445e+10
-1.647589373447399738e-02 8.596306463816124135e-03 2.156585256836195119e-02 8.103812728138105534e-03 5.633302883424368135e-03 9.699620362352869007e-04 -9.604218369605864447e-03 -7.690577046275388559e-03 6.860845961489553391e-02 3.478549178507309159e-02 7.170413775616966100e-04 -8.379889613476138033e-02 4.790640135428185509e-02 2.215660037521694631e-02 1.173464251764806676e-02 -1.293473136383359659e-02 -7.043699099632522165e-02 -2.606124546866474267e-02 -2.972586158506548837e-02 -1.357534810052008281e-02 -3.811396360522439908e-03 -6.339782199538887553e-04 6.167325514330530140e-02 2.545865265332578758e-02 -4.015942295959851194e-02 -3.001221161683517366e-03
-1.877031955233902927e-02 -3.911723785134150339e-02 -3.169027015948398807e-02 -2.687209701419572896e-02 -1.568346771588932653e-02 3.630788319514346302e-02 2.203777500301520517e-02 -6.973426606297160324e-02 2.123682053374868761e-01 -6.181905302880695563e-02 5.122958645579077548e-04 1.381498771170218409e-02 -4.731090883850668644e-02 -1.864311937110463627e-02 -5.027297562014856891e-02 3.674901336604706470e-02 2.091425733927276126e-02 -4.585462897426631490e-03 -1.280589544037289695e-01 -1.713474899721196751e-02 8.778868733540179381e-02 3.900984339515214255e-02 6.533509018180060079e-02 -1.093925336736030068e-01 6.755267828032732180e-02 3.669469817685211410e-02
1.183532288142287447e-02 -1.857439401521798414e-02 -1.828479036735183166e-02 -2.259166279570378258e-02 7.935716526626812595e-02 -9.373520994905865794e-03 9.984282954762040835e-03 2.973693571153720669e-02 -1.305382558116628330e-02 -2.240362174598741277e-02 -3.270498144675106078e-02 -6.410230409471277466e-03 4.577519903207243751e-02 3.978054496938135398e-02 2.856706245898244130e-03 2.791260084717047535e-02 4.492006829295445980e-02 4.330759498780631378e-03 5.972946991984942784e-03 -5.320690114997150139e-02 -1.979084632360592760e-02 -3.756535994412089907e-02 -3.189078896129349250e-02 -1.643509737605233084e-02 -5.609247530885480906e-03 5.432735950252386495e-03
1.426295478977204323e+10 -4.661408106317515564e+10 9.039101947412292480e+09 1.175742856615663605e+11 8.912435564294580078e+10 9.744714717076240540e+09 1.161965097649453430e+11 -2.247252276243914604e+09 -2.039059701895497799e+09 6.405125808190664673e+10 -2.421084966454978180e+10 9.333141259044218063e+09 -7.266967932189340591e+09 2.580525923922663689e+09 -1.193623023217611122e+10 9.823186192655044556e+10 4.731308076183642578e+10 -1.238151946644023895e+10 -1.420922058088561058e+10 -5.244821807178680420e+11 -7.333272190338291931e+10 7.214957338367956543e+10 -2.008138866052018356e+10 -7.348642980692150593e+08 -3.513117600338853836e+09 9.344809023731997681e+10
-7.715348041505667998e-02 6.141402668714197877e-02 1.388867254205150559e-02 1.902334018900809012e-02 -2.311719315495717325e-02 -2.948228433124607251e-01 -4.729809171809245399e-04 1.075971635916257718e-01 4.584481586887545479e-02 1.090505928294092236e-01 2.717140403260769228e-03 -1.888180992527968560e-01 -3.507777000766806874e-04 8.302754897449981381e-03 9.229305270178641760e-03 -6.817945695366135761e-02 4.231427497212647548e-02 -1.732204575576301864e-01 6.133749402478595458e-01 3.427324837395899493e-02 -4.248674752731585597e-02 -1.687326726866907045e-02 1.304246505512237919e-01 -1.311333200017946177e-01 -9.662235516687771308e-02 -8.420394719569204711e-02
2.593583913812745959e-02 -1.234603011471859316e-02 -2.347509624273656781e-02 -6.743237825391265768e-03 -4.970743197583006590e-02 2.803243922773014651e-03 -8.468327357792702903e-03 8.013540020966705701e-02 -1.248350394355356684e-02 -3.564684297532347973e-02 1.983765371183077858e-02 -5.382336487677885639e-03 -4.940322381455568290e-02 6.364306984766257558e-02 4.298453445177265186e-02 -1.578002412654268619e-02 -6.005676300128409695e-03 7.192733300716608498e-03 8.417006834362280102e-03 -2.717055120559165420e-03 -1.466780289016249572e-01 3.774368452370299720e-02 6.947367536909231089e-02 2.687507922675936526e-03 7.722086975555319220e-03 6.260378978495847319e-03
1.283429121535146489e-01 -2.245109742290973820e-02 6.892850418578799765e-02 4.300811959051362848e-02 5.272470203382292331e-01 4.867581123365621876e-02 3.024755908848856811e-01 -6.341433245594149115e-01 7.173787861823861800e-02 -2.581111000715905629e-02 1.071073677234848642e-01 -1.187493509996738195e-01 1.271823241375230340e-01 -7.533305626996346024e-03 3.937701943375981894e-02 -4.312218624981442594e-02 -3.797287806799830301e-02 -5.896275994168743290e-03 1.907796335242863961e-01 -1.383896331780498090e-01 -9.072306413065445163e-02 -1.191015724384816288e-01 -1.870188103048421868e-01 -1.350955155743384095e-01 -4.194302839512024927e-02 -4.691102887425798590e-02
-3.797314953128220141e+07 -7.599813089486652613e+07 5.475759573321627080e+07 -2.249022070811233670e+07 -6.153079295352191478e+07 3.530878190269877762e+07 -1.096261182875748351e+07 1.559193367051261105e+07 -2.589144019993377477e+07 2.966171735914523713e+06 4.294965234102678299e+07 1.040535973067647964e+07 1.012777058836349659e+07 1.326270233184944838e+07 -5.723268987227359787e+06 1.466844744424700178e+07 -4.863475677180673182e+07 4.991821180347446352e+06 -2.832464585892969742e+06 3.990797579715000093e+07 -1.112988643376214616e+07 5.069750043849299848e+07 4.620129569558134675e+07 -1.447733814554911107e+07 2.276712806375007704e+07 -4.696007561311479658e+07
-1.435171528462277427e-02 1.841941337388534536e-02 -4.045058906530152841e-03 3.608019430208872502e-03 -2.370402505975262655e-02 2.252205800603618649e-02 -6.744127688482654285e-04 9.742672029993383609e-03 3.114137170666620227e-02 1.972648232462811263e-02 1.917856155680439795e-03 1.075474019592604323e-02 3.454816519204662040e-02 -3.392969197444752408e-03 6.222170210703346915e-02 -1.469685964444234633e-02 -1.410196331603773799e-02 -6.850865158497204677e-02 -2.156816642530531847e-01 1.292153461641525058e-02 -1.432754312376003508e-02 1.081320791403506815e-02 -5.255732591964230177e-02 1.684405123498454171e-01 2.166747600020431375e-02 -2.403022343498628297e-03
1.075944121453232573e-02 -2.282307873856420297e-02 1.544550349764914864e-02 -1.903455325791973685e-02 2.882953253349223102e-02 -5.178998671790081658e-03 -2.478829793018803157e-02 5.990687870189365842e-04 6.682548703357669984e-02 3.510721031418875381e-03 -6.802259642011303231e-03 2.376525083195185975e-02 7.281155014548776339e-03 -5.268562895174380006e-02 -8.462563082857789409e-02 9.675973956618098143e-03 -1.605900894589615963e-02 -6.252682468870744692e-02 -4.155844144953482755e-02 -3.417224860191399316e-02 1.525781967780630022e-01 1.720073115274434444e-04 1.860170319461352043e-02 4.293495392244631864e-02 -5.700829778901733182e-03 -5.023193621707925174e-03
7.125398032631548517e+01 -7.426019197233536033e+02 5.615748681209224742e+02 -1.461833285406485174e+03 -7.313874463642090404e+02 9.930687730773704516e+02 3.808784158761616823e+01 8.744201756611412293e+02 2.942796084354069535e+03 -7.565218799087230082e+02 6.297103590028683584e+02 -3.377570596555964926e+02 2.314238007717626260e+03 -1.342228327461707522e+03 3.414948597588767370e+03 2.258803318463330925e+02 4.318304077794882687e+03 -3.038940550146762689e+03 -1.269118099278023237e+02 -1.186322580570447144e+03 2.305161620195639443e+03 1.356501405517737112e+03 -2.507770271288266485e+03 -3.248407273251018069e+03 -4.332643130251062757e+03 -2.326205888358639413e+02
8.934120495627634675e-03 -4.802015119299873902e-02 1.641858965567885575e-01 1.240022052008094705e-02 5.554127220476449966e-02 8.238621114482853544e-04 -3.065408995359204802e-02 1.253756497773563135e-02 -1.569043924191360767e-02 1.732618458615272500e-02 1.144514085489452618e-02 3.442264510852585668e-02 -9.205236294837715327e-03 -8.522339686270682946e-03 -2.233198523247964876e-02 -8.009826443061221490e-02 -3.128372876853505874e-02 5.632941706448775163e-03 -9.812518292168236761e-03 1.559566113450044922e-01 3.258862257314862343e-02 -3.759961269078286161e-04 2.676006423084959646e-02 3.304781131062701181e-03 7.959054922954383188e-03 -2.938242341051719997e-01
-3.727118584866051947e+02 -4.937963153443028830e+00 2.539932922165693526e+03 -9.615969952484694261e+01 -1.448617948777343258e+02 -1.939680257168807600e+02 1.532032686007188431e+02 2.067669080505394064e+01 -1.416332213021701705e+02 9.959448186645246892e+00 5.383870864809711776e+01 8.883783677486233898e+01 1.640123619214655264e+02 -5.830629885653641509e+01 8.783526567637971993e+01 -1.456147402733154195e+02 2.946016772780203041e+01 3.813553509317899426e+01 -7.219729471550104449e+01 6.317291980505451647e+02 2.491779493631009359e+02 2.879448952197067229e+02 -2.463258877406086924e+02 3.414266890699884698e+02 1.927103547604768607e+02 -3.412164507416072411e+03
2.572633575761821764e-02 -2.082109445451417462e-03 -7.831515590623219433e-03 1.361785395773988140e-02 3.560193728232501336e-03 -3.033578524301889373e-02 -2.798870562792529337e-03 5.864413965892075267e-03 -8.332079071798055570e-02 9.364741966847885818e-03 2.417045731472483583e-02 7.556052813013830471e-03 1.509073706910331152e-02 9.994618641675381485e-03 -1.239090646242290844e-01 1.107947484863087148e-03 -8.979720862485943839e-03 8.332658713305593490e-02 4.604351972870134035e-02 -1.627809103159910979e-03 -4.405347615898694454e-03 -1.266116715726053887e-02 9.711619868350952756e-02 -6.154874206978544482e-02 -3.592734417750482849e-03 5.539991654586833274e-04
3.615553493094193077e-02 -2.694385043940019688e-03 1.970162490894841831e-03 -6.744526135715691977e-03 -1.274675882071127017e-02 8.218662042835600534e-02 2.394234902105739360e-03 -2.170505141242404581e-02 -2.050337924014835889e-01 2.174652650251530581e-02 5.970957695789973207e-03 2.132083305896082664e-02 5.293003186721739056e-02 2.150505421589334401e-02 -9.022225239807873942e-02 -6.103388245768779849e-03 6.752653175258676449e-03 5.619820795195347440e-02 2.551973064293362389e-02 1.275538203665203645e-02 -2.414910788702341951e-02 1.922657405521574839e-02 -7.865684744687670427e-02 9.395124673537145685e-03 6.706350610750530516e-02 4.964975056290192937e-03
-2.019244203743998135e-03 -6.735533407126746697e-02 1.722130964480954318e-01 -1.080730096199568682e-02 1.110814057846779834e-01 -4.082986574100679056e-02 2.254937683372758572e-01 8.301774081935138494e-02 -1.187678683797301939e-04 -3.382144390279616386e-02 -4.313742837846799849e-02 5.120684244197571539e-02 -4.560508657786977588e-02 3.404949351247958667e-02 -1.904367345691855215e-02 4.032532165978228167e-02 6.155035534336716907e-02 -2.438259843469438304e-03 -1.151918626746865904e-02 9.351814381640045915e-02 -1.173190765306443006e-01 5.475892774301591159e-02 7.215776349647766430e-02 3.394104146064826077e-02 4.969528435318291797e-04 -6.397961859030523168e-01
1.460647649045796754e+02 2.915193465940993889e+01 5.712397078799212125e+01 4.924616241868768896e+01 6.335132926477736959e+01 3.028940689338724042e+02 -1.078193901200666573e+02 -3.630880793460958103e+02 6.305256884429693542e+01 8.072912220945879369e+01 1.658178276856852165e+02 5.301765172847577787e+02 -4.398162719629799255e+01 -3.244003724774304374e+02 8.612872689503254264e+01 5.882856508241146543e+01 3.378734181555783067e+01 -1.499807529619844217e+02 -6.778641715527860470e+02 1.029368073893619595e+01 4.346328708725845757e+00 6.489428299394604949e+01 -3.242765600792547502e+02 2.726110810405019720e+02 -1.416063197860930245e+02 1.145189992513749928e+02
4.475963478757720947e+10 -8.095443940476295471e+09 -4.016922836317594147e+10 -7.340814768526059151e+09 1.628722026758598328e+10 1.332019519321182060e+10 6.149011520924137115e+09 -2.270331165467900467e+10 6.261700231835775375e+08 -5.173863117964680481e+10 -9.503026634189929962e+08 -9.857559687042196274e+09 -1.372558196311845398e+10 2.438526758229790497e+10 -3.696273278175497437e+10 -1.103336026036569214e+10 -4.697883166753351593e+10 8.298833691598255920e+10 2.109663109641383972e+11 -5.162906041996073723e+09 4.308853363254225159e+10 -2.798085747236022949e+10 3.611761951379947662e+10 -3.035766789065043945e+11 1.880168899169060135e+10 8.878625195766485596e+10
-5.073677333649294451e+05 -5.182630913601741195e+06 4.001391288765529171e+06 1.122161222374111786e+07 2.691995001238578465e+06 -7.283566400640670210e+06 -4.009780639931216836e+06 1.161116298377637193e+07 8.011268745974565856e+06 9.610406346210008487e+05 -6.751293653124980628e+05 2.227553200298798457e+07 -9.402597056241024286e+06 7.293482122696291655e+06 9.052668856382083148e+06 -5.897364252556930296e+06 -1.338764166402937472e+07 3.271098157782192156e+07 -3.531925585588568449e+07 1.641171076056065038e+06 6.361741617041127756e+06 -8.413792005544302985e+06 -3.387303135402673855e+06 -1.585302492577877827e+07 1.087437923803315498e+05 -8.623337975193027407e+06
-2.378625974751743394e-02 -9.942975814727494921e-02 9.744693799325362393e-01 -8.042051976796029192e-03 -5.222862318797472786e-02 -2.044637201252191144e-02 -2.697512644964913942e-01 -8.660225297511517373e-02 -2.789386816845378786e-02 2.546150310708249487e-01 1.605972067114835519e-02 2.679884087042128105e-02 1.099549427988928685e-02 -5.577357027371744602e-02 -2.746930048630694815e-03 4.012633347358448010e-01 -4.904626692934579979e-02 -4.274579080152050847e-02 -9.520515951142763389e-02 1.260782785142379181e-01 -7.668774902244730740e-02 2.156479816727732424e-01 -1.016913136745439400e-01 1.225558263565149214e-01 6.515592845705567293e-02 -1.201562585587441223e+00
6.645069460358003378e+08 -9.485306196440047026e+08 4.824452332252579927e+08 1.936866020562248707e+09 2.288246423958977222e+09 1.710964301160387993e+08 2.377821749645450592e+09 -1.234601280103885174e+09 -4.082422868687475920e+08 8.679460512841442823e+08 -3.258507565540921688e+08 1.262702014081727266e+09 -2.421558371531489491e+08 -3.497708564453237057e+08 2.666530286036385596e+08 2.424401535347362995e+09 5.887196302591381073e+08 -1.259349245978576660e+09 -8.743890028957151175e+08 -1.076670157676503944e+10 -1.965172615201949120e+09 1.713382286069100857e+09 -2.746181457001889348e+08 1.117339479365905523e+09 2.842312193571838140e+08 2.203024175433427811e+09
-8.099036057782792869e-03 -2.740440006047729915e-02 4.548543122299648217e-02 -1.027343093298303811e-02 -3.447017258747999552e-02 3.166625070391731675e-03 -6.604238639143325540e-02 3.298831059674705440e-02 7.697531531638335429e-03 -1.513630151376466233e-04 2.270939689181301208e-02 -9.825244516998007244e-03 1.781600400345349083e-02 5.292895563409717036e-03 1.041182769165632967e-04 -1.285740941652270715e-02 4.108927478290264231e-03 4.469993023157755457e-03 1.454212220122408708e-02 1.884820614114606982e-02 -2.979627413153554047e-02 7.708362020201138358e-03 -8.791698000654817047e-03 -1.675518919217427669e-02 -2.187689308847869801e-02 6.140557337027206797e-02
4.098859850137630850e+07 2.993899458949113637e+07 4.747457725944633782e+07 -3.697487461314835399e+07 -4.255893715404506028e+07 2.870073510982165858e+07 -5.410085201758500934e+07 -5.029349435687305778e+07 1.236261184442684799e+07 -8.358689056992942095e+07 -6.345703153700891137e+07 -2.765999290876043588e+07 3.442497647214598954e+07 -1.271068864734513685e+06 1.831416076229992136e+07 -1.268560783256843314e+07 4.360680932216671109e+07 5.301471949834502302e+06 6.009466305495318025e+07 4.631092835950044394e+08 4.402465221175926924e+07 9.401806935846200213e+05 -5.999675633895580471e+07 -8.429329873349191248e+07 -1.306035186151620001e+06 -3.110968752531439662e+08
2.473482155831248711e-02 -1.267430685700321556e-03 -2.689083685262774401e-02 -6.033596427546955750e-03 6.541380912596247987e-03 -2.116211422449607304e-01 2.467219258787095582e-02 1.599901906383802488e-02 -4.209845616694403436e-02 -1.210560305020283271e-02 -2.198630133679355808e-02 -5.753510292786276348e-02 2.321538495356118698e-02 -1.510172730590336656e-03 -1.111823558847598037e-03 -1.464826871432263304e-02 2.085653378799038130e-02 4.503093020988346851e-02 1.326476157626967078e-01 -1.975052331004038125e-02 -6.076144387531819124e-02 -1.803569087051793210e-02 1.310411394803454727e-02 6.964176119147730271e-02 1.026754663771685394e-01 1.623717239884674146e-02
4.643235329119341052e-03 -4.050122588960629322e-02 -2.385580901924695962e-01 3.561408891032562252e-03 -2.093851656687030841e-02 -1.191390575506312208e-02 7.984757691035282434e-02 -2.107387448903351619e-03 -2.318840714747973011e-03 -1.596057041252547590e-02 1.368337850153575341e-02 1.896107019831455923e-02 -3.894304677333655651e-06 -1.059108342635772283e-02 -9.510714792363650361e-03 4.403305432878569514e-02 1.104203426420819617e-02 -1.120408540653663153e-03 -2.586457316300698125e-02 1.979771729723853874e-02 -6.658562382126826523e-03 1.530432986812567953e-01 3.574689475634894309e-02 3.128779407864062251e-02 1.777598835982324710e-02 -4.737567800728469114e-02
2.321897687723387094e+01 8.604637534367169494e+00 -2.359113059702817594e+01 -3.628594653934967162e+00 7.487861259814455650e+01 9.410938847473417468e+00 3.208359439089826992e+01 -5.800292794020256082e+01 2.132020689247597289e+01 -3.006079777066339886e+01 9.117045398981342696e-01 -2.844486480054634825e+01 1.288271579828978552e+01 -1.609583174034388220e+00 1.103708271864195467e+01 -5.231729619102688389e+01 2.328982925732032072e+01 7.408603036340409176e+00 4.578220137906100007e+01 9.984847907999865768e+00 2.049539370587395659e+00 -2.266642251795920160e+01 -1.598692870642684483e+01 -4.224141550561713387e+01 -2.148477375942183443e+01 1.717124446806400329e+01
6.455072406178717637e-02 -5.327684275691579180e-02 -5.731090082495593485e-01 -1.641519689218005895e-01 7.475793262006578954e-02 -2.486635633338930840e-02 -8.353450574077736501e-02 -7.462105804808367993e-02 1.240723214268841385e-02 -1.216303351041778669e-01 -2.574102365387018199e-02 2.415203458150260232e-02 1.016002936443935641e-02 2.724497242152887702e-02 2.681421362072266418e-02 5.507498821919923349e-02 8.205310929613787718e-02 -8.976103896712940046e-04 3.101673030075058346e-02 8.349025150678738294e-01 3.395050048540841636e-02 1.541762892215851610e-01 -7.713122418287701731e-02 -2.374805948731485011e-02 -1.959407359029559370e-03 -2.065938711762232705e-01
2.276216190063799077e-04 -7.683546430589749399e-02 8.218294714373346188e-02 -1.635614457945197206e-02 1.448430514445933626e-01 -3.829971009853721381e-02 -7.667666209254421494e-02 -6.298375251423996013e-02 1.081703619872484423e-02 9.638732675689706125e-03 6.463219667442228478e-02 3.481706837428782259e-02 1.455065974775546049e-02 2.845999714781668414e-03 -3.522111437260910805e-02 -1.774493028881186582e-02 1.598896240333236643e-02 1.187973176191631230e-02 -2.115251118742161873e-02 -2.506092535791779388e-02 -4.878478883314884412e-02 -1.936135088345271316e-02 6.861989545407702618e-02 5.320696198366525048e-02 -3.065118088851181283e-02 -4.512232979344160677e-02
1.795342082957019844e-02 -1.836266474145893668e-02 2.826959733074781850e-03 -9.919822083299629362e-03 4.138824079662490468e-02 8.748280236324594214e-03 -1.142292837061987913e-02 -3.964710797919616253e-02 -1.112845935764525743e-02 3.372258384266165615e-02 6.030574517639115950e-03 2.046382980594963624e-02 6.958408999836410841e-04 -6.919763469087709951e-02 5.759781075450547128e-03 -6.219334490034509472e-03 1.774240751000503297e-02 -1.343713055954307359e-02 6.810049703649774175e-04 -5.732914559251519465e-02 3.742060250494790713e-02 -1.520101597400424533e-03 -1.414402800076602559e-02 -8.802066489122812448e-03 3.234471965275953487e-02 3.535217757712252884e-02
6.889833438891148567e+08 -9.319132970547754765e+08 4.722245041543449759e+08 1.897145934351637602e+09 2.255811218862029552e+09 1.833061699939751625e+08 2.324911054786427975e+09 -1.246570624434989452e+09 -4.127547792124542594e+08 8.253297117184116840e+08 -3.165827593549525142e+08 1.250455935588096142e+09 -2.438497751356675029e+08 -3.376051587541174293e+08 2.602507754272042215e+08 2.389946970634395123e+09 5.500213737829834223e+08 -1.197389094597771168e+09 -7.940033951589038372e+08 -1.062160138464891624e+10 -1.918522513123687506e+09 1.682436125426283360e+09 -2.454582779399797916e+08 9.952907327668888569e+08 2.566442335482012331e+08 2.233492974520884991e+09
6.036951966135988695e-02 -8.371413898158368283e-03 -4.516460296608678510e-03 -1.329034470408710714e-02 2.408644168494002841e-02 -8.403906259715022975e-02 -1.236414704241358027e-02 5.248938038411741364e-02 6.486961996211691728e-02 1.415930185543912839e-02 2.696202425918739140e-02 -8.054703054369570514e-02 -1.619082618849139454e-01 -5.309078438815773016e-02 -1.095491848704568602e-02 2.879487151880409743e-03 7.427407821403263222e-02 8.646464549849944628e-03 -3.879191174051919294e-02 -3.344425087202706343e-02 8.770155897820281626e-03 -1.735427828049706384e-02 8.405329627903501688e-02 9.738838048198467101e-02 9.339751599942557742e-03 -9.615037246431890408e-03
-1.083495008355686157e-01 -6.982437480489750437e-02 -8.809621517359672582e-02 -9.999157710944742150e-02 -3.634480426304888268e-02 -3.467245718339570515e-02 1.360780566170769479e-01 2.925034668574468255e-01 1.680870463404869897e-01 -1.020459788367964471e-01 -1.363898551157659567e-01 -3.373942459479936651e-01 8.612394032589068549e-02 2.897071398387587315e-01 -2.641058144266973384e-01 6.740987776571194870e-03 2.574305231983590320e-02 2.241622626562553844e-01 2.922188537717788637e-01 -6.815527947194655045e-02 6.348664149612759378e-02 -6.150484398661173330e-02 2.552822456090830805e-01 -5.125120603798269947e-01 1.656197286371416388e-01 -8.636641471085690358e-02
-1.048060018906870478e-02 -3.112494253068533515e-02 -3.555941713119376013e-02 -3.414967493417853106e-03 -1.113052714196981902e-02 -3.174695471359325061e-01 4.638338307413636397e-02 6.924576223990390467e-02 -1.390179504797018628e-01 4.888387516899591820e-03 -4.742844498548507565e-02 -1.573889764928725343e-01 -8.960377839628970789e-03 4.856457134569605594e-02 -4.199198849870499489e-02 -2.453281111388208938e-02 -6.088617524767687972e-02 1.042210326996221709e-01 1.950184660893488353e-01 -1.939624272977427677e-02 2.215395577303349434e-02 -2.815401773034637706e-02 6.480714492347555700e-02 8.979060072183718544e-02 2.844134639130997400e-01 7.450218443289297401e-03
9.069681991272571564e+09 6.548049477341341972e+09 -3.561008649117373657e+10 7.617984348901310921e+09 -1.233937407823773003e+10 2.439355892495888710e+09 6.040251038443682671e+09 6.920013703558927536e+09 3.517446051303433418e+09 -1.297174879035965729e+10 -3.302690825447328568e+09 -1.112721217251802063e+10 -3.777397237951160431e+09 -3.399803245927050591e+09 5.981770962227270603e+08 -1.481711956267638016e+10 3.912068583368121624e+09 2.804797181378639698e+09 5.948179908657786369e+09 -1.505712291234083652e+09 1.254227006026557732e+10 -3.347137011372269630e+09 -6.439038110305481911e+09 -4.645963838101144791e+09 -1.857648831583956480e+09 4.718265715367778778e+10
-2.575028174757499483e-02 2.586791228611384427e-02 -1.001106478373435006e-02 -2.868826035640650862e-02 -2.844480279858974895e-03 1.432585080490483831e-02 -9.029176408352809768e-03 3.559832741250540389e-02 -2.683823183586305991e-02 7.631050044841618252e-02 1.385830606205201154e-01 -1.574489889227812661e-02 -4.879311409108604523e-03 -5.633628396137468214e-02 -3.783297732698778781e-02 6.781486539714334794e-02 6.688776573371998935e-02 4.665627235140717977e-03 1.478760369452354617e-02 -5.394213637031716746e-02 -1.342266961518005786e-01 2.885746208694220036e-02 -3.845347129258930990e-02 -2.473304595531466629e-02 3.246884389604448324e-03 -7.635543337973145842e-03
-1.293311160878955063e-02 -6.336615369247221297e-02 6.870383099476554123e-02 -4.061994006719947536e-02 -1.278508083611752943e-01 -1.292959995462514278e-02 2.462876024322757651e-02 3.530255622368896895e-02 1.016135365991079759e-02 -1.979708497815015067e-02 3.120325292370404804e-02 -6.169369758788094057e-03 -9.755119227968388120e-04 1.668899066698116204e-02 -1.839260655201956605e-04 -2.989922115280618797e-02 -5.539695332914901238e-02 -3.548343050267847420e-03 1.960688174694928156e-03 5.301882347935821596e-05 -1.578176363938366134e-02 6.971069497751961053e-02 4.621913656060733233e-02 4.670760718210658843e-03 1.233118890560740448e-03 7.891562472377296189e-02
6.657701665540123486e+02 1.455744248426913146e+02 -2.263606577728530738e+02 -4.220068489638302935e+02 2.172621385699875987e+02 5.083047357688980696e+02 -1.430047197018703400e+03 4.380788606399130458e+02 1.691593085763892759e+03 -3.316349897951002390e+02 -8.705064281121750582e+02 -2.978667507821437539e+03 1.127269173302262743e+03 1.540312422071224091e+03 -1.347989020205598763e+03 4.250479087879045892e+02 9.174352171961440945e+02 1.735330177376996062e+03 2.954033886576356963e+03 -1.001747005376815537e+03 -2.617933864640049251e+02 4.505079677897983856e+02 6.495378594995008825e+02 -1.938535948094994865e+03 -3.371509550546561513e+03 7.147405154325383592e+02
-6.154140167075475287e-02 -2.244282012722468439e-02 2.121889692062469204e-02 1.823370020738427494e-02 8.736439009608246153e-02 8.209252346653529014e-03 -1.983007799301592100e-02 1.226016420975623022e-01 -1.289231710481422155e-01 -2.354665518330740365e-02 -6.832238551057091824e-02 -9.844208963281667057e-02 -3.840217551284001024e-02 2.059087212170511438e-02 5.046094512281149025e-03 -2.192928469761869573e-02 4.516808075585646010e-02 9.185538694814171512e-02 1.445094442847732683e-02 -5.414695502934398219e-02 -3.986325037912480385e-02 -6.474546412509349369e-02 1.241788393640988752e-01 1.068306464504168718e-01 -2.163405236497700779e-02 -1.978962974451425709e-03
8.617174880475699308e-03 2.949946276032745784e-02 9.493840808296105313e-03 -2.033978501606462444e-02 1.075840256087306351e-02 3.125664905797228416e-02 8.423719116359253481e-03 -5.750497186560208501e-02 1.313934793864000687e-03 -4.376949450069757275e-03 1.380569097336006336e-02 -9.903647871352587104e-03 -5.213706413165841713e-02 2.707680143328939498e-02 -3.993810438636540006e-02 1.200953667356439991e-02 -3.494439102449063694e-02 1.559976308580679656e-02 1.968061709886040345e-01 -1.627554757757511059e-02 1.986447316693347800e-02 4.990250154486691563e-03 1.518728817536049366e-02 -1.614015487889174927e-01 -1.615910787691929393e-03 -6.265237729785231267e-03
-1.894680846839668928e+06 3.672255639262286946e+06 -1.136798431343027391e+06 -1.260253971219953382e+06 3.005489901367837097e+06 3.246796258657378610e+06 -1.350853858305233065e+06 1.110103880549939349e+05 -2.960878391410740092e+06 -5.652873322149526328e+06 -1.917111248015789315e+06 4.025771721072803251e+06 6.059904943412917666e+06 3.310449412578796037e+06 2.540426124972083198e+05 -6.835501609669285826e+05 1.237538802340370789e+07 1.914721925558814546e+05 -1.181979992790134158e+06 1.488951769980860874e+06 1.127119313979199156e+07 2.614745534394672140e+06 -2.755358138362492248e+07 -2.511446877393984701e+06 -2.428167930306171183e+05 -3.280646259940805845e+06
-2.541890664064132277e-02 -4.183662775099242920e-02 4.447900769298160622e-04 -4.255200408763951114e-02 -2.923072740217531190e-02 -1.429437583389407337e-02 6.418158236960902485e-03 2.979704321371465237e-02 3.206659663671197064e-02 -2.233093075000408892e-02 2.358220455743111413e-02 -3.095744723778347252e-03 -1.959341164089181339e-02 5.498331037326403131e-02 2.067999673478234171e-02 -1.525664181129973533e-02 1.162308580260982827e-01 1.817615816605090912e-03 -9.577676781184067331e-03 1.573462377827792441e-02 1.176404228446785993e-01 3.726909544802058105e-03 -1.909438918314477207e-01 -1.818612368421029454e-02 1.077230128678007687e-02 -1.577768188878089393e-03
7.092345373241400719e+08 -1.020676777521044493e+09 4.744188392935428023e+08 2.105011756581357956e+09 2.429621682323738098e+09 1.958150774653415084e+08 2.536521845062161446e+09 -1.254917553516648769e+09 -4.146787558144379854e+08 9.473563102459570169e+08 -3.501556202048450708e+08 1.266489682184285164e+09 -2.557718576014268994e+08 -3.338917184835921526e+08 2.374586998603373468e+08 2.561947221167983055e+09 6.310428332761517763e+08 -1.224218047524547815e+09 -8.176300532065775394e+08 -1.157027551415300560e+10 -2.053596640049760818e+09 1.805582295986555576e+09 -2.831835555073058605e+08 1.000937352302527785e+09 2.542758343858248591e+08 2.423282126158320427e+09
2.650816373494682947e-03 2.406769724338261168e-02 -5.654456072857314344e-03 -2.306353026381224858e-02 1.395964159627128935e-02 1.080149193916037781e-01 7.967476876325076118e-03 -2.742454015537050538e-02 3.079643200366524725e-02 4.063538682719525924e-02 4.237705392400374638e-02 -6.414904507937412015e-02 -2.765129472376740005e-02 -1.552459820209093136e-02 -7.588663488768829235e-02 2.062689304006961113e-02 -7.824152741339540987e-03 2.509558783312197672e-02 3.304381497860001127e-02 -1.000175026162148165e-02 -1.703378631686300326e-02 1.348326482560789283e-02 -1.821738341928997792e-02 -1.233373146665969478e-01 5.093883885438535430e-02 2.110663022945312786e-03
-1.870530702061908024e-02 2.271743993105527180e-03 5.243969264416682707e-02 2.100838113869811161e-02 -8.606764960835984815e-03 1.543502632000423314e-01 3.065801338577994750e-02 4.579334885728391508e-02 4.749408440940994930e-02 8.826956280572990921e-02 -7.768838275882135325e-02 -1.139567898192479084e-01 -5.394388847052113134e-02 -9.001845191733803819e-03 1.214823964217880137e-01 -8.249084002959736206e-02 9.720898497713373332e-02 2.597553541092373700e-02 -4.561190696455471594e-01 3.523132049295994023e-02 -1.417064894873921177e-01 -4.009614175484648574e-02 -4.313763163608134305e-02 3.775909803106906049e-01 -7.558154848405501669e-02 2.126039121158658160e-02
7.040169994627611637e+08 -1.014172399082081199e+09 4.822544438218387365e+08 2.096231197298356056e+09 2.416461697700646400e+09 1.954202678403712511e+08 2.526689685235851288e+09 -1.250632124857762098e+09 -4.119089215174547434e+08 9.426533415010191202e+08 -3.535199544386081100e+08 1.265668162306864023e+09 -2.538126827373030186e+08 -3.362040290963378549e+08 2.418224493489452004e+08 2.555014237444383144e+09 6.348617866038587093e+08 -1.231627100091312885e+09 -8.356331027487920523e+08 -1.150705328754015923e+10 -2.049059025311628103e+09 1.803065932620128870e+09 -2.866357327620778084e+08 1.022823944567777276e+09 2.571632555679274201e+08 2.386110958897796154e+09
1.292562130747023548e+04 3.017677596708384954e+03 -2.264090133261108713e+04 -1.124926167047435774e+04 4.641454799518214713e+03 2.841706443517384741e+02 1.011485818871996344e+04 -1.810229886265701862e+04 -2.507499052960220979e+03 -3.141747946747274182e+04 -2.340699434168378957e+03 9.152789992473350139e+03 -7.884947107256693926e+03 -4.566914979265122383e+03 7.165821170153704770e+03 -3.455003030429319097e+03 -1.013984485462085286e+04 -2.536716507265014116e+03 -3.424759178808491924e+03 -5.122143183584141298e+03 5.610606534794586878e+03 -4.840563780727413359e+03 1.010133510361343178e+04 9.320577794012293452e+03 6.031104649373897701e+03 5.186301466111104673e+04
2.751218729691845728e-03 -2.362605944421604029e-02 2.932991456800971841e-01 -1.636706869659071417e-02 8.630190010071385823e-03 -1.193141665768154315e-02 -2.579997838219341699e-03 -4.644185268780155751e-02 3.515914016133790676e-02 7.205760767233057758e-03 1.909470146760440870e-02 -3.145968480236994557e-03 1.789166485033198695e-02 1.006419822650461357e-03 -1.006453392790661143e-02 5.718145271093449944e-02 -3.086448334420334103e-02 -5.139168576025093457e-03 -3.240336050298154441e-03 -7.347022707584084655e-02 -1.894139723606551307e-02 -3.560313409521858458e-02 1.007382406722242413e-02 3.170295902561553764e-03 -1.858796011636106027e-02 -1.554602099430715811e-01
4.399479286335086087e-02 2.499838925672740603e-02 1.292362335634186440e-02 -1.023684405551707026e-02 2.085753961881252339e-02 1.660010898523822387e-01 -1.502355476081355772e-02 -8.315197511563537924e-02 3.148820726691112931e-02 2.524453519532498733e-02 3.492673690009719806e-02 6.006472989283546948e-02 -4.104344177548527317e-02 2.750937865333181326e-02 -3.542047661658465074e-02 1.807602568566949938e-02 -2.627689254559450668e-02 3.964894824321307798e-02 -9.792257875356535912e-02 -2.691326378044757439e-02 2.626524754883382239e-03 1.557852496736495534e-02 -4.855552777156033756e-02 -4.683045448280895307e-02 -8.952802591095218587e-02 -3.036010938281707983e-03
8.741746435082853317e-02 -1.186763268344607006e-02 -1.970457199584136898e-01 -1.180757501512955283e-02 -9.955730917694689819e-02 -1.300163400000151182e+00 1.102682577014424958e-01 1.916918919452227921e-01 7.096634493661088672e-02 4.314184044942351304e-02 -1.416610893847826125e-01 -8.092745458815708837e-01 -1.082595838726305437e-01 2.253092396954748389e-01 -4.385142782035937603e-02 -9.907718248565994257e-02 -1.531004648868480034e-01 -3.909513628923879103e-01 1.726465857098497425e+00 4.794975058703291465e-02 4.973793819156892282e-03 1.274694753714743570e-02 6.728433858982865168e-01 -3.092096033513494491e-01 3.606096153696966011e-01 1.214425080208599711e-01
3.703199614993950284e-02 4.182381511061588480e-02 3.342343083703834816e-01 -1.461744808373674487e-02 -1.174001249375191888e-02 -2.548642334814243873e-03 -5.899853373580783711e-02 4.987582761129765591e-02 -3.154245192029672684e-02 1.346778161748000135e-01 -1.405142149835730547e-01 1.787926029085943475e-02 -7.876812601459048935e-02 -3.987319980015752857e-02 5.078158302397442481e-02 -2.056258460656689921e-02 1.186627417619925268e-02 -5.656132492567675363e-03 -5.887025871290307855e-02 -1.986022491986282057e-02 8.030809365884530870e-02 -2.591582444665843296e-02 -6.017593664994912855e-02 4.604294072341837130e-02 2.852079523721505819e-02 -2.633991193323119706e-01
2.504513175402813333e-02 -2.782543237272314812e-02 2.310686344188520036e-01 1.051224483333113545e-02 -6.841180756578836564e-03 4.256714289267472806e-04 6.211374985431494800e-02 -7.255465555255798116e-02 1.639676910931539555e-02 2.728895539787631191e-02 -2.322735852657253908e-02 -2.996141566973885631e-02 4.313297502572283060e-02 -3.740958695562644765e-03 -1.525549361764834584e-02 1.151309319124528691e-01 -7.767030374332026255e-02 -1.063460643630727114e-02 -3.731181862213576311e-02 -2.118115890768901000e-01 3.884199109444147480e-02 -5.668037743833581610e-02 -5.892662273732204165e-02 5.055766769756954437e-02 1.816450898418548593e-02 -6.237418265322876298e-03
1.792099586702790293e-02 -1.032919218532545313e-01 -6.346345075631981691e-01 -2.256391389452690188e-02 1.529088950424249416e-01 -7.912754482453936145e-02 -6.448154625187291211e-02 2.327004855907301335e-03 2.419545519173788711e-02 -4.645297262238987784e-02 5.753978709037511213e-02 5.688947248736910683e-02 -1.869392230261089985e-02 6.181073890089990031e-02 -4.565943173761346369e-02 -1.448119791085254390e-02 3.070328308289211813e-02 2.045098642007128070e-02 -3.895297233332932485e-02 2.503795089736581270e-01 -8.915775273014514557e-02 8.017145644155171391e-02 4.608456027797850491e-02 9.199998328130937209e-02 -4.427440409294571694e-02 3.083899602040753862e-01
-7.791212731542116962e+06 3.841371665543381125e+07 1.267276608773556352e+07 -8.399318619023245573e+07 -6.657185141675591469e+07 -1.000728907079098513e+06 -8.713246655750890076e+07 -1.112960662140457332e+07 8.391081142193671316e+06 -5.450401055315966159e+07 -3.140085109254221432e+06 -1.251842182036729902e+07 1.774183263007858396e+07 -7.502819882457477041e+06 2.062128896037751809e+07 -6.327425356618500501e+07 -7.048828299418653361e+06 -1.100328214136378840e+07 -1.878590250733682141e+07 4.728372945856058598e+08 4.890732729404701293e+07 -4.040383316328898817e+07 -1.321863810639860481e+07 3.920414075779476017e+07 2.521173338615322020e+06 -1.722914938782885671e+08
-2.040900637336178977e-02 2.876505822842622198e-02 -5.797492190957594799e-02 -3.789617944542600717e-03 1.065290493282789741e-01 1.101353143038092536e-02 -7.439892688746702065e-03 -1.901794742882093048e-02 -8.595204109675737628e-03 -3.711307858884552863e-02 5.922497027411889256e-03 -8.291595067856438045e-03 -1.168842494101427106e-03 -7.533361114841307174e-03 2.201867911757521279e-02 -2.214038007463205865e-02 1.040996473778390552e-01 1.657333369613145195e-03 7.788302288102054785e-03 1.427232647544049091e-02 -8.034963712348665299e-02 -2.843886094853757471e-02 1.380933433103076306e-02 -1.289408577460244426e-02 4.300244917911212258e-03 -5.019572250382924386e-03
-2.019118750055880554e-02 -5.427335887086776056e-02 3.351860421374060206e-02 -6.056609066512043393e-02 1.111809667481617053e-01 -5.692143642174131782e-03 8.045810759932663092e-02 3.841227063880509052e-02 -3.227292405909274603e-03 -2.128551750472928300e-02 1.087744120575666155e-02 1.891344953019463010e-02 -7.393663885814503317e-03 1.446646200415695974e-04 3.872577812971745356e-03 3.793697885307319162e-02 -4.710631858910647313e-02 2.088188412485831019e-03 -3.381345107537385691e-03 2.783122890986072101e-02 -1.942509337261549666e-03 -7.148778881135701979e-02 -8.654171577413809907e-03 1.398215104265315180e-02 2.630713955034852218e-03 -7.664595564425601137e-02
6.626159100162011385e+08 -9.165181956799008846e+08 4.627643107109319568e+08 1.851850642539759636e+09 2.218148703230526447e+09 1.651242993340597749e+08 2.288296346787896156e+09 -1.223151844320034266e+09 -4.175379398992290497e+08 8.224118383942381144e+08 -2.908086105576242208e+08 1.258887172437907696e+09 -2.494503379863047004e+08 -3.425206107317509055e+08 2.629187524600370824e+08 2.347504977832690716e+09 5.241648496694374681e+08 -1.211782182914724588e+09 -8.208767847351096869e+08 -1.048579252977514267e+10 -1.901025009284878254e+09 1.651327100270277500e+09 -2.272740968669749498e+08 1.052129101261718988e+09 2.707637703693414927e+08 2.247830367471220970e+09
6.828116978053517342e+08 -9.841620271519105434e+08 4.720636074870145917e+08 2.017879389188138723e+09 2.350732693117586136e+09 1.797456097816348076e+08 2.451242324838980675e+09 -1.231456718757806540e+09 -4.182774074641183019e+08 9.151855788062398434e+08 -3.233737899558109641e+08 1.268207269237298489e+09 -2.567755268465132117e+08 -3.387856898063912988e+08 2.473842018149202466e+08 2.486341711697506428e+09 5.924821445566650629e+08 -1.227923507657326698e+09 -8.446873570473535061e+08 -1.122343565305715561e+10 -2.005890973519330025e+09 1.752615360118131161e+09 -2.587586882347865701e+08 1.056827920712956548e+09 2.601847301082093418e+08 2.379823100262743950e+09
9.426803236235942841e+08 -1.958075693494108677e+09 6.729393199252306223e+08 4.494326208763184547e+09 4.204879864004894257e+09 3.782988639012397528e+08 4.903191232431150436e+09 -1.235951164455126286e+09 -4.311530622538805008e+08 2.276484709223722458e+09 -8.532849734010618925e+08 1.439208381327176571e+09 -4.015702099018787146e+08 -2.864238464090483189e+08 -1.344434797444820404e+06 4.542438180227167130e+09 1.628087541965953827e+09 -1.518060248111535549e+09 -1.227339008075467587e+09 -2.213227509753613663e+10 -3.550092718710515499e+09 3.270653769969300270e+09 -7.077620954932020903e+08 1.134573830603914738e+09 2.101062883365420103e+08 4.205464038375654221e+09
1.359188011883685765e-03 -6.339333369440254551e-02 -1.260680346682730053e-02 2.028682648886107401e-02 -4.858381705511945897e-02 -8.477509752640725177e-03 -4.338194549572758907e-02 -1.603509466876474054e-01 2.734727757146138919e-03 6.245887905484515112e-02 6.394742659844349086e-02 -3.406380573733339828e-02 1.084066604509256911e-02 7.867383744141209778e-02 -3.888911831300870259e-03 -4.474232133900594988e-02 4.279609653312838741e-02 -4.098565307850196050e-03 1.223046495488411961e-02 -3.690473762067254110e-02 6.597304454192108591e-02 -2.012214930719023048e-02 1.099496165810406184e-01 3.812428411063829847e-02 -8.108497565888231340e-03 -2.065171325769041971e-02
6.993071602017814081e-02 1.170944718947679181e-01 6.702229684733621018e-03 2.198635326610945059e-02 9.147929336055231342e-03 3.467467116572346512e-03 -2.640601792001843681e-02 -5.126457295236909462e-02 -1.548549443770416353e-02 -1.267065436266374134e-01 -1.559885322785979356e-01 2.434945431611206315e-02 1.303605054831758793e-02 5.482176520732168212e-02 2.408351071426350493e-03 -1.078255063446489220e-02 7.759681063057256856e-02 1.634629976941681271e-03 -3.565163781609939631e-03 -3.436410676199339043e-02 -2.800837720856641858e-02 2.889775986152652576e-02 1.322755569101720374e-02 1.659739646926359016e-02 1.250579045147423747e-02 -2.083337194042840512e-02
3.613758833881453114e+01 -9.420240378031930817e+00 -9.427270794896989514e+01 -7.242743845303955652e+01 -2.752532647700603619e+01 2.482036723361900066e+00 1.598582048805102573e+00 2.220793127617697316e+00 1.699127554937450313e+01 -2.504440635145027727e+01 -1.274044413532770115e+01 2.190592854952306823e-01 -2.014584152134355932e+01 2.099776783995094931e+00 -4.266076489131308769e+00 2.195943887473668354e+01 -5.059512320251882755e+01 -8.630481600109439100e+00 -7.624841442768003574e+00 1.331069292920019507e+02 -4.488031164816206342e+00 4.806383284763958841e+01 6.776635683668967403e+00 3.396012603801355390e+00 1.041082895090041260e+00 6.108791511010979036e+01
6.444807416263400316e+08 -4.853022396532216668e+08 4.448531543953773975e+08 7.830719245241488218e+08 1.470878908771069288e+09 1.507121431325433254e+08 1.238496366056710720e+09 -1.389652184560902119e+09 -3.349132315251117349e+08 8.050576635095421970e+07 -2.432617755808331072e+08 1.106780415511925220e+09 -9.331888130536243320e+07 -3.712821571198332906e+08 4.043092593712806702e+08 1.514775345607089043e+09 2.456955125490080416e+08 -1.129249277755514622e+09 -5.210519485998412371e+08 -4.954069947247016907e+09 -1.208893791126499414e+09 1.047341291789806843e+09 -2.363943235242826343e+08 8.094575703706777096e+08 3.476850365938424468e+08 6.783463213802590370e+08
-3.380233301453888783e-01 -9.594424683923336028e-02 -2.106215923226289477e-01 -2.595553183383931400e-02 -2.139466205626524842e-01 -6.909363136431840857e-01 1.382096420781494805e-01 2.636876422365965755e-01 2.522410482952228694e-01 -2.050998639624889153e-01 -3.319674137055153018e-01 -5.180958878070607287e-01 2.127680590564641483e-02 2.142266063102745699e-01 -1.253809506835642518e+00 1.427556455477618780e-01 -5.939229567503950813e-01 1.119160706488011137e+00 1.694017244101058139e-01 -1.081175769579093560e-01 9.062181856059386975e-02 1.852142586576285277e-01 1.014299881949735527e+00 -1.476834652769815626e-01 7.335332068540666439e-01 3.894953193491605958e-01
6.750404229379715919e+08 -9.753225283242256641e+08 4.720950666060860753e+08 1.997110979324407339e+09 2.334563703295816422e+09 1.762867300867094398e+08 2.429751595169972420e+09 -1.228790845441637039e+09 -4.176421873183060884e+08 9.104817347328000069e+08 -3.163807900407377481e+08 1.268148358325526237e+09 -2.550111134370024800e+08 -3.417040026793193817e+08 2.532464855812716782e+08 2.469236295108683109e+09 5.860238953082498312e+08 -1.233641133978124619e+09 -8.654562644101601839e+08 -1.113713671340641975e+10 -1.997793192184547186e+09 1.741651567639344454e+09 -2.560889497280429602e+08 1.089231048671756268e+09 2.581096638581158519e+08 2.363990174336651325e+09
-1.514750372906571545e-02 6.322071840232252118e-03 -1.392541853051339380e-03 -2.179751115842344569e-03 -2.906946958995575148e-02 9.362311426049989282e-02 9.158808667630150002e-03 -1.299655360109418581e-02 -1.268147406320137838e-01 3.859892047452709481e-03 5.974979563697015335e-03 -7.315856518773007633e-02 1.104801866051939065e-02 -4.337691492925898479e-02 4.400657961365195270e-02 -2.152156872460760442e-03 2.725136107523474464e-03 3.019600317462132338e-02 -7.219697995262255863e-02 1.629163679015262906e-02 -5.779868522152010503e-03 1.632070914509590673e-02 1.691547092669501082e-02 6.464386633647467573e-02 6.634020997000092401e-02 -3.161451118999839081e-03
-7.332645490844605894e-03 5.753930840004454345e-02 -1.726436544638903017e-02 -3.312377974840217953e-02 7.066625566481708753e-02 1.187984146607490299e-02 -3.435411946957078744e-02 6.382132218154237813e-02 -9.635358580559626532e-03 4.758200399511239992e-02 2.277253831136454021e-02 1.384895015281188994e-03 -3.198580619219028309e-02 1.145703623743089816e-04 -1.238317077762493383e-02 -9.009586330753772965e-02 -2.766107697928500871e-03 -6.044439052257489543e-03 -5.239481126996765360e-03 -5.489724807830336124e-03 -2.070724691601578266e-02 1.361052867800566397e-02 4.161903752403474377e-03 -3.429665352529142307e-03 -1.279027396584398206e-03 -1.240236646375897193e-02
2.008407389777284488e+07 -4.316526319701813161e+07 3.281442529912086204e+06 1.034742333283763677e+08 8.450462054656511545e+07 1.102093579333700053e+07 1.034464043752422929e+08 -9.590607496533066034e+06 -1.014853889622383052e+06 4.895553853137270361e+07 -2.397247718828235939e+07 4.507533386199832894e+06 -5.074280155754167587e+06 5.354514171758767217e+06 -1.485534709591906518e+07 8.639167341847063601e+07 3.955475881077525765e+07 -1.180905700003182981e+06 1.943904812692378461e+07 -4.497839892132065296e+08 -5.945522671417689323e+07 6.078019717645827681e+07 -1.882977606438146904e+07 -4.272474163883865625e+07 -1.012742051385973115e+06 7.986523631214533746e+07
6.743408550481082201e+08 -9.700554603031414747e+08 4.634919906972834468e+08 1.976670433351232529e+09 2.328375510346080780e+09 1.752884442900555730e+08 2.411837756831905842e+09 -1.234935450852362633e+09 -4.151121663226743340e+08 8.994525542972797155e+08 -3.097554069309628606e+08 1.264920471518666983e+09 -2.528869966844630539e+08 -3.417248288064644337e+08 2.548934007617270648e+08 2.452626503737715244e+09 5.761090905695550442e+08 -1.229424182370118856e+09 -8.576905945716226101e+08 -1.105222817786314392e+10 -1.986166837236609459e+09 1.727668814853127003e+09 -2.531762353732963502e+08 1.081737242139231682e+09 2.578416876633015573e+08 2.357901581244384766e+09
3.736311559894398004e-02 -1.519446889026328934e-02 -8.711976978533382543e-03 -1.200335908609453384e-01 7.357927773960788904e-03 -5.838293641037571591e-03 4.438486638929518141e-02 -7.019307314669792630e-03 -1.031464964913927918e-02 -1.145314390045638481e-01 1.614908631478261664e-02 -6.977570207546941218e-03 1.678881361391660471e-02 3.539630769194278270e-02 9.787146391876118401e-03 1.951701455123968157e-02 1.032234041626656634e-01 -5.615778010376023047e-04 -6.485031585708615764e-03 1.679680336428158172e-01 -5.848098526657845297e-02 -1.118113295292339632e-01 -3.552913093929829617e-03 3.271579236660716351e-03 -1.059715671717603551e-03 9.365554126805368182e-03
3.684463184216098253e-02 -3.119499859289501503e-03 -8.336666729203707354e-03 -6.746861107233850970e-03 -3.199681490576895826e-02 -4.857615539625334544e-02 2.257696380622165738e-03 4.209356662408108435e-02 3.921467578592316428e-02 -4.149656679698736361e-02 9.883655022003884696e-03 -2.269478820836153335e-02 1.793542118152963855e-02 4.679757456876600802e-02 1.365220482686307045e-02 1.418450062809344667e-03 1.062423187882228885e-02 -1.497804741940738510e-02 1.091758104292607501e-02 1.564284535404929233e-02 -8.373488995513016318e-04 2.126356241192499039e-02 -1.294063039305046459e-01 1.394699464351585420e-02 2.214641043883476546e-02 3.549551187728864320e-03
-3.342370273320582896e-02 -4.171282677724819955e-03 5.804011062437922433e-03 -1.713806122995887356e-03 -7.397307396270112745e-03 -1.005780564419577749e-01 2.990120402668755735e-03 2.608512974052149339e-02 -1.196484612644115181e-01 2.290853685026553524e-02 2.470851136073673633e-03 2.606863848095722705e-02 -2.873062035764525901e-03 2.157341512989550958e-02 9.985525519502069791e-02 -8.107977288306035882e-03 1.457448053339633308e-02 -5.114486004728936719e-02 -1.928025423191233670e-03 3.691556732519374936e-03 -5.714369546834947855e-02 4.604264749656543712e-03 -2.826158869828530526e-02 4.168110528518658570e-02 1.575586672560559953e-01 -1.347420695690346865e-02
8.565071420941936970e+08 -1.641651663190576792e+09 5.697354526508357525e+08 3.677633322392657757e+09 3.588108287937636852e+09 3.036768428018363118e+08 4.082868788634526253e+09 -1.208070378606537819e+09 -4.554597225356010199e+08 1.861470921621923685e+09 -6.159353228081867695e+08 1.405004897745012999e+09 -3.840553718951686621e+08 -2.961555669107061028e+08 6.679097816452550888e+07 3.848243519908817291e+09 1.215249699085424900e+09 -1.374728918489717245e+09 -1.084824938768400192e+09 -1.882541281399407959e+10 -3.039181900367835999e+09 2.751850555960598946e+09 -4.858105789713652730e+08 1.085535211564404488e+09 1.863456756559961736e+08 3.912265880357686520e+09
1.892089718134157360e+06 -8.300863173456279328e+05 1.047304732769363676e+06 -6.738108370857357513e+05 2.566485393046176527e+06 5.787694779705760069e+06 -1.007284977098940639e+06 -6.374813262819086201e+06 -2.445324660990012926e+05 -1.486416074402369093e+06 1.608803265838294523e+06 5.274387241504142992e+06 -2.786628266578369308e+06 -2.587460275707634166e+06 3.829261319182188716e+06 2.692439182965720538e+06 3.714797565721083665e+05 1.776321144510637969e+06 -1.425776098289542831e+07 -1.521999702089703875e+06 -2.955149853617732297e+05 9.083999535715746460e+05 -2.173390692948427983e+06 3.161423829288748093e+06 1.906299572520493530e+05 3.132978566091169603e+06
3.073104835842832214e-02 -4.802839755857318121e-02 -4.168056616032784524e-03 -3.385437894346007837e-02 2.490388977628144734e-02 -1.051859449909894537e-03 -3.128461236573770732e-02 1.809802130248309993e-02 -4.070884613075257535e-03 2.020615383959087092e-03 4.442261514254725735e-02 -1.876773990469442557e-02 8.757346735699899493e-03 7.818444965057723753e-03 -9.119837831877156131e-03 -4.613678845509756182e-02 -1.406794279907954293e-03 -1.386378070524706824e-02 2.048623668560382687e-03 -5.232701279408071698e-02 6.005377567666370098e-02 2.749599273342056421e-02 -1.944688110762398531e-02 -6.990967081450077426e-03 -8.096147487017521516e-03 7.226376545068388668e-02
2.221428565461780816e-03 -9.318164232772426642e-03 3.387877393584086405e-03 -9.125099319784803903e-03 -2.633265936309666516e-02 9.927638329186957988e-02 2.551754148928497400e-03 1.794723834506223650e-02 -1.273194020250479133e-02 -1.125457562976294769e-02 -4.374600743589134901e-03 1.739125880894606957e-02 1.208433894172888656e-01 1.767302849881320376e-03 8.810675787306726514e-02 -8.750850141655304795e-03 1.541160791027850092e-02 -2.317482729711005940e-01 3.242588092475473527e-02 9.506051765456534700e-03 -5.011471995657403727e-02 1.802172015679030792e-02 6.210028408640429209e-02 -8.507365925290540087e-02 -5.677661864389396684e-02 1.464222491986624450e-02
-1.360346827774029099e-01 3.207344711776335955e-02 -8.871133942561838272e-04 1.744220020124840481e-02 3.759305507853376305e-02 -9.161266650007404179e-04 -1.188720872227414134e-02 -1.088277823767512531e-01 2.845604118549668188e-02 7.036922828593308865e-02 3.971196710943926400e-02 -4.050960246531148251e-02 -1.477572951455098822e-02 1.060576711011255863e-01 -4.783849952353139146e-02 -1.416498789987310006e-02 -1.645214286448997906e-02 1.208112248473859011e-03 5.064270779060109882e-03 -1.272563013365614684e-02 4.102358975059147705e-02 4.320236362317190007e-03 4.037269142719443482e-02 9.946052798850025124e-04 -2.024106148604457034e-02 5.734518960807766328e-04
-4.477631570976706166e-02 -5.040267925520492028e-03 1.597336285058617855e-01 -1.323479981719758586e-02 -2.085668907692383653e-02 1.478265316428616950e-02 2.075918680488710588e-01 1.558406138075128095e-02 -1.705014715742046933e-03 -4.059615288811529304e-02 2.172744323208212688e-03 3.235762805062776526e-03 1.195150836351435014e-02 2.941897911740675581e-02 6.056905826115344116e-03 -2.995328219709079628e-02 -5.763070520585920897e-02 2.589190481996208465e-03 -1.806753968219830184e-03 -1.252091399880973510e-01 4.741630898566848683e-03 -3.159924626442678353e-02 5.059155350847254623e-02 -1.890590083033698993e-02 1.654699485281782567e-02 -1.336832126896338180e-01
6.886143003855531216e+08 -1.004409010289439321e+09 4.705852699577970505e+08 2.068725284887269497e+09 2.389655519861884594e+09 1.850083393498768210e+08 2.497264630143575191e+09 -1.229928874958124399e+09 -4.203568117228594422e+08 9.488965342188099623e+08 -3.239269110210823417e+08 1.272805176529111385e+09 -2.634632248588684201e+08 -3.364754721070687771e+08 2.421852334697988927e+08 2.525997976712909698e+09 6.028966311980247498e+08 -1.223565427589288473e+09 -8.585283428541455269e+08 -1.149211976752712250e+10 -2.037095538218370914e+09 1.781059538102444649e+09 -2.561956858674633503e+08 1.059555450462551117e+09 2.465586660262283683e+08 2.466256515742967606e+09
-8.013981360651245341e+05 -4.248752679250340164e+07 -4.039972008633352816e+06 1.042071922866089642e+08 7.028455858025664091e+07 -1.416823701661380939e+06 1.056609502159135789e+08 2.445326920130217075e+07 -9.448299096264606342e+06 7.434690325686131418e+07 1.003823211924100062e+06 1.875518193299204856e+07 -2.141376651879258081e+07 4.093541650136472657e+06 -1.819012077722596005e+07 7.820349352626004815e+07 1.793879536774263531e+07 -4.872479842681871727e+06 -2.205417263337868452e+07 -5.705120825642192364e+08 -6.616517749636815488e+07 5.537903871619655192e+07 1.171371853216371685e+07 1.170385707062739134e+07 -1.768103333515411243e+06 1.854255993525186777e+08
6.941755083908705711e+08 -1.024693406985035539e+09 4.773102342665880919e+08 2.121710651641840935e+09 2.427201387587436199e+09 1.885791532821551859e+08 2.551312410920849323e+09 -1.229255534339533806e+09 -4.206028298973896503e+08 9.752432781067422628e+08 -3.395398201218213439e+08 1.276435005685534716e+09 -2.658454444458213449e+08 -3.355404232782534957e+08 2.364480118221521378e+08 2.570891810896844387e+09 6.284105670227870941e+08 -1.233031272823906898e+09 -8.632351305282853842e+08 -1.170993709314846802e+10 -2.069842036001783133e+09 1.814654195385027170e+09 -2.688479749541094899e+08 1.059426859952274323e+09 2.505868853574791551e+08 2.487985006240895748e+09
-8.483432989758399323e-02 1.065148273842763671e-01 -1.295448485294964369e-02 -2.334665653939960867e-02 2.156764915484931516e-02 5.081154779760548024e-02 -1.102493081324845909e-03 9.966216647913267446e-02 -4.481422619676209964e-04 3.695620623171949615e-02 7.244119765593399693e-03 -2.859286095933108798e-02 -1.728605218377290975e-02 -1.463707830662035365e-02 1.609336794616900157e-02 -2.879498613267884519e-02 3.806986758928893044e-02 8.475683381546250672e-03 1.835170660582656141e-02 -5.171739229910146673e-02 -3.656744141413367788e-02 -2.420158861746050244e-02 8.961376429372379729e-03 -1.079806335700267267e-01 -6.040672795540173202e-04 2.035968863052560821e-02
2.905512187977777293e-03 5.670359333084680487e-02 -6.006761319045315212e-02 -1.637863795908557282e-02 -5.381834809201833936e-02 1.769874575003574715e-02 1.323995169594570538e-02 -4.080137668917865196e-02 -1.586549090691456373e-02 5.492736917125521159e-04 -2.344900075890321393e-03 -3.297799286182743345e-02 -2.472441727414728327e-02 3.145612594017475720e-04 3.933091754188888789e-02 2.540209488276173877e-02 -5.938446842755117777e-02 4.459224041211470348e-03 -3.834877620335837983e-02 1.542348782671734975e-01 -4.020803834886069877e-03 3.351988046699734981e-03 6.392123320368324479e-02 3.418017756563045823e-02 1.356822344702324126e-03 -6.891614829436079614e-02
7.920493940478386813e-03 3.003626596797254536e-02 -4.088353445396682509e-03 -1.631536175660370722e-02 -5.964367935332699766e-02 3.186414188051634594e-02 1.196403328305137639e-02 -7.634379025949429402e-03 -5.158421775163460343e-02 5.480681646232950233e-02 3.312832744004254315e-02 2.032861228168171899e-02 -1.095728309566813483e-02 -2.445163674977853755e-03 -1.916785760128334598e-02 9.117258574916839442e-04 -1.799956341879494284e-02 9.965536198486814323e-03 -3.790306155831333745e-03 2.152502798238061649e-02 1.316640571385747048e-02 3.076375541968524169e-02 -2.347996645753454292e-02 -1.478640870465478332e-02 4.263827011853285262e-03 -3.875242899817122472e-02
5.084754944679061737e+02 -1.013683158382082539e+01 -3.645707447990947685e+02 1.347714713165077001e+02 6.879035586796296684e+02 3.663768859942760514e+02 -1.303672345467536786e+02 -6.326310450453194107e+02 8.754900854344717231e+01 3.123570460800899014e+02 1.934247527113831495e+02 -9.911891368056075180e+01 1.623472658217062303e+02 -2.589281587760260095e+01 -5.531989765256242890e+02 -6.635538857898203560e+02 2.205920661660191513e+02 1.399089405351254243e+02 1.387526211135182734e+02 1.447751642358435902e+02 -2.206468311113339382e+02 -1.811691589943459064e+02 -2.499563988950742441e+02 -1.151999861783466770e+02 -3.483143837742545657e+01 1.840399857396657808e+02
-2.495356508815761015e-02 7.103514075358269980e-03 -4.917416934373294857e-03 1.579858592786971550e-02 -1.107937956200810356e-02 5.371365727666376627e-02 -3.463257172296348163e-04 -5.534733942424408491e-03 4.310794723300013370e-02 4.799272308420902966e-02 2.026507119546670094e-02 -6.705092809810046794e-02 -6.720183272535490415e-02 -1.538262283271729820e-02 -2.474955625114616531e-02 -1.018242431386325898e-02 2.015911839262384334e-02 9.471395455118349765e-05 -1.689672145631881256e-03 6.066033179817816728e-02 -2.894932141946759963e-02 2.771746286413403690e-02 5.683221799027415866e-02 -2.455442985171698428e-02 1.885451974476773027e-02 -8.570765465490499946e-02
2.409000953142597864e-02 1.697823899837277994e-02 4.116767575128167655e-03 9.489061316665730120e-03 1.089434484603112388e-02 1.269267139609265085e-02 -9.528753093329515172e-03 -5.686931271410247679e-02 1.584509299253776815e-01 1.237435475855967401e-02 3.390539546846038210e-03 6.646818818025282405e-02 -1.978976250297080908e-01 -1.805306056353452038e-02 7.274785065694809594e-03 5.840451162812636612e-03 -1.381103795993091250e-02 -2.730347031518633519e-02 -2.265240464953979446e-02 -5.265798690999393475e-03 -4.833668264671978944e-04 4.746366522908443235e-03 -8.089164253026677465e-02 1.112888633712583175e-01 -1.418353427009692511e-02 -1.155565554264947632e-03
-1.288463780570652708e+07 1.928443264718136564e+07 -2.372820388641151786e+07 2.453389289259142056e+07 -1.722727745903646201e+07 6.561424051062345505e+07 -2.387364761594232544e+07 2.064150847815456614e+07 -1.114822825058760792e+08 -2.111648837961272895e+07 -7.127105990257450938e+07 7.089545416907820106e+07 1.811867646493027732e+07 -2.153159382145376131e+07 -3.463717680439291894e+07 -2.739660006495403126e+07 3.377414514278885722e+07 -4.800174036297664046e+07 2.393127777401659265e+07 -2.476009316301297396e+07 9.266691471972089261e+06 3.089447070162911713e+07 1.745534679400731325e+08 -3.308214392886005342e+07 -5.152240979788431525e+07 3.100709730565596372e+07
-5.804357425388183278e-02 3.083494654409502794e-02 -1.652783224384972785e-02 5.262275104852966873e-03 5.667154451142547567e-02 -1.231686768094520865e-02 -1.277404848626527986e-03 -1.123641251366424010e-01 -4.696077641031590200e-02 5.921903856132100519e-02 6.071449105780649808e-02 4.816604150440523258e-02 4.632760440431800408e-02 8.238079690353272699e-02 -5.754350152593828982e-02 3.580597034044034899e-02 -7.323235650589328405e-02 -3.429998299418011726e-03 2.856497077739137552e-02 -2.192188353439802548e-02 -1.270989241781285417e-01 -3.329014534359531902e-02 1.370259000118487502e-01 -2.819771156854362568e-02 1.705957538277112079e-02 -1.582805357403173699e-02
-1.867727282456080957e+03 8.311131043575139756e+02 4.863426850388377716e+02 2.217072938706077821e+03 5.121568623961977664e+02 -7.319617441790440353e+03 -3.395418869296699995e+03 6.328254527955111826e+02 -1.072284857260890476e+03 9.318876292393845233e+02 -3.571235937056397916e+02 -9.685677233385328009e+02 -9.799706614308295229e+02 -9.525665599712436915e+02 1.972156137619526817e+03 -8.118385112144744653e+02 -6.131389712370841494e+01 -3.440332238424372008e+03 4.475908210367305401e+03 4.359752765409271547e+02 -6.242384157292572127e+02 -1.470179446028989787e+02 1.944185101315800011e+03 2.965799823232083554e+02 6.230430567661514033e+03 1.031384047983314758e+03
4.374559938198159526e-02 -1.465692903251607920e-02 -9.159918886817842651e-03 1.162274642320803089e-02 2.275767665286844866e-03 -5.487087073528894646e-03 3.046397056873667575e-02 -5.042139809274211182e-02 -3.059998659268948693e-02 -3.954571683123962733e-02 1.901128493043869466e-02 7.259003126264426675e-02 3.559106451096287482e-02 -1.319072783556388302e-02 7.761887245008092240e-03 2.014169345169014927e-02 -3.647748928744472263e-02 -8.241521934065460311e-03 8.833304664309427068e-03 8.969371768581233667e-03 -6.152698615327865245e-02 6.860721188545524860e-03 -4.128551594885795928e-02 1.418284960576782043e-02 4.281835105009464126e-02 -1.427536604851093426e-02
-8.672066490904709046e-02 4.221152359962124234e-02 -8.100458353978433335e-02 3.440684997447334553e-02 -1.072107525470944629e-02 -8.899713426723590559e-04 1.488217498455362553e-01 -1.850300613779668618e-02 3.151668084479526677e-02 2.709286400799432171e-02 1.043221713446099153e-01 1.881815822858275977e-01 -8.596815720666489691e-02 -5.932688748241448512e-02 2.743263035673637606e-01 -2.546495058501881473e-02 9.521050249186507886e-03 -2.076816651004770586e-01 -1.110333160786388107e-01 5.022283625002092744e-02 -8.385586648369086626e-02 -1.430202420965794377e-02 -6.585589563262342350e-02 -3.635534686120631132e-02 2.752172479409353140e-02 -5.046192593912182667e-02
8.624597824375495492e+00 -1.615989712569238890e+01 2.248525111627459694e+01 -2.109396223967840456e+01 1.518475368576204687e+02 1.633658788910039572e+00 4.562838465926429876e+01 -1.106414166559726198e+02 3.171935495019022611e+01 -3.604770739838667470e+00 2.346239603610959534e+01 -1.451239151190954324e+01 2.497264765382255902e+01 1.465984497580239410e-01 1.136734016184047036e+01 -2.204380401549370205e+01 1.005876498756474646e+01 -2.768193132075897900e+00 4.697403946357075455e+01 1.695624198862272181e+01 -3.488042954480805236e+01 -1.231547475350281218e+01 -6.264279526922420516e+00 -3.584473669103063287e+01 -2.219551754371982710e+01 -9.355193945727850746e+01
-1.686484030222368605e-02 -1.254286636779947963e-04 -5.315122106997787615e-03 2.217397354337453767e-03 7.831179361876204961e-03 3.798875644735696250e-02 -3.438510682533193899e-04 3.071318016163562814e-02 -9.074209808503583274e-02 -1.822142036172221327e-02 -7.797509359261124533e-03 -1.516527113709260632e-01 1.368201241358339149e-01 1.216201574797627638e-02 -1.312333673912974563e-01 -1.279432324665747897e-03 -2.314560707708294973e-02 4.210081613493771475e-03 -2.527709689338537152e-02 1.325678150933765542e-03 4.467564537474500927e-03 -9.376036550801006286e-03 1.388890911299020814e-01 2.857616299361561557e-02 8.157989686582226008e-02 -5.406606944927802236e-03
-1.471124013756074100e-02 -1.064725181061077983e-02 -4.291062203178564252e-03 2.568115998115765540e-03 1.748592991577439804e-02 3.628367387301202618e-02 8.532020527644285438e-03 1.643141910175321269e-02 2.641030571432689822e-02 -3.825578545496303995e-02 3.387355166421194413e-02 3.401843132775157763e-02 -4.302916035193572741e-02 2.958631944627113097e-02 2.394792504226068985e-02 8.449861768165967818e-03 -2.837259264749971560e-02 -1.157691203612022657e-02 -1.057391467347841008e-01 8.260043274705784061e-03 -2.835913056133907567e-02 -1.067870320221832661e-02 -1.302423083072777946e-02 3.822706807505057286e-02 3.591788534392381660e-02 -1.130733510202984807e-02
-6.520519842870889697e+05 -4.577690455657597049e+05 2.649100539207351860e+06 -5.559586764520263532e+05 8.802923190770351794e+05 -1.733835587727382372e+05 -4.486919904357126798e+05 -4.927641400589217665e+05 -2.687746083474216284e+05 9.212343690734565025e+05 2.213543774231069547e+05 8.106820741970135132e+05 2.784610899561426486e+05 2.519230834149410948e+05 -3.717946807841528789e+04 1.043042301350326394e+06 -2.657167615643718746e+05 -1.967295876460847503e+05 -4.258744843111771625e+05 1.173616379286345036e+05 -8.963024219208174618e+05 2.322705930992825597e+05 4.583955361199153122e+05 3.281647737997648073e+05 1.311490996968678373e+05 -3.452235066903293133e+06
5.330986009793436388e+05 6.464921527682422893e+05 -2.797050008676424040e+05 4.098010281539821153e+04 -3.612985215970048739e+04 -2.365663991831749736e+05 -3.162022214235921856e+05 -2.797223314679677133e+05 5.610040637581270421e+05 -3.633197117212835001e+05 -8.755596573085323907e+05 -2.046009085231828503e+05 -4.764805207528065075e+05 4.688250167571722995e+05 1.382203046910135308e+05 -2.849072069693304366e+05 -2.475598963497009594e+06 -2.211526380213338416e+05 4.050289810331637855e+05 4.831512490287241526e+05 -1.456349674928078894e+05 2.785979035100615001e+05 3.555585349514778703e+06 -3.118271321161438827e+05 1.450700378373449785e+05 -7.486462511888573645e+05
5.639179552361800671e+08 -5.890554237202701569e+08 4.244929785819552541e+08 9.702209259978691339e+08 1.557150915324286938e+09 4.758897971038743854e+06 1.408178425049447536e+09 -1.247632232838793039e+09 -5.550734239566819668e+08 4.100556278238692284e+08 -8.939858314842411876e+07 1.252985956874629736e+09 -1.445787489286830723e+08 -3.995911534008722305e+08 3.657137261814764142e+08 1.628493503067134857e+09 2.186649027105499506e+08 -1.277165184840245485e+09 -6.037087773203871250e+08 -6.551062717724887848e+09 -1.424076873584275723e+09 1.145783757922518730e+09 -1.988675018716090024e+08 1.311401861357677698e+09 3.142884999932920933e+08 1.504102687276201725e+09
-1.604607652409271168e+00 -2.063806351305751408e-01 -2.561217434928269920e+00 -2.705885781148071878e+00 3.354788175038595499e-01 6.041051046301454619e+00 -4.423114945381552587e+00 8.608923903609086992e+00 1.942916150871801761e+01 -4.656877525926494954e+00 -8.049838705640022241e+00 -1.275409331556913983e+01 8.454890740412144723e+00 8.986347287253442673e+00 -1.637421378329773347e+01 7.574375729566215076e-01 4.895558089547250802e+00 5.663963181190943885e+00 1.176936700487775411e+01 -5.883947703282650821e+00 -5.752127048761450645e-01 1.823870667765609133e+00 8.514271054015289053e+00 -1.216649137860128604e+01 -1.759507039010039620e+01 4.276631082140333717e+00
1.694872314891648218e-02 6.991071713709678774e-03 -2.525954881329869200e-02 2.811327921360039228e-03 -2.778075179074675563e-02 6.126438364531886643e-02 1.354381653720567423e-02 2.350586174594271674e-02 -2.328024757838597844e-02 -3.484922551661399914e-02 2.953343427833922050e-02 5.429937838155331903e-02 -2.850237376247124338e-02 4.035938402578204479e-03 -2.295559606120586155e-02 -1.378233795867475457e-02 -3.382724225389790312e-03 1.584347057202847853e-02 8.274864625468228430e-02 3.851842283368923925e-02 1.764925131321476350e-03 -1.613197928427097163e-03 -3.638503509362046168e-02 -8.871604734867892528e-02 -2.302279823398680272e-02 -2.227951625514539014e-02
-1.081204395410156199e-02 1.725461876617990359e-02 2.462704719635173609e-02 -1.719323059469800991e-02 -6.476180246732597678e-03 7.507438474816008345e-02 6.197798845297038985e-03 -5.301671406627714300e-02 3.648161972790445184e-02 -2.779040706185357049e-02 -5.227924532398648544e-02 1.368931995202827059e-02 2.276033649660616498e-02 4.689553317149477291e-02 -3.192889385029246824e-02 -8.450319313675742038e-04 -8.302403557717144902e-03 1.388546179761871065e-02 -5.969547640471427156e-03 8.755372308477601950e-03 -2.865424341221649296e-02 -3.329617525076105852e-03 -6.053258587032029486e-03 -3.570668567045783698e-02 2.706701621014487996e-02 -4.331005797983213980e-03
5.665812656415832043e+08 -5.928399430586668253e+08 -4.859551584809350967e+08 7.767068179278844595e+07 2.195211625652929783e+09 3.189011672251076251e+07 7.690206665939875841e+08 -2.134687117900533915e+09 -1.532966653488483429e+08 7.615106702760633826e+07 4.591533264620188475e+08 9.449273969925165176e+08 8.423311040350739658e+07 -4.242391291762555242e+08 5.073651158644171357e+08 9.148936013666785955e+08 -2.882935131743273735e+08 -1.076626782221754074e+09 -3.251906467970463634e+08 -3.198603911251106262e+09 -1.073554875648847103e+09 3.946344574945334792e+08 -2.087689610480978191e+08 9.212114342424030304e+08 1.571174292249644995e+08 1.861995408655499935e+09
-3.286302878137575822e-02 -5.772034899921216766e-01 -3.951087837936611558e-01 -4.075546935536214499e-01 5.158231485337739786e-01 -5.843214061027088846e-01 -2.838085320185070315e-01 -4.920922133846822866e-01 1.235766614539215436e+00 -1.584163994207460568e+00 6.168012085763786567e-01 1.627042901454877066e+00 -1.332257823239275663e+00 -2.486899003422674559e-01 8.265032708741796297e-01 1.234048495169892457e+00 -5.617937269199092115e-02 -8.329675686749448138e-01 -1.774264707744471092e+00 -7.583605532454400500e-01 6.098871930267124597e-01 3.816296441303453912e-01 -6.140015410663963724e-01 3.080031167280669724e+00 -3.142485514551378312e-02 -1.222711796016015817e-01
-1.352853957492461401e-01 3.385442621557293447e-02 3.098097967153464610e-02 -2.290187079772190021e-02 2.940559777202277764e-02 -3.275928230793399148e-02 -2.962761021457321203e-02 -2.435644549745576148e-02 2.737956803638366687e-02 9.689859487041609099e-02 6.762519141010756019e-02 3.732167065101362445e-03 8.031162737545859132e-02 -3.151445483899918687e-02 3.024370169239819217e-02 -1.026046634214210392e-02 7.213279881668938076e-02 -3.537587618012036535e-03 -1.433345163979278525e-02 -6.552426775789636781e-02 -1.033594838613115241e-01 -2.702443545682341880e-02 -4.347090569313336039e-02 5.992404528677539727e-02 -1.052985299582513169e-02 2.199681255840642974e-02
-4.911993833965999645e-02 -1.063783227088615927e-03 8.238598816515417533e-03 -4.262207541827234616e-03 -2.727168950499452363e-02 -5.691273255314045071e-02 3.643610572774953586e-03 2.015490741626169841e-02 -7.330533559118290743e-02 -7.009704793544461326e-03 -7.941062183203088584e-03 3.293880744122270471e-02 6.046159918438320097e-02 4.566841629642011402e-02 -1.204558466805877130e-02 5.885905420450364064e-03 -1.868712781395411721e-02 1.121209219150430710e-02 -1.523297919825787085e-02 1.348454015464230216e-02 4.125208369369690042e-02 -4.077399864474753714e-03 -2.243635777312445734e-02 7.959752513971293797e-02 -1.632141834798121055e-02 -6.850764927092680041e-03
-3.170419839039779035e+05 -4.100816768454886624e+05 -2.214166796973618679e+06 3.040958533080943162e+05 2.367306197845233837e+05 7.959991692503611557e+04 6.964626426909785951e+05 3.507072330524730205e+03 3.487730474264621153e+05 3.727218372108450858e+05 9.604119124490899267e+05 -2.739953969269662630e+05 1.698368276842926862e+05 1.344182530439996044e+05 -5.235317511641628807e+05 -6.051465648836077889e+04 -7.206096216252876911e+05 -5.399011596810024639e+04 4.504839534497503191e+05 7.234932082724842476e+05 -4.079793575572303380e+05 -4.001860579327704909e+04 -1.268380142650123453e+05 -5.463311597735291580e+05 -2.349189774779300205e+05 1.449482970186861465e+06
2.730220234079941757e-02 -2.433912843916938816e-03 6.100952409091300530e-03 -2.155076545350798414e-02 2.632386273965749840e-02 -1.947254782537752998e-02 -3.736950623307022483e-03 -6.656893536993095661e-02 2.109581387534673058e-02 -2.604888471840345263e-02 8.277795111997677743e-03 8.293234961429163388e-02 -2.119719520672833785e-02 -5.280092500218017820e-02 -2.964471448458424682e-02 9.214322247978265143e-03 8.692648667783964278e-02 -1.062867384629778700e-02 -3.199944614249884689e-02 -3.010563690689725680e-02 2.152124356989347162e-02 2.294499257421171376e-02 -4.128485055153624517e-02 4.591174127485775358e-02 -2.083059324997485473e-03 1.004735864197555187e-03
-6.536083961254138947e+10 -6.843111287914457321e+09 -6.176776539852270508e+10 -1.497492703061070633e+10 -2.871051314747871399e+10 -4.732511649970224762e+10 -5.267700374771884918e+09 1.054548408395216827e+11 -3.565497434941629791e+10 8.673007301122312927e+10 1.176007250386965179e+11 4.450725010327738953e+10 -6.149675851016069031e+10 6.532300328807001114e+09 -2.629679039751995087e+10 -4.623745717000942230e+10 -1.160454235067046356e+11 2.985004711452189636e+10 -7.189945903976824951e+10 -4.568216599075664673e+11 -8.502252838752062798e+09 -4.626903371870661163e+10 1.354204803800817871e+11 1.040422047588347778e+11 -1.699166245216844177e+10 4.863275236673492432e+11
6.756177266838485698e-03 6.725493535160441058e-03 -7.831086444097731802e-02 5.702263384194341395e-02 2.695460667709685676e-02 -1.698699315808811436e-02 1.845166172000996946e-02 -1.809358025741664155e-02 1.924415554158860966e-02 1.336926985228140477e-02 7.309523242247957867e-03 -1.414188791187925669e-02 1.396354809698893001e-02 -1.874004629979916401e-03 9.765329432656018327e-03 -8.945610352226193718e-02 -6.375357842430470767e-03 1.237795011236473598e-02 1.215052971274538547e-02 2.871065938924383804e-02 3.945743952432201503e-03 7.182265804090393058e-02 1.257034700679670464e-02 -1.049690486814878337e-02 -5.182079801359073395e-02 -3.358379277652566441e-02
-3.421903373729056120e+07 1.202683449203342199e+07 -1.430586386952416897e+08 -1.372109525372822285e+08 1.715938302284199372e+07 -1.847252841763744131e+07 -1.206445619162203670e+08 3.334892431167172790e+08 4.726595187919921279e+08 -7.318656945968270302e+07 -2.150587808272299170e+08 -5.962081150573749542e+08 1.704625720494019687e+08 3.551754247589983940e+08 -4.341885181396645904e+08 4.734466224961420894e+07 1.984567329879444242e+08 1.480280307449669242e+08 8.022055624557571411e+08 -2.055127493079840839e+08 -9.552547298919720948e+07 4.594932596243955195e+07 1.954502360399370492e+08 -5.111451819375907183e+08 -3.014009367024486065e+08 8.742451305220957100e+07
-4.981259843848114251e+05 7.518054372968161479e+05 -1.847872178663499653e+05 -1.763786932672804920e+06 -1.651818757773930207e+06 -2.861215649294919567e+05 -1.710652961189616937e+06 5.963905225624884479e+05 -5.084225591703740065e+04 -6.963548197667637141e+05 6.444489560816382291e+05 4.603316373249609023e+04 -1.607200256744226499e+05 -2.016124021165734302e+04 9.328164757604488113e+04 -1.575637301814199658e+06 -1.025953578933459008e+06 2.345663443522694288e+05 -2.887287745396963437e+05 6.330655103867228143e+06 1.067676389685571892e+06 -1.164170150560705457e+06 8.032700071933297440e+05 5.011497047221750836e+05 8.863925259990605991e+04 -8.005496343814162537e+04
-4.227035147137258900e+05 -1.458663147351687076e+06 5.020387256779754534e+04 3.785419011487606913e+06 1.934046496418861672e+06 -2.826124320168589475e+05 3.637970366877575405e+06 1.652989237383427564e+06 -6.714131401361264288e+05 3.222012248513272498e+06 3.959031210534012062e+05 9.248479381512905238e+05 -9.929949639051981503e+05 1.090830358181406191e+05 -6.285266282885113033e+05 2.749695931223714724e+06 4.336560084607368917e+05 -2.693382613282643142e+05 -1.966239285835387418e+06 -2.253597912824175507e+07 -2.543958411050254479e+06 2.073570124519162811e+06 8.807009939590876456e+05 2.176078847749024164e+06 -3.786550005418125074e+05 8.124906679233513772e+06
1.240744649112587167e-02 -2.904932463395656743e-03 2.251975883269383139e-02 -1.187369654529442028e-02 1.343288001356452224e-02 2.512101694392666895e-02 2.641849274407439413e-03 3.033785896842245908e-02 -1.655739099995190075e-02 -1.214517153989246728e-02 -1.352104545807538208e-02 1.362847109797357681e-01 5.501710004969028595e-03 -3.162752622662796942e-02 -1.516127569564062749e-01 -1.377028441736138399e-02 3.861555015061269441e-02 6.575083175126804347e-02 -2.197936754730819842e-02 1.949044243538937751e-02 3.194412094243617023e-03 4.280452851433902244e-03 -1.966006299526988285e-02 2.484724762272972481e-02 -9.221298608064482094e-02 -1.656094718429442642e-02
1.717375367367829668e-03 1.229349521015749014e-03 7.214594143051101735e-03 2.432802567623962645e-02 1.227380229382667078e-03 3.967249261239207819e-02 -4.171628751778884078e-03 3.976786720055298929e-02 -1.585234525936254357e-01 2.505466250107385093e-02 -5.424465379296194989e-03 -1.285727039358557644e-01 2.406170871981776899e-02 -1.587490484103066049e-02 1.887015593107624623e-01 -2.269911403445878245e-02 -2.739439485777772632e-02 7.726660892782854367e-03 1.016375483496325879e-02 -5.432611790007688124e-03 2.739983821810139733e-02 -2.930771194047187417e-02 3.116299422553569717e-02 2.294499457307312001e-03 -2.879160134736579932e-02 -5.530173438677630886e-03
1.927848565248911281e-03 5.194405996561196441e-03 -7.305161474941684191e-03 2.466061652823037242e-02 -6.347439866867381555e-03 -2.260480398043789724e-02 1.250790132138186132e-03 2.686414452437366207e-02 -3.999387431179897423e-04 -1.285367382832567490e-02 -1.588303632779276831e-02 5.630729417924505709e-02 9.955026896016240523e-02 -1.885583566805247580e-02 5.152668895266145771e-02 -1.580565315608695870e-02 -2.836637567656797795e-02 -7.871128818498981938e-03 -1.834489392663038454e-02 8.025413422216335149e-03 -4.452659159902302988e-02 9.078202026224201906e-04 -5.433084852325152647e-02 -3.771355904150534843e-02 2.120107970598694713e-02 -6.207430538346865243e-03
4.706682269899517025e-03 -2.106914341428494514e-02 4.040367452956829530e-01 1.604362702426464365e-02 4.655528086641227969e-03 3.235937874138484615e-03 -9.554789108810260445e-03 -5.943285767426683373e-03 -3.807886895640467083e-03 4.160404878036556148e-02 1.750348838661046694e-02 5.743542481423262284e-03 -1.066348927713561476e-02 -3.944505220746311047e-04 -4.316361218549144563e-02 -1.559853719735495615e-02 -6.518338357459287080e-02 6.028047789582664795e-03 1.132851066136341886e-03 -1.514756322943650382e-02 2.751652068936488379e-02 -3.427139324028610767e-02 3.998551791416798951e-02 1.439894522191539732e-02 -5.797203080786303767e-03 -3.559967453868730924e-01
-1.030943671084115776e+00 -3.303763170871503174e-01 3.914685238077586504e-03 -5.713170322063330225e-02 -4.020526461041790123e-01 2.549169665778519889e+00 1.762956672637485123e-01 1.548031717429221299e+00 5.233409614245559283e+00 -1.835421647490773633e+00 -2.066645841220226210e+00 3.168367200836479936e-01 2.474260158663992293e+00 1.068970382962697308e+00 -4.474648964867777856e+00 -4.537899087809134646e-01 1.067499227333460754e-01 3.660800776338937190e-01 -1.868078847532131270e+00 -3.326635842553811173e-01 7.856686189376100860e-01 2.139181722470489544e-01 2.936407204942947935e+00 -1.101533886925972539e+00 -4.549075192821804947e+00 7.226496032307581086e-01
-6.440837804581802338e+06 -1.271483411736206617e+06 -3.554818141117135063e+06 -1.172072090136528248e+06 -1.138734873982916120e+06 -5.333964040993064642e+06 6.926312848548661917e+06 8.479887586551306769e+06 9.145498961688764393e+05 5.949670888934022514e+05 5.932754220700415317e+05 2.664256747450791299e+06 -3.526749878688073717e+06 3.589618996902216459e+05 -4.445700047899805009e+06 -2.278369357310806401e+06 -1.963369583353211638e+06 -5.489378235508225858e+06 5.928899727599069476e+06 -8.285844245829866268e+05 -1.223952559012458660e+05 -3.213727441221165005e+06 3.048015488583927974e+06 -4.548915793040839024e+06 1.537849598372023925e+07 4.414776907747570658e+05
-1.404168206703552690e-01 5.337717672919711775e-03 8.054194927640319357e-03 6.899561884032325010e-02 -3.086303229777201049e-02 2.984252539411859362e-02 -7.123195289990549850e-02 1.789008664171332086e-02 -5.188384507672252205e-02 5.739131735805672041e-02 8.005101860295077421e-02 -2.779113510642448534e-02 9.735526217500946322e-02 -3.108165692822893039e-02 6.272745100696017206e-02 -3.868925550683692538e-02 2.474097852584296320e-01 2.911823719244062414e-02 6.469468725266205866e-02 4.784464476700851093e-02 6.287735873440856993e-02 -4.606548335068105793e-02 -7.948897591210973834e-02 -7.907599670799923819e-02 -7.613705541119649214e-03 -2.753880458264866271e-01
1.355635474044258534e-02 1.885207397006229482e-02 -2.377178640588620620e-02 5.779917768016010898e-03 -1.642449441544273706e-02 -3.935041046176398355e-02 1.398209059696473369e-02 -4.341379436129027408e-02 -1.318952790881094527e-03 2.031327235414003701e-02 2.856156556778133293e-02 -4.392519899871945993e-02 4.247520206308490892e-02 -8.521468982783350285e-03 -6.842530581958509994e-02 -3.590890625698111606e-03 -2.030098706611510942e-02 1.628442063223352887e-01 -5.345559327448362597e-02 1.691340234957440861e-02 1.633864414547122126e-02 4.649502873283459237e-03 -1.871298840002604338e-04 4.623166460806228673e-02 -7.586782233742328518e-02 8.055938064853362598e-03
2.926147337650766758e-03 -3.832712426899996527e-03 2.587299729387893682e-02 -7.588581812466774906e-03 -1.783717787042162634e-02 -7.148290070629736287e-03 -2.697730037636032752e-02 4.888004271121531435e-02 4.256865470662332326e-05 -9.120753159981662139e-02 1.041247891240865836e-02 7.056134074004717649e-03 -1.563764539697671402e-02 -2.261457732152952552e-02 1.330858477097532008e-02 -1.744621019866861994e-02 1.780886046363007735e-01 -1.066467313804929547e-02 6.857593416927931784e-03 -1.792863726858637610e-02 -1.633910472473991404e-02 1.260408848601987652e-02 -4.581061071056907741e-02 -2.680506861067760010e-02 2.630691571405019066e-02 -4.518034481746881735e-03
-6.965738424207401636e+00 3.077385198044933645e+01 -2.347631232643141175e+01 1.144607883476980845e+02 -2.930786957437698561e+02 3.327198028410355057e+00 -1.007442284273412554e+02 -1.486952134882228052e+02 -4.401498532943515585e+01 -1.825356419998238167e+01 -5.154544729298253714e+01 4.577063025420082454e+01 -6.032815138920102527e+01 3.214056474567801303e-01 5.153214739276412359e+01 -2.081297314698323930e+01 1.189410834056374711e-01 -4.131176680125015821e+01 3.087166343185441519e+01 -7.056326845835263839e+01 -5.215520022118692367e+01 1.077229281735179995e+02 5.495908569505055539e+02 -4.746246519805210085e+01 2.694018447105612069e+01 1.797741468607897986e+01
6.844397471422426701e+08 -9.938545813925958872e+08 4.779608363257326484e+08 2.046568123869693518e+09 2.371171659034990311e+09 1.832563032936146855e+08 2.476235926185413361e+09 -1.232904736663957596e+09 -4.175578941185672283e+08 9.337609367124805450e+08 -3.295509657925115228e+08 1.269701155242105007e+09 -2.564554087007656395e+08 -3.401644934533241391e+08 2.491544339262782931e+08 2.510819336128917694e+09 6.079622739766337872e+08 -1.235447524811731577e+09 -8.686343054751875401e+08 -1.134495836309783173e+10 -2.026312665230554581e+09 1.772677695998416424e+09 -2.668535183854117393e+08 1.082045177245338202e+09 2.531615827825416327e+08 2.393779269292974472e+09
