1.533243126167958069e+10
4.008660689974996948e+10
-1.086393306145730548e+03
1.124379283612660828e+11
8.734156158994392395e+09
1.559280651625312153e-01
-2.829145552692090225e+10
3.567538624132737517e+07
1.438425279505572973e+00
5.512334564268104553e+10
-5.098385350435287400e+00
1.270441421895911545e+07
-1.028843071444138113e+00
9.786369166113201141e+09
1.237374808703658676e+10
7.409242968058555603e+10
-1.166211963146901855e+11
-9.239219109034614563e+09
-6.331914119185504150e+10
-7.911618469398391724e+10
-3.571571481785947108e+05
8.326431436763525009e+06
1.306584614161273766e+10
-1.828282200747205019e+08
-2.544293485186993053e-01
3.525144917401222992e+10
6.389138506549705751e+06
-1.047161648468086123e+07
-2.859396787277791595e+10
1.553409651038306206e+07
-2.139530565615903473e+10
-6.138348731881233215e+09
4.866121627422993469e+10
-8.891334156236686707e+09
-4.741374334563496399e+10
-9.210544106489568949e+06
1.051092939239059110e+00
-1.240096934092998352e+11
9.280890299778625488e+09
-3.221315459994010810e-01
1.015152348996512592e+08
-2.470613088085237503e+09
-1.693956108690046758e-01
8.927534631385147095e+10
-3.425868230192014030e-02
-8.251312122009687805e+10
-2.700995311023046686e+00
3.572096267518190765e+10
-4.560075670736338943e+05
4.737323477293197066e+07
1.768587220659014893e+10
3.529493263198406616e+00
-1.689168751930864528e+06
1.619683395574266052e+10
-3.932694105703083038e+09
1.330206432277538653e-01
5.764481900804550171e+10
6.696419254353290558e+09
-6.307596092888241577e+10
1.414771150255754218e+07
4.654569920202265680e+07
1.515518729470455401e+04
-4.045635918944343567e+10
-1.707381593381287158e+07
5.405662999143391848e+07
-5.533325848020613194e+05
-8.117914352436789870e+07
1.977613101171709595e+11
5.747898918342899677e-01
1.868764318901059723e+10
1.191551436974005432e+11
1.232399159489460754e+10
7.929843353052105713e+10
-1.711192811352055809e-01
4.026592303883066177e+09
-2.958028340065214783e+06
3.555841129705504608e+10
-2.422979144215724564e+10
-2.315692151899700165e+10
1.359207658398014307e+07
2.812729654962806702e+10
-1.657634357143123448e+07
1.693658817132666779e+10
-7.130138427560662842e+10
-3.851871411521691132e+10
-1.005477482703358650e+10
6.087845698080935669e+10
2.151732733061001587e+10
-2.577647135802270174e+08
1.066143720100726700e+10
8.436803742409520623e+01
-3.735775834815224457e+10
1.176195091998982239e+10
-4.917561294152620697e+10
-4.038839512717484283e+10
-1.102502502084128366e+00
-1.937513903554643147e+00
2.909916517054911804e+10
3.817373097013399936e+06
-1.571997377128628415e+00
5.368335533533761597e+10
8.629048004336807132e+07
1.422607183433188200e+08
-6.823848043880026788e+06
-8.739112226463952027e-03
5.554376997009934369e-01
-6.421308871761147678e+07
-3.542577652442699510e+00
-1.301457707147711515e+07
3.889126010145849133e-03
-1.431954159133863831e+10
6.141483681526148319e+07
6.198372310987974167e+09
3.026315448355329132e+10
-3.423529172408956711e-02
4.120650153406177521e+10
-1.784989783883818984e+07
1.212753577061331177e+10
-1.167428500552387543e+11
3.414475124670872092e+07
-7.601480438199424744e+10
-3.459859316842610951e+03
1.953743901574185202e+03
5.875589181147412109e+10
7.419570833075956726e+10
1.060946604474184875e+11
1.418113583437791370e+00
5.771182068177673763e-01
9.310130475658050537e+09
-1.238389572301069641e+10
2.865326984291598201e+05
1.605341402284121477e+00
-9.794028249984966278e+09
5.584634610063154250e+07
-2.409416441851812744e+10
-3.571521175237390137e+10
-3.051823412888075016e-01
3.782668913974356651e+07
5.748661936117792357e+04
-1.057638988057047272e+10
5.132152783611297607e+08
2.548879539505300999e+09
-5.444692429647503662e+10
4.538029337507443195e-02
-3.796413296200617981e+10
-3.580713516348009557e+07
1.801285886896388245e+10
-4.015189808695885468e+10
2.877607868179119873e+10
3.238264693882017136e+09
8.570362908429158852e+06
-4.272968571039344025e+10
-7.870065130364729309e+10
-1.129879682658130646e+10
7.580060517321000671e+10
2.375770732556780624e+10
-8.267894686789714050e+10
1.325105989874509893e-01
1.167319301014491882e+11
-3.965449844893111420e+10
3.505453571178165362e-01
-3.399866158899927139e+08
-1.419674028414511108e+11
5.521475062140091705e+10
-1.405821846042821884e+09
-5.360290889055319214e+10
1.374213597965034485e+11
-2.461886027054811711e+04
9.701929183796652589e-01
-1.440754557676580117e+00
4.077336190051449585e+10
-5.942086832183907926e+07
-1.491081791848666382e+10
-8.640285458487289429e+09
-6.451536936555488586e+10
-5.218421923900141907e+10
-2.495673959291075516e+10
-3.784743968500671387e+10
1.219967360222356720e+11
3.403994635382041931e+09
-1.237500884293213487e+07
-1.112076949601837158e+10
4.883591504910978699e+10
3.335429453828512192e+10
7.438737182948389649e+07
1.280408079839443214e-01
-8.442997241743037415e+10
-3.412685989274555206e+09
7.407528921040928971e-01
-1.186995534742748737e+07
-5.098476858261832595e+07
-3.249536185369070816e+10
-5.292889953967838287e+09
-1.825779838328202069e+07
7.725530411959703267e+07
-2.213011492927105725e+07
-6.311125130842090147e-01
2.770136929464028776e+07
8.963736354755873978e+07
-1.417050678973624611e+10
-3.757984848320437622e+10
-1.067155812700472772e+07
2.164764713144995767e+03
1.963153523770242259e+02
7.395654520113855600e+06
-1.157431288956405640e+09
-7.413021234101895243e+06
3.815662938874755859e+10
-2.922451159664599609e+10
-3.524240698321685028e+10
3.939722172900836182e+10
1.910309853402563930e+08
-3.182560788246000290e+09
-1.031375985720892944e+11
5.920742798355586827e+06
-2.696315522061365891e+10
-4.307443679848916626e+10
2.831645705712202421e-01
2.796794773733288050e+06
-1.212801821347371063e+11
-8.589607702309413910e+09
-6.219107157309490264e-01
-1.900377842664775848e+08
1.698001173483898926e+10
1.035208522496905061e+04
2.114091215029870074e+00
3.746316968874368047e-01
-1.302511771691056824e+10
1.362473808901627947e+00
4.899602182411183167e+10
8.208068345159906585e+02
3.529331212705285847e+07
1.315696354066794586e+10
2.944669473866330378e+00
6.540745948366198730e+10
-6.238900038351863623e+04
4.960291395549423218e+09
-1.118469311618690491e+10
-1.886321798929702759e+09
1.419132556050580529e+00
-7.658975901875226200e+07
2.938950965761254120e+10
-6.135360841038064450e+00
-4.747957836184857001e+02
3.149845651277315903e+10
-9.288940652206294239e+06
-1.095803956854847870e+11
-4.662689878480552673e+10
6.276563321977737427e+09
5.004989288031943512e+10
-7.973842153030662537e+09
-4.451923657896416262e+05
-1.604227006038824272e+10
3.845425489736139774e+07
-3.916211203039600372e+10
-1.186900747027691650e+10
-1.218238747379434062e+06
1.392547619593834229e+11
4.348852775282434082e+10
1.677170312108460999e+10
4.930093582214886475e+10
-8.522273290439993143e+07
3.994364631730391579e-01
-6.946432816238740087e+07
2.297868373671758652e+09
2.206406181487977505e+06
-8.584185283072985840e+10
1.271627943222949982e+09
4.087234185248455405e+07
-6.195010286342498660e+07
-4.609100959466064453e+09
6.771520084251234436e+10
4.414362847411146545e+10
1.322525629693190041e-01
-1.061728928588711707e+00
7.056963374003063965e+10
-5.693947173354787505e-01
-2.896072753715679932e+10
-3.394398151576300621e+09
-3.026852908191709965e+07
1.388180671714136505e+00
-5.416440998777236938e+10
1.085322241235871177e+00
-7.151835857803647220e+07
-1.634818626468657143e+07
7.456123885748003006e+09
-1.279634344231780243e+10
-2.520491460251658822e+00
1.423905511442792130e+10
8.862243706451446051e+05
5.820390703911856079e+10
4.445564555150988770e+10
1.197619713713243254e+05
3.712920337290830819e+00
3.347354123509406421e+00
1.434926653903769143e+07
6.747292971469012451e+10
8.805989254159362793e+09
-5.508361940373497134e+00
8.871665829873554993e+10
3.981838654252539023e+00
-3.732582671940752411e+10
5.781246493274382019e+10
-3.498370431728170013e+10
-1.849306432382481406e+06
-2.183534504979385376e+10
1.005141369555853866e+07
2.267521745277372702e+03
3.406036598447025554e+00
-5.342442818870109558e+09
-7.289049730501199341e+10
-2.891577915011082458e+10
-3.321671802884625244e+10
8.662974670270986999e-02
-1.333859824738288671e+07
-6.122249450091304258e+06
3.435967915704610758e+06
-5.047080260867872620e+10
-4.740072525647306442e+07
-1.176005835047957637e+00
-9.259587060281573486e+10
-4.617029479231148958e+07
-1.603155632745714975e+05
-1.409262534119649413e+00
1.141332749260044098e+11
1.086588992840390233e+00
7.163031418207117529e-01
-7.190132301108767700e+10
5.129883898040826416e+10
1.134466052685929593e+00
4.979351371495748901e+10
-3.576543357988220215e+10
-1.369551380743533331e-01
3.343739100624873489e+07
5.482048701264062851e-01
-2.698353206061617771e-01
7.696937417914848328e+09
6.327330291022247314e+09
-2.946758391942252638e+05
-1.591732460664860535e+11
6.235475411804071808e+10
-1.972047345611080971e+00
-2.084040253694491959e+10
-4.265223228184027100e+10
9.627224462855240703e+07
1.794998201686899567e+10
6.919756631766041721e+00
-1.113117844634016862e+00
-6.712184430236798338e-01
-5.457485564425363922e+10
4.591296109445900726e+10
-1.155247884446662664e+08
-3.557590470252404785e+10
7.844644353204521537e+07
2.204680853423312378e+10
-2.813098016082726804e-01
1.706094667909039688e+10
-2.948115098553773499e+10
3.205971913842584610e+09
-6.816247195988418534e+05
8.045067813015740967e+10
1.800853580852141976e+07
2.005346491883666992e+10
-2.684815637136294842e+08
-9.364711938344459981e+06
-1.038553944063789749e+10
1.346509006909769287e+11
-1.512955095034591675e+10
-3.860262328272812301e+05
1.863951465878579766e+06
7.941336598955200195e+09
-2.024199201204812622e+10
3.554834791187380981e+10
4.019648047938534524e+06
-7.678887150093472004e+07
-3.317621022383621216e+09
6.630142630825775146e+10
-9.404653557928967285e+10
3.735608654198329532e+03
-2.467283018636680603e+10
5.316927113948448181e+10
2.606107444077563286e+07
3.459461642292910311e-03
3.535472108624758911e+10
-9.659230772882061768e+10
5.793915321256733704e+10
2.948906497725371552e+10
-9.380785804643185425e+10
-4.836770091003118455e+07
-1.344624587369932098e+11
7.302424011998870850e+09
-1.031852566221371781e+01
-1.504795405142642403e+10
1.265363738614640808e+10
3.143461953926473999e+10
5.066885418358872961e-01
-4.676063027911727905e+09
-5.071877675103163910e+10
4.172627373934967041e+09
-1.391251207928264141e+07
