-1.238490607273005395e+01
1.291839352249281347e+01
-1.186919297546134544e+01
9.162258111976328223e+00
2.437368121981400293e+01
7.348292658162129953e+01
7.126852202821130788e+01
-1.413149691145146676e+02
1.619741722179162480e+01
-2.117002835917193337e+01
-1.438877133220360918e+02
5.427653503080911435e+00
-7.684251528394350217e+00
6.041246774507982309e-01
9.364966704185987112e+01
1.549602214480176166e+01
-1.850323579112091466e+01
-3.868560852510587011e+01
-4.000411741439215518e+01
2.665782024984045151e+01
-2.174444458480530251e+00
-2.857791327056919073e+00
7.389877165669599179e+00
-1.742065267882008328e+00
-5.266272998282815365e+00
2.116188081284535727e+00
-2.358776181574147301e+01
-3.465447270341249553e+00
-2.037891854803140745e+02
-1.253349907301139297e+02
-3.586756357051682187e+01
1.152473548925005753e+00
-3.617376618510684239e+01
2.212631436890894143e+00
-1.536239590153294010e+01
4.901061296635053566e+01
3.241296871991079342e+01
-7.822045450873886807e+01
-6.905215662635306728e+00
-2.446657068150507257e+02
1.154638573132325519e+01
-1.080312847345390992e+01
-3.867411415475779535e+01
-2.317365651931392279e+01
-3.370349400014490726e+01
-9.282947087038230904e+00
7.269467332391457148e+00
1.001211094079172526e+00
-9.094204635026631678e+00
-3.134071299124059351e+00
-7.555842072916211904e+00
-1.119295638896528367e+01
2.396387320368992846e+01
-9.747286980789125366e+00
5.797736301200400177e+00
6.563912909734510137e+00
-7.046311611737458236e+00
-3.472702270393797619e+01
-8.295511661285601690e+00
-4.777743424288320995e+01
4.571448959347323182e+01
1.030636018430566310e+02
-2.222847310447718883e+00
-6.716149414717753174e+00
1.962976947097424940e+01
1.391218229439107290e+01
-1.218086410425538446e+01
1.261377245189763414e+02
1.172935543034776629e+01
9.732962298044171234e+01
-1.401783746880872172e+01
-5.884654006818297489e+01
-3.408951478048876993e+00
6.489992583753743816e+01
1.233616899191665084e+01
-1.790613058994504172e+02
-3.531659465931221487e+00
4.280658046842148678e+00
5.539969402732083381e+01
-2.878932134066129152e+02
-4.895682561714202130e+00
-7.479101347625970675e+00
5.315227824562063574e+01
-8.936072990251111037e+01
-1.613962688551546343e+00
2.315679908149607513e+01
-2.348457899199635790e+01
9.442566497867393593e+01
8.297560603335700335e+00
5.527150283703680600e+01
-2.371044626946308398e+01
-4.968184853022055592e+00
-6.717386866847823512e+01
3.106002288980293713e+01
7.150381043319168839e+01
3.073997678189364535e+00
2.395214527676936545e+00
-5.846557783570489164e+01
-5.173072777529316113e+01
6.074223136344858176e+01
1.946024886702282686e+01
3.519363579446527979e+01
-1.476070283134963006e+02
-1.332804949182838641e+02
1.508622011882012259e+01
-1.337248526667435158e+02
1.743919754269984690e+00
4.095441261063722038e+01
9.137142305901306827e+00
-3.155986336525975489e+00
1.073970974886564811e+01
-2.539684384339415146e+01
-3.530045525727774702e+01
1.600628924120490240e+02
-1.750058701800557870e+01
2.337556022308554304e+02
-2.417178304658748544e+01
-2.240707621533742699e+00
-2.225358795910949539e+00
-4.816210623707313232e-01
-2.964368876277370290e+01
2.642627912644664434e+01
-8.789209155606414470e+00
1.587282213031851370e+02
-6.793981942040076660e+01
1.266831362634584401e+00
-8.976863748177501634e+01
5.753230033575724178e+01
9.701697059111344856e+01
1.239970912134483516e+00
-2.211243513988112852e+01
1.587889792648060734e+02
-1.619247970594162922e+01
-7.343742818830321539e+01
-1.977318006207582357e+00
1.670795489838492998e+01
6.657667170310571692e+01
1.260909288498847758e+01
-4.079388826926644285e-02
-5.605901535174655947e+01
9.680476704215053019e+00
2.214073325194353181e+00
-6.213681099147068920e+01
1.147630101505439768e+02
-2.970581922148412879e+00
-2.057450367778153932e+01
-4.290537758018188264e+00
-5.001624317945100984e+01
-6.779792953128647159e-01
1.186238777221856644e+01
1.476733991934798667e+02
-1.835131749092404618e+00
1.063537864345953210e+01
-1.520017278208044331e+00
9.114203525309102361e+01
7.760436935039652440e+01
-1.003706640654380422e+00
-1.793224974539041483e+01
9.304392339705560744e+01
-1.249311352589636215e+01
6.173652784672725602e+00
-5.882373938988553164e+01
1.086130565678536541e+01
-2.199782061666729760e+01
7.863981187494637481e+00
5.951537049784585065e+01
-1.364765904573559681e+02
-1.634510414075379572e+02
-2.283675457493400174e+00
-1.098490330587344488e+01
-2.216312909341680779e+02
5.374778254369772412e+00
9.324680831007148285e-01
-3.266182567141331106e+01
7.072431976281504262e+01
5.448230491302911105e+01
9.199691078049454518e-01
4.212081105594123187e+01
7.149391914711685558e+01
7.640936493079151148e+01
5.028284934103388792e+01
5.386250278888812204e+01
6.290176361237158176e+00
-6.482045799226067118e+01
-1.381579795212380191e+01
-5.130856816550475941e+01
-4.728552530784828889e+01
-2.144996335261380338e+00
8.774163891836749940e+00
-4.286430260972258566e+01
-2.277237857402738541e-01
-7.237361910004231902e-01
1.379768331660484648e+01
3.078145050260658877e-01
3.008228146818683335e+00
-1.161214866318857730e+00
3.186449722115236938e+01
-2.561667838048265367e+00
8.530082522477138696e+01
1.453397593134490080e+02
-1.202372114707831408e+01
4.254046491294687371e-01
8.177082847298237311e+00
6.259403000297028896e+00
1.023399645689040227e+02
1.851783929936175923e+02
3.997332660542253890e+00
-2.410122592631731919e+01
-2.637804728856706582e+00
-9.223971275075908416e-01
-1.015757717747879774e+01
-8.149755304420585844e+01
6.265964105200350787e+01
-3.272177824282253482e+02
1.218587172678338106e+02
5.892818803834344976e+01
-2.324693914908949921e+01
-1.161478040389743427e+01
8.691165638960801232e+01
1.094064737597391712e+01
-4.199112677832271601e+00
1.283367931326547193e+02
8.962946746170214851e+01
-2.431918888447125937e+01
-2.968485447156155033e+01
-2.837732891319432849e+00
-1.161753230866219724e+02
8.149675662685703514e+01
-1.317365039813083172e+01
-1.003621853889924580e+02
-1.903529519118248459e+01
-6.900252252420735033e+00
1.660116248746987822e+01
1.312716695779251097e+01
-1.249750718854383535e+01
2.649571133640507892e+00
-1.861067298246759094e+00
-5.340536109914089735e+01
5.124082725984978381e+00
-6.439801368513826674e+01
-1.998756313716314708e+02
7.713299055009534833e+00
3.017696996101659579e+01
3.604476826083538299e+01
-1.292641469839292512e+00
6.005693631510646924e+01
9.635498806894148061e+00
2.484168290544178603e+01
-1.732110643112593884e+00
-1.070575779935512228e+00
-7.127727948350450049e+01
2.348096310912346496e+00
1.364987290750865441e+02
-1.175531149298714695e+01
1.208269590871078947e+01
1.307193698585147246e+01
-8.717608828027604062e+00
-1.821414470389411289e+00
-3.372345638471097118e+01
8.489837105219145030e+00
8.327209979721372335e+00
1.316065386698294901e+02
-2.300009955738753575e+01
-4.796345241027850648e+00
1.428156143249919729e+01
1.271008899155318517e+02
-5.622760801542234788e+01
-2.227679022372279150e+01
-1.781452560383959849e+01
-7.399007247572169099e+00
1.520911764518743325e+01
-4.751918790426240946e+01
-9.970726846715121994e+00
-8.021078903312343300e+00
9.129399538096222955e+00
2.700266890215108617e+01
-3.222780010162520625e+01
-8.612719839577725622e+01
3.466857723181394846e+01
4.909108891730699042e+01
6.980605317769733631e+01
4.648896030306186589e-01
6.638505088103755725e+01
-2.024004181701391758e+01
-5.932851581476541014e+00
-8.822458270536037617e+01
2.768778417116719481e+01
-6.778993533747296851e+00
9.298176548451121448e+01
2.751293895532629108e+01
-3.256991305798337777e+01
-5.181457332800695070e+01
9.217945141795642883e+01
2.034376364562648032e+00
1.793164894906212226e+01
9.642569585458709014e+00
-2.624861762079450100e-01
-9.299762393717394104e+00
-7.281354749573051777e+01
1.536712165299555579e+02
