-5.132929999667158460e-01
-4.756860331425660782e-02
1.824659366031481933e-01
-7.742007746755709130e-01
1.396582904073486731e-01
-5.654223916208107603e-01
1.109183497242593575e+00
-7.774980453083182863e-02
8.801816782759077640e-01
-3.938437348685693007e-02
-3.141729101296573679e-01
1.140543548497009174e-01
-2.923034528430670242e-01
8.032615545822187342e-02
2.666974323217369269e-02
2.260781705254402141e-01
7.877433746166384587e-01
3.817636687289491237e-01
-6.883843372822268103e-02
-1.455633403490335376e-01
-7.220300040007061604e-01
6.817476836792857320e-02
-8.483248569317671794e-01
1.255989980889054836e-01
2.168643236025977750e-01
6.450970009449463749e-02
-4.989855300231730295e-01
7.888769761815619397e-01
5.372690122023415782e-02
3.333598400973739606e-01
-1.371213339807325626e-01
7.102116718162937437e-01
5.034537473280289444e-01
-9.084875815861254145e-02
7.818776700551914871e-01
-5.355336033104849403e-01
-2.581445481965518041e-01
-2.393123355218416681e-01
-1.309145016010839213e-01
4.815333454609149744e-01
4.917799382212695303e-01
4.358575242605529088e-01
-1.290032629254752039e-01
-4.160467103419999146e-01
1.292472358944730670e-01
8.469119604593888795e-01
-6.543522296783903514e-01
4.502308440718710836e-01
1.229116526574154933e-01
1.110725211226719189e+00
-3.755496531307171426e-01
5.972908776348499760e-02
2.418630045890264035e-01
3.574675691260146282e-01
3.532969960783940433e-01
-1.010992028605701698e-01
-9.125786839759925106e-02
-1.671929055472284320e-01
7.160788004802403073e-01
-4.936028502493255421e-01
1.056044253181991355e-01
-1.138705728838401710e-02
6.689333613208044982e-01
-3.094322497468916522e-01
5.124354549504939182e-02
7.246964785120280084e-01
1.206523430934191010e-01
-9.272069159749485312e-02
-3.457455298943333255e-01
2.417063025301819934e+00
-1.067174350487688217e-01
4.551846227896285124e-01
-1.338906223971087162e+00
2.987224332201234706e-02
-1.082895321107182340e-01
2.968225188724049612e-01
-2.860709541258611432e-01
-3.609336839045051426e-01
-2.746032525257796619e-01
3.407383506108592197e-01
-2.523411129664011598e-01
3.751910279992279884e-01
-8.815782691058753062e-02
2.219127133216352021e-01
2.352394062564979738e-01
6.470927837445891173e-01
3.344003661373887160e-01
-1.880064153580218445e-01
-2.401469310909956079e-01
4.558520221251672888e-01
-8.188674940326592933e-02
5.121291676352962563e-01
2.122779073413605389e-02
-4.007276995070530035e-04
-8.204983459196840689e-02
8.248678697808944915e-02
-7.302747539977716418e-02
1.451501657108895393e-01
-2.096032680314272589e-01
-6.202485940763624583e-01
7.976652590531141396e-01
-2.487691852394753877e-01
2.717348912166312469e-01
5.965026723296229516e-02
-1.331944320494108935e-01
1.096539631114150093e-01
2.867700022701853979e-01
-6.560762661840416898e-01
-1.909293092702422645e-01
-2.007607732091936104e-01
-3.328876566177974006e-01
-1.095070980973421593e+00
1.810673588368043319e-02
1.222222600277556248e+00
-1.488171483164883790e+00
4.030864339899163373e-01
-6.788017871356621935e-02
-2.094436736300844537e-01
-6.386532361182155615e-01
8.573693503655610559e-03
-6.500351486218484964e-02
-4.106129180526398859e-01
-1.239657068837572429e-01
-2.873790613350279410e-01
6.744373623740544943e-01
-1.145835643329625730e-01
1.890771001681982588e-01
9.329194119461976520e-01
1.720090259384012277e-01
-1.005710359106377183e+00
1.934906965979467930e-01
-5.274612245007059830e-01
3.016809427718993852e-01
-1.565253283918887073e-01
-1.485551794954538818e-01
-1.412962749323947165e-01
1.394866189649980992e+00
1.725136285256667068e-01
5.485580621944636803e-01
-9.597443176284027599e-02
-4.272569511157614519e-02
-1.572789142637546211e-01
2.371815109729311644e-01
3.802662856790315349e-01
2.438839021335353074e-01
1.087113499035656350e+00
3.666198961306867399e-01
1.111191345415648707e-01
-1.451959315871894640e-01
8.810377698885631104e-02
-2.158030913172047649e-01
1.479072867599151575e-02
-1.537762855049634725e-01
-3.403344531707597209e-03
1.675022375204037739e-01
1.651860817633927503e-01
2.089785264048596991e-01
2.102878526430951300e-01
2.612677866327126619e-01
9.410610982052369788e-02
1.644322209037280547e-01
-3.594072431434234272e-01
-3.498931928777249123e-01
-3.320651496740217312e-01
-9.109674378021958008e-01
3.772677472951882494e-02
5.793162086646708175e-02
-4.138869730503855759e-01
6.102822823215294790e-01
-1.564698106571853486e-01
9.125748282445982074e-02
-5.505944092663014322e-01
1.552404416706382184e-01
-1.352032819581367729e-01
-5.704241044653577397e-01
3.197814911942288285e-01
6.203470637796633380e-02
3.105076626252313843e-01
-5.167804525780014813e-03
-6.918933254924208853e-02
1.276358122355879532e-01
-1.137276784244579397e-01
3.360245602489226879e-01
-3.270038664561041863e-01
2.110854272683218846e-01
5.648615751223511061e-02
9.703781210231240961e-02
-2.295692984453051588e-01
1.944891739547641718e-01
-1.302705979868659103e-01
-5.970767783168681175e-01
4.112316262168502767e-01
3.272577528171413674e-02
-8.819507380494132076e-02
2.465712365352491497e-01
4.775902711471624595e-02
2.002959073326593398e-01
3.589604273026159031e-02
3.196105505327673235e-02
-3.348739672635137055e-02
-3.087145198271457613e-01
2.260987882112351077e-01
-3.445861636901185188e-01
3.417613590237497112e-01
-2.410687033830011261e-02
-1.210149032819351628e-01
-7.057423762651199306e-01
-4.922360556730120962e-03
-2.358240490847477444e-01
9.709918349579731434e-01
4.746608904402989104e-01
4.239596420993013703e-01
-2.878729762549793736e-01
-3.206933096071807876e-01
1.276942718840891888e-01
-3.566691043300181940e-01
-4.066641864615463398e-01
5.996574845968482004e-01
6.118256479972928874e-01
-8.565338225658702953e-02
-2.781280840072972715e-01
8.071999476059918410e-02
5.674968932959539858e-01
-2.685854125498121636e-02
1.274188513600660322e-01
-2.469947833571594087e-01
-1.512087189638063212e+00
-1.789752837534568097e-01
1.871241383389763424e-01
-1.719800900685648226e-01
-2.352211482383903818e-01
1.557723682563641465e-01
7.603896917293351265e-02
-4.644992043882987809e-01
-1.178741008186148909e+00
2.254800228275765650e-01
1.127986648013126203e-01
-4.532678402257588335e-01
-3.795798366838104565e-03
9.033943071582661855e-01
7.609207071315542414e-01
-7.974851190960426106e-02
-1.473722464505777818e-01
3.171094105577664246e-01
2.515083714402994719e-01
8.350714024762179166e-01
-8.760125520802122812e-02
-4.418069840640989066e-01
-2.223035568790304728e-01
-2.037191584330446670e-01
-3.028494095360251270e-02
8.599407275985179733e-02
2.480054795868201142e-02
2.374627981597024137e-02
3.827621446004596528e-01
3.106285389843648770e-01
-4.027672853213573601e-01
-5.294570110739280633e-01
5.351066724296044824e-02
-1.932186515208686450e-01
6.151903782037870805e-01
-5.110284435317036245e-01
-5.118974307839987414e-01
-4.366443322685861217e-01
-5.108177495389077949e-01
1.910110429317920522e-01
-1.714199778838728094e-01
-2.366345774514785616e-01
-1.798701302784935785e-01
-1.250337451287173440e+00
6.654555638548276253e-01
-2.309046704606889655e-01
7.610759607709594032e-02
4.974482291783848265e-01
3.319305350634782492e-01
-1.582112646653860699e-01
-4.819957348154437771e-01
-1.962982630500663128e-01
-1.064424933790345973e+00
-2.992395356201378309e-01
1.760166196389658932e-01
-3.129116715425092621e-01
-5.910516918240844575e-01
-5.612955572810188754e-01
9.709531868717180547e-02
-2.491021100138214595e-01
2.929373353375110123e-02
-6.312314766630411356e-03
8.905528416857223795e-02
1.001567589999953212e-01
-9.921756966953934054e-01
8.593537906725744191e-02
2.462567351500019874e-01
1.712395445181578824e+00
-8.118819199795225261e-01
2.203942845040036680e-01
-1.761084873142637064e-01
3.129273996529939317e-01
2.705134763064704906e-01
1.778787227221012568e-01
