-8.630606933818353271e+10
-2.005203880771764526e+11
-3.574762467419883478e+02
-1.279540446187349854e+11
2.115197762208342436e+00
3.289818487021255493e+10
2.242227538638797313e+00
8.824936854334397316e+08
-4.016485013161082153e+11
8.116141983487945557e+09
1.087107192630335999e+11
-5.416621128084049988e+10
-1.649012526281310425e+11
3.528567148028612932e-01
-7.167257786304186583e+08
-2.480320107684140015e+10
-1.400767687503615112e+11
-1.499642025660217285e+11
-2.092410919415461426e+11
-6.037892951152936555e+06
-2.959579511222573242e+11
-1.390792393301163940e+11
7.326455897885489464e+07
-1.892251138901871338e+11
3.336421950142293724e+01
-1.840922732548703918e+11
-1.599146097822226562e+11
-2.361261403680443891e+02
-1.212458719517669983e+11
3.316024088898509216e+10
1.133869843313580077e+02
-1.558036545402885914e+09
2.426597133654427528e+09
-5.168311261008248329e+08
-8.593446215579051208e+10
7.220148309258308411e+09
4.316649489908905029e+11
6.147888207254947662e+10
-8.626201589039541595e-01
3.698345903154159546e+10
-1.578091912530230623e-01
-8.519085791631655979e+01
-1.263597260637303467e+11
6.210631813779182434e+08
8.631308546404865265e+09
-3.086761595417389181e+06
-5.060035062159395599e+10
-3.571062739973571014e+10
-1.507995696732772473e+01
2.878459046430419922e+10
1.878848253637581482e+11
-2.238464400718266964e+09
6.198889662852887809e+07
-6.124042631966214685e+03
-9.097868059694061279e+09
2.892270322515417099e+10
-3.796516058694849396e+10
1.444087165954055786e+09
-3.156333952241112590e+08
9.859479682518417358e+10
4.542351437862635066e+01
8.087984344150947891e+02
-2.406528870116698742e+07
6.479619174853364563e+10
-2.059795630367904663e+09
7.063469081520534765e-02
-1.030599442759991169e+09
1.157420401328789062e+11
-8.496354038598825073e+10
-2.170508137575246792e+02
1.840434258018903351e+10
4.452536958233394027e+08
-6.195112053157352448e+10
9.016913747571524048e+10
2.656803766618787384e+10
2.346045978128274090e+00
3.307287343665007429e-01
5.481778632200039283e+04
1.857043451432122803e+10
-6.333601947456889153e+08
-4.396747280427862549e+10
1.678210406776587296e+10
1.090178465656335068e+10
1.445656601537952271e+11
8.305785599206475830e+10
1.517264783169086456e+10
5.463194815266781807e+09
-1.893283417785602570e+09
4.010748347413792270e-02
5.690764510172321433e-01
2.498516951703903961e+10
7.234148171427353446e+00
-3.758101803748962402e+09
6.712452860204010108e-01
9.158237836325433534e-01
-9.994005845524279785e+10
-8.119757983527043166e+01
-4.674527302442131042e+09
1.413133402633374391e+00
9.350392051515523344e+05
2.705898030150303841e+08
-4.736122269054214478e+09
2.432824748294864502e+11
2.794302205739918900e+10
-1.256910201093848434e+00
-1.422289360687277317e+08
1.361815354767743835e+11
4.409658580126197815e+10
8.661215632077697754e+09
1.585037226182386745e+06
-9.565004878273519751e-02
4.833097299859877014e+10
8.399627106391938103e-01
-3.190677924245139956e+08
1.734018940409272602e+02
-1.243807676531133881e+11
4.457675118098224630e+03
-8.645683521144790649e+08
-3.888484409276567078e+10
5.169776286695057869e+09
-5.211337766049573517e+10
-1.183888083644509888e+10
7.475199390762644958e+10
-1.288337552241164970e+10
-9.893473026421975708e+10
1.861393141464383850e+11
-2.233048160744959318e+02
8.303806043357553482e+09
8.235044864844594002e+08
1.870467652813889714e+00
-2.163179463607714844e+10
-6.095941602806360626e+10
6.020028788566792011e+08
-3.368194989784648132e+10
-1.058213113491296396e+07
2.391950599606349182e+10
-7.785899989508750916e+10
3.562389361100519636e+03
-1.104370769444042683e+09
-1.825097350791704712e+11
8.547600255957086182e+10
3.525037311782115936e+10
4.400529214229259491e+09
1.099133896531878651e-03
-1.589471195358078957e+10
-5.840801338688967228e+08
-1.421541824636989594e+09
2.455146371282579803e+10
-5.585827370880187988e+09
2.329816870731379395e+11
8.232471990304561615e+09
1.103724885871140149e+00
2.083705147455430603e+10
5.382681421754497290e+07
-1.147543068266488699e+05
2.320953512746163368e+09
-1.612341776470815530e+06
-3.877147599563894653e+10
1.488481899805086670e+11
-1.578838085634608984e+09
-5.609331558488526154e+10
3.584203946225117493e+10
3.133277104455307388e+10
3.837339662574221961e+02
6.303304066883982841e+02
2.880496439115922546e+10
-4.065147779735418037e+06
-8.298521222172561646e+10
-3.405349463102847096e+01
2.871960060774137497e+09
3.437872018855699921e+10
-8.231146835975457191e+09
6.921785090933973694e+10
1.983087448410871029e+08
-8.038676889377873230e+10
-2.150316119583145142e+10
5.951034724947605881e-01
2.205105373311342163e+11
3.490492875512917328e+10
4.803108661055423617e+08
1.137680341211448822e+11
1.391056940675194263e+08
5.155676011836958313e+10
-1.737665236325700684e+11
3.475127089494788324e-01
-1.630647972317200470e+10
2.005551375484505615e+11
1.002754268723836503e+03
1.187662798833815714e+02
-1.147354529327782393e+08
5.352677923982802355e+01
-7.354563339363427162e+08
-1.498545365019744668e+00
-1.431641085052044460e-01
-1.062645594575191498e+10
2.537505144004338455e+10
1.315816536253633022e+09
-6.905963693632077849e-01
3.100331372959309082e+11
7.278230328944497174e-01
9.015667182147182757e+03
-4.624758922136878967e+09
2.178918278031784575e+05
1.098604975111198883e+03
-2.657660570548278542e+02
-8.135670879992771149e+09
-4.640299790423570251e+10
-1.740196177714793402e-01
-3.191465694134268165e+08
4.626173670856418610e+09
-1.115777077931261902e+11
-2.058159245051415787e-01
5.513639431844688952e+05
3.180871391053058624e+10
6.451614483734878540e+10
1.096655364174932098e+10
1.235475063481708730e+03
1.782584316294744015e+09
-1.799813440840160751e+10
-1.068944430787658844e+11
3.007417437787112817e+02
-4.366337775377764893e+10
2.929903192786492920e+10
-7.704747145599055481e+10
5.458991042253279686e+07
-2.177819477516333008e+11
-1.307307350048902750e+09
-5.048871559736185510e-01
-1.460104820081684113e+10
-5.145813058596494794e+07
-3.202241448264863948e+02
-3.048630809646250534e+10
1.973099139589175720e+11
-3.956890837880844281e-02
-4.676722831583874512e+10
-1.221698052143380127e+11
1.525047553463824158e+11
1.332784924563789978e+11
3.997336824879051953e-01
6.167305176674013519e+10
-3.961600219278620148e+10
1.194793030158101845e+10
1.031089200724066198e+08
5.076124543517966270e+09
-1.761160222214698479e+02
4.913315408607524581e+00
-1.361633634491948852e+00
-5.928919487707961082e+09
-5.317935107566199804e+00
-8.805448997373611450e+09
-7.531145398050750894e-02
-1.171967118249080811e+11
-1.276751621634412003e+10
-3.038024940319123535e+11
7.430210083979673641e+01
5.742880797291438633e-02
-3.610583726106193048e+00
1.848150391755802155e+10
4.511999755310249748e+04
7.065256131054562378e+10
-2.306288147334685516e+10
-6.555359362127616882e+09
-5.102655216516603827e+08
-1.435338747465535469e-01
-9.950861006699054718e+09
4.647388841715626526e+10
4.329165918432723999e+10
-6.205772688194954768e+06
-1.746515104478282154e+01
-1.142767183627074718e+09
7.148239848958663940e+10
-1.482305407364584653e+02
2.024185678795734048e+07
5.909627999729846191e+10
-3.399430946353258057e+11
-1.822477896076962338e+02
-6.780138988787493896e+10
4.884676466507838440e+10
1.713599691886817169e+10
4.582790614666849518e+10
-1.350002140896162109e+11
-5.482547973452936172e+09
-1.839169883589332644e+00
-3.931952291498094177e+10
-6.936737992976412964e+10
4.054514584071235657e+08
-2.976372255191070175e+10
-2.298639932334764099e+10
5.293647549154200745e+10
-1.492936293646322156e+04
6.437254368401825428e+07
8.647746428974179077e+10
-1.184155914557000642e+03
1.848472008183583069e+10
9.985255729088756561e+09
3.365914962751065674e+11
1.218064930838556366e+11
-3.124711345662768555e+10
1.722370027963049710e+06
-4.604729783592407227e+09
1.683600085521330261e+10
9.328907010186642456e+10
6.337191223786281586e+09
-3.718572896023056851e-01
9.501375219412917517e-01
-1.182329290804137401e+00
3.100996495982286987e+11
1.431381403470816849e+03
5.840850699540607452e+10
-9.853014672697988892e+10
3.421294456036048889e+10
5.430424583738937378e+08
6.131335113760158606e+01
-1.447890043018585682e+09
3.341181794758699799e+10
-2.063327013636673279e+11
-3.035040454360942022e+02
1.377452443265658264e+11
-5.787436072831715350e-01
1.550796235999051514e+11
3.195976710738623047e+10
6.533846755534054565e+10
2.106591988152764893e+10
2.338162364355122671e+06
3.119064057018104792e+08
4.717736698546014404e+10
-1.497255444379614258e+10
2.683866603533608913e+09
2.197677288275484697e-01
-5.487853592722465515e+10
3.381003961794227600e+09
-1.041869739488895035e+10
-2.736011557734645903e+05
-1.297467339071851196e+11
-1.156046646852321625e+09
-4.607454558048064232e+09
1.043512558171907663e+09
4.977780841127441406e+09
-1.839832863820583864e+00
7.140837317359231567e+10
5.778249647536690521e+10
-1.191692922135556117e+06
4.796671956901296997e+10
4.496869257500076294e+07
-1.599310390027157247e+01
3.799076474585296523e+02
2.228507806414957275e+11
7.926249140147576904e+10
5.111486327317981720e+10
-6.099304798556592315e+06
-1.064490107027015305e+10
2.023076732233142946e+06
-6.624020342389364243e+08
3.318144134906372070e+10
-2.331022358333988450e+03
-8.778730569844558431e+02
-8.794393949746669437e-01
-2.336306127275375184e+06
1.806382096388154602e+11
-4.994029566281008911e+10
-2.201070738709587402e+11
5.795866164719254303e+10
-3.044713821058078003e+10
1.557360817506269424e+00
6.301224767701918793e+10
1.852274276760276734e+02
1.814442962557295227e+10
6.931424322148266981e+00
-4.826078460829745483e+10
-1.686912206672856140e+11
-9.998058877472093105e+08
2.350780316141635851e+00
-1.643990403257643127e+11
-6.636698706692472100e+06
-2.414456023042890015e+11
-4.996257957281575203e+09
-1.316423469208484329e+07
7.500217588448704529e+10
-6.691863093438108826e+10
-1.499076788613875732e+11
4.368428711245139313e+10
-6.478464948858581707e+00
-7.650258615958154707e+00
4.179572859167753906e+11
-3.548491769025023651e+10
-4.326627592128812694e+02
-3.628965436055220795e+10
-9.547545997961718750e+10
3.032799717509823978e+01
-2.281756659569891266e-01
-2.074586517103137207e+10
-1.376584282546091461e+10
-3.401144243947906113e+10
6.456755534343957548e-01
-2.821651232555327606e+10
1.299032904624051094e+10
2.079878478090147400e+10
-1.575747915041775116e+01
1.347802373555147095e+11
-2.091091659670660974e+01
