2.027808139999052628e+00
5.014755865220378972e+00
1.037986210201215398e+00
-4.520733996515579056e-01
-1.578404937907353478e+00
1.861547298193023003e+00
-1.192874475909023735e+00
-5.200048697841190837e-01
-7.086067000400255722e-01
4.506754889112954743e+00
9.408244041918534251e-02
2.935669956307010331e+00
2.144806645631122777e+00
-1.646112063904123790e-01
5.285411259821714225e+00
-4.226488875708062309e+00
-6.925711083428987891e+00
6.863254938413247963e-01
-1.061447156696115002e+00
-3.487035492053163210e+00
5.978929052245069986e-01
2.511007865419487395e+00
3.403860644631057752e+00
-2.858226225433639023e+00
1.241579233709765973e+00
5.254700498669574449e-01
6.522170924198678055e-01
2.473615391692383980e+00
4.004875939323307987e-01
1.957255970435816117e+00
3.799151981758363661e+00
-4.430863703381322516e-01
-5.578956540941710784e-01
8.377737734054877539e-01
-3.034923588054454502e+00
-2.250100250983891215e+00
-3.816961300755647990e-01
-2.359544088285278285e+00
2.149472854197682636e-01
-5.091577182504773980e+00
7.764699472818410442e-01
-4.743571440455299992e+00
-1.505591048994301184e+00
8.509560050916155083e-01
6.661022818279124236e-01
-1.621107532910196269e+00
2.826822920324826072e+00
-2.395660188163585502e+00
-4.059316807432691299e-01
2.091333847459538653e+00
-1.618322404956946126e-01
1.826108940112117107e+00
-2.773677975867510526e+00
-4.557301799446067392e-01
-2.983622832401019220e+00
-3.858181584769013739e-01
4.204406112973098075e+00
6.620441446017659715e+00
1.469712562445418591e+00
-9.681833018023802140e-01
9.051670171350938432e-01
1.723151646436904549e+00
8.964695973525613759e-01
5.311132634632970140e-01
7.508626070661000851e-01
-8.978447373129103681e-01
1.091601194350370951e+00
8.031828130785196862e-01
-3.467049661969995977e+00
-6.527283424316632221e-02
2.473242307656239536e+00
6.984626859521874120e-01
4.152206300044829490e-01
-4.119396906453763663e+00
2.177258548605609079e+00
6.078875786714208473e-01
-2.184120140843773150e+00
-3.104744973212299475e-01
6.302631118106885033e-01
9.419007924337883253e-01
2.097877183280333568e+00
2.500727735459467915e+00
5.737910498871230391e-01
-4.466957920851573505e+00
-3.973787353317534965e-01
-2.209922392898751031e+00
-2.485470556981881796e+00
-3.909554650781269736e+00
-3.603800239075738432e-02
1.609577013006086688e+00
-5.503385555362705350e-02
4.262679528874784296e-01
-6.951745033775833527e-01
-4.191204548606367597e-01
5.341770931366301767e+00
2.317591458618852851e-01
7.429701864151686541e-01
2.457758367107584441e+00
-1.295282025208490673e+00
2.228639378386450431e+00
-3.803335996331402846e+00
2.995178034280745472e+00
-3.059618423566559109e-01
2.292219354440790946e-01
1.415865242113945932e+00
4.656784569224185155e+00
1.713455651804992375e+00
5.422727092705425633e+00
1.482209257682314041e+00
-4.704344793422239768e+00
2.771202733317799094e+00
3.136837721636791976e+00
-5.123611121727186024e+00
1.642817197779922855e+00
-1.569142856726879476e+00
-4.342386473931997060e+00
9.752835835101372197e-01
4.237774364117301573e+00
-8.359731295453443067e-01
2.034870679271422844e+00
2.860016124624332523e+00
-1.187807679495065827e+00
2.301235281659167686e+00
2.559962224981925161e+00
3.563106502891655314e-01
3.203268551615252591e-01
-9.315847914794259665e-01
-5.283983769436876976e+00
4.091742137406078061e-01
1.199464754735294347e+00
-1.698824444898521246e+00
-1.118065229500806446e+00
-1.442877266488817867e+00
-8.718849301162103771e-01
-4.598197509433243901e-02
-4.101851401987910428e+00
-3.016622313870561900e+00
5.525728259790314567e+00
-1.693595091860393698e+00
-2.187631244396371910e-01
4.655134308391262188e-01
3.058152176974356706e+00
-1.369035841578583490e+00
6.391417971247726371e+00
-6.418067725825949310e+00
-3.585136254994992555e+00
-3.406123017781554019e+00
-1.242316348075417132e+00
1.741172099756245428e+00
6.581143840607541762e-01
1.156305442272815398e+00
3.016519684788233402e+00
1.191669149935473904e+00
-3.626611850561436423e-01
-1.256938087429728901e+00
-3.701792451361256120e+00
2.092280907684873625e-02
1.856300761749898331e+00
-2.795090311662358218e-01
9.202090576514221354e-01
3.421892041831003262e+00
-6.274315510606280899e-01
-1.126824214707092153e+00
3.780979293490789317e-01
-1.050025392176670846e-01
-4.454581657787251459e+00
-1.581803191462286318e+00
2.427558192641628310e+00
1.901247119761587445e+00
-4.918350544880176756e+00
2.405233444499872419e+00
-1.804343002371798788e-01
-6.780277128249343477e-01
-2.242065662703990880e-01
1.277860700005077010e+00
-3.908100258536197913e-01
3.756407967186666141e+00
-4.566841962344447836e-01
-3.683445143959191981e-01
1.494610252460824462e+00
3.910365071453179464e+00
3.076996518438841921e+00
1.556691034424759756e-01
-7.664697882640492121e-01
1.624615373508310867e+00
-1.566577456875624108e+00
-2.540917598753503981e+00
5.168406806463534675e-01
-1.203387693183094242e+00
1.836956195437968731e+00
-3.650994948574110666e+00
5.684250369513982548e+00
2.556426679758109444e+00
-2.562638707090120871e+00
-3.532869426207852381e+00
4.349937231483176348e+00
-3.705883277991126601e+00
1.454316193070944507e+00
-2.912930337969613870e+00
1.121143177277704739e+00
-2.384342403640760111e+00
2.699085764932006359e+00
-4.780696684868483981e-01
-3.811613981945308760e-01
9.321423462429385687e-01
1.344584776964488748e+00
3.650446056674489625e+00
4.067311459584299627e-01
-3.402923364430278319e+00
-9.740795636702519467e-01
9.833807264040856921e-01
-2.524300636845963730e+00
1.332101718652740630e-01
4.250057689548647488e-02
-2.089468649058932037e-01
-7.741616838724620919e-01
-2.511114544824150752e+00
5.755949141248054346e+00
9.867419969538888669e-01
-1.849120779621832522e+00
-2.230430007968537964e+00
-1.829717549521288511e+00
1.818950680763044003e+00
-1.699622147217357826e-01
-5.671008561883688515e+00
3.155700030004437551e+00
-1.752180260023419089e+00
-1.286533193472672920e+00
4.512869932286605490e+00
3.330099148240641682e-01
2.105944730190035585e+00
4.139113257744987395e-01
-2.901860149205832684e-01
2.740456121668441547e+00
-5.450122006375979211e+00
3.232470042574089319e-01
-7.053081530794385046e-01
-2.636463270510562840e+00
-3.682434711467036603e+00
-2.959251406848958155e+00
5.531217878206369232e-01
-6.849187983785022027e+00
1.162908899421427833e+00
-3.141249084596965169e+00
1.087833608657082340e+00
-1.258698345682001118e+00
-2.869539567877814612e-01
6.985461046322272161e-01
-2.008228700591995763e-01
6.004085186363177229e-01
1.142479337945500051e+00
1.401905895612582498e+00
6.991362175411541813e-01
2.308275538742456945e-01
1.155560079181548794e+00
4.214734675345255255e-01
1.792363240909838007e+00
-4.733866623284476161e-01
-1.485969847000245814e-02
1.221428519725209494e+00
-9.719942651070327955e+00
-2.205736030539144910e-01
5.271035065872023750e+00
2.542079622800218264e+00
8.323575702544081523e-01
-2.012673935143144632e+00
-3.397680915924930378e+00
-1.893068797696776606e+00
-4.162731227466689887e+00
-1.341196524124441680e-01
-4.028957461108519489e+00
4.015002938748701844e+00
-3.826299299302213797e-01
1.962226278487897879e+00
-1.555254453179901186e-01
9.752173084286912541e-01
3.611219327442616311e+00
-2.980074085184110988e+00
-1.648305982976136619e+00
-6.119755215100555645e+00
-1.642904326109512647e+00
1.503830353262115338e+00
2.580060127152939309e+00
2.128791776867120511e+00
2.422684125936350963e+00
3.399683047062218577e-01
-1.445120413015659411e+00
-4.062244067223257815e+00
-2.017421000439179490e+00
-1.713915789709276272e+00
-2.753850949810515480e+00
-2.941558978240497169e-01
-1.335937229077665656e+00
-3.454018147967958363e+00
2.248995849726691809e-01
-2.764383274242767641e-01
5.114695898564018961e+00
6.303093420018418769e+00
4.177204248541196208e+00
6.303221609255871272e-01
