1.860312746901945677e+06
-2.686675270292878723e+10
-7.243643579489278395e-02
-4.013153666723356628e+10
-3.198407599992633797e+06
7.258381511135473633e+10
-6.045728384914009857e+10
3.775514466279655457e+10
-5.071402891292970276e+10
-2.611696545542253876e+10
1.509491492301502824e+07
-5.235041755510113525e+10
6.304562737368600464e+10
3.695011416098936462e+10
-4.596330841101577759e+09
-2.826057993757200427e+06
-2.868153837666885376e+09
-3.976628584592571482e+06
4.934647626132436562e+05
-2.580149264027204365e+06
-1.862590240513812169e+05
-1.225978945737037354e+11
1.154700407174118042e+09
-4.253117771576775238e+06
-1.104291058954111068e+05
5.138548366021037102e+06
1.616446668562448120e+10
4.025010954312423706e+09
-1.058220078071888580e+11
9.380296594247198664e+05
-3.067113256227592468e+10
-1.326606453119792175e+10
-9.762450712190856934e+09
-7.956435094947387695e+10
6.689712956254851073e+06
2.614796116480899048e+10
-1.660852735970995855e+04
8.885848334604774475e+10
-4.060283101819097900e+10
7.586492238702163696e+10
-3.512486672947343445e+10
5.804014667633839417e+10
-1.077795790787617676e+06
-3.138074216290273055e-01
8.922161435954567045e+06
7.909379740251339972e+05
2.105826217186131980e+06
5.064779306996726990e+08
-2.561430599382498169e+10
1.037721752785934135e+06
4.009111250466434285e+04
8.372275847850006104e+10
-1.367587954033996793e+05
-3.966253129517776489e+10
3.053522604569125320e+01
4.056320330853540897e+09
-1.400840231789130485e+05
4.100031502663626099e+10
1.800396886323955078e+11
-2.386887422508052192e-01
3.657233804822975071e+04
1.729488812905701828e+10
-2.302524883996557617e+10
2.541929852487361641e+05
3.407375004075103760e+09
-4.601352584625687408e+10
4.819447666456827545e+10
4.259323381379447937e+10
2.941613677366545868e+10
1.417679110976541415e+05
5.855373829429833984e+10
-3.557656454528328031e+05
-1.858540149891635403e+06
-1.876054459773651733e+11
-2.119429425986901857e+06
6.553247383168290252e-01
3.929816706091407776e+09
-4.804914096943168067e-01
-1.373365430734358262e+06
1.785552567445023537e+09
-8.980736682733532041e+06
5.613385773734848022e+09
-2.312278019609692383e+10
-7.721360113760429382e+10
6.566302044818229973e+06
-1.218191181551947500e+00
1.569190949280551147e+10
2.232659369970231317e+06
1.732254658339966089e+06
-2.840237865912524917e-01
-6.423154656915760040e+09
-6.930839356033868408e+10
-3.824040873323275757e+10
2.028170982322764758e+04
5.170966538668029942e+06
2.914243441444236755e+10
-1.243409614701988641e+06
-3.322669683355102539e+09
-3.163389463056061612e-01
-5.398266678328935057e+06
-6.385750962359425354e+10
-2.475897164111131287e+10
2.535139860452603531e+10
-1.376129852620864563e+11
2.835132910651110840e+10
-4.559498746543346405e+10
9.836182485190715641e+06
3.992766297228123474e+10
-6.741740282565698242e+10
-7.033514679211685181e+09
2.268187988932800293e+08
3.471718747083831787e+10
-2.115840577402703930e+05
-3.644283134651779175e+10
-2.534557535433642578e+10
7.325220872875022888e+09
2.655458692289260864e+10
1.645844529212608337e+09
-1.913026401964282227e+10
6.013088264445800781e+09
1.164758725230832062e+11
-1.522040868931687903e+06
5.135999754769637948e+05
-6.087447601949267578e+10
-1.062584746604250618e+00
-4.113283602967763297e-01
6.596286337478134556e+03
-8.302597464647241868e+05
1.265581746402507629e+11
-8.296044100947496414e+09
-6.577696464518925175e+06
4.417290641269122314e+10
-9.098180777459667969e+10
-2.235942375365795898e+10
-3.908092824906608582e+09
-9.459395552174124146e+10
9.578474536528439331e+10
-6.737315856277579442e+05
-1.900548039399533081e+10
-1.315192753136751602e-01
-2.994032137638375163e+06
-5.774442716471221924e+10
-4.935580522356350708e+10
-1.018081311983694322e+06
3.886116863067041016e+10
-8.594163872427607043e-01
-5.446038951280891418e+10
-8.046572290531671524e+09
1.290363551269927993e+05
8.527476649447155762e+10
-2.612026936895370960e+09
-2.544470783752983412e-02
-4.157634012507162988e+06
-2.803061529279362488e+10
6.091157038606610149e+04
3.038291319143563843e+10
1.403665290170400620e+10
-1.889666879418634426e-01
-1.231355695444147358e+01
5.892288002011962235e+05
-6.355251510798577881e+10
2.281874110423445129e+10
-3.328449348697029927e+04
5.618784389664946977e-01
2.613604479495964050e+10
2.076665461448124313e+10
-3.433115127263993149e-01
-7.438185681478721619e+10
6.612258340618908381e-01
-2.753888509826536435e-01
3.802742005382240295e+10
-6.932895808522686768e+10
-1.360858643376641846e+10
6.409728752243514173e+05
2.460993577840118408e+10
-5.376028612429000854e+10
-4.733288906655794144e+09
-8.061113096762192436e+05
9.508982040646035694e-02
9.716855182362197876e+09
2.881041842244945526e+09
-1.391725505035914481e+06
-2.520400770087162243e+02
7.450874223779953003e+10
2.089138373061831665e+10
-1.060591394490933533e+11
5.695638889437812935e-01
-8.092589218668388984e-02
-7.565254200996776035e+01
4.112862357141859829e+05
-4.887048176958287048e+10
-4.150148584451255798e+10
-4.669094287281441502e+06
5.256282188060714722e+09
2.645315657620088690e-01
-7.172218300548522949e+10
-4.742929341870071411e+10
3.997922299789041901e+10
-9.102012344247989655e+08
1.502582251042870522e+09
3.083007985184658961e-02
6.319115368864843750e+10
1.567871541642337952e+11
1.665602623516468098e+06
2.910865339915986633e+10
5.560184995728991926e+06
-3.310163781829047203e+07
-2.615474566835118103e+10
4.408385619449529052e+07
4.867232559799003601e+07
9.370035075036395877e-01
8.496433501709365845e+08
4.533515155903292847e+10
-4.374841691047749448e-01
-4.270260008969349670e+10
1.295573917338378906e+09
-9.964896417686370850e+09
2.450991275324532759e-01
1.089987704668290710e+11
1.110999861432497101e+11
-2.149252591121366713e+06
6.408289676994658075e+05
5.359127640645570122e+06
-3.441658786867886782e+06
-2.267968410110806274e+10
2.111057011406896636e+05
-3.397896071143646240e+10
-1.824255483357952016e+03
-2.973964352880834961e+10
8.996940395106694268e+02
-8.183811501447918701e+10
9.900707647844390869e+09
3.189119846416234970e+06
-2.438646263484329224e+10
1.535470427868385315e+08
-5.097912105894851685e+07
1.990372069321330566e+11
-1.145481546959387970e+11
-2.540489180714635178e+06
4.217268475750959015e+10
-1.404908960617260742e+10
-1.579740593116638184e+09
-4.567001813286016846e+10
5.517874428715339661e+10
-8.818591606053672649e+01
8.059148140677230835e+09
-1.211184349187884480e+06
1.937541330196273804e+09
-1.737103841803637314e+10
3.557840632267907715e+10
8.053333858501316048e+06
8.568569812386825562e+10
-6.815147401579742432e+10
-2.838366950136963278e+06
-9.519073310239803314e+09
-3.628827289527706909e+10
2.330059724975099089e+05
6.228723860850612359e-01
-5.342572084244979858e+09
-1.818850668512789998e+06
1.608250104661808586e+10
-1.556445472414616776e+10
-2.613901233156081289e+05
-1.088118351316858673e+10
1.624215087538004853e+06
-1.228367903822977096e+06
-1.280469340984259033e+11
2.085316525941001892e+10
-5.209781859057882603e-02
-5.094008459429992676e+10
-4.770349797751588440e+10
4.077928225180053711e+08
5.173090206865850830e+10
1.840382529471768976e+03
-6.318538907031198964e+06
-8.753776159550898743e+10
-5.450056918080110613e-01
-3.365409789135086060e+09
1.840953182494414753e-01
6.334594613878371429e+10
-4.262419162225536406e-01
3.142630802798146248e+09
-1.736483422201832831e+08
-1.647830621604603075e+05
2.164497928266266302e-01
5.919508568065630272e+06
-8.829488909833683014e+09
1.530503824511265615e+06
8.380179917796691895e+09
-1.022244150311700058e+10
1.196107363685537661e-01
6.741777503687095828e+06
-3.756347586834107971e+10
1.310655483065090277e+00
-9.074721412610000610e+09
1.485621664643812561e+10
6.105791037042366028e+09
-1.245653280463119507e+09
4.508766282089103013e+06
-8.114733859044442749e+10
-3.102675095545474243e+10
-4.837554257921897806e+05
2.872712681997749329e+09
-3.278368948342228308e+06
7.631873237406570435e+10
1.374156912943840408e+10
-4.221459690263372803e+10
1.597618511028726387e+10
1.515361922162082046e+06
-1.928710547095496750e+10
-5.638662162301990509e+10
-6.995595754266733304e+06
-3.642969408116265869e+10
2.178826149070554733e+10
-9.810237011433783919e+05
5.392554293693033600e+10
-2.157726475668402854e+05
-4.304355627390456390e+10
6.119502979352073669e+09
2.549970578134906006e+10
5.722077330930236053e+10
-2.202884964849247673e-01
1.496511270028840750e+06
1.093317473531546071e+06
-6.411434065524111938e+10
-1.164962147916201502e+03
-5.757815691308758545e+10
5.536279155919322205e+10
-1.024939242247691751e+07
8.628806077765380032e+05
1.723009519793670654e+09
6.509173666895302013e+05
7.886041094687457065e-02
4.209887434419007111e+10
4.258356221614105225e+09
-9.194912372351867676e+10
2.045333499344538116e+10
-4.069702397120873260e+10
-2.462328829491735038e-01
-3.211371159113441467e+09
-1.045299404003658394e-01
7.121859003148525158e-01
-4.746140368174551986e+06
-1.741537395990696736e+06
-2.369200225862633514e+10
7.571654695674179258e-02
5.829552858854074097e+10
1.323580739208762291e-01
-1.330903124907173216e+06
2.412489964217582718e+06
5.903300218338822365e+09
1.203635641328200931e+06
-4.992992750131989829e+06
3.967704023051928711e+10
2.670146071752883911e+09
1.036663651116585649e+00
1.643996926122528076e+09
-1.407460369641798934e+03
-2.718327759358185176e+02
1.277924766292781289e+00
-4.761505136132045746e+10
-4.124947789969110090e+02
-1.856972926028216553e+10
5.573995569031997681e+10
2.319433638392229462e+10
4.171802298090301514e+10
3.246308831265544128e+10
5.041845679554321289e+10
-6.157207760540945053e+09
4.245544627752446570e+06
5.644782659602571106e+10
2.942422380067733383e+10
6.843194069610107422e+09
7.239959044480734253e+10
4.627544896891896964e-02
1.029053306112617645e+11
-5.136823081999003504e-01
1.353785003219175720e+10
6.609659801489475850e-02
4.239106588033597291e+03
-6.975629303763243305e-01
1.119116065153578339e+11
1.242468559504326172e+11
9.391994861759826541e+06
7.011868132730020210e+06
6.711278150736984253e+09
-5.583422038884017944e+10
-2.960679839859832001e+10
1.248391038625768433e+11
3.354501961905926514e+10
-1.115832256607500836e+06
-6.679176693215756416e+08
-1.932319005900985479e+09
-1.715781048667928902e+06
-3.760540140903225708e+10
1.038601848536014557e+10
1.076692357858781624e+10
1.099885948621963501e+10
-6.731850655237514496e+09
-6.265081221783267212e+10
