-8.866894015467141621e-02 7.116100396550133211e-02 -7.374155582856506408e-02 -5.553832920990061511e-02 2.521231535370676083e-02 -9.262240440390857171e-03 -2.526301760002504226e-02 -6.166957015488461202e-02 -6.369724052262293323e-02 -8.952602483433429181e-02 -7.478087454384249599e-02 4.463372556352475005e-04 7.416195114889360604e-03 6.861560179895619116e-02 9.716617020419317241e-02 -6.367025159473761742e-02 -8.725027031215626394e-02 -6.403685315040635873e-02 -2.574916331609843415e-02 7.006859860222665326e-02 -1.893748816333309937e-02 -9.749520666325568741e-02 -5.900747686869045605e-02 -9.586792140114568095e-02 5.243201460847797535e-02 7.723735056723970809e-03 5.978071134519889751e-02 -9.967918805302734830e-02 -3.330662383131886145e-02 -4.178002403799112308e-02 7.882029145728515485e-02 4.124172958576237391e-02 3.215988417650066794e-02 6.216943179147606940e-02 3.670109693482417196e-02 2.082427281844525038e-02 -9.415511453013977738e-02 -4.012077345763284501e-03 5.508368022357260779e-02 -8.506741640547159367e-02 -6.504997265137701934e-02 9.960698162528991428e-02 8.909163062860621374e-02 8.475448564590379319e-02 1.525281774510273483e-02 2.647620767774141841e-03 -5.127921167856826223e-02 2.731924159435958691e-02 -1.481176982828585030e-02 -4.603811109811326713e-02 6.094967228295869455e-02 3.885345250016793844e-02 -5.119564013795886714e-02 7.351834008818441957e-02 4.400545394175246761e-02 -8.635502572404399335e-02 3.952881299562901324e-02 -8.515971017551654532e-02 -1.206303988034935527e-02 -1.011157475147844431e-01 5.083684476370507049e-02 -2.376299209934641665e-02 4.349448304679565114e-02 -2.058601039401235927e-03 3.000048035770442462e-02 5.905541555637909557e-02 2.986472301709778079e-02 -6.164568226617987701e-02 -1.428249736186219115e-03 1.011462055873360161e-01 -3.827126913235091160e-02 7.456559303062246236e-02 6.324402620818025955e-02 3.635732066623990899e-02 -9.367685762891733714e-02 7.048246207384557815e-02 9.666533904016713641e-03 3.136646830942133729e-02 -3.531515977282189550e-02 -3.266407507062382004e-02 -6.563863928542956749e-02 -8.190610868244255216e-02 2.307494648909109991e-02 1.484157328541428275e-03 -4.393953145269365035e-02 -4.807350491613315326e-03 -1.115510055062618987e-02 8.675321095942917227e-02 -3.577867509920976130e-02 -6.864737280791576024e-02 2.404085110869969358e-02 8.328450836701876969e-02 5.323396382323106885e-02 2.759088568890801646e-02 4.262580099603804212e-02 -6.984354302091397293e-02 5.077661041762882022e-02 6.259810400214695092e-02 -9.497619268983981122e-02 4.794104171968695260e-02 -5.809066811759844989e-02 5.052527511461358395e-02 9.884225678911243151e-02 -5.134255830048718716e-02 -2.045220572195905265e-02 4.488764711131061624e-02 7.904060649368324643e-02 4.413642211019778300e-02 8.431626902761996112e-02 -5.136944034619434635e-02 8.622483014518882855e-03 -1.267976447527229163e-02 1.935771341581044372e-02 -3.266590343897830817e-02 9.517284965130956911e-03 -6.396407109432482307e-02 -8.532985616115126848e-02 4.762799508356827666e-02 -2.683936890627368343e-02 -2.298913832932595117e-02 -4.059613409932314593e-02 -2.684663861495494019e-02 -7.154733948744897154e-02 -8.400269623172210154e-02 -1.031112198150919285e-01 -2.634342297907736608e-02 6.277376789557356784e-02 1.468461228514667330e-02 -9.863978154996093373e-02 9.181167980684026841e-02 1.021330715638015529e-01 8.971930390268939570e-02 -3.639500752213041361e-03 -7.979359156835655331e-02 -1.304203330794010546e-02 -3.156018648240082464e-02 6.841202274356252000e-02 5.042538120448183947e-02 1.077749698131168048e-02 8.630905235827071587e-02 -9.478902676164682739e-02 6.332461537054095979e-02 -1.957420321211555264e-02 -1.008271760254358107e-01 -2.127397912435465780e-03 -4.129013491132448033e-02 2.321349674006133179e-02 1.027445150430629506e-01 1.830563135890032889e-02 -7.558526674026302961e-02 7.533138780431867555e-03 -8.498446225710454272e-02 -4.084152628306978589e-02 -6.639000589360105620e-02 -8.109189642972971677e-04 -8.150819609482865338e-03 4.880764142974538394e-02 -8.802709957613227831e-02 -6.663395625914975140e-02 -1.186135177725933763e-02 5.673100849350470182e-02 8.962046026255247877e-02 -5.955626481100223524e-02 9.074748386996482272e-03 -7.786783705379594911e-02 -8.899537934654087878e-02 -6.776303091422883340e-02 3.602031372967779560e-02 -8.970893849781865284e-03 4.476571029025599308e-02 -4.418586861569751001e-02 4.880787752940434626e-02 3.554526748779711365e-02 1.705551945934450806e-03 3.984496717521890776e-04 4.753988772924287731e-02 5.393243325620774437e-02 -2.148473308083014705e-02 -4.102054637069726950e-02 5.242894855593702857e-02 -4.914534594251675215e-02 -3.336548362151750546e-02 5.801531455244953589e-02 -9.650349107060166021e-02 -3.452860186070022108e-03 -2.010154393956613272e-02 8.897958581980851267e-02 -3.987643998313780691e-02 1.898401346259005057e-02 -7.084242599661620676e-02 1.010936279047474212e-01 -1.849467327317982912e-02 4.681650363963831690e-02 -3.977466103119521416e-03 2.600125587279333156e-02 6.288957269188982790e-02 5.112799792817122185e-02 5.468607091476854892e-02 -7.397412377968598518e-02 -5.482069929649454471e-02 -7.472397055162691148e-02 -5.990119999355272840e-02 3.373310578447869922e-03 -5.445040785472595596e-02 -7.638491991959753258e-02 7.946434859044439192e-02 -1.903725714861594087e-02 1.964360587440912992e-02 -3.451227020156369396e-02 -4.598963662958345522e-03 7.986324801041323751e-02 1.958088105863190279e-02 2.668480071804633577e-02 -6.064291106168189643e-02 -8.930166186538746054e-02 8.683401758073495957e-02 -4.816992745122541941e-02 5.951090120423263574e-02 5.542332189350878367e-03 2.530899709273671042e-02 -8.984751031244558872e-02 -4.065948948055830847e-02 -7.929005436081655589e-02 6.601048566793249472e-02 6.771271956561140774e-03 -3.728574445610639831e-02 -7.122760139493829190e-02 8.880403520163644704e-02 1.824210677791395299e-02 6.223567002841862150e-02 1.740355807482955874e-02 8.462402299954750740e-02 6.261151689539526388e-02 -7.441234356817537365e-02 2.613896918486720983e-02 6.313936231730220283e-02 9.553160030309032491e-02 -3.198676513110604303e-02 1.355872147204112595e-02 -8.114990611236712337e-02 -5.668151586911555906e-02 8.927198582077167099e-02 2.241788225101306806e-02 7.611286299041594705e-02 6.333195199622487781e-02 9.051371642400858619e-02 2.903547034151496547e-03 7.568794767810639937e-03 6.763833735012059201e-02 3.439481732055476443e-02 9.444999130639863960e-02 -5.917629390782822713e-02 2.964146651697566887e-02 -9.282707785502340714e-02 1.212250419827208721e-02 -3.240557300728020423e-02 -6.449655816148817944e-02 -8.610888678415269670e-02 -4.646108547935631078e-02 3.621758038718680961e-02 -8.309490381676798432e-02 -9.414082138667438648e-02 -4.654270570189344980e-02 -9.628100208725691445e-02 -3.712455766844182260e-03 -3.250376530712386497e-02 4.481013360321103867e-02 -4.785458628190066704e-02 -8.074062699240895646e-02 3.761830456756657531e-02 1.769466288667294676e-02 -7.907931810031693098e-02 -6.968224277810113054e-02 -4.006928281461335367e-02 -4.094885970610720460e-02 -3.994852650960969281e-02 -2.284317585092554906e-02 6.125414293580420250e-02 -3.949594233444124469e-02 1.499472156631467303e-03 -3.041480767669743797e-03 -1.575348435291682239e-02 -5.179824513821369540e-03 -6.335707866074763439e-02 -2.960868068377874290e-03 7.282803947089198926e-02 -3.516241113382378297e-02 8.996432340592824817e-02 -6.068871357689694518e-02 7.308954681746911153e-02 2.547608619700742361e-03 -3.296722948599743047e-02 -6.998508926838081790e-02 -7.344026558152901007e-02 -7.033060391873255379e-02 -4.170854821213883235e-02 1.014762628534227572e-02 2.752459764488212127e-02 -1.799926923304856138e-02 1.419033055684966807e-02
-3.335074544298959748e-02 -5.781374059796277193e-02 -6.416773953963010590e-02 8.236857809078845793e-02 8.933910785381544983e-02 -1.879402687555818685e-02 2.534861655307418457e-02 -8.237647019772689760e-02 8.005407360447473752e-02 -4.186998164297579123e-02 8.683773218482168654e-02 5.394570840408434431e-02 2.393287854755632785e-02 1.814122602454145555e-02 -3.304699003646240085e-02 -8.593443480161085460e-03 -1.364123036574554568e-02 2.591768760859412477e-02 -8.826448299403877318e-02 -1.000864566199323041e-01 9.552199943052508413e-03 -2.218911508673501731e-02 -4.999397345683028598e-02 -9.148204600979346901e-02 -2.003397500503529324e-03 -8.060806774096714034e-02 8.946240721591759704e-03 2.387555722503810138e-02 -7.721590656157585608e-02 2.462896043960747378e-02 5.152190276767334293e-02 -3.739633015659341725e-02 -2.027841804256041991e-02 -5.108480352573260830e-02 -3.041018602602778634e-02 9.038046025807941475e-02 -9.467638970139521937e-02 3.053321475259590523e-02 1.482950644611442069e-02 7.438894243923339575e-03 -4.917020814369834486e-02 1.711216472610153569e-02 -6.209750772301668442e-02 3.329356973066604358e-02 5.574817274154256208e-02 5.681473831413576259e-02 8.260482143209554873e-03 -2.533634099476395410e-02 -7.041423146279136153e-03 -2.892296097446903774e-02 4.475451162510689362e-02 1.130488171645584704e-02 1.564565078228032308e-03 7.943013090382058938e-02 9.692125280895402817e-02 -7.547338619665893041e-03 7.190125842082960295e-02 4.489900062854754875e-02 -8.218413411018130055e-02 -3.218182769767143764e-02 -3.777402650439470183e-02 9.980218986600906950e-02 8.999237933827272662e-02 7.467466638556546910e-02 6.059347885828574032e-02 9.133192711572502009e-02 -6.122367918839283912e-02 4.967682824152598597e-02 -5.614633982133412915e-02 -4.422057544344099728e-02 5.501251557180607960e-02 -3.694671402332485449e-02 -2.601294015862886180e-02 9.073663996361429340e-02 -6.900055948872356459e-02 -4.221392226410166509e-02 -1.113614873710139404e-02 9.156969521233197795e-02 2.468197584829444347e-02 -9.592600869196386826e-02 3.867239000851294822e-02 7.279577226793083888e-02 -5.850379825932391920e-02 8.099083096017314909e-02 -1.195691086266504992e-02 1.999133822505640146e-02 3.188969396894981989e-02 6.461921608991649801e-02 9.752541679758110205e-02 2.794096879356636805e-03 9.363125649068437806e-03 2.891039875143489382e-02 9.139573959916753865e-02 9.598537262079388788e-02 8.523976305039060453e-02 -9.544822344359316091e-02 -6.703751921104664224e-02 -5.924516121869539964e-02 2.347641158649405035e-02 -4.485028707017663790e-02 -6.524964220537415871e-02 3.180502802250431433e-03 5.295048121614569919e-02 -4.130300905827834906e-02 8.737493576393995376e-02 7.045829910268626428e-02 6.086753057913677628e-02 6.085393359193642937e-02 2.517762909552925376e-03 3.671801816368134436e-02 -8.878059993961180674e-02 9.348520485449533790e-02 9.748584900903835282e-03 -6.520265052640022985e-02 -9.423762002275384853e-02 -5.438702380331614933e-02 9.036983270858553463e-02 -3.546470620552708702e-02 -2.507218510086338392e-02 9.485852299068706778e-03 7.289200356958283611e-02 3.005334129764197088e-02 9.351151887318573386e-02 -1.179373527711965325e-02 -6.707428572227011956e-03 5.911164879145564682e-02 -9.861166184499980947e-02 7.978660837524247096e-02 -6.706699813484121031e-02 4.108695452970438644e-02 9.140884795731571422e-02 6.549863877610018204e-02 2.103074919233257484e-02 -6.886220889625661867e-02 -2.659378643407491957e-02 8.382964799315952009e-02 -4.829578282012690627e-02 -5.640248681768214589e-02 -1.575438425526890819e-03 -8.553103824934452093e-02 -5.760636668694414479e-03 1.141153412595042986e-02 7.593291123844488066e-02 6.838060742298272821e-02 -2.846115365664777727e-03 -8.555142093465133157e-02 -5.365192230928361727e-02 5.311024115717667693e-02 -2.450248737049303543e-02 -5.440974068236213712e-02 -5.523477487453284235e-02 5.824459805486086050e-02 4.920381167014930418e-02 -1.622357660754442793e-02 -1.196125094137055235e-02 8.536165359303593547e-02 -5.141249350093204940e-02 2.181016113844274837e-02 -8.925903174673296969e-02 -3.370806909097235488e-02 -9.742338270331760142e-02 -2.907164198773002847e-02 -6.249868800934944846e-02 9.674988683134261302e-02 -4.281813536217534549e-02 4.227319524832010011e-02 8.297931377961680066e-02 1.829910520145941119e-02 -4.037355855698220725e-02 6.604680588294195576e-02 -2.617760051106495303e-02 4.251383086569012620e-02 -7.172581357379368208e-03 -8.284780597402960356e-02 6.814439604382881155e-02 2.401832869201188034e-02 8.681284750884470103e-02 6.219877326465928641e-02 8.422381763158874601e-02 -5.288336952800154478e-02 7.140403861622655890e-02 -4.362264812769531264e-02 -8.396450080381792636e-02 -4.295780105171606578e-02 4.629065991240249867e-02 -1.280880411994518749e-02 -2.348644677030562941e-02 3.751353396837718568e-02 -6.589131704065742667e-02 -1.190075905398366683e-02 8.606655536808056894e-02 4.278359563589374109e-02 -6.786091628528554895e-03 -7.729694742312033517e-02 6.773553785510430525e-02 6.588140479283990936e-02 3.959285092383344612e-02 -2.298531001937711635e-02 9.215660207582851426e-02 4.001407194892469404e-02 9.038293460944828162e-02 -4.394510653100043573e-02 -5.479217689367961441e-02 4.717228784109398637e-02 -7.983842113828085174e-02 -9.835131835490408536e-02 8.630528109981099039e-02 -1.392689676268046460e-04 -6.512021042152542349e-02 -9.285754396287619616e-02 -8.279655619998840810e-02 -2.528345491223932956e-02 -5.380508717069021341e-02 -6.000631881005896728e-02 2.152005847699277330e-02 -2.732227258737981307e-02 3.003179352094539206e-02 -1.205846107184662536e-02 9.259993127597446194e-02 7.879465079480547571e-03 5.107930133631590625e-02 -6.733990755208047602e-04 8.623586689439281805e-02 4.463496086887831782e-02 -1.569815281022700695e-02 3.726099461158606518e-02 -3.809201297128861352e-02 4.909799313180081282e-02 -5.215819490986093460e-02 6.612831038222410918e-02 -5.354578876954192712e-02 -9.968684693994246671e-02 -6.414684283609245474e-02 -7.206327034256082564e-02 -5.502065587767022287e-02 -4.086714025635786174e-02 2.342975667961530450e-03 -3.329478101351001501e-02 -7.613437624607746756e-02 9.589478934285362854e-02 -3.860984144870076989e-02 -4.456755084501246023e-02 2.924218735228350380e-02 5.681292284639415102e-02 9.411355357637452013e-02 1.118168268471598017e-02 -3.314110055219724078e-04 8.160829078081956178e-02 2.762138132434285853e-02 -9.487990670146806416e-02 -2.943716099242722067e-02 7.080195312055412304e-02 3.822187694820297979e-03 2.588398191359203224e-02 -2.338692763842356408e-03 -8.941923546330618477e-02 -2.346465056773836683e-02 -4.297323632449054354e-02 7.300461305427914660e-02 -1.359706959452911847e-02 -2.764417226488132852e-03 -3.286987972672605895e-02 1.514605295878479821e-02 -3.132042868627481214e-02 8.343338022559543266e-03 -3.654637428207891531e-02 -8.279122737308565461e-02 -9.628338764865469745e-02 7.039377076274495881e-02 1.333835478389880716e-02 -3.826857431398601045e-02 2.337120442608159321e-02 -9.087791892525352855e-02 2.636958195416054529e-02 -8.467854833799025316e-02 8.365016143855640018e-02 -1.150210795036287446e-02 7.529289157342829164e-02 3.123709065863155415e-02 5.647390020137519479e-02 1.470288701811553120e-02 -2.207630668451734252e-02 3.004052533068820446e-02 3.976209067505431100e-02 2.607668212410188882e-02 -3.679578266569494965e-02 8.063249700071478676e-02 -6.584573026180869787e-03 2.630187681378640466e-02 3.597012345686807777e-02 -6.543568336298327681e-02 4.355954810080400752e-02 8.484767610065906129e-02 8.897312170768456596e-02 9.219219708325817123e-03 4.753927971819227327e-02 2.870296484906654805e-03 7.470081955185388367e-02 -9.393235650617855204e-02 9.132906016592275134e-02
-1.875171757905087777e-02 5.251420545205433277e-02 -3.383111530542671358e-02 2.718313517706036353e-02 7.006650501117238361e-02 3.962375872552108269e-02 6.314846304700817703e-02 -6.506823034562357611e-02 7.403829036316174339e-02 -8.069040843857107348e-02 5.092032953785945865e-02 -7.617030228269243419e-02 -1.381442069639812753e-02 6.105202140842143355e-02 -9.361411946700487485e-02 -7.376915328631152013e-02 5.722400786086035557e-02 -4.192724937423320062e-04 -5.586689582395013010e-02 -9.852912300969327020e-02 4.025083540000313348e-02 -2.234154326778699240e-02 4.263285890240191278e-02 6.598982158113695512e-03 -8.008441728752460631e-02 8.344866693896969834e-02 -5.636118791792380650e-02 4.027854544589415386e-02 2.771427246875602518e-02 6.784774381691341394e-02 6.710362186266165263e-02 1.256638270737064390e-02 -5.535534158950570355e-02 9.525733176591494322e-02 1.234546152905801816e-02 1.862102504719881368e-02 5.656545549630009884e-02 2.901937123764245646e-02 -2.299504309324034920e-02 -3.814910757826263377e-02 1.442347081017613525e-02 -7.906989966476155041e-02 8.665730486045240908e-04 -6.641465033614375735e-02 -3.333968434986505497e-02 1.972585372378226135e-02 3.760088490215694745e-02 2.285873117488471801e-02 -3.739219831751654233e-02 -8.224668493597389607e-03 1.226195097211281145e-03 3.697572592516040757e-02 -9.823005246849317307e-02 -8.233733179593029708e-03 -7.951916447648404995e-02 -9.415732700299096931e-05 -9.419955540575562780e-02 -9.865459414807116467e-02 4.428929830130976832e-03 -1.923441141623532906e-03 -2.713953272847375794e-02 -4.101018493116689867e-02 4.900862251696232880e-02 4.271395631038985008e-02 -6.538388875708947556e-02 -6.311131878655171223e-02 4.388785002313435463e-02 1.140851049728176803e-02 7.905466579342715350e-02 2.031185839730290793e-02 -8.903429724035029358e-02 9.612353505469353743e-02 -3.642655238775353854e-02 1.703633377229811507e-02 -6.481573233940220169e-02 1.884903271018936385e-02 -7.786159716060560287e-02 -1.644560714549760799e-02 6.775973227907300389e-02 -8.018198965352235641e-02 -9.087868686949196126e-03 1.638142024053762871e-02 -1.967942375949417386e-02 -3.922058785223240390e-02 9.383021787598341823e-02 -6.474095260634490923e-02 2.080732841976752970e-02 -2.861930538131005758e-02 -2.068864931690855835e-02 -4.599515783340919067e-02 -9.922109567353108728e-02 -5.175153320292322917e-02 -8.346454205391216907e-02 -4.373871129829943333e-02 4.174394625568960543e-02 7.766849510983034333e-02 -8.194312178658669232e-02 8.838871997700607774e-03 3.752195480248413789e-02 -3.081376295197399764e-02 -1.752787215685034164e-02 -2.598310659059004449e-02 -2.590794996680773933e-03 1.689834014322380822e-03 4.030148846405026686e-02 4.794373098424158097e-02 -5.336775933526451132e-02 5.637900736897704518e-02 -1.077048882984388278e-02 -9.826445119355536884e-02 9.246726786714418167e-02 7.331515138882770122e-02 6.080565023159904825e-02 1.021161781570341653e-01 2.853727649057288471e-02 -1.822182099101624445e-02 9.446336155910504961e-02 -9.516036413022004037e-02 2.037719966769872479e-02 -2.462045589932296275e-02 -1.850159238385655144e-02 5.936062082458896938e-02 9.466272060334121607e-02 2.510379959159085572e-02 1.189560649052418852e-02 6.741494994454549916e-02 -5.009329592023642475e-02 7.994976851784460492e-02 -7.528926800080336379e-02 2.360927011925140553e-02 3.068190846061641386e-02 7.818794976286245861e-04 2.579885401698417749e-02 1.053119481768098054e-01 -5.784319434201656840e-02 -8.254851320342543319e-02 -8.426917577161494033e-02 7.993028041574085085e-02 -6.782750014297822538e-02 6.286436416440178976e-02 -6.383532428252590429e-02 -1.038106988734242668e-02 -7.113517914280509391e-02 -7.937811526407959062e-02 1.015391046402170511e-01 -5.157762371312964167e-02 -5.863568634478626140e-02 8.479298022049994166e-02 2.293340711762881928e-02 -2.441539281861875715e-02 3.375777821479298418e-02 8.146081651296785062e-03 -1.677034606475773584e-02 -4.074408973615302465e-02 3.201086326760125417e-02 -2.581439293389766951e-02 -3.247280305297232939e-02 -1.136854108499144381e-02 -4.076981491056078100e-02 3.445551139644979777e-02 -2.503133682422254563e-02 1.661793687423990945e-02 8.964455955961836420e-02 6.337012325660076884e-02 3.863238475099933789e-02 -7.527483750694695386e-02 5.663114921467208435e-02 5.275025137596010827e-02 3.865073157771383577e-02 8.977500875496569055e-02 7.233669307937749815e-02 9.005908351421972047e-02 4.992060533177053450e-02 -5.404975203491148295e-02 5.437268553513970731e-02 -9.226784333633226975e-02 -5.893174194104779280e-03 -9.724625865813833758e-02 9.238249570543677000e-03 8.678215049643890622e-02 2.827450238789593062e-02 -2.759150129482505071e-02 8.727375519839915274e-02 2.113026340465801178e-02 6.617165924710075031e-02 5.102964912009268911e-02 -4.228933223316549278e-02 1.996451403479039544e-02 8.414139931784911375e-02 4.997559184742085547e-02 7.301491435711597588e-02 -4.985699841263607941e-03 -7.035650959541170368e-02 -7.394726940694704154e-02 -3.106393688049099988e-02 8.453779449325565798e-02 8.661102580395110828e-02 -6.832198199634477442e-02 -6.766003567688214093e-02 -8.505484134358229364e-02 -1.151751846726456995e-02 -7.065044926132332814e-02 -9.158358830426725772e-02 -6.069517626268287197e-02 -6.593543522842235105e-02 -8.543554075267222048e-02 -4.504084224296200922e-02 -1.815508417988169823e-02 2.073711303880677523e-02 -9.398734396641297839e-02 -5.042974670033261581e-02 -7.743531855908793171e-02 -8.165449722142972822e-02 -5.281164685842175410e-02 -9.630408787873116772e-02 2.723248776126876297e-02 -1.847753381106009146e-02 -7.696398550242292136e-02 -5.102988407679326377e-02 3.134369176653165057e-02 -8.574055133906097192e-02 -9.972269809689635056e-02 1.498901264981750310e-02 6.780029517959317020e-02 1.001595607117260617e-01 -6.520265125670808570e-02 7.902409847095874518e-02 1.153495528259132312e-02 -4.488137955852637695e-02 -9.462724545067632831e-02 6.383238576516424290e-02 1.253397405723728590e-02 -7.744307221294771670e-02 5.487545469693033695e-02 1.335526798179976007e-02 -6.076649477090761975e-02 -2.310967726401487107e-02 3.362911292625841986e-02 6.923057735540315283e-02 -6.734858141799360265e-02 -1.297497371170791385e-02 -1.132710826073531768e-02 -1.080114472324521929e-02 1.239071797729754051e-02 9.086839259348682141e-02 4.875918328629057913e-03 -5.046845160582236894e-02 -9.402829767873426003e-03 -7.597562647094267818e-02 2.974527343887863745e-02 6.747631332942249927e-02 9.551241079373855303e-02 4.271106722938199096e-02 2.993817382272742633e-02 -2.501389631111290007e-02 4.094337435507912348e-02 5.218125293178335448e-03 -6.263309484458792764e-02 8.354973091815445785e-02 2.574199978283097517e-02 1.038116105990545684e-01 -2.380129657700308723e-02 3.791423147981431985e-02 2.849552056281860063e-02 -3.372892621896887017e-02 3.773162424671663850e-02 5.884281560823637416e-03 -7.263899265125134397e-02 -1.069453569640962769e-02 -6.251346594482506958e-02 7.884016686492263670e-02 7.706801147045167812e-03 -7.046775206411934334e-02 -1.274523770591085882e-02 -8.194540914539580334e-02 -4.531406438081894694e-02 7.061260596099271092e-02 -3.848958512542401816e-02 8.871318092498330088e-02 -6.430336298846807408e-02 5.852970204576335433e-02 3.241106397341059209e-02 1.035652430695179274e-02 -6.154429467785732522e-02 -5.401934178144707221e-02 -9.615318184136931179e-02 -3.384065007078826143e-03 -7.984511878774039340e-02 1.144298824839010825e-02 -9.045078183790164483e-02 4.434808885590944133e-02 3.013358711730146008e-02 -9.558703692783249162e-02 -7.068421422380738450e-02 -5.693555758304127967e-02 8.682208861760199944e-03 -1.751220948109690314e-03 -1.041461398531749183e-01 3.547124549620566530e-02 -7.388455270531622820e-02
7.062359935153231238e-02 -8.040857992466879378e-02 -8.070356340866396971e-02 -1.944006866210221118e-02 -7.675482501418247339e-02 2.830332104278768940e-02 6.002174327689364930e-02 6.061491981046064625e-02 -3.389278173362769014e-02 9.994876980267759087e-03 6.819588004614213217e-02 -9.101449944433449846e-02 2.405992946242386035e-02 1.503370988088315388e-02 -6.290578233385382689e-02 -6.684239692894523854e-02 4.520279506902016853e-02 -5.493292120955736192e-03 5.030745945206869379e-02 -3.089064712366077284e-02 -6.686158039031041278e-02 -6.218743782901265532e-02 4.584084898228590194e-02 2.386249702744607307e-02 -3.860680284170972532e-02 8.901874248608505902e-03 -4.367600584307455153e-02 3.872553600246059213e-02 -4.856936630646818687e-02 7.498261265941016940e-02 -4.547502798460664741e-02 -9.351319682940727185e-02 4.203705375781198461e-02 -6.343836977971349655e-02 5.062274780258880363e-02 1.753426705506773084e-02 7.589907970244361146e-02 3.721971991654796086e-02 5.167718161537227656e-02 -9.230052083508374916e-02 -4.919047367798418807e-02 1.792188145340501033e-03 9.398459546028842260e-02 -3.155816813297168677e-02 6.114086554292377101e-03 8.448725883088895050e-02 -4.541079583438650119e-02 9.231731762383997564e-02 3.761727042156902401e-02 9.014957448772613346e-02 -7.643768043188083755e-03 6.036678139681524863e-02 1.541068141541916160e-02 -8.962561962528453607e-02 8.580659952513655653e-02 1.313587165995837303e-02 4.099685590037146360e-02 -6.181741703916107666e-02 -4.184435785084698878e-02 5.030660311525091827e-02 5.547778944554705022e-02 -1.040878039387497511e-01 -3.150871995894195809e-02 -2.181495064589637420e-02 5.124715357371081859e-02 3.998422370591161318e-02 8.697114975400682679e-02 -9.410079494727474625e-02 -3.340128725807747084e-02 3.847468572920528795e-02 -6.693327073553215212e-02 -5.171215045119165882e-02 -7.678434140449302836e-02 -6.423077549582621726e-02 -5.861076716110866919e-02 9.341178148681443527e-02 4.271792277943174676e-02 7.214527391822131430e-02 3.222908628257240699e-02 8.019546499133599349e-02 -5.645847062413933241e-03 1.079277790162574101e-02 5.104416787436097738e-03 5.448196407514813155e-02 9.816384860456259243e-02 8.103909739909895271e-02 -9.900565683616799340e-02 2.860805770217633368e-02 -2.087008082091670186e-02 4.518745131954585853e-02 -1.649042581615233274e-02 -3.796070445839091340e-02 6.079006871479513546e-02 2.775635878889864960e-02 -7.532900698792872884e-02 -7.086708226224155971e-02 -1.612229936848144987e-02 -3.289977724590285868e-02 -5.171036847337204256e-02 -4.404198370308600591e-02 -5.877782784652695047e-02 5.768555857092580452e-02 -7.010174735485887043e-02 -8.698300862246369225e-02 -8.824896848722718623e-02 5.061764824513627359e-02 -6.797676778137681786e-02 -6.577070250646883942e-02 4.774774113110960561e-02 -2.282463637771603090e-02 3.672722726981127866e-02 -8.011022998236827508e-02 -9.911864956805301052e-02 -6.036133586247106192e-02 -3.556095206917843365e-02 -8.522056611897953216e-02 2.608686236016740170e-02 1.522235582577650785e-02 6.017920306448155954e-02 -4.498163731828950379e-02 -9.091024446611364884e-02 -1.506037653228879149e-02 -5.735119649563785033e-03 4.000244113124391820e-02 6.511938528809868565e-02 1.327030083487257262e-02 3.156584792919362586e-02 2.803372460129666122e-02 -3.026637775287544310e-02 5.406092672803409355e-02 4.886202040150303127e-02 5.499954098869193342e-02 -2.873765464203779235e-02 1.918255788738542494e-02 8.099354185124653382e-02 1.554479174716193353e-02 -7.962568821118005957e-02 6.347831845295730246e-02 8.637685987799079146e-02 6.393107854041284177e-02 -5.036741953443221037e-02 -1.008505457028805868e-01 8.860765459191362325e-02 -9.415033713416992578e-02 4.228364879377981278e-02 8.371942087189819526e-02 -7.109220506011532104e-02 6.996537371302706532e-02 -3.256859368589523629e-02 -6.194320523172454351e-02 -5.661502820653118578e-02 1.356738439844992587e-02 -1.929287613986000946e-02 -7.552285521279482328e-02 2.195501585866100128e-02 7.096348629949798814e-02 1.204451230819242845e-02 4.145749798501187355e-02 5.843421778300495611e-02 6.004527699550835096e-02 -3.181052367733788917e-03 -6.074582940659750685e-02 -5.015819351912667590e-02 -6.719472753678046306e-02 2.955448172171109070e-02 7.244591559000851388e-02 -6.204101988596832928e-02 6.569386035081699327e-02 -2.957660431806752310e-02 6.168230877040298266e-03 4.777934123134847805e-02 -6.258098541240428303e-02 1.906182995112950737e-02 -1.329640194045581241e-03 2.322516224814390531e-02 9.218031342878174605e-02 -1.320724131301443532e-02 -6.385861133871609599e-03 8.270883013053702271e-02 4.142484801635421682e-02 7.958544903302481113e-03 8.726922735229222794e-02 3.495392200245643621e-02 5.908370868239972568e-02 -7.604269851371620037e-02 -2.148043490117137327e-02 -9.736662358488828994e-02 6.599753167847073609e-02 -1.572941371128339094e-02 4.135517094742815168e-03 -4.848400077684083403e-02 3.732601966449221320e-02 6.436112963188581060e-02 9.944798182803971098e-02 8.410431774780954828e-02 5.944201844275186220e-02 -7.235577146562435780e-02 9.859732438718127323e-02 4.487993751972652566e-03 9.421633886025418403e-02 5.532186123841865977e-02 6.893515345984957063e-03 9.432704866341233216e-03 -8.723348339384220940e-02 -8.511145230311217835e-02 -4.154654210060994973e-02 -7.423301981835773999e-02 8.418829814312942666e-03 1.040510755041750834e-01 -4.606020778563355705e-02 3.916499620729656239e-02 1.718385010619707942e-02 4.205925544234603158e-02 -6.611083947266833960e-02 8.102531257500734940e-02 4.200473474536311341e-02 -8.846949012513689869e-02 -4.668832209172300851e-02 6.471324106509740437e-02 -9.977399299851000269e-02 5.550588807524456381e-02 -7.313905085253842586e-02 5.593484852757919096e-02 2.157158398535366853e-02 -3.751029215866874197e-03 -3.631889555201645720e-02 -1.511684439311810832e-02 -4.239508479199789737e-02 1.065654777738620331e-03 1.392980463842587516e-02 -5.274758738659809931e-02 5.047102601793576615e-02 7.268051443549411461e-02 -5.066575275697104280e-03 5.113684273978938433e-02 -7.534208257869999537e-02 7.433989121287035151e-02 -6.149413511500173568e-02 3.982174416629759295e-02 -4.649480587069839549e-02 -7.846253832049723820e-02 1.075824128575704128e-02 -8.790161432266495323e-02 -3.617330108443601172e-02 -5.354409411257449874e-02 6.337053798569269869e-02 1.441063852402597704e-02 -1.018611290020798588e-01 2.266371612589855242e-03 7.897400152501889148e-02 7.197504459047242287e-02 7.300657613438818472e-02 -7.070842449616686343e-02 -3.367809699485781183e-02 -6.036117025378019696e-02 2.429582308229627854e-02 -6.853176190449805638e-02 -3.794810960692861224e-02 3.167018118060353771e-02 -4.186304582840295885e-02 4.386888289646465044e-03 3.319962595202508027e-02 6.190302872666859912e-02 4.845508171352014976e-02 9.025219218304800228e-02 3.307858815749453729e-02 -1.266934407469146387e-02 -8.078607682324460970e-02 6.756090582375134934e-02 3.298261195385839700e-02 9.033536242741739899e-03 7.703915691525548004e-02 -6.564745844715252909e-02 -4.565304864772397331e-02 -1.703337332231640716e-02 5.325554024105851048e-02 -1.420964017337162690e-02 8.396869087427422107e-02 1.455377994707585283e-02 9.663827708440951569e-03 -3.433185468697939891e-02 -8.957070438834047188e-02 -8.933463126114309094e-02 -2.143044334230117393e-02 3.359064688570067431e-02 3.183372454848670124e-02 2.994310682313431823e-02 -8.970409377998211919e-02 9.081121504263346689e-02 -4.176702519515611278e-02 -4.853672348103556244e-02 9.079108927158342779e-02 -1.629367273258643459e-02 8.113622948068970053e-02 1.929282383448708768e-02 6.223284007930129230e-02 8.261860261611138345e-02 8.191421432972254349e-03 -8.079151439911218258e-02 -6.382679213998773693e-02
3.711578938064460931e-02 3.185497312100246670e-02 -2.017222344748399732e-02 -5.675450611035235543e-02 -6.132116648077471505e-02 -6.632675452388946125e-02 6.963574460192185900e-02 -4.868712404543732580e-02 6.091826633746998815e-02 -6.238137936093091779e-02 4.964347543967188858e-02 5.308762093041321378e-02 -5.762774291922900805e-02 4.075922890692361411e-02 -5.636527390211781841e-02 5.081277554681737363e-02 -4.362069709872159334e-02 9.081196390801000995e-02 -3.864564146646757431e-02 -6.357471003268354293e-02 -4.253239055515944944e-02 -3.609666491184269216e-02 -7.057481379866720195e-02 -9.059066052491052123e-02 -4.197784565865746165e-03 9.109613479090070132e-02 2.902486708331782073e-02 -7.164804998383141055e-02 3.008525085942970190e-02 -1.893942403414310138e-02 -2.577823349697264815e-02 6.574136121825522282e-03 -7.038027228339157129e-03 -1.082126982597401629e-02 -5.964939545821531033e-03 9.338955580824878644e-02 -4.979117344767422515e-02 2.717112102617588038e-02 5.136122818582800759e-02 3.041245621121273224e-02 9.963634838745089733e-03 -1.199065697743863061e-02 -7.148993134665684868e-02 3.474579177600388424e-02 8.920805184106085639e-02 2.293550712753493134e-02 7.907740632113779977e-02 4.482488602463609133e-03 9.588855279068711490e-02 -9.136221173901334924e-02 -5.623649802675573933e-02 -8.226374963689919717e-02 -2.674602980626195059e-02 2.599785128151235400e-02 7.241114795952741101e-02 7.189865086312284548e-02 -2.109285373598114577e-02 -9.959278658201468903e-02 -4.048531843378855299e-02 -8.119327265631252899e-02 -2.502026114068852530e-02 -2.520133125961042733e-02 9.337276328564809991e-02 -1.049123422366962932e-01 7.870386031695901508e-02 -8.686538946605926181e-02 -4.039366739424781610e-02 -1.802965988827339577e-02 6.886120121711506240e-03 -7.026836657960679189e-02 -2.882585374562583042e-02 2.422499142378557388e-02 3.349157980403692086e-02 -1.109567410754059777e-02 -6.163936074014585154e-02 2.506369241190408836e-03 7.584529691724272923e-03 -1.825364822417863478e-02 -1.052196854578093116e-01 5.834502308913129542e-02 7.734987396479020560e-02 -4.227669656268827347e-03 1.047233984706199827e-01 -5.584668900220640664e-02 -6.133714394723863844e-02 8.217478354342849789e-02 -6.689018213418017333e-02 -1.015001668899916804e-01 -6.967967967232914506e-02 -2.440910283999857960e-02 8.377877374764255980e-02 9.976955449818741828e-02 9.565466238956428502e-02 4.301871075932636734e-02 -1.066852970975332576e-01 2.157122470582683790e-02 -7.212464783411202951e-02 3.339999970039665700e-02 -1.146716081826728781e-02 -5.834937675061603601e-02 -2.681354976681659535e-02 -2.458625783135494694e-02 7.408857178250319309e-02 1.423374368037848281e-02 6.864784149275310332e-02 3.563506215226509150e-02 -3.645939937442155276e-02 4.255495448373861761e-02 -2.076490320225341316e-02 -3.394391373682234536e-02 6.889157597207931638e-02 4.160245959870405991e-02 6.451462577897627837e-02 -4.486183492662676464e-02 -7.504997113480625301e-03 5.577990073739489546e-02 3.854450296632829648e-02 2.743890802731739978e-02 3.114743842747638367e-02 -5.366238273029003136e-02 9.538903594763235849e-02 1.336242353479234063e-02 3.481783649528548408e-02 -3.477512988445879277e-02 2.806430199111803817e-02 5.797303756581483752e-02 -1.892921013856549775e-02 -9.006537024084282361e-02 -7.956304145281167806e-02 -7.517333477567690603e-02 -5.455799245562050620e-02 6.820081249088039144e-02 -2.157845500129112679e-02 1.859236928546938866e-02 -3.354391300061643211e-02 7.289660637128764220e-02 9.887519540803280105e-02 6.654749489103480020e-02 1.050992046062349389e-01 -2.162827925789814754e-02 8.126415407024369097e-02 9.505900626602470371e-02 -1.016696805414701588e-01 6.071275308328538678e-02 5.816504944959575291e-02 1.872328957511386078e-03 4.753315134906518219e-02 -8.909901664064985571e-02 9.270479940770240401e-02 3.844184962625664392e-02 2.416059066946303971e-02 -8.295839176306106511e-02 -9.019809842329938598e-03 -5.987874813755614950e-02 1.084161867350101963e-02 3.043612480815499621e-02 -6.540167302801651317e-02 6.220378472670615166e-02 2.535969002793997049e-02 1.878656350642072051e-02 -3.094636451583835171e-02 4.705604959546282745e-02 -6.868173303835888033e-02 -6.782326288380935431e-02 -4.283451489403471840e-02 -8.731004039413491069e-02 -6.809360498268481054e-02 -5.576966371450371024e-02 8.384465698049090032e-02 -1.553206532447644469e-03 -6.905256321706046418e-02 -1.026407571953844716e-01 8.368944675545978221e-03 -7.587892586181338439e-02 3.870505778499876842e-02 -2.582007859883141826e-02 4.443760926441932442e-03 -8.812400705751677332e-02 3.484440595499010279e-02 3.810150593333276603e-02 -7.924580524626509415e-02 1.063002355293127671e-01 -5.768377430103191483e-02 8.812574626992983329e-02 7.734640100427177256e-02 2.385809317677738302e-03 4.955266210790369025e-02 8.642270992129280627e-02 -1.933535650418182622e-02 1.923749605768756282e-02 -9.628741920749607497e-02 6.583542425831485911e-02 -5.311502522024222350e-02 -1.217520548596794788e-02 5.903519247364481803e-02 2.089521243954840443e-02 -4.301588958931516771e-02 1.748450323274184509e-02 5.781296856023161040e-02 -9.016839149176597568e-02 7.922749099234720205e-02 -6.752294594885685508e-02 -5.316668394251534979e-02 -4.237336633418851972e-02 6.111503165107105146e-02 -2.715711951128244039e-02 -8.078449471238277613e-02 -3.885431853953304204e-02 1.021844302428123741e-01 -4.701032819120641582e-02 -4.819044359011527556e-02 -4.306386457424569991e-02 1.034893878332086570e-01 -6.859888330490060415e-02 8.859573553654017525e-03 -4.079902056982741276e-02 8.193977215643895307e-02 -2.459626668099040153e-02 2.212311086747264718e-02 5.253302168564401298e-02 2.519016250867772699e-02 -9.952219296429332118e-02 6.272087481701009784e-03 -8.516612436065927605e-02 8.261495878147236127e-02 -2.422734861617348995e-02 -4.673731529335387047e-02 1.461230907228851066e-02 7.252217194823358526e-02 -6.410240316717724304e-04 -3.466483821224441986e-02 4.262731946516358505e-02 6.307683865330538688e-03 9.581107544716066515e-02 6.903755134633540735e-02 -9.375512757490980786e-02 7.841940809696283654e-02 5.818272455960406785e-03 -4.262776769376638852e-02 1.019009635856394161e-02 2.067446246743949619e-03 -6.044299076958929012e-02 -5.717998360154434578e-02 -2.141581640412224333e-02 -9.204615276293122428e-02 -5.232027717195553151e-02 -2.336555344766545403e-02 9.380374546187771057e-02 6.460098681365927797e-02 4.923611941324334412e-02 4.856580554617472012e-02 -4.468187975437289822e-02 8.981064330808528895e-02 5.308554325712922656e-02 -1.049298594117813697e-02 6.888827545193670909e-02 9.929235207301494170e-02 4.129612413808523425e-02 -2.613630101125513638e-02 -3.454455936357498508e-02 5.154777246868719881e-02 -8.731652165637557306e-02 9.268834536962158865e-02 1.163389150545297152e-02 1.733729909390675436e-02 3.850729863672119196e-02 1.076811910720188586e-02 4.608818580301416584e-02 1.021048647368033059e-02 5.362505824361141205e-02 5.992609356333087473e-03 4.193524102112522120e-03 2.744907217646683911e-02 -4.881398403962704940e-02 -6.720718704187850223e-02 -2.417504767181209713e-02 2.785643287875868776e-02 -3.561464848955173818e-02 -2.231215190283742170e-02 3.947326937245112383e-02 -5.070674624764829469e-02 -3.677206493032846024e-02 -2.711297555846641297e-02 -8.904391102384090484e-02 7.806133807920445644e-02 3.491801887658813053e-02 -6.699467744348880371e-02 4.883004564201168241e-03 -8.620326233758444923e-02 1.559136702558251188e-02 -1.009693225915767566e-02 -1.002153318950244759e-01 -5.386179112539098840e-02 4.963772277505749952e-02 2.518465032476001689e-02 2.282518035273801288e-02 6.746781460458474433e-02 -2.008012270158333890e-02 -8.742124795472451526e-02 9.291463319567686355e-03
5.194258093743880922e-02 -3.450785570795217132e-03 -2.843733165925481886e-03 8.925463914916330344e-02 -3.154585933092035610e-02 -4.103734904285361029e-02 7.999315588546539180e-02 -7.513282142718921697e-02 -7.500020381909891509e-02 -1.231863673166049868e-02 -9.072614028603272207e-02 -8.562186027655514786e-02 8.249224580473202284e-02 7.934964226720957192e-02 7.902746018790823834e-02 7.939477771051249577e-02 5.235034748723478570e-02 -6.975294988571935362e-02 -7.295676984835814533e-03 4.981525769898716149e-02 2.708723082654522453e-04 2.337728406625124572e-02 3.538846811182814328e-02 5.999140537701850434e-02 -9.673883235138289183e-02 -8.221168745411949752e-02 5.871659811003137469e-02 8.908362954569863656e-03 4.282247957446452813e-02 6.209214341300463291e-02 -5.512376378470108806e-07 -5.487364400905765660e-02 7.247043721665973048e-02 3.663963031509208986e-03 5.452290783227486254e-02 8.376316680285356142e-02 -2.218031417639612299e-02 -6.249059842034986045e-02 -3.960405712612445617e-02 7.694696098225354067e-04 1.733676212468328662e-02 9.307539460901510797e-02 -5.487428895623940039e-02 -6.592080831812707764e-02 -1.528505095094248242e-02 4.172385743466897751e-02 -9.055444472515337961e-02 -2.140447030417273050e-02 -9.642847760293045412e-02 -4.232752576538436479e-02 3.224561802468462607e-02 3.456842145007663764e-02 -6.735470318326287897e-02 2.201346498792383644e-02 -6.841414072861308482e-02 5.850705933780268181e-02 -2.648436353772402971e-03 -8.020003943046812023e-02 1.574804760677302531e-02 7.198030633073266779e-03 5.721628487347295289e-02 8.640919049866584156e-02 6.617962651122624718e-02 3.170104912720823204e-02 -3.252916720626627262e-02 6.741327937574302653e-02 7.959872470454311399e-02 -4.775548366630286146e-04 7.882323317301830057e-02 -3.849744332622954957e-02 -8.443730838627916402e-02 9.378370143659407743e-02 8.440922386642135677e-02 -7.608434280627246471e-02 7.738563209212952210e-02 4.088000836453065112e-02 3.091705013449912512e-02 -7.692291915430903015e-02 8.436150232990492770e-02 3.335510869190401462e-02 9.516808067648203917e-02 9.421793870902583912e-02 6.578044625589550554e-02 7.164628738437286981e-02 -2.859535525574198600e-02 6.687786373556432740e-02 5.314702627396330342e-02 6.327263914212213902e-02 -2.006051821597826679e-03 -3.126881841993030264e-02 -4.039250900588911911e-03 1.278564551217765792e-02 -2.324804077190472523e-03 -7.470436605073585423e-02 4.409576306384499489e-02 -1.878503890297009843e-02 2.171401718716368251e-02 -7.168880339652981826e-02 7.926468651808951660e-02 -5.768395893926955148e-02 1.694182928576292921e-02 -3.176668528363782527e-03 -7.771484858707015941e-02 -4.049442196367439989e-02 5.771773507984034879e-02 -6.763206822013058395e-02 -7.795372141795200993e-02 5.871513979032519370e-02 4.896476224567120061e-02 2.860300847278162903e-02 4.132840438073816930e-02 5.484254001457899291e-02 4.061066859231086262e-02 -2.592297570741815271e-02 3.640320853599110507e-02 5.847321443311650352e-02 -4.288674687359639998e-02 2.322401971562560591e-02 -1.288579661029291834e-02 -6.107258089483673380e-02 -4.313241844227813648e-02 8.566607383074550941e-02 6.515447054641311520e-02 8.046155942962070554e-03 4.029889340109452794e-02 7.818281865974176237e-02 5.478633453961069544e-02 -8.278416894388983260e-02 -6.545149302100647382e-02 2.583463980066944346e-02 6.546915948350941206e-02 4.368325765106768899e-03 1.620758268675585173e-02 -3.695079294668137532e-02 4.712899512616155334e-02 6.672299073070495079e-02 7.820532367575740162e-02 7.321219557925584542e-02 5.598752867191999355e-02 -4.445668204054908923e-02 -2.369406719790122934e-02 -7.800345723368151685e-02 -7.121549349160340159e-02 1.708417180757991136e-02 -8.764603017842233224e-02 -1.800548031848871536e-02 -4.952478949231559763e-02 7.440296763772674682e-02 1.771583683240439237e-03 -6.739633139890142954e-02 6.664934301285792284e-02 -5.465680496034711067e-02 4.381940635928970040e-03 3.416045568778165037e-02 4.545096387835952795e-02 -8.074455580462484849e-02 5.185549774600344691e-02 -7.906484282444209422e-02 -9.738041248593411192e-02 9.630677245896968053e-02 -7.270467568901758937e-02 -3.897546175669630575e-02 -2.958854446739670602e-02 -8.044459817664750823e-02 6.477048959662216887e-02 3.814418038230270314e-02 -2.167457956839067071e-02 4.708476303858064038e-02 9.292596893025442673e-02 8.939490358051994934e-02 -9.826847828217445679e-02 -7.041492581861901433e-03 -6.173559013914115684e-02 4.093428076918260300e-02 7.715868359878154045e-03 9.538859121159759535e-02 6.401885775467770767e-02 -3.552408853506565378e-02 3.648338040621436351e-02 -4.058888401805867130e-02 8.239214530675945114e-02 9.330927288763128657e-02 -5.830553029933710496e-02 1.635950247328598478e-02 -1.778430146813248999e-02 7.222954798069386451e-02 -3.594126033864393499e-02 -4.563436487959836307e-02 6.090018282520208437e-02 3.054806412233470117e-02 -6.238226848264155633e-02 4.825783876085634055e-02 -7.148482491827407026e-02 8.554813659841491863e-03 6.761851924320046170e-02 -2.334832437386260076e-02 -6.998051575510974565e-02 -7.157236390604580778e-02 9.939953390348359175e-02 7.067125657392088478e-02 -5.941447550714799158e-02 5.656374868904121000e-02 -2.818202589560825366e-02 -4.775312311723247521e-02 -9.729055462476796090e-02 1.338712002454150486e-02 2.033239878347649354e-02 8.753433935298605972e-02 6.860120824672893492e-04 -7.500260670522884698e-02 -8.390422690629081859e-02 2.026550720553092072e-02 3.743257186090863387e-02 -6.897405236239910475e-02 2.118289810578430007e-02 -8.433650136208310777e-02 5.955501416215671501e-02 9.048221938305171796e-02 -3.711215893525120907e-02 -5.520947000491118611e-02 -4.286114712507579222e-02 6.062727931107366602e-02 -4.945088246228681456e-02 -2.424648250117644732e-02 -8.008492524061515405e-02 9.175339713253443524e-03 5.924720578264749266e-02 5.410895388350398481e-03 -1.997343708865449013e-02 -9.492720918885050319e-02 -8.124869533683795608e-02 3.483782169818564617e-02 -4.975736202947918935e-02 -8.277026326939010414e-02 -3.544810061299100840e-02 -9.342137406243584963e-02 6.366850047264358513e-03 6.880181440074119303e-02 -5.461640060133354790e-02 -4.047093442444415351e-02 5.091659073265978469e-02 -5.645667176090868322e-02 -4.688527247101277606e-02 -7.335025108006496333e-03 -1.703568508318127964e-02 -1.633813483144729711e-02 4.596807203254203028e-02 -8.690189565806538674e-02 8.968317256983644736e-02 -8.380011255919940505e-02 -9.367503479429986277e-03 1.006009437457679456e-01 -3.188757916364848982e-02 1.517832168868585557e-03 -3.276043962201519166e-02 3.318033037160905696e-02 9.235151435619691485e-02 -5.138458986866871470e-02 -7.700010139461868630e-02 4.426386552986191075e-02 -6.257239585693008532e-02 -1.949355628154159081e-02 3.077879341032092181e-02 -2.160540258036348221e-02 -6.288477736484823777e-02 5.702327220608082239e-03 3.425315664756845013e-02 5.184680452858195232e-02 -2.468757420725165713e-02 9.955646405367180041e-02 5.481567556816473695e-03 -1.515067063960700601e-02 2.165329770144866842e-02 1.850332674115220608e-02 5.168085199063884860e-02 -9.531914576918282256e-02 -5.446249057493469416e-03 6.428937408633333961e-02 8.294607453710307020e-04 -7.163659328199033227e-02 9.391508502908461897e-02 8.511779040997130563e-02 -4.391012631719854592e-02 -1.660159848137938987e-02 -3.511637599054637932e-02 3.131271442843745756e-02 -5.823677042295552497e-02 -2.036297926918332821e-02 -7.993664350945167696e-02 5.693602164819043521e-02 -9.998878635070625187e-02 -3.674525017450606251e-02 -2.726942423420526066e-03 -3.206245302483790721e-02 4.777658853055866128e-02 4.249165900959298026e-02 -5.357076652773109376e-02 3.042630404313167655e-02 8.103154963389357091e-02 9.047654951310077354e-02
1.463859619520527190e-03 -7.818411895123458799e-03 6.021038046687345047e-02 5.919842720735572772e-02 3.015650149653792064e-02 8.623200600488534207e-02 -3.490146172390259233e-02 -7.193892646696010973e-02 3.645708115526168080e-02 2.882903548750799863e-02 -9.417117203136084191e-02 -8.496505123218540956e-02 4.178481860561983341e-02 -7.906705890532998715e-02 -8.896786207952610270e-02 4.219167517017965302e-02 -1.585101115790894799e-02 7.498365752763566650e-02 5.122609166282092452e-02 3.538132519790719577e-02 -2.973087067295496558e-02 -2.632886149763034520e-02 -6.974399609383677423e-02 8.077305755006081167e-02 2.581818700115161638e-02 5.256559636496477977e-02 2.507717844144179489e-02 -3.764543685795360573e-03 1.020985673789043813e-01 -9.100698307185461911e-02 -9.566107414754132857e-03 3.137073362469076226e-02 -6.301726532915280510e-02 7.335205705851233215e-02 -2.631412112010732621e-02 -1.443951511724716856e-02 9.248933036886620995e-02 -8.777046093325792386e-02 2.188024179937070324e-02 -1.597683973838072771e-02 -9.020384892662419718e-02 -1.255108222198153024e-02 1.609466517303035846e-02 -6.096554877663262068e-02 -7.651817134049160307e-02 3.237831835247710621e-02 -5.005045454307107539e-02 -6.830617634402963434e-02 3.109151121755631547e-02 -9.809569423453495807e-02 8.155264658904429198e-02 -1.402926329555935665e-02 -8.801821250140317784e-03 2.877632489453154155e-02 -6.281604172998329905e-02 -2.167190819812396183e-02 -8.976356680461979043e-02 2.786792908896149404e-02 2.514696868626667761e-02 -8.128400046955522318e-02 -4.120943391681352458e-02 7.675680842457875686e-02 -9.182098839445178295e-02 2.839236779059075774e-02 2.648129913462052981e-02 3.110771893250373343e-02 -4.915658104238188747e-02 3.310501847012998350e-02 -5.019074638997485238e-02 6.484707988981389115e-02 3.884134302099515046e-02 3.566114350855839610e-02 -1.194236388155675739e-02 5.335906298338369269e-02 -8.528285695991470738e-02 -4.222445643235932938e-02 -9.057484683233228695e-02 -3.695949845386881094e-02 -9.459858161491280226e-02 6.668336552680313375e-03 8.013480947178769354e-03 -3.593120076517931916e-02 -4.415646501497950266e-02 -3.036844567648611451e-02 6.006775616006804208e-02 -8.599096399138384320e-03 -5.229976086787919975e-02 9.083462203651739009e-02 5.089144344383220164e-02 -4.907819224336471692e-02 6.687288291840905174e-02 -8.569813919503004029e-02 -1.171686683950041996e-02 8.262999927831093938e-02 -8.917732851702370178e-02 -2.819174646618838320e-02 6.026130595131857191e-05 -4.354362998707221599e-02 7.694892278180648360e-02 4.808925987349157993e-02 2.268294208188493741e-02 -9.251584886830582777e-02 -3.135219041708264820e-02 1.048946805418197320e-02 8.876557625118526584e-02 -8.746695436028613380e-02 -8.695703506084549728e-02 -1.295597956051043609e-02 -4.406222920860994319e-02 6.520610759999281858e-02 9.372141929769498003e-02 -1.525542238622585450e-02 7.322879128986796438e-02 -3.991566397180484893e-02 -6.447068991873974864e-02 1.052122786438922930e-01 -9.447981027603105653e-02 5.763469168153958350e-02 2.740292274530063341e-02 2.890807856152266195e-02 9.992391132916774582e-03 5.404431565684399141e-02 -1.173919084700445793e-02 8.875496608711434809e-02 8.430941730471752660e-02 -3.926312760197751828e-02 1.719863861375450081e-02 6.795620854245926212e-02 -3.835662387447554608e-03 -1.025526453385472575e-01 7.997767636248695466e-02 8.880473769231755909e-02 -2.157480057513287350e-03 -8.919149965498623933e-02 3.790621969370150390e-02 -8.454969963352160223e-02 -5.770997085699245549e-02 5.292180946671468794e-02 6.152790970690938388e-02 8.227101900025650047e-03 -1.135195983263324188e-02 7.361707811626984344e-02 5.607495492886257343e-02 -7.167630568450152062e-02 2.871689138160175760e-03 -9.567203672554008831e-02 -4.620917290399317867e-02 5.742072617251125360e-02 5.829697171280783657e-02 -5.369809176834389880e-02 -4.782933145923905921e-02 -9.339355303369286862e-03 -4.287304440913661946e-02 9.649321379237892071e-02 -5.323210716210111104e-02 -9.706708007136180191e-03 5.734115667916930836e-02 3.685289341537389268e-02 9.669644693179051120e-02 -1.832207528253862461e-02 -6.516687006452344388e-02 -8.159656101765452862e-02 9.832212452069914819e-04 3.684915260838934892e-02 -8.101544972678063894e-02 7.406648222194067710e-02 4.167336047781505098e-02 3.738206910849009579e-02 9.101113348655880120e-02 -4.446555728103239458e-02 7.498370589598184373e-03 -1.058418794140588738e-02 3.226287146326850368e-03 -7.631457651083906751e-03 2.161437959341306475e-02 -1.314739859788420159e-02 -5.089096530106911737e-02 6.673699685775429102e-02 3.044852090603013262e-02 2.560729658345686777e-02 -6.055513118589608834e-02 2.781390234381713161e-03 -6.181238721314177842e-02 -1.896114725019515043e-02 -4.121486527443837117e-02 9.219464585717952743e-02 -7.190998252709909777e-02 -1.802044907448263969e-02 2.777414614909544041e-02 7.267479605538131049e-02 -3.534387544005645337e-02 1.620570007154312556e-02 6.475453743295456199e-02 4.777813406766426990e-02 6.936011094095878571e-02 -5.639477757670505187e-02 9.794516169433366282e-02 -1.914788218975193093e-02 -6.854516647603722812e-02 1.113366157795296976e-02 8.743520540623504755e-02 -7.586201676691274598e-02 3.832621677229692408e-02 -7.836364672311112167e-02 -4.587360227624933534e-02 -8.678246361773607476e-02 2.313332457318207497e-02 -5.779945976628430432e-02 4.908520492705734269e-03 -2.512766137802151245e-03 7.814388412957024022e-02 -6.630551544740033443e-02 6.906859859694283732e-02 -5.562394278486420401e-02 7.846803611490346664e-02 -9.707117214056867893e-02 1.282856055859062962e-02 8.615510195810771599e-02 -2.927565565335490602e-02 3.242007884920655031e-02 5.575086202467387925e-02 -5.963231705916288011e-02 -6.909098060642521189e-02 7.676260563885253796e-02 -3.180100581953611283e-02 2.876786348208489053e-02 -9.349833372798072029e-02 2.783516404051684587e-02 -5.171014875622099299e-02 8.814527891943077509e-02 -1.238067225478171537e-02 -9.615849535360332379e-02 4.668922881668781388e-02 -8.662958329989368933e-02 4.614717255116264349e-02 -7.207361826506406000e-02 -3.610294533629841013e-02 -7.341976060623145450e-02 -3.890107931624664419e-03 -6.551638793444289344e-02 4.969776789844086023e-02 -2.960129949892124912e-02 -7.815238488318153320e-02 7.996264095672478422e-02 -6.036495675539546579e-02 -2.599524923072416352e-02 4.847135900517207663e-02 -2.753623974826346910e-02 5.553075575622194032e-02 -1.123969262928104819e-02 1.857724819221128615e-02 2.522015871076568883e-02 -8.118570761540549671e-03 -7.406890606777158381e-02 1.944374517033693045e-02 8.115444778595178044e-02 5.616633937072158800e-03 4.896399549397034007e-02 8.814930937998378957e-02 -6.747101937406138616e-02 4.835261932012505093e-02 -7.727117510092111619e-02 -8.308381837618833421e-02 3.350913015735596662e-02 2.328513854253907653e-02 1.957619562208135627e-02 9.148740295873961093e-02 -2.548849289639458851e-02 -8.441438148285777821e-02 9.562688358547355438e-02 3.479689574513351175e-02 2.228766420416507937e-02 2.072530004861494399e-03 3.965312373063056839e-02 -4.194195857330749316e-02 5.102722844063876939e-02 9.454373108542124537e-02 -5.911123997337330849e-02 -5.287568901611518213e-02 -3.985648375036209001e-02 3.921630675502707497e-02 1.381052710504153142e-03 6.431274953718349452e-02 -5.321202404793775459e-02 7.635788869485760078e-02 -7.339864308885460376e-03 6.884921337098709460e-02 9.889989947604345411e-02 -5.101081505281605810e-02 1.203069308619794664e-02 5.276162148992655926e-02 8.590664493481892094e-02 -9.206406817482430671e-02 7.546010570246418359e-03 3.144424209442757412e-02 -8.025711359655045285e-02 -3.104506412327741674e-02 8.772971997646461517e-02 2.055494920549174806e-02 -5.148826405715466181e-02
-2.934293049122334296e-02 7.880775429449687897e-02 -5.153100890838546722e-02 -8.298156705208867279e-02 3.382986668585445406e-03 5.075792581646369935e-03 8.612447840857918868e-02 -1.420408044133865226e-02 -1.689543794834688986e-02 6.719672750364097391e-02 -5.550726745086567715e-02 -3.417279509909185164e-02 -2.939147347387500737e-03 9.778452814235794044e-02 -6.702720202435379082e-02 2.248880258994338799e-02 -4.014422138106422955e-02 -7.473283956190192312e-02 2.930626650298232688e-02 -4.145108443949142157e-02 6.238581837687173087e-02 5.903392433375099363e-02 -4.575622588567628685e-02 1.031157865259754031e-01 -8.245567759002002395e-02 -9.246874815131746195e-02 7.340682781978355442e-02 -1.022538999536153626e-01 8.533272358992831721e-03 1.814474545093909194e-02 8.954746827401074971e-02 -2.742132145118675313e-02 4.763796976281210044e-02 8.197427894577710705e-02 -8.954951537328606492e-02 7.577091335860862420e-02 4.420662091478919087e-02 8.545954945893884103e-02 -3.381677756490587133e-02 1.816428310237097957e-02 -2.276979007513404638e-02 -4.111630374215553829e-02 7.581753916806567573e-02 8.991375479078334010e-02 -2.091646222770414051e-02 -3.339557093860176518e-02 9.709978516292745720e-02 -1.637283986149534742e-02 -9.537078268388531066e-02 -7.115083288458280697e-02 -5.349800899338404137e-02 -3.959817008755457668e-02 -5.435910727272468684e-02 -1.152636890027472633e-01 -1.506745825618444057e-02 -4.126169553149457853e-02 -1.367843056342015959e-02 -1.023984295268944161e-01 8.153363213898985606e-02 -8.053067665360826455e-04 -8.357141127238632006e-02 9.488172499189980597e-03 -1.022147622297053943e-01 -5.903847970095596476e-02 2.026813472970880395e-02 6.747424175547868386e-02 -3.850733100660014979e-02 -1.079686934833862660e-01 -3.938253427159617293e-02 -4.607168242720399015e-02 4.630420560367774774e-02 -3.282959195094983362e-03 -1.057309008671805106e-01 -4.930719378480093174e-02 -6.436227758347679018e-02 -3.427469074618416742e-04 8.911248003021754460e-02 -7.623658035653797793e-02 -7.925985007972144447e-02 -1.939804880352953217e-02 -6.629493451456973385e-02 5.276813679063407231e-02 1.056236152814051116e-01 6.068473727971537834e-02 -2.684152853026879407e-02 3.173845477721452812e-02 9.166543136870594632e-02 -2.533733535528802545e-03 2.302859536681065716e-02 3.393567927239071053e-02 -6.117092242602577973e-02 -2.759078586593204444e-03 1.437520352526175426e-03 -2.768052538926201941e-02 -8.912213930576945442e-02 -5.687171295674089966e-02 -7.102892052025548686e-02 -2.931859528762387548e-02 5.133220131437671307e-02 -7.429488267028420360e-04 1.419400675325434465e-02 4.346581513107442701e-02 5.418158190905898730e-02 7.786724481882874305e-02 7.769137746890222851e-02 8.485362280323761885e-02 2.499992157040323987e-02 -3.543386236471883499e-02 6.409351019282616413e-02 8.804555620718668152e-02 -6.354596214861921166e-02 3.150771698279670324e-02 5.090941207408165164e-02 2.788596037741857339e-02 -2.385898232734174132e-02 5.650456703265402392e-02 -3.356322649386182105e-02 -7.373306692573371179e-02 -3.118863553427844715e-02 4.850004732829334142e-02 3.373727768801497440e-02 -9.415543180947130719e-02 3.632584197887350763e-02 3.508906144528475129e-02 1.938165603694786809e-03 8.924566539654930908e-02 5.956667723173340867e-02 -1.001916615359982610e-01 1.042650831338675331e-02 -3.708720299583519869e-02 2.031389284090767688e-02 -6.182892206030222992e-02 -3.646178785834819011e-03 1.121871745338758747e-01 -7.115358441328135941e-02 6.773808441417690507e-02 -9.145739650591161451e-02 -1.304644556217046669e-02 -1.102385863061051963e-02 3.566620834521149613e-02 4.634697881180650791e-02 3.082415529038377150e-03 -1.567086153666935947e-02 1.398880473768483214e-02 1.493156371037729878e-03 4.022982065339358523e-03 -4.316483094574345009e-02 5.919265228613795199e-02 4.493700895995065420e-02 -7.085687801199588853e-02 1.743098788845454106e-02 3.742239299181161771e-02 -3.770054205468340719e-02 -2.136312938094429847e-02 1.072361990251552155e-01 -5.776937961544308803e-02 -4.812650876161947422e-02 2.426175423838493675e-02 6.192299523415370488e-02 -9.597919847369704160e-02 -5.370843244410958284e-02 -6.424002204046511122e-02 2.891522095376715396e-02 -1.811482678892444020e-02 -7.837390501500028639e-02 3.407115539850875952e-02 7.273985942423699669e-02 -3.312251195463136733e-02 1.854483108609837963e-02 5.646986178259141148e-02 3.743499815979459827e-02 7.950247199421424382e-02 -9.486818358871829115e-02 -3.896459840938001212e-02 3.498176210476321157e-02 4.415106285754702431e-02 1.937780650279179173e-02 8.352184591891542720e-02 -6.012993574505010042e-02 5.371451971792302882e-02 3.210725156009387911e-03 4.377522559947037706e-02 -8.491033774765416320e-02 6.961433829554457275e-02 6.395856063733803068e-03 -9.825164861788977799e-02 -1.132973481010864959e-02 -6.212607043167045484e-02 3.290643457419753504e-02 -9.943264454609042347e-02 7.845367862844807028e-02 2.609310627783520062e-02 1.011693567857381848e-01 -2.431005402338837218e-02 7.812089609918967947e-02 1.852315087269515784e-02 5.515054637191538905e-02 -3.168920656114318501e-02 1.487488011616833021e-02 4.978680907859228677e-02 3.320134389032189381e-02 -1.900114867024765147e-02 -4.448948923481645806e-02 8.792925406762759633e-02 -1.506590094250946643e-02 6.154833506338818622e-02 2.935154438095211732e-02 -7.076389259574093760e-02 -7.577773273546802024e-02 1.198015690972583161e-02 -4.614275901672034580e-02 6.767624340904096480e-02 1.067489922279047099e-01 -1.423302590094320356e-02 3.088449034788658815e-02 1.091115217271694388e-01 -1.107962181606448882e-01 2.586440555757746687e-02 -7.709759572375821102e-02 -3.856276873303775277e-02 3.258095615128112771e-02 -3.151905026314027330e-02 6.737219466959067093e-02 -3.307580202102915201e-02 4.921857288452075041e-02 2.740168078248590711e-02 -7.765082080738411330e-02 -5.832269357556704031e-02 7.203998035835434965e-02 -2.624909594343563177e-02 6.616947689400506276e-04 -8.897407586064550594e-03 -2.185231408527146812e-02 -4.040889024896728715e-02 5.303233023707461941e-02 1.266056657536502456e-02 9.198580148915654064e-02 -6.009297191929534321e-02 6.132280065733274445e-04 6.493301318985376935e-02 -2.479854271985098418e-02 -6.448649597478250950e-02 6.536433607478951691e-02 2.933963045885756155e-02 -3.938457542209928414e-02 7.762099523043741733e-02 8.668115865034016487e-02 3.032277784027281181e-02 -4.395596659621123919e-02 2.240299782813113746e-02 1.009993637936053568e-01 -4.515669684713095877e-02 1.038562801158563788e-02 2.601708424675074072e-02 -6.121993970437399762e-02 9.266431140629180496e-02 -9.180711084293489976e-02 -2.497981062147751601e-03 5.256273088499079267e-03 1.031058145318466956e-01 -3.130919264621415815e-02 6.474997203352120256e-02 -5.305707496920757105e-02 4.994028235540130117e-02 -8.989514968639372369e-03 -9.324997959587472129e-02 2.935129961993555858e-02 1.004954850230448393e-01 -4.572951276257537084e-02 8.071582811812853808e-02 6.040720739582173399e-02 2.385545249662880674e-02 9.719994763407747637e-03 -1.693470135606493440e-02 7.558767696515795997e-02 9.665058183029694161e-02 -2.412040491731716821e-03 -1.810616482738254540e-02 -6.335895578763958702e-02 7.787292884750281197e-03 7.980440452056378198e-02 4.517228875325286080e-02 6.165890341099765359e-02 5.968131981012449877e-02 1.284317311977984342e-02 -8.118264591355207893e-03 -8.030699613896430389e-02 -5.122787362398142225e-02 3.240852394856346547e-02 -3.139339736309644524e-02 4.174587802592961278e-02 1.946994804621862696e-02 -1.375138813165661077e-02 -3.711746583731997950e-02 -3.835629489333181041e-02 3.906437362914846195e-02 1.040533463397687597e-01 -2.041412105672735147e-03 8.579717151492886884e-02 -1.941249325102354858e-02
-9.175381789948776345e-02 -9.841660621547104748e-02 6.523674253021784220e-02 6.806262335431242233e-03 -2.241298729130156153e-02 -6.134383819984662312e-02 1.384787092801355486e-02 2.661106261120786340e-02 -8.784081060596235502e-02 3.431647433224195576e-02 -8.621968409623848029e-02 4.162846261649014862e-02 -1.501006978757589774e-02 -7.188798269204652036e-02 -8.872798455924256478e-02 -2.355493042417536667e-03 1.521500478690775669e-03 5.959162580033069978e-02 -3.420866815483444845e-02 -4.398994474738886218e-02 6.878971135168253370e-02 5.956614984801784918e-02 8.407236414126131180e-03 2.929048245973126310e-02 2.717680666355441060e-02 5.080371012763564009e-02 -6.814462704247398195e-02 2.860456515774404893e-03 6.322595172963958732e-02 -9.416635708745575706e-02 -1.081933357513217286e-01 8.111084956505318355e-02 1.436993789355650759e-02 -2.114004879131392914e-02 1.034890744422124337e-01 -9.827344776945235588e-03 2.683595714625561582e-02 -7.364183536961939336e-02 -2.183730735737021700e-02 2.069800332546473109e-02 8.639207900281367647e-02 2.464420862556779279e-02 7.689348546974399123e-02 2.397372012361211752e-02 5.525040509973408454e-02 7.266385153854298951e-02 -8.385068556192082356e-02 5.277251965647027782e-02 3.845809043462301846e-02 -8.085358282921181750e-02 2.733226207659187473e-02 8.555016403615055276e-02 -7.108993404783785219e-02 1.019204538991831110e-01 6.757007472920302515e-02 -6.967675146419626854e-03 -4.209970823653177985e-02 -7.446114250213954622e-02 2.143959360451842475e-02 4.228303354540784847e-03 5.486849783111897444e-02 -2.518420872280187003e-02 -7.218391760472502028e-02 6.725228132466751219e-02 -8.020632172393456216e-02 -3.541729844629971230e-02 1.431748488362344189e-02 1.592945718212104844e-02 -3.616027326410364839e-02 -3.242948889841922033e-02 -6.985001184814035313e-02 -1.035687300445864434e-01 -7.113339028489780447e-02 3.752438617373125146e-02 9.353535382532648934e-02 4.454274084044179682e-02 8.669634182027425098e-03 -2.693977304269841444e-02 3.239067251907888634e-03 5.297627492350706624e-02 -6.365107257165004973e-02 -9.629099482008091071e-02 3.904415176877727017e-02 8.914077078292804990e-02 -1.464765194350445450e-02 -3.073159954109705091e-02 6.896893872498516265e-02 1.447333741450863159e-02 7.758354646186925441e-02 8.149005891276638047e-02 1.541868204241498772e-02 1.717928269437929076e-03 4.919991206968564457e-02 1.063221433491055301e-01 -9.861941995798996496e-02 -3.053482976342642222e-02 -4.875653171288647086e-02 4.942847928936788815e-04 3.471345358687158433e-02 2.960279793530640191e-02 5.498904447594409051e-02 4.455169579393213758e-02 -4.743382182347167381e-02 -2.453939430513939202e-02 6.892388687737938113e-02 6.264233814592969074e-02 -8.384984125292388457e-02 4.603500834080035548e-02 6.716685695580874860e-02 4.625435273536151332e-02 -7.201800995349752488e-02 3.769544644801137850e-02 -1.032718536557309524e-01 4.139931408990132899e-02 -2.506621872178323857e-02 -2.398303749953550716e-03 1.243543158527359721e-02 -4.160940098235107326e-02 -7.236634455824864087e-02 7.049086946669809797e-03 1.017511810435682562e-01 -1.308453669405039432e-02 -5.140992788051581414e-02 -5.503466404474004897e-02 -5.612014643428202276e-02 5.408229043227989058e-02 -1.196370816012242572e-02 -7.950863475063284225e-02 2.283294280264226706e-03 7.866351137439156482e-02 8.451459593151179617e-02 6.364216103032435679e-02 8.430128728956792772e-02 8.694064081111130271e-02 -4.031761267959647205e-02 2.648728370167166904e-02 -8.284455587257061326e-02 1.505183338311738908e-02 -4.620725257032613081e-02 -6.718109890060176836e-02 4.374277233163344214e-02 3.017887088198377421e-02 3.865845939125259895e-02 7.756817063021091696e-02 -5.774566479611269176e-02 -3.278547515777048560e-02 -5.114500401964368337e-02 8.040475016172203560e-02 -3.752131886113171944e-02 -4.222168555702279780e-02 5.092150036386056816e-02 -6.764787242417266699e-02 6.334066710387878385e-02 7.819148059740067824e-02 4.161547795972682373e-02 3.242856556776294030e-02 -6.469079287674488199e-02 -4.575404841770521619e-02 3.972122678624984832e-02 -8.693749341734947900e-02 6.776102355558769920e-03 7.887941696161343552e-02 -5.118000618829819659e-02 4.859834982198235620e-02 -9.234163502154023317e-02 -5.185080567317008199e-02 -7.106583366307910044e-02 3.599234612646416698e-02 -7.269282072246982009e-03 5.242283106188587449e-02 3.426071127334982119e-02 7.481561289804700143e-02 1.039060553215335157e-02 -6.022557826504666006e-02 3.338338824541945554e-02 5.317197591397508291e-03 -6.580923825886898781e-02 -2.359798690636718752e-02 2.252017299026606856e-02 -3.591460197147737683e-03 -9.768333949169615005e-02 -2.645685450465658575e-02 1.322047100459647004e-02 5.979562740181283698e-02 4.601475339434950990e-02 -1.872452015814533161e-02 2.137490213455755378e-02 4.805696101923549735e-02 -8.548450809062321451e-06 -1.171677085214567482e-03 -6.712481283959279010e-03 4.766974371272239552e-02 -8.077129724773972341e-02 2.179109910606796124e-02 3.649761491488356935e-02 6.046235943941957042e-02 -5.313527746979577332e-02 8.797258695189633104e-02 8.735112701769237598e-02 -5.105350785224672949e-02 -7.255650551753609068e-02 6.411086064771330528e-02 7.510068588437644743e-02 2.079333509820573828e-02 -7.306476978311909898e-02 -1.090694602050538801e-02 -3.269841700963165704e-02 -6.229143960100077398e-02 -4.203989640627024682e-02 -7.340012553168882847e-02 -1.787497563150027349e-02 -5.415867424109437056e-02 -4.373999082541971811e-02 7.164178461680469068e-02 2.766202862619733180e-02 -4.556043199688120798e-02 -8.928626168826005183e-02 8.673186596734376586e-03 8.637185419787814233e-02 -1.689383389762375703e-02 8.423070314084739330e-02 5.040430189076046397e-02 -1.825051763650008957e-03 4.234445085523725477e-02 1.350814920736965671e-02 -8.274864411338773984e-02 9.331826953694881410e-02 3.595100292357301247e-02 -6.814188077902422203e-02 -8.118178326014911794e-02 2.285432244600212395e-02 9.911907617384034530e-02 -7.168561512049907714e-02 -8.692321792222801324e-02 7.027234310662457129e-02 -4.440364807569320560e-02 -9.977796562380429612e-02 1.636944383305877909e-02 7.718250801615330822e-04 -9.524114638113724551e-02 4.815175947829851422e-02 4.825561162744278904e-02 9.278397509049533809e-02 -8.767544687204689713e-02 -1.017321291846115701e-02 5.970363027375810705e-02 4.363931313017530705e-02 5.369702470613656187e-02 -7.078743566921323616e-02 7.428289129111172173e-02 -9.978485743140760866e-02 -6.042082757115077585e-02 -5.838263387694862111e-02 -2.610763620494506096e-02 -1.795536437962424667e-02 5.243278594903654638e-02 -6.560551071819438473e-02 3.633513034034682732e-02 -5.991438198470103865e-02 -1.033540769817008070e-01 4.040587555645302337e-02 -4.752792600607501361e-02 -5.799245139811583932e-03 9.743115482116691817e-02 2.361212750940762384e-02 3.338081507195127164e-03 3.232592855410243438e-02 -1.713649106331757363e-02 -7.166764382216367357e-02 4.267249978625740209e-02 7.547715218684900029e-02 -6.150995550141501178e-02 2.983524458763899337e-02 -4.038725868362473548e-02 3.674101763486967154e-02 3.051914139139322996e-02 1.448753497659902197e-02 -1.037000438146642445e-01 8.342920065650274997e-02 -7.645395180948760805e-02 -4.517412449944362834e-02 -2.367826557071108298e-02 3.723710098312893457e-02 6.000288364315270982e-03 -6.617301405799018432e-02 1.161329593199016824e-02 4.518595845927924487e-02 9.468945870235360995e-02 -4.897003133285275644e-03 5.772490492542819984e-02 -6.676397275775151907e-02 -6.869624792134418345e-02 -8.856034054549365153e-02 5.072123973866504362e-04 9.980547895931758673e-02 4.457237899758641209e-02 -2.093049425324381221e-02 -9.068905096732272908e-02 -3.675225365368089275e-02 6.932615898426858214e-02
-7.031136695940440329e-02 9.187916113759671266e-02 1.007789153063867876e-01 -5.716459117080329583e-02 -7.098755186324708089e-02 8.125423965774493384e-02 -7.714143789397934214e-02 -2.477653750704694041e-02 -3.354729569839542264e-02 -5.076355024118258882e-04 1.147676681710350088e-01 -9.989812098564698761e-03 -5.025139047467430675e-02 -1.055108520722039117e-01 4.396051428425237773e-03 -6.294225752354803971e-02 6.749451696617305568e-04 4.499087050389446313e-02 -4.224496826839344715e-02 -1.199394995007961769e-03 9.494079096238355886e-02 -2.060823344504464708e-03 -9.171781365816411569e-02 3.132992880798386726e-02 5.316590021677596728e-02 -7.558386696683817851e-02 -5.058154075720514703e-02 2.417050071105991335e-02 -6.636531852188640168e-02 6.634776103772280220e-02 1.626670222541913569e-02 6.026137363411247783e-02 8.121303546613471702e-02 -8.352427355395686259e-02 4.829624755113783724e-02 4.512099054603103260e-02 2.296214279236331868e-02 5.814520617649588524e-02 5.149009900833863285e-02 -1.639261851540559090e-02 -1.469065486581544108e-02 -1.237225811980503659e-01 1.090440265907382730e-02 -2.893901856218110760e-02 8.857531994820548593e-02 -1.066326733802478860e-01 -1.608382067334476404e-02 9.509417322971813746e-02 -5.737212979074535202e-02 -6.771226550880013462e-02 -2.453596554736997386e-03 -1.125966123831040194e-01 9.526592331967065341e-02 -2.048670584076817472e-02 -8.563621076552774269e-02 2.325512914481598498e-02 -4.170785835406269626e-02 1.722964713399707803e-03 5.191795353936526705e-03 -7.126399220674341228e-02 -9.189388243795536260e-02 -7.012409771436844963e-02 5.319198432626374290e-02 -1.024467402239845754e-01 7.819818595817942808e-03 2.852721902594247683e-02 6.982292459091375691e-02 3.144857251215794208e-02 -6.804016495066061987e-02 8.864749876422273189e-02 -2.997755926754389760e-02 7.197735946291870801e-02 -3.889030700609224372e-02 2.056651831114245446e-02 -5.074178397618214070e-02 -2.364817470560373960e-02 2.439066715403392233e-02 6.366926067281195034e-02 4.998820132233171287e-02 -1.485441044028430399e-02 7.048866101583638188e-02 8.252166350061923561e-02 3.637147477628517589e-02 4.984572887049671525e-02 6.295797110967199517e-03 -3.742882594143354807e-02 -1.139116971734131876e-03 7.825588893710108684e-02 2.443769550605011040e-02 -5.050484350525359656e-02 2.984090754486004582e-02 2.683043080797650748e-02 -5.682240945909721591e-02 -3.791280090491816902e-03 -2.961609952563169432e-02 -1.696979375162478709e-02 9.380407948222048431e-02 5.625963975483183610e-02 9.989266445079919565e-02 -2.490429689275991398e-02 9.841430065550162143e-02 7.320305381052595595e-02 1.015290155354701615e-02 -2.111903217750673786e-02 9.027199624630552477e-02 1.817642144323183134e-02 1.115544838993047343e-03 -3.065042383705500126e-02 4.016842462250927275e-03 8.721135904231586827e-03 -4.365940216484546881e-03 4.473227547254128925e-03 -2.760603521168766838e-02 8.057124557393180453e-02 1.223321693752773198e-04 -1.062319764378494985e-02 2.449603835896081022e-02 -3.400519329291751269e-02 2.182918977934195093e-02 -1.581191787869661025e-02 -2.509128162101108631e-02 2.158495055826732331e-02 7.583439876627011411e-02 5.101877063497560830e-04 6.816743529921638622e-02 6.737477040546679952e-02 6.883640061475712613e-02 9.966647142810699384e-03 1.099056589230145570e-01 2.597463996614873469e-02 4.595568195818765939e-02 -8.318222986567551380e-02 -1.866651763921206575e-02 -4.053476598915500828e-02 4.813631641444759968e-02 -9.418870634415105192e-02 7.160562901607447905e-02 4.647997691039951196e-02 -9.714724231001957422e-02 4.312786521227430364e-02 1.258906971866607938e-01 -1.586203782418169408e-02 4.053853034699447799e-02 4.291148443545722557e-02 9.965100070508964292e-02 -2.563790483284977134e-02 -9.207484777718797503e-03 3.742225651334207120e-02 -4.939257745411787526e-02 1.009704985863589949e-01 -1.301791060044854738e-02 -8.737522105332351519e-02 -1.160743968964358420e-02 6.741610050392483899e-02 2.012983307885219189e-02 2.620161032939886253e-02 8.140257145624889279e-02 5.322641428124437468e-02 -4.216055342933232308e-02 3.189020329456241504e-02 -1.364049725365445477e-02 -9.150528743738055304e-03 -7.164473006305059621e-02 -8.708709486042191805e-02 5.177624361720180313e-02 3.724487544676567674e-02 7.176755939206833079e-02 4.993204621383047492e-02 -3.490422765952181511e-02 6.207235985321585270e-02 1.060755058918446125e-01 -2.605295905260188172e-02 -5.677250483595557701e-02 -4.605491996320720816e-02 6.472597059039970901e-02 -1.231784780704182555e-02 -9.840012710776968596e-02 7.338702266737434123e-03 7.725829695107468142e-02 4.941712711914460904e-02 5.171957948522296761e-02 5.518496422787132205e-02 -1.003160375433349849e-02 8.444538109614952229e-04 -1.992801863236140156e-02 -3.504140990972414577e-02 9.222591469368822403e-02 1.062929516929421170e-01 3.515817944567042278e-03 2.060725724319677210e-02 4.859962674228272134e-02 -5.656364248074331746e-02 1.173025254247270395e-02 -6.533229450884607548e-02 3.175265989389411403e-02 5.004415779929234642e-02 -5.706046503031145245e-02 5.513262509192727590e-02 9.447800119717540690e-03 8.229000027391612793e-02 -7.428790367430840313e-02 -6.540361636279973245e-02 4.736600619244569349e-02 3.956584563252828896e-03 -6.740808260188073386e-02 -5.785603069690911648e-02 -6.739496179790877006e-02 -3.730311417016501929e-02 -4.011591429861223468e-02 2.906982708555001793e-02 -3.670230298679319492e-02 3.244217903881612547e-02 3.408669014933486674e-02 9.586684972872633326e-02 -1.427577440784462588e-02 4.439783545998324255e-02 3.509861069122548801e-03 5.234371459687000433e-02 -6.594021439075267721e-02 4.126723372423213992e-02 6.679419958197173324e-02 3.528335603989198738e-02 -3.201860600185087863e-02 -1.234286931293134548e-01 2.953899791525647911e-02 1.709883988867422211e-02 -8.620572457948109946e-02 -1.283384284640212702e-03 5.490531046177239867e-03 -2.480500261488268604e-02 -1.768602452539407401e-03 8.801459986449422512e-02 8.411318504639063443e-02 -3.883875715600569600e-02 -7.918827104847570020e-02 -6.436782997626475100e-02 -8.427381394433437756e-02 9.204230463938473106e-02 9.879427172715865568e-02 -7.033194415531161814e-02 -1.003261443441239575e-01 -1.219504640242741536e-02 -1.005978704676697699e-01 8.796117151341942275e-02 2.303538989548901961e-02 5.721457512065853540e-02 -7.948563242710518506e-02 1.093547445647409938e-01 6.489293486371185138e-02 -4.601426106822300438e-02 -9.721810100797427523e-02 5.201657404515216965e-02 -5.997089699695645759e-02 -5.359107422434297024e-02 -2.789565606238390144e-03 -9.384947115519542971e-02 5.141247744235311230e-03 -6.109438259513166186e-02 -8.760546909769655055e-02 -7.095673798294578616e-02 8.976513160351765053e-02 -6.844074369012398407e-02 -2.598737440767527954e-02 3.767653229499541567e-02 2.062250013050277719e-02 -4.216393873828636063e-02 -3.189311840702631351e-02 2.878789581039824241e-02 -4.412440033824484298e-02 1.910248736939180710e-03 9.735992865037016580e-03 -7.277305107305269416e-02 -6.877843172672844230e-02 7.834723225739304020e-02 2.272785512167377689e-02 -1.085744695928317870e-02 -3.427077999878263420e-02 -4.860281528626638620e-02 -6.143715111234673842e-02 5.597069198027694592e-02 -4.091981105170777733e-02 3.959471990462765795e-02 -3.586981754289357560e-02 2.861534666747141131e-02 1.363449675751312283e-02 -4.324354009450539355e-02 -8.774200433894309425e-02 9.959871909869912054e-02 -8.567363780359550651e-02 -1.608031393692555683e-02 -8.091183039337504490e-02 2.167655523009212257e-02 -5.471649433129656577e-03 -1.420318522401490396e-02 4.334588167245130574e-02 -2.923262845994096734e-02 7.763593236728123792e-02 3.964218131785492844e-02 4.312702866260329816e-03 2.262162481764906467e-03
2.241149183982185308e-02 -1.689995897990699894e-02 1.016878267902917299e-01 4.900409812391155751e-02 2.659626922008146571e-02 -1.013585185651963566e-01 3.857086104800351578e-02 -4.391461727964230538e-02 -2.595920943322970950e-02 7.592359820908925472e-02 -7.771420325760362846e-02 -6.181442715663021392e-02 -9.832984933523787607e-02 2.109593087995886938e-03 -3.370742319688378036e-02 -7.831508597014597006e-02 4.106914853774005364e-02 4.246833784310505289e-02 2.673725004627270502e-02 6.880915661042827369e-02 6.978697337284923974e-02 5.784505903172788149e-02 2.605026304920480401e-02 -1.618211459639258207e-02 1.492761510985222799e-02 2.736514151307483864e-02 -6.244386218548116790e-02 -4.636520327207216408e-02 -3.599468886950699803e-02 -8.831563805145857537e-02 4.032913668606644131e-02 -3.768557071818534610e-02 -9.017354952449901928e-02 -1.065479822191867931e-01 -3.397511192219287296e-02 3.801130147039010615e-02 -3.453497944747827703e-02 1.936276773514427479e-02 -9.081219086055246359e-02 -5.181817709758991183e-03 -5.082218237653212539e-02 5.818645868613681743e-02 2.715283922647754832e-03 -4.355687968370532126e-02 6.896890716286310785e-02 9.221853898996754118e-02 -9.639967507908743516e-02 -3.139577864589002121e-02 -5.209005516054669022e-02 -1.067945954127841324e-02 -7.033495627147030860e-02 -2.711745315717346144e-02 6.064581484747865597e-02 -5.627541853740088834e-02 -4.304726258061075672e-02 3.370613309887671161e-02 -9.534955839134967581e-02 -2.952635473233149524e-02 -3.873267273968152014e-02 3.683537122797915508e-02 -6.931840108159985359e-02 -6.325489731896784262e-02 1.159603588499079699e-02 -5.793346925930705632e-02 -7.524048984049212796e-02 5.448693460996150567e-02 -5.068399803872824377e-02 7.921663260755375247e-02 4.559036078365723971e-02 -9.018362580207831686e-03 4.480269983208964163e-02 3.924441486371633980e-02 -1.019247357823721140e-01 7.042006182835711114e-02 5.788969990080048041e-03 1.371611820282836241e-03 -7.232656973134694856e-02 7.983180812793690129e-02 3.278977298852018738e-04 -5.859126698198211664e-02 4.458621904130058433e-02 -2.213229886646348246e-02 8.474341285332569196e-02 9.909818372918334506e-02 -7.966830840535062130e-02 7.586561780874722868e-03 -8.302012984355242389e-03 -3.133189585669121646e-02 5.393309652912976933e-03 7.442407410150843339e-02 -9.429871647548575264e-02 1.020668239661296772e-01 -4.644936222593670089e-02 9.249284274789799920e-02 -9.922591167297430126e-02 -4.093800754542678555e-02 7.562951969251308082e-02 8.129321614287951525e-02 -2.423429533517012721e-02 -1.007185099569165021e-01 2.268450566734443730e-02 4.492076609562122708e-02 4.455322330007208467e-03 -1.201701242542021000e-02 1.378463896902172407e-02 7.283754518637626518e-02 5.211078929626825063e-02 -1.927264635685431438e-02 3.825412855736889245e-02 -3.934507725555231455e-02 4.118071258837904119e-02 -1.053689533522127603e-01 -4.903108190573945979e-02 8.493844681302793742e-02 7.050336108612785535e-02 -1.933207953522557768e-02 9.340044776768273438e-03 8.279529247314916518e-02 1.576625330982987100e-02 -1.641017109953123512e-02 2.299671160296783146e-02 -3.883608930455974273e-02 -2.215425089868923794e-02 7.546675942008740368e-02 -4.779350793607722858e-02 1.099578609573498289e-02 1.369639720772554241e-02 4.880717917669556705e-02 -7.528123681287611502e-02 1.100167346289700459e-03 7.990286914844784219e-05 -6.762667075938792738e-02 -9.213215487452136587e-02 -2.822588697243991543e-02 -8.036645346394702405e-02 -2.619844736717659092e-02 6.449680925721781866e-02 6.155250703063001871e-02 2.486043956972788446e-02 -7.032195334023542965e-02 -1.970476721604235218e-02 6.536210758851930536e-02 5.070851871242455094e-02 5.291375967006263503e-02 -6.369253760626021610e-02 6.772544278396679107e-02 7.695078875235147886e-02 1.016226667291119240e-01 5.402876487966824098e-02 -6.996274623203338136e-03 -1.072828909700689060e-02 7.063817913015772720e-02 -3.013254586202167989e-02 -3.582940560826114451e-03 -9.048680372851405918e-02 -1.580278296030945828e-02 7.447551560766875467e-02 4.279132449798229987e-02 2.899430099546477721e-02 -8.743526331425699460e-02 -3.830181742703140518e-02 -2.369515465386856992e-02 -5.303428410594891729e-02 -3.260002913382958889e-02 1.406144224653576268e-02 -9.121667887892205562e-02 -9.701239764162916668e-02 -1.867944266612001428e-02 6.803984881473992830e-02 -2.968074064366001130e-02 1.648045873117440913e-02 8.648695880077821030e-02 -1.123008579655099815e-01 8.144660467619209421e-02 -5.391760050630704793e-02 9.337389248297804645e-02 -7.190758116245724030e-02 5.967305759582047786e-02 -7.131929863027378080e-02 -7.171694084724002105e-02 -2.115743237352677580e-02 1.733745399955060815e-02 7.664593260206960940e-03 -4.934902015542612375e-02 -1.056404450602453360e-01 5.578982303858188302e-02 -7.029466791799139636e-02 6.948333003403225905e-02 -4.717660409723458542e-02 -1.011963341256681970e-01 -4.037332982657505093e-02 -4.869278970035702259e-03 -2.727256974323446354e-02 9.518954660590445149e-02 -1.519707074312621510e-03 2.863630198287241482e-02 2.948247580217261410e-02 -6.032162751962225761e-02 1.224797059266763757e-02 -2.375564725353584289e-02 -2.216387259922378977e-02 -1.278525438193269187e-03 5.660735540292807094e-03 5.648783842821577389e-02 7.668291486934623868e-02 -6.134018724659846128e-02 -2.811301420191303357e-02 1.023732637571517050e-02 3.247758192006499484e-02 -2.029350504585592657e-02 7.013688013875614413e-02 -8.590205683284571347e-02 -7.385566099491354397e-02 -8.150959987159107911e-02 -2.966255849342194079e-02 9.051542061167038022e-02 7.287213311939351457e-02 1.133893945241719846e-02 -4.189062386392658488e-02 3.943025114362429251e-02 -6.167127512499639280e-02 -3.373079794404560544e-02 -7.714354532897923361e-03 -4.762516921393023135e-03 -3.893759384758868625e-02 -8.064088964443122398e-02 -8.872062248950625396e-02 -5.377213182855740403e-02 -3.103168465678719790e-02 -5.131499992683936223e-02 -1.075804389820753521e-01 -3.933641392525694808e-02 -8.210557480740940384e-02 -7.367322676910723067e-02 -5.697369585963490274e-02 -1.342863382388237090e-02 2.364165191015300815e-02 -5.110619110167974322e-02 5.723527265558724098e-02 2.750420815812932435e-02 -3.016716056042597835e-02 -1.874163867362220459e-02 -8.021635647826624860e-02 1.678215688820607759e-02 -1.950390278919398451e-02 -7.260584253023326384e-02 -1.996624089007219272e-02 1.249100526788335559e-02 -1.884160728046293740e-02 -8.570895782454490686e-02 -8.873051589723225663e-02 -7.457608613105361738e-03 -1.005977780574946433e-02 -3.734436673047285965e-02 -6.736514243597734042e-02 -5.191597099679609584e-02 7.234994246778456151e-02 -1.097720069035228868e-02 -6.636711062977034004e-02 7.035371529011207048e-02 3.455530354576261121e-02 4.770028408127460762e-02 -2.161499790294717574e-02 -4.072288753451262094e-02 -8.613522171365548680e-03 -4.882075344589988097e-02 1.031804793317964569e-01 -6.763701010515621448e-02 6.922388154770382773e-02 7.237167784000413107e-02 8.508576807048773630e-03 5.563735780621455185e-02 -6.518946032144969094e-02 -3.401360076689523282e-02 -8.234035570204548127e-02 -1.705548923281867066e-02 1.625251168613972910e-03 2.016361248027352671e-02 9.312508858143993262e-02 7.281160527508569180e-02 7.813477467204296700e-02 6.450180680049187598e-02 1.054070278185690046e-01 3.794376130531171287e-02 -8.730415792457822677e-02 1.612704934548312569e-02 1.020698308476785249e-01 -7.195285827188535599e-02 -9.767232892659922366e-03 -4.411936824737561214e-02 3.479136359300485232e-02 -1.085990620755845626e-01 -4.605267561387631908e-02 -2.230647753369138786e-02 -5.771639584492924829e-02 1.190715108747354006e-02 4.941680582685165773e-02 -8.444245267922230458e-02 -7.267323633352804069e-02 -9.107909492321468459e-02
-6.898120985792542681e-02 1.916722956912610826e-02 -9.778009465863329516e-03 -3.893440180027591541e-02 -6.454839210614288225e-02 4.681202511443641884e-02 9.442585948651284131e-03 5.195529223177768746e-02 -2.171671023195834854e-02 2.668596745645745311e-02 5.181640032501877435e-02 -8.205178639009799713e-02 9.737096477829747243e-02 -4.680277074589588721e-02 -5.083149736433136695e-02 -3.827871880188515874e-02 -2.708631363198305345e-02 -8.946977313749525373e-02 -8.026967141598560784e-02 8.131110643354848289e-02 7.301664441060314037e-02 -7.683897053272770172e-02 3.065748770509869534e-02 9.843980199852855884e-02 -1.985466576941102151e-02 -6.260349194205358514e-02 1.933116016359759728e-02 -4.690052572115149115e-02 -2.464712258963047166e-03 1.000500999452685891e-01 -9.059246443968374529e-02 8.668378809671081070e-03 -1.578507754013100048e-02 -4.214193389989827343e-02 -2.856033862421687372e-02 -6.190111716311837153e-02 -8.523277631573970836e-02 3.475852992241588568e-03 3.991571238542469119e-02 7.805336324686584781e-02 4.338589662907262751e-02 -2.227570871978686723e-02 -8.938574359853621032e-02 7.807283280431193129e-02 -1.390523557903997759e-02 -5.565101477607184433e-02 -3.797145940634526901e-02 8.380578503841490737e-03 7.091595353500847188e-02 -2.385804739682413633e-02 -7.011080265314320603e-02 1.020130212046568147e-01 5.232284410438040045e-02 8.335909790133376462e-02 7.804282079205909772e-02 -1.596832936028369856e-02 -3.672991461608812735e-02 2.557307051212822507e-02 -6.038075618826323904e-02 -9.700539677459617260e-03 -5.773389521460740165e-02 -4.097161058936610312e-02 -2.998716926363778276e-02 -2.774137242162346556e-02 -3.251488649971474854e-02 5.235526991226522459e-02 -5.105082829815724144e-02 1.851712721516687518e-02 -7.262106461273568070e-02 1.644533822356196787e-02 5.007159445139425236e-02 2.036216584871131802e-02 -5.798569137390326145e-02 -1.064948601999128747e-01 9.266120540090835855e-02 -2.329387258301633158e-03 -8.876039433890245411e-03 -5.446141928052566916e-02 -3.617905691103633775e-02 1.777180245242770268e-02 -5.111075967467019338e-03 7.695959036587769753e-03 -5.229960715103326718e-02 6.412476009765476215e-02 -8.869875086152098631e-02 -3.932193933382237272e-02 1.284291008866965227e-03 -3.940007886543105825e-02 7.782505639800119460e-03 -4.789326171342777466e-02 -5.218758831599415449e-02 -4.532187101252260937e-03 -9.336892672164566476e-02 1.527954597125640718e-02 2.366337962595583579e-03 -2.140076602927643012e-02 -9.251332601586904902e-02 -6.351359588818994428e-02 -4.728742396837799788e-02 -9.385026391351246333e-02 -1.868564316202557052e-03 5.085088654153670923e-02 -1.379586636784483830e-02 -3.965906001472420395e-02 2.899035853967777202e-02 -2.989545741519340077e-02 -3.738613561339573094e-02 -6.582836495067212468e-02 5.532844280974655304e-02 -1.015578382479644937e-01 -3.995250491792662340e-02 6.137154350519719026e-02 1.172792305873875396e-01 -2.764598248169006928e-02 -6.584681061939441638e-02 -4.364569277622550730e-02 -7.975051726681395281e-02 -7.367020515654729151e-04 8.938190285318689532e-02 1.007544411376014165e-01 -5.819153058495131481e-02 -5.745320443711070431e-04 -4.659678641270223118e-03 -4.894555725379224481e-02 -9.452019356901396330e-02 -2.634798704143980971e-02 5.477661255193440326e-02 -5.852415217173115997e-02 -8.068366116304634406e-02 1.501808471092913252e-02 -7.144615275087913553e-02 9.287055101034813465e-02 -1.859352206133626367e-02 -4.481932990065768188e-03 1.550579097795436699e-02 -7.357643762949905852e-02 8.452986078310704976e-02 -2.151763269314946672e-02 5.503794764152035446e-02 9.809237031284681607e-02 -7.817915442200047346e-03 7.045135227450530224e-02 -1.800607324987751542e-02 -4.322343931191811872e-02 -9.058245470556340606e-02 -9.764083839131730905e-03 -2.309314894897098944e-02 7.913572746496382038e-02 -2.047687993457323122e-02 -6.251715390543949313e-02 4.850972234358930796e-02 6.020590521100613324e-02 -1.955086798941471637e-02 -2.699829357661175794e-02 -3.070332355086731815e-02 7.637026072848078495e-02 8.543225924817901551e-02 5.500688279506772867e-03 -8.113785277943857260e-03 -9.484206206977079112e-02 -3.974559526488794653e-02 -5.773416776977241538e-02 -6.570001893335739029e-02 -1.287649656612575855e-02 -3.116397969833085979e-02 -1.027252185311660071e-01 5.540988398052242025e-02 -3.636461154387025940e-02 -7.520230571880048842e-02 9.344258931620617881e-02 8.605573093201102086e-02 -7.979599412546768689e-02 3.086642578899394251e-02 3.938959240216267921e-02 7.635873630050497851e-02 8.667535653106935023e-02 -7.681991450827019285e-02 -9.253096248830951220e-02 3.328329571962858335e-02 -5.847942352617065132e-02 -1.896328590556438376e-02 -3.513571310142182824e-02 3.468793384598101159e-02 1.296065939103286171e-02 8.772209761284799345e-02 8.180928067070135368e-02 -6.282573200834683236e-02 3.487272151415517912e-02 8.400319044877707642e-02 4.680529884437297644e-02 5.281732510996088245e-04 1.026394310365159358e-02 -4.275541775299875058e-02 3.732177041904293641e-02 -1.088224016749430451e-02 8.557908093642757619e-02 6.954819138869507145e-02 -7.507419372815889169e-02 3.661009853043603601e-02 7.806080595570062675e-02 1.089212083160383954e-01 -1.399580990721478735e-02 6.140920006742346671e-02 -6.659251935506413367e-02 7.144275071882258410e-02 4.026212542202507738e-02 -1.951479828432872710e-02 -3.373431912871793781e-02 -3.226981304933967259e-02 -2.254716015953149230e-02 6.821051029795828502e-02 5.827154667420312434e-02 -7.190149252420070802e-02 -1.050096827360951467e-02 -8.978771487239360638e-02 -9.328937568861819796e-02 -9.192003963227921015e-02 -1.122579470243420009e-02 5.518673736498252991e-02 -8.575660998555702241e-02 -1.484194193456757349e-02 6.188429370215617342e-02 5.102980565787416239e-02 -7.188278871258012293e-02 -7.105000144407000451e-02 9.787581595758548803e-02 1.008815792823633400e-01 2.779598101626685330e-02 9.497006444337795228e-02 9.559745523002639855e-02 -6.818077451923734711e-02 8.179737533078658418e-02 -6.104985573754207612e-02 3.926543477591953879e-02 -2.149390306595522562e-02 3.271678044793314977e-03 -1.514633804145331525e-02 1.083298541899812423e-02 3.201259645259847686e-02 1.801258508413836751e-02 2.147606449895225061e-02 -1.030127225253700401e-01 3.145220304581301113e-02 -4.263434509980770781e-02 -8.495170306554193640e-02 -4.228599248324295401e-02 -5.579066870697777653e-02 -3.212445670436304274e-02 -5.309883903016132667e-02 -2.183780822669977029e-02 -3.239454372460229270e-02 1.507820787075275087e-02 7.993814193387714651e-02 5.099634346998611206e-02 7.426815101625584836e-02 -7.274884921965889262e-02 7.086209232103700406e-02 -6.537114178396741249e-02 3.508175970665756288e-02 -4.412758638144316514e-02 2.472821173181973670e-02 -4.706054197500426917e-03 -5.942853645609961349e-02 6.760482334210964062e-02 -3.885481170806423523e-02 1.644892526836294611e-02 -8.242137727352075172e-02 3.899347360721285710e-02 -5.600335626291985669e-02 6.498044485868893771e-02 5.448437137174200889e-02 3.328261394906317089e-02 3.084492118973219260e-02 -7.147767058924344753e-03 -7.388980639088305047e-02 7.826637742432557276e-02 8.881822888638708779e-02 7.868502560246740107e-02 5.441542420049588075e-02 6.406068858226257601e-02 -8.670550019213360549e-02 2.825009812930274339e-02 2.099540616860407632e-02 4.286145285046951553e-02 -2.230030422595036255e-02 -4.337630335299645645e-02 -6.779480842875687530e-02 2.497391007610431923e-02 -5.897292215042633512e-02 -6.812983310869552556e-02 8.334703567285661752e-02 -6.129864805897752150e-02 -8.530089101475535340e-02 -3.564457680193858224e-02 -5.025717022510831078e-02 -6.036023548374859493e-02 -2.639169800978475103e-02 9.181826633587722442e-02 1.347640103107313435e-02 -7.077222065621449620e-02
-1.411837247776403495e-04 8.249467718749574352e-02 1.029881226348371842e-01 1.847674908595802867e-03 -8.137901315545305325e-02 -1.096585400125380944e-01 6.525910155023638415e-02 -5.292277973512435341e-02 4.810888744484991680e-02 -8.793570651120585779e-02 -2.303124638050228074e-02 7.366474220501170733e-02 -1.967642194091360000e-02 -1.071251183285510389e-01 2.259776574218678308e-02 -5.615641243416149425e-02 6.527200533471821942e-02 2.275258858043290033e-02 5.385787245990170113e-02 -2.441102311780679948e-03 6.464147273992176812e-02 4.484122002196590240e-02 -6.486194528056801745e-02 7.286892156613117288e-02 -4.919587781400701354e-02 -8.707740474942930742e-02 -5.591669015920574387e-02 7.942925778911352069e-03 -5.948285297236077102e-02 -1.218065299873533625e-01 8.517569339176064847e-02 5.870126137404135108e-02 7.938882253050864868e-02 -5.002523428557145713e-02 3.248021065018192460e-02 -8.540458977151657582e-02 -2.104496507612819631e-02 5.818704068898816750e-02 -2.051782539634793706e-02 -1.657497273194179568e-02 3.527526697150140667e-02 -5.153166128866671497e-02 1.221586931878901605e-01 8.053940743488535378e-03 5.258068462924401359e-02 -6.978597860972572675e-02 -5.472368929402515042e-03 9.656764439346848805e-03 1.777202506983419084e-02 1.478177414007155084e-02 -6.194987733696926541e-02 -8.602801821630147450e-02 3.537528230249927658e-02 -8.026829912590489891e-02 9.938004045712020562e-02 5.530814336494533495e-02 8.859965578887402105e-02 1.278392392311837947e-02 4.071877652857974761e-02 6.266217512395030886e-02 1.176082035274765014e-01 -8.863548342352546572e-02 3.067291746730383892e-02 1.062591577299598355e-01 6.349061148017960676e-02 -5.123688953363980669e-02 -6.247779094376475217e-02 -3.404262467838517492e-02 2.336480755642427257e-02 -4.562935490076092809e-02 -7.925610798567572779e-02 -1.206482231055415813e-02 1.450643851402356327e-02 3.753007204243026529e-02 -1.897695655036433018e-02 -8.772333907198533176e-02 6.757102971604496411e-02 -4.117400869003098873e-02 5.879772182056177549e-02 7.259628327718324614e-02 3.039142331203570704e-02 6.312788880028110880e-03 -8.439829690700850762e-02 5.380754407119242577e-02 -5.262969780656636537e-02 5.907112768510047740e-02 4.007400636191734561e-02 -5.379513660936817432e-02 8.802757439299493947e-02 9.112873153032179097e-02 3.049607666773772666e-02 1.095603073876629252e-01 4.058483573069516376e-02 8.636175727944419428e-03 -6.681547943517771211e-03 -3.198267710008310949e-02 3.962919652624772443e-02 1.050836080000109030e-01 -8.998629615636348500e-02 2.871544887158936424e-02 6.229190282741337015e-02 7.270041074456061458e-02 -1.218325936864930910e-02 4.277605476945509078e-02 -7.592815644525513497e-02 -3.700347700160857428e-02 4.815087111200808817e-02 -9.023354561056863218e-03 -5.562239471519135614e-02 -9.543698296004531068e-02 8.554751608924381079e-02 8.156895324488849797e-02 7.343700471724330658e-02 -4.023496139522762804e-02 2.380303925628535211e-02 3.420322839022205130e-02 -4.740416312215013639e-02 7.468568679628732714e-03 1.447914523753590643e-02 3.952779913596702471e-02 6.032158212304124245e-02 -2.546379253311845114e-02 -2.425901747079199297e-02 5.999309977361521468e-02 2.863639141229074037e-02 2.470958588544606375e-03 -5.805477016418558039e-02 9.392522888211149099e-03 -1.009767739422378074e-01 7.557605939671833408e-04 -3.769562279509533487e-02 1.036152131036801455e-01 9.733204511376446905e-03 -2.469266942830633180e-02 7.494287617003243807e-02 -7.649798419110483139e-02 -1.899791566547230984e-02 7.060006461216075668e-02 3.785508449635252570e-02 7.505320387700797902e-02 2.692830619055834249e-02 6.796083947196178421e-02 1.112411477381219371e-01 -6.406227422863594589e-02 -1.507929759534078207e-02 3.209102015892356663e-02 -5.094755948067968693e-02 -4.021937644601221440e-02 -8.052977195004683286e-02 -6.912824716895304977e-03 8.428709799305141026e-02 -1.437309006770419624e-02 -2.248965180601060487e-03 -2.089043395468629868e-02 -1.926285354577802686e-02 -5.843627824268935594e-02 2.353837225698979588e-02 1.700968882814007238e-02 -1.317831634004754809e-02 -1.836733606901385513e-02 -8.092509953424789626e-02 -6.370291330328922697e-02 6.145960900784047838e-03 -6.002376018784931488e-02 7.047461068932155126e-02 3.045675288279266202e-02 -5.863717812476860330e-02 8.214303644134277049e-02 4.002457076824136872e-02 -8.137815572070446202e-02 -8.800474744701390628e-02 -2.364981712640347455e-02 9.069852447357160119e-02 -1.564432849024695316e-02 -3.419400931263574112e-02 -6.866799083584901320e-02 -6.347735631321353711e-02 -3.829676560849967770e-02 -8.184289659107993331e-02 4.887813251358569949e-02 3.062165658492104967e-02 2.119064322053490837e-02 -1.753215715415315859e-02 -5.908588013514986387e-02 5.949662433314607812e-02 -4.435396746858159128e-02 1.956846805209143045e-02 2.236948538236576550e-02 1.882185054767853208e-02 8.357945881163431068e-02 5.307264051014747713e-02 9.247748606060295085e-02 -5.961500191196723170e-02 -4.561924972654768373e-02 9.151647909504491201e-04 5.831347429522273397e-03 9.059237414783852249e-02 -6.322224711563542709e-02 -2.929670157001183772e-02 -9.695455895515197112e-03 -3.801237280598169371e-02 -8.752781903891196369e-02 1.077821366670334291e-01 -8.461721349031293971e-02 -9.256263845586631955e-02 -7.832413501049206861e-02 -1.228630643447915912e-03 -6.273889534815962898e-02 2.805167486197014323e-02 -5.194787205219848769e-02 -5.128772065387649653e-02 1.229710388771641447e-02 -1.044709394203554263e-02 8.891036658417346417e-02 3.240331047534588532e-02 2.433091697663649147e-03 -7.709753466019876600e-02 4.860072152782654586e-02 -7.193924221997816115e-02 7.458550833682051073e-02 1.127092023852384328e-02 -6.403283510136210943e-02 2.827808476504754115e-02 -3.255391234596477501e-02 9.364640136184093980e-03 5.162008395100829011e-02 -2.141266247257764266e-02 -3.635104641870951642e-02 8.046688046226271873e-02 -4.977895957828428614e-02 8.056671220034446190e-02 -6.848963084046405525e-02 -8.058721519566351688e-02 2.625815404950866336e-02 1.364171652233588800e-02 -3.137853672814678446e-02 -2.502493239582231910e-02 -7.171108059944227009e-02 -4.961761024792397945e-02 2.471245195125166758e-02 6.106056493407586300e-02 -3.638947380544470950e-03 4.237440812401232354e-02 8.913795331877221416e-04 1.141427686729166134e-02 -7.085070604182544529e-02 3.231283558706157018e-03 -9.779650868248675188e-02 8.056918040495121558e-02 -1.426466890763444101e-02 6.129950120543235098e-02 4.740556824463421082e-02 -4.585821159438802780e-02 -3.375345696401935158e-02 4.239889990484826954e-02 -4.420779944161932346e-02 -9.555639313183802996e-02 -1.212916666372652538e-02 7.444046313709445917e-02 9.257515654122942805e-02 -3.798812414422600425e-02 3.986055564202088675e-02 -1.134500455238689753e-01 -2.116131108292984911e-02 -2.972236345647159134e-02 2.064611709136454643e-02 6.575873406411614740e-03 -6.394745479786093090e-02 -1.179008437854379629e-02 8.467665171470663277e-02 2.858237416844873827e-02 1.091770657242306999e-02 5.819570756047225818e-02 5.395702790354441059e-02 -5.412133973375238272e-02 9.744530704224438344e-02 6.886895512572731304e-02 1.089183014567195462e-01 3.995047538336957138e-02 9.585830287754212864e-03 2.908308445132927120e-02 4.749142715595749270e-02 -4.216822023644474504e-02 8.508552317838422030e-02 -7.361602778544211467e-02 -9.300252565991835169e-03 -6.268909444967284139e-02 1.239466831241591536e-02 3.752886476651331321e-02 3.177517990920247087e-02 3.957803199027595809e-02 -2.290824648305463812e-02 3.593049383329761925e-02 -1.538441315725411034e-02 8.282417567645725121e-02 7.694289331658596409e-02 -6.185327948857775177e-02 -6.951265073225341984e-02 1.680589287549386079e-02 1.059996197484185110e-01
