-5.500884664598215679e-02 -6.215922345062875609e-02 9.373757925469190788e-02 -6.418515231739097167e-03 2.990610448088943177e-02 -5.732983036941772387e-02 3.883419575522348288e-02 3.444978319091589192e-02 7.961047068235864443e-02 7.514098783560428652e-02 -2.539123723102000227e-02 7.823509915982365670e-02 8.216945519379766083e-02 -6.088741699708200700e-02 -7.364730308507497214e-02 6.653957425914473756e-02 -2.100092379601953968e-02 1.196389681195058653e-02 9.516741132113869239e-02 -4.551590247478596446e-02 -3.968038127361201567e-02 3.555873863633508825e-02 9.591145487601170083e-02 4.521095946193738613e-02 8.645497533062036777e-02 -8.266024779595001690e-03 7.736270242640014283e-02 -6.318928003462140341e-02 -6.756529706065697582e-02 2.422511441509747621e-02 9.327440779392152589e-03 -4.012884918707688292e-02 7.598553595753894385e-02 -4.683900825610568669e-02 -2.969346148768533741e-02 -2.196716206510295616e-02 -7.350680252832954287e-02 2.831065128864283797e-02 -9.168817560439027070e-02 -9.369145108712394199e-02 -3.220777754441458279e-02 -5.651735166055936455e-02 -2.809161610788886779e-02 4.152789935869037607e-02 -4.055984032516777443e-02 6.551426745297485310e-02 -7.542967344101415839e-02 -2.315425139368311111e-02 2.051656619412755775e-02 -1.682477173047657515e-03 -4.613751979012804122e-03 6.072059283084181580e-02 6.089813449696974967e-02 6.231009626612307034e-02 -2.619810174660580984e-02 1.511687664845590660e-02 -3.963403551378376355e-02 -1.610555527278199200e-02 -3.331174373256176602e-02 4.378658862441996841e-02 7.333359658741635256e-02 -2.336988053148181949e-02 4.795910606292436151e-02 -6.473692673083931114e-03 -4.671281109162420814e-02 4.449229994301662217e-02 6.629353690582880966e-03 -4.477388934607579377e-03 -3.014827837898250915e-02 -1.955688371040216478e-02 -7.319229174121752446e-02 1.477507907300281385e-02 2.374654457241274705e-02 1.861224495327425468e-02 1.105752871055501636e-02 8.077106502865635806e-02 -9.229839383778544459e-02 8.762424084718779815e-02 6.765826339161051806e-02 9.258600945467561349e-02 -9.136805536495144764e-02 5.933744539495976189e-02 -9.519074313606894211e-02 -1.175074477560601217e-02 -1.759717364474107718e-02 5.096685950579581820e-02 -8.803656827768444049e-02 2.380469634555615159e-03 7.593968760961691822e-02 -6.468139889275195675e-02 -3.104443165875287944e-02 -2.770984691697778168e-02 9.204844017206682827e-02 7.337438720773817313e-02 4.895734346291927275e-02 -3.389610912848840113e-02 7.660802267672985055e-02 -6.984815150072415380e-02 2.894289894331060833e-02 -7.097337040606235825e-02 9.365944440314126485e-03 -7.957850143788025576e-02 2.911540395274215404e-02 -4.462694166449433786e-03 -2.593051686340499054e-02 -8.413210644885654732e-02 -3.208707868031131921e-02 -2.669593278202052333e-02 -4.929080936144882019e-02 9.651413994558739884e-02 -7.925173412784704274e-02 -1.238425949798637989e-03 -1.727786622402499150e-03 -1.718405695259947810e-02 -7.553403439031824984e-02 -9.273419486952579061e-02 1.865636186389339410e-02 3.015740434843182730e-02 3.905155162749112362e-03 7.381633689217338701e-02 -2.661716808478356913e-02 7.531981363888075320e-02 3.623921505999428555e-02 2.782986605724227167e-03 -3.464636333081407699e-02 7.535964554443082275e-02 -6.655807656026734020e-02 -5.495267019545451576e-02 -4.964548319969142032e-02 -8.345702229651898174e-02 4.322436718159495227e-03 6.378062055883138015e-02 2.221037781645619075e-02 -1.624516893553231561e-02 -4.373241509315391184e-02 7.368241862484328081e-03 1.479287875092144197e-02 -8.148786366058861919e-02 1.534705540795145741e-02 5.879209579215894516e-02 7.160443259456135412e-02 -7.207807517052107482e-02 -2.800581903327628921e-02 -4.150231081208768935e-02 5.382226332323025025e-02 3.134075249283892195e-02 6.969670036882309738e-02 1.672223594691008008e-02 1.344837912137487358e-02 -1.268626578329369765e-03 2.975920016532358769e-02 5.622613764229277000e-02 9.271854046753186251e-02 6.014984319983731481e-02 -9.332325088556366055e-02 -3.205185773622488965e-02 -5.544432933997251595e-02 8.468333273155288082e-03 2.222386862537531829e-02 -1.782082499114391594e-02 6.487387267554138408e-03 -8.047331094700221898e-02 -2.512020567105692492e-02 4.930350547070794925e-02 -7.663171318152827739e-03 3.364659947475834301e-02 4.658373277006869900e-02 1.164503039256275033e-02 4.135265205959160612e-02 -6.810909453055515039e-02 -4.785392502037484619e-02 -7.718524777874989640e-02 8.275157916028570704e-02 -8.833733653414505005e-02 2.222492472820458004e-02 5.466884430778166243e-02 -5.801444045627286022e-02 -3.861266119318669532e-02 -9.292420757747013593e-02 8.969602719056209150e-02 1.889835825167196851e-02 -8.649300138225271550e-02 3.691292251892179521e-02 -4.687682626754505200e-02 -6.082507182914383137e-02 8.392226597807135591e-02 -2.397451527120705514e-02 8.328388147119127061e-02 -7.539246963397394641e-02 8.593796851552740201e-02 -7.642573334880539693e-02 -9.299127252888844675e-02 4.469552074507977812e-02 4.716142444707737205e-03 -1.662348968646135431e-03 -9.332022219907308569e-02 9.202530802447657365e-02 -1.890867450661302962e-02 3.633883986546786182e-02 -7.062090954726307768e-02 -6.641325544302693895e-02 9.324993103683688542e-03 7.695819434884383636e-02 4.521381159984737795e-03 -6.630105105418099276e-02 -7.974885923394614551e-02 4.863288413496451995e-02 -5.981604893391351263e-02 -1.438652082997196428e-02 -8.849432682165890574e-02 -7.326880392149906496e-02 -4.596779709634188707e-03 4.800096060480225219e-02 -8.523592509985584986e-02 -2.614361080621823222e-02 -9.462220175765856389e-02 -6.818854871375429338e-02 1.097986152170338237e-02 5.993350613695970497e-02 9.692060481552521034e-02 4.349990078086291012e-02 -2.641899177838697571e-02 -4.667557094851411403e-02 8.797523997908984761e-02 5.171331756679327374e-02 -7.216251800607714761e-02 -7.585743630613928090e-02 7.058733265121419631e-02 5.791390960176853731e-02 2.094506208014921406e-02 -4.238653729359245781e-02 8.157348472855480148e-02 8.142018120442451323e-02 7.736988171482234167e-02 8.266935336131224499e-02 9.660302127410053119e-02 1.806879261502431638e-02 -5.723537704784553010e-02 4.688515509371653928e-02 7.421638549133270646e-02 -5.076175653552946615e-02 -5.267920014669762174e-02 -9.377311401562751780e-02 -9.944227745653386186e-03 3.680079129665361770e-02 2.900114282148504724e-03 -6.058084303541204363e-02 6.322851891428997451e-02 -2.886458788285886992e-02 -9.438021503502579124e-02 -6.793233668304518580e-02 3.784261498897569659e-02 5.188360488122454282e-03 -2.593126303889382867e-02 7.260250157498061852e-02 2.644805927000658252e-02 1.017314993434085060e-02 -3.045358939110133153e-02 -8.793093917122997427e-04 3.481013384335324840e-02 -9.250389977899931004e-02 -4.050711490611638710e-02 4.608525519920122354e-02 -2.447529771892908296e-02 6.539516906684532394e-02 7.557553783583485785e-02 6.836609275490015958e-02 5.491437262401272640e-02 2.566177892207230360e-02 7.920530453914344238e-02 7.023216729020546889e-02 -8.685156908964282441e-02 -5.055001467475023214e-02 -8.492851952420674144e-02 -3.948520995640331967e-03 -6.369456789632543803e-02 -7.096395993099270660e-02 -9.712064739445804007e-02 -5.486019450802137598e-02 -8.522614208944243042e-02 8.989849504418932769e-02 -8.967788280542514368e-02 1.393243388937108647e-02 -1.734465252959108139e-02 -9.171376818255197461e-02 -2.133198004641852219e-02 -5.141161634372317518e-02 4.956340614034865366e-02 -9.114563411109703750e-02 8.312215566061507965e-02 -8.496501041491748285e-02 -3.265890830987368959e-02 -8.074195653427240771e-02 -1.833028683493932720e-02 5.108102031617312716e-02 3.720556329442947178e-03 7.277483704587560387e-02 1.069285759111416982e-02 6.783217332244866060e-02 8.286244878716374218e-02
8.915038247136269911e-02 -1.676771070409607128e-02 4.124327027058012629e-02 8.942085169855056026e-02 -5.828044815840926346e-02 1.364624093196204271e-02 -7.844841323557927293e-02 7.349606768414959634e-02 4.872381387676731623e-02 -6.052943496665658119e-05 7.097026603465865502e-02 -9.778681111732226428e-02 3.099680020589877169e-02 -8.468342659598530886e-02 2.615465383773431587e-02 8.161990181636892550e-02 8.587081941800693563e-02 -9.423945555835525068e-02 -9.482649274643567550e-02 1.845015974649057491e-02 4.560432647507708243e-02 -6.422873389733055327e-02 -3.226356058379628057e-03 6.983900716832316946e-02 -4.556619249119561038e-02 7.452295867290581639e-03 -2.103743542162470753e-02 1.964922171174425525e-02 -3.829766439131127020e-02 7.209090999380467213e-02 -2.941466258612216236e-02 3.648103317380194804e-02 -9.093084005638951695e-02 -5.852432054084342333e-02 -3.898118796349841347e-02 -1.408572396681207275e-02 3.100508408407236932e-02 8.667607865977777770e-02 1.767443925860978649e-02 -6.126449778633774601e-02 -3.330188864366633028e-02 -2.256664041760869308e-02 -4.015618627067826796e-02 7.059500877750340964e-02 5.121898011802095488e-03 -9.359507715180802323e-02 6.947193047597999271e-02 2.848362540131831738e-02 -5.916945600500068264e-02 -7.768064490509378472e-02 1.055890062911592729e-02 -8.020640167201645299e-02 7.800855450004245961e-02 7.186356076523892078e-02 -1.758624249265955397e-02 -4.982434410540297759e-02 5.399206742481925392e-02 -3.118447152221120143e-03 7.228631589521390677e-02 -7.256032448520771672e-02 3.367878533650893805e-03 7.458669546993165755e-02 -8.455553291636956625e-02 -8.837375361098522009e-02 8.018760647022585286e-02 -8.888038850923950240e-02 9.250572712845010759e-02 -8.968259273201705309e-03 -1.932542171819090146e-02 -8.596413765248395178e-02 2.981645230083932591e-02 -6.886415459336646394e-02 8.813955391457291288e-02 2.350427896381853884e-02 -5.168931704298933283e-03 -1.149794427570414480e-02 -5.370639365278147975e-02 7.067614651981399265e-03 -2.587770211702521920e-03 -8.806557790835324584e-02 3.231644324367798082e-02 -9.209060038530969550e-02 7.440373104030126306e-02 9.041188301116814818e-02 3.824338498806588438e-02 -7.838858950780600021e-02 9.653391943405609243e-02 -7.405786141133233191e-02 4.881517072220987324e-02 3.193632822898628820e-02 7.864256480248256465e-02 5.519352295151696425e-02 -1.684354825903777719e-02 3.113715585896820875e-02 -9.703557520880863596e-02 -3.292971087344217368e-02 6.496196429853585974e-02 1.347657241747559492e-02 -7.732168777603283527e-02 -7.863921273741408813e-02 -9.592122102225948688e-02 -7.817706128499604668e-02 -9.844437779154273371e-02 -4.442558422474888330e-02 1.021194632231218341e-02 2.352730091181677585e-02 -2.528484126722735370e-02 5.633811374771086761e-02 9.141255564099874664e-02 4.339360605832545681e-02 9.254298310023850727e-02 4.054988779797887022e-02 -2.724390628180298896e-02 -9.606612391807653473e-02 -9.330440378322184258e-02 -5.715426312864073377e-02 5.518476576721230431e-02 4.055858858457032923e-02 -2.040200587173418914e-02 9.240989930292967114e-02 6.935857285875819678e-02 6.374309930883005626e-02 3.345058027507235437e-02 4.730131047093776714e-02 -2.012651893994759841e-02 6.273168303730991546e-02 -1.272442459688133409e-02 3.200528014623688772e-02 7.913717696702435994e-03 7.969942845546432175e-02 5.514556106853278281e-03 -4.317723202624290657e-02 -1.431405103650306571e-02 3.722053783542220162e-02 -7.043194001587756159e-02 -7.293284218069451263e-02 -7.767759570878488007e-02 -8.980868826662437299e-02 -5.363747772781526924e-02 -3.035487122088208548e-02 6.774582232798052883e-02 -7.624389826984233343e-02 -3.158649930971418190e-02 8.153007120206966218e-02 -1.700719792508223471e-02 -7.481796716524148627e-02 1.038955371125574109e-03 -1.270557414690744007e-02 -8.883043042440237624e-02 -4.599766137815432254e-02 5.422120176350937043e-02 2.737301025878058347e-02 5.272063320079312110e-02 -7.445458943316682343e-02 -3.810229801991564524e-02 2.578898088042489919e-02 -2.175194650037909003e-02 2.039762951688838324e-02 6.943459978421917533e-02 3.249324782859830396e-02 -3.637233115038730064e-02 8.535959478626393981e-02 -8.637757387267135101e-02 -5.877798848469018012e-02 3.030585057634776341e-02 6.348979116665552647e-02 -4.611589240124364802e-02 8.708158691817710628e-02 -1.426700994095480776e-03 1.761408917729985132e-02 4.165049483074141634e-02 5.001750525944456682e-02 -8.884511361988897682e-02 2.204948755690597922e-02 1.607649738826394869e-03 3.239022413148633789e-02 7.130973523802010272e-02 4.193020630275273719e-02 -8.597437095696351672e-02 5.567362304589303090e-02 4.697814263276149649e-02 -4.415332027778384738e-02 -9.737391479692835555e-03 4.019782291499471652e-03 -1.556685122859963882e-02 8.456157464809525848e-02 3.746304237648919594e-02 -1.001714155050028171e-01 6.575752312532946731e-02 -9.816049015101876996e-02 1.417844238223501044e-02 -6.486073475095223417e-02 1.457328052097272252e-02 -1.722234103776088335e-02 -7.929888168252310909e-02 8.494607055393857409e-02 3.173728917251875808e-02 -6.542091849611750623e-04 -7.473907599577517269e-02 1.934762958294108937e-02 1.288091915615325114e-02 -3.853143060983318068e-03 -9.908407408024014207e-02 4.603312142386440514e-02 3.081601081826285116e-02 -5.660288633413620291e-02 -6.109443505458861390e-03 -5.452313082583612469e-02 8.607545286932513640e-02 -4.777797610630606095e-02 3.708173432421105371e-03 4.081335085072006902e-02 -7.759913893526571016e-02 -7.601941616204191919e-03 -5.929630136312739191e-02 -8.259745157266017157e-02 -3.003120741985207745e-02 4.493737618064314737e-02 8.669564835048115814e-02 6.965459634454075621e-02 3.017626503373006461e-02 9.453522947020283340e-02 1.258611726155288262e-02 6.231989874919147826e-03 -1.109205053977530345e-02 -9.063308158382774038e-02 -5.333961922398806205e-02 -2.061212015459102515e-02 -2.150134686393535052e-03 -1.967552869400363003e-02 6.140282829454542929e-02 -3.051627647318802539e-02 6.642235820010869429e-02 8.195979938086823957e-02 5.250708587789777726e-02 5.618755221835025626e-02 1.113119744201114536e-02 6.850089879003877502e-02 9.284646049141556667e-02 6.323211775255964395e-02 -5.450761992630102915e-02 -7.362854439000750262e-02 -8.106268772155847402e-02 -8.150293575327094420e-02 2.825132767949795759e-02 8.813971815166223023e-02 -8.279875483428334598e-03 9.017494621538559019e-02 -5.184416903628054352e-02 -8.855822988761830050e-02 1.274508399946855386e-02 4.445574979122813436e-02 9.310269961471429045e-02 -2.455767674773907602e-02 -7.694316586446879602e-02 -2.845842557684230556e-02 3.291278513998313615e-02 -9.281250106415267487e-02 1.249506522064876626e-02 9.952316082885022744e-03 8.429505922187531530e-03 -9.434810203917078086e-02 6.879164369440927962e-02 9.155182373358152978e-03 -3.796403388521007310e-02 2.719207846167871756e-02 -9.991954650990478304e-02 -7.413086961929768459e-02 1.003555303571687131e-02 -7.184421269101267174e-03 -2.176332397030937560e-02 9.080381510282688196e-02 -4.762919405493453058e-03 5.336690360018137708e-02 -7.764357217194910177e-02 6.060459049070189563e-02 -2.618458385543235428e-02 7.845529867574072003e-03 -5.151086215610582719e-02 1.552870165767798738e-02 5.005329425726180725e-02 -4.098693527926663797e-03 -8.549221685813555849e-02 2.057077976058034954e-02 -9.064790729095949934e-03 6.407085048352624546e-02 -9.177040710730338668e-02 4.257130172736610374e-02 -1.149198885790243818e-02 -6.540624047789952988e-02 1.505995592703920916e-02 -5.556150893365084664e-02 1.469399810185064228e-02 -9.411651864525319433e-03 4.485830653939389817e-02 3.369599323436600624e-02 3.774476813697708044e-02 5.472915830784576274e-02 1.105631470753538730e-02 -8.611604012004439590e-02
-3.325207584840946667e-02 -6.330179949334445444e-02 -7.155640370495802705e-02 -6.401128502445747881e-02 -3.239136361559910582e-02 4.551874659695710756e-02 1.548896899921828373e-03 -1.400996013332758000e-02 5.380599757666584826e-02 -8.297881500059661741e-02 2.498674892980898635e-02 9.517274129720333653e-02 1.081514770724867486e-01 -8.812459279117144939e-02 2.616130349202791614e-03 5.567105551040402861e-02 -7.073867590741922395e-02 2.024985780045292921e-02 4.761810210998145693e-02 1.272526097691183827e-02 3.568787637101256127e-02 -4.741891815280414174e-02 2.691837993072350443e-02 4.550294713477641417e-02 8.809554937108052264e-02 -2.371117553735324276e-02 7.159286107643202113e-02 -9.694764641337402789e-02 9.774198846760351334e-02 -4.177729246544405195e-02 -8.456761409259241913e-02 -9.113769518615641441e-02 -9.711413804648659498e-02 2.905684403557660250e-02 6.784236946831782855e-02 -5.595521140334881738e-02 7.776730456619913856e-02 -6.760890482311703031e-02 -1.840050445617633090e-02 6.504348944823402923e-02 3.887960849794764272e-04 -3.851030666845164235e-02 8.399927961021799727e-02 7.079472676618867033e-02 -2.637334333661380328e-02 -1.034145443262053238e-01 -8.901082013601499532e-02 3.528211015051253494e-03 -8.303368854159358381e-02 -6.698875878787516336e-02 -5.209828198814338285e-02 6.533155993275380213e-02 3.253417223892161869e-02 -8.436545862098997206e-02 -2.193989410812063889e-02 -3.119742719406671388e-02 4.342161963911052996e-02 7.385495483097220815e-02 -9.328681195469006038e-02 7.957173832972985750e-02 -9.070827856753105323e-02 6.897286101174028572e-02 8.488440959878995606e-03 -9.101813042754862415e-02 -1.084061143707573671e-02 3.020607784759773637e-02 -4.854745286971957202e-02 -8.116387570682170871e-03 4.223639595975324165e-03 4.296303733059126523e-02 9.466296901431391075e-02 2.192868281916908382e-03 -4.058381335762990122e-02 1.729895561250988437e-02 1.407966410897878995e-02 -3.610878707781060848e-02 -5.273693688099754390e-02 -1.412666643800999933e-02 -2.812089168088974939e-02 7.289774703232194952e-02 6.896991468138040371e-02 2.530580751131994779e-02 2.800624946467205473e-02 -4.600903629088343161e-02 5.857883902999515974e-02 -2.817476275265567293e-02 -9.609359932914005031e-02 6.687587966137920059e-02 -9.388102916083193583e-02 8.995929645928643636e-02 -7.952437481510349349e-02 6.898828899499073741e-02 9.213248950207898746e-02 -2.351989272759488769e-02 -2.346292797267026178e-02 -5.786025818281051447e-02 -1.899948582784166326e-02 6.843508576324267012e-02 3.033197375385813035e-02 1.245846171666840137e-03 -9.498418919906281843e-02 -6.493423062067651963e-02 -8.772338739409918373e-02 1.677089565216266509e-02 8.855311321102532496e-02 -9.686139046558564503e-02 -8.963479180899870669e-02 -6.088869810734182791e-02 3.045768358815473253e-02 -1.882737852592195754e-02 -6.567871970838314553e-03 -1.056461814362473842e-02 -9.877406871686934819e-02 2.282356428555355754e-02 5.556429680707752200e-03 -2.249691489469100858e-02 9.353078758159817652e-02 8.618796613087763292e-02 2.846362627833263353e-02 1.597942055161640645e-02 -2.710401661832812815e-03 -4.934128401414257167e-03 3.845729278636286774e-02 3.788176055277858029e-02 -2.618869065031646098e-02 6.660285253534954653e-02 5.381739437078381094e-02 4.746233249333713100e-02 1.019944984486422478e-02 6.294281068577260718e-02 8.785834153054290774e-02 -2.863637648638772681e-02 7.048309672740450671e-02 -3.031076573111369729e-02 -1.008467667692828779e-01 -2.518747838922753141e-02 8.114480401202980864e-02 -7.705815145916986020e-02 -3.941407685779456382e-02 -2.500349527109044147e-03 6.314643035735846566e-02 2.092440540734228499e-02 4.789538212769547249e-02 -8.452221655498484698e-02 9.090432103562244570e-02 9.300991150685562758e-03 -2.335658818731551137e-02 -6.535915562613686669e-02 8.878545215512612110e-02 -6.467043507269158720e-02 -1.974582372078791809e-02 -8.272848947149002985e-02 -2.590482799332265856e-02 -2.184514753826361649e-02 8.599165273696331158e-02 6.169111735862929657e-02 -6.760282182901669774e-03 5.667575685210222980e-02 -9.813776482219260799e-02 -4.471883619870319071e-02 3.485077276005135033e-03 3.139916418859207276e-02 5.917733513025241060e-02 1.876231833530586646e-02 -6.445287939056618988e-03 9.726717131554318829e-02 6.994287737710293273e-02 -2.494546435194112954e-02 7.888014086290821847e-02 2.272096911312431952e-02 -2.994554763279813972e-02 -6.056987242067329857e-02 3.388565833961036666e-02 -2.848403173546000186e-02 5.409578906054744035e-02 1.011918286300126230e-01 9.239454912156286337e-02 -4.498714783795788180e-02 5.353031181285839574e-02 1.064609598183689915e-01 -1.651721761296072455e-02 7.516900520239613512e-03 -1.524906439887153096e-02 -4.238435354753746810e-04 -1.175556319031341099e-02 5.431637170373256052e-02 -1.013276150722372260e-01 -1.007204049212117036e-01 -4.422392821013672662e-03 -1.047086922796958315e-02 5.718721394129105268e-02 4.663252191388126376e-04 -3.504179416230596145e-02 -7.786914292913066360e-02 2.277392679235021658e-02 -3.173794032982087121e-02 -7.848951960771517744e-02 1.030666233423389588e-01 -2.880070519720242042e-02 5.480660140435630878e-02 -2.447921961154883586e-02 8.355526456505306399e-02 -5.572674458041688463e-03 -1.081291911130337173e-02 4.261303239752678440e-02 -7.606407151790242627e-02 -4.199147802962632792e-02 6.797707860639384814e-02 3.453243876990801098e-02 1.686114960685750064e-02 1.073576504770170498e-02 6.473163170681746348e-02 5.487188149159422101e-02 3.910070125767144827e-02 -6.937383585247493267e-02 4.506545232639142667e-02 2.330379490187706182e-02 -1.017526187116443021e-01 5.495397458953096836e-02 -5.903186426215818045e-02 1.373289671350111721e-02 -8.998870638934362842e-02 8.571825778275126567e-03 2.524673012525071800e-02 2.357832760793103152e-02 -7.760782709072643060e-02 -8.442724094678438762e-02 4.394112859639402041e-02 -1.634377764532972746e-02 -1.093650145073766025e-02 6.085645954339345687e-02 -8.669645029721047280e-02 -7.940922346712223079e-02 -8.796615776875890691e-02 -9.605535405372485347e-02 5.300652845204179703e-02 -1.156096857942243150e-02 -4.002390650575263220e-02 3.055222417711877386e-02 -6.461040936391541922e-02 -8.247986036266027887e-02 -2.379929769793748089e-03 5.486070960815971759e-02 -7.175571111977012417e-02 5.723053622070736757e-02 8.734836736164701410e-02 -8.050107856424898456e-02 -5.513361845507624981e-02 -6.417220462765514666e-03 -5.894157085815422692e-02 7.145762387620781253e-02 6.609615402176206855e-02 -3.601644176960201726e-02 -2.313671353975113587e-02 2.064426749813638717e-02 -1.946007057163478063e-02 -4.610732576140502692e-03 9.174990115595212103e-02 7.948105778041740857e-03 -2.887231216419519977e-02 -7.576684596182718667e-02 4.136953222243064388e-02 -4.820318706261195185e-02 3.381336730452740719e-02 9.139326017430611515e-02 -3.308712302743713196e-02 -6.492270677133858692e-02 -5.991584920935117548e-02 -3.517507133314599910e-02 5.960793013702495036e-02 3.687784184024291839e-02 3.770981537083592516e-02 6.584929505909570269e-02 -5.287854779620650841e-03 -7.328495060773945746e-02 -5.379182943276423351e-02 -7.671511416566154096e-02 -6.888755283271533192e-02 7.441477467585284021e-03 -7.902705498250087168e-02 1.029359054205381957e-01 3.751973536194771336e-02 1.093256882415126648e-02 6.018439253979678688e-02 9.554843943577062682e-02 3.230723338921547699e-02 4.406251825050241239e-02 -3.114829904062938609e-02 2.259931249609010637e-02 -5.425451641983553008e-02 8.085719953139614002e-03 6.512811447475537474e-02 5.998582513308968467e-02 3.811687556405438798e-02 -2.358498616782981130e-02 4.169775943321740036e-02 3.874865482918622012e-02 -3.781264098370050453e-02 -2.654288148634973907e-02 -4.855375922860340199e-02
-5.134519177351012931e-02 3.242523274319429605e-02 2.624053994149839336e-02 -5.910605663068806137e-02 -1.791971698472814845e-02 -6.474178301926906964e-02 -5.878226563191206455e-02 -6.704120668718339948e-02 4.450909291689271463e-02 3.749814068748370116e-02 -3.785765101304813807e-02 -4.399909009970723317e-02 -6.101482354747218666e-03 -6.158926889234622726e-02 7.570048643631184515e-02 -8.687346471865137199e-02 3.453707247485870990e-02 1.057933656162812243e-02 2.363666955459778340e-02 5.065713223418316299e-03 6.640788161833402481e-03 6.101266512671625619e-02 5.318085662481668308e-02 -7.407305166633154636e-02 -2.294817573179484121e-02 2.060939066524007310e-02 -2.438640673899135879e-03 -3.691409254437499204e-02 1.815333114867835607e-02 -6.333867169651519191e-02 5.136103294321764379e-02 -1.114082648957409778e-02 -7.118341791582367961e-02 -2.013706613360853603e-02 -9.365715657922464576e-02 3.356133339680461569e-02 6.691061246764133663e-02 -1.430827285030225431e-02 -7.416241716948879237e-02 -1.444387866328021922e-02 4.361046291629405713e-02 -6.092500408128272149e-02 -4.690598209431963428e-02 6.881249616783555179e-02 7.694084110045683322e-02 -3.637226283463165788e-02 -8.849135116341889928e-02 -6.006009604650145578e-02 -5.344992703065965661e-02 3.396492046897554851e-02 -1.943409507670459946e-02 8.564094849648345997e-02 -1.414736336919012426e-03 6.867009420493509764e-02 -1.933160064592864477e-02 3.925799563440972306e-02 9.098148832310302969e-02 -9.340980011080921019e-02 5.617255085374524975e-02 3.082710470582562118e-02 -4.866771092728065101e-02 5.013094752237114843e-02 -2.389616996315196626e-02 4.907699567650323363e-02 -3.505251290629644856e-02 -4.419849451399941037e-02 -2.171453763751220872e-02 9.838852762593540760e-03 -9.021556342162329045e-02 -1.485303229421992312e-02 -7.885150574140702140e-02 4.099052644943237261e-02 -9.455232859547305080e-02 1.624636645583830800e-03 -4.117415402217913106e-02 4.332479059809613009e-02 -2.296008075091651029e-02 -6.147456697110951357e-02 -9.666610334383965442e-02 6.804550988511811824e-03 -6.424038945426657071e-03 -6.062821623407085164e-02 -2.765524511632338686e-02 4.083117851998802755e-02 1.596293807571638745e-02 1.481332480786184437e-02 -1.067130390369061890e-02 6.436029765162189220e-02 4.413383026972020340e-02 1.417216358445680044e-03 -8.408464225565055739e-02 6.381252494524448926e-02 9.076536826100141397e-02 -6.797580370697287044e-02 3.720123580845424022e-02 -5.690889718798132491e-02 -2.765880014166832365e-02 -5.788805485624695657e-02 -6.061955462664762873e-02 9.063174228055206894e-02 5.060843849129369881e-02 -6.089506018149563188e-02 -2.646288147810871294e-02 -5.489008819439591264e-02 -4.018877542420219023e-02 8.468794901189846680e-02 -8.609984138082704686e-02 5.967098676687655062e-02 6.923022560963987271e-02 -8.030116880688109582e-03 -8.914649629999948921e-02 -4.255723864150798980e-02 9.024794978203910800e-02 8.950105644651756842e-02 6.832903532930049983e-02 4.573955793857004820e-02 -8.466072071114157105e-02 -3.889361826970129995e-03 -5.783814166173634197e-02 -1.751577016731162284e-02 6.822239232471088988e-02 5.478395489423924791e-02 7.953498139640373388e-02 3.545073533136654242e-02 -7.635556298872665792e-02 -4.071559846423041668e-02 -6.616385077940568904e-02 5.789565814675712296e-02 -7.163426115556773000e-02 8.896717638451046017e-02 -1.784702141061358764e-03 -5.971405778791730873e-02 -9.429760704387997461e-02 -1.158076990092697352e-03 4.230815087533962293e-02 -3.474688552896771504e-02 7.247246432870489696e-02 5.549515429033886893e-02 9.291168839513548605e-02 8.278403696915699606e-02 -2.241511310373841062e-02 -1.271248078930032645e-03 8.694532957158403186e-02 -3.027857526836254601e-02 2.650247564412459497e-02 -7.078464005623801014e-02 -3.814959789629268367e-03 -2.624325362943571993e-02 -8.750658601137173420e-02 7.161121606094787706e-02 -7.590700748237241835e-02 8.274653454143225673e-02 4.057657461726028869e-02 -1.056487063495069843e-02 9.296672452725011915e-02 2.365958431072534909e-02 -6.484229980138402072e-02 8.558676220480135322e-02 -3.887291658685375351e-02 1.841259884670537602e-03 -9.634140536563910728e-03 -4.317246285776549924e-02 9.050782729490031153e-02 -8.512460780553976480e-02 -4.141790071736276696e-02 5.671882640088065503e-02 -5.490923993342805565e-03 9.629285176525949341e-02 -8.299610825093103883e-02 2.797465411489075474e-02 -5.134059165399723623e-02 4.569860653460250388e-02 -9.440147453247040021e-02 -8.176182899202466547e-02 1.313467415110265019e-02 8.986434692001307734e-02 4.951077977789211659e-02 4.709830651416122699e-02 5.177647353274080627e-02 -6.415522730987693878e-02 1.931046191322455946e-02 -7.554361659647249039e-02 -7.096046467597882934e-02 7.552428100803629252e-02 -6.809327319791891320e-02 -6.643108459019168854e-02 -8.126494529516479007e-03 1.042141038994603974e-02 -1.922043049123610056e-02 -2.039058077442051573e-02 -6.224197316190151902e-02 -6.601651274331093999e-02 -6.792045318373442220e-02 1.360572300406246576e-02 4.951370238673916818e-02 7.207025365321061139e-02 -5.167135924457912782e-02 3.176928292412281585e-02 -9.309460330810861994e-02 -1.335869940676130685e-02 9.741434143996857697e-02 -2.032563640517254591e-02 8.325362553507922869e-02 7.172041444406349053e-02 -5.574767075573756892e-02 -9.095405467704280322e-02 5.859724905908303416e-02 -4.150102524000106458e-02 -5.385609535492850986e-02 6.089926071128253654e-02 7.126445301392958509e-02 -8.532488431778789684e-02 2.277261138526546699e-02 3.931030372903442788e-03 -6.045236252193901538e-02 7.380832426869576857e-02 4.492900552494599048e-02 9.328518699996463104e-02 -1.015740762678050794e-02 5.851586957286505908e-02 -8.272840921842254669e-02 4.009866042599342234e-02 -7.670390307055666157e-02 4.801678032576178756e-02 7.851006325242063100e-02 3.911495098019348443e-02 -8.164241899633489785e-02 6.036572712859997192e-03 7.798010506442210402e-03 9.131556115675601437e-02 9.358139279542773692e-02 2.288952443943217951e-02 8.440268453508062430e-02 4.665083439167445195e-02 -5.848950861510814059e-02 -8.642938402874682235e-02 4.284939940022562677e-02 6.099135419876486330e-03 -6.472955538193093938e-02 -5.416201560663888581e-02 9.276045698088419833e-02 -8.917521705059745785e-02 -3.496510126710650201e-02 -4.101449997431582534e-02 -2.008590001910202233e-02 -8.635782107446825576e-03 -4.703798038490672462e-02 -3.962784336410199448e-02 6.317376085858948664e-02 9.520201322954707779e-02 8.690332378570252148e-02 -8.959022163002369754e-02 6.465082296218876978e-02 -4.648310371872555607e-02 -6.816701001391795023e-02 6.602713487911499035e-02 7.764590306631104222e-02 -3.846203313071881041e-02 -1.899573280916374077e-02 -1.417931685549657025e-02 7.524631494666324250e-02 -3.065550426197810596e-02 -3.837512002827878771e-02 3.978314965235406342e-02 4.172193225336467276e-02 -4.092501446838003876e-02 -7.018017129697115553e-03 2.984077639652476382e-02 -4.707098703763566705e-02 8.642709859748066992e-02 1.320660776490105784e-02 -1.120219113592762876e-02 5.653964895038696148e-02 5.252056331792759325e-02 2.625124817997084511e-02 -6.358768610420610645e-02 -6.320256109443755932e-02 5.341237053285463263e-03 -2.723741277447951428e-02 -7.418167838726658081e-02 6.284299225987405313e-02 9.390384306885755927e-02 5.819189808464255570e-02 5.878661072335970850e-02 9.701843304162748732e-03 5.760708890756045808e-02 -8.366412819310507787e-02 5.486608178652679912e-02 -3.562551294781551164e-02 -1.239349433275103128e-02 -3.939971012267860784e-02 -7.028278389833653161e-02 -7.333672419841759382e-02 -9.254364425733178912e-02 -2.636553244644087093e-02 8.381586752586628331e-02 5.661418304634627252e-02 7.739602079588428496e-02 8.577239279752273127e-02 1.436916014206285688e-02
4.467239096660675229e-02 -4.753002610548287543e-02 -9.807866132166657980e-03 -9.159983262810443561e-02 -2.355939956096027993e-02 -7.548424510344219074e-02 -2.198773505613294682e-02 -6.811090103135758467e-02 7.117942080103036029e-02 -6.771596238629058739e-02 9.163565660740895236e-02 -4.577660307705087861e-03 6.734001246719807654e-02 5.577760030289961868e-02 -5.015525373448741914e-02 8.960139986612419838e-02 -8.230081221495957888e-02 -4.806800641011550745e-02 -9.411776255607434694e-02 -5.444929874951993931e-02 3.022871394687741062e-02 -3.814313748990938446e-02 3.477677696949765113e-02 9.048496674734209100e-02 -1.252550161111593355e-02 -6.299118576539135261e-02 -1.012944175088182491e-01 -1.365097281782703086e-03 7.736116620065993689e-03 3.207093953101421840e-02 -9.415494170775215443e-02 9.651591356607494565e-02 -2.177617659076593395e-02 -4.120162497894769987e-02 1.678969143135716421e-02 2.899644700750920318e-02 -3.366438050466397797e-02 8.499488015027052007e-03 2.114481419910774207e-02 3.176040286184750316e-02 -2.019345368753547310e-03 8.116022049093214383e-03 -4.524270545263128079e-02 3.975283965155409355e-02 6.868920708656243990e-02 9.499988089562841354e-02 -2.100415243078843433e-02 1.004161629002369160e-01 -1.907631493131130285e-02 -5.413998717805797861e-02 8.874524910037773218e-02 3.036728301502018487e-02 -5.792354636665619783e-02 -5.691935945879533082e-02 -2.750851326188006457e-02 -1.265716247378010674e-02 -1.580815302825141697e-02 -2.843813793153440739e-02 2.229541059725823407e-02 8.162331792242226783e-03 -2.602911092512078667e-02 -7.554963579515140693e-02 -4.026695408310169977e-02 1.857255649824904320e-02 -6.162387767634617403e-02 -5.847749759705761149e-03 -1.049524364575284835e-02 -4.038285717612435932e-02 8.908810122323231051e-02 8.443562818670972969e-02 1.745022335934501984e-02 5.883691404848898077e-02 -5.657006857742822442e-02 -5.333113832000316995e-02 -8.316326722758829448e-02 -1.067028141631144039e-02 9.287354247148557618e-02 -3.491748203985038657e-02 -9.521943309249487897e-02 -1.396320928157108489e-02 3.231334231922951272e-02 -9.728779986701806270e-02 -3.709701867898331645e-02 -7.141580407885060600e-02 6.225297696129693248e-02 8.316082192090068492e-02 -5.527856274637547862e-02 2.521922182211800909e-02 -5.176310004662486482e-03 -7.312506799804444069e-02 -3.647952849352066595e-02 -2.938493685148055312e-02 4.546340533034489567e-02 3.418306315428810971e-02 3.089858059662702744e-02 -7.951414515930958771e-02 3.941767873244626103e-02 1.038325065024386790e-01 -9.665039036497441449e-02 -9.154847165147184107e-02 -1.470324458885094963e-02 -9.060626832985235052e-03 -2.301110669638165365e-02 -1.323032892971014347e-02 -3.496963354110616679e-02 6.453230145942602525e-02 3.819445623578023030e-02 5.983131794390404018e-02 -2.121631919540684433e-02 -2.031002568782061535e-02 -7.025069006207725064e-02 6.300861083737814561e-02 8.682350566766678865e-03 4.022553988055777019e-02 -8.421823173254028294e-02 -4.299922179421102400e-04 2.377208547903263483e-02 7.593249082174827191e-02 5.426713928985689439e-02 3.124764749590559082e-02 5.215594888890074526e-02 6.857797218327764399e-02 6.168912165174354062e-02 4.607187847487451138e-02 4.967560300727012768e-02 6.540852870936385288e-02 -1.972144175318618978e-02 -6.619960518482841116e-02 -2.276361293169493205e-03 -5.638387264665208065e-02 -8.735712175810370073e-02 9.523961617381310196e-02 -7.351573092434197931e-02 9.147432338655481221e-02 5.430801260083284454e-02 7.900020793388072560e-02 -1.469853404387345963e-02 6.872929862308439775e-03 -2.791987467931890052e-02 4.188235132018241352e-02 -5.265047253511576097e-02 -1.656872439334438132e-02 4.984277414919396909e-02 -4.164594795229670937e-02 -4.569560458684047977e-02 -9.512392425601542967e-02 -2.319650612541829943e-02 6.891972567980196585e-02 5.882343161979909640e-02 -3.611774350762852331e-02 3.956878734828762900e-02 8.368184327614475171e-02 -1.028153124564568782e-01 -7.289674512668414819e-02 3.628319791853636817e-02 -7.044921382268207535e-03 -7.305098123809309479e-03 7.534717699685286596e-02 5.288688692650618528e-02 1.681714191489484811e-02 -7.489155069454556113e-02 -4.394417948331176028e-03 6.931176100883817970e-02 1.451596539640389455e-02 -7.275427204335144227e-02 -8.185016216239771047e-02 -7.750594749007573558e-02 -4.821625099728494429e-02 3.860164507138968276e-02 -9.203614628167447465e-02 9.349123975336103010e-02 -4.845204576402264984e-02 6.155727276163321104e-02 -7.514828291585649855e-02 -2.384714071560197889e-03 7.629108854962712849e-02 -8.486376949788405899e-02 9.317209107402631141e-02 9.068061115771709757e-02 4.667800494864751681e-02 8.533789971028124532e-02 1.063126511613566583e-01 1.856101078061940871e-02 7.498547110413392169e-02 9.495591599699926277e-02 4.737349006396329720e-03 -5.038562964437343084e-02 -9.569526668226407962e-02 4.447777690600680789e-03 -7.561273411286550949e-02 5.248873415110860870e-03 -4.352637188450778766e-02 -8.692976925248352416e-02 -6.209699180376074268e-02 1.108778780773766494e-02 -5.839864650396568019e-02 -2.604729052824086843e-02 -7.455952041444817435e-02 4.635681988322250952e-02 -1.029237975146869710e-02 -4.100409763892100962e-02 5.038419691354970725e-02 -4.611066540152673060e-02 -7.055533532231486604e-02 2.825771210031087499e-02 -3.503363089810315745e-02 6.711346733041517743e-02 -3.538139088325352455e-02 5.897418561722879427e-02 9.034061825152148173e-02 -3.580562236620861601e-03 6.076609949897027185e-02 -8.521085518289200911e-05 8.179808535605422037e-02 9.353565414432256364e-02 5.220718794981187016e-02 -3.825249999964312059e-02 -9.936970225883048902e-02 5.996804589478106629e-02 -1.349942267760590071e-02 -6.221722184093578939e-02 8.379052214708304636e-03 -3.795897390037748093e-02 3.906454520195859481e-02 6.306838657751967503e-02 -4.951403707471344756e-02 6.163082471174880644e-02 -1.057976808387979181e-02 6.233142552198553399e-02 -9.511750071546473673e-02 -7.605204682660510543e-03 3.122299533959206619e-02 4.083391808109048879e-03 5.425916879239626317e-02 1.322319851406996392e-02 6.224120281352435446e-02 7.175211352826328659e-02 -7.915526142095682949e-02 -9.838183146766479870e-02 9.284979940591053804e-02 -1.296973097417269440e-02 -7.414149622387723737e-02 -7.484047211584124448e-02 -7.483904859372754459e-02 -3.406984600230372751e-02 -2.911124198770436919e-02 6.356453962831899729e-02 -6.809484240875916805e-02 -9.340269046058899405e-02 -1.678467351638310810e-03 9.291234826932080748e-02 -1.663059778233135291e-02 8.321160234056337868e-02 1.251611947759861823e-04 1.799667177586412523e-02 3.310919424064951572e-02 7.251389518732402617e-02 -2.089486169946061511e-02 2.421462678420413517e-02 -4.725384319391404825e-03 -2.213851748878560219e-02 4.765908162145031379e-02 -9.016049445088542003e-02 -3.092230111580283533e-02 -3.620598922843282913e-02 2.866631417465824103e-02 -7.891142180050618460e-02 1.909513828935075971e-02 -5.825758065398271152e-02 -8.913250306603039130e-02 7.675149662543952200e-02 3.290739416533399603e-02 5.037409815602695434e-02 -9.218491338221741771e-02 1.009824375306271615e-01 6.632412775101473312e-02 1.044031715634188284e-01 5.182701809597763110e-02 -6.338438643018518004e-02 -4.379966077231544491e-02 -9.603637221637992272e-02 2.551919574371092764e-02 8.989540668449740035e-02 2.142177621672813198e-02 -1.322223100631931061e-02 -3.575871895272031420e-02 -1.056804174120237055e-02 -1.300886521851797421e-02 -5.296691778951295726e-02 -6.770210666626813589e-02 -5.782082294780570980e-02 -6.227067086783433236e-02 5.922427546102416833e-04 -3.035230195881580620e-02 7.409396353786132372e-02 -3.010946316118300178e-04 6.960517550915933799e-03 -2.260829872421933270e-02 5.348411511986615047e-02 7.541171417276347488e-02
3.375773889872221711e-02 -3.564145657070399986e-02 4.663660727521750510e-02 6.021934162819481476e-03 -2.959252499065874453e-02 -8.379170592644853699e-02 -8.884105297497195408e-02 7.798530392748859175e-02 -1.591758702237483156e-02 8.247490664910341052e-02 1.112813248485091805e-01 4.113902347489978989e-02 -6.319918521652097276e-02 -6.074982301900678366e-02 6.534198778912937711e-02 5.648013076665145404e-02 7.369930833145508543e-03 3.834367736733373250e-02 1.969633478060469137e-02 9.604414089376377139e-02 -1.710855368484616792e-02 4.070039461362242456e-02 9.046972678102327414e-02 -2.934629678538871328e-02 7.307721686838843100e-02 1.200323513308229444e-02 -2.588427490166554656e-02 4.637820674708291457e-02 9.629473463174910430e-02 2.203041089725682813e-03 -9.992703859551818613e-02 -8.293986126103760834e-03 9.778971989542663973e-04 -3.407861061173796113e-02 9.307136262589527087e-02 -7.607141657958914338e-02 -3.589103434639075163e-02 -3.420204260042151306e-02 -5.223458733507739538e-02 6.169648197111628207e-02 -7.918053608821276623e-02 5.390695814368244576e-02 8.906482238917351468e-02 -1.530984443964511499e-02 9.088532929627408941e-02 9.124069588364029648e-02 -2.342284647863324826e-02 -4.241200587737603035e-03 3.343714563088497765e-02 8.646113308068238690e-02 -5.308439828557134921e-02 9.034732660154175254e-02 -2.126442910573505748e-02 -1.003157181709192214e-01 -3.744260410930867755e-02 1.061890054976476726e-02 -4.782797326334945615e-02 -8.983923216887379493e-02 -7.612943804374772139e-02 1.038452203005545138e-02 -1.399140634609011280e-02 2.895844875987570871e-02 2.150345602480841292e-02 6.788292574559395831e-02 -1.641609972390161570e-02 -2.665104784288341300e-02 -2.974263330617568993e-02 7.200267893211236003e-02 -7.674127375498618342e-02 -5.348647019231406868e-02 -3.526956277625803438e-02 -4.194227697197886601e-02 5.712462532979918628e-02 -1.102091896043997238e-01 -2.815661275565958452e-02 3.673915374790986954e-02 2.946284586606662953e-02 -1.865745611007052496e-02 -9.802888262289743970e-02 6.380063998245381895e-02 -4.201471328646970427e-02 3.964759161875346105e-02 6.703928231306854890e-02 -3.127298701458509911e-02 -5.217971767017878792e-02 4.320568680018092161e-02 -1.910942273195698204e-02 -7.586749679010273972e-02 -1.349602848157484269e-02 7.384453679534405679e-02 -5.545903553090396343e-02 6.890758861262871737e-02 6.445738225642358432e-02 7.125022633675756611e-02 8.210347255601649352e-02 6.063387947855641141e-02 -2.973463476257440577e-02 5.063534759664083118e-03 5.555688082728338535e-03 8.292256022478287913e-03 3.717100372581159939e-02 5.313130863053128206e-02 -3.500487220591671274e-03 -5.934106968322829662e-02 -2.031978868803077654e-02 -5.205041549556917863e-02 -4.739506398401163029e-02 1.200556402097625597e-01 -8.732178878967168656e-02 4.865360016013403621e-02 3.394055096017664641e-02 -6.438366505879086765e-02 -9.623959674009382667e-03 9.893612309622860923e-02 -1.808410831896491849e-02 2.759830412819018128e-02 -6.803487389703179178e-02 -8.643387219403773913e-02 -4.793280970452683254e-02 -9.569969500593540623e-02 -6.310241384893643113e-02 -8.047021949591625506e-04 -3.302614654204290290e-02 2.854348226073000205e-02 -1.996568077655710288e-02 4.408882112994196717e-02 6.544003652388760695e-02 -1.816126693389094951e-02 -1.366504507562024901e-03 -3.937768676155330855e-02 6.188056587862045266e-02 4.270350740880800300e-02 6.955747042228047072e-02 3.613015615646941736e-02 -5.792688328388481689e-02 -7.014718957279270084e-02 7.389508826323788748e-02 -2.147734647380060424e-02 -6.122322826104095728e-02 9.954281249470801896e-02 8.765052275220694411e-02 3.797519687192937171e-03 -7.323634506707955849e-02 6.918422628059626468e-03 -5.325932273804966782e-02 -8.641574300080769044e-02 2.742960909577874667e-02 6.021976024108938869e-02 -1.089640546538205162e-01 -8.140452111383142397e-02 5.419460640017926406e-02 4.088997264600999215e-02 -8.789411643506002403e-02 3.925745337287295245e-02 -1.800913401555872054e-02 6.019383482228680970e-02 -5.579983465275258070e-02 -7.315074645322976188e-02 -5.433468852994436521e-02 -1.540470874931896064e-02 -4.550418823751722214e-02 1.009622883940527738e-01 1.118616049670493051e-01 1.684426750788042132e-02 -5.066368442488908275e-02 -1.095058450536357392e-01 -1.058787899636857849e-01 -9.503710297286405845e-03 -4.257155412878037976e-02 5.156775725210363537e-02 -7.141258446694083439e-02 -7.195063953932898104e-02 -6.611637938141648463e-02 3.169088667054063835e-02 6.178100849989272281e-02 -3.975884963539356998e-02 4.312675200686583860e-02 -3.594099825433753892e-02 2.980651356030256799e-02 -8.397373825729571167e-03 1.791473943265391167e-02 -3.134082816570139818e-02 8.210486342557767048e-02 -9.263288876088029977e-03 -8.303877940622518550e-02 4.465829133265777212e-02 -5.177273872132657356e-02 -2.584783135806959647e-02 3.667192513224160066e-02 4.852487450973620720e-02 1.120103172833890048e-01 -2.362981132139504309e-03 3.209915947812713027e-02 3.855470158214645976e-02 -9.551273592424923409e-02 3.489721490666611303e-02 -7.851401175072102168e-02 -1.117447071842645606e-01 -7.697620290185699932e-02 4.204766358974124790e-02 1.715502961611771460e-02 -7.972402243585759163e-02 -4.574681606864289957e-02 3.130530443757082587e-02 4.062862169779050264e-02 -1.066044668450257839e-02 -3.534554430298929989e-02 -9.250861794617720735e-02 -1.372171411594681582e-02 -1.651071038331286198e-02 8.857727532602513443e-02 -5.895748616608707804e-02 5.901326369796273952e-02 2.461430463166391913e-02 -1.253258130123151987e-02 -2.882443795792932403e-02 7.170101778529215653e-02 -8.010015530986264176e-02 1.638860753655953240e-02 7.199670169626032346e-02 8.788101292259696551e-02 3.425917152393507387e-02 6.370362463761064520e-02 -1.980407130631581941e-03 -1.010221575508678526e-01 -1.000552502855744097e-01 3.175234096044245863e-02 2.145225094591247245e-02 2.241801096433525958e-02 -5.578816350214810954e-02 3.914323644710613476e-02 -4.356027697218540010e-03 8.887224532781626274e-02 -5.536411990538087080e-02 8.071144260129725634e-02 4.333248786218460435e-02 6.693299273919059433e-02 9.402242950425478141e-02 -4.628614271783428741e-02 5.304406444580285485e-02 6.101856813553285797e-02 -1.270018933448562211e-02 -4.920719774039060412e-02 -1.502228243103382981e-02 2.850820052253767722e-02 -8.225187857090638169e-03 -9.223029400817839632e-03 9.225848475326195453e-02 8.950544283760357434e-02 -6.753863711996860308e-02 1.696244597209520949e-03 -6.301976698729408466e-02 -5.684843784898883923e-02 -6.140180102364106024e-02 -3.408731775858863527e-02 5.766116369253251883e-02 8.804743605718345911e-02 -2.912043889221533483e-02 -5.818836669665515549e-02 -4.442217544063187945e-02 -5.824502070625431349e-02 6.605011121072461300e-02 9.125724392072973035e-02 -7.972003656053242016e-02 -2.393948583838773764e-02 4.187500666831410479e-02 4.234874858737276010e-02 2.770634548227643434e-02 8.346708623465323718e-02 -4.478011565498075941e-02 5.824023239883419079e-02 5.031284330443640262e-02 6.501780065864903868e-02 9.195127035939439086e-02 -5.317672773653056573e-02 6.741089184689581792e-02 6.606997592732535840e-02 2.198508707039634538e-02 8.887712071788888071e-03 4.435628414814160592e-02 -9.044494891291295080e-02 9.976215683465438841e-03 1.294949981902060974e-02 4.231904613572762958e-02 3.795092268647691502e-02 -2.046817288937778298e-02 8.587829197670601711e-02 5.167392121887395828e-02 2.179938380699853601e-02 -1.347437063336274013e-02 -2.290383339598475732e-02 -4.182547116142226913e-03 1.820673684895109459e-02 2.845835288738225027e-02 -7.926429254910472011e-02 5.101847856740826526e-02 5.635815081563089884e-02 -9.527339414338954759e-02 2.164847087232880246e-02 1.058427157324771592e-02
-2.077138791854185942e-02 1.019687517081521999e-01 1.292693429483398118e-02 -5.844792148331668519e-02 4.933315711828863831e-03 4.390370525288993936e-02 -4.891891802798963018e-02 -2.345368402336310554e-02 3.568352674996903146e-02 1.027597407777844189e-02 5.317396792040897380e-02 6.615379949272541527e-02 3.010439001908635920e-02 3.597721747793758678e-03 2.655079569817508575e-02 3.658624888531539915e-02 1.040577061864907948e-01 -4.195836687956538275e-02 -5.650271797360609943e-02 5.871480387517537258e-02 8.554107937033347819e-02 -2.182016624731348414e-02 3.538869461019341495e-02 -4.729067799319162241e-02 -3.722427773851941929e-02 -3.711896217142508780e-02 -1.810324731538585918e-02 -5.907219950900884781e-02 4.381520974766499321e-02 -6.064693199688224456e-02 -6.244591674110175350e-02 -8.507046183077274573e-03 -1.776508710332308375e-03 2.612716516361069871e-02 -9.850199227463503349e-02 7.466368398047473764e-02 6.840056507015276899e-02 -2.503967546797991953e-02 -1.595223482775793081e-02 6.834691869909693962e-02 4.694126997162002130e-03 -5.677925326006446477e-02 1.988518183660649766e-02 4.076864594099769562e-02 8.808456643978519740e-02 6.973729867279568340e-02 -4.694578036414465833e-02 -8.693422718382931569e-02 1.006208257124815708e-01 7.985112214323979163e-02 4.820155828205394816e-02 -9.072883230040680591e-02 -7.538111894469913532e-02 4.800064377316182185e-02 -4.241814312658520603e-02 -9.606991885766495709e-02 -5.144870331330212571e-02 -5.935007672408801338e-02 -7.232434264610898556e-02 4.160775108454051185e-02 -6.445851540016028780e-02 4.136720315601886272e-02 4.949543777593406330e-02 -3.173210091013549394e-02 -3.665494277199601164e-02 4.055154145686581946e-02 9.864514135391218297e-02 6.003689335204432515e-02 -5.981326292597450439e-02 3.528644989880772714e-02 1.576171298897709877e-02 3.093788964632617974e-02 -5.579558002415932472e-02 -9.111097179306200389e-02 5.514363243930469477e-02 -5.540868598042106991e-02 3.765173802464671232e-02 -5.914033844467232737e-02 8.298575241808554825e-02 -6.085278133667849226e-02 8.628908551426987816e-02 1.014384030814491078e-01 8.404198906661911050e-02 5.390450908588642620e-02 1.274875234691690007e-02 -2.999563127811296498e-03 -3.952549169197625695e-02 2.289851883775233590e-02 -3.762147279555816404e-02 -8.470134760901683324e-02 6.394737496436901647e-02 4.353174874839609021e-02 -1.985629505936992167e-02 6.373694200261678655e-02 7.150152782923337169e-02 8.208921626517576287e-02 -5.440376222851111415e-02 1.423258138226102427e-02 -8.619046720094501735e-02 1.037486860647917133e-02 4.749404029769017932e-02 5.001171238841596589e-02 -6.043671996415971026e-02 -1.975727805733292625e-02 -3.080612376127130070e-02 8.104900006842337412e-02 1.455900188931053951e-03 2.706341806654253765e-02 -9.989295252898675037e-02 8.031514124049604630e-02 8.579037244330564582e-02 8.961615627171178045e-02 1.050265395379682692e-02 -2.145160868043024388e-02 -3.950698169455500036e-02 -7.693286723415300454e-02 1.655955846589549519e-03 6.646133525976517797e-02 -2.323681672518704971e-02 -1.627644666427457629e-02 -4.910455869704360987e-02 6.090251796230012477e-02 -7.512240555143181314e-03 8.284005265988990396e-02 1.130691117135210373e-02 -8.261324660317515001e-02 -7.246288753800063376e-02 -6.428808648788045255e-02 7.752390488502725052e-02 6.591721218904614266e-02 -7.253100588875294186e-02 -7.920047900764290438e-02 -8.627988298895596098e-02 -9.838115611364101065e-02 -8.463082800723263632e-02 -6.483816974984481230e-02 7.439778564070941014e-02 -9.376934610271922543e-02 -8.037809020679315131e-02 6.926022457276807820e-02 1.912345963823187944e-02 6.899551868917636922e-04 4.822180192332212872e-02 -6.118444603907622487e-03 -2.877438370442158243e-03 7.342937461040678626e-02 1.160761919099234391e-03 8.604909794403589607e-02 2.307736223766620152e-03 -6.135616148451095153e-02 2.930403935590499692e-02 4.700320590305244461e-02 -2.450536212592635890e-02 -1.005844274836649455e-02 7.434553143001970676e-02 -9.828497065942140565e-02 4.968357336606774727e-02 -2.112257872835889352e-02 -1.247151477848738518e-02 -2.310127540509908373e-02 6.892632757935192311e-02 5.805998101946946259e-03 -3.135504115468963626e-02 -8.087734649250376273e-02 -5.698456822207777911e-02 -3.642579753524029153e-03 8.127573189379799778e-02 8.654687531589141296e-04 2.295999719258877761e-02 -3.741303152469153959e-02 -3.642782808914885040e-02 -4.324776990042050739e-02 6.831970303408559098e-02 8.819926322366404559e-02 -9.173108088411800753e-02 -4.636846272006409087e-02 -3.318014661924147124e-02 3.470911553063300153e-03 -5.511916173169075818e-04 1.666032204083243637e-02 -9.238233577981054545e-02 -8.755774795678476774e-02 1.842676456658841680e-02 -1.113021548271241334e-01 -7.168018433648935817e-02 8.303316364491959700e-02 1.801123751909056853e-02 9.227765503446998252e-02 -8.766698089770230684e-02 -5.587334377646110267e-02 -1.983715761058315111e-02 5.216246198916335564e-02 -7.225861100558299277e-02 8.410388218649619829e-02 5.320162185041652642e-02 1.034365436679864914e-01 -4.618375077458820865e-02 -3.951679029905669216e-02 -4.011071607286831320e-02 5.121566050253513469e-02 6.595200397465172948e-02 2.847588617782232864e-02 -9.356675766087561505e-03 -7.110170802093578914e-03 -3.874815562267878294e-02 -4.030721088715770103e-03 6.709131189621811431e-02 -7.599142241628241423e-02 7.277750929578707950e-02 -5.378826903675775449e-03 -5.068003658833630798e-02 3.451009174489014231e-02 5.062174485793199952e-02 -1.442470486620098333e-03 9.878173046235902421e-02 -6.873018584937778605e-03 5.666451681776098204e-02 -4.068384519562882884e-02 3.428661249067457145e-02 -7.958716677643605519e-02 -7.070366360334789935e-02 -3.315772687462724150e-03 -7.990186681696385962e-02 9.602471771640931283e-03 -8.687942533587572624e-02 -4.619199859604050662e-02 1.875992938847883054e-02 4.161344830425565272e-02 6.159746334607952428e-02 6.418406651596804402e-02 -8.793767585826105238e-02 8.878220682762757998e-02 -3.374518682499781652e-02 -6.076499789513773592e-02 9.976213174929885949e-03 -5.476113965744188600e-02 4.458648688779011382e-02 9.602058994616200285e-03 2.165885489926294358e-02 7.406687923865240553e-02 -4.831437440184643828e-02 -9.500678862924992127e-03 4.954798274208203207e-02 -8.686564051713607792e-02 5.101576580070655426e-02 -8.282955452006380073e-03 -8.193896992961659242e-02 -4.196406948052411323e-02 -3.516914901301113061e-02 -2.084937925853511814e-02 -1.191796871134003233e-01 -4.546914522044311763e-02 -1.715857308838509079e-02 6.728786064789017696e-02 -1.501102341121031414e-02 1.811692849814846781e-02 -7.759967465848266466e-02 -4.171196754911688648e-02 7.955267948228381125e-02 4.885430282781552669e-02 2.673300335869276470e-02 5.428188511492025581e-02 3.719011681534351021e-03 8.974955734176617850e-02 -1.138534416332727534e-01 -2.982392836282077644e-02 -2.637621324190371312e-03 -8.446947426855552776e-02 5.799155129537447023e-03 2.675276571730188582e-02 7.337642206885157392e-02 1.319380135101831317e-02 -6.022017286109158929e-02 3.754473446625566230e-02 -4.976973361462737333e-02 -3.645453964976093364e-02 -7.983328740009278113e-02 6.421451520613236444e-03 -2.899606485453914279e-02 -6.318581432435542433e-02 6.103086566616800629e-02 6.067409022356183568e-02 2.314126660600998586e-02 -1.132973247856845223e-01 -2.157287047776624070e-02 -3.606910013958095768e-02 -8.889782790084512290e-03 -5.132557424175417105e-02 7.902400003896296876e-02 -7.688336799410197542e-02 -5.639881491444360961e-02 -4.575825255312502421e-02 8.102251833771109690e-02 3.489728892108850261e-02 5.657200200908743537e-02 -4.175819153546233425e-02 -9.902376261270097457e-02 5.497679418524074879e-02 8.432785461685593509e-02 5.582716964931393883e-02
2.768175655750515843e-02 8.866152057241727391e-02 5.260109010159021853e-02 -9.088948068943038250e-02 1.924890337615593403e-02 -5.932191142579758963e-02 3.706022682320814221e-02 -7.496032417123796310e-02 9.656875054150185211e-02 -5.039187406797400459e-02 -2.318538179368537580e-02 -1.152073508234801105e-02 -8.938380165266365807e-02 -4.113301837765447055e-02 -3.813684054378592425e-02 3.071579488805739437e-03 6.434453067368806067e-02 -6.273977669187436046e-02 8.401610359298243569e-02 -8.153407595683534459e-02 -6.531364958228093320e-02 -8.588387120502170846e-02 -2.073719348843752752e-02 1.012578753798509951e-01 1.550878268853686515e-02 -7.827692533543080533e-02 -4.119965908540512006e-02 -8.261431025108538495e-02 -7.954474732654349955e-02 1.031363021656326023e-03 7.258137952694967976e-02 3.257057271044661029e-02 -8.419812985788140136e-02 8.403554679737195929e-03 5.392090294438601356e-02 4.165155353926523057e-02 -3.215602672094752812e-02 -3.877307973198953345e-02 -7.514421308926304277e-02 -5.248385572912760144e-03 2.787395560724644991e-02 7.619031238318661747e-02 -5.551994572556132046e-02 -8.587524101723807701e-02 2.608372222448929190e-02 -4.900169467769080467e-02 -6.870082813118946752e-02 1.057832049732327501e-01 5.802470858901755124e-02 -2.906155746929882031e-02 -1.805173940155328088e-02 -4.535532960408979880e-02 -6.004812550474428884e-02 -8.316096855911744856e-02 -1.777147314392474656e-02 -8.656519123930207782e-02 -3.327945203523249851e-02 -9.813557577334344750e-02 1.153794338352664636e-02 -2.517352854533841042e-02 -4.821384768666493043e-03 8.831138365096211085e-02 7.972494051268159965e-02 -4.593641678511031085e-02 -5.538131160630973410e-02 2.951776299903753620e-02 5.949329346061773410e-02 -9.600586344830100427e-02 9.665577499379711390e-02 5.761870413190899737e-02 -1.528107567414338855e-02 -7.192844181510270329e-02 -7.155863078974904201e-02 -3.000371907032921368e-03 1.100594803325030506e-02 -5.863432098121748592e-02 -4.499842305596443714e-02 1.792511220831067426e-02 7.225205311740508576e-03 7.128110837621477736e-02 -2.106178262269458798e-02 7.667524969855692152e-02 -6.489152202007053560e-02 -2.832555086325880961e-02 -2.236483143191653894e-02 8.527534367770352175e-02 -2.988224552771636539e-02 6.851602212636438705e-02 -1.017391917229941156e-01 -4.669064866371144124e-02 6.722352879661490366e-02 -4.778564516406219598e-02 6.470506093884242915e-02 -2.540381683942262783e-02 -4.905069967911274142e-02 -9.515303931041754759e-02 4.754712699899889261e-03 3.840542697504543447e-03 -3.687268262308137506e-02 -5.569342604270376834e-02 2.223543580234923697e-02 -2.664425128630076162e-02 7.013707213616238167e-02 4.441965593221690323e-02 3.913560970860259502e-02 -4.005097562477658024e-02 1.609873224268144540e-02 -3.112679075512294127e-02 9.774995107874243083e-02 -1.030493158092656014e-01 1.087626467141564746e-01 7.327976568384574063e-02 3.873140823312320948e-04 -1.086373902357840038e-01 8.542152406697961498e-02 -3.488198078685067482e-02 -8.308511860421040340e-02 8.024656054712062808e-03 -3.155208692438858653e-02 -2.216976815116207880e-02 -7.683270316717782933e-02 1.357586940275411387e-02 -5.420815581608695935e-03 -3.647434926726010607e-02 -8.286741248849696651e-02 -3.590361066830549674e-02 -1.849821490736558091e-02 -9.654931290901201668e-02 1.033824412013970712e-01 8.468773991464727258e-02 6.870813358372042379e-02 3.541400584642132726e-02 8.920878042900277916e-02 -2.379051275065219989e-02 4.392557289206636129e-03 -5.041156226190209033e-02 3.523653657365892478e-02 -8.794296249830665935e-02 1.812144525573680665e-02 -1.718810062497893448e-02 4.984085911663298923e-02 -8.646713945304211960e-03 8.824783510825612298e-02 -5.311099595574483856e-02 7.219423339515081833e-03 -6.053776714611704829e-02 7.534369120357106708e-02 -7.630333545062166836e-03 -8.458223401655323714e-02 -9.413970748872940719e-02 -4.986201444522454784e-02 -9.628671408121083908e-02 4.514274031040824142e-02 3.910689222751667637e-02 -7.207109425683622117e-02 1.203530364610246733e-02 8.807724788181871267e-02 -2.988352110051527635e-02 -7.632850435037423498e-02 9.188102395845278159e-02 -1.677499152566375162e-02 7.832980258112115513e-02 2.049368100950183999e-02 7.382717539131219975e-02 -4.468588217333361277e-03 8.287317188147849678e-02 -1.085822247097259219e-01 -1.469587944873488108e-02 4.446239522287308288e-02 1.250677512910540121e-02 6.116546223738924398e-02 -6.607007386603434840e-02 -9.706147840630771628e-02 -3.909182132765464182e-03 7.553069599277478785e-02 4.766045905353545609e-02 9.148397608258122815e-02 9.410457699454176372e-02 2.513767346518019224e-02 -7.422118175325574663e-02 3.936230891349828259e-02 -2.333780132109737355e-03 -7.024600488204742199e-02 -1.031772726346897734e-01 -5.978918611018981671e-02 -7.467961741498747863e-02 1.041143299452116158e-02 -2.079251608220795966e-02 6.074231969040611717e-02 4.265004008117685708e-02 8.026765099461333208e-02 -6.170672226922727793e-02 6.384661402881275372e-02 7.047512220800493388e-02 4.849363771158151856e-03 7.248766756773580844e-02 5.752084001485911410e-03 1.394381525030136647e-03 -7.023841190776076993e-02 1.007582571192149404e-02 -5.886019970450709349e-02 -3.910588494117474972e-02 4.488640750929488027e-02 6.722265687531475686e-02 3.667745536570696935e-02 7.073841486608646589e-02 -1.759851468022510107e-02 -8.408646559621313354e-02 -6.759475406633965247e-03 5.193407292600481229e-02 2.452026778815031074e-02 -2.207746969980742269e-02 6.762246494834193988e-02 9.332315302133128987e-02 2.008539515139878828e-03 -8.047821217804752847e-02 3.009513406711094088e-02 -9.358837493037079625e-02 -3.880907981189682388e-02 3.362467979615001851e-02 4.845955530993984774e-03 7.105028880503636013e-02 -6.287154799407124184e-02 -5.923364026373233865e-02 7.646348425190077625e-02 6.274230171433056724e-02 -5.239620251504586643e-03 2.448050312931270359e-02 3.933967185803305400e-02 -9.185682261873552579e-02 7.397456155158752336e-03 -1.794543356083999966e-02 9.220095388981255913e-02 2.638226967080390187e-02 -1.020404695087057459e-02 -5.950170701131134166e-02 -2.064915285198895903e-02 -2.850309439898216293e-02 -7.480371235148366472e-03 2.865040929815442297e-02 3.716609969204651143e-02 1.758253159393546872e-02 5.890176110093343215e-02 -3.091127808744706384e-02 -1.661529310807793869e-02 1.274459396257164590e-02 7.195038025471928340e-03 2.019413978811565244e-02 -6.633291528908052265e-03 3.971424713074177965e-02 -9.528945982519373969e-02 -9.084056153929978561e-02 -2.028370588594412618e-03 3.905990556462388564e-03 7.769067606909894896e-02 -2.038589486013923577e-02 -6.474284026280280324e-02 -7.385674847988622782e-02 7.006146618480038613e-02 7.435429427305893790e-02 3.864303949392806914e-02 5.307170434556073360e-03 5.645718514979077007e-02 4.838239014978090030e-02 6.941911438399449297e-02 -2.873570358065221167e-02 -7.134785501114268569e-02 3.465682110879918232e-02 4.267392881221886147e-02 2.772362275404887527e-02 -8.869687825469411979e-02 2.404617170088357153e-02 -3.211178798324178935e-02 -7.608808995985419377e-02 8.008496739614165416e-02 5.350208260945656102e-02 1.761152891765944278e-02 -4.169114911715162547e-02 -6.441318973643507528e-02 -2.588790732876117967e-02 -6.435057335548487190e-02 1.009666632272089443e-01 -1.002891279595656132e-01 7.923913402700087129e-04 -9.742160238727484711e-02 -7.347075988932877388e-02 -3.199541778891132338e-02 2.880241208915637965e-02 5.346218800512139713e-02 2.702507292659841326e-02 1.575003340564184659e-02 4.388327572550838884e-02 -2.110407335764086581e-02 3.277055815081895973e-02 -1.146259928970344913e-02 6.106171720560531202e-02 -1.159068077483154172e-02 1.092707113417440076e-02 2.853122818576456221e-03 8.581996585544710010e-02
-5.543956070332010932e-02 -2.707403046988857837e-02 4.635722274301980889e-02 -2.135327417727321542e-02 6.719623451062541053e-02 5.476043583721555003e-02 -9.162215922499185317e-02 -2.090622701177960625e-03 -7.484583934651496684e-02 -3.742904436784825345e-02 -3.467513722008750549e-02 7.827028064315025291e-02 5.029546964197163100e-02 8.187633443244096698e-02 3.712806425794241277e-02 -5.401303412287526695e-02 -8.354216440884196238e-02 -8.054256934328196671e-02 -8.546966205238581971e-02 -1.739256702186860529e-02 -1.031607807944573962e-01 1.029260238487435947e-01 5.822907341743532861e-02 -2.306499184665247119e-03 8.521437862095183197e-03 4.180029809877476316e-05 -1.418919073623250808e-02 -5.301699537246183647e-02 -5.110515246628438008e-02 7.398880141674245292e-02 -5.745680496664835185e-02 -3.124468104949377004e-02 -4.278348687685331470e-02 -7.965857360427996969e-02 4.161572132908243626e-02 5.829537525919832597e-02 2.360265179136490643e-02 3.535288167531236425e-02 8.933999215589165377e-02 -3.667362553088111127e-02 5.977079190759510691e-02 -2.742176074000909555e-02 2.225888225197879614e-02 6.595789545607592952e-02 8.351875118819648836e-02 -1.295329501753211040e-03 -4.083893255601412503e-02 -6.822110511099103991e-02 -9.047937852739829090e-02 8.063503885870570986e-02 9.975600028794597007e-02 7.797671624170603166e-02 -1.461689425352773013e-02 -5.076767878063252054e-02 -1.355653403201762842e-02 -5.733639643936041391e-02 -4.067613544184990604e-02 -2.371695984238485905e-02 7.386296997101410300e-02 -3.281109219857497594e-02 5.660445778024660035e-02 5.095642740418550309e-02 1.099077954138114183e-01 -6.024516505739254540e-02 -1.398120511680923071e-02 -4.083060600985471272e-02 9.309829621133715316e-02 3.017944068490308052e-02 -8.904965066384509798e-03 -3.104930934996014483e-02 -1.014851774497580322e-01 5.796870514421381682e-02 3.830761379546601415e-03 -6.917429628406238096e-02 -4.324295159260815175e-02 -1.675326005622492995e-02 3.300255172231274584e-04 7.524796095596153478e-02 1.051720659049135143e-01 9.208001217218364509e-02 6.752364483534392670e-02 -9.322371005019224055e-02 9.309369335105492638e-02 -5.198980194840262248e-02 -3.054000531830698695e-02 -7.826572088346822609e-02 4.078979410326870336e-02 -1.615140004080150779e-02 -1.730921570762776127e-02 -8.903087358335828871e-02 6.373432682702319212e-03 -8.625663196296641522e-02 -1.025438785239610462e-01 5.378297532439470230e-02 -3.044662221034746125e-02 -9.165570374930669464e-03 -6.834470352119575987e-02 3.668221634026769262e-02 2.729549428792394164e-02 2.595884435865464940e-02 2.630529064672862405e-02 1.081272564660435281e-01 2.612053503850713873e-02 -6.014761110165225272e-02 -2.757225666905701537e-03 2.518389973601231624e-02 1.910391818788515633e-02 -7.528580477439179852e-02 5.579927278960713360e-02 -8.766539716550596911e-03 3.796687765366430628e-02 5.664195742779891754e-03 1.270155030936576807e-02 -3.241938726133743870e-02 -1.066179311588554696e-02 -9.528248310576609148e-02 7.315897379187440153e-02 -1.113721648308784729e-01 5.636495848438313055e-02 6.724686239294758172e-02 4.471671740963341357e-02 1.271896193417583823e-02 5.420938132398834403e-02 3.033466518754079910e-02 5.315186077127982689e-02 -9.023966728143344163e-02 4.929166191675408981e-02 -6.263098631755828483e-02 8.616584431597805460e-02 6.126939388324842417e-02 6.873222950775827178e-02 1.082125629771131387e-01 -1.339762073813268936e-02 3.137530413606525598e-02 -6.384846379018907503e-02 1.957303755173993992e-02 7.683471973146284439e-02 -2.824993606443974847e-02 -4.358146490665393974e-02 8.630258862523959573e-02 8.892738978684396056e-02 -1.733380310059950274e-02 5.973708104237927807e-02 -7.373692421561306443e-02 3.238548531026058663e-02 -7.547245165167124070e-02 -5.200541528343834152e-02 -3.787227145796209782e-02 6.821313187697723712e-02 -7.557232377793406120e-02 -7.042651160568003110e-02 1.062910776665643292e-01 4.305358513048226921e-02 1.015072711716176052e-01 -5.551136970541217103e-02 9.807737944854415246e-02 -2.684399376760537512e-02 -2.132765210896939503e-02 5.109002974182019069e-02 2.195715224046912786e-02 -6.830941896896969290e-02 1.348960679419745207e-02 -2.155837273737703716e-02 -4.677163709105864459e-02 -8.961994023418297373e-02 3.882566514182377720e-02 1.352793481527879774e-02 4.191362708713438495e-02 -5.946338013433326297e-02 7.184708472290009251e-02 -9.400021373426738214e-02 5.629233485181152352e-02 -7.897743282503276452e-03 4.768211056181991675e-02 7.024266834996169273e-02 5.946853598068953944e-02 6.318371493587597587e-02 -4.453420349694566308e-03 -9.688117142719833430e-02 3.531621959689477952e-02 5.939442407079378178e-02 7.738054603821056809e-02 3.720925881102878779e-02 7.321467367766261447e-02 9.974596218967936301e-03 -4.264001754833089686e-02 -6.495195821721966301e-02 7.822271264299027194e-02 -3.032636170707796869e-02 2.727561864941558355e-03 -4.033094948333641044e-02 -2.877072422766714654e-02 2.446510955142618821e-02 -8.863770050441002746e-02 -2.253473772157396984e-02 1.762152509556195318e-03 7.261671252759488437e-02 7.155969501835980195e-04 -4.982210848892078964e-02 2.077396531707830993e-02 -1.440140378880775188e-02 -8.768435026927529075e-02 3.510146718799960625e-02 2.710132559971258071e-02 -7.716884417850201905e-02 4.541045080255953076e-02 -8.852415736490665960e-03 9.452606225754309199e-02 -9.528324377574530143e-03 9.249401918258456923e-02 9.459777275495427629e-03 -6.569563997675920142e-02 5.562369877180678435e-02 -8.812063329280186985e-02 5.174960775688822873e-02 -2.346276695060694681e-02 -6.255702744784119584e-02 -1.452113728747395083e-02 -9.139801337778392931e-02 7.228804463716606565e-02 4.839594116762922088e-02 8.634573592847884921e-03 7.058410679138783783e-02 1.056658884530236875e-01 -4.459372899975953819e-02 9.642599262671658691e-03 5.776446171080140690e-02 1.624321749984586338e-02 4.026638190674407258e-02 1.313041225098365980e-03 4.793963629466532761e-02 -6.169453790370834495e-02 -1.030734202648895953e-01 2.335122694269526136e-02 -1.667837603781417363e-02 4.500879455981415117e-02 7.583344392025844621e-03 -8.972499437097146424e-02 1.385880238371362504e-03 -4.008273772011377439e-02 1.877089941774175152e-02 -2.631899498931096568e-03 4.910328654469010151e-02 6.494264884559355910e-02 -6.779666521619609476e-02 -5.093309264480439663e-02 -6.996422121307468989e-02 3.526479106947869036e-02 -6.964157597868381004e-03 5.228537762779034148e-02 7.939308079722318112e-02 -7.315563177054816568e-02 -2.645578142311979034e-02 5.103684289493299470e-02 4.830556393805472692e-02 -8.601775588079069168e-02 6.271530688950632815e-02 5.843505211412849953e-02 -9.842040849615103781e-03 7.752356517023706317e-02 4.873792817177609316e-02 5.862356084022046776e-02 -1.970935152413752500e-02 -2.532100314773151270e-02 -7.172045949091441011e-03 8.390262594065696355e-02 -6.268604140970002181e-02 1.417743309324050009e-02 1.773487263745118087e-02 -9.047980442609157570e-02 -6.487297718507169936e-03 5.613268378539127551e-02 -5.681423142005813040e-03 6.450358611320467124e-03 1.623378505609672159e-02 -5.760122470555716773e-02 -2.141556817761162967e-02 -6.920963837279012210e-02 5.914706034212147828e-02 6.521939278024103948e-02 6.325781404619068571e-02 5.110458345352453940e-02 -3.141463046841291157e-02 -1.036487856609892427e-01 -2.993193346147287465e-02 -8.867732816809105467e-02 -4.759460468524753102e-02 -3.887896193469430467e-02 6.982933685527188683e-02 -6.431992671037937981e-02 5.662320336252427144e-02 -8.505775271809676297e-02 9.080741373574617581e-02 -1.482065029350861096e-02 3.441914710013856821e-02 4.194267149561604902e-02 1.038401945393113562e-01 1.441682274112953376e-03 -3.609266932527953331e-02 -4.606188433475051636e-02
-9.066673334744519697e-02 1.113968015558151337e-01 -9.643883037458851615e-02 -1.201832099100980447e-02 1.088941052802494119e-01 -3.485453512656615238e-02 -4.380883061429577396e-02 -2.579059504409822456e-02 4.920968949427698136e-02 -1.020541528868704334e-01 5.200012052577082655e-02 -6.776502204422162057e-02 1.036437886045814619e-02 5.206614519566218902e-02 8.908586981161450979e-02 7.914555242876490648e-02 -3.902882764534725685e-02 7.935254827395672728e-02 5.255451668799704379e-02 8.925672591001149181e-02 1.901491342430777082e-02 1.015437015285344663e-01 1.014831030739633475e-02 2.870186376775213377e-02 2.840055461542632248e-02 -1.020911977236531182e-01 -9.201839851859534847e-02 5.049963782074135682e-02 -4.878713204351147782e-03 -3.784725233973073449e-02 2.890211223657763052e-03 -1.070330975073514046e-01 -4.263552497548264708e-02 8.752411937533574604e-02 1.483285363377585819e-02 -4.281684893891313237e-02 -4.000337067219018189e-02 -4.270844442988842166e-02 9.860140700870035496e-03 -4.615839469165310821e-02 -2.077015371138346903e-02 -3.745896508876060682e-02 2.352295657134689799e-02 -1.975080271372640223e-02 3.928747767468372676e-02 -9.435802865034968734e-02 8.971235594886094178e-02 8.251074779500740253e-02 1.029095241986932724e-01 -5.369858277596696594e-02 6.025504232281470030e-02 4.394549488714839629e-03 -9.624451575470541892e-03 -8.625377148786082804e-02 -6.335165383601153166e-02 5.791741253183679827e-02 -1.069275640001474403e-01 -8.018809895667347587e-02 -5.651333281807283809e-03 -7.015718203824355959e-02 -6.327599938286279993e-03 -1.416692995919048223e-02 -6.582442035773729272e-02 3.918123839433754890e-02 -8.943287183627374182e-02 2.046253458630370795e-02 5.461649749646729085e-02 7.787693252460152482e-02 4.556464256570559590e-02 -2.033299478560389451e-02 2.697092409387006479e-02 7.068822196102102218e-02 3.401881774727689989e-02 -4.613197179714412233e-02 -8.822170964763836887e-02 -5.099926362470096758e-02 -7.266229342240547451e-02 1.751383570747197527e-02 2.197332737172647682e-02 -5.215528285803462671e-02 -5.201197691913740651e-02 8.438347443130223002e-02 -7.175332355967538323e-02 2.990069323992169611e-02 5.100860599965692521e-02 -2.052367451558747419e-02 8.436985355901377437e-02 -1.139281585547019179e-02 -7.380804984042893535e-02 4.107052999703770385e-02 -5.700964987117512761e-02 7.557532388776953824e-02 7.264140414741329654e-02 -9.179320493842284268e-02 -8.636880729132334622e-02 1.697016928868376722e-03 2.519789683342254366e-02 1.238660053860056454e-02 -8.486768691950967447e-02 -6.096878997743444134e-02 6.414651908449446605e-02 -1.125716904348511398e-02 -3.050676432404125435e-02 -7.954606034304485818e-03 2.894240608666907161e-02 -8.074010580393142789e-03 -6.133864690247918527e-02 -5.210538079292183211e-02 -2.295696460726154992e-02 -1.711481857240029769e-02 1.379575497456405481e-02 2.035126005300291058e-02 1.108406437232796124e-03 -6.761140831890798120e-02 1.273408694440153997e-03 -6.721980800801768963e-02 -5.254777329411355197e-02 5.963759683135296669e-02 -8.322042646526457699e-02 3.519085223043060678e-02 5.059627788706204388e-02 1.369319949696134325e-02 5.508194445397764094e-02 -2.043919150009950152e-03 1.244980244555605325e-02 -3.275780122727659643e-02 5.632581462539851258e-02 -4.157004358118582266e-02 -6.691957878141169269e-02 -1.952280128068725751e-02 1.047197417791764923e-01 -5.120421840258866653e-02 -6.278747291862343816e-02 4.564611706259654594e-02 -9.352296729452540258e-02 4.741038442676566433e-02 -3.626618868069688556e-02 -9.846706472693969592e-02 2.083479149172445810e-02 8.048696271825085680e-02 7.836866607694430165e-02 -3.371848256654783049e-02 -1.389105120833991538e-03 8.100848955286724107e-02 6.459580082171954840e-02 8.563055523317705808e-02 -4.544315602902720269e-02 8.817637391085363097e-02 -3.275347188531990694e-02 -3.253319859946681575e-02 -4.115379666424620608e-02 3.074655848985093087e-02 3.444777783810250293e-02 2.051052257152823077e-02 -8.050423991127184098e-02 -3.927078473122137120e-02 8.037380971454831380e-02 2.283345688769683815e-02 -9.067406050699260145e-02 5.443225550941099139e-02 -1.941328719211975196e-02 -8.343688205866625629e-02 -5.221029125944936372e-02 7.409757138150636913e-02 8.796099553055179709e-02 -2.223294572097334748e-02 6.991314200212364258e-03 -4.681486999977946262e-02 -5.348307256653958563e-02 -4.706697789210238098e-02 -4.772452150959169415e-02 7.181991934953002588e-02 1.900401302129118772e-02 -7.920130306948834631e-02 2.626884845796614854e-02 8.700143988872954814e-02 -5.109673874274884425e-02 -3.614454343528208935e-02 3.324981395904767767e-02 -1.122446255769865044e-02 -8.823862420878268720e-02 -5.223670210703668104e-02 -3.338327200296018621e-02 8.128696208475477691e-02 4.071563565034523602e-02 1.481467392169907339e-02 1.656539595744662644e-03 3.751308770373137924e-02 9.788209667666336600e-02 -1.330077118355126736e-02 -2.224444146688563106e-02 -2.099001872790629691e-02 -5.408448293591064382e-02 6.061585338894018293e-02 -7.131666921375326429e-02 3.044894609336106645e-02 -1.131202558923267987e-01 2.641532001794133500e-02 3.277290779719473773e-02 -2.236125693118483360e-02 -1.922368353030309840e-02 -2.507647532697190179e-02 1.043570070878245722e-02 3.817956780299600061e-02 1.083618047672839368e-03 -2.544705252754270522e-02 -8.828799079430971197e-02 9.067108629710883549e-02 7.522080745713377592e-02 9.279001639883839581e-02 9.719712393427710692e-03 -5.349999094813659428e-02 -2.867173802712270902e-02 -5.594561442754358849e-02 -3.238960206609916431e-02 7.573702658615318051e-02 -7.448334769632312946e-02 1.967409822132575731e-02 -1.184012821318612962e-01 -9.695332453946940016e-04 4.148182623297318183e-02 9.534076449549405696e-02 9.659531043542496365e-02 5.143277110844206995e-02 -1.012692834575541351e-01 2.028278724427488161e-02 5.656390035083058709e-02 4.135014064699647079e-02 9.306953757411659534e-02 9.252634268473908241e-02 8.692299639986239557e-02 7.851406776083764971e-02 6.786102621721855008e-04 8.393442450889890272e-02 9.219784823730416135e-02 8.152427060641338763e-02 -6.511799888848335272e-02 -3.503196721929657115e-02 -5.010556259050131384e-02 -7.800341631911189566e-02 -2.834901601448707592e-02 -3.989722692873658161e-02 -1.828063838548577708e-02 -1.074732632971364329e-02 1.472880039149345247e-02 5.385658777599969249e-02 -2.170410551221074215e-03 -5.272097734416195114e-02 -3.535796496177204262e-04 1.138841714839218672e-01 3.671618216586969297e-02 2.348280910691861664e-02 4.823296675642304437e-02 -2.363391377252570952e-02 -8.803718864964527047e-02 -5.968470071085502787e-02 -1.068189410681431167e-01 -6.040594428510463049e-02 -1.343432068018698793e-02 -2.028391333476620151e-02 3.667441350202105266e-02 -1.025156962544138822e-02 -4.325489408987941153e-02 -2.478777488938412737e-02 1.335028531348574424e-02 2.529436927500530730e-02 8.649510066538756980e-02 -2.610893482779054475e-02 -1.455572946971600209e-02 2.988628717593960499e-03 8.398810816208683583e-02 1.528904385645286912e-02 7.375310636387635843e-02 1.171831099944024325e-03 -7.770624064917069918e-02 -3.353012630178947573e-02 9.043657837006262301e-02 6.700752197407147670e-02 4.224351976821340976e-02 5.591826445153336156e-02 4.399091713124519271e-02 -6.514752955617197916e-02 -2.414515270853822421e-02 -2.545160966485928919e-02 -5.377444250354322663e-02 -8.774202197954460158e-02 1.581080213506148857e-02 -4.609368686306129087e-03 -2.086978254336541508e-02 6.297923804596326780e-02 -3.678367040084847689e-02 1.099643806706440685e-01 9.066882026869654138e-04 2.398617403106166265e-02 6.468948867562525351e-02 -8.350542553617963659e-02 -4.265490263339020288e-02 -6.770556371389274686e-02 3.430614627931757865e-02 3.117532487129609162e-02
-6.877943287849939968e-02 -9.017087700963730135e-02 -1.033536157569833192e-01 -6.374813321729844162e-02 6.502486452194913835e-02 -7.884592406578394552e-02 5.362518505686382497e-02 9.603880550075705180e-02 -8.575824102631850188e-02 -2.555887182028346652e-02 -9.571761177427119682e-03 5.502364041811588780e-02 -5.092677444147261645e-02 2.907828499914415915e-02 2.856621922264485428e-03 -7.027576012963963892e-02 -4.008621636392360049e-02 -3.440414074719704701e-02 1.902483764483347065e-02 7.978242594231152451e-02 -6.736935381093914210e-02 -1.481593535820354725e-02 9.160163499406895338e-02 5.456558076435958499e-03 3.613325174507951709e-02 -5.158192608732257989e-02 -9.190855287163730847e-02 4.184204667688158630e-03 -2.762311801090502200e-02 7.521012391322220991e-02 -4.976095094863649398e-02 8.194585938721885704e-03 2.787842473182738923e-02 -6.683704228026252775e-03 7.302032892085105753e-02 9.439911756655894326e-02 -8.751724296847863960e-02 -3.309270620595516216e-02 -5.090641798557544312e-02 -5.650315292915743248e-02 -8.834482966316674346e-02 -3.038485879009559729e-02 2.590075386790161374e-02 -1.396945258924563345e-02 -4.424816056135594949e-02 7.162717511927056691e-02 -4.721407303423029445e-02 -4.109974817603359587e-02 2.474596885166574500e-03 -1.862522415707761319e-03 -7.338221653071945461e-02 -2.838706721603540678e-02 -5.290247670665407242e-02 -4.893520205862054127e-03 5.151131743490172665e-02 -7.383402937759644957e-02 1.013849367513401933e-01 2.132665636385673927e-02 -5.375430351344831492e-02 -2.412697308060183371e-02 -6.990922658031226145e-02 8.704640136025919295e-02 -5.141952177483956332e-02 3.162338230936567740e-02 5.688945475462026113e-02 6.967295688475226567e-02 -8.729529216175140049e-02 -6.096150226662931659e-02 -4.323729383104022578e-02 1.126924107223304244e-01 -4.510258870193861042e-02 2.673013350505920593e-02 7.294627842900779091e-02 -8.788344734841405104e-02 -5.307332990622512514e-02 8.699905936801059780e-02 -3.565854479302683899e-02 -6.534841918235836933e-02 4.703778235080924297e-02 1.311350031590200436e-02 8.932861810116887735e-02 -4.423420960848402361e-02 1.245529028897152460e-02 -1.925324636026108649e-02 -1.000796394086208851e-01 -3.693378070054697399e-02 -1.703266677281727384e-02 6.338847825855929707e-02 9.993148433672104092e-02 -4.289848591495497299e-02 5.533001910929862682e-02 9.397215879330444999e-02 -8.680054291033047209e-02 7.605253507225609444e-02 6.039504098877428867e-02 -9.849324450940524084e-03 2.625580942340699844e-02 1.261172038857420741e-02 -4.944202293695203893e-02 -1.120214135681728701e-01 -1.492849917676703810e-03 7.688318007073578764e-02 -5.486468842121691031e-02 2.699728805532400355e-02 1.020029755423904616e-01 9.221482547367822191e-02 -6.291565478820440593e-03 -1.001373497153388303e-01 4.181369552814369339e-02 -1.880482973970015910e-03 -3.487609625693786214e-02 2.611501328511393882e-03 -1.053101802674959592e-01 -4.156024763638700020e-02 -2.854870804552724767e-02 -7.893093908830578487e-02 7.008154815767655976e-02 4.123550709515916290e-02 -2.907248030551492363e-02 4.008963543500208837e-02 -3.135272878752146802e-02 -5.149000945830904674e-02 5.064315464187042065e-02 1.527931657539931265e-02 -5.106174069719972286e-02 -2.161152728028043618e-02 3.445890459344510409e-02 6.705996239667533221e-02 7.050767486048993560e-02 7.973379780952219442e-02 -5.462069175228574658e-02 -4.842900030790987798e-02 4.230803064324731300e-02 1.198712993575500041e-02 5.689774831339594607e-02 -3.702817624832058230e-02 -6.231075054795204293e-02 3.405784781479752332e-02 6.855209721624955232e-02 4.200024671977062654e-03 3.633733440327779896e-02 6.309529822234000163e-02 6.740122813633739329e-02 4.880541120818029585e-03 3.211321935119876292e-02 6.349309959291493666e-02 -9.584656359167306738e-02 1.097673203599863201e-01 -8.257713674714338425e-02 -4.971908559561405427e-02 -4.123353754374207286e-02 -6.518805800299085074e-02 2.608910572657671678e-02 -1.015512801805254217e-01 -4.272274287564098438e-02 -3.078309073128056988e-02 -2.833452159830549683e-02 1.027898963719125064e-01 -4.171479505674687699e-02 2.108543947736214730e-02 1.015829669592674921e-02 9.034562710605244240e-02 1.056139353989888757e-01 -1.376536407217584385e-02 -2.304779495962032757e-02 -7.006683562418666855e-02 3.718782013755562305e-02 3.133542865276133654e-02 -4.686705048351538783e-02 -1.021461631757618754e-01 -3.374976145649947329e-02 -7.532008291124053789e-02 6.024970975899635733e-02 -5.589736879958221577e-02 2.417915935225405447e-02 -6.277001767742378113e-02 -2.425392662614003422e-02 -7.014713899163657271e-03 1.784911258491039474e-02 3.883276595723773178e-02 -4.929835759675867818e-02 6.593884736113568568e-02 -8.280124025617963124e-02 2.245445471669417492e-02 -6.701961258144896461e-02 -2.743932763280116510e-02 4.653975505401674456e-02 9.378015701296733841e-02 9.077016148068715873e-02 -1.211319601758690384e-02 -9.957973097210859326e-02 2.426582015024981998e-02 7.734417255875702946e-02 -3.013732718472261068e-02 -2.940332755601531359e-03 -4.867434058093674659e-02 2.090986607380510703e-02 -6.524738018685301288e-02 -5.453974966081109182e-02 9.848600302648533728e-03 1.051976021986363898e-02 -6.315931434376570452e-02 -1.752665710841568372e-02 5.741996878827586998e-02 4.302337823057399840e-02 -1.062242252807042847e-01 -2.720635345970649419e-02 6.514986916717677157e-02 -5.791371812666901153e-02 9.599029901646391472e-02 1.618729779099918956e-02 1.084320701768940604e-01 -9.178479266993699870e-02 2.544792848393487988e-02 -7.893044434851842484e-02 -1.823912516333990770e-03 -8.363935933113629539e-02 2.989772745240700663e-02 -9.135777538863742997e-02 -1.670293330964459609e-03 5.797930908929212201e-02 -3.394141238034456554e-02 -6.660324861852864875e-02 -3.729875450462029340e-02 8.792627945551710622e-03 -6.680024632277037355e-02 -4.922287823646010613e-02 3.283604997082935351e-02 4.758648779493600267e-02 1.907394992808261747e-02 -6.064487465061479954e-02 -3.738228658252451368e-03 2.922488164717029421e-02 2.399295738102196623e-02 -4.596331111041382367e-02 -5.366071799586571295e-02 -7.493275819654731870e-03 4.478453640136297736e-02 1.711063740385710547e-02 2.949536946179474872e-02 8.410472557463015419e-02 6.115934123804567246e-03 1.589326680416066652e-03 7.023075877111088772e-02 -4.523923144710868122e-02 4.580228697452627673e-02 6.080323180560045365e-02 1.276073774040615595e-02 7.576519035857418038e-02 -1.030756199978717473e-02 -2.921410875341945435e-02 -2.468953501356904029e-02 1.593168913845109669e-02 9.919994237500127932e-02 -1.275008747186322927e-02 2.816304120548692586e-02 -3.755184399840424611e-03 -6.121529208953495338e-02 8.791496235207718613e-02 -1.213096300705504907e-02 4.499190166552845954e-02 -4.844584664262503032e-02 5.278523711198173513e-02 -6.226702653305302843e-02 -3.834744250830856432e-02 -5.477031488791204994e-02 -8.409976892856139974e-02 -3.987846100035485203e-02 3.599199132360957065e-02 3.387586312306885283e-02 1.099714691954297580e-02 -9.647551727296053981e-02 9.402492952608702825e-02 -2.245218980857215801e-02 4.373989752669759506e-02 1.086668435171277980e-01 -5.899771340690539156e-02 5.130060308467115915e-02 8.519036361074155961e-02 5.280230320584580056e-02 1.005669952050117916e-01 -5.838862377666260289e-02 -1.893445769453827240e-02 1.071981991391567357e-01 -2.739099268961162764e-02 -1.023628398773699794e-01 3.485623342097170230e-02 -8.288767494053165402e-03 -9.453200850181121828e-02 -2.894193113582343990e-02 -6.561318644539336498e-02 -4.362290681222692063e-02 -2.507753697359517420e-02 6.465749535421903837e-02 -2.238328599601415933e-02 5.508174419319711128e-03 -4.159562466037773631e-02 6.866532026197384384e-03 3.787043399897265655e-02 -9.702864681149003800e-02
5.788104474061876205e-03 -4.241000921413682484e-02 8.956226917688563105e-02 -8.151337822706135328e-02 9.966141538949721199e-03 9.309149513987126368e-02 6.298161731680304576e-02 -8.922622124519988263e-02 -2.350088344963958964e-02 1.793662327399911036e-02 4.417598158487869714e-02 -4.025425914687501966e-02 7.378706448311690702e-02 -9.366603768882817913e-03 5.460433715784910463e-02 -9.673179570351274348e-02 8.794693076991985659e-02 2.869902768286472874e-04 8.201729157606143465e-04 -8.021899864837991889e-04 -6.832096858491856772e-02 4.565009237315342111e-02 -7.076951375582831924e-03 -1.650364228673268860e-02 -4.440467305580180629e-02 -4.204011056121876450e-02 1.017290389657602295e-01 -7.634000662829550088e-02 1.939191584134119031e-02 -1.183339744671186092e-02 4.820822570871086815e-02 -3.564692128399652576e-02 -6.608991748562647456e-03 1.078265050891001782e-02 6.841468500583489099e-02 -9.929895227659945797e-03 1.008831873575586763e-01 1.120078282859269039e-02 -2.688355839489828258e-02 -1.367091814654485676e-02 4.194507461763575390e-02 -1.167306139866700759e-02 9.988334437825471812e-02 2.254035812339543268e-02 -8.190630876777297426e-03 -4.512843458894081478e-02 -8.072391666614799066e-02 -4.341093339360443254e-03 2.451286877171203818e-02 -7.003790506853720121e-02 -6.875365643909861491e-02 -5.987897175637935110e-02 -6.402684173600117767e-02 6.715366963802810174e-02 8.030156749676646555e-02 3.444564290714276916e-02 -4.179742963700940062e-02 7.052916516689551607e-02 -4.285429639381187206e-02 3.597941910998170983e-02 5.924339158029134217e-02 -2.004761474726473452e-02 -8.673885740879706818e-02 8.024179249542906511e-02 3.289997581835929497e-02 5.515646457763513644e-02 1.107809491662900894e-02 -5.277420066146441824e-02 -6.025088088560740657e-02 -8.331891940884528225e-02 4.540481153562199446e-02 4.042049729550437065e-02 -1.230838641728293215e-01 9.369999512821645948e-02 -2.882287047974836300e-02 6.250900373881445107e-03 -1.225619893391101042e-02 2.152508205883523623e-02 -8.641624514301826654e-02 3.262156190503488068e-02 4.143074247709344071e-02 -6.761674380479956725e-02 -4.557243878506363893e-03 7.036493143664225569e-02 7.517785731791400139e-02 -2.527473720757384551e-02 9.484405199403621659e-03 8.559577555700942364e-02 2.672872452810544884e-03 3.709390874971677660e-02 4.537760390590221682e-02 -7.691274571349844547e-02 -8.942295458700527666e-02 9.359166354301959312e-02 -4.553500513211149875e-02 2.981355932532191513e-02 6.583661275543473135e-02 -4.465944184740867212e-02 -7.388158112340195705e-02 9.972757873856279501e-03 6.221313975797893719e-02 -7.323317115907707064e-02 4.500047967938419075e-02 -4.871550859910230707e-02 -7.684756843291838668e-02 7.829616132788538158e-03 7.431265593727073848e-02 4.620677100865604875e-02 -8.476357265808986963e-02 -9.876738811038034138e-02 1.813011332163551228e-03 2.007001426876848117e-03 1.670652627780933042e-02 -5.854727011348671156e-02 -3.809973248213907593e-02 -8.480927787078518243e-02 -4.116585554782655615e-02 -5.607482360505128272e-02 -2.123923583320606184e-02 6.252515548821704905e-02 -3.569223480379839913e-02 -5.456407425986445348e-02 6.356468068269223448e-02 -5.905632943429206527e-02 8.573249720187889333e-02 -8.395117558554535120e-02 1.013651061879947829e-01 -3.651355220020313652e-02 -1.795199225969585505e-02 -1.043436410148212978e-01 -5.519756325182836182e-02 1.330020885175151740e-02 -3.012881121633397344e-02 4.205803095439702988e-02 -2.117980973032749029e-02 7.813001881360108480e-02 7.434209775575502388e-02 5.602541912410431701e-02 -5.486196957753484635e-03 -6.074949946272780593e-02 -1.907517306358668882e-02 1.211493587439599340e-01 -1.751761822537170263e-02 -1.130787209495113035e-02 2.325228215110641122e-02 3.004562728768398958e-02 8.109336815905822393e-02 1.326711543801527803e-02 -2.465030803604635959e-02 1.137835682189136492e-02 -2.633666186469176343e-02 -1.220678830384097496e-01 -1.183563720239452256e-02 2.284668759853808462e-02 -5.614487766298680710e-02 1.033118848117087346e-01 -2.933822656434663737e-02 -7.255891553831730900e-02 -1.427227812307894569e-02 2.024457094483474509e-02 -5.155271644204445503e-02 8.051938914689166227e-02 -4.614569852510983644e-02 -4.247145881127890182e-02 3.391197142571933387e-02 -7.502827243682230751e-02 1.418940255799564301e-02 -8.047054033329367750e-02 -4.440278485068033937e-02 -5.654100601120778252e-02 3.195850647102536565e-03 -2.017257328927468001e-04 -7.762422547895235503e-02 -6.752213457874610414e-02 5.552409273253390565e-02 -2.028839085424323507e-02 8.278706971827477779e-02 -3.640154092096556382e-02 4.435181295657689149e-02 -1.461921101746461657e-02 1.092138152010046354e-02 5.307815680259769797e-02 -6.889189889215575902e-02 -7.678636062537312623e-02 5.192361339977708684e-03 6.778063006122841960e-02 -7.004892524485145655e-02 -5.573784433399287669e-02 4.782239753458240178e-02 -5.801854287122448772e-02 -7.319632759967775737e-02 -8.596877266934137285e-02 6.378643735848543717e-02 -5.071684087134585572e-02 1.191382936129932457e-02 -1.019525831978868591e-01 -3.900376463318514647e-02 -8.558798919621395107e-02 -2.841370965509749935e-02 -4.206811529433959751e-02 4.206118968878877484e-02 -6.194369732598997008e-02 9.851800995120567339e-02 -4.344401103824120647e-02 6.658014318961152922e-02 -2.736824301042270133e-02 -6.387388507751703970e-02 -6.144838321433730016e-02 -7.172602027449397066e-02 5.209118366488700580e-02 8.525517455164688743e-03 6.421123064852836404e-02 1.161471652105465907e-01 -8.858938102133183390e-02 -3.751784745736145427e-02 -6.202353813818122646e-02 2.604905925824496302e-02 6.086597537242718209e-02 -5.266490477947737697e-02 2.835959834741084290e-02 -4.637352617158368648e-03 5.299766836012693300e-02 -3.909719361905384521e-02 -3.170825429022323255e-02 -9.571250696927960377e-02 -2.851802442971039173e-02 4.298959823943178382e-02 -3.526657260395503479e-02 6.959049578397800973e-02 8.091991436215097144e-02 5.893960260951692717e-03 6.988049095785592302e-02 4.841943102521026332e-02 3.475497395286390734e-02 4.163431499838289584e-02 9.012324820490386079e-02 2.055158349631005729e-02 6.399129343076692678e-02 7.305530915540048298e-02 -1.524590983919696559e-02 -8.813755981410080487e-02 -3.040341127119143561e-02 -5.514975985804104058e-02 -8.054998575456950860e-02 1.094038260725331835e-01 3.655882372077963981e-03 8.926508226548285352e-02 1.069040243205871335e-02 -6.237344490798271690e-02 -2.826263385829827154e-03 9.584259521309254626e-02 -5.342004102381918418e-02 5.620436862397128891e-02 -4.544756008848598733e-02 3.311583381860219721e-02 -6.274216732584941489e-03 3.091171597385980810e-02 -7.148607497001671640e-02 8.201148731552361515e-02 -7.317654734002607131e-02 -7.647762367732799382e-02 6.729914629044092544e-02 -7.487487823378267959e-02 -5.492479176143124503e-02 -4.649039064639558932e-02 -4.946427192816293950e-03 4.791916573851730254e-02 -8.387541653902104433e-02 5.020385881738294309e-02 -4.089696053270891474e-02 -4.696892561971872243e-02 -4.504303367157844878e-02 9.104432892533325869e-03 -4.170636445244084445e-02 -3.382698694255778515e-02 4.640408521743041165e-02 -6.769044046661798486e-02 7.236464334852750480e-02 8.071519140612909426e-02 -9.592930446981459691e-02 9.624744089756323562e-02 6.983889577226784495e-02 5.120716963364497359e-02 1.488620942884798758e-02 -3.479577747504546820e-02 3.234731893571761094e-03 1.137187180614046278e-01 -4.058741136350586115e-02 1.138563662407569010e-01 -6.439025552748454950e-02 7.150095116338249512e-02 -1.711608714580892948e-02 6.445064187873797423e-02 -6.337054657647905702e-03 2.518792028438058758e-02 3.085739545032333692e-02 -6.670262472625070049e-02 2.751485221067863016e-02 -4.671135606857496308e-04 7.508703935770486004e-02
4.389697477046592550e-02 3.420426285013409423e-02 -4.860575931602533623e-02 -3.954079378507323328e-02 1.042573845560653203e-02 -2.410278931367829808e-02 -9.657081399711817116e-02 5.978133592473641039e-02 -3.791180096112073405e-02 -8.152548100600486014e-02 6.975789161095424795e-02 -2.745253146360320667e-02 -6.221442346351266361e-02 -8.292154664360004701e-02 -3.137462836388005272e-02 2.710555767682291603e-02 -2.113903573624865279e-02 -8.790536916872947193e-02 1.512976912378351593e-02 5.498346713132853426e-03 -7.009747487374541619e-02 2.173455093602687238e-02 -8.595821251458973453e-03 6.473059256713019349e-02 -7.128495030857613657e-02 -2.489950831409891083e-02 -1.682909753065188474e-02 -7.229254660331203841e-02 -8.210973910503607809e-02 -4.726015481668907094e-03 4.482202057827609776e-02 -1.086636884125987551e-02 -7.447275181951384937e-02 -8.209345114838168325e-04 -3.611934051580342059e-02 -8.780798327444673534e-02 -3.777618101443924736e-02 -8.859028887800705909e-02 3.775332017762641351e-02 -7.447754448998125665e-02 -5.927967546112503094e-02 7.652526111994924218e-02 -1.521707244719876055e-02 -2.023084142647988207e-02 1.270219950309454948e-02 3.819352553536418948e-02 6.190226465955111362e-02 -9.148263772733954136e-02 4.717262709691680961e-02 -6.631042276942868130e-02 1.157480306155086042e-01 -3.915427947073102377e-02 -4.623029315424455332e-02 8.438823262324383900e-02 4.192863242673203206e-02 -1.678650705834981022e-02 -8.320816060529791225e-02 -7.773172712402684481e-02 -4.213966193163308505e-02 6.273053316126435408e-02 -7.521579096965817779e-02 -9.086730312699638212e-02 3.768861004621469613e-02 -2.688146877250945782e-02 4.768471836834935890e-02 2.998399980477978524e-02 -7.213358503239990227e-02 -2.361095651689943190e-02 1.135295126357497957e-02 -5.701604794169713719e-02 3.792017194543904901e-02 -7.264037957835088599e-02 2.091979732296603278e-02 7.575921064304995400e-02 -8.628877270499009378e-02 -7.135884274963720519e-02 7.699022703582564242e-02 2.308243675380640056e-02 -3.507117803269679812e-02 6.635548707396138335e-02 -1.828642873599423818e-02 4.842173553924550289e-02 1.046780736176202986e-01 -6.763521291145251080e-02 3.246220581518009102e-02 -6.704641019860406448e-02 -1.368792912184363733e-02 -8.964240420244738716e-02 -4.780664889819907087e-02 8.185255024074973573e-02 -5.481692892914120235e-02 -1.013382832619659085e-01 9.003335132861153833e-02 -1.239318122508180353e-02 9.250024827634205360e-02 2.590191263721259782e-02 -2.624400989011042157e-02 -1.520434055551735802e-02 -4.315836650213805692e-02 1.028900471712231590e-01 -6.395981849250456652e-02 -6.316508861094329713e-03 8.908539137851231859e-02 8.245254070865844220e-02 8.666692116951656144e-02 9.033493846053074205e-02 8.935354085511855449e-02 -8.503745515814903344e-02 8.580109595060857186e-03 7.014078255499164860e-02 -1.920939415141818818e-02 8.056328202892548696e-02 -8.744237612774560797e-02 1.210754712565020354e-02 4.955735077923555804e-02 -7.120824739402609009e-04 -3.023860776356668278e-02 -9.538390077175012971e-02 -1.554732722462857930e-02 7.503047271054115452e-02 1.391933496652035182e-02 2.116044172195154921e-02 8.749283257664660501e-03 6.282193674215985624e-02 6.366011654604142311e-02 4.035808674971251564e-02 -7.537800228487059884e-02 3.099836938333432046e-02 -4.276004729726849696e-02 -4.088650598575754164e-02 -5.521844793606364016e-02 -6.707633587833268518e-02 6.603623350970153072e-02 7.302421225036697522e-03 8.276150696738085455e-02 1.415452207513885098e-02 9.402360445261806823e-03 -3.567763688522331000e-02 -1.081906390844657728e-01 -5.995184293444894008e-03 -8.754670724304028373e-02 6.745480785492122267e-02 -6.320996548116730729e-02 -9.696501421977647694e-02 3.257116357663805261e-03 -6.293153012566648358e-03 6.572203607355606159e-02 7.183707574426934084e-02 -4.719920308292307326e-02 5.786663480563548900e-02 -8.647472290080457369e-02 -3.752999246669894845e-02 -9.466493840090919876e-02 -7.271625133547870989e-02 2.187218609204642089e-02 -1.089484422490451937e-02 -1.824125462243860601e-02 6.687917223458486604e-02 7.286324002330975963e-03 1.003498117204804779e-02 -9.911417969936464623e-02 -9.979208387045652995e-02 2.063067711683645028e-02 6.515550365695994828e-02 -7.354046139315749409e-02 4.889180525184463888e-02 4.404409501780253387e-03 -9.207538204866538845e-02 -8.433681555536377827e-02 5.742823658149465854e-02 -5.083761874207620018e-02 6.274941936538096232e-02 -5.476616068144596339e-02 -7.835996168064277012e-02 6.355951047289216949e-02 4.198985681894470273e-02 6.597070603678836798e-02 2.164538187929610294e-02 -7.682688890581519658e-02 -5.485947378924438400e-02 6.202825276461446102e-02 -7.423189790761945683e-02 7.257280299116676547e-02 1.838617668380482240e-02 -4.152210428993315106e-02 8.629204163264153626e-02 6.388311255119974441e-02 -9.548095797653194730e-03 8.023573708141830407e-02 4.560124685569570679e-02 -7.236363760378039522e-02 2.324585855783428343e-02 6.378505150357878517e-02 5.832371131842843670e-02 4.474104594470277446e-02 -8.656442736287429940e-02 -6.891075206613835394e-03 9.956955768293382358e-02 -6.125984529980773446e-02 6.709289060553792761e-02 -4.024159714594645332e-02 5.413011915169249622e-02 -1.000584610927332391e-01 -6.547892088659433563e-03 -6.612946532591845727e-02 -7.292657468489580075e-02 -1.014574481442496491e-02 4.422133837594927758e-02 -9.136717169802913846e-03 9.774775281339123656e-02 -2.098562105418773360e-02 -5.942556808869042112e-02 1.623569680521003145e-02 -7.604085847656748276e-02 2.111289621085182117e-02 2.404268654038016137e-02 4.129731586323399234e-02 7.789271367404521085e-02 5.574168380211901724e-02 2.221647604688896382e-04 -2.243731322398196185e-02 6.907145279727668064e-02 -6.190011686273844821e-02 -4.326105204542339024e-04 3.017729440930460097e-02 -7.210006031662570536e-02 -6.967721099956572517e-02 5.575060122372120508e-02 -5.295216349337224931e-02 6.757562583231307984e-02 3.164428370777515320e-02 -1.408618813524942052e-02 4.874233831781344534e-02 -1.814238834184783017e-02 6.573442610061039360e-02 -4.013288647132437492e-02 7.213119637148832086e-02 5.202659742343004184e-02 -8.110156926801987895e-03 6.764187855296723006e-02 -7.534533465221958382e-02 -1.702247108922701549e-02 6.030281160024314295e-04 7.939441669409423585e-02 5.392981393224833414e-02 6.232725327509321817e-02 -7.338609090230316379e-02 5.478126042845463117e-02 8.781767108779496567e-02 1.028993097764914766e-01 -9.397477464803252745e-03 -2.569939141255885365e-02 3.290935353301707722e-02 7.491561116461206704e-02 7.201368646293035414e-02 2.356513659112347350e-02 -6.170195117776566991e-03 3.973443181468069851e-02 7.041321630539960907e-02 -1.251469235557865420e-02 4.183926288072833954e-03 3.313666421892096786e-02 -2.611721624616288387e-02 2.419658872855197373e-02 -7.848654188983232582e-02 -3.182320794920989737e-02 -9.303013074330198848e-03 7.673092780801246682e-02 9.227432797014002361e-03 -4.243595942828161383e-02 -6.933291796550870856e-02 1.532919887040342863e-02 -5.472160851511125024e-02 -9.534784757762959639e-02 1.308795264079702127e-02 6.975235559799275453e-02 -1.810824383392289644e-03 -7.968632290356086889e-02 5.366128697080579241e-02 2.730305633882663084e-03 5.074237545398235794e-02 -7.261094512722376937e-02 -4.428116169974257929e-03 -8.381165131674021829e-02 7.817462768817712293e-02 2.339008571432706768e-02 7.782813181910926137e-02 -2.691473766446681251e-02 -1.484807543308323818e-02 -9.479990760320770871e-02 -9.560167398500500624e-02 3.335549819996475734e-02 3.487435840455810950e-03 -2.625108907648551065e-02 2.185454788597605835e-02 -8.326422275560754760e-02 1.721786841673819072e-03 -2.357433288041429001e-02 -3.257751477637749887e-02 -3.349133219948492723e-02
