3.495188767821106567e+11
1.432708554809859488e+05
-9.416370400169021606e+09
-1.228602634895451740e+00
2.067799026621756493e+05
-2.454550685154774475e+10
-8.353881275473356247e+09
7.828774584953286743e+10
-5.380288281976547241e+10
7.540955608724533081e+10
1.299439157438892822e+11
1.725181814145759277e+11
8.999137275143722534e+10
6.141817926750602722e+08
-9.451171363361128286e-01
2.044281990526356676e+05
1.541365105013269288e-01
-1.336597614699410519e+00
1.040649364401468201e+11
8.856611244010162354e+10
2.363975540104473267e+11
2.851526132095307730e+03
9.832622889982879639e+10
4.085855896938253784e+10
-2.462981980934799194e+10
2.468065951558408508e+11
3.769615738506336975e+10
1.682120823510625305e+11
1.770529256318402710e+11
-1.661937338728742599e+08
-4.682588089885832369e+07
-4.593201460878646851e+10
1.217488856666165352e+10
-7.937179356776051331e+10
6.926045926162399292e+10
2.178811884343168259e+10
-7.394283673271597290e+10
-6.440608014540091157e+06
1.092862875804143677e+11
-4.446223195980377518e+00
-2.476484914264417171e+09
-6.991812977027730085e+05
2.756248437047396851e+10
3.648530814140609741e+09
-1.606895143615232849e+10
-1.526825617012961864e+09
5.720500383933764648e+10
-1.846262988840465698e+11
5.746023212971854955e+05
7.047410366960441589e+09
-2.046239519895520775e-02
-6.482286164114698792e+10
-4.165181968104855061e+09
1.064185065280793235e+06
6.414236877903963089e+09
-7.201069742135699463e+10
-3.187147443263374953e+02
9.254304317284259796e+08
-4.517788364145965897e+04
-2.050562854130946565e+06
2.756130722503608704e+09
-4.016948006753364563e+09
-3.189551605496093750e+10
-8.490857252300270081e+09
2.080448311549749374e+09
-1.075698901203187180e+10
-1.764338771134882736e+10
-2.969757697188412476e+10
8.676423771541040039e+10
7.777813117290652656e+01
-4.013702921342741394e+10
1.629444922201614685e+11
1.676016087615723267e+11
1.401792798837020460e-02
-1.205885851079329774e+00
1.288080768713457870e+10
2.342641994793060803e+03
1.886104121253360901e+11
7.665880179006663513e+10
9.276842683476123810e+08
-8.274268683556403965e+06
-1.103247003036500757e+02
7.396128866915985107e+09
-1.845196961927813684e+00
7.130894363536243439e+09
-4.559391859992965698e+10
-4.009074974385072327e+10
-2.055542196472372437e+10
6.673939979298773193e+10
9.614375564642917633e+09
-5.990906274273223971e+04
-9.798767570603302002e+09
-1.496563787918258858e+10
-7.107376884315438843e+10
-1.423313015969300232e+11
5.712696752751184702e+08
-4.651842612805767059e+08
3.422191394623699188e+10
4.583717105082051849e+10
1.231021527360418854e+11
-1.133170704420912500e+00
-3.847441654958000183e+09
-6.724904726747351074e+10
5.297729949821102905e+10
4.066581749199528503e+10
-1.816118672947885990e+08
5.628944033716898332e-01
-9.833664695814617920e+10
1.646591878037928467e+11
-5.291902787629488373e+10
8.277912178544947892e+02
-1.547009241297751160e+11
-6.489463317125427246e+09
5.269585280638372803e+10
4.052210815475325775e+10
1.381541492443392944e+10
-2.416247469103039551e+10
-5.494908724968634033e+10
6.119263971433704263e+00
-6.354615236648840332e+10
-3.751778226445956989e+03
-7.395507103321155548e+09
-1.299666309765769653e+11
1.190679975470234985e+11
-8.243719898891615295e+10
1.023558046131430119e+08
1.877662412169716187e+11
9.808801467083023071e+09
5.387241470665843964e+09
1.398415684565552979e+11
-1.185399692005134888e+11
5.929536764581974792e+10
-2.080004095091285706e+09
9.044940416443822861e+09
1.488431778391442108e+10
4.848081783659154510e+10
1.299341290974426270e+09
-3.521188313613881071e-01
2.970162228523902893e+08
-1.194757112737328186e+11
9.411966397785568237e+07
5.882576063427805328e+10
2.850049682359376526e+10
4.133065003806406403e+10
-5.659357050111331177e+10
1.679135559047456360e+11
-3.170709341346379852e+10
1.304576356670546556e+04
1.271104249973908234e+10
5.648465543456869507e+10
1.478397136447097466e+02
5.620955138647321320e+10
-1.716866297082775688e+10
-3.096840079929896545e+10
-5.434215767541358948e+10
-6.071276683507558225e-01
2.257867941136273193e+10
-1.790464747680844116e+10
4.958264590787429810e+10
-4.421275040421571350e+10
4.317733130816711426e+09
2.302723920883747101e+09
8.483799578750279236e+10
-4.164965649110563106e+01
1.847213001091020203e+10
-2.137539001743413544e+10
-5.109661097440814209e+10
9.393128803069808960e+09
5.297512241651171684e+09
-7.799089343416516113e+10
-3.162023335246934685e+00
-2.438576665569944453e+03
2.418363596758037806e+08
-9.488629782696759033e+10
-9.822610973181195259e+08
5.250791915083094239e+08
8.314452041505421698e+07
-3.465926013042263031e+10
-2.537649096313512325e+08
-2.244724230912860107e+10
9.708119198048828125e+10
1.307035933437953208e+05
-5.276695485929489136e+10
6.055080490366287231e+09
5.671691691982748580e+02
-7.427199851848239899e+08
4.289542689417297083e+01
-1.997700443891835938e+11
-1.064793069547876358e+09
-2.127480795776601791e+09
-1.243103204969784241e+11
7.877570855171948097e+02
1.587891056247042847e+10
2.311238590371856689e+08
-1.069804834628576050e+11
-1.099298531354110718e+09
-1.545392598122522831e+09
-3.057979536838183594e+10
-1.853065785000986176e+00
5.971381499004654884e+09
6.294883014797726440e+10
2.089647504698181763e+11
3.572042705597814918e+08
1.402175156593320656e+10
-4.637367710184963989e+10
7.545496264654908752e+10
2.004157814693579102e+10
-1.370659339104876862e-01
1.777325605992787771e+00
7.148437225444258118e+10
-3.112883090797418976e+10
1.799549255941492731e+00
-4.899121488783266395e+05
-1.337209701012953281e+09
5.800417529673867393e+05
-5.350706285810687256e+10
2.737879871069488525e+08
-1.168417224406351318e+11
2.052511278648404694e+10
-8.673091059418838501e+09
2.035423120740887271e+00
-5.427737179623439026e+10
9.701179909679828644e+09
-3.932679156290417480e+10
1.963125158770073700e+10
1.677775216188873291e+10
5.382405858489710999e+10
6.899561666304036975e+06
-1.343343530154056854e+11
-1.642156128141180725e+11
-1.615071205834751129e+08
-5.221275818310317993e+09
2.284178779797326660e+10
1.609182824682608604e+09
8.594592865768188477e+09
-1.052018337109469147e+11
-1.855949875135736465e+09
3.765563705349800875e+04
-2.607903408068878174e+09
2.169058201376983643e+10
-4.934365285636962891e+09
2.316554742369093756e+00
5.241839051283951569e+10
2.821495876397925713e+03
-3.742571555361651611e+10
-1.465723694522291888e+06
-9.824833386597875418e-01
-4.558100909264043427e+10
6.182471116007059097e+09
-3.817820618203985816e+01
-4.078586005156340078e+06
-1.056951507706042293e+01
4.419427761729021072e+08
-9.102757254753863525e+10
8.000212081178759149e-02
5.185190337409915924e+10
5.413660064774306957e+05
1.063902341668442023e+04
-3.932742938813648224e+10
-5.559898764563364029e+09
9.824081903703909546e-01
9.098539810035816956e+10
-2.706598946137871552e+10
-1.758263793634510040e+10
-7.891375784076948547e+10
1.382591713859208679e+10
2.256911915017653758e+00
3.143869007963545625e-02
-2.641153163740834961e+11
-6.830642209082338715e+10
-5.189773759478431003e-01
-3.528929796083934021e+10
3.850754310462821960e+10
8.978267301180728149e+10
1.213679176336891479e+11
2.077858390535318298e+11
-1.620913592410593992e+03
-3.927194002735574341e+10
-2.970896571391946411e+10
2.503490144961643815e+08
5.368730047424900818e+10
4.343473653213049316e+10
2.067297462857791901e+10
-7.814623046878281798e+00
4.771125012928326416e+10
-2.227473745032941055e+10
-5.289421002967911530e+10
-5.876877564826869965e+08
-9.059703383906501770e+09
3.055176422899429321e+09
-9.269267860708160400e+10
-4.767695719219015121e+09
-3.507423020127121359e+06
-5.520422329056796265e+10
3.831081685431607819e+10
-1.653623643259822388e+11
-9.935452871070852661e+10
-1.016514065195348508e+03
1.303593783042936027e+08
-2.276439596172509766e+10
-2.704368354175694275e+10
-2.968147790683998108e+09
-6.103284561582992554e+10
1.100986632243380882e+06
7.218619149542529297e+10
7.294886898380479323e-01
1.302104134003077007e-01
-1.075701099589199829e+10
3.839067552323760986e+09
4.842812100863804626e+10
-4.965167607487295532e+10
1.687798979776889038e+10
3.981488826058830261e+09
-6.077444319394001007e+10
-1.352925259901138306e+10
-3.139117789414520264e+09
5.813289799800910187e+10
6.915550813579577637e+10
-1.073126713547515869e+11
-9.406322982159130859e+10
-4.131705568686480522e+09
-6.220419121788262939e+10
-4.355357486831152344e+10
-1.966076497083477783e+11
-5.181607739762039273e+03
7.327735669341671753e+10
-6.583154610903816223e+09
4.169135207922985840e+10
-7.102446211366517067e+09
-1.766859291242988205e+10
7.154596890584565735e+10
-6.108304453260160517e+04
-3.383609688066264343e+10
-9.317057948925717163e+10
-1.290367917589965820e+09
2.601087362771823120e+10
-3.573396822157909393e+10
-3.063266927026725006e+10
2.110117712360049057e+10
4.821418947317352286e+04
-4.502927671375869068e+03
-2.225677842314777832e+11
3.216732859671621704e+10
-1.249015752879353790e+11
-5.724448595619392395e+08
4.301139140068962860e+10
4.489010932204811096e+09
-7.571173316281503296e+10
-2.665724467771130562e+09
-1.055809203462220648e+04
2.147087579364405752e+00
1.491353660820776367e+10
3.452332559302688599e+10
3.477726998116865540e+10
-6.496851625677383423e+10
-6.665248110210504150e+10
-1.577975517403812408e+08
-1.532286932197390747e+10
-4.070437940231197427e-02
-1.340524019207245331e+11
5.896500645684954834e+10
1.724818896518142223e+09
2.051607156003151244e-01
-5.293432116972277832e+10
-3.423014153758422852e+10
-1.386105862946235657e+09
1.147665277753314972e+09
-1.425689834841407463e+07
-3.971616808737603760e+10
-7.279789938816816353e-02
-3.162772789531923676e+10
1.888313107521462975e+00
-6.873131918812255859e+08
3.204522686071010762e-01
-1.641362914223522949e+11
-1.573818161759225731e+00
-4.978848899725914001e+07
-6.092411537975924683e+10
-1.566262250850162309e+04
3.744604281280029297e+10
8.243660110828274536e+10
-3.978504389328536987e+09
-6.285272491381332397e+09
-5.269243597976097870e+10
-4.996745276191381836e+10
-2.422625478401682663e+10
-1.774223875728903961e+10
1.025354086501670536e+05
5.847807951180294037e+09
-7.076893556494787598e+10
-6.405008955628411865e+10
1.917772949474214172e+10
-9.777703977495471191e+10
1.719850735989868164e+09
3.382734026904511848e+04
1.718915734602555542e+11
1.445065820023366165e+10
4.857850991485452271e+10
-4.950705211487007141e+08
-1.323785894939725986e+06
