-1.224588516770583682e-02 1.770348761141775406e-03 2.152740248457824402e-03 5.265376157545769396e-03 1.354934877639326490e-02 -8.760480875294435199e-03 9.249168863573331220e-03 1.039263659486700658e-02 -9.266051545431478603e-03 -5.553824596356056291e-03 1.857566023124933297e-02 -5.607264132246004770e-03 -6.066362680758179485e-03 7.753528228668592724e-03 -1.474592129852400450e-02 -1.579297824956766086e-02 1.063573659981950116e-02 1.350534150487732628e-02 9.693646631392820179e-03 1.721524105053741740e-04 -8.051790918608161401e-03 -6.538174744057982657e-03 -1.540842279929381838e-02 -1.660414602068539455e-02 -1.065810311171439678e-02 1.314302767106172512e-02 1.096735499775082154e-02 -1.399312334685472517e-02 -5.601221294099204169e-03 -4.002007242340961668e-03 -1.192690424057357527e-02 1.543929358986519812e-02 -1.102234737342958418e-02 1.390525971511575795e-02 9.910555822944101464e-03 -1.597115282264250161e-02 5.972279375744168027e-03 1.330137979914863475e-02 5.819775712323223098e-03 6.915306368620392427e-03 2.102133574568157762e-02 -1.253223608576228181e-03 7.106339555148400051e-03 -2.012076812559163413e-03 6.158150591777549095e-03 2.601518698393560577e-03 9.128983337683209756e-03 -3.408509478796628751e-03 -1.652623195120577230e-03 1.885883839534480653e-03 9.230669218350454411e-03 -5.550234182112114695e-03 1.799218035503244439e-03 -9.254553165445577592e-04 8.840251674154217185e-03 -9.948119642064981102e-03 -1.618621527057959725e-02 1.300977494284893780e-02 7.918258952205561862e-03 1.968648781155893205e-04 -6.172983414280727721e-03 1.008727415343358552e-02 3.275037651577991388e-03 -9.185824159116630014e-03 8.556079580635526927e-03 1.412191644870598034e-02 2.451146744944555662e-03 -3.871624621203599136e-03 1.086482896068287005e-02 -1.088201153791306872e-02 -1.076292951618767688e-02 9.921124374204833701e-03 -1.547120857536593563e-02 7.965498342897194689e-03 -6.581926731806048148e-03 -1.180756421638392206e-03 1.135791288706105955e-02 8.459577413217633096e-03 -1.489719349044299826e-02 -6.746434704059656000e-03 2.208707248725940309e-03 -5.052589226700500294e-04 -1.321851054118510123e-02 3.656957928093211400e-03 7.387798042374961287e-03 -7.520234980917531002e-03 -4.105210980221670088e-03 -6.144074486748979901e-03 1.214032247945157333e-03 1.435108553869147464e-02 -1.108568918027266412e-02 8.129774734787957244e-03 5.552703273596934150e-03 5.802704824991872234e-03 -2.082087353928776391e-02 6.188739257278598124e-03 -8.206810934598501167e-03 -1.334203483815179191e-02 -1.320113078889752212e-02 -6.037786259206807775e-03 -1.492696957236916942e-02 1.924973899985612386e-02 -7.179335151296249197e-03 1.778353873985899503e-02 -6.516773733943532695e-03 1.263526072434803700e-02 -3.702032993617191629e-03 -5.864338649651074445e-03 -1.055976203278360427e-02 -1.182054900847675540e-02 -8.595769796231982757e-03 -7.128293214040870920e-03 -4.013948596510290583e-05 1.696317150840598656e-02 -8.050955178378229118e-03 -6.187456742095794136e-04 8.368257251493123675e-03 -6.780448257570449028e-03 -1.985777462224125062e-03 1.443909007556817663e-02 -1.102469656452160010e-02 -8.887563547113702667e-03 -1.790010454232800197e-02 -1.320820047074990067e-02 -4.504738262586441624e-03 1.566608266632538160e-02 -2.058844876162143050e-03 3.375109516437527993e-03 1.695595788484856661e-03 4.868558517540142079e-03 5.006155484205443949e-03 8.963781588861826147e-03 1.263722570079075375e-02 1.036581385149701849e-02 1.066517182632265720e-02 1.020192957650412589e-02 -1.264006746512071067e-02 -9.307226423495473105e-03 1.540563528785309812e-02 -7.846856708813587395e-04 -1.261497808532078581e-02 1.580912623128426318e-03 -1.040981261727501675e-02 3.163301473232190721e-03 -7.677744001077570560e-03 -1.580514580642315703e-02 -4.648908505761256867e-03 1.311673230068955906e-02 -1.023610880966947280e-02 -1.108616131541964762e-02 -1.206005254435444859e-02 -5.375178000025989181e-03 -4.786406662579055851e-03 -9.695683790275912498e-03 -1.429093618139196629e-02 9.059656762142039715e-03 -1.112975464834861997e-02 2.849456068620439403e-03 -6.404103989209584437e-03 1.839146356941847010e-03 1.330855199765390399e-02 5.525603555394757553e-03 2.351255430986411848e-02 -8.896197520932446921e-04 -1.806977124850689008e-03 7.860398926349139101e-03 -1.978180957702739117e-03 -5.788987052286754566e-03 1.259911944551757659e-02 -5.331921959471904587e-03 -8.726649603203292388e-03 1.491645851670951421e-03 4.630347880963067188e-03 -2.169611761544440031e-03 -4.471982842301624496e-03 1.281044175969160313e-03 1.438473932242696936e-02 1.026395951107109995e-02 -1.082371186895424425e-03 1.098345282057168991e-03 6.675950909522562239e-03 6.197696880250451457e-03 1.316404961560341258e-02 3.133861792322296252e-03 -1.110567213972009359e-02 9.903624135309792645e-03 -2.701677257856879497e-03 1.681754349758635830e-02 -4.306126843666774535e-04 5.954908768335515946e-03 3.030599829188393435e-03 3.776895972052599169e-03 1.431312643908889785e-02 1.050349290611599096e-02 8.432361308841531539e-03 -2.545506559699369322e-04 -2.170460256431669226e-03 -6.797908687864162407e-03 -1.397625395771913241e-02 -8.748499062213888630e-04 2.963796544230042421e-03 1.314282329431994004e-03 -1.195721630985435366e-02 -1.454093458758651779e-02 -1.571859051432593010e-02 1.124636306768375844e-02 3.401372514150364373e-03 -4.653056999023959077e-03 -1.572562815993527527e-02 3.948989379394630267e-03 7.122576683870136989e-03 -1.194133520319593487e-02 1.081260927100150026e-03 2.014530041707565840e-03 -1.517354998465393449e-02 7.404195782646198418e-03 2.272576982130241827e-03 -2.376072945180601661e-03 1.217211082776096728e-02 1.313886441930841968e-02 8.020181727637725605e-03 3.964567443298283068e-03 1.534533177374358334e-02 -9.642840763893300790e-03 1.376323793398073758e-02 -7.154602430640026600e-03 -1.122637680682031340e-02 -3.812843142928414985e-03 -1.166106980259627030e-02 1.512988146258361505e-02 7.547388502278884644e-03 -5.256928048880765876e-03 1.069267391486349549e-02 -5.073016373704741268e-03 1.297981108393024031e-02 -1.018154336270532187e-02 1.497927725023243638e-02 9.446189302411348368e-03 1.154312332114662554e-02 -1.090730029402068799e-02 -9.506226191918579769e-04 7.159323894664882098e-04 5.091255161931304563e-03 -1.439779978049024294e-02 -3.533926118160212251e-03 -7.699739254278008087e-03 1.326320967087435410e-02 4.894283362533948314e-03 -5.810946205358801138e-03 -1.530057991881980488e-02 -2.807296716025124098e-03 -5.521460177812034797e-03 7.641724793204991185e-03 -2.737144093016042300e-03 5.148112973304893973e-03 4.554796990305830240e-03 -8.500312017850479226e-03 -8.510019895937923204e-04 -9.596926226216016820e-03 -4.843375543133955803e-03 1.410461332712251679e-02 -9.062992970021176847e-03 -1.035782615287701713e-02 -1.496389226994152694e-02 9.079815276797150933e-03 4.932460453257066051e-03 -1.607921709112086761e-02 1.833449213406422758e-03 1.135773801450619402e-02 -1.028527545308452820e-02 -1.411601644839367148e-02 -3.621290723201234241e-03 -5.942069287321316388e-03 -4.192551881851873732e-03 1.876554660940625910e-03 6.286677047819933624e-04 1.531773106946084421e-05 -2.305374126809898311e-03 8.813453388472315686e-03 -2.269297991967225356e-03 1.035042203747024150e-03 -1.575620745345503518e-02 -1.036675090757361445e-02 1.433797416968130879e-02 -1.447505731950431661e-02 -3.976839885435444065e-04 6.028115268523689951e-03 1.628543435759810185e-02 -4.691057178596078243e-03 8.688692668037737571e-03 8.487815376957155711e-03 1.222012208871266388e-02 3.730704836712538282e-03 -1.687516322375480276e-03 5.318723381565898696e-03 -4.781985686595522722e-04 6.093213941400334524e-04 1.590021192673176514e-02 -7.125040638099705906e-03 -1.205801572106721814e-02 9.113530852185414144e-03 -1.440879365511099804e-02 -7.546438779640411189e-03 1.351264671162266846e-02 -1.407399077767635537e-02 -1.206527549361710062e-02 9.759926524670807166e-03 -1.752408936520464394e-02 -1.092417519731037935e-02 7.589217487127388438e-03 -5.930256600764930060e-03 -1.523686453881326845e-03 1.641185192953681024e-02 1.795165775418248533e-03 1.888283759370919918e-04 1.217906872533494611e-02 3.538187396372758330e-03 -4.390227417960466602e-03 6.630425402595659622e-03 -1.897799715759025218e-04 -1.011056075757871091e-02 1.184703328425500309e-02 -1.193340326032607578e-03 8.129698797297333496e-03 4.660249272710757611e-03 8.424199164595897946e-03 -6.046752801742747243e-05 -1.137707263906236749e-02 -2.124418461639674717e-03 5.623092782898840916e-03 -6.693126223693335319e-03 1.884743964215445690e-03 1.023833566923135902e-02 -3.144766516970904247e-03 4.534954370860847135e-03 1.367836606431111456e-02 6.607371972290568274e-03 -5.807789893828035725e-03 -1.098256395274304292e-04 -1.203036616385973721e-02 5.635102254459700829e-04 -1.033721161737490707e-02 -1.499722657512155000e-02 -8.872603485485129268e-03 1.222447584786419406e-02 -1.139665780674669129e-02 -1.189893294175670396e-03 -8.416383982176612114e-03 -4.739898666567620746e-03 -6.890191279588785654e-03 5.215580658449055738e-03 -4.426004678311752996e-03 -2.665603901687926911e-03 -3.110050012160286287e-03 -7.590437180213115489e-03 -1.036132735796476204e-02 5.984799440392546063e-03 1.091612349209486812e-02 1.959741677241513824e-02 -1.127752188808413790e-02 -1.916376402485482893e-03 -2.732093215928401569e-03 -3.131585307776985527e-04 5.680195822177891603e-03 -8.320186543863969733e-03 2.138995316276469730e-02 -4.373626372293408157e-03 -7.140023484487328410e-03 -1.256326190673917077e-02 -1.372801153762625084e-02 1.483343948599437877e-02 -1.605744073325209367e-02 -4.441375806665403755e-03 -1.489011022092764230e-02 -1.123642576276228863e-02 3.046219326498881066e-03 -9.767903387336388313e-03 -1.332413884465024657e-02 3.200149578630197798e-04 -1.097258546720067049e-03 1.514940251475660644e-02 -7.719269898639812694e-03 5.920375374353169413e-03 1.153164316172046629e-02 -6.021016306354824883e-03 -3.648294015823503673e-05 3.127482464314410709e-03 1.454145984354480309e-02 1.239529086425444557e-02 2.596065143524830306e-03 -6.674327527995022567e-03 -6.985149118749092549e-03 2.546586180465329518e-04 -1.439832135084222284e-03 9.378326323924005871e-04 4.851157697755847063e-03 1.568721056335249317e-02 3.916188135130346283e-03 8.329190748839296332e-03 8.548314691202377885e-03
5.016591192906589940e-03 2.584554702914595645e-03 -7.403318950196877135e-02 1.491454979256805983e-03 1.329386285374619704e-02 -3.994837692895100885e-03 -2.073817643030191268e-02 -1.640141977770106368e-02 9.019660865561485857e-03 -8.962702461392267617e-03 2.339300800536847913e-01 -1.735076510433645330e-03 -6.379777049526148044e-04 1.720297284859552064e-02 6.034576288297770902e-03 1.515605036565960276e-03 -2.061341832520838680e-03 5.906012680995651777e-03 6.339390549349481485e-02 9.033529528778316050e-04 -2.395333668050329823e-03 9.565354086784093324e-02 -1.369201032845194545e-02 -8.354062747579629050e-03 1.175050745447514880e-02 2.443306186854690976e-01 -1.065825495871982054e-01 -4.084630733168764100e-03 -1.847697155708731900e-02 2.671821676951671026e-02 -1.241851892148094494e-01 2.645087859084894188e-01 -2.401424386521357549e-03 -4.432678631309454158e-03 1.017493451146460511e-02 -1.334584541804601648e-02 1.357914475384071618e-01 3.822778921816580733e-03 2.249162657933211074e-02 1.853596250089700357e-03 -2.504919969650066386e-03 -7.052189769382871155e-03 -2.515881487220728019e-02 5.965640681857208721e-02 -1.984975050516140857e-02 -7.664786989161592734e-03 -2.448498850099552551e-02 1.583611351358708494e-02 1.730908658740699657e-01 -1.148178487590478455e-02 -8.717855968808072009e-03 -1.630329431681555932e-02 6.140165248573209271e-03 -1.647293367513911685e-02 4.818314749762516586e-02 -1.634294615204151535e-02 -6.000835002180137517e-02 -1.949966154762572748e-02 -8.355249319196731903e-03 -1.806282157302039476e-02 -2.339643696776655402e-02 -2.535815709657144798e-02 -1.714808428806209942e-02 6.224059769675314296e-02 1.202232933683946908e-03 6.660259210070519111e-03 -8.496975059130789168e-03 -1.493560235773581978e-03 -1.887246152698866808e-02 1.139594358321498191e-03 -1.282649733812754253e-02 -4.690141470291190641e-03 -1.233310291269998880e-02 1.012537434965646126e-02 5.984789486930840174e-03 -7.391594739544738411e-03 6.993564862201243418e-03 -2.931990381468195170e-02 3.781219194274747925e-03 -1.500395403638309436e-02 -1.054100730257580103e-02 2.758501566991964672e-03 -8.026528044304218068e-03 -2.717976204555037911e-02 -1.288540433628259860e-02 1.468275932867522428e-02 -3.048360716370639850e-02 4.556361172397284040e-03 -2.007767233627873182e-02 1.218137078514674836e-02 5.180218574250004121e-02 -8.267216370474259751e-04 -1.350230172184170574e-02 2.645606018059031353e-02 -2.107637290994542612e-01 -6.436211028275846784e-03 6.414299682345696307e-02 1.910642149452304595e-02 -2.086888184678065139e-02 -2.320345940084820105e-02 -8.163414101100710182e-03 2.355886699915754057e-01 1.588669839658209404e-01 3.358560070941878362e-01 -1.501329857277914140e-02 6.754766314477591259e-03 5.703752060147306707e-03 -1.252555414240622000e-02 3.394679955025101808e-02 7.186235390477152367e-03 -4.287280051622156286e-03 1.998657840389024831e-01 -1.855253535415346197e-02 2.131424961574240329e-01 -3.764985672130245764e-03 8.060133792865613149e-04 1.644151122146220514e-02 -1.600500646789934991e-02 3.182750587212524948e-03 1.890046863247951030e-03 1.133339225894942903e-02 -1.483373279392859179e-02 2.621969762315198849e-01 1.411001572739407732e-02 -2.302355270375022397e-02 3.367826344007623148e-03 -4.615495952872947054e-03 -1.765815599804161423e-03 1.655366065331247485e-02 -1.484541988523443469e-02 -3.214888797293060513e-02 -2.277614240097594264e-02 -4.172615232453447121e-02 -2.660987699479151411e-02 1.080849302922807544e-02 5.679043205921635584e-03 -9.186237086866888557e-03 2.022190881132253718e-02 6.821766651797084562e-04 -1.868378308646816491e-02 1.788014708601792790e-02 -9.510410132495693628e-03 3.714091489062013203e-03 -1.324446099435349147e-02 -1.860630880983629720e-02 -1.079379009290591489e-02 -1.893582278904867508e-02 -2.882866937634302219e-03 -7.911889999318152955e-02 -8.933491822006667596e-03 -1.819178884712388880e-02 -4.166745522575324504e-03 5.951344311417024018e-03 8.590040798165846092e-03 -1.831338025101705846e-02 8.780220484310095538e-03 -9.423055940626454824e-03 7.324586375269573346e-03 2.439250004943133371e-04 5.253319897526439672e-03 -2.708397364267158512e-03 2.394505768579097971e-01 4.296528026654615195e-01 -6.323098543460316766e-03 -1.491534893044391304e-02 1.675161152332932668e-01 -1.338329832191634608e-02 9.101097070149685372e-03 3.781102271426498712e-02 -1.891159845954345012e-02 -2.826351648694306988e-03 8.562783941900945286e-03 -1.672684496466671829e-03 -8.533505210864825857e-03 -3.853005468865505941e-03 2.313434992592030334e-03 -2.037190860925655600e-02 -6.378807393002026115e-03 6.905090453158591393e-03 9.281017435868602061e-02 3.852732683070556920e-03 -5.969516973685484729e-02 -8.167892192339825871e-03 -1.494149620587078078e-02 7.515969379504727939e-03 -7.985667598955449586e-03 -3.149873540943766426e-02 5.050547495103345497e-02 7.730974012703169251e-02 -3.231144930276131505e-02 2.269995902907052387e-01 -1.994942181175085941e-02 -8.884403120543804891e-03 -1.815069887141776590e-03 6.654329168809692413e-03 3.847450147600846304e-02 -2.828718023669620288e-02 -1.532126185795289891e-02 -1.930299516704383350e-02 -9.361088095293845779e-03 -1.047737532872636441e-02 9.531362190918988772e-03 -5.748814046252285516e-03 3.099456907379779733e-02 9.237559898847473236e-03 -2.984875498106916852e-02 1.719805955892526536e-02 -1.056192698218354556e-02 1.199361870406612371e-04 -1.573537604106629850e-02 -1.950042498074149033e-02 -1.191894285524744239e-02 1.301058523023689018e-02 -1.249912036522845757e-02 -1.116329452528259068e-02 -3.601953657142313407e-03 -3.231960298768617179e-02 1.006957614631407288e-01 -4.969381008629003040e-03 2.552052740901242928e-02 -6.701748860164124383e-03 -1.341559557498245986e-02 -1.238365375971744575e-03 -8.227348093524005160e-03 -1.493971202072667814e-02 -1.132873424399362221e-02 -3.326480567066639887e-02 -6.702370685567960937e-03 -1.281117725778721864e-03 1.330248986344324119e-02 -4.750447096669655617e-02 -2.752790080082669413e-02 -8.621583469027733690e-03 -2.345036052055584491e-02 -2.456870065479020010e-02 -9.935930237718462038e-03 2.362263425365064909e-02 6.425934600910909039e-03 1.285299736034535567e-03 -9.529291248484375934e-03 2.063637090656049444e-02 -9.827028446007539733e-03 -8.303029279498648149e-03 -1.473260312167380508e-02 6.506867341962862920e-03 5.309665000454660486e-03 -4.768434779916234565e-04 -1.833394829847677376e-02 -5.428406497219441171e-03 -7.745862892312956223e-03 2.946670484089242408e-03 1.229720378835843231e-01 1.570592619748863439e-01 2.091110118530810358e-03 -1.346258583384217673e-02 3.738982523787097723e-01 -1.668676504305385486e-02 3.018385728083937056e-02 3.904820326310275841e-02 -2.290645630301063260e-02 7.946662311009905499e-03 1.189276549439509736e-02 -2.988875665913347940e-02 -1.134169043832167212e-02 -6.971995205718552364e-03 1.169591356547775018e-01 9.191342101006609241e-03 2.633857348297436451e-01 3.179740000391829968e-02 -1.986469466029449835e-02 -1.555224268036907442e-02 2.107070886011178003e-03 -1.135273781969484835e-02 -1.066727109163757847e-02 -1.510916366019592755e-02 -7.625139799174254079e-03 7.840069255799853379e-04 -1.748113412887570065e-02 -7.892199468109995994e-03 -2.343210854826565520e-02 2.420873569825888194e-01 1.823650818333156717e-02 -7.387565731435171562e-03 -1.515438920369500042e-03 -2.168522111781246223e-02 -1.884246647219434828e-02 -6.507852889822304766e-04 -7.329240449157825403e-03 -7.395340157320103372e-03 -7.575431711919178648e-03 -1.406320494955711625e-02 -1.964065847614622669e-03 -1.753189228181237236e-02 -1.729578404007869538e-02 -1.549085859762836838e-02 -4.705122829267777140e-02 -1.744088315613357906e-02 -3.211903174212964868e-02 -7.165957531118859192e-02 -1.717796417164555584e-02 -9.292276274768616201e-03 -2.031741105669845546e-02 -1.892334135528677113e-03 9.754536354690247768e-02 1.599688193587400775e-02 -9.857387960650004430e-03 -2.898937105388573604e-02 1.947333812588352420e-01 -2.118867720357435480e-01 -1.880704978996814158e-01 1.491377552023042188e-02 -2.359534840509804748e-02 1.808447764996407373e-02 4.066963353460671150e-03 -1.789948911907588217e-02 -8.307893541295189449e-03 -2.793422056026738723e-02 -1.082154813079831517e-02 -2.266789291269865822e-02 -1.174990797178749637e-02 5.932196294500160193e-03 -1.957294144172835523e-02 1.076371761794594172e-02 2.771107552196497379e-03 2.042742838280038956e-02 -1.672390015283067854e-02 -1.228164767681478725e-01 -1.659308659641825501e-02 4.026421014757006027e-03 -9.985933593050974610e-02 -1.975014348072928749e-02 -1.211843407525911229e-03 -1.423029518012858610e-02 -1.131040385362976491e-01 -1.088220605003175669e-02 -2.395846545405336953e-02 -2.229313330789142733e-03 -3.013428646681852452e-02 -2.073420008750199300e-02 -1.177364403298198151e-02 -2.077808363796571078e-02 -1.739107027687811571e-02 -7.455636202890800375e-03 -1.566205743114037693e-02 -1.800838117429984231e-02 1.194256703844308667e-02 -2.189056335001417566e-02 1.643284719493314817e-03 1.282959622753437195e-02 1.142479247030370529e-02 -2.630449743431191589e-02 -7.316040962501456357e-03 -9.604537291833240009e-02 -1.149283004861601301e-02 -1.490496345983020540e-02 -1.641062139139379955e-02 2.722054870367467960e-01 -1.381777492602800222e-02 -1.212917245243108448e-02 3.720756230694264883e-03 1.686120128307968813e-01 -1.443606115897164664e-02 -2.222154237374656879e-02 -2.210579876403611504e-02 -1.311072546697336465e-02 2.085044254079566617e-01 -3.032504843105543815e-02 -1.491964461128553535e-02 3.025172811709119641e-02 -1.373673225734076651e-02 1.362749925700654924e-02 -2.538499945494242238e-02 7.371333169772145005e-03 1.168991981849388118e-03 1.409091621791954546e-02 -6.138506597011845513e-03 -2.351194852656667694e-02 6.554229841533812211e-03 5.954492301863416673e-03 -3.069638109455813738e-03 1.757335493385976883e-03 6.882089637814253757e-04 -1.636543470860421512e-02 -2.213470711797456761e-02 -1.481845559697134163e-02 2.319745733237953481e-02 7.753758088402640594e-03 -9.195816440455528706e-02 7.720112523248099691e-03 -3.621204592999049000e-03 -1.013134739275402263e-02 -1.022934938270845216e-04 3.149155157049605691e-01 3.060415389200346354e-03 1.588254650083536362e-02 -3.376159759934505402e-04 2.573108646439841926e-02 -5.888996351744900208e-03 -2.528769731268825163e-02 -1.996728627019700442e-02
7.572201418485705049e-03 -9.616808040093915294e-03 -1.252959521598636002e-02 9.942125019147183412e-03 -6.840396936455043174e-04 -8.897079372999808569e-03 -6.919411423205776290e-03 -4.118521474406541816e-03 4.152367840139056104e-03 -1.326693522433025976e-02 3.104089052247043998e-02 -5.464738097843633603e-03 1.203733546845775666e-02 -3.178473578389669294e-03 -4.067071708273832173e-03 3.083584157050047337e-03 -1.287103397465502730e-02 -1.050340964619108676e-02 1.667234416502271985e-02 -1.704379527271832973e-03 1.450043381009555842e-02 -2.586542428538956650e-04 -1.758196316891923183e-02 -1.211339679902806790e-02 1.513852367363196019e-02 -1.630464149039135766e-02 -6.449361872638861154e-03 -4.270442876098387358e-04 -3.366190873151482781e-03 8.042416555543142886e-03 -5.065879409847138561e-03 -1.624154318119742924e-02 2.669309898583929405e-03 4.076003075013418138e-03 2.112845429463947825e-03 -5.796407178384424151e-04 -2.273535951429691768e-02 -8.191553726974354702e-03 1.514504719073955091e-02 -8.967081098494252694e-03 2.765082906201662624e-02 -1.446263890185259943e-02 1.794934571353027373e-03 -1.441006738617952492e-03 -5.852548546285950455e-03 -1.838607152698899794e-02 1.307045389875855119e-02 -1.386745456040164304e-02 -2.183580802096309406e-02 -1.143892667594008199e-02 -9.967740668735932189e-03 -5.379124260146927322e-03 -1.699793044364849778e-02 5.945230569506321575e-03 3.241187509364314850e-02 -1.674474425501260022e-02 4.556352398545430657e-03 -1.743502952364627283e-04 -1.507300579827451463e-02 2.181648404972568074e-03 1.236069074114587961e-02 7.213480582054293197e-03 -1.489345896755347922e-03 8.127329869298580796e-04 1.207511725546335773e-03 -4.402174678374854572e-03 2.063733626187658470e-03 -6.111319851622311339e-03 -1.080730206106545691e-03 -8.092813323527976027e-03 -3.435465594555057491e-03 5.469656119387187460e-03 1.414911862332423470e-02 -8.927287317393768282e-03 -1.835358334078271772e-02 -5.584707890879513775e-03 -1.531660530066499167e-02 5.960758692767506584e-03 2.140439666447773934e-02 1.988437767165180357e-03 -9.042579885334963569e-03 -1.107493925458873790e-02 -2.316079204789826991e-03 1.063195293172949051e-02 -4.610300981896241733e-03 7.434890340585563646e-03 -1.695340045267150486e-02 -2.976621810284279385e-03 1.362667093129384327e-03 -1.101335538064869730e-02 -7.211302071027604968e-03 1.795111846860132643e-03 -1.098226116916923732e-03 -3.768499893075286707e-03 -1.908205393322186250e-02 4.527823632961722362e-03 -1.562967599301632801e-02 3.139361738347755566e-03 9.572010822787675385e-03 3.714975073053775403e-03 -1.866255841936363680e-02 3.479387579060332775e-02 4.106973821385807855e-02 1.362645792629869901e-02 5.866039388785372795e-03 4.009124644635793724e-03 1.086006054700783437e-02 -1.890969246218486902e-02 -9.286495208874302049e-03 1.403027383837607799e-02 -2.483461538548046178e-03 6.256503922615961125e-03 1.041709627820490598e-02 4.573536534917472390e-02 1.331637053843482505e-03 1.224108823509742310e-02 -1.498449610683617352e-02 3.211130782236588412e-03 3.090124863498521467e-03 -1.130300066902991535e-02 3.224324629301406325e-03 1.209746425956234432e-02 -1.507044287957760159e-02 6.407914727744766156e-03 1.343961283147941492e-02 -1.320133683422947991e-02 -1.548916156213187142e-03 6.511190477949044958e-03 1.227927734786425640e-02 3.334105868623920155e-03 -2.617879707401591770e-03 -3.283483302729010064e-03 -5.652205860377873536e-03 -6.605948835784897395e-03 -5.385851250657020840e-03 1.270174330545498220e-02 3.628225780597696837e-03 1.434317066380285527e-02 1.382424846919025341e-02 -1.696284717676452627e-02 2.404183762981870233e-03 1.536474281331446767e-03 -3.300665815471914757e-03 1.088731697300480278e-02 -1.566913423457076335e-02 -1.447499705410874339e-02 3.914454175930860529e-03 2.280682614635660965e-02 3.643614591626524127e-03 7.261047350108477440e-03 3.767599632048912288e-03 -2.335904156362824790e-03 1.124291261353263516e-02 3.939460314458267942e-02 1.274831194439966960e-02 -1.273570584918199029e-02 -9.996175228559230075e-03 9.618021052377264887e-03 -1.440795012879999941e-02 2.705589051708019808e-03 -1.039473304677224208e-02 -1.526098309981961199e-04 3.627016928855970185e-02 -8.927389851334670279e-03 5.603471454051765430e-03 3.596538694394322416e-02 -8.509701198380549558e-03 -8.689504056014641514e-03 1.289293751456632720e-02 -4.725743580041866232e-03 -1.540938065785927083e-02 1.379771463267937502e-02 6.648344377651106175e-04 1.498792661758451342e-02 -5.935712352294494898e-03 2.718581260796444198e-03 1.684988842280869727e-03 1.230691315098946317e-02 -5.890302809756805917e-03 7.674390347639383110e-03 -7.233222847520559030e-03 -2.316790773610763465e-02 9.242151190399717359e-03 6.362741034445772159e-02 1.025593580161193036e-02 -1.584025284747250448e-02 -1.268518839763254497e-02 8.264760206598864220e-03 1.873856279983602061e-02 8.676368959582670543e-03 2.086003671817089969e-02 3.033390958236675729e-03 1.102282724184999209e-02 1.443816742646160042e-02 5.291223214328874753e-05 1.904116928892769442e-02 -7.270018853781323037e-03 -1.727704520216812034e-02 1.141201833468959842e-02 -1.770715801598802749e-02 -2.858428301112888193e-03 5.810875906272835491e-03 -1.202293643482577577e-02 -1.583330688665191693e-02 -8.551264231910210914e-03 -3.276712080223947478e-03 1.072192374600438626e-02 4.147179932833909913e-03 6.875276180683958941e-04 -6.386303860254757478e-03 1.322181287661709607e-02 6.487466394428789869e-03 -3.947771758986867371e-03 5.920487561679120200e-03 3.811527448696002979e-03 5.988556137975829460e-03 1.233479613318589924e-03 1.150805840219445465e-02 1.708770004457721165e-03 2.412345678000500648e-02 -1.859730742039567356e-02 3.773472997944887688e-03 1.225763088560922164e-02 6.866816370353084550e-03 6.428520017312512602e-03 -8.206090919843936349e-03 -7.461860586160810709e-03 -1.644027820089933797e-02 -1.359663222275172070e-02 -1.336161054990352495e-02 1.667171052253313412e-02 8.636379001238472450e-03 -3.668421128626271361e-03 -1.068407826052607604e-02 4.797041451689245187e-03 3.475558928850602455e-03 -7.325867163755880179e-03 3.608834408767107836e-03 4.771623853121236859e-03 1.766781889872123291e-03 -1.036972920964508889e-02 1.445483592127915114e-02 9.815077231737035987e-03 1.092801626980237015e-02 -3.800302020072950007e-03 8.638466068149049798e-03 8.170562916780543111e-03 -2.050873654384723858e-03 8.533027687095380912e-03 4.757972457243857430e-03 1.714374941990673678e-03 5.261067318573323451e-03 -3.452519811399439530e-04 1.369245864720452545e-02 -1.796638409117791782e-02 1.908307005067029147e-02 -8.300057173880563818e-04 1.445944577434594806e-02 1.701325255842211365e-02 3.723874555809444323e-03 1.595436926050853785e-02 2.386346602637545516e-04 1.387235123944738878e-02 -8.923572636512451528e-03 1.146477519524145491e-02 -4.506862250868673425e-03 -2.374689341056747654e-03 1.041245900021186242e-02 1.187062662402518787e-02 -1.298823950135207222e-03 9.400393680686552206e-03 1.228343747807091220e-02 1.286152929372039275e-04 -9.322139599553865008e-03 1.240409053478030987e-02 3.620922726094530798e-03 6.037586968863768028e-03 1.301967631493474234e-02 5.250984290442499902e-04 -1.189798466222414218e-02 2.872067307742858996e-02 4.453199428800578077e-03 -1.784100256064393222e-02 -9.516683851286979884e-03 4.403042875853834144e-03 -1.427564197187238329e-02 5.444476230556278239e-03 1.296250950180207438e-02 -2.276382037748159171e-03 -1.203310522558863165e-02 -1.021595493261675223e-02 -2.447345198239647864e-03 -3.638934472366918069e-03 1.258747705644558791e-03 -1.474549337049885309e-03 1.180691271194234983e-02 -3.976295251431206934e-03 -1.542928411047860340e-02 1.198132267853210461e-02 1.048545269578824227e-02 1.329449936907225842e-02 1.699280414430545715e-03 -1.789240881504873190e-02 6.208011722863981258e-02 -1.964867269177729067e-03 -9.815216079650702571e-03 3.082504536301682984e-03 -4.038123747720554629e-02 -2.002128903144026820e-02 -3.722600715869870541e-02 -5.610451319995106607e-03 -4.844900379924395838e-03 -2.228728865411086621e-04 -1.319869267311958236e-02 1.771825338779493136e-02 -4.719515142780508418e-03 4.023203225691680124e-03 -1.421826210298884202e-02 1.080263380521123175e-02 1.174284642393140163e-02 -3.413136270777759797e-03 -5.548155532781854152e-03 1.401512557012447521e-02 -1.518749323654603779e-02 1.729521311868880210e-02 -1.621295671899429872e-02 -1.061360704561850263e-02 1.227724806253026671e-02 -1.442133973524526921e-02 -2.154464609695666815e-03 -9.086039260348492946e-04 -1.428660254478205868e-02 5.209317930588704820e-03 -1.365972330457385607e-02 -1.696325329065549031e-02 -1.357523475934786176e-03 -1.079930890542354048e-02 -4.083573692708882506e-03 -5.761240990111317524e-03 -4.455700950578788365e-03 -6.533244157400473415e-03 7.581757144592933713e-03 1.024274121338297240e-02 6.221070216715526152e-03 1.252058793285935889e-02 -4.254521134340381525e-03 -7.936353857470343585e-04 -5.520610010581520483e-03 8.035396191589065998e-03 3.587451721415695158e-03 1.484156337558748462e-03 -8.457192418401647191e-03 -2.981920399987339140e-02 -1.408722531071244545e-02 1.808907320423818344e-03 -6.799394631572057077e-03 1.881775127137010756e-02 5.297720768086254875e-03 1.183994778166664111e-02 -1.249741340723161233e-03 7.210597352136782767e-02 -1.519067698310024722e-02 1.143770589855726272e-02 1.324668557846936552e-02 1.308866504528072641e-02 3.197262518429570821e-02 5.873608737925305060e-04 7.546935117879800814e-03 -5.300736960211620621e-03 -1.404433837377450957e-02 1.213784131439501861e-02 9.024728233779108141e-03 3.937644876278795746e-03 -7.932190080627600504e-03 3.761738702511996640e-03 8.683921780784854133e-03 -8.711071733200560080e-03 8.418164644573315411e-03 2.499669014044951770e-03 1.293569850821460997e-02 -1.187648143155586519e-02 -8.521008616777568309e-03 2.185694031755369346e-03 1.763712382604815457e-02 1.400228227280458926e-02 -7.553274604113658849e-03 -5.445882697138647137e-03 -1.759146934278401839e-02 -1.464488759820109683e-02 6.447320857191100527e-03 7.480374200246137951e-03 -1.650347526627475234e-02 5.277107136962590900e-02 -1.190452726635322055e-02 -5.855111913617994275e-03 1.164449023762084701e-02 1.026391342382659139e-02 8.188323843193852369e-03 -4.352075969301975877e-03 -5.569194665243294880e-04
1.051354651381728421e-02 -1.085891015665359574e-02 4.738038920878579092e-03 -2.980756153968386855e-03 -5.829542070597810641e-03 2.870945828069081367e-03 4.122033406183093010e-03 -1.591432410770775643e-02 2.496655038730352227e-03 8.010059801735110521e-03 1.024792534606720242e-02 -1.051037515326241380e-02 9.213904523185699816e-03 -8.304738075445291384e-03 4.461419000686504127e-03 1.557351061070856926e-03 -1.271180766661000536e-02 -9.522287018312525914e-03 1.038167875504777439e-02 7.334079236380091141e-03 -7.898407137834398059e-03 -6.179334359026200998e-03 -8.062449051122753995e-04 -4.391661901191824986e-04 9.337817045452943485e-03 -1.500887456662448362e-02 1.477520738038169169e-03 -1.339088016074197092e-02 7.179612904193014011e-03 1.144952565320378306e-02 -1.139443343290394081e-02 1.941616495785068123e-03 5.618408290318236548e-03 1.483044409716078454e-02 8.528574166116947375e-04 1.245244772715528754e-02 -8.390780639150365039e-03 -8.561996540620247023e-03 -1.224583616832870467e-02 -1.674340601759513819e-03 -1.149501911233998148e-02 9.724970635907277672e-03 5.493399039039846381e-03 1.406233571594110547e-02 2.200758353537507137e-03 -4.654890339814004262e-03 1.593613539542842322e-02 2.071278295620729900e-03 1.018512533191557592e-03 -1.309466576446121841e-02 -1.382897888403384831e-02 -5.707010640138279398e-03 1.014276154795722661e-02 3.294129282547555038e-03 7.477897790154047070e-03 -7.779561612409164120e-03 -2.803871502122151031e-03 5.743293803725996356e-03 -1.569512500618634385e-02 -4.329912938587717093e-03 -8.608303737833278291e-03 7.328750992243407425e-03 -1.045267741039808580e-02 1.417429258975504494e-02 -1.085135421007069403e-02 -8.123876697669061772e-03 -4.632215890105896398e-04 8.224312008958439141e-03 4.219928074136166350e-03 1.537772720943443149e-03 7.367072045820381894e-03 -2.536054412809148669e-03 -1.278347322709988063e-02 4.602560603168446077e-03 -1.843322485246577614e-03 -3.976833420600055582e-03 -5.980668302795753496e-03 1.826744855903396705e-03 8.671826147051838254e-03 -4.631014551364455098e-03 -3.684014441444465396e-03 4.203883113213675686e-03 -9.398848491805061531e-03 -1.332921293990408165e-02 1.201314342272941094e-02 8.219232231706135108e-03 1.386980113531662429e-04 -1.154236495443521256e-02 1.237834291606783321e-02 6.434899035537013437e-03 1.089174299184496666e-02 1.296117641873900661e-02 4.236629329232138516e-03 1.162033301938228793e-03 -1.551231639711127611e-02 1.270917207870418501e-02 1.724444712896998008e-02 8.653129144342240056e-04 -3.276969164713099732e-03 -8.124190531080183186e-03 -1.683394435793055324e-02 1.773384489519743909e-02 -9.644097139400136312e-03 1.668796872993190752e-02 -3.075802222144530078e-03 6.132605344297335608e-03 6.477819034320420099e-04 1.624456392134559363e-02 2.929242345761910726e-03 -1.349237053564254036e-03 3.095645205047909375e-03 -3.197855368643437706e-03 2.488715197210359439e-03 -7.696563792382394090e-03 9.008934447808897295e-03 -1.281357533230306420e-02 8.414338642567322640e-03 -1.254624247456743655e-02 5.681873213450792243e-03 1.544027386626724632e-02 -1.496404726163971409e-03 1.553656841610414306e-02 -2.210897016995431313e-02 1.519163448382889088e-02 -6.160622219046385560e-05 -1.228890404919687901e-02 -8.860382220273665607e-03 -1.375614538695725010e-02 2.288169232265184136e-03 1.609629269618294972e-02 -6.747542482143512217e-03 -4.115168720838747844e-03 1.784692382618359094e-02 -1.252019016902505832e-02 -6.798491376198474538e-03 1.491630099196915131e-02 1.554480243721254734e-02 -7.519475943177213705e-03 -1.262127480635224716e-02 -4.436041366115135547e-03 -1.295137550791505832e-02 1.448508605092106542e-02 4.014535511192701515e-03 -1.818469865813187930e-03 1.267626986006863826e-02 1.332923621293611097e-02 1.113636001871475337e-02 -2.953280002160133802e-04 -5.456490940968431250e-03 -2.204195308347635992e-03 1.221669259262880315e-02 -6.366716316530175029e-03 -4.579024029672138126e-03 -9.873195025867044158e-03 -8.916676023375470078e-03 -4.555990480754174531e-03 -1.672567632345607624e-02 2.831118770648164296e-03 2.697503683171551415e-03 1.370317224779554234e-02 5.724817125199535735e-03 -8.165637033703099235e-03 9.960245103412458667e-03 -6.575370406170461500e-03 -8.926245922687467416e-03 -6.357411973012649497e-04 2.399873380692588414e-03 -1.263159082379506151e-02 -1.280633078806279850e-02 1.223752670634101029e-02 -6.304105621690628616e-03 -1.533988173686269031e-02 -1.096450286966508614e-03 -1.061608751669624630e-02 1.526171717168964444e-02 1.409151316095412845e-02 -5.649305405681966617e-03 -1.453004879630234204e-02 -6.326890254512988754e-03 6.636794767103225239e-03 -1.357121583025738300e-02 2.668460644438309937e-02 1.029427660968859582e-03 -3.223237034932111781e-03 -9.691578740053566343e-03 -7.153635622267042783e-03 2.377238030456681715e-03 -1.152846431985210182e-02 -6.009950004435203087e-03 1.264223611829761243e-02 -1.050119298322716756e-03 -1.518312632078788055e-02 1.132042525768297767e-02 -3.863785367462618499e-04 1.585467830560490302e-02 -2.299550115053023130e-03 -5.993413855007371713e-03 -1.084938440323592913e-02 2.513348604279308767e-03 1.663240891793421952e-02 -7.478306301405317040e-03 -3.502185374556794975e-03 -7.072182732369240547e-03 9.256240983900432262e-03 4.935252720291057917e-03 -8.692195455223367465e-03 3.312880842481585614e-03 -2.979656710001895182e-03 5.422544680422129726e-03 5.769012373478534135e-03 1.069852704906091613e-02 1.068329094075182867e-02 -1.145626127107050645e-03 4.318641584659431779e-03 -1.398047563427359113e-02 1.070897606302675942e-02 1.612491185342154743e-02 -1.465815642852755750e-02 1.657887000859473853e-02 9.390629459543810287e-03 1.330069205451018220e-02 1.083047440693140490e-02 9.760036305836954432e-03 -1.435664272238061645e-02 -1.035237474561377831e-02 7.671967039854432277e-03 -1.447068034164369563e-02 1.681230181361486513e-03 -1.492407489712053482e-02 6.721443377537086351e-03 1.850178282089681974e-04 -1.036877033311815743e-02 1.214805451372221769e-02 -9.794109640992023844e-03 -1.609550725032162996e-02 1.912876892515714316e-03 -1.445632801901163521e-02 1.441305046471588573e-02 1.387209710342173635e-02 3.566687573491799431e-03 2.381395807512272887e-03 1.200937556021509402e-02 1.528383934601004225e-02 1.204817331025488658e-02 1.126246374848996305e-02 -2.745522739196359311e-03 7.879711733078458361e-03 -1.333382556337210124e-02 -8.599495169294105179e-03 -1.407497765257438539e-03 -8.361906661071356189e-03 6.591919806630833212e-03 -7.263190928480714285e-03 1.302206099117015139e-02 -1.305743985586334949e-02 1.044645701602292358e-02 7.888885840320580475e-03 1.558791033272154992e-02 7.246353468125842426e-03 9.805405538104834673e-03 4.840773243188006662e-03 1.127404780739906572e-03 1.653153199721325720e-03 1.225851610475266369e-02 1.480362943319179538e-03 1.788493023145600741e-02 3.500141930968626424e-03 -1.592012611148475171e-02 -1.345318720109004405e-02 -3.054290444793618907e-03 -1.111636285638595810e-02 -1.330752925501029783e-02 -1.636941411683530412e-03 -2.588105116795072578e-03 -1.156652273244451225e-02 -6.450401197920695162e-03 1.698229677914429511e-02 -1.121875608383646021e-02 -5.693958558363949526e-03 -1.034632859959235159e-02 -1.186592383967434005e-03 8.153484686745024468e-03 -4.708686483540382335e-03 -4.569225702015056005e-03 6.121474525378824659e-03 4.731461022837397078e-03 1.491183852863651842e-02 7.655656174241785329e-03 9.434485639297810269e-03 5.271629674796172831e-03 -1.522501693934503325e-02 -1.178628024859254900e-02 1.138941260282505703e-02 -8.010055423309150185e-03 -1.365298008216552991e-02 -1.354567372909730796e-02 1.518673060292688969e-02 1.189837765102261767e-02 -1.007203701066064667e-02 3.753231345680208518e-03 -7.207182654536353414e-03 -4.260120582265715730e-03 1.491141683419501714e-02 1.374463008558071513e-02 8.714429140471728966e-03 -4.311265083584921859e-03 -7.138734327930724988e-03 -2.249624393041220471e-02 -4.256171263598895749e-03 2.123872650432485562e-02 1.584385509296643273e-03 -1.496723231148213221e-02 1.428082424943285210e-02 -2.059487645102011343e-03 -7.970918238936142153e-03 -3.683110134827353999e-04 -6.547367285964940213e-03 -1.247902876826175247e-02 7.297543334856292953e-03 1.205090867605101285e-03 1.281270193411900883e-02 -8.119537056799009528e-03 9.781797746562135090e-03 -9.916765695360240870e-03 -5.018747744928912444e-03 1.060442721256778416e-02 -1.661812870327852854e-02 -1.956180170186156038e-03 1.382262204441042424e-04 -1.654260366959134365e-02 -6.461948621566849550e-03 -1.450214969008848526e-02 6.886326726982759487e-03 9.142296168116613789e-03 1.485106265105673451e-02 1.525237262031041256e-02 -4.042143872969835086e-03 7.574363008334175119e-03 -1.520211994009922378e-03 1.237047631672215202e-02 4.657210320038734398e-03 8.769398460263179429e-03 1.179725942765119141e-02 -1.203641776379867252e-02 1.607441183194777828e-02 1.222316760720024674e-02 5.601743628908934652e-03 -2.574068657137709368e-03 -5.573163577429436633e-03 4.083451302099655282e-03 -1.646026522483566221e-02 1.460296343764101897e-02 -6.455023780430236766e-03 -3.008684290699820520e-04 -1.434358558372517481e-02 1.057154284065406347e-02 2.914439304956573454e-03 -1.157511032290197556e-02 2.931959963634304337e-03 1.001876140997655026e-03 7.923346073682566507e-03 1.443338573726668343e-02 2.802304514363259703e-03 1.299504503864940159e-02 2.611444941059999766e-04 2.408787149438439829e-03 2.340273207060857962e-03 -1.365860180659443125e-03 8.127152750763961750e-03 -1.209075334088704004e-02 9.998433246388238951e-03 5.461966395753407866e-03 1.284055108613210358e-02 2.158126984548378383e-03 1.101845077264222185e-02 -1.375407439036391115e-02 -9.477428489144817947e-03 -7.859043938181193775e-03 -9.146800893073301145e-03 2.533130100614861251e-03 4.625896834210874858e-03 1.048756203559396243e-02 3.475718189861258696e-03 -3.673544487019474712e-04 -1.142949046063795882e-02 -5.572577340245548315e-03 -1.251431771091757010e-02 -1.309580052719035159e-02 -1.825341368741832063e-03 1.570272668214086134e-02 7.742773107759778201e-03 -1.178895311593316370e-02 -1.070092672798012359e-02 -7.183351944145252577e-03 1.024939088251218197e-02 1.075598382648527106e-02 -1.248051277215428238e-02 -2.749659029838679488e-03 1.212786167506782822e-02 1.511437887977122585e-02
2.113876020325143254e-02 4.842626479557694493e-04 -6.481309354743928011e-03 -2.949265130667362306e-03 -1.528019180402343837e-02 1.575772859374142401e-03 -1.540519956868068030e-03 -1.338279526290458120e-02 1.963384758923622520e-02 -1.145496328544271837e-02 4.319126144610056089e-02 2.154881554921234468e-02 -2.219288947137785552e-03 -1.705520325589875846e-02 -1.045068890884748650e-02 1.379993266349902395e-02 -9.636865981321298194e-03 9.305851716913415318e-05 2.975999034011097069e-02 -4.237674643177826404e-03 7.708035231792873540e-04 3.785544478851705225e-02 -7.921297679703053277e-03 -9.910572581168886758e-03 -1.653809584473430946e-02 -4.436137471736237899e-04 1.222174015783809679e-02 2.050853581315204791e-03 -2.162189501630486232e-02 3.323644648705291905e-03 -1.492558628147706325e-02 1.503828384205716830e-02 -9.727102296982784125e-04 6.011383989081337149e-03 6.449581491568006156e-03 -1.470690280282526026e-02 -1.885120349324632613e-02 -1.520716063224177711e-03 5.947664080064241771e-02 -5.739527339493711265e-03 3.569605976371639788e-02 2.893230298167995176e-03 2.977347078413721242e-03 -9.792691524153755191e-04 -1.912413479755288234e-02 1.452633464640077851e-02 -2.113309056094486715e-02 8.426542726266248937e-03 -1.140526900331376506e-02 2.128277270734738481e-03 -8.873223186004545711e-04 1.040716274833268463e-03 -1.281322617865703756e-02 -1.096119837699291270e-02 5.719056155497317245e-02 -1.053591886565825343e-02 1.009892698150827682e-02 -2.393697979784296589e-02 9.568919576335719115e-03 -4.638639917941753815e-03 1.492168531796199057e-02 1.985408416974285967e-03 1.075178924425485016e-02 -9.954412084750988501e-03 -6.953719531796517112e-03 -7.190000711718206282e-03 -1.086866135468464618e-02 -6.777259856180180460e-03 -8.670385719821926962e-03 1.375977934390018413e-02 1.044712314408425581e-02 -1.876175399868302424e-02 1.599787467592942575e-02 -5.336465713074391506e-03 9.684567453494630565e-03 -7.110067376867553086e-03 1.207138641888153181e-02 4.152281941833753961e-04 3.714371806017694594e-02 -1.581358342480542953e-02 2.006788846927052162e-03 -2.216028257300363836e-03 2.299076332230868061e-02 -1.264693802237320044e-02 -8.988173460585080835e-03 1.601946764823087080e-02 6.961572046361026202e-03 1.031599040824333381e-02 2.701302487743410807e-02 -5.011167938536385293e-03 -1.630070261181397126e-02 1.108798653136190346e-02 1.389098304255080747e-02 1.275351247230230994e-02 6.904852909153617359e-03 -2.016755075956200641e-02 -2.355859511009366497e-02 1.206777701764316819e-02 2.920080004890354859e-03 -1.165674766497336312e-02 -1.262829402034135531e-02 5.331648762096574679e-02 4.749338932409900849e-02 4.240199285160949072e-02 8.552270004893601854e-03 -1.522868393311053656e-02 -5.798610082087824434e-03 1.084441543789945806e-03 -4.657294470426941516e-03 1.416597137395313698e-02 1.335288394072057030e-02 2.346731924601809169e-02 4.194723094444849538e-03 6.043746441988243068e-02 6.087620352270154203e-03 -1.533633672307378910e-02 -5.337449995783996246e-03 -1.494936664863813838e-02 -7.538553772876024385e-03 1.384240012008805705e-02 -9.114662987627607238e-03 2.857539916963124874e-03 -9.883459482724607503e-03 1.999928977739664354e-02 -7.082787330925434735e-03 8.497600024850410910e-03 5.500136185494113213e-03 -1.728778663052995754e-02 2.050043743497362639e-02 2.297920560533465301e-02 1.955117988781941707e-02 6.005572786628167155e-04 -1.366023210110067429e-02 -9.747214278589686615e-03 9.367653476865986026e-03 1.432488909507765792e-02 3.164224927607106781e-03 2.140464290801770073e-02 1.152458217048662678e-02 1.470748214360212327e-03 -7.290911262672544919e-03 -7.984788738504786446e-03 -1.369238960895208246e-02 1.131307488239052979e-02 -1.819076819167534526e-02 -2.447395183446796269e-04 -3.482498012392042357e-03 2.731242883381424305e-02 2.712644185214017206e-02 3.243690846489227699e-03 -6.631773180215052611e-03 -1.226289383363948077e-02 -1.254773056473046551e-03 3.123398089306094957e-02 -9.576047878361335780e-03 -6.266882826171279487e-03 -3.376257453669981919e-03 1.449828098872757778e-02 1.333150621060292347e-03 1.152085277661486079e-02 1.143737050201252582e-02 8.473724825800495880e-03 6.538286151754127418e-02 6.443333701166140647e-03 -1.051445978654803187e-02 1.007280452599952983e-02 -7.228632848686535571e-03 -3.158406538945472773e-03 1.474724225122749956e-02 -9.029366623323884953e-04 -1.857661094929286688e-02 1.304268226244925666e-02 1.266088682824282989e-02 2.012287539282522908e-02 2.904255845842711962e-03 2.126719266297011357e-03 -1.604760404539331067e-02 5.676861836266385193e-03 -1.240203150604710612e-02 -8.047854785768370628e-03 -6.022997188000343144e-03 -2.814589505927295177e-02 -5.433793694810812314e-03 5.476880172793097135e-02 -4.463450654856659233e-03 -1.771031042141152367e-02 -5.488848201078341642e-03 1.368974388749218379e-03 2.571001417204088479e-02 2.024806659984315985e-02 2.584119380026671936e-02 -1.586376530278110417e-02 -1.372484423854339200e-05 7.983974299653985238e-03 4.606217124899442475e-04 9.389005915670304084e-03 6.077881918304858626e-03 -5.988427931802726284e-03 9.714979353932083617e-03 -1.128708498641245797e-02 9.841226378074377154e-03 -4.334839462647769107e-03 -8.212405932154198326e-03 -1.292021565641719195e-02 1.879994944158475123e-02 -1.226408387056927320e-02 -4.543142121315204424e-03 1.387278779071808750e-02 1.108866959482243328e-02 1.294401541609873849e-02 1.906290778169071262e-02 -7.479539132439985520e-03 -3.734312215802979701e-03 -6.010032265153873905e-03 9.293689868752898556e-03 -1.066097011821502986e-03 -8.662574285783262648e-03 -9.821177636737284805e-03 -1.758225066420125455e-03 1.588559106387683884e-02 -7.920748937351200156e-03 -1.650478714649541078e-03 1.564569877159524558e-02 4.653720201488160436e-03 -8.032409965167351109e-04 -1.483883393835678556e-02 1.636449635339438241e-02 -1.690269855308743768e-02 5.171242530982018276e-03 2.083663012874908613e-02 -6.382250632004927678e-04 2.967165793348282374e-03 -4.150817958439086131e-03 -1.082135576491653241e-02 -3.079643177578507852e-03 9.857265670064421087e-03 1.715996200345090705e-02 -3.176559730167689572e-03 2.331828090236934443e-03 2.026626846379049607e-02 7.023350806024121831e-03 5.420336328775014582e-03 -2.081530937545133728e-02 -2.289055819483978502e-02 7.187395877069311344e-03 3.274575213332423396e-03 -7.819865880320596430e-03 1.200526756665981631e-02 -1.388439352011082428e-02 3.827698446044774504e-03 3.783161468791014850e-03 1.385537884626449230e-02 1.522717856220519306e-02 8.480538681272970251e-04 -1.181226412475494709e-02 5.473628290181240669e-02 1.413870540881678219e-02 1.245012470802746296e-02 -6.483836698863747021e-03 -8.068530092592170883e-03 1.365055800333349681e-02 -1.560741947811847274e-03 8.107057029027132239e-03 1.148802853580292369e-02 1.194476920777280855e-02 -1.141381934531579198e-03 1.517747237205739272e-02 5.002383919652395039e-02 9.813292452664212906e-03 2.291450223311245794e-03 5.677054163940542519e-03 6.150305431194246115e-03 -2.729857219852795721e-03 -8.767791424441714887e-03 1.721089883652479830e-03 9.920257600728021180e-03 1.500256801601664892e-02 -9.226689361879781073e-03 3.814798382030392017e-03 2.978580587031253672e-03 4.863914322994780659e-02 -7.136860700719250931e-03 -5.304166779444820451e-04 3.008492389239198796e-03 5.457762372720536409e-03 5.729560563949608228e-03 1.067179274132868186e-02 -2.013009381258326277e-02 -9.675510006287609335e-03 -3.624534723458628510e-03 9.609585539891858999e-03 -1.476905105427838913e-03 -1.496058103408001889e-02 1.053200438986294681e-02 1.602271357601886895e-02 1.083544969829279558e-02 1.459103372166069279e-02 -1.614426469040496775e-02 6.755916363487208913e-03 1.159628106022188299e-02 1.846369813426774337e-02 -1.047942223607914274e-02 -8.950808811833450710e-04 6.499519767704763085e-02 1.853645542778757996e-02 1.339645280254202209e-02 -1.073189654803590430e-02 -2.457122807337330447e-02 -1.493818257513245852e-02 -4.058735318830589828e-02 1.594338123408912912e-03 -1.919283844354481919e-02 1.675636761209763070e-02 -1.661035737094037137e-02 -6.708751295320045972e-03 -1.447108717246698741e-02 -7.154263308575247067e-03 -1.280283030182752940e-02 1.868734992517160493e-02 -1.406121907746453632e-02 1.667521320744581870e-02 -8.236488234145390719e-03 9.145958683443238674e-03 -1.422817903713955237e-02 6.140010561066109804e-03 -1.080047851921009383e-02 -1.314685603331613474e-02 3.962567379318126561e-04 -8.065945731337323746e-03 4.838488394279918774e-03 -7.349038130630128254e-04 5.774187238163293844e-03 7.478275980734646645e-03 -3.575398771804374348e-02 -1.353779712100548586e-02 -2.649959502763311794e-03 -9.719337053803379922e-03 -1.656832399017238444e-02 -1.235186150475535254e-02 8.700969928656352576e-03 9.264893736843205982e-03 -1.960947266916447315e-02 4.700035043565798515e-03 7.341750884344815445e-03 2.461519432474211944e-03 1.803112506276870848e-03 -1.047862281473984671e-02 -3.475085900014490171e-03 -5.223888182692763144e-03 9.797354953516761514e-03 1.657477420255645470e-02 1.328554602193622591e-02 -3.533092060038395092e-03 -1.532621612371395936e-02 1.116045286756041366e-02 1.388212211440830596e-02 4.159468066492112703e-02 1.356382120086936649e-02 3.685722916182321979e-02 -2.135577856690329748e-02 7.942093427988357324e-02 4.713607042392781860e-03 -1.483515143990908440e-02 2.414000004730125146e-02 -1.345075921540757682e-02 5.423715131184966148e-02 1.933490324357940368e-02 -1.097663130045890530e-03 2.100875980846181670e-02 1.275564481308957658e-02 -1.107558271890280756e-02 -8.710250476799574759e-03 -1.393202333664761601e-02 7.174844418357079982e-04 3.460297438042315727e-03 1.726419197813039083e-02 -2.238527757017183019e-03 3.232768272206595905e-02 -4.445726070439690210e-03 -6.366904304782208639e-03 -5.137508625385652818e-03 1.211062170646126299e-02 1.106094140289206641e-02 1.151207479922464541e-02 -1.235728251260428956e-02 3.588706294449959741e-03 -1.330242756659754180e-02 -1.459019273588613858e-02 -6.170369726222270021e-03 -1.056579474297530095e-02 8.973373622503646920e-04 1.301018990354569152e-02 6.926452730702978289e-02 -1.845320274223587534e-02 -2.068697459926414645e-03 1.413291631722409306e-02 4.440831609402287432e-03 -1.631711754670253992e-02 -2.328411282358828355e-02 2.486840608194870045e-03
-1.188921908491141245e-02 -3.110756661199201405e-03 4.464796054182039106e-04 -2.356783223140940069e-03 1.625321920131410011e-02 -3.413899530830480887e-03 -1.380233414041756590e-02 -8.665684249932140842e-03 5.817263230765729043e-03 -7.459289247873404985e-03 1.289587755983634398e-02 -5.912069200296108523e-03 -1.292539711320442536e-03 3.334790279357807198e-04 9.856717288279536610e-03 -3.338742575984525278e-03 4.321214716309176884e-04 -1.541985691926872626e-02 9.074469559528845070e-03 -3.695492970449302823e-03 -1.170071791545019418e-02 -1.012369353974404201e-03 1.037744641854426372e-02 -9.193013998179979523e-03 -1.550626162668224117e-02 8.059808948715205257e-03 -1.076774599657454555e-02 1.680074717018247010e-03 -9.456788954662127713e-05 1.085532860176334144e-02 -8.585640384820979187e-03 -2.689243572019228441e-03 -8.526408090678175983e-03 1.063634769214509904e-02 9.614534289310094212e-03 -1.310250357034461501e-02 -2.233136631289637034e-02 1.199943189161759537e-02 1.866254143253365597e-02 8.553455108552317915e-03 2.013211801635954225e-03 8.386075711359826726e-03 1.431216989133436181e-02 -1.393922881298591959e-03 -2.259270318800330607e-03 1.380899459315036628e-03 7.797376797917940014e-03 -1.412534113073565106e-02 3.020663887349533841e-04 -1.478688461272030345e-02 3.354548069525318827e-03 -2.636939740693580291e-03 -1.420681011295040277e-02 8.922124964926076568e-03 2.637936867263598190e-03 -5.764788842144816412e-03 -2.837184876658418141e-03 -1.274167257982071564e-03 -2.666163584252372216e-03 1.515455058509891650e-02 -3.765845108304577849e-03 -7.821946251643388179e-03 1.618409144274540398e-02 -1.204542839688788405e-03 -5.507510770155718029e-04 1.525773050791202727e-02 -2.402641860577110940e-03 1.297992551594668274e-02 6.193335267598431594e-03 1.315934065222753614e-02 -1.050896887745490435e-02 1.140735050396281085e-02 -5.558480550343003132e-03 -4.720733636301111750e-06 1.137389913539849085e-02 -4.694028055973960105e-03 -9.232861889006448511e-03 1.130622142598670075e-02 4.618611718544080036e-03 1.095129222790013936e-02 1.200120937881766006e-02 4.317284421248854601e-03 -8.488778470978078578e-04 7.280118214978826760e-03 4.852833370232453175e-03 -1.102442373974520107e-02 9.696657561478050705e-03 -1.509305393852674801e-02 -2.324945810838102960e-03 -1.679978066029906569e-02 -1.065232223346353202e-02 1.244034285425895010e-02 -1.356299299927171513e-02 -5.654279055772360590e-03 -2.520128700023209142e-02 -1.481410489170295478e-03 4.383656073927077123e-04 -8.197509668725943069e-03 1.484273845043767442e-02 -1.224068076068278270e-02 6.562158555070595617e-03 -1.801958795875814676e-03 2.936109462237137136e-03 -9.331270757790294940e-03 1.479297684382037577e-02 -6.185902279831887764e-03 1.123486313220994556e-02 -2.627084920961097331e-03 1.214571362156300315e-02 1.066723879520682823e-02 -2.513963652004467478e-03 -1.246341364140729838e-02 -1.377445714983739286e-02 2.201545431475791098e-02 -9.839239819737008799e-03 1.223911219783608076e-02 -1.221223836288499835e-03 3.067048894160370482e-03 -2.961414034365326877e-03 -6.716630456441721568e-03 1.583400288585606538e-02 1.632129620756490179e-02 -7.403005570515285884e-03 1.535855994544080977e-02 1.469494225231651567e-02 1.449102234903712439e-03 1.169341814109273875e-02 5.353131352273569378e-03 1.945718429556011781e-03 4.415597277171307011e-03 1.076211103542285691e-02 -1.252686505142813593e-02 9.179677519716667941e-03 4.336534486898161074e-03 -1.242625919170416322e-02 -7.312851563723755596e-03 1.206730607316724817e-02 3.502119540297825295e-03 8.390353990401555606e-03 -1.598152753628019965e-02 1.679268530386961514e-02 1.201390966925559335e-02 3.732425318714008896e-03 1.170305020451458192e-02 -1.195079280937892501e-02 3.723640519456945623e-03 1.259390368400977248e-02 -2.341600544331451979e-03 -7.245020453016046136e-03 -1.454221119269629575e-02 8.065936330811249166e-03 -1.962158516752380774e-03 3.746826778102673415e-03 1.939161521893821225e-02 -3.414212213038212741e-03 1.293241760293140433e-02 -1.632123731988703932e-02 3.757540331349595950e-03 1.768314756677795418e-02 6.867464264492056068e-03 9.230603228801611757e-03 5.521241289179293008e-03 -4.083529575709013795e-04 8.313391612037836155e-05 -4.609192282078814970e-03 -5.096119851664324650e-03 7.226603358112734625e-03 -1.040850321373255026e-02 -1.055036209770931349e-02 -6.269113602592481758e-03 -1.365591640640863129e-02 -4.709334477808749080e-03 5.263147597175154950e-03 5.434890744511289805e-03 -1.360486898085709953e-02 7.523762178118621226e-03 -1.078914145563197001e-02 1.155192246618119874e-02 -5.546375311197953781e-03 -2.053813806782831767e-03 1.021922228252821092e-02 -1.860887640045896449e-02 -1.175273609382088830e-02 -2.244101824649071713e-04 -3.306613708409331109e-03 -1.429658602381585382e-02 9.838960717066537118e-03 1.875490735062938959e-03 9.863203441225456419e-03 1.463063457630272429e-02 1.647290162896312147e-03 -4.629180307053987371e-03 -1.386377626567848569e-02 -1.396851055508139573e-02 -1.193974740014176576e-02 8.491793780517727791e-03 -2.886081278291269345e-03 3.085908493105425903e-03 7.015071060552394155e-03 1.564056646866154518e-02 1.078207242366275437e-02 8.036432874020537839e-03 -9.110694971736086473e-03 -2.019402265843901756e-02 1.251790129837867041e-02 8.462890877327768416e-03 4.649000752720327395e-03 1.493355818683455433e-02 3.554083394997300475e-03 -1.235971774420960984e-02 1.598763491882810445e-02 -2.118058864292537632e-03 3.871623149062010816e-03 -1.062794929511336195e-02 -6.577138915213268620e-03 7.288684682301248621e-03 2.157499131407173559e-03 -3.796143114125860325e-03 -8.480743871449555535e-03 -6.006694749260056048e-04 -8.310253125264309426e-03 -6.846282145704095032e-03 -1.186475569251653310e-02 -1.960847291386899789e-03 3.170909669694787440e-03 -7.985742506796393581e-03 -7.440071210170382324e-03 7.612945495956523548e-03 -1.470961481544900973e-02 -1.437926892878333036e-02 -3.937988037984557462e-04 7.218262226758043361e-03 1.243425237420420042e-02 2.833238200682465079e-03 -1.545897599987884272e-02 1.164682791563613484e-02 8.943814646036935337e-03 7.183079633385957598e-03 4.534033362487529389e-03 -4.735535660884349009e-04 -1.387113480114238531e-02 -3.112400891307533831e-03 -8.458524501688201649e-03 -9.091517626045890824e-03 -6.107613130484563276e-04 7.272535357027717397e-03 -7.201863931765902470e-03 -1.476092351186770145e-02 1.055345969364910111e-02 -1.351739657324736200e-02 -7.988184163614067343e-03 -5.314929892774337885e-04 9.204946507655688628e-03 -6.022147284237511396e-03 1.239101893094895178e-02 1.798352178062766205e-02 -5.511847599581738699e-03 1.390870939543687769e-02 2.058913861334673613e-03 1.186760408535558753e-02 9.004846194343772356e-03 1.777098846521264720e-03 1.752964098405109233e-03 2.909971445571741307e-03 -8.330787250496504703e-03 -6.660002487777995014e-03 -3.459242443632957152e-03 1.470465948572740808e-02 9.625560946341569363e-03 1.170323375545321946e-02 -3.982407902408633370e-03 1.080299641179359969e-02 -3.454432590604803247e-03 -9.696104045027579416e-03 7.895869281574468407e-03 1.053938462378915981e-02 1.136648527942209913e-02 1.586029805099358619e-02 5.042605086938348581e-04 -4.871121923436864259e-03 1.774226302445482475e-02 -2.903732134254048431e-03 -1.509748423841477880e-02 -8.037923947654767795e-03 1.066094878685064709e-02 1.410031948096067411e-02 4.230379685929459323e-03 -1.561699809953387072e-02 1.555676518547209966e-02 -1.288066784878394433e-02 9.733951127948186136e-03 3.939106778570541749e-03 -8.206643002731625267e-03 -6.168631409346977262e-03 -1.181589820174765160e-02 -9.018417411733866546e-03 -1.153211871679493683e-02 1.525528713823562192e-02 -1.012348803907295661e-02 1.104401110321606184e-02 7.656134621150874862e-03 -5.174378891455098635e-04 -4.152893937004574140e-03 -1.595157076389479636e-03 2.016653847312028028e-03 4.646468272434310307e-03 6.717854457400375054e-03 -1.283594191107481500e-03 -7.837655135497018782e-03 1.476392368463446802e-03 1.150655337606499261e-02 3.389597819835347015e-03 1.737272974969301248e-04 -1.449091431341652594e-02 2.860892239735798783e-03 1.318025344518431244e-02 -1.414831043698707054e-02 1.620597984043805305e-03 9.271797507599278607e-03 -2.963622890813461582e-03 -5.883628882846971865e-03 -4.013141623877311374e-03 2.355552884382130802e-03 -1.283546705452574127e-02 4.546599933299669445e-03 6.241519395138898224e-03 -2.220396320961258788e-02 -1.644450097657617141e-02 -2.058737549396004538e-03 -1.200441496471768218e-02 -1.631872483060995208e-02 2.800682193700767750e-03 1.426482134145845918e-02 -1.679260354786071482e-02 5.962117437720217995e-03 8.802593034627303678e-03 -1.147475436788110426e-02 -1.026240568448402897e-02 -1.386492714447663289e-02 -8.671246196284097124e-03 1.024644909338552493e-03 -1.506015011226800697e-02 -5.257864702746308308e-03 1.484526031744754990e-02 4.587069691623806879e-03 9.657454780047564080e-03 -1.490436988870019915e-02 -1.335623774689458435e-02 7.173467705778953721e-03 1.550113722522280385e-02 4.982395356276384836e-03 -5.059579291367743113e-03 2.078139056502318130e-03 -1.047397209943662713e-02 2.953939221755360646e-03 -8.323932166706283359e-03 3.553494327622704497e-03 -1.207336745161870055e-02 -8.265229441906983901e-03 -3.118447930493145961e-03 -3.945641789553222881e-03 -9.917686471820891594e-03 1.409606753421475088e-02 -1.387058403233336172e-02 -2.728754448305456461e-03 1.341408050487895862e-03 -1.397022214806712369e-02 -1.384865423478877540e-02 1.540458121087368015e-02 1.526195275341413887e-02 -7.217272590430101565e-04 -1.619882364037412200e-03 -7.360198691439587965e-03 -1.040954130378485797e-02 -1.040513985274692590e-02 6.420255493279754429e-03 1.116316379549659425e-04 -1.086809711423185679e-02 -5.981281242341517264e-03 -3.248434814233478081e-03 7.555660228198838365e-04 -8.866042969412469762e-03 -2.270376818956895085e-03 -1.991396329340130566e-03 1.028949050238952938e-02 7.238946786770951783e-03 -2.227896369481147977e-03 2.339603297290875506e-03 9.103021937848893366e-03 -1.850438425451487665e-03 1.118505593853489841e-02 4.454274735422603278e-03 -2.594967454707001759e-03 -4.809370503820008594e-03 -6.264166694494707668e-04 -5.524667536120302265e-03 -7.099791768787719511e-03 3.012570712363903114e-03 -1.174353886594472693e-02 8.638803987077508725e-03
-1.021346042391948344e-02 -8.758470333989716930e-03 7.269843719803613206e-03 3.260999844475267594e-03 9.433831906218591648e-03 -3.389578280109805872e-03 1.104071722523451531e-02 -1.554462725483071349e-03 1.645633377629161440e-02 -1.562730073999470462e-02 -3.306041470447512124e-03 -1.226994751743560458e-02 -1.267880395650881724e-02 -9.069549115646986445e-03 1.502996419139372665e-03 1.023336178978366887e-02 -1.016338754173280040e-02 -1.119889036650669909e-03 -1.142716473500325451e-02 1.417393479254676868e-02 1.531175004298892216e-02 -1.531306718243398077e-02 -7.160937007283213994e-03 1.239721146989364092e-03 -1.184818521096001921e-02 -1.679180982486694340e-02 3.532068168575928577e-03 1.633797836092806734e-03 -1.709358536092385125e-02 1.162184426842665166e-02 1.448492554987219167e-03 -9.119952340636661853e-03 9.452952535138505266e-03 1.403716465460613100e-02 -3.521158911767308716e-03 -1.477044088537825609e-02 1.383744658793645450e-02 2.270298678662126084e-03 -1.049427798952783444e-02 -3.273529819205806988e-04 1.611550537771650263e-02 -1.478132632480357858e-03 -1.452731234072330256e-02 4.390191503177274038e-03 1.380560515822944201e-02 -1.696922330174313251e-02 -4.536500048836063399e-03 7.226510948894012852e-04 -1.071585848427745492e-03 -7.522138282294215175e-03 -3.512283739174126146e-03 -1.051839995090058689e-02 9.607583620426842982e-03 1.054656717866537911e-02 5.483691732015255442e-03 9.702864047224072155e-03 -1.404922981493999905e-02 -1.476910326761553087e-02 2.863770977754500919e-03 -1.635072764427752609e-02 8.665657634253054811e-03 4.940440323341859299e-03 -3.033924564707624321e-04 7.523181884763854507e-03 1.371789014971836612e-02 -1.019650896317944762e-02 -4.884831666569560901e-03 -1.651086195933602419e-03 -6.959049027155734396e-03 1.459582065491791050e-02 8.347384549112229005e-03 -1.522802932515155121e-03 -1.165803446179928746e-02 -8.721014274839206104e-03 -5.100418342952140437e-03 -1.405219456991341383e-02 -1.544233955664008236e-02 3.144939103897114244e-04 5.632014994432762121e-03 -3.000287584934065188e-04 -2.287048218788651117e-03 3.850997420517060944e-03 -6.112692672832503553e-03 1.320222479336595825e-02 7.071063741512663599e-03 -1.640943156000535669e-02 -5.810489096674789113e-03 -1.152646304900714798e-02 2.275159801843138884e-03 -4.471935638308059853e-03 8.890504857053274299e-03 -1.413618004195045866e-02 -1.373844199731227671e-02 -8.352050350367706821e-03 -6.102977152977271356e-03 1.180503735628858110e-02 8.222864080520916191e-03 9.781101443899273620e-03 -1.218069371308629079e-02 -7.394352223431335802e-03 -6.638403911306137509e-03 -8.795280733346885760e-03 2.108438434889343266e-02 -1.403586641710510494e-02 -1.198306296225752458e-02 1.311579156041463301e-02 -6.474347543471261138e-03 -1.020100777495638877e-02 -5.808752631732733325e-03 -1.133265003897830810e-02 1.468288858095615802e-02 -4.741915219937966469e-03 6.007281564832601430e-03 2.142983638145183611e-02 8.750642202188531858e-04 1.303904715135526492e-02 -8.195875613405309221e-03 1.101864194975844813e-02 1.584219037371913455e-02 7.830325117924369013e-03 -5.994587111481513263e-03 -6.838258476638512350e-03 -1.602935047092601470e-02 7.847746649607438216e-06 -1.119190157959582335e-02 7.429535738126579088e-03 -7.213936792801919386e-03 -8.981925944332643311e-03 5.427995734541113393e-03 5.857536236231893848e-04 1.182760398031969425e-02 -9.439265496186234963e-03 -4.939357640904106601e-04 3.520445401684052424e-03 2.847943438496261352e-03 -1.427701636103647156e-02 -1.266383931928220623e-02 1.251112556605824683e-02 7.772013360255939154e-03 1.309869072280430216e-02 9.763839342363772166e-04 -7.552317661832118854e-03 2.235049351367484824e-03 -3.621641850799498224e-03 -6.194661295916510440e-04 -1.532835473738041430e-02 3.700410458340856350e-05 1.130746243557331082e-02 -2.048265922710995612e-02 -1.398740284796961240e-02 -7.593713438260944228e-03 1.739424933944605782e-04 7.639519312566813575e-03 -5.201185519977602305e-03 1.176770783446183175e-02 -2.971330071053190133e-03 -1.303418575247056871e-02 1.573612676522709655e-02 1.270880897823608267e-02 -4.162124057934973344e-04 3.597732041542723008e-03 1.373382149326651553e-03 7.141601964025208645e-03 -1.696441445560972761e-02 7.165147412483386172e-03 -2.353023462869103816e-03 7.138408804609377989e-03 -1.645202601732050074e-02 1.277600860226297055e-02 1.290373112545517044e-02 9.526713651006581129e-03 1.685586379160125374e-03 5.721512047808253662e-03 7.060029975305093415e-03 1.531504354023745934e-02 1.177677500719815328e-02 -1.390438727742211028e-03 6.978324028308191887e-03 -1.602127428195451730e-02 -7.062283455211485622e-03 1.099453580396867955e-02 5.351831010287139883e-04 -4.141915995002324810e-03 2.170120319456840530e-02 -6.124947069896316001e-05 -3.381899343803044036e-03 2.028334179719348471e-03 -4.856040033385640442e-03 2.117489607079324487e-02 -1.461586703596947853e-02 1.194671462834798930e-03 1.174458776799008550e-03 5.722950006332175321e-03 -1.645183787179610446e-02 -2.272851460587079105e-03 8.622759251553535620e-03 1.253564985915144384e-02 -1.455773843702011083e-03 8.859316836809100204e-03 4.275385714409571901e-03 -6.092888833510261976e-03 9.872314460332215144e-03 9.315580399317660923e-03 -5.489906142000628396e-03 6.813930758330226899e-03 -1.650366219652973226e-02 -9.539214636368678960e-03 -7.224927521729109046e-04 -1.489768398188317210e-02 -1.251063236208843025e-03 -1.333950781205211350e-02 -3.217581782125545058e-03 1.403626190542424379e-02 7.350826053907418001e-03 1.519985412093680793e-02 1.330530918031316888e-03 1.578680805788440847e-02 1.419277083937980563e-02 -1.752796882970060390e-03 -3.376870775156691137e-03 -6.676640095773816140e-03 6.289306699589616856e-03 -2.316891168117317552e-03 7.741407101762283992e-03 -1.048584090643310714e-02 8.137621879913996964e-03 1.971515992267818332e-02 1.104566502662518782e-02 7.340275299489305155e-03 1.645142500615288245e-02 5.905318668555812819e-03 -2.113782094044809514e-03 7.268360045043097475e-03 1.154215494025164976e-02 -1.651063385165234482e-03 -1.509175626074080179e-02 1.413857039336426265e-02 2.761802357290740230e-03 8.219257334371597029e-03 1.300231222811810278e-02 7.086170042358807576e-03 1.625635024477869658e-02 -4.390898325093040011e-03 1.215676345443850170e-02 7.193049715939751898e-03 5.430207695340225765e-03 -1.402093135312206668e-02 -1.373418736010932270e-03 6.452564283523647311e-03 4.430057396516637498e-03 -3.281710687160252493e-03 1.521600657864798263e-02 -6.124209761450603341e-03 1.818449566376716337e-03 1.076203564781758049e-02 5.902171537546475541e-03 -1.688488607410899281e-04 -1.779037600351077034e-03 -9.812216521334063066e-03 -1.681370421288637612e-03 9.729040541076925883e-03 -1.290177965218767056e-02 -1.137226927715484330e-02 -2.743523845823872629e-03 1.090256552934763118e-02 3.633861409569132464e-03 1.582468276439881472e-02 2.319755268827651713e-03 -1.442154957623841167e-02 9.782617739860109338e-03 9.526160773898248099e-03 -3.685567894406516134e-03 -6.864700281975650784e-03 -5.970427207387021991e-03 2.218008749726993814e-02 6.352474441853215789e-03 1.468247359616911205e-02 1.402381929080503443e-02 -2.319039767305412086e-03 -8.871296544723742544e-03 1.189794777263659606e-02 -7.308799442145370168e-03 1.763558661331912766e-03 9.230137154866525223e-03 -7.136792018314787496e-03 -1.681751488635172898e-03 1.109882200391236820e-02 6.420651192005333817e-03 1.291257558962544951e-03 -9.125822748525544079e-03 9.704760177034244678e-03 2.967261416463843563e-03 -2.699815533212216075e-03 -1.230797951477935470e-02 -8.373759824912466176e-03 7.376654607961282729e-03 -8.565687615160978360e-03 5.515480890375177789e-03 1.459671710972487105e-03 5.899278354303655846e-03 9.550591606392880772e-04 4.363225244319920287e-03 -1.456498724806848041e-02 -6.647827312537834404e-03 -1.213752460804011155e-02 -1.401559035120266902e-02 1.994830360109854216e-03 6.789854501407682416e-03 -1.395387408110625475e-03 -7.451181848568961055e-03 1.365167558134951263e-03 -1.965512090996995517e-03 4.671139603440678002e-03 7.480159057730756920e-03 4.263281058127797556e-03 3.754457338706234173e-03 7.872019604173297394e-03 -3.091029023629430789e-03 -1.174269820015716101e-02 4.659770178929399653e-03 1.089573047950690397e-02 -1.384207774363248582e-03 -1.293293064401178707e-02 -2.423907479121502340e-03 9.130869879044475890e-03 -1.658653352762246447e-03 3.867611620090556993e-03 2.839843603641875082e-03 -6.447882106334275852e-03 4.723287240415085034e-03 1.502825931252690407e-02 8.598052313720497622e-03 6.470353867446023734e-03 -1.539366965994571788e-03 1.371163371414406591e-02 1.260456430075044230e-02 -9.056704981282030081e-03 3.096218119669290727e-04 -2.226609940237510733e-03 -1.606969808635933319e-02 1.305702024091588915e-03 6.033510841554120402e-03 -1.500411050983601995e-04 8.521376734203648176e-03 -2.588742472810389578e-03 -7.349439540796187491e-03 5.307844946218612942e-03 -1.450209309777323631e-02 1.433014390544908728e-02 -5.638691159971137611e-04 8.626527565491861824e-03 -4.522681865657262636e-03 1.103395356536248728e-03 1.334400321019919844e-02 -5.712282998833431713e-03 3.535569434899642465e-03 -8.171747831806257592e-03 7.225743971245888152e-03 4.724672877825203225e-03 -7.604515409443912861e-03 4.683845756194935511e-03 6.689904430369569832e-03 -1.250770230673588571e-02 1.148677234039785673e-02 -2.924473199278707601e-03 1.141015625076190546e-02 1.114951272553773610e-02 -5.836679388528668438e-03 -1.510551941457351048e-02 8.200694867028086171e-03 -4.907220195658655408e-03 1.332108604935725374e-02 -9.249840765092056175e-03 9.848918495770500950e-03 1.317766122696539637e-02 -9.392706806391520197e-03 3.858523035903564180e-04 1.112494400209377253e-02 4.783947239757432857e-03 -2.124044699872681789e-03 -1.320984713425335001e-02 9.471094335340404097e-03 6.939512047478134382e-03 1.294912783750261365e-02 -1.074245427045978502e-02 -1.747947157219091954e-02 -1.202803081167293751e-02 -9.447158697870064459e-03 5.635231212087454464e-03 -9.368916711583419278e-04 1.498160195848088905e-02 1.461874343609981079e-02 1.177077030049666862e-03 1.681966669643755394e-03 6.583915203335032051e-03 1.778000679851643147e-03 -9.609339391431598668e-03 -1.846643057876519358e-03 -1.398599613866653192e-02 1.123708272602479998e-02
-4.478685263600719856e-03 -8.037270293994929968e-03 -1.230042237983194030e-02 -1.001550983527280591e-03 1.146279622319367787e-02 -1.235834830438339860e-02 1.268930506715884240e-02 -8.854801179654070084e-03 -3.735666795296327825e-03 -1.672290020186055839e-02 1.634073219714523911e-03 -1.801275401581503479e-03 -7.992669386207391577e-03 1.670143060327291401e-02 1.395411827007988527e-02 1.783570233607947517e-02 -6.341144911131500923e-03 5.252759968539264489e-03 -4.100309271166723522e-03 -1.636544702593858980e-02 4.367731356833426219e-03 3.766134587288153847e-03 7.303409517029766512e-03 1.773781176792693648e-02 -1.674053237018307107e-03 -4.719332452844787404e-03 -1.173095433445184299e-02 1.387805509984000457e-02 -7.414415955429102742e-03 4.562096984767230294e-03 -1.602592919300131801e-03 -1.947959108418863489e-03 -2.028750821342477709e-03 9.310216568914784704e-03 8.151882409317011760e-03 -3.754016383398766071e-03 -1.098228613113785487e-02 -4.730802075355103331e-03 -2.334220520236659439e-03 -1.929638574928365345e-03 6.086588452925235926e-03 -9.019294284377409390e-03 -1.591414796693598269e-02 1.117763747563114279e-02 1.174272403682410492e-03 -1.786684413872005432e-04 1.043130866830230090e-02 1.245016917729159685e-02 -1.762220574719983862e-02 9.625675405775920013e-03 -1.222783637357351127e-02 -3.622629951657091278e-03 4.891170661598097727e-03 -2.013321788482138296e-03 1.471904665328988525e-02 -8.919243561104317833e-03 1.604802892163035774e-02 7.122025833155676972e-03 9.843489618155678092e-03 5.066669822306850424e-04 2.845157493791633952e-03 1.436318539206737910e-02 9.071225227621521059e-03 -1.489394203631339529e-02 -5.584416934940559249e-04 -1.587752922617240853e-03 -1.103659657753410482e-02 6.088376030782709225e-03 -5.685192210360108175e-03 3.236320147083356340e-03 -2.450024780841879302e-03 -1.216436865844130327e-02 -1.574850541070720381e-02 1.345708725041042759e-03 -1.604891507498632311e-02 -9.427461379144382383e-03 1.450297221952696544e-02 -1.548334351957712969e-02 -2.949004579205392711e-03 -1.076405799545463240e-02 -1.599832612680772773e-02 3.056057074259742930e-03 -9.203587044171783471e-03 -1.548961242201978179e-02 -9.770658625290388685e-03 5.229659461515868274e-03 -1.818214541789916344e-02 4.477015907939382519e-03 -1.304844647174474917e-02 -6.328347655380455426e-03 -2.497518075266661830e-04 -5.371068273684551260e-03 -1.468022780556920912e-02 3.308824042074810356e-03 -1.221394209201971670e-02 1.833279123475838220e-03 -1.477775340846543273e-02 -1.629539017196059147e-02 5.200515908786546189e-03 3.211437524849262721e-03 -1.167645408712196867e-02 1.264997600838690950e-02 2.069762869589804679e-04 6.529238805398146321e-03 -5.596399007721622985e-03 1.231538338225417716e-02 1.373789872917614667e-02 5.219196165034952449e-03 -7.311962700099433263e-03 -1.461305075164207046e-02 -1.540139654683457451e-03 6.768489467471101688e-03 -3.288411620492545998e-03 2.727047272124214980e-02 1.694797043121399130e-02 6.272282578571180016e-04 -1.354676347984623552e-02 1.584254151254730139e-02 -4.212554023356580857e-03 1.939511340845398012e-03 -8.079916717466627263e-03 -1.336061495761895965e-02 -1.342131301025063957e-02 1.709181321950866209e-02 5.632078257609187885e-03 -6.458649563397250194e-03 -7.963001711123997295e-03 3.883133568254482082e-03 -6.390476884020650922e-03 1.136774248286260940e-02 7.883879899255439097e-03 9.865380876074277341e-03 1.190348064021035275e-02 4.178288074498030628e-03 7.420825145296647794e-03 1.168461418364329096e-02 -5.263428888405731476e-03 3.459115810109355919e-03 3.075021743031537171e-03 4.931484631108986987e-03 -1.158158237839309636e-02 -5.559359099048406458e-03 -1.401846189819770314e-02 -1.380459810593705205e-02 5.286021888608744002e-03 7.074513151053266405e-03 -9.356228436191471251e-03 1.690527058639851310e-02 2.767055617671125914e-02 -1.200814692142104095e-02 1.446455904986718513e-02 -1.025052481388868605e-02 -6.839245199808857700e-03 1.885201723195637988e-02 -1.081029632233657112e-02 1.384101163026129309e-02 -9.557640898596501955e-03 -5.923952746214647055e-03 -6.496129811330893754e-03 6.345095129729497359e-03 -1.319115270401507826e-02 3.353271034056886507e-02 5.357990978188195566e-04 1.597353539496759040e-02 1.191946250076918873e-02 1.764442375470900298e-02 -5.419650357587637267e-03 -9.892362557936257988e-03 -6.656746691058527954e-03 8.267454240518057329e-03 9.770473257998815025e-03 1.649501287741400590e-02 5.333427465687949967e-03 9.070371269845162523e-03 1.294203472036740271e-02 9.993951050749842746e-03 1.294900919812432688e-02 -1.175554994974988346e-02 -2.849790712482812814e-03 -5.891297338057540495e-03 -1.297857527932212880e-02 -1.588765059052540951e-02 2.366615745663791862e-03 1.996205438512991398e-02 -9.027842396404675909e-03 1.244041236293227590e-02 -2.063003808599259050e-03 -4.719968040061338528e-03 3.051382831714930920e-03 -1.699431531669706036e-02 8.143650436693116237e-03 -1.345704952924338740e-02 -3.776799479003378150e-03 -5.677937213289550172e-03 -1.064628337619824040e-02 -1.039900997677360890e-02 -1.227508837787701437e-02 -8.815255382400688511e-03 1.173316068261357099e-02 1.351139343426402059e-02 6.705582598286485320e-03 -1.454304331689401306e-02 -1.355357797902410726e-02 -3.078777944188376779e-03 -1.770885003351159101e-02 6.346339716378559224e-03 1.264439727153808535e-02 -1.041201386678390628e-02 1.152181401325341054e-02 -1.167581536077179523e-02 5.513493085759630687e-03 -1.413083905584726005e-02 -6.315890564738141887e-03 1.036924655870989469e-02 -9.529571073142515183e-03 -1.371040151175578412e-02 1.367512038105862977e-02 2.700162164774346386e-03 -1.486795847108132729e-02 2.397038074805999883e-02 1.589893376708458386e-02 4.950249505368618796e-03 -8.104781596903412252e-03 2.164199226496548844e-03 -1.257384293178577007e-02 -1.349322966318044700e-03 2.264216757315895643e-03 -8.670914170795509732e-03 -4.143169904535413083e-03 -5.829935747491653275e-04 8.814533036734496785e-03 2.298963354993388206e-03 1.083054123372088895e-02 -1.430262131404379591e-02 -5.543862130859350361e-03 1.157658136571424259e-02 -6.035152778229431643e-03 -1.746813565360999824e-03 -1.140990616687399296e-02 1.743495202312705938e-02 -1.642810378252178467e-03 1.484442857133894123e-02 4.419779955806227983e-03 -2.795537780473805224e-03 -1.124418804851249482e-02 1.201484006158431116e-02 -1.512693638992230073e-03 -1.141330266608891943e-03 -1.052243708643413669e-02 1.085859573367899643e-02 -1.574914649918676690e-02 -1.044039706869742158e-02 9.839516074337546075e-03 -9.078093207444834500e-03 3.543566854804143431e-03 2.390938069615666101e-02 -1.134645403419149400e-02 9.143243159337871573e-04 -5.004696045422984269e-03 -1.533282740250192788e-02 5.619236270828000326e-03 2.863195906010959635e-03 1.058943083955404645e-02 1.071231075600019046e-02 4.990046378623563643e-03 -1.872827771109640549e-02 -1.259585959713085609e-02 1.345749642661893918e-02 1.523406348801310296e-02 7.002634897638183170e-03 -1.016750271573121402e-02 -1.312284962810897869e-02 -1.353215636263353913e-03 -3.731024691085001177e-03 1.211021408976630138e-02 1.283262308413841285e-02 -1.233979579170143767e-02 9.871189011018599926e-03 -1.053897505106790589e-02 -6.517673771681871051e-03 1.330898439569812471e-02 -1.717351418733807644e-02 2.121259380733846699e-03 -6.971177154595941360e-03 1.745863769372591259e-02 -4.353824248927740462e-03 -2.174581827909676662e-03 1.303740139258504661e-02 -6.950958509019652953e-03 2.884859334733254170e-03 -1.024912232336927694e-03 -6.053099125233977855e-03 -1.578737174688563116e-02 1.495043956699724369e-03 9.224977984285870347e-03 6.328543952716294586e-03 5.734496687879673746e-03 1.571337891762492750e-02 1.836791962039621088e-03 1.469930626675061691e-02 8.835787638006029412e-03 -1.603095442399398579e-02 6.612718757993752035e-03 2.544509729528271480e-02 1.131134183461732223e-02 1.554290017904186869e-03 -6.572477291340194337e-03 -7.989690533839332795e-03 7.966632109695210781e-03 -1.388254973474942373e-02 4.266968949767608633e-03 4.780706719323437638e-03 -1.352838148826786442e-02 -1.556973644357463951e-02 -6.488029951164269067e-03 1.642925435833804404e-02 7.549011291303446211e-03 -1.191367565777848650e-02 -4.111890490039977146e-05 -7.633708603469803108e-03 9.946003283767225131e-03 1.040074704892836495e-02 1.827510129030103514e-02 -1.182188605739878037e-02 2.372410539957647314e-03 7.150154412808304612e-03 -6.361136353392979684e-03 -1.377406078824291655e-02 1.587599038457021550e-02 1.816593981451462142e-02 7.977513105138594324e-03 1.612427993523879791e-02 -7.108772427470342291e-03 -7.558628234482238709e-03 3.387907230741687807e-03 -1.237329018079153832e-02 -6.841115950751943363e-03 -1.825612140549497803e-02 -1.039591924222250247e-02 1.607320031343294556e-02 1.407076346114413158e-02 -2.137711746523859695e-03 1.360315950898972545e-02 -5.305269877362246483e-04 -9.585494696881708548e-03 6.292072091285207808e-03 4.473967388409586313e-03 1.221708486318168890e-02 5.958407031934102698e-03 4.367926226717786312e-03 1.198156451265099467e-02 -1.700170865121670895e-03 1.167237945199611771e-02 7.908630034913419204e-03 -7.772105345307487104e-03 -1.620719599150642620e-02 -6.533056139360738854e-03 -1.014282503704265655e-02 1.430516002818319442e-02 1.185297053469584923e-02 1.755498437418129276e-02 5.464521439730815090e-03 2.354885153223223310e-03 -1.369844144765089075e-03 1.351154589353332006e-02 1.665411313277805061e-02 7.889465276297717364e-03 -1.511965408743866889e-02 7.923226873929059555e-03 -4.732519284037138563e-03 -1.553648412700277259e-02 1.090484553541344777e-02 1.227527073284524241e-02 -1.102821023726708281e-02 -5.423996514628624810e-03 1.084198176395958883e-02 8.771747873742930315e-03 1.067622033913733816e-02 1.087030353524034466e-02 -6.130389059248631152e-03 1.206017280585963171e-02 -3.921690966744644652e-03 1.352593216326268902e-02 1.795410539708988326e-02 -4.375364936178132921e-03 -1.903749075402606837e-03 1.348456597040193460e-02 -1.088541985482341726e-02 1.518565312511708891e-02 1.519300928536780268e-02 -1.004461270619058828e-02 -1.562896931932980168e-02 9.634455881790687445e-03 -3.609213615711615811e-03 1.341615315718975611e-02 -1.688639250663841922e-03 6.218972458778191346e-03 -1.515669486029851132e-02 -9.381730549889246568e-03 -1.282939675158833136e-02
1.147903506154247452e-02 1.436805788521975692e-02 -6.643634017829375821e-03 8.949488757151451146e-03 4.251364163939092000e-03 4.111042975093274002e-03 -1.443450258935131611e-02 6.043516913915313732e-03 -2.835844497851975048e-03 9.231503610937441540e-03 1.037221631878604625e-02 1.337234731576660007e-02 5.176904753104296340e-03 -1.325437593799195027e-02 8.464014656840821924e-03 -2.357198552435062558e-03 1.390970421937271807e-02 -1.198366562313050998e-02 4.824490569012974614e-03 4.723569262522502379e-03 1.084500247148036979e-02 1.520636340251094350e-02 -1.384295035924562600e-02 -4.425641129659342414e-03 -1.983347518943530830e-04 1.728706111508235624e-02 7.924895178131872477e-04 -7.318621465337078746e-03 5.939686955042875957e-03 2.346484234737327909e-03 -2.608808092206994864e-03 -5.435042560248245537e-03 -1.620690148019333270e-03 1.303478487821430054e-02 1.247880543989162913e-02 8.796486116471083057e-04 -6.969938564576919245e-03 7.442538248268000187e-03 -1.586493150713466898e-03 1.047873256795206313e-02 1.662350548910066644e-03 -8.782894932964508891e-03 1.929023202767147669e-03 1.634005979679774637e-02 -9.425519805716705418e-03 1.288814455632628260e-02 -5.102563569665158642e-04 -1.631677478521236999e-02 -1.807142376371266221e-02 -5.037075186701362936e-03 -3.159512249328143372e-03 -1.096232897718144375e-02 3.707024856097131289e-03 -1.501114086383986343e-02 -6.797445528265381141e-03 2.368915411998489227e-03 4.546803162874266460e-03 3.982868305793727665e-03 1.339873465575539685e-02 -4.743387844524641142e-03 -3.984105174224292917e-03 4.529651646095844242e-04 -2.650582210333785396e-04 -1.116392545089157223e-02 -1.871923686494154655e-03 4.284935300983641789e-03 -1.141205027076109234e-02 5.799093287165417270e-03 -1.657054829366680360e-02 8.375306288350141404e-03 -5.054558638116979190e-03 5.028209197119514785e-03 6.579919370637781796e-03 1.536648704761437627e-03 -1.422084131851306110e-02 8.865716943102654179e-03 1.614398002341368640e-02 -1.149107201917663919e-02 -1.521806765807399639e-02 -1.189386211767900527e-02 -3.072908361511696184e-04 1.497346411552087989e-02 -1.011516693925597170e-02 -5.284631467473275938e-03 -1.416338172987763669e-02 -1.299838056140281001e-02 1.021354601726548114e-02 1.418985218172038286e-02 4.591724717391395573e-03 1.441169991926042650e-02 -1.148878819442259933e-02 -7.098899976834505306e-03 -1.438140412922157482e-02 1.450309764322774836e-02 -4.039573184909179410e-03 1.168830013242695351e-02 -4.489879576027029466e-03 -5.251814439205830173e-03 -6.263099458349350064e-03 -3.979409809511849638e-03 -1.414076576307419760e-03 -1.415965669171543977e-02 -9.575780322991635923e-03 1.385857243525269109e-02 -9.530918871056217809e-03 5.108738924767217485e-03 -1.535747841329863743e-02 8.741293496510075048e-03 -2.726656509551959266e-03 6.615858315788537315e-03 -1.600978214173068032e-03 -7.305773761825531259e-03 -1.740882615274955483e-02 1.050041631616147660e-03 -1.655558661240149471e-02 7.008114311361657127e-03 3.385994555013447337e-03 -4.144114287675706998e-03 -1.193367669341360501e-02 -1.151563842877229146e-03 5.936810359893943470e-03 -1.243133007257219737e-02 -1.824770513726722051e-03 8.582501205748436710e-03 -2.734228781711216163e-03 -1.360484435801831600e-02 2.762041301574075410e-03 -1.075697652016492645e-02 -2.500607224945563221e-03 1.459522115845961893e-02 -1.347853366946492187e-02 7.244893241196035012e-03 1.647038813236503287e-04 -9.153311330051002934e-03 1.853101125890923347e-03 -8.827629241806037247e-04 -9.682782658653958652e-03 -4.140812845711592562e-03 -1.694471350156857500e-02 1.168477639798617268e-02 -6.122634610533844030e-03 -1.414233352278214569e-02 -7.768344930231826191e-04 -4.732681250846814541e-03 -2.098910398159866894e-03 1.138230923767510677e-03 -3.884269331465638447e-03 5.004094105087706929e-04 1.501715282197182109e-02 1.698523196512202738e-02 -5.420144848449409691e-03 -7.240189672459213487e-03 -1.332888200932802816e-02 6.545655421108971528e-03 1.062119621967658840e-03 1.235203519200694586e-02 -2.790250428056764275e-03 9.917571507979359990e-03 6.039841248484056034e-04 -7.470607914297979976e-03 -2.126297799324255739e-03 9.582717509628432481e-03 9.410266345359831475e-03 1.399721361485964204e-02 1.373139491155365641e-02 1.698258773740374608e-02 -1.692585564163604644e-02 -5.131373158492508885e-03 -1.185772166781948363e-03 -1.445205579741448698e-02 1.476409236114039313e-02 -5.887113639367700518e-03 -9.074646482994467786e-03 5.113231546242660679e-03 -8.444507662327143185e-03 -1.715064183035236098e-02 -8.575035731892794800e-04 -9.517429605035555504e-03 -8.395730403834471625e-04 -8.444200394848474026e-03 -9.982155544657508699e-04 -1.824341183571673427e-03 9.109574399645610498e-03 -1.550314168153621138e-03 3.040016122051106620e-03 8.976886836784644941e-03 1.159417642003755973e-03 -8.840580869365797026e-03 1.690245342835614700e-02 -1.025842344659881611e-02 1.098192076968158327e-02 -1.127777420926416065e-02 1.188509973823764949e-02 -3.246868011701180799e-03 -6.906364017021974014e-03 1.780783487328047249e-03 -1.977120003004533867e-03 -2.096569516604477029e-03 -1.541961142145744680e-02 -2.246522221498735081e-03 6.175312515877365641e-03 4.662205869102293600e-03 -1.413947232718888725e-02 -7.182903065402071810e-03 -9.326138416002991913e-03 -4.582511202358804242e-03 -5.716665969528393447e-03 8.431252401604782606e-03 1.018847130284332176e-03 1.352843780651779952e-02 1.557672731488878026e-02 3.296082393372412860e-03 1.134790627440003703e-02 5.487185893884851014e-03 5.739707114689777782e-03 -5.445914804263542533e-03 6.927096062934288631e-03 1.103104108399846281e-02 1.518019703509042306e-02 1.849200087002668413e-02 -1.715917807642008963e-02 1.129703218599057736e-02 -4.151096417674732426e-03 -3.916035185331618977e-03 1.494923372025508054e-02 -1.197603779932267937e-02 -2.661540297150020301e-03 -4.793634035131196305e-03 -1.230844113109829177e-02 -3.307003029903060371e-04 2.214698949566792918e-02 9.223768476121363066e-03 2.064227427784501474e-03 1.637846385913644190e-02 3.252111939453425880e-03 6.181069051848231410e-04 8.195093377482608188e-03 -1.692314250799879663e-03 -5.644245692537502163e-03 6.178920776245122723e-04 -8.111866335984586202e-03 -1.201487504745748884e-02 3.554671086246855276e-03 9.733861663425567856e-03 9.675002455191410861e-03 -7.460040634040769787e-03 4.114397416905831578e-03 7.994063967106746285e-03 -9.675919058112611784e-03 5.964963367254493519e-03 9.631634631825435749e-03 3.216292834790026103e-03 1.629929876831139046e-02 -3.317996832416682598e-03 -6.360097489147206566e-03 6.147142543152902400e-03 1.104441863652654010e-02 3.242438145569181106e-03 -8.628619308903094642e-03 -3.740661157310518070e-03 -4.737717394005248363e-03 1.490722979382899313e-02 -2.689503260016912287e-03 1.289822039522310788e-02 8.278275987607551165e-03 -6.030613106863695616e-03 1.363777740788346682e-02 -1.494736828934598721e-02 -6.078181022544718905e-03 6.963294305968483052e-04 6.277839027285602932e-03 -1.242019958904358456e-02 1.316875666965642427e-02 9.918048225387374184e-03 5.025385968841935766e-03 1.349614169437858037e-02 1.674494601356369891e-02 -1.332921933863534351e-02 -1.097178847957959967e-02 -2.808780055785483742e-03 1.486629355341943792e-02 -4.535086617315396522e-03 -6.488602327066036145e-03 3.755454637655443288e-03 2.706084567630565475e-03 -1.984967432265435927e-03 1.547433278636712109e-02 1.482019897269342724e-02 1.306720957577765796e-02 7.266979942513331937e-03 1.473076635458179379e-02 -2.799061861723840545e-03 8.303404073797570825e-03 8.353414416381986160e-03 1.129351868148326631e-02 7.238527946673691503e-03 -1.538865564299163671e-02 1.045358941382518517e-02 5.671755213287722015e-04 9.850392614546054151e-03 5.243605037015539646e-04 7.792008418249412108e-03 -6.743841089483630126e-03 7.688164622792965138e-04 -9.552652764854929410e-03 -1.528982198692446781e-02 -3.977220787556026531e-03 -4.630484493683264223e-03 6.839637168643306758e-03 5.559123267824336726e-04 1.145470328295892203e-02 -8.035461579757175246e-03 -6.262657870963520522e-04 9.559607793865970704e-03 4.163679199040050925e-03 -6.358207535875379929e-03 -8.841129633562188478e-03 1.427514166079470355e-02 3.571084513365846338e-03 3.278088972968848901e-03 -1.275593508312261246e-02 -3.704582592011917887e-03 -1.188420151170325838e-02 -4.717488514071939247e-03 1.188186015644849061e-02 1.989369020489522785e-03 7.423506547139870591e-03 3.909602317275836549e-03 1.324529739056061126e-02 7.955262812812414000e-03 7.494485352922844977e-03 1.112918417826516335e-02 1.686584426682905457e-03 -6.749498038042250382e-03 -7.725232734432423143e-03 3.362042990564915665e-03 5.802341151140607547e-04 -1.571255560149533229e-02 -1.740349804444125438e-03 -2.223459153889313731e-03 -1.265587015035283050e-02 1.458236129841790872e-02 8.880411531454451141e-03 1.432423293415499219e-02 -1.565137626268584816e-03 -1.286153214470479172e-02 -1.317433491245040451e-02 -6.775801400805897719e-03 7.584294638551495639e-03 1.732381440819421442e-02 -3.457347126698738678e-03 1.290632005023134750e-02 -1.207090478034259819e-02 -1.019233614052001552e-02 -1.446480453832833107e-02 9.562988501010984133e-03 3.727400919797453117e-03 -7.515188422389162612e-03 3.542467220869604388e-03 1.325269796447108538e-02 1.755152987217057856e-02 8.203962701553529219e-03 -8.039674120630033866e-03 1.542099403391105142e-02 7.651607809846332729e-03 -8.970109830695384423e-03 4.851445366831323366e-03 -5.418701855530287832e-03 -6.165772378205094766e-03 -1.103644431514964018e-02 5.785878277447844588e-03 -7.961816690147706377e-03 1.490017084280491171e-02 -9.502071474008824334e-03 -1.475365617219594888e-02 4.440456556745893055e-03 -1.409995314196714825e-02 -1.013082184751966722e-02 2.253584064151010775e-03 2.515087821436247199e-03 -1.307043840557947645e-02 -2.982704650440399542e-03 1.085192033754079667e-02 -6.868737761877518298e-03 1.362832147066488780e-02 8.411830570989344696e-03 -3.870480515745685236e-03 1.092004581453054259e-03 -8.024669294831636435e-03 1.526597168144076463e-02 -9.126537819382472133e-03 1.489655850155033063e-03 -3.777678376096446113e-03 -9.836063705576032420e-03 8.999418295986518629e-03 -1.448969701246265868e-02 -1.536473830294047063e-02 -8.448635758033149618e-03 1.266594249886263644e-02 6.207766685906790545e-03
