-4.109254559814937147e-02
-5.783655790687269871e-02
-3.963391895039669599e-01
1.100473857731346206e+00
-4.225429721882997813e-02
-1.324039185121816398e-01
-9.580962415076862970e-02
3.137676843418446104e+00
3.102755865031626925e+00
-1.767603110741358674e-02
-7.661037824663567974e-01
-1.924367838872444170e-01
-2.032024260053097442e-01
6.343184102442038785e-01
-2.182870730585081132e-01
5.867736194510253522e-03
1.309626891987123454e-01
4.866601286847476171e-01
6.092390709380732794e-01
4.301945583953930563e-01
2.705172912305474631e-01
2.082382809239388344e+00
3.748168840323638840e+00
7.096375355685660136e-01
-1.895645616044364656e-01
5.844863884095238826e-02
2.668122193810347764e-01
-2.321530857797210246e+00
2.448508615891368256e-01
4.177659931997401710e-02
-6.904122589918992858e+00
-2.285895543988084810e+00
2.711574748139152224e-01
-9.518327409241665871e-01
9.211549742767499716e-02
-8.817120407117942649e-02
2.330960623722461433e-01
2.823211896390092512e+00
2.158550114233570294e-01
2.525073956788771445e-01
2.907716202719180520e-01
-2.701063469207110046e-02
1.864353089134359820e+00
-1.159254559110142746e-01
1.192641501148655081e+01
2.257605271411472492e-02
-2.080327597816312712e-01
-1.883495143515133474e+00
1.521132729282082208e+00
-1.521352805124305541e-01
-1.514471490919067076e-02
-5.077940197065278216e-01
-3.838130915334292403e-01
1.373678754213266962e-01
4.908299340754632145e-02
-4.715432472075232084e+00
-3.455561746994064709e-01
3.440793857908041042e-01
-6.379018844881493067e+00
-2.622128504928658566e-01
-1.601398366962636099e-01
-2.325889561558870611e+00
-3.232986364800671808e-01
-9.009895531998524110e-01
2.163780727940161352e-01
6.809376203325875898e-02
-7.608119061190400656e-02
4.582488449886500947e-01
-5.583761213724505179e-01
1.127043674585553323e-01
1.740344780033180827e+00
7.081677212599046811e-01
-7.338578908258834854e-01
8.479307651326130346e-02
1.256032485900013262e-02
4.228125925626120551e-01
-9.048285033074465744e-02
1.563583761193641231e-01
4.695364489401943064e-02
2.692031981847284872e-01
-5.829677203480643222e-01
-3.294585903486808021e-01
1.774710503877272583e-01
-1.681691381662560936e+00
9.560296216698960237e-02
-8.824558752328115485e-02
-2.017589341441704320e+00
-7.876783602844961152e-01
1.438411987734072639e+00
-6.587657779850276674e-01
1.736883291289208486e-01
1.410664938241369626e+00
8.277828846145860453e-01
-4.017897800880188552e-01
3.997399855734166951e-02
-4.247782127418418818e-02
-3.716104960544597269e-02
-8.155391130900030427e-02
-1.540823105950698824e-01
-3.746488297198143358e-01
2.686034610864417027e-02
-3.605589551673664128e-01
-4.243752033899217402e-01
-7.144551769495072202e-01
-6.561359702704616659e-01
-1.492099191470721564e-01
-4.361083745257179900e-01
2.119282940875111265e-01
1.783537287122557713e-01
-5.168935595985899578e-01
2.552393328239541681e-01
3.189406724652142366e-01
2.144354640530691913e+00
1.302461237821381790e+00
-8.154454478274697493e-01
9.660330299030749357e-01
-5.939150218535928616e+00
-5.702923610450733038e-01
-2.218983191287481338e-01
-8.680629769754005798e-02
-3.467660021106300228e-02
6.495206802457951234e-01
-1.484058315608028478e+00
-8.712725838792959365e+00
4.373332614382452466e-01
-3.255952811043459683e+00
2.502331022626589796e+00
-8.362762019835483507e-01
-3.266565280599991183e-01
-1.112896240735501419e+00
1.451576920781851854e-01
-2.231595351695894180e-01
-4.266320185785317243e-01
-1.480486941327779693e+00
-3.466937283554307747e-01
1.491437608164624784e+00
1.130631650829594159e+00
-3.764330381996768615e+00
-5.517478057160736249e-01
1.262405345853751193e+00
1.179565290536756239e-02
1.566065805704204728e+00
3.187187332381857807e+00
4.080165799454808506e-01
-1.097026900127343052e-01
2.299381918720153350e-01
-2.216804652548445276e-01
2.417061006040730042e+00
7.916728505800448845e-01
2.802526799651143818e-01
-8.506432922208406744e-01
-1.696882209516292761e-02
-4.659122489058654948e-02
-1.469803475214698230e-01
1.794467058951249028e-01
-3.978299990828417787e+00
2.974678829601350438e-01
-4.506125876269120312e+00
-6.831564135981249564e-02
2.932945996242071196e-01
-1.436507336944844671e+00
-1.639641354241442583e-01
1.114624693320082960e+00
1.108799498910549297e-01
1.082553290012675262e+01
2.666654114883684756e-01
7.566383549582069712e-01
1.329443486351554071e+00
-9.387647919170087896e-01
-5.435570878803513750e+00
-2.609896016277207798e-02
-7.337862488738841060e-01
-5.473614497153200809e-02
-3.755944823390580667e-02
1.142190847455942515e-01
-2.848389085387008079e-01
-4.312066822506672725e-01
3.742672598435373144e-02
-6.484049629352137134e-02
2.363896959340743731e+00
7.130130389528502310e-02
2.951606872123132774e+00
-1.726721363665962183e+00
-3.038181749077730309e+00
2.533591490018602954e-01
-1.201603775657885953e-01
2.237475227932811395e-01
-5.010355313140952838e-01
-1.227868137743185262e+00
5.519769947040578106e-01
-7.033146823204065035e-01
1.609398069351045679e-01
1.056502118479452079e-02
8.958253199312227188e-02
2.197554240263400738e-01
-1.134929771130809950e+00
-2.013116351556021311e-02
-3.306073105991909067e-01
5.214988968343666542e+00
-1.561120455327533296e+00
-2.914613838449505945e+00
1.038285157935846303e+00
2.122015692559711675e-01
3.455277013115132245e-02
3.861225821712621076e-01
-6.344750330288553286e-01
-1.126342981423364420e-01
-6.680062060808582558e+00
-4.566568738957896278e-01
7.536465742334359952e+00
4.394735447379785054e-01
2.242341670926172981e+00
-2.089090236610517959e-01
-5.258741090617762293e-01
9.611133645026045946e-02
-9.047214154287388510e-01
7.892949445040211565e-01
-6.612771769060588056e-02
3.871509835604137750e-01
1.586040114409751622e-01
6.222745046326747520e-01
-1.930810790633707419e-01
1.568634536686981940e-01
-1.558153138465554755e-01
-2.065954673406201758e-01
6.264215878490930756e-02
-8.522771146113571061e-02
1.991686833437142923e+00
5.035651652549448798e-01
-2.180904353550021213e+00
-4.783907879867252078e+00
8.496068542160486459e-01
1.579317015235425503e-01
-4.176864579778270858e+00
1.873238877425821847e-01
-2.923647348252184308e+00
-3.995222807225691231e+00
-4.760792435612550833e-01
-1.114312684088077932e-01
-5.291468114803503653e-01
-8.966744019353058981e-01
5.296214299973803913e-02
1.087011389458587551e-01
5.831712309902547631e+00
2.601579721674958101e-01
3.933398718476568967e-02
-1.628134271103237829e+00
-1.166027414871834589e+00
-5.351572927287504555e-01
1.166723681056915396e+01
-3.612793258338042879e-01
1.389523678294096065e+00
-2.241143960773644972e-01
3.346996302272614576e-01
-5.732304358761861063e-02
6.311355828549911617e-01
1.213868707230912891e-01
4.343473764197940401e-01
-1.390478529072084746e-01
-9.461442357061433661e-01
7.084790042540736188e-01
-3.409269803042662139e-01
-6.768956467148434797e-01
-3.298254543581812803e-01
-1.262586258246928494e+00
3.314075034009323240e+00
3.301318271297802198e+00
2.749808390517154422e-01
-4.342572677447892326e-01
3.037313529104213039e-01
-2.469090914306887319e-01
-2.215996115306708703e-01
9.848192508329901784e+00
1.588652127299895467e-01
-3.766635992384133047e-01
-9.035643560372581540e-01
3.475603465614386600e+00
-7.591742849857177067e-01
-2.663227028246862443e-02
-8.432273724810765980e-01
1.739906249510208558e-01
2.173953031587166906e-01
5.237768956101376272e-01
2.722749120457001126e+00
-5.312028692849072975e+00
2.366765821443281292e-01
1.114314030395790883e-01
-1.878525474310785426e-01
-3.011770466119470524e-01
3.056048955936755185e+00
8.279017211742289994e-03
-6.811138253609980153e-02
-7.361161682945427387e-03
3.711956233169055874e-03
3.057819239834402847e-02
-1.045832245905100599e+00
-9.051399563088747408e-03
-1.059807233609257882e-01
7.083505432677300595e-02
5.373189810206645545e-01
