1.338246543170095171e-01
1.250147057013019314e+00
-5.409019132649508510e-01
1.962316927929983468e-01
1.862905566943387825e+00
6.787106704119764800e+00
-2.285913977884938830e-02
-1.328220737728816836e+01
-1.706214198141772775e-02
-4.648154761850207262e-01
-5.017054709312947836e+00
4.631850590480306451e-01
-9.764903142234469868e+00
2.836511904998272549e+00
9.153793687092120379e+00
2.529157014751039156e+00
2.291898379453981782e+00
-4.781587569197314203e-01
2.288463287484413800e-01
1.273499279656432337e-01
-2.616466683867209042e+01
-2.889997352064273883e+00
2.957976892845831429e+01
9.521229865873559461e-02
1.019684854598482460e+01
-5.336623069878891901e-01
4.825614882688902263e+00
-2.879374448620879434e-01
1.165658141778196821e+01
-5.993308137276524228e+00
6.819297737801891524e-01
-1.763581860985671268e-01
-3.784841163174839096e+00
-2.591845728101112023e+00
-1.710253612539059387e-01
-3.469279920256653216e-01
2.729983641110841130e+00
2.404904746097178414e-01
-5.400477867508191032e-02
-1.339098952387896446e+00
2.694734704182635276e-01
1.819888515308639709e-01
3.077906919914459749e+00
4.716741145839675742e-01
3.117620636388858557e+00
-1.276412993837692245e-01
1.013376645885686322e-01
-9.836743258556523983e-02
-2.779547477292651503e-02
-2.804477139787477036e+00
-2.999906472431140281e-01
8.317049799014654354e+00
4.046273460415759082e-01
-4.090229115146915007e+00
1.596717689216647607e+01
-8.936183803525898917e-01
-3.551468451155808026e+01
7.596332075367167924e+00
-2.541656886642465807e+00
-2.209097653830829788e+00
7.936648641774062263e-01
9.879629655056790249e-02
1.109642849680582621e+01
4.769222688037867641e+00
1.541422592180161866e+00
-3.742459745799027626e+00
-7.023652987549686699e-01
1.197480901514594187e+01
1.874544533434653104e+00
-9.841491140125191439e-01
3.495597855327987613e-01
1.651090322119941778e+00
9.604978775769890120e-02
1.534332559578624355e+00
4.898755087968004851e+00
-2.649078715897458469e+00
1.834873682952198992e+00
3.936262595439687928e-01
2.242071661209165789e+00
1.047535324256209321e+00
-1.287231990435508777e+01
8.086911249472024110e-01
-4.932084060482211374e-01
-4.406361509071889948e-01
5.483321287767678243e+00
3.051129930281408775e-01
-2.556788434111474939e-01
1.240106518920870982e-01
5.194952031549956994e-02
1.055904271355008639e+00
2.167686365858055297e-01
4.987515789055633419e+00
-1.136667350725810266e+01
-5.842049975153269514e+00
1.313263978243650598e-01
1.672007543478704061e-01
-1.942801390486887936e-01
4.197532348338588903e+00
-4.086252304369772936e+00
-1.573017813845159907e+01
-3.741853210918419048e+00
-9.818196361471102307e+00
3.811882056785790951e+00
-5.089582749633568826e-01
-1.596592400766899678e-01
-9.287125863627517575e+00
-4.082772438357137879e-02
3.079006711650191797e+00
-1.648481461582207985e-01
2.042600995836389363e-03
-1.694824870057800026e-01
6.458974018129026717e-01
1.359840080105303439e+00
-2.336528181473502275e-01
2.266116391524650997e-01
6.032985706258950032e+00
-5.876375467290060328e-01
-5.787569433076475534e+00
3.480195457656977409e-02
-5.543270928595476210e-01
9.234593929849310712e-02
2.442745633666559002e-01
4.704785532465993292e+00
1.126426031810217498e+00
7.253804597306046986e+00
8.129462580521975568e-01
-2.479719789324776613e+01
4.289616908404194628e-01
-1.248644784416731213e+00
2.244173130554804607e-01
8.147678260467943190e+00
4.960744184023333503e-01
-1.155854115740116583e+01
2.960766301923496968e+01
4.368272168924280940e-02
-1.388266344427371290e-01
-2.349519870313171166e-01
-4.394113143832912627e+00
-8.320935419620887785e+00
7.628569137022591207e+00
-6.777936679300022860e-02
2.153228035845257793e+00
2.201987592731861731e+00
8.933705593331822126e-01
4.188908863052066778e+00
-7.163767036844470582e-02
1.283413529432210254e+01
4.296558982567242890e-01
-3.561059153399641630e-01
1.145416606906653811e+01
1.055175427772855379e+01
2.088537783209134524e+00
3.194284562076110667e-02
-1.107805696357806235e+00
1.714844338484502739e-01
3.753011922719931892e+00
-9.764264184815152348e-02
2.541551006119413536e-01
-1.321536412645858327e+01
-5.968588683594619471e-02
-2.355340756369974642e-01
-3.017176424087613107e+00
1.512210504728308536e-01
1.618020958113751107e+01
-1.744069102621481626e-03
-2.882745930347332397e+00
1.578778307573414919e-01
6.806886781464260849e+00
9.724268250122037216e+00
-5.960151013831849198e-01
-6.032171301455957924e+00
3.782761851248395146e+01
-9.603616704225105494e+00
-4.129345639045329364e+00
1.245555183367035967e+00
-5.624406120403116383e+00
1.456956904205016556e+00
-5.894780301049611371e-01
4.160869560330692218e-01
-5.848338819241224229e+00
3.079351710079537341e+00
-2.549505606672591185e+00
2.552264696069178385e+00
2.650259192072163539e-01
-1.847033849698242847e+01
6.528702848747766296e+00
-4.367667601709022129e-01
2.685999470737647243e+01
-3.169195308673617983e-01
1.415339102792695414e+01
2.685745550808933402e-01
-4.164527089703480289e-01
-1.576580699205417879e+01
-4.752688476472835433e+00
6.157542107011604315e-02
2.710665882610601152e+00
-3.459030543829387572e+00
3.000313228729205584e-01
4.802880532088438237e-03
-5.583040269397235633e+00
1.150711268512017993e-01
-1.424654172995744594e-01
7.888922154816320642e+00
-1.818823415478588856e+01
3.876484017096137880e-01
2.243194975047833328e-01
4.441083309906328491e-01
-2.502558265545973271e-01
6.638949163085919203e+00
-9.175084280250012103e-01
-6.143482454052383579e-01
7.249939938849098153e-02
3.632932538275440937e+00
7.496463202439977103e+00
2.680568762820292883e-01
-7.469380827705242254e+00
-1.253786574085635319e+00
-9.242672268673565839e+00
-6.073581861159308426e-01
-2.078646336506233894e+01
1.131474230411504411e-01
4.340633438719291304e-01
2.056171903161040149e+00
-4.009075326265902461e+00
1.606388380326871257e+00
-8.463557943327509880e-02
-5.857769338002174919e+00
-1.082110763669339004e+00
7.550000409370474230e-01
6.777535595576442695e-01
-1.062105352339981046e+01
-5.492950720746379023e-01
-1.249255672318864627e-02
1.044144400419056984e+00
-7.150614040784147862e-02
-1.809558354932700452e-01
3.946826916090790394e-01
1.402348693575677929e+00
-8.113991362206143254e-01
1.795972250964162953e+01
4.596529480819934399e+00
-4.917531188071080805e+00
-2.928947843886788416e+00
-6.288058001229190452e+00
-3.195729447816308966e-01
-1.355234846045554775e+00
-2.525907981273576852e-01
-4.688930711903827042e-02
-5.847649358924045249e-01
-3.172313155369208104e+01
-2.510138467554631769e-01
-4.060192404746720274e-01
-1.598557352993992264e-01
6.630739308151485656e-02
-5.577191868784472817e+00
-1.054549181907601962e+01
2.071294179034457450e-01
-6.852375715336776807e+00
-2.382186795458959006e-01
2.325762327945709307e-01
3.868644404061285513e-01
1.978934389452453591e-01
-2.515244833247183287e-01
-5.176738197077622949e+00
-1.700718579252053075e+01
-2.102141337422340842e-02
7.069253546899858520e+00
-1.617652338238105392e+00
8.124891006409697525e+00
1.366879082415426439e+00
-5.610667017398089929e-01
-2.539600283511219914e+00
3.159895212428907030e-01
-2.393539186614472847e-01
1.672702915900134424e-01
-2.171464064181443554e+00
3.076575832049951442e-01
2.994511128257835608e+00
-4.747352614391305847e-01
9.186539898710154972e+00
-1.671118988485866819e-01
5.136433081192073757e+00
-1.193997798341008831e-01
-3.140636294471591761e+00
4.949364182429507042e-01
4.348458041803363594e-01
4.137720547844602237e+01
3.937995103117648554e-01
-2.245186657511419326e-02
-3.958846401104533230e-01
3.067204463793285485e-02
2.255378545579291849e+00
1.383072597809011095e-01
9.117080039601658470e+00
1.175229962640677250e+00
7.854364572600257333e+00
-8.530386358793600188e-01
-4.892014638260616444e+00
-1.854012477898434319e-01
-8.326848221752356949e+00
