7.111727666664220404e-01
-2.197059140169936864e+00
-6.822400344757535429e-01
1.726574811786555586e+00
4.093617338803859917e-01
-3.390712652343656597e+00
-3.030375138116157885e+00
2.956584375891918359e+00
-1.550214076547885789e+00
2.020083657819454093e+00
2.557984811985585694e+00
2.305514992745376635e+00
4.822498962061150252e-02
1.742476774878928714e+00
9.445655417848037416e+00
-6.090351754036943399e-01
-2.765004828256863778e+00
-1.214307746345181016e+00
1.239522543517382447e+00
-1.781548845807906067e+00
1.646043401383154858e+00
-3.326258919345852494e-01
-7.007957010477667836e+00
5.367946627605613141e-01
-1.056461256792900372e+00
1.217692470221437784e+00
-6.835828134479693396e-01
-1.937412246617093992e+00
-4.726236001941885867e-02
-1.111908448928833337e-01
-4.441739533519392324e+00
1.984693369099021609e+00
2.544361171088571627e+00
-4.691705806835770876e-01
2.876473209098831862e+00
4.012361361678286720e+00
-9.181324906390024854e-01
2.982971205235500634e-01
2.927293374439043916e-01
3.083910813178019072e+00
-3.554394508491379945e+00
8.133993260579419626e-01
-6.587866503182051581e-01
3.826850253443254246e+00
-2.945061487530997724e+00
-3.459510711953426298e-01
3.296741243340228777e-03
-1.168536469319090054e+00
5.887824813862054363e+00
3.372034609236216340e-01
9.332948644329446264e-01
5.220974447825275089e-01
1.388166661018923609e+00
-2.878108029758539743e+00
-5.602833948925410645e+00
9.014503099678777831e-01
5.340654953268044736e+00
-1.523586621513719486e-01
1.155364141871883632e+00
9.551582168333118128e-01
1.239620599866561257e+00
-1.019306619589231300e+00
1.906568027146864353e-01
-4.646168328409886250e+00
-2.326917018033631823e+00
-4.403299700967120422e+00
-4.161886076843401838e-01
-1.581526076405940895e+00
1.233014020393956800e+00
-1.263281337031787022e+00
1.670685492921903936e+00
2.290499800806315989e+00
-2.815008007258628098e+00
1.703148980171638738e-01
-2.223811108226347866e+00
-1.955614681434223900e+00
-5.254394198882410549e-01
-3.485397226702753315e-01
4.858381510337194342e+00
3.900316826918569291e+00
-8.557055108141413402e-02
-1.400158056523243877e+00
3.843293410286635847e+00
2.611393980596121267e+00
2.761785714869603670e+00
-1.424155760150115579e+00
2.123678258450144352e+00
-8.068032135223546231e-01
2.733949229605826758e+00
7.883395809536326571e-01
1.017733369347046946e-01
-1.825872113234377148e+00
2.394812671635418333e+00
1.149291044277489293e+00
-2.580130128214821905e+00
3.173542844088327541e+00
3.415274536077625989e-01
2.823209343740370691e+00
-6.350238029042138965e-01
2.508225063216935613e-01
-2.350916241941521712e+00
-8.151788486939377520e-01
4.589381534213208269e+00
1.156681369599839471e+00
4.663165896440185643e-01
-2.267079094780407367e+00
1.201548012159562973e+00
-8.370333234629299568e+00
4.644349825797861042e-01
-5.313555525381985056e+00
-6.955974159796444178e-01
-2.802295058857223076e+00
8.242580665328613776e-02
-5.506821905417402796e-01
3.059425031230437853e+00
-5.074469321439911695e-01
-4.210295695156833773e-01
9.056500744790882962e-01
-2.012651162133947125e+00
-1.327647693237072879e+00
1.041725798919887147e+00
-1.511921734480408119e+00
-3.130565704783746295e+00
-3.067347853066454189e+00
-2.324776667301784894e+00
9.193692289081001334e-01
-1.510917045956317484e+00
-2.388850894934850366e+00
1.345388384474588417e-01
-1.442712084806146766e+00
1.140499045150912938e+00
3.068061366861379646e+00
8.182731783709852991e+00
4.352211533329753301e+00
1.639739655147272046e+00
-1.634193357694468052e+00
8.261008429755651861e-01
6.720479533278105322e-01
2.661309376945169003e-01
-6.935552207129882518e+00
3.711486908267915830e-01
5.004368847955333877e+00
5.099996761098197773e-01
-8.925317717216754154e-01
1.370485963926603157e+00
-4.854891647319949932e+00
-1.236647814772301457e-02
2.633950811475588516e+00
3.997479741306632306e+00
-1.105871761172415368e+00
3.578049081137104626e-01
-2.619980631377645253e-01
-8.567120654276116909e-02
1.873779480793794860e+00
-5.532541886665494069e+00
-6.787003950028486221e-01
-1.508542574355046240e-01
-4.055675501587120202e+00
7.700488216729435287e-01
-3.997777185861318472e+00
8.661305296081045491e-02
4.230564714250473202e-02
-2.921529774061519369e+00
9.833149544107033790e-01
-9.009858300409002707e-01
-4.901373557953522031e+00
1.928507290142891240e+00
-2.910700076724006546e-01
8.118651002994869970e-02
-1.225445172230024415e-01
-1.329032499017912983e+00
-2.289600302966193546e+00
2.451544279840611296e+00
-8.485153571054182109e+00
3.489321285644720660e+00
4.329843261832515999e+00
-2.117464311123817833e+00
9.243773025368331453e-01
-4.473715045127577561e+00
-8.743559535088225587e-01
-4.802200390976398836e-01
2.073325449507776419e+00
3.580302279288638534e+00
4.530204870328201849e+00
-9.321578005350896756e-01
-1.355178236378614898e+00
4.538264310134503821e-01
4.556292494061767173e-01
-1.646951655855558805e+00
1.556458504232172357e+00
-1.393588070689132596e+00
-8.910931031035512762e-01
-7.861392504694126870e-01
2.913243576179255001e+00
-1.177190151861395861e-02
8.577360936299228689e-01
2.933244980846838601e-02
1.069468307929047901e+00
-1.562083173935101321e+00
-8.036211631412958356e-01
-6.085604420943546700e-01
1.026015057989829060e+00
-3.207036374339198748e+00
-9.895211905571273947e-01
-4.047789607020276570e+00
8.217863311992759101e-01
-1.227505719225342018e+00
-2.178778709247949141e+00
5.979547608802220360e-01
4.614618151858592698e-01
3.075030541226203784e+00
-5.128371378052742902e-01
-1.600520642877315991e+00
-6.280651419277543113e-01
-1.884098039877546427e-03
-3.105222526970470298e-01
-2.640745102199983485e+00
-2.085839110971963173e-01
-3.661600812088483536e-01
-1.616585722293153893e+00
1.328713791751251261e+00
-5.444811315874397151e-01
5.347391056937150111e+00
1.200284562352579076e+00
2.745537887407277555e+00
4.145806347369605405e+00
1.862118372458443361e-02
-4.089846677104455708e+00
-6.695190577035903257e-01
3.824357221779248750e+00
-1.019789019743881031e+00
-2.071728346962414591e+00
-3.997766243048524792e+00
-7.229153368553353776e-02
-4.267412890998522279e+00
1.013636486544222115e-01
2.164332428362229166e+00
1.426499729214460777e+00
1.648361320162697208e+00
-8.864111599078068338e-01
9.724989189574282378e-01
-1.948649233831023508e+00
1.278049234478011442e-01
2.165532322834103685e+00
-4.178063270606247048e-02
1.363980973299784516e+00
2.492664898147898267e-01
-2.320558294860199933e+00
3.086742024090862291e+00
-3.247310822243156814e-01
-2.961933410997143135e+00
-3.001405054194345112e+00
6.522837414332494088e-01
-1.455752627349021111e+00
-4.413579947329957065e+00
3.274931252867404385e+00
7.274997765419662699e+00
1.209705375629099633e+00
4.788497418751145318e-01
1.129708992898908360e+00
6.046531931773286850e-01
3.759936882755635423e+00
6.516445910783819073e-02
2.118306958270566032e-01
4.530298579462521680e-01
1.642529185998484076e+00
-8.183597745031119253e-01
1.652863390294422086e+00
-4.072955582435747957e+00
4.947206084794106395e+00
8.450078659625768207e-01
5.982685709432123966e-01
-2.651485724519898057e-01
-1.421165082049258288e-01
1.010847548505011684e+00
3.549161702470937096e-01
-4.558995913513188114e+00
-1.012847620763821510e-01
2.598508429791992924e+00
-1.837001466295457464e+00
2.376593462868386020e-01
-1.130541613260707123e-01
5.126189742679385652e-01
7.249100936993801980e-02
3.933409532712106582e-02
4.968109531695832359e-01
-1.035547369696485198e+00
-4.171579205578734850e-01
1.119875199383101538e+00
-4.421818250119890159e+00
-2.813725239625493479e+00
1.138334733378012054e+00
1.545123412905905713e+00
-4.375109986214491542e-01
1.276019704765207319e+00
4.219668636075895041e-01
-1.659453974676302401e+00
1.628056702816605750e+00
6.388306327128300488e+00
-2.140537326483518132e-01
