-8.294467938217509051e-02 5.366049248872992172e-02 7.502442533605270525e-02 8.119060994834243622e-03 7.801115199279282097e-02 -8.260496719398298382e-02 9.585737546967308675e-02 -2.475626846813139964e-02 -2.769559633000279880e-02 8.200001294307963928e-02 7.184640181142973314e-02 6.220778425956293572e-02 7.412941106918460865e-02 4.975707727826867571e-02 2.690080670356882926e-03 7.524758854403980346e-02 6.328855871638733831e-03 3.897454400555544485e-02 3.551208244868187675e-02 -8.522820470676308047e-02 7.986312745607531197e-03 3.463257309829747416e-02 -7.614508988990270621e-02 6.961050823306001376e-03 -4.297005948749037241e-02 -3.146215620530867091e-02 -8.496861084314373536e-02 -6.667154651975493174e-02 3.872972375036972531e-02 8.866765800503863260e-02 -7.731570328295282561e-03 8.097735679071892123e-02 -9.590956425139407493e-02 -6.080839189271015216e-02 -8.232849142547207094e-03 4.727704778042558093e-02 -5.175671345881199120e-02 -1.406391374855739569e-02 7.650898593249173818e-02 -1.864523777611802949e-02 -2.152760326214657460e-02 6.066466617384593495e-03 2.934743792417874100e-02 1.629108804730023882e-02 3.129617958375389974e-02 9.605430904624841226e-02 8.193711249544805009e-02 6.697682547648473039e-02 5.221446471893315122e-02 4.470099077493367573e-02 -5.843608016712077170e-03 -1.960484820812271461e-02 1.486814989897114990e-02 6.168978001866202293e-02 -9.614230984603740204e-02 1.198125910661172570e-02 -8.723632999868964621e-02 -9.999696794732363878e-03 -6.196021588644912148e-02 4.595479267186890898e-02 -9.519159249014411128e-02 8.107955406940477172e-02 -6.927927784276884104e-02 -5.070701588161705825e-02 -7.828956774664513896e-02 7.151722837644036712e-02 7.074379800394067774e-02 -1.639648892633753172e-02 4.407423612580202432e-02 9.036247592058936629e-02 -5.476463701226326475e-02 1.781800970595114400e-02 9.317192142177389835e-03 -3.485603099639185409e-02 2.671758130341144247e-02 1.443835317904472622e-02 -1.019301019342610734e-02 -7.780324954932537479e-03 -1.435446574397078803e-02 5.843399860455074368e-02 -5.336425862478755971e-02 3.726801316197754510e-02 9.588041116907475292e-02 3.718720851875051848e-03 -3.519121315827614810e-02 -6.803120026895870254e-02 3.206494700511285101e-02 -2.430947427536276489e-02 7.310608436345346697e-03 6.380271628690954190e-03 -1.190333828211716021e-03 -4.576869572187951957e-02 -4.574234220862237466e-02 3.858893956624422084e-02 9.259926867960899255e-02 -9.096215517593612965e-02 -8.734067468232155351e-02 -8.876652303328277926e-02 7.693760526624635054e-02 8.522457780920762727e-02 1.667741700877231614e-02 -1.025234271175111053e-02 4.829650027033528630e-03 -6.714973124166605245e-02 9.128483741017727471e-02 -5.678736913814785327e-03 -8.510493016385117793e-02 7.373046442192179861e-02 -4.149047645729773276e-02 6.912268708057764388e-02 2.227815007149118454e-02 9.038795504586230600e-02 6.904138114412167182e-02 6.501368068111143539e-02 -6.341296725354828023e-02 -2.703035483872512010e-02 -1.927420946074258692e-02 1.190462596994502388e-02 3.842031479433587193e-02 -6.901001324208136389e-02 5.882412695923576462e-02 -6.244014032159865557e-02 -5.199403555070876426e-02 6.347455436006939344e-02 8.931216537127814603e-02 -7.443204756284341195e-02 2.507792784496941721e-02 -4.445710959686977048e-02 2.212903435959999443e-02 1.377427137757241717e-02 -5.462990051620068149e-02 4.137479534622567900e-02 8.923487984497603664e-02 -2.202202451475697084e-02 3.221545965565535824e-02 -9.625670717498380213e-02 -5.430261263289457713e-02 -9.589224306345188464e-02 3.177320925887027608e-02 2.287227864302947972e-02 7.589262934663501547e-02 -3.167606946872134066e-02 -7.786388757600537502e-02 2.372564505706719826e-02 -7.419911195048703445e-02 6.556643578328867628e-02 9.310342331833393326e-02 5.900616024701374474e-02 1.757407817811043604e-02 8.835488049912280928e-02 -3.937462041919273514e-02 -7.159029123642594861e-02 9.068971099108576184e-02 -7.672166169158191329e-02 2.804974787497244160e-02 -1.943633030432525416e-02 -9.398642153482809902e-02 1.384410107541715965e-02 3.541278870067975787e-02 -1.084368405922963609e-02 5.543900306819136113e-03 -5.835261968937242860e-02 -4.474947890179816617e-02 8.402777567977254281e-02 -1.698222055798213545e-02 -8.061237279659851096e-02 -8.207707007822458156e-02 9.423757438385338414e-02 -8.077210460050313068e-02 3.941647104529948445e-03 -2.535508216518301758e-02 3.514218646777270832e-02 -1.746337343066379491e-03 7.663583290591072239e-02 -5.929107836662543540e-02 -3.749581980634933420e-02 -6.403756794952947251e-02 -8.894848986608376584e-02 -4.706006771055459142e-02 8.399595520917116365e-02 7.601015282582045118e-02 1.520650617135784789e-02 6.726818844564060040e-02 7.194608159365929734e-02 -1.865087478660597264e-02 -5.988646586592869664e-02 3.413194658422461641e-02 5.796100022298256160e-02 1.884180081306896515e-02 -6.479768494844277693e-02 -3.751293434390991915e-02 -1.352721033585349911e-02 -5.997081265954634643e-02 9.360057261061768830e-02 -3.625279715021142990e-02 -5.575912026647164565e-02 -1.998190533428875065e-02 1.978810093629229053e-03 -3.561667257955904164e-02 -8.417430525588887047e-02 3.984673466098136857e-02 3.170512998900065077e-02 7.987309011141724424e-02 1.203947800770133712e-02 8.959511769829034411e-02 2.533193596095619990e-02 -3.448568857421418360e-02 -2.158528737821814331e-03 -4.083410593322714388e-02 4.762415093394613275e-02 7.525080261020404560e-02 -9.336081769260828889e-02 -6.638041071793777947e-02 3.919159729068241727e-02 -3.624228483185790162e-02 5.125908544216686152e-02 -6.363514548172992391e-02 1.540353575442912799e-02 -9.400403686382095836e-02 5.318272357797637628e-02 -9.111336961722876771e-02 -4.590638002267390799e-02 5.450691634137105890e-02 -1.873243073533900974e-02 8.223725045020061075e-02 -3.512971435184692598e-02 2.328695475425419936e-02 7.100396891273456912e-02 -3.542903525369130169e-02 7.846130221228904758e-03 -3.631562365821933147e-02 -3.822396186390708550e-02 6.252209371540447258e-02 1.793878731052460374e-02 7.460146920534160841e-02 -7.684491656556718953e-02 2.354327810489255032e-02 -9.266904476932792678e-02 -3.602070284403383754e-02 -4.632893038263577457e-02 -8.527003835413059230e-02 -7.615087572090988022e-02 -1.156097912944891240e-02 9.567196910962288969e-02 -2.336773264649342693e-02 6.408595679259043720e-02 7.608532452354177522e-02 8.789671120301842389e-02 -4.904611344765309744e-02 6.921843193660974849e-03 -1.220055949515463228e-02 -8.014089425216495977e-02 7.029484220795549632e-02 9.491015753590245629e-02 9.431958156611644495e-02 -6.683144619073320969e-02 7.970087387934411682e-02 -8.974374746250680934e-02 6.943034857564306384e-02 1.136962622729143814e-02 2.415713473815064155e-02 -8.463454358498705143e-02 -5.324612246552569428e-02 2.354138233834597929e-02 1.318176086300411809e-03 6.756381736068381438e-02 -1.768595742037963256e-02 -1.720879032390942170e-02 -5.784388900310905024e-02 1.553080146575704134e-03 6.796124006409965182e-03 6.595265753364758232e-02 7.948430086143673176e-03 -1.208940960151949802e-02 2.121125182849354848e-02 -5.219075419736354804e-02 3.272922450212947809e-02 -1.834145860452567750e-02 -7.769123824120022226e-02 2.250106494892324671e-02 -3.180182054240243694e-02 6.587384020383061506e-03 -2.561949002160143762e-02 6.977009917517938697e-02 8.136463929323956012e-02 9.250703441249337466e-02 6.971698903256995372e-02 -7.273025937282090458e-02 7.525168797382224273e-02 4.416158883025446402e-02 -3.298637747570801887e-02 8.363740595034341307e-02 -3.678498271272127862e-02 -7.165018946332801786e-02 7.071871562875421680e-02 8.179258162465660731e-02 6.469857114343002813e-02 -9.548764227774286795e-02 -2.068275969537624118e-02 5.129864831201310510e-02
8.257601202607811608e-02 -1.534624058652339987e-02 7.259296948643979841e-02 -8.343914824064330160e-02 3.301740433344192011e-02 -7.983844023248603053e-03 -6.397681021726053796e-02 -4.327391847872008590e-02 7.105041967246999990e-02 6.877993004310353764e-02 -8.414293420345596644e-03 2.267441604926908293e-03 1.591629550198324708e-02 -3.528943300538329997e-02 9.563389524964700794e-02 7.071951624078015586e-02 -6.856355354093744692e-02 5.370664298047442969e-02 -1.377819479321876033e-02 4.093048041376152676e-03 -6.678854025178547482e-02 -4.649701518207578765e-02 -6.625829702512114894e-02 1.151664053759366389e-02 8.088716917149302299e-02 4.385260214868124534e-02 2.198873786259416402e-02 -1.007122342207956295e-01 6.077985402334298848e-02 3.332499371684459477e-02 -5.001508033844955263e-04 8.564988955092200582e-03 1.159214630844598339e-02 3.470991900243262929e-02 -2.437023574038913593e-02 7.449685227481198102e-02 8.790451434685171705e-02 8.142274173163424611e-02 4.412037624789996726e-02 7.437855756256743500e-02 4.362509423204350562e-02 -8.283628469940755579e-02 9.475570270509403592e-02 7.080656459527204238e-02 2.977159355720664785e-02 -1.415529779161206481e-03 -2.193788696678143635e-02 -5.735151915461401267e-02 4.846800638738634620e-02 -5.947457982967193496e-02 -9.157598678254405544e-02 2.958062564419404461e-02 6.535188080771991981e-02 3.399763523009251970e-02 -6.673099394366623083e-02 -8.234356119512056815e-02 -9.092545161532160358e-02 2.874729237693662495e-02 -5.640969113411984509e-02 -3.259018094728675929e-02 -4.805596047022545753e-02 2.175624640451449127e-02 6.204709844561061283e-02 5.228411545710316688e-02 -2.408409156681427452e-02 8.727882252434382426e-02 8.074793558701234830e-02 -6.934169998877967589e-02 -5.378699546896260203e-02 -5.082627919268447453e-02 -3.115486953185128693e-05 -1.773240212651548339e-02 8.629908277579359521e-02 -8.079574704847128364e-02 5.152747134470239687e-03 -3.707296332599929051e-02 6.400428937196571758e-03 -9.407206555937253079e-02 -8.065156387472641186e-02 -9.511974559400665497e-02 -2.705902423917882701e-02 5.824979979455831292e-02 -8.417616176888857715e-02 5.944370684615380568e-02 1.203132414850476657e-03 -1.006174637109889386e-01 2.306073653838727061e-02 -2.331981377275502143e-02 -6.086586391726877404e-02 -4.135306577784985532e-02 4.061895589182167726e-02 -2.572182293322948857e-02 5.367475508591858929e-02 7.993219472492896216e-02 -8.665309651123292989e-02 -4.192785850787619784e-02 -5.673699034837013933e-02 -8.683542105914864029e-02 4.211115636793170795e-03 6.787628117604072031e-02 7.248285658153386102e-02 -1.645367857278398974e-02 7.568022401196156101e-02 3.911306789113185717e-02 -1.894289095240825165e-03 8.386721907121300057e-02 7.868000938631782015e-02 -4.685886553006688576e-02 -7.683603146250919669e-02 -6.964461446849347370e-02 1.902645039288164766e-02 -6.672369033205537148e-02 1.005272215811263414e-02 -4.699233399888675528e-02 -9.621290574188540168e-02 8.582425168320277631e-02 -5.589324306501097100e-02 4.357515662567466169e-02 -4.983386400470964095e-02 -6.958702191702519080e-02 7.795941499936112629e-02 -6.299697724575346880e-02 -7.507217581925845241e-03 2.955186218492758879e-03 1.362198839246845164e-02 7.699292377908882601e-02 5.408205179969481635e-02 1.526701175307594756e-02 9.268462355823175926e-04 3.089666078944087318e-02 -9.916864964602181698e-02 -6.993660905982042320e-02 -6.476209435543238413e-02 -3.146643357442437117e-02 7.970039910173318254e-02 -1.907076637511979575e-02 -4.677534230554267897e-02 7.978766840782308689e-02 4.555126398430434792e-02 3.711551117712161285e-02 -6.692170219619199278e-02 -8.040283887955670949e-02 5.113504794354080396e-02 -6.942696862616865028e-02 -5.815557117008145899e-02 -1.321260878018587145e-02 6.009575408403831920e-02 -1.078622913430182795e-02 -1.653341460688881326e-02 9.238684415247001847e-02 6.936070743458930266e-02 9.392371554564971081e-02 7.122631457409551135e-03 2.560448372550260931e-03 -9.358707675452156149e-02 -1.150112103094385121e-02 4.840527844282088710e-02 -4.840038462073822240e-02 -3.488244668798062137e-02 -2.455515874646072710e-02 -4.062421442034019892e-02 1.258469722384699535e-02 1.323930042466493415e-02 -1.732515654187655185e-02 7.728628495012961064e-02 -7.291916063408676596e-02 1.391034872949080403e-03 -5.700249967433725258e-03 6.735590863426747787e-02 5.829606271498801069e-03 8.719396809399054815e-02 -7.526288860045313167e-02 -7.670921959855678263e-02 3.775700726335168289e-02 -4.230972621755337698e-04 -9.358538873653718393e-02 4.756533991617325867e-03 -6.239511061510460456e-03 1.000290173347532889e-02 5.701616372260134846e-02 -4.570461034314825255e-02 8.885813686977621709e-03 -2.005068852228586787e-02 -3.680001590289590230e-02 8.734108365186571410e-02 -4.562072270337970414e-02 6.533535822455516229e-02 -2.024758721586769616e-02 -5.358278718893186993e-02 9.009593100179252856e-02 3.300936428390902067e-02 -2.767406550387663602e-02 6.513343091733103662e-02 -4.478181067721011266e-02 -1.844607594593793143e-02 8.742674695006856511e-02 -5.470520183037430595e-02 -7.605736445880480201e-02 1.591726648105619424e-02 5.887138324386590599e-04 7.930193521723449823e-02 -8.525388775932077334e-02 2.171427810070886144e-02 4.604053080440495549e-02 1.512397097020770978e-02 -8.256918892501728668e-02 7.382378932877839417e-02 3.074001199242658647e-02 -5.248412637733371189e-02 -2.255509600158254330e-02 1.564156975850488490e-02 7.884786520613497329e-02 8.711641820581580986e-02 9.290600791750915077e-02 -5.958070339964889606e-02 9.756440915014275017e-02 3.687337717439601037e-02 -8.544549833950958184e-02 8.494680946210565742e-02 -7.212720582196385788e-02 5.642211851906779596e-02 -5.861413280336487397e-02 4.629468856192833076e-02 -2.252632959659362291e-02 8.427779335273904993e-02 2.833444035225835683e-02 -8.986803217088469575e-02 1.393141750325322357e-02 -8.077094275777904619e-02 -8.228614473826097175e-02 -6.720496624346752879e-02 8.322668971330600407e-02 -5.226486661227518205e-02 -6.410290268517625234e-02 3.242780282211379060e-03 8.342201676048308090e-03 1.836591487673266965e-02 3.453441482077599517e-02 -2.608476127889055446e-02 5.357184916529125068e-02 -9.858454234639379976e-02 -6.463117438484197730e-02 9.412555146692741515e-02 6.058307306407962473e-02 -7.624210981900699825e-03 -3.078851402634188300e-02 -6.112889890088415296e-02 4.034016897205998375e-03 -7.330685850990702190e-02 8.056157776493128031e-02 7.548170451802607706e-02 1.236111412474815742e-02 -1.581581086801179398e-03 -7.865698215115686509e-02 -2.039880885616335293e-02 5.295313676610817477e-02 -8.511442690168810610e-02 3.832855108149164913e-02 6.951170898802616627e-02 4.685772328852130103e-02 6.293722055650675939e-02 -7.527970675709891313e-02 8.655279410845212462e-02 6.229125898365638764e-02 7.184186801807240785e-02 9.079812644924711851e-02 7.253084701531894996e-02 6.864595200678288989e-02 5.745691822529971210e-02 2.367219832269026533e-02 4.928313071516002286e-02 -5.848113351858016083e-03 3.873650005368557345e-03 1.138615869964016217e-02 8.724128776547072917e-02 5.447806494226462189e-03 3.128364165360868199e-02 4.168053624551878306e-02 2.953763963807835846e-02 3.018180315245860140e-02 2.109771970614763778e-02 -4.004684613349101217e-03 2.826961434072291710e-02 -2.154885611651590621e-02 3.382378742981693304e-02 -7.483106390574910394e-02 7.859678867383958212e-02 -8.451334243534658341e-02 2.730338518256870961e-02 9.293088909242344653e-02 5.957055982563046713e-03 3.675986953995875883e-02 -8.965753543104104661e-02 7.204592383664022714e-02 -7.614949486015414049e-02 5.569064487376035669e-03 -8.915166242447623846e-02 -9.844308685220144045e-04 -7.287428760310003806e-02 6.708576341843588975e-02
1.799223050862601078e-02 -3.016770699016108406e-02 -3.468723228122995439e-02 -6.309437644862071759e-02 3.866134220894701379e-02 -2.000158075150234790e-02 6.156360858203328151e-02 -9.767760431060212856e-02 2.801544181545598602e-02 -7.064966587226190198e-02 -8.459569487878701444e-02 -7.950286591110217183e-02 6.841668691698946092e-02 6.501103869863909812e-02 -7.923374459299835360e-02 -6.544258673539719851e-02 -1.346524695964922830e-02 -4.938747527404643844e-02 6.619979851732661624e-02 -7.386820669641751269e-02 -2.252196329039842307e-02 -5.784125917609651141e-02 1.503137539796927519e-02 5.452220533447705436e-02 -2.872758649503018291e-02 -3.976265550787595748e-02 7.513312847352357493e-02 6.953704282502301548e-02 -8.306780898329545193e-02 -5.680710049266895351e-02 8.527654397652953411e-02 2.910473503195602427e-02 -9.650667064784974880e-02 -6.416929678903572631e-02 -3.263735918084849363e-02 3.274737945320730335e-03 -7.147061045726378625e-02 1.861726844051258406e-02 4.259844336296710575e-03 -2.677782975286576578e-02 -8.829645235578482965e-02 -1.794960255709424080e-02 -4.430095209571787568e-02 -7.332035048639953811e-02 -8.229073678547889695e-03 -3.526548450855340744e-02 -4.222215437448108288e-02 4.873460505036107671e-02 8.247748470754120986e-02 -1.880835715408798667e-02 -6.570848430686113129e-02 5.968633134816533209e-02 -2.339740829874302486e-02 -4.855327677004822595e-02 3.036860044739648698e-02 -8.298298124919804841e-02 -7.975144936044660515e-02 -2.309583225856805949e-02 9.797656287244485562e-02 -3.069735816344752732e-02 -7.099446692674518666e-02 5.806634560399943912e-02 3.514264491396065088e-02 1.911317869289108282e-02 -5.117688260400042599e-02 -2.139967608621122161e-02 6.405559756201033295e-02 -1.249629299931024826e-02 -4.125643574221397186e-02 8.241003069787342789e-03 -8.883588720922125370e-02 -5.143110541136271252e-02 4.471667784586364630e-02 6.070658756659796929e-02 8.879390590475434719e-02 4.984417291426646024e-02 -2.102052865337359494e-02 4.584699930437047960e-02 -2.678131794484992986e-02 4.060426462876721987e-02 3.019406228248123179e-03 -9.021141447505922825e-03 4.928876590280781983e-02 9.378931914884336418e-02 6.802653644251036025e-02 -9.030760257187270268e-02 9.930009489789469457e-02 4.070387505859773825e-02 8.761134667377064311e-02 8.196570682776441186e-02 8.381801675211952851e-02 7.329446822770707692e-02 9.457011264755815771e-03 8.095609538154402429e-02 -8.246616463715752965e-02 3.154684466887406474e-02 -5.776895426982464610e-02 9.245225239948858670e-03 -1.017786322980733377e-01 -8.902800525442323976e-03 6.267760769686224476e-02 -8.933200392703048720e-02 -6.101767569002684161e-02 9.088754245011711197e-02 4.973660151132422436e-02 3.301369182740244990e-02 8.913428999114238194e-02 -6.239926491548294929e-02 3.638320509122192070e-02 7.777481733844351930e-02 -6.735462141657395929e-02 8.615884843308702079e-02 6.539005681824959504e-02 8.726517375827468059e-02 5.841383816276257863e-03 8.128883756696964058e-02 5.149511995041246293e-02 6.841697808664574942e-02 5.569492987852229376e-02 -4.811413071135704593e-03 -4.768591010925217477e-02 -4.871204709033243735e-02 6.662267305883552704e-02 -8.953926346682576642e-02 7.411846381723041777e-03 9.929004058700516278e-02 -4.901420767425616887e-02 2.885398588390104130e-02 -1.441497941199554322e-02 2.075368941094144978e-02 4.560360768918416546e-02 6.411228810263555622e-02 8.060671059766613689e-03 -5.582006852464307251e-02 3.321944755243997488e-02 6.055932580041686539e-03 -5.533629807358609459e-02 2.303229317182601751e-03 -5.237299528499104323e-02 8.499303194441085174e-02 -7.500782517004013494e-03 6.827947168422949641e-04 -2.312069098516627771e-02 2.487089469255411578e-02 -1.012882426346684711e-02 8.382625138489017969e-02 -2.108352637758725140e-02 7.930824412136590340e-02 -5.587199866874790338e-02 -8.361544324440257914e-02 -7.959393875201606350e-02 -7.681229611756980324e-02 -6.271153628399523186e-03 -2.216446613052854703e-02 -1.348032679180235800e-03 8.736284703609616120e-02 1.364975237236524391e-02 5.022213702885069270e-02 -9.874608895490591398e-02 4.723210441850376204e-04 -2.174480234210768650e-02 -1.088699371817529460e-02 -2.090571993559074693e-03 8.041302943683620308e-02 5.283553992581266172e-03 3.624641617341665956e-02 -5.862303290706466496e-02 -6.379402946606797797e-02 2.421723332594469952e-02 5.315375372321384795e-02 -3.359747704537043023e-02 -2.433273681649397724e-02 -5.592088087662178131e-02 7.198011425440266342e-02 6.158013984034427235e-02 4.256243495208351935e-02 1.282290017430567919e-02 -8.248031242040583522e-02 4.486513567147697168e-02 9.119985727987224566e-02 1.303525396671082089e-02 2.271217792500655232e-03 7.796779026403077850e-02 7.207704569962951335e-02 -1.175784977550133753e-03 3.586070793990134981e-02 4.887957399258771596e-02 8.340830526593306926e-02 -7.701280445815347764e-02 6.222562291534251139e-02 -2.106710830774660703e-02 3.832306092601790726e-02 -3.030139140590679125e-02 -3.322028476896143195e-02 8.586633590596642884e-02 -3.506575192035971816e-03 4.841348432892213227e-02 8.519219041430409201e-03 8.478651479031479310e-02 9.248980143449622715e-02 -7.333352555165589814e-02 -6.997033804667299184e-02 2.198105519040097905e-02 3.594662788502073908e-02 8.957774854305718126e-02 -5.209248538896794900e-03 2.638736873220894064e-02 4.086703044575738797e-02 6.531578147785541133e-02 6.800480645360637566e-02 1.770423530076227839e-02 -4.567247452129387375e-02 -9.032873714367754825e-02 -9.667263094791894718e-02 1.908406081574612334e-02 -7.106022561600626453e-02 -1.762292494570205301e-02 -9.189635687397036679e-02 6.816352973904245272e-02 -1.455133868475772668e-02 5.049804197369221065e-02 -1.367151289632328841e-02 1.184602401654785871e-02 6.540703488496150964e-02 8.946337289854330854e-02 -9.852953330434949253e-02 -7.659239159322346613e-02 2.307023182520896720e-02 6.314136156541491629e-02 -1.288047018601340800e-03 1.145283933202348968e-02 6.173359967666806891e-02 -5.438873692592122860e-02 -8.527924265651820601e-02 -3.876974119855104185e-03 -7.376180916603141888e-03 2.266731646119755222e-02 6.685880557437648419e-02 -4.926329003813263718e-02 -2.680926926724349138e-02 -9.556339356596754708e-02 -5.600303031947889004e-02 -3.980120804090666459e-02 -4.467480332848102614e-02 -6.271321433530546718e-02 -2.298248328161896573e-02 2.821953859072234144e-02 9.774164548371203076e-02 6.778325148066052797e-02 3.927137833881470808e-02 -7.457482269789564300e-02 9.546401780505314738e-02 4.291576614836119241e-02 -8.152836619630668413e-02 -2.602306469570715014e-02 -9.789628166016477173e-02 -5.368262199218316183e-02 -1.414057029152279536e-02 -1.153394276571110752e-02 -3.134257149975305801e-02 -2.978537504431234828e-02 -2.560577992550593790e-02 -4.556522650632944399e-02 -2.488321729243755248e-02 4.283753092754317982e-02 -8.033227730792454058e-02 7.501503915958360191e-02 -7.636720247943877549e-02 1.008088941598221933e-01 8.411892824123259893e-02 -7.217053332732034643e-02 -9.547395190277138677e-02 3.476385627860590494e-02 -7.208546571171470241e-02 7.831066541820649873e-02 -1.178919443618792022e-02 9.707202396895156515e-02 2.038558958846978936e-02 2.850727790765305789e-02 -3.650448373398406526e-02 -6.078637000503019083e-02 -2.831902769710259449e-02 -5.008414826330160469e-02 7.571228170691582382e-02 2.750778072449477224e-02 4.631687342649742564e-03 -3.585042896311189942e-02 8.928598377488988769e-02 -1.666917387129497607e-02 9.987760206443352384e-02 -8.167778063781566678e-02 -1.069856104431820762e-02 6.228655658101060755e-02 5.107902995733345358e-02 7.355719702858444509e-02 1.840805419601163409e-02 -8.247478764405537233e-02 7.783161325709900269e-02 -3.612435576818492228e-02 -1.955586443805412342e-02
-6.151763958009973804e-02 -7.933574563420850434e-02 -1.450080310603096487e-02 -3.914938034782396853e-02 -1.796704217139589825e-03 -3.973595320743347759e-02 3.948212985580214218e-02 4.064376540334430771e-02 -9.124587238623067809e-02 -4.826777951413004086e-02 -8.499103274430873031e-03 5.271142770765637614e-02 -2.362841876873044908e-02 -7.861613410222946519e-02 -6.623506292074204937e-02 -9.625512579652764633e-02 -6.405280933463397552e-02 7.317297436952123479e-02 -2.243829704392785729e-02 8.928412429898231750e-02 6.503368718833044126e-02 -2.736744195173125560e-02 -6.333369111687571495e-02 -4.157835500180152855e-02 -9.137652502367894780e-02 -6.851008469988983940e-02 -2.249300333318800249e-02 -4.866060318792477662e-02 -8.614590851821170292e-02 -1.082770032069921978e-02 7.790388255794120087e-02 9.935090120193880436e-02 -9.237426026197231854e-03 5.275014579417389680e-03 9.168754044928956182e-02 2.603663519387586570e-02 2.492143552586306363e-02 9.587987791758169343e-02 -8.874178197446204452e-02 1.110305605092179806e-02 -6.810262223526940273e-02 9.959783235542210567e-02 -1.823624532246785959e-02 -1.222036572712822955e-02 1.137871487881292158e-02 4.923196844489124979e-02 -3.501345614301876880e-02 -4.180228665209753669e-02 -2.699010471195978020e-02 5.703389682818438278e-02 -6.624847566959969625e-02 -5.356248780332027726e-02 9.946809841921662454e-02 1.454340690730400801e-02 -6.705235290694373795e-02 -4.978253272262991858e-02 1.890624318623239375e-04 8.572608340521135906e-02 3.312669436752196939e-02 7.890222162240037584e-02 4.299102259337415910e-02 6.787623185704430573e-02 -4.286644326236685454e-02 9.352515544829653749e-02 2.738330695420894759e-02 -2.108775335372079646e-02 -8.698226215786702964e-02 -9.153486346239463056e-03 -1.700930310547728308e-02 -7.753186074228830826e-02 -3.191491737284743446e-02 8.704170112999863596e-02 3.593466188173689152e-02 8.505040793527729459e-02 -1.578395532883460420e-02 -4.837214076121688217e-02 7.975847863654934866e-02 5.204268685842832138e-04 -3.043839655731646679e-02 9.075303415438493171e-02 4.079824485256688255e-03 -7.066658006978365769e-02 -9.677303965123587592e-02 -3.867205012886376723e-03 8.412258667383107347e-02 -5.155920864030206358e-02 8.779346717567516195e-03 2.593775144994161716e-02 6.905598695101235196e-02 -4.883785531894589693e-02 4.953578630484847117e-02 4.414029141516961907e-02 -2.445610930339782441e-02 8.131658289986952448e-02 -8.478015648703803031e-02 9.449327314337298278e-02 8.193000738365741054e-02 -7.759862572693776439e-02 -2.073982649842154649e-02 1.756113719603347861e-02 -3.382509592190090231e-02 -9.548426252172245374e-03 -2.830255217104750073e-02 -8.264749229224303828e-02 -3.045607195770824727e-02 2.539882540558176249e-02 -9.551391605614034663e-02 -6.214063569457205921e-02 -4.387213556039163548e-02 8.259867971289104605e-02 2.638651101337809862e-02 2.958468330119071524e-02 -2.240023337875532081e-02 1.274980930237993963e-02 -1.035860037885550332e-02 -5.137671007405038986e-02 -9.464981903553630616e-02 6.967732693934330923e-02 7.517401323800736168e-02 2.495567976037767199e-02 -3.310907683496551457e-02 -8.071781894178621519e-02 9.213529639717858710e-02 4.471896036079132247e-02 4.449566210712766964e-04 9.509409502980600837e-02 -7.668965537918159825e-02 6.741378699678170217e-02 8.484794292906122637e-02 -2.759460914510712681e-02 7.105796045441370445e-03 -7.013925454775807311e-02 4.011236329649872645e-02 -9.167423043625630430e-02 -8.615280505484007589e-02 1.025662418525994518e-02 6.545048361055452735e-02 8.512980148449986184e-02 9.664217157040615874e-03 5.932855716483852182e-03 -1.012646042667161017e-01 3.077290679363107323e-03 -5.641738192796953710e-02 9.422345565138533219e-02 -6.228800634810060383e-02 2.736124699479782624e-02 3.633901993600265751e-02 -7.919207192863790198e-03 6.107032961619417166e-02 -9.444371596115458400e-02 1.657194832504640947e-02 -3.625968534801307652e-02 -9.966552887264966409e-03 9.629526279737893324e-02 -7.234306141929287837e-02 -8.002687746149426962e-02 8.348839673268358685e-02 4.341997917657521716e-02 7.586557319094941465e-02 5.458030226539514751e-02 3.001455714987392304e-02 -6.552579619473304640e-02 3.945713326650656522e-02 8.770898275429044044e-02 4.103809232399285856e-02 8.842361386292241221e-02 -6.759832308091624775e-02 -7.198494065521149343e-02 1.152366880256508117e-02 -8.477591111986611250e-02 5.743351109010194633e-02 -1.675774884838662077e-02 5.968159513370840941e-02 3.846532581895622388e-02 -7.380588253987410696e-02 -4.615685703275496099e-02 -8.783642998612593844e-02 -2.179548024470706613e-02 -1.216099916107924936e-02 -5.219052562441800491e-02 -7.759990421341024514e-02 -7.117726422347083956e-03 1.278674775817138960e-02 9.702073631508791735e-03 7.340816555927424936e-02 8.843475704931268166e-02 2.816905595276356089e-02 -6.871630537531900340e-02 -5.073693843360550099e-02 -3.719834113162528294e-02 -3.484368997809365182e-02 1.154808246342479972e-02 -2.910205249871894786e-05 2.432469874686568265e-02 -6.572752285575295117e-02 -8.246507022899393635e-02 -6.001763385494962577e-02 -8.985975229662460095e-02 4.960060893278382677e-02 -3.631117581298364677e-02 -1.907559057730684113e-02 2.664296670575284909e-02 -8.161614909529600614e-02 -3.862280346261684309e-05 -5.315532284580998940e-02 8.429849412734975733e-02 -3.160186522522317326e-02 -8.218455228181886785e-02 -4.216919163337099624e-02 2.089435061580918046e-02 -1.858442938844067846e-02 8.890520875568774795e-02 6.775950904290420351e-02 -8.113678689470304670e-03 -8.236639907738753374e-02 -1.741310337503771538e-02 -2.229884920068975901e-02 1.842559233433775645e-02 -8.927550618864202314e-02 5.797474359633528890e-02 -8.941747889927609272e-02 -4.304869919426507902e-02 -1.139253265393109366e-02 6.843191772780927995e-03 3.937432046527677282e-02 -6.666798891476777289e-02 -2.469082280959424697e-02 -5.218963565986131647e-02 3.863568039410538151e-03 1.836480557340840203e-02 1.625127029314406973e-02 1.043916272278151182e-02 -3.984336995181305546e-02 -1.941184609317118601e-02 -7.627705702044174085e-02 1.126793514788897860e-02 -6.095411605375337244e-02 2.838244703504456956e-02 8.863343842649666626e-02 -9.516915752457495714e-02 -2.341023433750386712e-02 -9.743686508281551584e-02 -4.067324264502693298e-02 1.029588096244262591e-01 6.042862897201932426e-02 7.742649616422963774e-03 -8.250025449612034475e-03 8.113322755454625834e-02 -3.983053528252975678e-02 3.576412206066722360e-02 7.210513138851941221e-03 7.333112330163250869e-02 6.636106787890845571e-02 -2.924895809104381336e-02 5.050086051622412753e-02 6.135399657422808961e-02 -4.634428067238638427e-02 -4.021024932347304348e-02 3.494027472638230880e-03 -7.202383460219748124e-02 1.151618084982203305e-02 4.345692495225841889e-02 -5.320201006717096420e-02 2.282282033260293191e-02 -1.933812934251463765e-03 2.037542576259483013e-02 5.664161623838171594e-02 -8.680264163791147347e-03 -5.225123006972623441e-02 -4.303895113497478025e-02 -8.070062497918104039e-02 1.770624732107637864e-02 2.579154297837323723e-02 -9.053959402159451886e-02 -6.431057586065234977e-02 9.043561932639958278e-02 -7.506903758478800093e-02 -9.637487959589013942e-02 -2.744984746000924888e-02 -3.675193371830127315e-02 1.060881140928806622e-02 1.471624482646043640e-02 9.475748078009828268e-02 -9.688294921775596202e-02 1.436407177579803948e-02 8.000689967692650728e-02 8.055324257744898853e-02 -9.055624785068153160e-02 9.375178868179236125e-02 8.536320961531101981e-02 1.965199571726462119e-03 -2.044159494820668027e-02 8.220743500172045248e-03 4.743986211984611845e-02 -1.037044298684495769e-01 1.593067258783563422e-02 -9.735527700723811337e-03 -2.560567244402446596e-02 4.061679801804737172e-02 6.846746300560489773e-02
-4.125449846099028123e-02 1.250606082963454276e-02 9.200826506685054473e-02 -7.154446810193809680e-02 -5.589798335869648055e-03 -2.921784512493576236e-02 7.991028772525470003e-02 -2.114727379849783845e-02 -1.631277372799948278e-02 -6.942455795452448508e-02 9.327808803928039350e-02 -6.196011924226776935e-02 -1.983342040193247779e-02 -7.418130750770818987e-03 -1.418904752643017483e-03 9.244721503987354816e-02 7.558164218733420814e-02 1.410218071038884385e-03 -1.115423551947208880e-01 9.101987120348495330e-02 3.346086360428794648e-02 -7.016882653142220150e-02 -1.062188028734194351e-01 4.881066101976402893e-02 -2.141595725537018963e-02 8.956978940377449683e-02 6.617494637218958309e-02 4.889397096099936529e-02 9.698050181879448728e-02 -5.290966842545378329e-02 7.941532272175302887e-02 -5.541144925787131609e-02 -6.524680218974870938e-02 -7.301428562878299611e-02 -4.551846383392109396e-02 7.886734655354886436e-02 1.241166196862029253e-02 2.408106537310600315e-02 -6.813698169717738451e-02 6.689144670029333051e-02 -6.948013502277737563e-02 -5.342640914705115707e-02 9.276738224229920393e-02 -1.472722794289934266e-02 -9.767796693400836172e-02 -4.149225662498021855e-02 1.023198423793384750e-02 3.331954451165870107e-02 6.211333216706375893e-02 -1.315142958480948823e-02 4.515728386427830116e-02 -2.513155277222682733e-03 -8.073032760334866720e-02 -2.142912265864606661e-02 -2.911018693449908892e-02 -8.220369543885656938e-02 3.954275859626495832e-02 -8.044481833726541825e-03 -9.199870228082009105e-02 5.313238748644925208e-02 -4.074061377713459470e-02 -8.794411493427399529e-02 6.302342282531202267e-02 -6.600954001440437202e-02 -9.271349414237649300e-02 -2.465617537979241866e-02 3.438464600299869639e-02 1.990391431244913772e-02 5.865591161069853149e-02 -9.165628782423035359e-02 5.689514010302750002e-02 -2.906596856859772898e-02 4.828491448007632414e-02 -8.042787945837268082e-02 7.752160219582780731e-02 4.930572211577170100e-02 -9.767281436436718589e-02 -1.914804437046490129e-02 4.179597124236661410e-02 6.125956864840883392e-02 -4.503995349432172654e-03 -7.527615644377505522e-02 1.465927201811249338e-02 4.880222205767441312e-02 -9.765736426985061058e-02 4.261058644382072214e-02 7.327228219603776349e-02 -2.839404539063015639e-02 7.809731435393879595e-02 7.549125402428003007e-02 2.902710325889905352e-02 -8.246058962911971546e-02 5.292219919899569108e-02 8.609977901393081612e-02 4.365403599100999704e-02 -4.430778129515864847e-03 8.521722933920237997e-02 -9.443639038629518187e-03 -1.081635089541739536e-03 4.071277675372691682e-03 -7.979496730436427820e-02 -2.986372944598215257e-02 8.121167525077141458e-02 4.905657841477591152e-02 -1.688045281317018809e-02 -5.351065815094498308e-03 4.144517708691126262e-02 7.430215395438959092e-02 2.536080376403726869e-02 -2.169569285565397729e-02 -1.272161758193180239e-02 -5.043038989293987390e-02 -3.064387160495794099e-02 -7.813460292082247127e-02 7.505861905382803234e-02 -6.454593449964840524e-02 1.669070732907702859e-02 6.609393880448796200e-03 -1.030679784979872254e-01 6.984105842867524561e-02 1.210291612639302974e-02 -3.008676976160788372e-02 5.387814979130716581e-02 -3.646297453132155142e-02 8.531249424375889068e-02 -5.853901416496996510e-03 -2.692977726609731629e-02 -1.106431056097653166e-03 -2.827218244490602508e-02 2.159676092989766538e-02 -1.949061236778673470e-03 -8.124515309260459117e-02 2.460762310620052268e-02 5.572498287849720483e-02 5.491370399199359265e-02 4.859630131238884543e-02 -8.287163364318259062e-02 1.047492851783801415e-01 -3.011025720387313503e-02 5.170394407533402542e-02 -1.026125144121567967e-01 4.005534515607746954e-02 -4.544767723106803853e-02 -7.969794166455683448e-02 7.331723628983723151e-02 2.438041998440128658e-02 -8.729232971658930362e-02 4.863217724933920072e-02 2.175790743781041980e-02 5.776388571271421496e-02 -3.261601170471849914e-02 9.527911028980541597e-02 2.612573148456519626e-03 1.179601392587684150e-02 3.323107253150609647e-02 -9.981833351024760326e-02 -2.395833557971124156e-02 -1.596736516570763584e-02 5.702603998455792189e-02 4.038636797480289753e-02 -2.639679451800702389e-02 -6.597314126342476714e-02 4.707970973854880975e-02 6.444658677815048864e-02 8.615565830725659124e-02 -4.643207424917959042e-02 3.842733620525519422e-02 1.972177314496167608e-02 -8.760690447434527073e-02 6.717608304537082964e-02 1.118885910299368819e-01 -3.346084346527713332e-02 -1.498108665689516089e-02 2.389456521002060810e-02 2.953640456865015002e-02 -5.588509813211472305e-03 7.633775021782156223e-02 -7.614616674846261257e-02 3.717307828784598145e-02 6.956364511461020361e-02 9.743597333832891561e-02 -1.877436825122023520e-02 7.539964328743896382e-02 -1.049482972569293349e-01 -6.623805184893992448e-02 5.003482422455737127e-02 -1.467288211187283906e-02 -6.184363943072686796e-03 3.769893925135696378e-02 -1.032323570587918710e-01 -9.382804865314307852e-02 -4.071954476167878589e-02 -7.444335144796943027e-02 7.716208024956242029e-02 -7.861890619543411562e-02 -1.786430588020222407e-02 3.061804524525801180e-02 1.844535281417055209e-02 5.396618495890490030e-02 6.874114423342095326e-02 -7.897957997766506810e-02 -2.483807408945793924e-02 -7.293845510622568029e-02 5.406210904294104364e-02 -4.367063456087828116e-02 7.624739723840974481e-02 3.545569677950699550e-02 7.548973962605756705e-02 4.355570164168948849e-02 7.068304009380294017e-02 -1.847205147665911124e-02 -6.668152760068876694e-02 7.304069297906390368e-02 2.469242437320099889e-02 7.548394253336457305e-02 -4.041601981005510380e-02 9.604745915870510631e-02 4.175583664578203652e-02 -9.176362666145045782e-03 -3.801733321669654303e-02 -1.047008144421347764e-01 4.277974850139541763e-02 -5.755248770909667660e-02 -2.419257364950513911e-02 -5.383797895634684361e-02 5.632656843963385757e-02 3.437399523269202284e-02 2.778807506122551313e-02 -2.964535012713719053e-02 -7.580736492909713291e-03 6.731186660767971008e-02 5.683869241691900942e-02 -2.134285043624163658e-02 -5.528808352118303598e-02 -5.893143955062978695e-02 1.016221424309618343e-01 -3.782062241666577646e-02 -1.324429727441487140e-02 -8.923977231052874354e-03 -3.664922133122730519e-02 4.395365829544266301e-02 -8.045077996597757575e-02 -3.351884868916886473e-02 6.766048718171477350e-02 5.728473283366526669e-02 -4.057193917987619164e-02 -9.542766477437378270e-02 3.411266900473026303e-02 -4.368488421836660279e-02 -6.682017025808165145e-02 -6.524445861573111710e-03 -1.475142595620091042e-02 6.980190625336282761e-02 6.046127067527161392e-02 8.154691192224407248e-02 -7.428092489697243894e-02 -4.156953041203351185e-02 3.559515970327118556e-02 -6.773091948701404075e-02 -1.036632987648508468e-02 4.167962067722040531e-02 6.900038097056250888e-03 6.647317842826935830e-02 -5.134250635564104048e-02 -4.182719309058252621e-02 7.762188163461232471e-02 4.886362034593662307e-02 8.205327536969361790e-02 -2.623198257550771184e-02 -6.606586765627277258e-02 -5.856070536409781202e-02 -4.769221765108783151e-02 4.532629505403033832e-02 -6.871967150980436145e-02 3.262417538138081413e-02 6.341761147738301206e-03 -2.527168761596076951e-02 2.353155988115074315e-02 5.669883054746781281e-02 -8.761384847593998992e-02 -1.164807485372229036e-02 -5.846363185905951304e-02 4.438665884730368452e-03 -5.837173572354093995e-03 -9.699168884143621883e-02 6.554120421922850215e-02 -9.350794565312287379e-04 -2.073204276142704208e-02 1.095377414877836686e-01 -2.646966659978872843e-02 -3.807273606773486918e-02 6.524011897514608860e-02 6.091195683681414896e-02 -4.195307657260614193e-02 6.662938316242898729e-02 -1.032985716300506285e-01 4.384444592260126200e-02 2.975128647921967268e-02 1.369822382553292396e-02 5.357182397826643072e-02
4.117813321672866150e-02 -2.823916426681033487e-02 -5.032321982716744802e-02 -6.527673905753610117e-02 4.030651332489576522e-02 -9.182582605468514458e-02 -1.043915175199529866e-01 3.370114441295175324e-03 6.150472810171450470e-03 8.075759044860529590e-02 -1.954480014138913063e-02 9.448228191788990427e-02 6.200146922291401713e-02 -7.033830181518480051e-02 -9.194029214994604848e-02 7.781131669101945536e-02 6.944212420948464581e-02 -6.161765695679547600e-02 4.789889776105362568e-02 -5.624146985975260471e-02 4.085307339449296971e-02 5.687697061907345808e-03 9.572625255547636408e-03 -2.218552670885473935e-02 -7.350003766034551855e-02 -8.983726332665764591e-02 1.022552404867032722e-01 -9.850626266602342807e-02 -6.347096379543611111e-02 -1.000512760334723410e-02 -2.210846858998654837e-02 -2.705433271767351822e-02 6.590036724154492431e-02 -2.354790235606771254e-02 3.849516115811479899e-02 1.433111232580811488e-02 4.788657893800798981e-02 6.968315450978804226e-02 2.306245786121942885e-03 3.292300057226813653e-02 5.193022998382056110e-02 4.754465422718304884e-02 5.613889282867118302e-02 -8.135545603871038867e-02 -2.827771224142932444e-02 -4.647538646613739999e-02 -5.565111111366132651e-03 6.049588217943807633e-02 5.308717410117672064e-02 -3.391575986922714097e-04 -1.219048399767980011e-02 -1.370082790267376782e-02 6.370626112235334634e-03 -9.574226731170072668e-02 -7.863827581664602218e-02 2.828276098566187557e-02 -5.768364839948708460e-03 9.873374412783719745e-02 6.506366655697951029e-02 2.528511895173688254e-02 -4.575264452060159165e-02 -2.610969109437052960e-02 3.959634786206268908e-02 8.129886529226822145e-02 8.587669342184137133e-02 7.754988935376994075e-02 7.505810863758592688e-02 -1.943480720418836946e-02 -8.931680364807469130e-02 7.382265604116258761e-02 9.960362419493337671e-02 -4.777442523537000357e-02 2.112688107909057450e-02 1.796949189018952342e-02 -1.042650137733224479e-02 4.594022149701049856e-02 2.719126973455575705e-02 -5.408880774116617968e-02 -9.269819779676133006e-03 -3.200223766078792026e-02 -9.010176535200771497e-02 -8.116956330820063875e-03 6.184956619750794915e-02 -2.735946743244839149e-02 -9.005298260140659136e-03 3.496938464513073275e-02 -2.237784753807846652e-02 -4.965001835083845960e-02 8.770211764183488690e-02 -1.197728305749505388e-02 1.020079391833885740e-01 -3.776363418559651464e-02 -4.707118617055677801e-02 4.996651049023211055e-02 -1.125103421044348628e-01 -3.825535934872718868e-02 6.188135129852227051e-02 -9.251782237321097557e-02 1.482754482432190220e-02 -2.117831976694052251e-02 6.286052975294177669e-02 -6.681335793489999453e-02 1.173226975134598372e-02 9.422103469989992486e-02 7.216958144746971060e-02 2.430913885241677702e-02 -6.357565759431417496e-02 5.944233046490195183e-02 -1.030391347712331616e-02 6.440249308041041953e-02 7.252127412320978628e-02 6.235496307998838333e-02 -9.535537901826637852e-02 -7.301095918820076081e-02 5.296413884745411471e-02 5.614159960590962839e-02 -5.010402724124003726e-02 -7.156102747667665576e-02 7.313422295635610415e-02 -1.792322095059224740e-02 -3.617335971465687749e-02 -1.410474886523359860e-02 -4.521661445315156014e-03 9.069673899540555209e-03 3.779643148857238233e-02 5.745058347140434563e-02 8.391277975331505601e-02 9.347718658890774926e-04 4.960956991358105722e-02 2.517941376921838895e-03 -9.100345186468360159e-02 3.418403096005143051e-03 -2.375258575084713414e-02 5.853584368033937224e-02 -5.304676770956356230e-02 -8.002402327042705543e-02 -9.597141220164583097e-02 -4.170855732293687196e-02 -8.348516952650682221e-02 -6.926189263783710803e-02 -4.129838931423053527e-04 8.160841740639018793e-02 -3.337158502889719242e-02 -6.396477563188990301e-02 -5.903883975704649067e-02 9.004832776252320176e-03 7.921814117618363946e-03 1.073879372845239905e-02 -1.019436657125831654e-02 -3.397377351406279111e-02 7.820874480103882920e-02 1.044720913843416449e-01 -1.038041487391436479e-01 3.029650218361560135e-02 -7.590875720726829312e-02 5.885572740395551145e-02 1.748688304270769323e-02 7.998753649734166582e-02 6.343036484118658169e-02 -6.183305409576559525e-02 7.820350949738874569e-02 1.121426772983797303e-02 -9.105219718224529662e-03 -4.900957909488694308e-02 -1.281326944413891875e-02 7.795843363579230134e-02 2.681529098761484264e-02 7.064972521054577181e-03 5.168553344891849144e-02 -5.121831197627762372e-02 5.485679837254522906e-02 4.087005088264223512e-02 -2.338046680492796708e-02 9.004658090493158906e-02 6.502814172534085446e-02 -8.517901408571831867e-02 -7.841416469397459454e-02 -5.112620282834884344e-02 -7.910222987501927538e-02 -1.633378874599724848e-02 -3.938406778906144989e-02 7.478760867295281001e-02 5.913107444474012195e-03 -5.642929600729269801e-02 4.835483565200799153e-03 -8.818413183673499967e-02 -6.597792854990452982e-02 6.170295879844259201e-03 6.573537778700477840e-02 -1.843231959752687776e-02 9.198279289428062944e-02 -1.539904838897980001e-02 -9.394459372742999803e-02 6.047387617056761144e-02 8.433218566299671357e-03 -9.615460183532718863e-02 6.251823559616610793e-02 2.894314170683764259e-02 8.161141313518464890e-02 -8.107054116409373457e-02 9.021622914253857317e-02 3.184457581656117975e-02 -1.849360775171391205e-02 -5.772147264150030016e-02 -4.371021017596986302e-02 -7.996811620017499345e-02 3.790644380814399417e-02 -5.930704708116682662e-03 -8.716487610570252537e-03 -9.040043173123915587e-02 -9.191446686554669270e-04 -6.966053418152130805e-02 1.634003760621197815e-02 -7.553034708061191760e-02 3.876563217379701276e-02 -3.970559358786003579e-02 1.062330471425106254e-01 -1.822053919827794355e-02 5.062880955219891538e-02 4.527569209252562711e-03 -2.485889589535075078e-02 -5.410379532238702993e-02 8.546779397601737827e-02 -6.423951082046697181e-02 -3.746531491332037028e-02 1.069588749101012606e-02 -3.902682113683404730e-02 -2.148033752684940303e-02 -2.048307420383993840e-02 3.997121951087978520e-03 8.526265971185764680e-02 8.038099726228511988e-02 -5.773040023772427198e-02 4.327756616080897373e-02 -5.282760076706128488e-03 -1.059003103575129924e-02 -7.228524741309277912e-02 -1.382830188791552353e-02 -8.150669965004704587e-02 -3.182145335100472483e-02 8.679007449383778494e-02 -5.286491620304170636e-02 7.849381146999323544e-02 -5.079249064602016361e-02 -5.072244577910908075e-02 7.807489832776788596e-02 -5.086577989974097602e-02 6.925023540795518379e-03 8.523931073179706608e-02 -7.584163831427088998e-02 -1.107429176012377121e-02 -4.557422582933830929e-02 9.673467940363102147e-02 5.008720654638461334e-02 8.587562645209911860e-02 -8.148047124680260489e-02 7.928965021767166166e-02 3.153522358715959983e-02 -4.809882883748106686e-02 4.790659428042003815e-02 -2.738062209393374302e-02 7.780916777585460131e-02 3.912985008189420744e-02 -5.770066210668808870e-02 -6.449418954428703943e-02 -8.665299077370358649e-02 -3.714499764058228765e-02 -4.321221233668402079e-02 -5.047767771722960761e-02 -5.077850061481919280e-02 -5.487709675233256451e-02 -9.754901201422176704e-02 -5.725265886518676045e-02 -5.304756554100642854e-03 -6.972799026009185441e-02 -7.641577694287447764e-02 7.548037406492931478e-02 6.198815875622144117e-02 -8.805459392636516558e-02 8.456490832019776527e-02 -9.597812644859760045e-03 3.282896888397557333e-02 -3.461734937247222532e-02 -8.745387602723590087e-03 -5.363832702372549333e-02 -4.680482823225494415e-03 -8.978366292622795564e-02 5.291294797502958669e-02 -6.123571403839803140e-02 1.429514278550862889e-02 -1.615751338722388672e-02 -2.748804930512102271e-02 -6.861210289743197022e-02 -7.938751247984601744e-02 -1.850965714366524170e-02 -9.443644069574341771e-02 -1.474810677236235851e-02 4.324235120967904328e-02 3.585841134050998802e-02 8.753436287081282907e-02
4.990127941563660130e-02 4.009957605546821818e-02 -4.250692380452987529e-02 9.099184313928207479e-02 7.421018983036963002e-02 -6.785664859385019676e-02 -6.106039688402817300e-02 -4.668006827095288330e-02 4.234459310122438286e-02 -7.846496251154411183e-02 2.834141311158439730e-02 -2.487304888440970002e-02 4.811751145632607585e-02 6.349457723800171205e-02 -5.497800288528642554e-02 -6.566914826467883104e-02 7.600901499696768870e-02 2.047429121899867546e-02 -6.610717110383612649e-02 -2.046340127030476380e-02 5.601705372378418040e-04 -3.270237793094492307e-02 -8.704689677526912528e-02 -6.577635026345353408e-02 -6.983737514489540832e-02 7.920734266666729084e-02 -9.370380430817161488e-02 6.212318297800673017e-02 3.349767271804073715e-02 -2.286146373829699152e-02 5.124189702015523318e-02 1.139579047112542973e-02 1.936751044914797326e-02 8.945161957251933360e-02 -1.833329703216841564e-02 -4.773050632964549039e-02 5.036889750433152374e-02 -8.776991349992747937e-03 3.881623976240123480e-02 -9.268008160397681050e-02 5.835517593132355518e-02 8.859267815823114456e-03 -5.137481054661474644e-02 -2.477912676628075961e-02 3.377151988969804425e-02 3.462733132640274936e-02 6.409474716218080403e-02 9.636891205122359583e-02 -2.273277092759495854e-02 -5.540710324754040406e-04 -2.284830033366749835e-02 -2.216204276224207834e-02 -5.497257802257136949e-02 -9.202054920989102826e-02 3.179114139407666212e-02 -7.944901135993111263e-02 -3.853413367107393073e-02 -4.846086485838053959e-02 -1.209550415379134422e-02 -2.032562898018413448e-03 1.834271690664989254e-02 -2.619410471132537985e-02 -8.601431194167774574e-02 -6.052984987786912130e-02 6.526819693680660506e-02 -8.624954252920286057e-03 2.679884947280650187e-02 2.960195059208712426e-02 -3.299407831281048892e-02 4.219786876188923869e-02 5.925962629450125946e-02 -8.265908826252198194e-02 9.182505116656494715e-02 5.346316275332999024e-02 -4.502818782445195539e-02 -4.886907926152366660e-02 -7.715969742210661286e-02 6.656423155727658747e-02 2.604904432966782812e-02 -3.687920012874643105e-02 5.344060424209668564e-02 8.537488104708092218e-02 3.040234744338447120e-02 -6.750750749635592296e-02 6.774428240806622259e-02 -4.929106108243232892e-03 -1.146217126408959584e-02 -4.805001077723090180e-02 5.802057565787981791e-02 2.065593194961702714e-03 4.560500226099477999e-02 5.070708353396541357e-03 8.935479294962413166e-02 -9.108111005558044981e-02 7.667807190272619977e-02 -7.775305147457684668e-03 1.910278745022900987e-02 -1.190269786667495500e-01 -5.504649983219519344e-02 -1.482233594448115893e-02 3.720846836462405292e-03 -1.019782737957360824e-01 2.800780362111518831e-02 -3.190118813003352607e-03 -5.601679445242915140e-02 -1.827821218871200984e-02 -4.355993087237119976e-02 -8.835533138694064148e-02 3.590273497458962293e-02 -4.977393549037592568e-02 9.632359005685240533e-03 1.112795829740033729e-02 4.953522433255811569e-03 -3.386184754274058212e-02 6.358888271537406489e-02 -1.517651924118814007e-02 -8.937959720726489088e-02 -5.048707162125899706e-02 -1.014509891517583612e-02 2.091899727471690715e-02 -5.935351284600388910e-02 6.619672221002008417e-02 -4.314711706267383012e-02 -2.972486755691710128e-02 -6.029618299337253379e-02 4.105855199358739160e-02 4.982685944130887251e-02 -1.123279665077972847e-02 -2.647964670517634345e-02 3.585046630886243313e-02 5.954555966525911653e-02 6.309519575291816507e-02 6.803201790299168161e-02 2.466650604616643129e-03 -1.017456521600395153e-01 6.198707667149261358e-02 1.065169804985558605e-02 7.942955412143373750e-02 -1.457865728482121703e-02 7.918653203576402066e-02 -7.134732991032817495e-02 -8.499961628960771287e-02 1.174181484025984927e-02 -1.045498112166159607e-02 5.201931105676028955e-02 7.386849898089481448e-02 -6.393899633378144487e-02 -6.884796137640616931e-02 6.494791022070801889e-02 1.738063501508280845e-03 5.782658742127728957e-02 1.885641453036247112e-02 3.252580349310464636e-02 5.245533070422297300e-02 -8.377639402524711398e-02 -6.698889919919202851e-02 -4.141230432622916569e-02 -5.507439666298886982e-02 4.080608394790938981e-02 -5.476394986636550638e-02 -1.687342374218004509e-02 -8.587895865572645060e-02 -3.622878717251584724e-02 -3.645864807139762021e-02 8.180949353748835640e-02 1.032146272014868808e-03 -6.001248390067453337e-02 1.008883111090233958e-01 9.414321645170463382e-02 -6.371160637799812287e-02 -6.925146877626341124e-02 8.250316913580731104e-02 1.789376070413391598e-02 6.464005039627636340e-02 -9.770385813090001759e-02 3.572645070437468345e-02 -1.858415414862549242e-02 6.175511151555529432e-02 -4.038836269351941261e-02 9.191240757338244027e-02 4.662870726738016502e-02 5.511695238283201292e-02 4.438540203079518326e-02 2.367315493670165902e-02 7.289135088397469264e-02 -7.282310596764923760e-02 -3.178575710555373024e-02 -2.124616858515545725e-03 -4.925223757252542023e-02 5.606093670365356468e-02 -7.664543088163888740e-02 -2.643535106643282728e-02 5.720970680586726434e-03 -7.873579152799439762e-02 -8.236350888295011774e-02 1.691081966877393608e-02 -2.370705061439308883e-02 -9.296775299006929116e-02 6.694510558184034454e-02 3.320830272064065163e-03 1.160447133663748964e-01 8.612395469515517210e-02 -7.955036725372567619e-02 9.358579439372627373e-02 5.880378978097747233e-02 -5.033535858357927883e-02 -1.542230070742637606e-02 7.169845264545442838e-04 8.519037447440276634e-02 -9.596970372030760865e-02 -7.867891508113318902e-03 7.197715930463993717e-02 -5.500810912526960667e-02 5.138180966821027235e-02 4.568643687196755759e-02 -3.421329925554504603e-02 -8.353637082612476450e-02 -1.042607593175230857e-01 -2.972009267406259397e-02 -1.373330042484827672e-02 8.403562912249147587e-02 -8.961533470840067628e-02 -8.508580036617500661e-03 8.603866221442270368e-02 2.828756170266187933e-02 -9.955718045599052865e-03 -3.657177266627212320e-02 4.213184336417163944e-02 4.135717240434259173e-02 8.047882830097516371e-02 1.908067007470067716e-02 -4.386380615024483565e-02 -7.852611292747220528e-02 2.199567372686416378e-03 -6.136906286149107492e-02 9.434662726266102029e-02 2.465284486977990797e-02 -3.175581750933263725e-02 -9.930458594492348745e-02 6.671264461433240589e-02 -7.349689812345480688e-02 1.309005034375025286e-02 -7.398366184081558994e-02 8.698211956558365987e-02 7.520144735993773699e-02 -2.729226488172438458e-02 -8.103436904191874124e-02 -1.833043469084928712e-02 1.294688857152134255e-02 -3.253405699243128169e-02 1.706889433116451620e-04 9.286293261353330275e-02 -1.890164680991988227e-02 9.336428238365405974e-02 8.408014975050759343e-02 2.623974434111505522e-02 -8.421823487329076208e-02 -9.219952874258922904e-02 2.631595774553384132e-03 8.509023523723902027e-03 7.218826998083367752e-02 -6.194647543569917203e-02 -6.602438175111957630e-02 4.344440414119485339e-02 -1.552153167152563011e-02 -8.652288302442703860e-03 -1.005220528425752324e-01 -9.506524104190677837e-02 -8.589800989916318574e-02 -5.593203972815672526e-02 8.901246033511472922e-02 -7.947378754071249274e-02 6.898535722614358885e-03 -2.114974530987392964e-02 -5.478611501513101778e-02 -9.973617042486856987e-02 3.439921323203158632e-02 4.985283971891574933e-02 5.876519728949745197e-02 -1.235161591578119722e-02 7.521935615476094128e-02 -9.038710706020468277e-02 -5.350548145180460125e-02 -1.314712448338326532e-03 3.420988355167480649e-02 -9.339325452674428207e-03 6.957901561315731065e-02 6.740416849304171898e-02 4.538845429946399695e-02 -7.321614956311178757e-02 -4.844954449503228316e-02 5.442215676022363335e-02 -1.130000329482609145e-01 -2.568662117778799242e-02 -5.675622584113615941e-03 -8.813858665635256051e-02 6.175933468752903971e-02 3.019144423404768185e-02 -2.435802176596348068e-02 4.008319777340926815e-02
1.285527577830318340e-02 -2.266778076540931774e-02 8.798834714536811485e-02 -3.022696081091144973e-02 5.304878483377962334e-02 -6.254672327564861356e-02 8.163842403935592240e-02 -1.027667675897540739e-01 -6.862097698297205117e-02 -3.262675569743848925e-02 2.331334632651231240e-02 5.806109541217700093e-02 -8.682152385963913532e-02 5.406645201815096606e-03 -6.622813669120702906e-02 9.659910133352565820e-02 6.233211033152917524e-02 3.384821572073784535e-02 3.504768776463015184e-02 -4.600595925249659907e-02 -7.408368194217176440e-03 1.030459339782664879e-01 -6.387170914979934874e-03 4.060083136672354778e-03 -5.361944783433918171e-02 -1.251221966509553571e-02 7.450570510225011656e-02 5.288059481164242986e-02 -3.949140504404645424e-02 -1.106301275679052731e-01 -4.877068642318051206e-02 -8.574710555652166610e-02 5.107324858775504073e-02 2.085625734522630545e-02 -9.849268839315653001e-02 4.549565557948315880e-02 -6.269044958456401750e-02 6.957974162892979764e-02 9.585092173084394651e-02 -3.100692284200877100e-02 -5.323091269044190332e-02 -3.355704387785900938e-02 -1.689514422013619829e-02 2.817226216111166220e-02 1.785436467580181485e-02 4.599139718557160306e-02 -8.806243900091320631e-02 5.736558571977259935e-02 4.779913241224108267e-02 -1.037935547034167794e-01 6.074415140160419405e-03 -5.869708124021853941e-03 -2.445670901296446292e-02 -4.956066086184524044e-02 3.903312060340986822e-02 4.847453539224152314e-02 -5.314694564237465793e-03 6.800216166342193391e-02 -5.086020716856978069e-02 5.946831262258819861e-02 2.903634238560564088e-03 -1.065839140814399955e-01 -4.384400957992276582e-02 6.580149685078727495e-02 2.229624708142178766e-02 -2.679744414895908478e-02 -2.753231224695803364e-02 -2.818101922107996149e-02 3.343610705218334062e-02 -8.998482653565077760e-02 -6.023862163665818364e-02 8.471762329928753110e-02 6.008137336535440687e-02 7.767020857659631683e-02 -1.884348706033819529e-02 -6.756518853021929727e-02 3.914739315336044495e-02 9.968117392690180323e-02 -2.167522234184771687e-03 -9.497353343418254989e-02 4.606731549332589853e-02 -9.117059733097919449e-02 -1.677086843164749550e-03 6.365636224913474861e-02 5.320561047661489379e-02 -5.921642843430720282e-02 1.955636878469208667e-02 -2.750980310718157199e-02 -8.173678059789654671e-02 -7.565741469029919897e-02 -2.572345039078445875e-02 -2.378520645955797819e-02 -8.146224382759216509e-02 -1.066230813195770226e-02 4.587478136540487639e-02 1.726775544191119088e-02 -4.396628089925642274e-02 1.032335005018941015e-01 7.631475518232012922e-02 -5.689099059993168311e-02 9.456605929953793011e-02 5.960896907827813868e-02 -7.570907884061151092e-04 -9.478903241810570160e-03 6.107419678628132204e-02 8.548061787763011621e-02 -2.315994661594521220e-02 4.334604908418329683e-02 9.636361581611102567e-02 4.916277671745798022e-02 2.647960127433809929e-02 5.338084138893948311e-02 3.001691273304622418e-02 -1.100629711699669527e-02 -7.849226474832103617e-02 2.541704832867714217e-02 -1.451856378036958835e-02 -2.536216376066270650e-02 4.328374605735832437e-03 4.858240688901151877e-02 7.105158326211856445e-02 1.179506388126410482e-01 -6.837734298177318426e-02 -9.150329558205824720e-02 8.270113826549328750e-02 2.858683908343551475e-02 8.693134264624312324e-02 -1.106549508417909305e-01 5.173419788910813694e-02 4.502433216392615761e-04 -5.150413477385067627e-03 1.118079110558991146e-01 9.620753242421863083e-03 1.192617540889734928e-01 -6.008721078009369998e-02 1.977002691980766363e-02 -7.419233304381783745e-02 4.723531837887970375e-02 4.600282249824130115e-02 4.382725474884011964e-03 -4.895595559030249157e-03 -6.453394029745206095e-02 -7.150882684845277781e-02 -4.449085387469273872e-02 3.377500260720445180e-02 9.557752691213648732e-02 -1.838759771315768080e-02 5.239959715518920785e-03 -6.105131968220615241e-02 -2.443792616056962921e-02 7.443886898634001492e-02 -1.024950750316571402e-01 6.017484780560809765e-02 5.675024474299120159e-02 1.241663809560886594e-01 -5.974469264872668550e-02 2.885076896984986941e-02 -6.834992143252720254e-02 4.770502496519762187e-02 7.222630527754853036e-02 -2.860684483734567476e-02 -4.567889831458514516e-02 -4.487071007541146989e-03 2.147625762547781397e-02 -3.913082817504542898e-02 -6.368594926300660819e-02 3.315730434158274675e-02 2.091820055967191783e-02 1.384591763620095402e-02 5.564534557905524009e-02 8.068683980563655378e-02 -1.694111528217848509e-02 -4.634969346635389037e-02 5.268196464928530387e-02 8.426565565984461825e-02 4.740598435149136897e-02 3.692251534841601689e-03 8.720638658062369875e-02 7.489614235571932788e-02 -7.974959794500269261e-02 3.258174530908269223e-02 -3.834174700145592113e-02 6.210795439683542557e-02 3.653970792389626271e-02 5.262545776436368394e-02 -9.639313814256507407e-02 -7.907032755751165765e-02 -2.507448125371826084e-02 -4.683579301421926522e-02 -3.814695055343660796e-02 5.172673400536459409e-02 -6.337816638963465754e-02 -5.940942018142208320e-02 -1.279648734423966677e-02 5.385414743501305834e-02 1.084199248764383108e-03 5.859111274120106655e-02 -6.260222757052115450e-02 8.933975972888054395e-02 2.019740913548335320e-02 3.389873888699931198e-02 -4.179427239070591243e-02 5.321013079525572197e-03 -1.015694352379606716e-02 -8.172274810921678623e-02 6.361157988110305306e-02 9.040515398481289988e-02 -2.562984448641592028e-02 -4.663172496820598700e-02 -4.648329611114078441e-02 -1.063580542406079854e-02 5.033835280524085604e-02 4.450551097992377220e-02 -8.065352606063205809e-02 -4.099709144429434376e-02 -6.825831339525638419e-02 -7.194648972062417380e-02 -1.176287384701356874e-02 4.311500976968084958e-02 -1.038189609476677516e-01 -2.634649995989075261e-03 -6.509466010754769161e-02 -9.316178259097238068e-02 2.918361953019419155e-02 -7.689687372854564495e-02 -7.495552331318722228e-02 -1.209519445095504943e-02 7.677771685419716718e-02 -7.141175169224019126e-02 -5.154324417697057209e-02 4.881572986945101854e-03 4.457726033241081074e-04 -6.531967864096169252e-02 -4.915451187903915019e-03 1.085111137285198618e-01 -9.410564918809763424e-02 -1.088180316394088062e-02 -5.777730616150764109e-02 -2.418091658617573924e-03 9.218646449250120223e-02 6.864983118888311198e-02 3.166548711824965223e-02 -3.246933919982925715e-02 5.426101195457913584e-02 2.582749196866477095e-02 -7.745271866924872961e-02 -7.754515322175842273e-02 -8.886483972713106472e-02 4.778415818968308887e-02 7.304287997994494790e-03 -2.930950902275438613e-02 1.467727929220117959e-02 -9.077311416434098723e-02 -5.117822649878692176e-02 2.600699840876692301e-02 7.051447543043362631e-02 -1.012153089682335701e-02 -7.488786101198423306e-02 -7.028812747857558774e-02 -2.738261570753475899e-02 -1.871291715471734909e-02 6.989723127608593600e-02 -3.858086808315019933e-02 3.849503113074683597e-02 7.108294992709450477e-02 1.496276201721135485e-02 -2.055596512479386864e-02 -2.264138890644069521e-02 -1.661384478452970770e-02 -6.549006023715002456e-02 -1.254065711786478757e-02 -1.534143905467675109e-02 1.496747380645376425e-03 -6.385660536336550119e-02 3.833925444987759928e-03 9.012151872253232332e-02 6.818861367012160613e-02 -8.324410863630214708e-02 -6.068027984025409216e-02 -5.102330725552139262e-02 3.341100629932651500e-02 7.744638657448744967e-02 2.298589195747181781e-04 -5.425415125344917183e-02 9.717389502035655990e-03 3.964428213541697915e-02 2.645677982120578364e-02 -6.907258015532923012e-02 -3.554396734168870087e-02 5.568464821184156144e-02 4.841997150361116581e-02 5.328501816860606310e-02 -5.708649956278661480e-02 -2.664459857254687994e-02 4.593412059841261996e-02 7.044782295357067403e-02 -8.751948897685658812e-02 -8.506238558345415035e-02 4.371789605967545816e-02 5.129051377394902578e-02
1.052804050830543903e-01 -5.209127692666690873e-02 6.132968334997730003e-02 5.203005571435814769e-02 -8.106440750884476298e-02 8.774547979487765104e-02 4.549726059981657258e-03 -2.376946118707442060e-02 -1.003590790268665267e-01 -1.277427383944657047e-02 6.978866331274273527e-02 5.688238424070923838e-02 -4.631841056081638375e-02 -9.171815323906461204e-02 2.841628608577681861e-02 -5.243626985920712968e-02 2.862567765044141468e-02 -2.786268540313475289e-02 8.373259480433443980e-02 -8.811927850765205461e-02 -7.220019566536214906e-02 -1.096315980270174024e-02 -1.499977353096618171e-02 -1.246359335307565749e-02 4.611688815307685846e-02 -9.252242100254819135e-02 -2.673342053056104034e-02 6.989647034457921460e-02 -1.184768036222043630e-01 -7.244135461577305701e-02 -9.840910754434611940e-02 4.445370703497414366e-02 -7.502276328183374310e-02 1.325207418065399260e-03 3.172588006975509550e-02 -9.205653286884919739e-02 -4.878137134525915852e-02 -8.811972081319455197e-02 9.192601151016591143e-02 -2.692622576963751152e-02 -4.008406587224517398e-02 -3.914700038821922884e-02 1.762710568738567671e-02 1.444730303345474060e-02 2.928942613062350195e-02 -5.171118706076474614e-02 -7.141227380890631526e-02 -4.006693527728732648e-03 -9.334668608079618735e-02 -3.353976628164574703e-02 1.657085421735420006e-02 2.473267222243470675e-02 5.044098608151274810e-02 6.745349961989320631e-02 2.729688670518465657e-02 6.576430514081016421e-02 -1.045910624954712459e-01 1.998920764978548772e-02 -4.185352141457550357e-02 -5.754129779929783445e-02 -3.205658912662164711e-03 -5.928387902325962799e-02 4.437755167655719341e-02 1.478091288820308769e-02 -7.500106027646935569e-02 9.493235522159208795e-02 -7.553613747399476330e-02 1.306963070374481464e-02 -6.937213626191250648e-02 -7.845086067837400701e-02 6.843063618496530998e-02 -2.028965861452653244e-02 4.817793147475152304e-02 -3.290450074012212650e-02 -1.583316009178272615e-02 -9.462789765431184330e-02 1.978293006335481163e-02 -7.672527519233766913e-02 6.119986804515526596e-02 1.911273917582134024e-02 -4.285376993535217234e-03 6.871922811873870662e-02 5.602617867753375419e-02 -6.531740713164561896e-02 -4.632567082109479567e-02 -8.039418123262745408e-02 8.366871647729660910e-02 -6.877748796427299478e-03 4.203227807186039888e-02 -3.524428922380103829e-02 -2.231125841072027771e-02 -8.676469343143920765e-02 -3.401357544029730284e-02 1.053962098774152839e-01 -5.369758540188214468e-02 6.456757920816914506e-03 -1.833087040344367341e-03 5.635218482636196458e-02 1.417001383799036673e-02 -1.014529350646647399e-01 2.121433360115709821e-02 -5.148791838113004476e-02 4.467153303305427398e-02 3.270688464440972554e-02 -2.883954840322009924e-02 -4.090186993558786455e-02 -6.015579318762147298e-02 -4.733305993409611667e-02 -3.711696396998492853e-02 1.127274953555904707e-01 -9.457070421174013086e-02 -2.859751785132334106e-02 8.271764758825933539e-02 -8.367164318366225595e-02 3.001416292627234750e-02 -4.861571447796390194e-02 6.697708665589491295e-02 5.663684258481324618e-02 -5.420895106752316589e-02 -1.719976113540806067e-02 -1.745788101492940295e-02 1.106401115461027110e-02 -4.083788922768692708e-02 -6.007485993648679912e-02 4.153099694182287027e-02 -3.794764811182008840e-02 -8.473264306401361023e-02 -7.196895338480739646e-02 -3.636871143715613569e-02 -5.691719947223351089e-02 -4.984618265544894095e-02 6.717777976654132344e-02 -3.620083563901688173e-02 -8.791603908866627015e-02 4.961795357118999918e-04 7.567078463292559176e-02 -1.902780880964119459e-02 -5.601233845625340491e-02 6.934684011664245251e-02 -4.222537222999288992e-02 -8.389386491997566364e-02 1.729786423104321194e-02 8.963571293360447778e-02 -5.469406567755330170e-03 -6.155362587871941737e-02 9.682343033323753678e-02 -7.060308540633312979e-02 -8.210072046520025535e-02 6.611360876953044363e-02 6.749700657348027544e-02 -9.414191008320982323e-02 -6.594446393683274510e-02 7.479536201275138740e-02 6.528868628084419368e-02 4.772364558379642990e-02 7.277208373330325275e-02 -7.969640861740533155e-02 -3.501429375567973595e-02 5.086368309221410422e-02 -4.177849298790829724e-02 -1.545966771249215888e-02 -3.851754878440455387e-02 7.709340436573776378e-02 -5.127608718688263234e-02 6.510981920155022029e-02 1.174474935591974245e-01 -3.881469832178754964e-02 -3.965229964251182349e-02 -1.012006286013341326e-02 -2.824438431972582132e-03 -4.359571553098978702e-02 -5.749344040508157921e-02 3.551182527956834450e-02 3.166535091779612565e-02 -7.238431943338725916e-02 2.653569635932913340e-02 7.980469614727062067e-02 -3.924082647182756262e-02 -5.742587999807249183e-02 -6.928789772585972062e-02 4.671292662195337952e-02 -8.193867800490110820e-02 3.126180326254025810e-02 -2.452225326818876713e-02 -8.243954154133621703e-02 1.297680900900716541e-02 -9.812409291816256984e-02 8.384827608837494561e-02 2.338084561204706313e-02 5.961437569244457113e-02 -7.013562008475383858e-02 4.304093395475618034e-02 1.600353108249873493e-02 9.508425642881970785e-02 -2.241197020066464443e-02 3.106552030395780262e-02 -7.468288428389655009e-02 4.626582921275049221e-02 5.890575960935164057e-02 7.356532545586258465e-02 8.762289306131271216e-02 8.861088423223807686e-02 -7.059244702728719942e-03 -3.582539738236201199e-02 -1.573026212351427006e-02 -4.540181141558910505e-02 1.477183338038124544e-02 6.045302333659269972e-02 5.184871678599728417e-02 -4.311446809683713854e-02 -4.186020777322049108e-02 9.629288059787013965e-02 -6.482841544627034047e-02 -5.871672381150953163e-02 8.583004624621871914e-02 5.973036797976895990e-02 -1.377402039162782879e-02 3.531495296631586428e-02 -7.663103275045995977e-02 -8.019510272817548246e-02 -6.932384204638222802e-02 6.140992808600528874e-02 2.802931434976330127e-02 -7.932364401481864155e-03 1.450189397970808904e-02 4.328119961595591064e-02 6.639759354260883761e-02 -3.840663474386794840e-02 4.482171107585111898e-04 1.814536754195759591e-02 2.860077958897457029e-02 3.029557765707491593e-02 -2.622397715601762491e-02 6.207392207153311636e-02 -9.569443756916809138e-03 -8.221135695699885448e-02 2.782857023467634125e-02 -2.092204388764033057e-02 -1.660810946713381364e-02 -5.120693221566425396e-02 -4.379566392669231867e-02 2.868062902874385020e-02 6.999490746948300313e-02 5.358143936196056029e-02 -3.450103447506591009e-02 1.538696610033602266e-02 6.331497226234422682e-02 4.298175492015066795e-02 -3.963602569251762492e-02 1.288651491581096174e-02 5.809098442144990278e-03 -6.148161220085535117e-02 -4.224439680519487261e-02 4.360627179701938999e-02 8.105377564161789228e-02 4.283686800746715206e-02 -1.839011872557111751e-02 6.841100818164155828e-02 6.652083846749952400e-02 -5.317300958437871927e-02 2.816238614693327910e-02 -2.539312823495485510e-02 7.935825800699471133e-02 -2.309282281741091916e-02 -2.851816607083086652e-02 -6.059409004380750252e-02 8.081251219867832680e-02 2.403205128710200755e-02 -1.145212900198885539e-02 2.483251098431025344e-02 -1.598378980619905715e-02 -4.562486687173746697e-02 6.377331845595622661e-02 -8.078388073222046717e-02 -2.218332988758303648e-02 -1.150258483369619861e-02 1.195944568126620922e-02 5.837239269906431549e-02 -6.108218674487150140e-02 -3.910324644347727696e-02 9.203759548821874303e-02 1.086188926725568521e-01 -2.014467972055690448e-02 -5.260097445263738763e-02 -8.872226436732988733e-03 6.263037617105184085e-02 6.287327241380030740e-02 1.498944386031249992e-02 -5.679221806928441002e-02 -2.249701899625713986e-02 -4.032898922771940842e-02 5.534224264628170159e-02 -9.818321038697164216e-02 2.282733077728827525e-02 -8.529081162061299959e-02 -7.745162550426304415e-02 -1.149597405575098485e-01 1.012968193516770171e-01 -3.432435592898779031e-02 1.013739303185006713e-01
-4.636158505910943639e-02 -5.391156895679602434e-02 5.256899390156419098e-04 4.554990548479356804e-02 1.192762530794097206e-02 -2.976874494997216319e-02 -7.221285679302065497e-02 9.126081382319237156e-02 -2.202776106811438553e-02 -5.802234230323410208e-02 1.780919865200535079e-02 -3.118252956729071837e-02 1.711639662577907339e-02 -7.966856453699312779e-02 -4.542734602538420208e-02 3.748878292842063725e-02 -7.608271997586232849e-02 8.947442527412852176e-02 -1.874049422863872244e-02 -1.099867120040548280e-03 2.644125395052190929e-04 -8.250342622590906005e-02 -1.426390916005121877e-02 3.128942716346069797e-02 -4.157620465087657341e-02 3.077492321374896214e-02 -9.682428924757724431e-02 -8.193782448357847525e-02 -2.943633094335715641e-02 2.685370614038299492e-02 2.411636949175814323e-02 3.559577340964836106e-02 -1.059680729823144485e-01 -2.452852659099716628e-02 -4.101865928861514465e-02 3.357948310921621271e-02 8.300476299195320984e-02 -6.867283287340462949e-02 1.792971007102223471e-02 9.223773703192472131e-04 5.437285842851061896e-02 4.319165811501379099e-02 1.680035707296670747e-02 -2.948487072375313364e-02 4.620346480280664719e-02 -4.243393586809472706e-02 4.086730107344357585e-03 3.692989780137997946e-02 6.617439290785429029e-02 -8.621227374108135499e-03 7.293698240297682295e-03 -2.638923692144134678e-02 -5.436716619974375081e-02 9.047982592335841734e-02 -4.330719260247507807e-02 -3.791177870163835867e-02 -7.895411528484387598e-02 7.299597000444647821e-02 -2.470011244172757442e-02 7.555966862189526789e-02 1.911672304305327835e-02 -7.670715519688595108e-02 -4.844502722828339381e-02 7.375708796438033843e-02 5.916093021179651135e-02 -8.220262601197259045e-02 1.617311321261313828e-02 6.912860107103180329e-02 -1.530415347249158148e-02 -8.253585199589327792e-02 1.466389676843611600e-02 6.518364307796398194e-02 6.324877070822658431e-02 6.770703101190095330e-02 -5.860155093822406319e-02 3.248111709733639968e-02 4.053545338866602898e-02 8.668856416510165031e-02 3.589199433520001009e-02 -5.438655908326209265e-02 -7.846104735229954621e-03 -7.004492239212403715e-02 -1.040878158493955263e-01 -2.467073159074764654e-02 -6.258693646945548417e-02 3.028590464973270405e-02 5.224566110497952387e-02 6.671850825626350623e-02 -3.123807752557075657e-02 8.534493644712007332e-02 4.792450311430716814e-02 9.970177049048579987e-02 -2.236038487691198104e-02 1.012939507184836690e-01 5.493428978958438819e-02 -4.762944323023978604e-02 -2.311436049551768637e-02 -8.728859854061930823e-02 6.763627245930881049e-02 -5.159147662869068701e-02 -8.417727677162863825e-03 3.105358580719487852e-02 -3.150340855180307903e-02 9.783086592043380159e-02 3.675816589206573615e-02 -3.121700594364318349e-02 9.838292712792466588e-02 -8.022820017010282023e-02 2.976064499860137796e-02 6.241221838591493043e-02 -7.691174996975354283e-02 -9.816339403965765320e-02 -4.786190660924516393e-02 -2.798548417620316808e-02 -6.719876263748819634e-02 6.263948765454073475e-02 6.205578268472383002e-02 -6.698573956700525078e-02 1.074894401334488755e-02 -5.961897505923667573e-02 -4.033977076044163723e-02 2.191703716190777571e-02 -9.533819513765931508e-03 -3.252188217797192388e-02 4.072684132558537784e-02 7.312328843613160115e-03 6.954151949078303530e-02 3.215675983582417206e-03 5.018218096493202995e-02 1.504031311887687669e-02 -5.015297569486410617e-02 1.505561594103257614e-02 4.414946152012074257e-04 -9.474684923699197570e-02 5.746417277346212854e-02 7.653952298720516356e-02 -4.378387948574322119e-02 9.978834219460087918e-02 8.743071676296844397e-02 -7.998989838461721680e-02 -6.956244094132466027e-03 -9.633394248770335566e-02 1.577809403074703978e-02 -8.023196664092870078e-02 -8.993334053829583896e-02 6.198403820126844807e-03 -5.966653550365418751e-02 -6.061046661167199257e-02 9.750233273922699617e-02 -9.088640067724680638e-02 -8.388334125931563856e-02 -6.332723008250398800e-02 -2.137608691840079192e-02 8.906901065729172159e-03 -7.288667566436024536e-02 -5.753727342724931221e-02 1.488029442916660901e-02 -3.866942370963701719e-02 -7.356020417299356795e-02 -4.727394956321492175e-02 4.605311379409187528e-02 8.745178787582205682e-02 7.827852880666313906e-02 8.259115565984306850e-02 2.839429154152691911e-02 -2.753609498949960779e-02 9.485046493283397218e-02 7.674669363016899115e-02 2.427901699448489076e-02 -1.047609968019878532e-02 -4.641987262834858241e-02 -9.048907990898699683e-02 -8.970327788788873269e-02 -9.486864466220712444e-02 2.399829786150577474e-02 5.434152443655738962e-02 1.035727486857151713e-01 -4.247259803319453769e-02 -5.497688994640587828e-02 6.510315496701257754e-02 3.243696160717501192e-02 -9.401926821035613835e-02 8.355579313282401888e-02 -7.942737400672875148e-02 -4.456151331398186012e-03 8.708640351535171242e-02 -7.533824592106562468e-02 -8.349019860219046574e-02 2.348365894923461206e-02 -4.666610730199657539e-03 6.144728511116157726e-02 5.673370104347490173e-02 6.375062056512809106e-02 3.321000039740122645e-02 7.536897815623616603e-02 4.392820451089936296e-02 4.431074083343695957e-02 5.208116010970176291e-02 7.908711605069275452e-02 -2.089866946244585758e-02 -5.844865224186277658e-02 -4.969286519118511214e-02 8.548194905987866604e-03 8.139576085574348752e-02 5.466186034863604326e-02 8.984273105078469102e-02 -9.648403762317372956e-02 7.851918329342871816e-03 -9.702160636823878304e-02 -7.042458503685701532e-02 -7.319857848475541662e-02 -5.564590591717107071e-02 -2.280377803533240044e-02 1.964513283109165648e-02 -5.882455394463219356e-02 -4.317878134034858900e-02 -3.736629985029338297e-02 -3.219770567001754152e-02 7.318518528244941090e-02 -1.357579886123390367e-02 -6.211383133172601427e-03 5.184502148468240340e-02 4.966653762039705336e-03 9.591928126107826524e-02 1.108291701922460154e-01 5.386102316414155544e-02 9.362211773573354823e-02 -7.302607131180330335e-02 6.723873771255156617e-02 2.113546035494006520e-02 1.095207372094597446e-02 -8.864332253145981722e-02 7.466379149576322927e-02 1.174130058751102039e-02 9.226253598174395665e-03 -1.242811618065949378e-02 -9.014988578839001898e-02 -4.324049082117591147e-02 -5.194846523664557736e-02 1.461643317945643568e-02 6.286970125860277814e-02 6.352006826516785887e-02 -2.367528886584987710e-02 -3.422244082241176349e-02 5.224359565971205266e-02 -5.249768354951449278e-02 8.831853260845524967e-02 -6.131954170268564402e-02 1.171570365134596767e-02 -2.623665570130201755e-02 9.146815991756619690e-02 -1.029579131849057624e-02 5.816095085855864377e-02 9.195188564604785120e-02 2.073583597405418213e-02 5.644663832824124011e-02 8.819456317862486849e-02 1.615476530429075033e-02 4.182497029514683530e-03 7.575717991174227284e-02 -8.888435552963384889e-02 -2.940264094425955321e-02 -6.635360795018037383e-02 3.429858573413139405e-02 7.655220681985404688e-03 -6.590774010758590484e-02 -6.083953191957113676e-02 -4.839837078957058558e-02 -7.966480675975599890e-02 4.971351783418793968e-02 1.297622644692452386e-02 -2.198442538915515096e-02 -1.178198977450497023e-02 4.981042029296095519e-02 3.620422362534983507e-02 -9.130108548995552464e-02 4.714073917688832438e-02 -4.955028964720264301e-02 -1.171656689728788059e-03 8.820352790196668569e-02 -6.912251576855536761e-02 1.699335409719500076e-02 8.011135745460562507e-02 9.817370732073033013e-02 1.614922122497735452e-02 6.981582504829632330e-02 -2.399582571364609548e-02 -6.648140554768218469e-02 -5.918118817219500394e-02 3.125276522587500799e-02 4.417747534722847591e-02 -7.123707283030637077e-03 -3.770204873318151045e-02 -6.303390483227666596e-02 1.728088692635170592e-02 -6.549009575799678504e-03 4.835252846277194108e-03 2.913937872236185833e-02 -1.393830597127190124e-02 7.761734393050984115e-02
7.745937638117028623e-02 -8.908462003582762190e-02 6.360371775739778744e-02 1.856802543573707331e-02 -4.640091556076442539e-03 -8.448936264417720998e-02 6.483675198675693807e-02 5.059440096093235917e-02 -1.423811236814449821e-02 4.460013604566737122e-02 -4.373574637758724515e-02 -4.122013136653988365e-03 -3.458576233569945341e-02 -5.149390828702313933e-02 6.701641485257235631e-02 2.036433303456403401e-02 9.185964243144180419e-02 3.457108108049029155e-02 -1.079670844558933418e-01 1.318243438672414211e-02 1.912704770217961772e-02 7.535338360181381701e-02 -6.072160116197506535e-02 -1.060335890172345655e-02 8.018475569968122607e-02 5.596677320883793050e-02 -7.812474339530275924e-02 5.027875193503300588e-02 1.804432908622675621e-02 1.107048992803026655e-01 -7.875918654228794558e-02 -2.590040732045878393e-03 4.543947976412011924e-02 4.623381288839772951e-02 1.589765782592050467e-02 9.000596144050543312e-02 -4.428503973645858682e-02 -4.570840183861653999e-02 -8.515059416424469729e-02 5.377805380274044977e-02 -3.558966188096971545e-02 9.011436664644632138e-03 8.906534379078857866e-02 5.871593392945644030e-02 -2.186778626301289375e-03 7.018206138448900011e-02 -8.009457399395533694e-02 8.203975982500286146e-02 7.201030916741429921e-02 1.440092069908084985e-02 -1.990830909195837398e-02 -3.902761013803172224e-02 -2.385567639280003135e-02 -2.621513786888236830e-02 -3.746799258270808695e-03 9.420278353246185066e-02 -5.042975865224293835e-02 -2.256134986022886174e-02 5.560692277259243754e-02 2.919924968768825013e-02 -1.050873933239144381e-02 3.694412104979701711e-02 -2.690816610599720132e-02 -1.062024499391614474e-02 -6.401075217593096833e-02 -7.329353455756854041e-02 6.099120934191422372e-02 -7.203672399149108063e-02 6.031013180841773152e-02 2.248186004546555428e-02 -6.812677881881676334e-02 2.367457662549325367e-02 9.421102719983540097e-02 -6.449408970830793064e-02 2.113324110012473889e-02 -7.454571546391784709e-02 4.410804424249497452e-02 -2.560972169341498017e-02 8.392046362708360796e-02 4.958396726866603349e-02 -1.018649019994976590e-01 8.570897918787553915e-02 6.902293148767542352e-02 -5.499406410458278216e-02 3.067773251126796816e-02 4.119910898624786627e-02 -4.922794096863822993e-02 2.418756020530999501e-02 4.263510797911182482e-02 9.185702505022945441e-02 -5.340037408147647185e-02 -3.954005816980057930e-02 1.228708641105959176e-02 -2.123552087061646512e-02 6.348891093658644291e-02 -7.493226007360007102e-02 1.117057959787668836e-01 5.170076455481319860e-02 -1.134202130407331761e-02 5.081102108383108579e-02 5.120389459186432818e-02 5.333464145692422970e-02 4.659080255884291699e-02 -2.640812164080776070e-02 7.911290431556755598e-02 -1.020728307548680325e-01 5.085973860102004085e-02 -8.325062047700015899e-02 5.021831521250474245e-02 -5.453192014441740620e-02 -7.801497256818791526e-02 1.195044888614182725e-02 -7.088170840753348079e-02 4.570089979925649748e-02 4.891114582739135297e-02 4.807376236784317164e-02 6.113786536941954314e-02 7.768457652717596085e-02 7.285252216900339750e-02 -8.359054339072978512e-02 6.400998372014003734e-02 1.987964520543287691e-02 5.171503175312944928e-02 -8.012184545521168488e-02 1.022301465683197151e-02 -3.119052460010010575e-02 -1.658212164377507666e-02 6.619153307849599821e-02 -6.142895905940134321e-03 5.614719763329201890e-02 -7.800708269435988051e-02 4.646644012741751872e-02 3.430458172450198163e-03 5.471785405396186602e-02 -3.563862810389688968e-02 8.431270731541949670e-02 1.415048866421708684e-02 -6.531291641681086224e-02 4.222006118174441436e-02 2.643212709766621163e-02 -4.803626622937408330e-02 -1.534935883697520140e-02 -6.107035437586780247e-02 4.567162250471133722e-02 7.960850244605702231e-02 1.258310470406825282e-02 -3.917280284902611293e-02 8.929140674321431326e-02 4.514062185357634732e-02 4.199048359236409733e-02 -3.886345460296281723e-02 -6.754879146806207213e-02 -8.824971555129516865e-02 7.639353317410264854e-02 -3.924826257720094580e-02 6.164203572103873867e-03 7.838830265644615436e-02 4.808093317938121752e-02 -6.233654899718118342e-02 8.232350892535866826e-02 9.677810766930022846e-02 1.894797633775111359e-02 3.056428892303860063e-03 3.190625330304694418e-02 5.274515804459457835e-02 8.059938790526506580e-02 -3.918648576361654506e-02 -6.750291457503898758e-03 6.444942800903993851e-02 1.239355826650549719e-02 7.000475686469291581e-02 3.723802154985855067e-02 8.153132846486352281e-02 -7.536391883140566676e-03 -1.562665215421360151e-02 -9.921042808493234222e-02 -9.027041586499807979e-02 1.980907506658453887e-02 -5.320865890824189731e-02 1.149808515923854066e-02 5.640305160631506332e-02 -9.319686101917744325e-02 -3.485196353496121391e-02 7.284036357259356109e-02 -1.065512046213325653e-01 3.191164326479005442e-02 -3.616654202033361964e-02 -9.941003652635702070e-02 6.074216606877853170e-02 -9.562005343373977673e-02 8.268280642587977347e-02 -4.198499532332008316e-02 7.009747163371339573e-02 -5.125039222265498351e-02 2.955304041177714280e-02 -6.298460476181719572e-03 7.499664848286588179e-03 -2.463501144421388275e-02 -3.026771587946291628e-03 -4.934926038680660654e-02 -2.164627832824222303e-02 1.566919101290573796e-02 -3.646812506160641322e-03 -4.041122836126986168e-02 8.449508700328732524e-02 6.631733435263013898e-03 1.585238460549320827e-02 6.499129690700414241e-02 5.156946921990476773e-02 1.519404091981182113e-02 8.538378244766205161e-02 6.444247870871532002e-02 -2.229743978622054229e-03 -8.035821964162431774e-02 -6.501000734890058363e-02 -6.982267531643537861e-02 -6.135780210417714209e-02 -2.562164375089565072e-02 1.557791570676582416e-02 -6.670392363574387251e-02 8.300306718889544078e-02 -5.183814898617579436e-02 -7.245698935926311868e-02 2.198443108441115734e-02 9.398028835590493957e-02 -2.946121752192118123e-02 8.327818177442868064e-02 -3.174913586049860070e-02 2.161757652594484616e-02 -8.047410070365608459e-02 3.908939874755217037e-02 1.172106895105245149e-02 -4.162008889162252534e-02 2.246552596007982475e-02 7.489747027136961499e-02 6.658901095718385010e-02 -3.095126301916628977e-02 1.898314966191274114e-02 -8.983179916719248592e-02 2.741010818618849765e-02 4.797912056085917171e-02 4.116730241676713753e-02 2.769957290324637916e-02 2.898820076243803848e-02 -7.965135224297138772e-02 6.132364537792743889e-03 9.317869444120531475e-03 8.292279949094562286e-02 5.174518017861996083e-02 -1.076301111867667692e-01 5.166821299261164721e-03 6.029035323172683702e-02 -6.912670982452753798e-02 1.737638333513800287e-02 -1.381021482504855846e-02 9.212115067431668469e-02 1.789749776839539078e-02 -4.793466234965433614e-02 -1.508636607603986053e-03 9.335250241000361826e-02 4.973664000689358156e-02 -4.706699146165322506e-02 4.015030941032010289e-03 -9.841195875007285876e-02 3.480359955287894852e-02 -8.687390649445603241e-02 2.398939516795452198e-02 1.120349001622688266e-02 -1.218389934594715264e-03 7.122743225585617850e-03 -8.495994151586779009e-02 -8.330220197499675627e-02 -4.045883526136102686e-03 1.089469445759975869e-01 4.688574478229128040e-02 5.037602364371764063e-02 -9.641876025088501334e-02 9.607724284526864000e-02 -5.989113716004119958e-02 9.335517111820312852e-02 1.416051027335666138e-02 6.361176021206478570e-02 -5.155351493519062800e-02 -4.662089499264272102e-02 -3.732850425595354155e-02 -5.575755999150721481e-02 6.820776566750305636e-02 1.995147185621191574e-02 8.946559557342594060e-02 8.573042294108532135e-02 8.599142250940608467e-02 3.691591873615135411e-02 3.737441136264857411e-02 7.270382279623696653e-02 -9.344980560453050589e-02 -4.034080888285633548e-02 6.315185993762412187e-02 8.919655968923140277e-02 1.525328843069819742e-03 -3.988664909651338034e-03
3.480468443461256361e-02 -8.548001437383281886e-02 -4.200076069509636398e-03 -3.216427554141326056e-02 5.653871405520096566e-02 -9.330481695486068927e-02 8.759367236101286980e-02 -2.399617938175936313e-02 -1.057461951848383541e-01 6.610996142933533992e-02 -6.904817623255583153e-03 -3.970675344277420360e-02 2.571205464830116430e-02 -3.361093824642905764e-02 -2.208260358745000110e-02 -9.348230573359896101e-02 -8.058909798302489602e-02 -1.364152765589287178e-02 6.102911935620355943e-02 -3.905908761648653471e-02 -4.691932114439788942e-02 -4.165432487362570602e-02 5.799937233147111487e-02 -1.667881799950302404e-02 4.117888789386266180e-02 4.995577249396620720e-03 -9.217741762757165891e-02 -6.545447623340505672e-02 4.152837667635946722e-02 -2.730241527702529508e-02 -9.620044160090490681e-02 -4.572714929114110594e-03 -1.122164495378369098e-01 1.627072914313697563e-02 5.457140402405537272e-02 -7.005370052785378499e-02 8.473121783064506418e-02 4.508685056097341826e-02 -1.090006235888996144e-02 -6.613821630420727016e-02 -7.705138314199030947e-02 -2.737470297785544321e-02 8.602812367591835055e-03 -8.624987680044468585e-02 -9.259291644245734587e-02 1.569573972112461857e-02 -3.310815908007794239e-02 -8.046830134172480720e-02 -9.061304650703472241e-02 -3.940810454018450065e-02 -3.240410457093730739e-02 -7.602311680727331933e-02 7.582619335526528948e-02 5.780348487434072008e-02 -9.024457883947877013e-02 1.206122254590459575e-02 1.119935951175269132e-02 5.665183385627843571e-02 -4.026699034329205701e-02 -5.189853864239715731e-02 8.402223465201313912e-02 7.358125185481696751e-02 2.950559341176712397e-02 -5.436441376297041633e-02 -1.479728036372838368e-03 6.585642626973306490e-02 -9.826313150760193627e-02 -7.483411898727801957e-03 9.505841420513228002e-02 -4.403021569212541703e-02 -7.650874857888983159e-03 2.223841544390448705e-02 6.889752815864676194e-02 -7.926700859028218416e-02 4.354333498165217572e-03 2.132196986872971628e-02 7.607245889936886662e-02 7.869314855672202014e-02 1.523926473593154897e-02 -8.272639606871461104e-02 -7.802858343211785397e-02 5.689312092850589558e-02 -6.030639287687830988e-03 5.851893798699257798e-02 -5.385062185773284438e-02 1.178165451130770876e-02 -5.572557926310879595e-02 -4.931720944860782524e-02 -6.913680043097560068e-02 3.401805362793941523e-02 1.001035827464134657e-02 3.501394841639295791e-02 5.619743387861254186e-02 -5.323886929429024611e-02 8.810236563857412606e-02 -2.806288447196635116e-02 2.742192346616416365e-02 -5.223144619662709737e-02 -4.630171958007840705e-02 -3.804286588743442665e-02 -8.721665726828621568e-02 7.709231820766951349e-02 -4.075575586522001831e-02 2.717787692888973348e-03 6.187317117701705838e-02 6.567107888323577003e-02 8.749351036916382107e-02 -7.068217610366078762e-02 3.014723357154330124e-02 -1.952585001193715437e-03 2.841164069882656795e-02 6.507943981335222172e-02 -2.001866523824813102e-02 2.664262768449324539e-02 5.376774120764377107e-02 -6.877452136952379169e-02 9.449418977803569764e-02 9.617885446931491444e-02 6.490173819825577339e-02 5.695209173273144826e-02 5.530487533791667021e-02 2.094410139179257724e-02 -4.877457977787599125e-02 6.586032546888433148e-02 4.281405008363298875e-02 4.547163847405373549e-02 3.480224565125191946e-03 -4.670911329724149880e-02 3.772293291864391857e-02 -3.219358776012970491e-02 -3.624448807149066934e-03 5.514872326916379214e-02 5.664663191719136737e-02 1.236976812990506561e-02 7.428166239912953328e-02 7.177340001539572745e-02 -4.871796348402761268e-02 -1.033746527947516369e-01 -4.267449863574237362e-02 8.200219359287935772e-02 -6.526124895689468242e-02 -4.608791229494352965e-02 -4.562202700133365096e-02 7.597832819014871224e-03 7.767794975414905878e-02 -5.318725398065297233e-02 3.608013086618367532e-02 -6.009549092016112232e-02 -2.390100893948161193e-02 -2.532508746370080652e-02 2.052620805522864869e-02 2.957563408070625760e-02 5.185581545957795857e-02 7.649566177427888358e-02 -6.121319088817345211e-02 -8.860211967610485961e-02 4.800491105516913742e-02 -8.334626976946890586e-02 -1.483700311635383767e-02 -7.465704845813718460e-02 6.706020760617485699e-02 9.994270929237575318e-03 9.253142951768482394e-02 1.561468975623769156e-02 -4.579421476156466525e-02 -2.277101412316218099e-02 3.682528868810536551e-03 -6.708503059774620358e-02 7.183453990208180096e-02 -2.487800784728381315e-02 7.462215368145221073e-02 9.481645901759604145e-02 6.300621614691441497e-02 6.685327960427382699e-02 -3.200217189975297638e-02 -4.721415167293554344e-02 -6.873343857744833307e-02 1.126139240044119090e-02 7.677789884522104313e-02 1.789762058921248386e-03 -5.831905941549410388e-02 7.754778240503304443e-02 1.027476875868593847e-01 -3.981227115040839037e-02 -8.509180314022016245e-02 -7.105807772471257541e-03 -1.108403923316131218e-01 -7.775373259502561807e-02 5.874101146934243567e-02 8.204787247459990884e-02 4.430902743469032623e-02 2.919380730406031729e-03 -8.770864076181092428e-02 -6.374863578837090816e-02 -4.655476488577119099e-02 4.468438144710831089e-02 9.122771061925780134e-02 1.633208830763476990e-02 -4.718559042662882896e-02 5.250756524046477913e-02 -8.989128486066219614e-02 -4.963309242224164808e-02 4.516292090258906822e-02 -8.175708942118423139e-02 2.208070221852177772e-02 -4.138453884431388119e-02 7.974200564580705142e-02 -5.567073548227968738e-02 5.814910630098714915e-03 3.195629968165300712e-03 1.448946042798586117e-02 -7.571906307332955388e-02 -2.236429186124648093e-03 6.567604649686509255e-02 4.481223418844293427e-02 -8.237181930056907894e-03 6.254495461652598287e-02 -3.878561332060746769e-02 5.787969719318114548e-02 -9.249040776052790125e-02 -6.972221434352966762e-02 -4.072787930509599863e-02 9.092524038791276186e-02 9.323654398518030351e-02 -7.609289564627901709e-03 3.544363909593957473e-02 -1.227254548393096577e-02 5.727272871632549389e-02 -1.645190893326623632e-02 -2.335639473648887590e-02 -2.690003887793713383e-02 -3.040175022977557526e-02 1.003503187832677640e-01 3.066659431747085010e-02 -8.577805309256149313e-02 -1.362975881380634052e-02 3.012843095091888301e-02 4.342300566606722978e-02 7.842266519640732347e-02 -6.070465385386639851e-02 -8.805200725677715667e-02 7.512297598832062828e-02 9.307204635126017922e-02 -4.804957941126069415e-02 2.671831118138415923e-02 -2.644279436538363864e-02 6.862152176330166276e-02 -2.839810800164647639e-02 6.812803208565425261e-02 -4.711147710654606073e-03 -5.154472101589742394e-02 7.522175556902188642e-02 -8.208650210056828156e-02 3.913885376090203011e-03 9.690244038158414563e-02 -4.609392123943430869e-02 -5.218901667210523732e-02 3.917102722691116062e-02 4.888811353422394673e-02 1.786817762055491546e-02 -3.308738413765745234e-02 -8.611291826189619580e-02 2.716202987694133625e-02 6.383413054644217210e-02 -5.902214276275020988e-02 2.555914957021333117e-02 -8.405628344186083512e-02 1.282954027289262208e-02 3.591223055919973844e-02 -7.557089751061991934e-02 4.963768584065769013e-02 -9.974757960273322732e-02 -7.342975527030765059e-02 -6.040653358464465744e-02 -5.504469895046193439e-02 -4.559600940410524911e-02 6.082467250818263810e-02 -5.468974970862423846e-02 -4.795501768311963287e-02 1.771513442680795400e-03 -1.831427472015338676e-02 3.702104008030126375e-03 -6.441955433198734426e-02 1.060268649564770956e-03 -9.735891772034582781e-02 8.403354704455366642e-02 -4.983704367388772094e-02 -1.597971761364871610e-02 6.694897975370470156e-02 -8.518817008407326974e-02 8.070720148002545960e-03 3.905380665794928874e-02 6.105973125603070262e-02 7.844921443957880713e-02 7.308147721924038165e-02 3.931234457669238735e-02 2.573671104255301559e-02 6.619278481593887653e-02 5.373711654626905226e-02 1.173950187891497059e-03
-9.265833929519512457e-02 -6.170358848250702410e-02 -7.411026175286394846e-02 -3.114306287534886544e-02 -9.648891974103107616e-02 -7.252925520544802052e-02 -2.006419658427128355e-02 -9.211654192212107017e-02 -7.268374036360565615e-02 -3.314215884106234966e-02 -3.864888501395510184e-02 6.877701545391820548e-02 -8.185697193939850402e-02 -8.171829247418477271e-02 8.347176935181951918e-02 4.320704394226470429e-02 -2.641639535489686066e-02 8.805077635971048089e-02 8.338951767677242610e-02 -4.582329780803222341e-02 -4.025786319130177093e-03 7.191267133938770983e-02 7.084979000882231370e-02 -2.127117714395746276e-02 2.041227528425984886e-03 4.815709665154065122e-02 -7.873986420392958818e-02 1.147232946449322222e-01 -6.730213411375686461e-02 8.639024423295273147e-02 -2.467105329795591696e-04 -4.721033336530244817e-02 5.690168508840148798e-02 -8.397511435723473139e-02 -9.250648074549264188e-02 -6.035102994013902267e-02 -3.545407609138358229e-02 -8.080277218447358412e-02 4.605438351485879184e-02 4.739951990276339983e-02 7.000393333957516395e-02 1.037932108251686004e-02 -2.148171618290128926e-02 -8.897741213674283806e-03 -5.709913543418981829e-02 1.918761825805415794e-02 -8.968912471826817612e-02 -9.233882947511272421e-02 5.384685155286465102e-02 7.421427720923554072e-02 -5.612888541789431973e-02 -7.959517287569070620e-02 9.352941463618283380e-02 5.934128450233927543e-02 -6.640575700996448338e-02 -1.028472286859762608e-01 3.422846254655857734e-02 -8.923239986980453786e-02 4.831054894347153184e-02 4.047580781251380877e-02 -2.138697661034975536e-02 -6.972346800411412422e-03 -4.515243621581427336e-02 9.356551523309604435e-02 8.264636981195910836e-02 -7.158885476769992484e-02 -2.805773530571918986e-02 -4.843757424138320222e-02 -7.606066993291614453e-02 6.233322889577404963e-02 8.786095119181791535e-02 -8.826977522738191362e-02 6.881783287104678570e-02 -6.713467056009032874e-02 -9.740443731344110290e-02 8.917592771103594051e-02 -8.215932563545484679e-02 6.564230021688700900e-02 2.279461584593323736e-02 -5.633713573707424538e-02 9.422357287897026312e-02 9.342859267184208671e-02 3.550021914655088207e-02 -2.243742591884558685e-02 -8.668296004678842370e-02 -1.006952288957883995e-01 -2.792128828751806735e-02 -3.307749618471376996e-02 -9.558178762158153763e-02 4.657382525852835076e-02 -3.692731905957820360e-03 -7.112054069435416737e-02 2.813053822179353500e-02 -3.189884451998523107e-02 1.099848833813680919e-02 -2.307583764129550463e-02 -4.829974228383387969e-02 5.384842015176125735e-02 -3.009407567172831671e-02 3.191803163159234041e-02 -4.442202976491115701e-02 -9.250531739147138666e-02 -9.805225534153200195e-02 -2.943307123408166887e-02 -4.205308884607551756e-02 8.324494838555408782e-02 4.563409072947204048e-02 -6.407815596436054750e-02 4.626526824771987068e-02 -4.290677322082857986e-02 5.778882498875600321e-02 -6.526218531894044383e-02 9.471552601321495124e-02 4.714434299936089839e-02 1.313043441015059737e-02 -6.662032827509592470e-02 -8.007167915749498210e-02 1.074542609830388962e-01 4.260811823436308488e-02 7.789480141407256752e-02 -4.700307289122240828e-02 -1.058498288118320529e-01 -4.054085433225718821e-02 7.759159361015787425e-03 1.007543276448292918e-01 3.307355175654185658e-02 7.579178957410458162e-02 -8.309518702223206432e-02 -3.909898949410899743e-02 -2.685111884605149643e-02 -3.566745032596258663e-03 1.762521342033118027e-02 -8.960233472050660453e-03 5.147408200772419368e-02 9.809197023304298824e-02 -1.955204718421829635e-02 -8.225665619689848107e-02 4.234249955233867352e-02 -1.735539453868763238e-02 4.039740433395506980e-02 -6.832731394246516210e-02 1.152754973979765174e-02 5.588328941285639756e-03 8.800044170627898885e-03 -1.588030824578283429e-02 1.874629799004356306e-02 -5.870035788639293983e-02 -5.164800520191467625e-02 -2.486428203012146926e-02 9.689643409907136573e-02 5.386939013991782349e-02 -5.931898441544194989e-02 1.149913941905714720e-01 -1.056687622828379747e-02 -4.148834492118310541e-02 -2.631361557488554742e-02 -7.124854054036579287e-02 7.074250356703022657e-02 1.385916550738816068e-02 3.751671617743599502e-02 4.886846540544185352e-02 7.738282727286323326e-02 -4.589181937259518423e-02 2.164258733046026117e-02 6.682013041838308354e-02 -4.688775995194678636e-02 -5.889799023074446249e-02 3.788982860412506634e-03 6.422850401156149358e-02 5.067989271870864537e-02 -6.755719020076557391e-02 1.429003473714374889e-02 1.432543264908101195e-02 -3.413836156632123198e-02 4.600400557284990005e-02 -3.174499201010286958e-02 -7.447313984809093845e-02 3.399086472145675802e-02 -5.601379067802249312e-02 5.848960938886794969e-02 -6.999383901625534643e-02 2.655649053496110176e-02 1.140345346798905465e-02 6.364361731957397794e-02 -7.937114977947423711e-02 4.634023249139153366e-02 7.092074846099739871e-02 6.630751222943068179e-02 -4.258504485682995666e-02 -3.828363745902974707e-02 2.976631402022296424e-02 4.399418432374008203e-02 7.162835538610121122e-03 9.545468026770158668e-03 -6.317265526208046267e-02 -4.541475803197272260e-02 1.401151556470593001e-02 5.962306017475522274e-02 -2.336486680221937402e-03 -8.006415247996284679e-02 -2.334028007330995330e-02 -7.652394013605436085e-02 -8.493520001956006427e-02 6.760119325428408377e-03 -6.493986591157788202e-02 -5.672449929031522092e-02 -1.994680993180574999e-02 3.031977848859474661e-02 3.446329608914284331e-02 2.606107085338600290e-02 -5.267947555173263519e-02 1.838952529550777135e-02 7.521930796446106571e-02 -1.411653281910026092e-02 -4.095590924763058832e-02 -3.135289922404348867e-02 -8.103564038157784477e-02 -5.908466796110312114e-02 5.367741978552491300e-02 8.888583409571465532e-02 8.575848274570116447e-02 -5.651061629901413252e-02 -1.005825786527830834e-01 -4.789001817053321897e-03 -7.959175810178151234e-02 1.739361566889934766e-03 6.110357950658583392e-02 1.137903032552599336e-02 6.234867318346246773e-02 -2.272074240440566384e-02 4.343810927144470257e-02 -4.376578135863090635e-03 7.392370556322579167e-02 -6.793583494600556605e-02 6.893809720705511290e-02 -1.787258400186452975e-02 1.868068931636104489e-03 -6.591615692872423819e-03 -9.164940530252929651e-02 -4.889195363612444667e-02 4.986689513213712899e-02 -4.894005856601732485e-02 -4.626358642994194033e-03 -8.849453421615574578e-02 4.528615326865469137e-02 -6.239305194330049126e-02 6.413521264358779117e-02 -2.344890103775811030e-02 2.126658862809648401e-02 -2.196773108758575885e-02 -8.057434316996993362e-02 -5.892266313090877700e-02 7.321773354572282122e-02 1.640658904343838750e-02 4.128186399166020037e-02 3.724124458456851139e-02 -7.649003052070463965e-03 2.562124116900810211e-02 2.720185533124407085e-02 -4.025158629033815522e-03 4.130134777660871698e-02 1.644944341514164785e-02 6.673533697913446375e-03 2.302142206390187310e-02 -5.789285684505880020e-02 -3.551820751441689406e-02 7.908646479583932021e-02 8.347500155749475181e-02 -6.044069514272902566e-02 -9.849873765051154681e-03 -8.568053283342927373e-02 6.984296119603827790e-02 -2.917142498908198781e-03 4.033043935499786015e-02 -7.282112610566278399e-02 -4.345432838847723689e-04 -6.422678291478435553e-02 3.830355007764623537e-02 -4.089096404990369416e-02 -1.001423784335580547e-01 -4.574497524849124516e-03 -9.493802458463534988e-02 2.416668679033842984e-02 8.899988485848362579e-03 -4.510669642546182717e-02 2.950065170103378931e-02 -8.431016881146152775e-02 -6.866636300046226327e-02 -2.337510475046642583e-02 3.479578772143312321e-02 -5.159164202510143141e-03 -6.494525191589163061e-03 2.147975287943080722e-03 1.131748257572024255e-02 -5.166281990030620330e-02 -4.025831962489236776e-02 -5.867249306603083275e-02 7.311110046662322448e-02 8.747587258487096729e-02 1.807736532229473753e-02
