6.479168514209683985e+06
3.067603635889635189e+05
2.447952390744946897e+05
8.005257298170357943e+06
-2.208080520730777644e+06
8.801516298539587297e+03
-1.361720935734931827e+08
1.053349624501741782e+05
1.113941422925054878e+08
-2.027930129098932724e+06
-7.271980969669443369e+07
2.754113746212983131e+07
3.001676060842968291e+05
2.841315875106407329e+05
-5.935320984281018376e+07
-8.138080096714645624e+05
6.016780798447112320e+05
-2.961633125312811136e+07
5.130935477706480771e+06
-1.573898222761632439e+02
-2.176849326413760333e-01
-2.017023274702502191e+08
1.531088551697396860e+07
2.084834499931935221e+06
-4.006103041320633609e+06
1.316157511987894773e+06
-1.952716969935333729e+07
-6.885370334135347605e+07
-4.429427641343584284e+06
-2.689635838981377333e+07
3.412076619995325804e+06
-1.304410114712449387e+00
1.157737957633762620e+06
-8.553589710694795940e+04
-2.874043927741577476e+07
1.805658327867540717e+07
-5.943495943528152257e+07
-4.789328104978684336e+06
6.114792712333155578e+00
-2.987285303542516828e+08
6.350314647573871911e+07
3.931035268240168691e+06
-6.132662751561425626e+07
8.965527444617634956e+00
1.794202625543139577e+08
1.220476595478434861e+07
3.778582567249108106e+05
-1.604196743595951200e+08
-1.926762247741357889e+06
6.105179786545404792e+07
7.021294160397467203e+06
-8.856376599227930419e+05
-1.122259108301161826e+08
7.802843531217757612e+06
8.140959650659149885e+07
1.337262127102430910e+07
1.227251756219233794e+05
1.598178089600899518e+08
6.045765281326557696e+07
1.850319878821774572e+07
3.606737945399817824e+07
-3.395839582334011793e+07
2.148489843868049234e+07
1.165336244697169168e+06
3.255526165274424955e-02
3.475186012717953920e+08
2.344982988745734468e+07
1.535136429174453020e+07
-6.099781568015391620e-02
-6.276650544524016976e+07
4.119332284431409091e+06
-1.133796230905882269e+08
-2.844025113430760365e-01
-4.898092773295827210e+06
1.227446058562823236e+08
1.775690689529055953e+08
-2.573408821861387193e+08
9.995198860840395093e+06
-1.099411018226037174e+07
1.381939482449882925e+08
4.510583133014546547e+03
1.783356314037442207e+06
-1.203319239623004198e+07
-9.593958398408389091e+07
1.170435613392832508e+01
-1.750089691576386802e+06
1.638447079822244644e+08
-3.327298381600034237e+07
1.417344123637718707e+07
-3.013198662496655578e-01
5.833340516461533308e+07
1.297985747269832641e+08
-1.510127186902018785e+08
1.180150101969092535e+00
4.847848819558926334e+04
2.173310857596635818e+08
-3.623298316865562461e+06
-4.284422933732365258e+06
1.627580697366337059e+06
1.845896858665061183e+06
4.416999709554432333e+07
1.341966541091202991e+06
-6.919707490689605474e+07
4.870197716166377068e+06
-5.454389030026912689e+07
-9.028037999641347344e-01
-5.362938273131716251e+07
1.890629014324399829e+07
-2.623217868011295330e+06
-2.334494832183933817e+06
3.103207696460099891e+07
6.243835826195979118e+07
2.061375180685913563e+07
-2.359526677244408801e+07
-1.426798419274997115e+08
1.409481615241363049e+08
-2.242978427902993262e+08
-1.108354028353346884e+08
3.697319060023462889e-01
7.032705289998511970e+07
3.373454365898719430e+07
-2.580929396288710833e+07
1.249933820184695423e+08
-5.169684918236418068e+07
2.773718302239693401e+01
5.435039201661252975e+07
6.961368421348015964e+07
4.677732154609606601e+06
2.724197569795417041e+07
-2.028381704893773496e+08
-1.877673486982446516e+00
-1.854961094176863432e+08
-1.593212289675148204e+05
2.059898500084167416e-01
1.588615516264554113e+07
-5.884797292251417786e+07
-4.152084120083495975e+07
-5.138843547260415554e+07
3.420155799188331347e-01
-1.951043995308290794e+07
-4.253638058198501822e+05
-1.484735482217157260e+06
2.907281789359094546e+02
-1.900227290368995164e+05
-4.848369934235551627e+05
2.804382382968196907e+04
-1.113820285776245296e+08
-1.429040978057436018e+00
4.983741013017910719e+07
-4.777373275947637856e+06
2.316989546964572668e+08
8.692512351908214623e+04
5.073436541310173273e+07
3.945917361351136118e+06
-2.263947038128729619e+05
1.862267393838575780e+08
-8.270467369534820318e+05
-2.264384645332229162e-01
3.584770519417716190e+06
1.107142774135126770e+08
1.505616579297347665e+08
2.610738038198878616e+07
-4.651265613453103229e+06
-6.899923999933414507e+02
-1.463135912387461215e+07
-3.590557834882974625e+07
4.663209570808842778e+06
1.813245007552199997e+06
-1.990209588395270109e+08
1.073752026485810056e+06
-2.186272971824019402e+07
5.942280499445636570e+07
-6.627776258618017780e-02
1.996224742290460467e+08
3.944256335105029494e+07
-8.274592988591231406e+06
2.000150866060836613e+08
-3.537360797680788636e+08
-7.795551024349752069e+07
-8.306507945731945336e+07
1.561782968586233888e-02
1.135607601576959789e+08
1.605424157423974872e+08
4.184272317020093650e+07
-3.618046087131456472e+06
-7.866624337948648026e+05
-9.910864585186591372e+06
-9.696355827917195857e+05
4.286496147886384279e+07
-4.376266577622004785e+06
-8.837460246263808012e+07
-5.082050091134980321e+06
1.174305544623385072e+08
5.235413399950596690e+07
8.298473579894399643e+07
8.703746881156986952e+07
-2.581486370071095228e+07
-3.617327879207360744e+07
2.846028272519839462e+06
9.784726606454106513e+05
2.413395298610023221e-01
1.192884223281517923e+08
-2.130250346493785529e-01
1.401304152862335742e+08
-1.628804595004280470e+07
5.310133640731559694e+07
-1.001021329718445987e+07
3.582882503083617485e+04
1.294880753267432097e+06
-7.261524656931916955e-03
-4.786093437242816389e+07
2.270663887777327560e+06
6.364779454111934453e+07
-2.298050103987310082e+07
5.224913933336324590e+03
4.778744742518088222e+07
-4.070504414711840451e+06
-9.691206873483979702e+07
-7.005378598074467480e+07
9.979402736848562199e+04
-6.686963913870114088e+07
-1.178703263525164686e+07
-2.256257869016817212e+07
2.418447427305709720e+08
-6.326778037484882772e+07
7.855860018748471141e+07
-2.552322878681607544e+05
2.288433848754378914e+02
1.323079623028347082e+07
2.997770249852851629e+08
7.877627795623341203e+07
6.837651455358624458e+06
-5.567751294108298421e+07
1.887055247213912601e+00
-2.167243444697716832e+07
1.445816896359196305e+07
-4.700181395104344701e+05
-2.002755472127344608e+08
1.317864098294845223e+07
-1.040052925975857303e+07
1.830648633607969422e-01
9.923369994927421212e+06
2.696382680695395684e+05
6.730501383557173610e+07
-6.245841474982517958e+07
4.413177668093144894e+04
-5.302611621654799581e+07
2.578970497946899533e+08
-1.490326538729190826e+07
-4.271182603617742658e+06
7.390962311332385987e+06
-5.246324216006859206e+04
5.393685949352927506e+06
3.459647486193699762e+06
-4.222344365947342158e+04
2.104755040691112280e+08
3.438087577532512136e+06
-9.769975449223117903e+05
4.338926084643748403e+07
-6.185688968308550119e+07
2.303643782941759127e+04
4.638562899893969297e+06
2.806864467569017410e+07
9.733410803542574818e-02
4.207495580194063485e+07
-6.178122096850866079e+07
1.624081285057600588e+07
3.273200758493531870e-01
1.022033420017144643e+06
-6.460036863220636733e+05
-4.100428015334682167e+07
5.343622581623002887e+07
-5.783381348097509367e-01
-4.677117191887062788e+07
4.308345946844451874e+07
-6.975120322869656980e+07
1.298415849711246789e+06
-3.329338111447695643e+07
-2.683423534095963987e+02
9.379397863754671067e+06
-1.327612664211322367e+08
3.080919082862273231e+07
4.772911452057833225e+07
2.369955325260558166e+06
-6.878688908376395702e+05
-1.640619887767900713e+06
-4.242884221887821332e+05
1.111146723507289775e+06
2.405711057547493279e+07
-3.120958076471571624e+07
3.794671746999791265e+07
-2.604101030856820209e-01
5.525945685088457167e+07
5.996326760924615711e+07
-2.833363137963106632e+08
-1.862101644156105816e+07
-2.040259043436329812e+05
1.933275625299947802e+06
2.012626426544488058e+05
3.422168785801175516e+06
7.869491297745612179e-01
-5.905955976114820223e+05
-4.088660814775568247e+07
4.214930707514473796e+07
-1.722344155533571320e+05
-1.488184046611792377e-01
-1.923162562901568413e+07
-4.585023101534768939e+06
8.199321428454220295e+06
-2.335167742562017590e+07
2.517431935930599868e+08
-7.904036378291136026e+07
-6.934299299047779641e+03
-6.720272576001805067e+07
4.452020921395692276e+05
1.142258071610227632e-02
-2.866045746562689543e+07
1.003731423940967023e+07
2.749633761505238712e+06
-6.090339936572264135e+07
8.122161162055164576e+06
-7.363565173495225608e+06
-8.940048826465427876e+07
-6.012551294232135115e+04
-4.462896082220844924e+07
-3.819593087528317701e+05
-6.256837184940281510e+07
-3.204650210894597694e+04
-3.139313899179424494e-02
-7.239545448322413862e+07
7.538339883747613430e+07
8.363050971310114861e+07
5.753757155020742863e+07
4.488154236951904371e+06
2.970191913252736628e+07
3.720790249649155885e+05
4.439572005311097205e+07
1.419413530992530426e-02
-1.325651602199248737e+06
-6.249138668853884935e+07
-2.785314715311543643e+07
-9.470475261723251641e+07
-3.626416700875142217e+07
-5.111237885584546626e+07
1.022328642135700677e+06
-9.347328706709365775e-01
6.362613216782363504e+07
-4.232889164606653503e+04
-9.115261291313355789e+06
2.000196666330215335e+07
9.200619639940507688e-02
1.707886033263604622e+05
-1.468256705800673962e+08
-7.142491314331549406e+07
5.929273736217813566e+06
8.885664178973096609e+07
3.618719249414215982e+07
2.244310778339920565e+06
2.378620313983262804e+03
-1.179374473547547495e+04
-8.366900062521681190e+07
-5.813140307961811125e+07
-8.763404819690647721e+07
-1.038617487250552922e+08
-6.539989261634115130e+06
-5.471110517443832010e+06
4.549686951513534083e-01
2.828186604177093506e+07
1.384028521268996596e+08
-1.279053368463226361e+06
-9.792218014442478307e+03
6.238056934498200193e+06
3.023269866399913095e+06
5.665366915456578135e+04
-9.860397740577308834e+07
-1.556124679874252081e+08
-2.221757315563686565e+07
1.015578485315895379e+08
-4.018473762109177187e+03
-2.045099055726411045e+08
-1.395410896164605860e+06
-1.197771935869353823e+06
9.620899913571010487e-01
4.836398794851265848e+04
1.342453938558858633e+07
1.923171875324674845e+08
8.486053914816310629e+06
-2.435842368047521450e+05
1.121852301508906670e+07
1.988837787418250014e-01
5.475276820056973398e+07
-4.199413466020058841e+06
-3.031513415325775743e+06
1.260820743734538555e+07
-4.358838104800668545e+06
1.401736412014129106e+06
-2.217478675412507355e+07
-3.880441120179911256e+08
-5.533243320749853256e-02
-2.074179555602684021e+08
