-3.848954139424698440e-02 -7.970155740552756218e-02 -5.946732325866141422e-02 -7.546998454017399272e-02 -2.177331170185028628e-02 3.841163041697732983e-02 1.583822546692810820e-02 5.124377337898575711e-03 -7.600376627654439887e-02 -4.320440525211946027e-03 -3.003674745523297537e-02 1.845309094355435109e-02 -7.308304477157402668e-02 -4.651874041409891081e-02 1.927248682901646845e-02 9.923179669145451576e-02 1.430933866543582580e-02 3.385552601450732974e-02 1.697890853495559113e-02 -5.363341117001962921e-02 -2.428047987185603940e-02 -2.917513365469795450e-02 3.295710525393984267e-03 3.874715327525957154e-02 5.391550316386307939e-03 -4.846006642426366889e-02 5.928197523632979665e-02 4.273487530071357759e-02 -5.449936013325210049e-02 8.644062381929966399e-02 5.580691609149241589e-02 6.368617640368082200e-02 3.065503498279354214e-02 -7.042153002482158530e-02 6.981389784953795363e-02 -1.835380984355427028e-02 4.813911824063889927e-02 6.804458867103461983e-02 -8.823763188261282697e-02 8.642822241419627002e-03 2.369907194769744260e-03 9.319815250187649114e-02 9.070117962379690979e-02 -2.495408871936209347e-02 -1.973076529138554150e-02 1.851650025572630295e-02 4.364343997818342230e-02 9.355337335959634792e-02 6.865088796024558515e-02 8.420786910477155718e-02 -8.877376575986305196e-02 1.440107128433451393e-02 -7.552226928988077861e-03 -1.506882917076641376e-03 1.693131663210313900e-02 -6.578161219615077937e-02 -1.765439999740911828e-02 -4.140261180415153591e-02 -6.111861260011432900e-02 1.806878284634542281e-02 2.124408506174142036e-02 -4.277893024981720138e-02 6.745387061043478516e-02 8.576236463960594525e-02 -3.459542680450815311e-02 9.497752223190253362e-02 -4.610217554969717191e-02 8.288609966505411375e-02 -6.608549348411124624e-02 -4.788784228674912435e-02 -7.491268735999921310e-03 -7.632694443203499879e-02 9.288265822714507347e-02 -5.520652507206439200e-03 -3.013123395502901800e-02 -6.705262744832707345e-02 3.918376170108438944e-02 6.824868891033539046e-03 -4.996226233607788114e-02 8.774660923018083591e-02 -7.621694712208634814e-02 8.577518614372424410e-02 -3.349387019483723166e-02 4.177179547036365820e-02 -4.293508636013509960e-02 -1.795367340505051035e-02 2.503440805879346767e-02 -3.130870350628434714e-03 -7.072910852622314726e-02 8.482021140738585027e-03 6.995647684735849248e-02 -3.840720154905415823e-02 -2.769107783180471682e-02 -7.165206565959574003e-02 9.052422228724743558e-02 -4.601443569097032893e-02 7.659565473942850367e-02 1.458435845033499018e-02 4.514451106774368394e-02 -9.126740766104719793e-02 3.355454710763388498e-02 2.478307522363590656e-02 -1.071069954615478347e-02 9.781712489472636773e-02 -8.132737475547936745e-02 -2.373249827852368793e-02 -7.929110233855848899e-02 -9.483981750815688450e-02 -3.643965993412167509e-02 -9.109083802018791420e-02 7.230084004886370985e-02 3.161903811330298020e-02 -5.533841775126631390e-02 2.309339997932343194e-02 -9.814153348870492677e-02 -3.705200842584929766e-02 -2.072067637850077363e-03 4.993950466508599584e-02 5.383049439676269171e-02 -5.758834756731696231e-02 -7.027838355057630659e-03 4.464030073437523505e-02 8.446535426342464958e-02 -2.893686052700769271e-02 8.562132085389927150e-02 8.329135521107132456e-02 -8.806739706480370966e-02 -7.115648281010793219e-02 3.957613425335973489e-02 3.520460617653193430e-02 7.100552603609767977e-02 4.243140753181832980e-02 9.579143562792930000e-02 -6.910561661976334646e-02 -3.884222544506271690e-02 4.072209236629095730e-02 5.057914094262232901e-02 -8.116672847439806993e-02 -7.341605904860463994e-02 4.860939898499506279e-02 -1.865580330315496152e-02 -9.721861151306432358e-02 4.261656616729142533e-02 3.485018525037393566e-02 -8.830025578054823132e-02 -1.457140043157661990e-02 -4.913431178486271644e-02 5.112921313237750454e-02 7.873480087473286315e-02 -1.613234694231163724e-02 -1.131751981306931137e-02 3.688125030840298108e-02 -1.160870558907359457e-03 8.684892712467262100e-04 -5.944259888166816830e-02 2.409460468331634658e-02 -9.503466837723276162e-02 7.750580423801939345e-02 1.535410254760817376e-02 5.660453575162321949e-02 3.041305242379415200e-02 -4.113321111297573579e-02 6.792107349094136937e-02 -2.902088603200877678e-02 2.962668741652543791e-02 4.990046789150635875e-02 -3.798194098869744212e-02 9.805949163786380207e-02 -3.269161199465309836e-02 -3.423805701968171689e-02 3.066257920768561060e-02 3.621007010721172259e-02 7.061211862792808602e-02 1.260427438968236705e-03 -2.794749685333337407e-03 3.445430677557474730e-02 -3.310955808100383979e-02 -6.390619851418377628e-02 8.085460369724316310e-02 -9.668985464612557534e-02 -5.971676715737450625e-02 -3.453245055996874424e-02 1.100084102186948444e-02 -1.473485709914560890e-02 9.508404908383193133e-02 7.150003547909351831e-02 -8.822772585924169853e-02 8.135887730110032134e-02 8.863377455526742776e-02 -5.504239001614039117e-02 -6.288267570268844808e-02 -9.846936897720402759e-02 -6.453707288133483932e-02 -5.539604305977398335e-02 -7.142636981385282191e-02 8.158836878724191888e-02 -7.267882070932117633e-02 -2.449350691159037866e-03 2.900064823528783822e-02 -3.749304312579031240e-02 -5.828549710640448800e-02 1.095704061036260977e-03 2.003977683674785723e-02 3.688750997118844799e-02 -7.170197442539909261e-02 5.697549422812516612e-02 7.040721609654762569e-02 -6.929270486508805338e-02 4.728446808347984420e-02 6.272497829867515473e-02 -7.385147261696480003e-02 -3.996681918881996726e-02 8.377197556574249304e-02 -9.322802961800788490e-02 -6.714582012714905013e-02 -1.763922107885683432e-02 -9.901763661466353450e-02 7.349591688061493655e-02 8.610387441982939039e-02 4.214895379573932455e-02 -7.956402533857948045e-02 5.103719391561761104e-02 3.677522220828170763e-02 8.369004151926527635e-02 2.514600650925708294e-02 -8.360889483917494092e-02 -2.529201483443448834e-02 5.993831950619055160e-02 6.999480247603392935e-02 -4.998885426221223727e-02 -9.119115868738475461e-02 -7.035839913744248997e-02 7.209037196719961238e-02 -7.033639465582883221e-02 -2.574896488084801177e-02 9.165090196020780899e-02 7.813459447429675631e-02 -2.850277378598235420e-02 -7.817603524257119019e-02 1.895478756805987416e-02 -4.550896056882596658e-02 4.067848990757752525e-02 -7.117620045106513860e-02 3.478134981992308389e-02 -5.153218030783533049e-02 -8.485072827933660966e-02 8.852733129890676123e-02 8.186521768872680183e-02 -8.187698558950827488e-02 1.845305651028292596e-02 -9.705453862189801495e-02 1.877359415836278231e-02 -1.334438223559032861e-02 -4.333574513834193703e-02 6.341171566386846759e-02 4.292539170702643764e-02 2.791474576705939292e-02 9.027698582484165735e-02 -4.634614349943021877e-02 -8.800199790112644971e-02 -2.882893078386422007e-03 6.231401615678416883e-02 5.078835291653183148e-02 -3.320299011889931567e-02 -1.361769636714797380e-02 -2.640754271096356492e-02 -4.804412861097111936e-02 9.180933263478056883e-02 -3.324213193735410521e-02 7.338209612109164622e-03 -5.350595050118038066e-04 -9.800354676406436774e-03 8.768660282145021578e-02 8.714892708452000314e-02 8.556714395204059742e-02 2.938560003233338727e-02 -4.870790818942390306e-03 -4.756989876513878501e-02 -1.225101132053734235e-02 -9.474063625255210730e-02 8.192540192339014399e-03 9.835809219765820344e-02 -2.356173078560904605e-02 -6.921792702832231525e-02 4.710576182144545626e-02 2.400754842157568070e-02 -1.844115522818697353e-02 7.536468386848176049e-02 7.214576941023029266e-02 -2.658914955694725510e-02 2.812922296212555517e-02 -1.008110297202294281e-02 -7.874569495136404806e-02 -4.512861552252057928e-02 -6.315943720552412433e-02 -6.402915541382708797e-02 7.736739875877940431e-02 -5.807700825904238418e-02 -7.205423366595993008e-03 -1.248958715448010917e-02
-2.793889893017053802e-02 -1.375136747235842019e-02 -1.892352707349687774e-02 4.880366859369011240e-02 -1.224304416446154141e-02 1.088331212251184184e-02 -7.447193326437745453e-02 -5.307864142075667340e-05 -3.108392101977313152e-02 3.476222813386150440e-02 7.747408515708935350e-02 2.888087248171633536e-03 3.922150683782359842e-02 7.931541150408068230e-02 -1.440027519953549114e-02 5.622616961032515792e-02 3.359704745045986873e-02 9.385570830776785237e-03 7.425714443787269359e-02 -5.999832198941341954e-02 1.520272369611869352e-02 9.575150161047392416e-02 -2.732951993513819955e-02 -8.515420252420055625e-02 7.364658884556234131e-02 5.135737601659542267e-02 -7.104832671370871211e-02 -3.949110581713267953e-02 1.338937981939310358e-02 5.854520230444475171e-02 -1.186404700873568314e-02 -5.680740054286368551e-02 8.732291019889684702e-02 9.918368361757352869e-02 -4.574412069943161602e-02 -5.883976060680946862e-02 -3.718564133540643024e-02 -6.597960672781844060e-02 -1.510973785599915332e-02 6.761721764843735272e-02 7.848188253631421807e-02 9.544535703357849565e-02 2.052164002909310711e-02 7.641037749803555879e-02 3.452865130515792719e-02 -7.727309134491520959e-02 -9.647090382211996953e-03 6.756383064752247147e-02 9.038833170121034211e-02 6.328262494212845424e-02 3.264219412603363429e-02 -2.110629192909645527e-02 7.915403425011301175e-02 -3.103416999148209815e-02 -8.009133265540574476e-02 6.992929112612274178e-02 -6.170783692504616669e-02 -8.355117697266768728e-02 -1.488822233979349499e-02 2.990334226863289313e-02 8.537568540010528895e-02 -5.847929021400265909e-02 9.546224807230005438e-02 -3.425072899809510768e-02 2.275184952950859082e-02 -5.804590912484415555e-02 -2.800634384905425003e-03 -5.447359346723036622e-02 8.120006921219038998e-02 -8.357304595692846561e-02 4.726601607132784044e-02 7.172217171882795672e-02 -4.133300323746134930e-02 1.299326860123807027e-02 8.925309656713975581e-02 -3.160284744957609498e-02 7.723086802416398444e-02 2.811958897221620082e-02 6.300763695730726699e-02 -2.869791513755123955e-03 -9.015083964827286245e-02 -4.245052203163864751e-02 -5.572924529134652000e-02 -2.055221772114990478e-02 8.091180799567188053e-02 -8.619062828878397420e-02 -1.151570248276363902e-02 -1.710475024443326719e-02 1.122014562833381461e-02 -7.949306755193288887e-02 5.195028512374694207e-02 -6.651339287108393172e-02 7.862823875393822048e-02 -5.365432403914151965e-02 -8.559281788923413237e-02 4.528080128261997850e-02 -7.752402299306788980e-02 3.510588089740519779e-02 2.328772084447469984e-02 2.620350960293389014e-02 5.859561686478373388e-02 -2.183840617025971029e-02 -8.011405589548457884e-02 -3.847214140808429689e-02 -5.682708309820238418e-02 1.291551786089308214e-02 3.900761465122627464e-03 -4.572446318109637392e-02 6.199331066872260793e-02 6.710546766153807630e-02 -6.027291927416179168e-03 3.354574854790062788e-02 3.994678961461862327e-02 6.292481363737589817e-02 5.150362720731666531e-03 -8.352602496443407853e-02 -1.759844524636548389e-03 7.141909172977418951e-02 -7.066234282552956436e-02 4.175097548486338128e-02 2.927109059581424477e-02 -6.131939485695839763e-03 9.583496238021306513e-02 -9.508357629350475126e-02 7.797692913248180369e-02 -3.410948445517046623e-02 -2.274118250192181875e-02 -3.797945842822397777e-02 -1.602378044879444047e-02 6.688783131632662637e-02 -6.492069489076314481e-02 -1.915982817854280928e-02 -9.364292088687148352e-02 -8.204226029312790269e-02 -6.956195278905638602e-02 6.676735721398560641e-02 2.521263984050370333e-02 4.358882192218128948e-02 3.430456792438221769e-02 -5.569454697961094547e-02 -9.319377154352175008e-02 -6.589639450218409689e-02 -2.977993979590649529e-02 4.972762953365806454e-02 -9.481363177136323261e-02 -5.621060495985657351e-02 -8.994186619697397411e-02 -4.522417402480552462e-02 8.277786063785466664e-02 1.998569253589140005e-02 -9.343175986974537606e-02 3.656410523368521653e-02 -5.800454361872483394e-02 -7.571638657586646226e-02 -8.472861859333045975e-02 7.526493209648309549e-03 5.966296201374156338e-02 -7.135871041236725720e-02 -5.221774319474713211e-02 2.899429449323153232e-02 -2.547126924859660982e-02 -9.303503099937866783e-02 3.578506413303043227e-02 -8.761498812934755132e-02 6.005649364562541670e-02 4.100818576080328404e-02 -5.271301420592670872e-02 -7.278431841093495336e-02 5.796481392777140529e-02 -8.697116594758379227e-02 -8.907119813617773996e-02 -6.227926914894744287e-02 -4.880406213078534311e-02 -4.958775583558786004e-02 -2.465038444638872200e-02 -6.571235144108031334e-02 2.664001816099099626e-02 -3.404034947410566198e-02 -3.889625424827772293e-02 -7.975567562490371021e-02 4.577743618755222149e-02 7.094362094891078219e-02 1.008278409076680641e-02 -7.351761656231821374e-02 6.830516930363972339e-02 6.957146971204435093e-02 -6.299879830968367622e-02 9.577206986721768095e-03 -1.628238572690189276e-02 6.887038396114200656e-02 7.085551638812878292e-03 8.959946533618061426e-02 -3.373300384113400718e-02 7.932554809821545927e-02 -4.848287486030277565e-02 -7.403128557668307852e-02 2.819338418319102327e-02 -3.799362717788985766e-02 -5.955550483404082468e-02 -1.365148317938335611e-02 6.875048215976045651e-02 -5.589209076092919309e-02 4.415859235993125492e-03 1.036461183766708254e-02 4.791829167053613531e-02 8.588778741641034387e-02 -2.423485498729249787e-02 -3.521699098610187040e-02 -6.528877354478325457e-02 9.581713897654484113e-02 -9.067322436843124056e-02 3.305549823766200379e-02 5.295988032263124895e-02 9.120236401201278764e-02 1.475850296639582247e-02 -2.049042482960155079e-02 2.407449673064519097e-02 -9.166121599177956547e-02 1.430663468202111356e-02 1.119063332126321586e-02 -6.324976735995699317e-02 4.670150122268443282e-03 -9.109740942672076014e-02 -3.885829936969276838e-02 6.402881909844189423e-02 2.450267184997796319e-02 -4.240419153094222154e-02 6.496275506519103016e-02 8.003701563655782336e-02 1.217394782070898608e-02 5.259061128184829015e-02 9.755003901992573279e-02 9.033312092347994815e-02 -6.289189045691512790e-03 -3.141724635910803781e-02 -3.136488705398203514e-02 -4.383325320639124001e-02 2.116145615293919466e-02 -8.839531402815124783e-02 6.544242219229946290e-03 1.372929723504129861e-02 9.693497877373993821e-02 -3.259941639177826173e-02 7.280921282677073336e-02 -9.179685371956798623e-02 3.233070832975922827e-03 2.985295941768742814e-02 1.022971985215165823e-02 4.816758702897473710e-02 7.693271234447728035e-02 -7.849435109036635716e-02 7.220942665032067942e-02 -1.670523318842999719e-02 2.604455064355972946e-02 -4.973710227345615881e-02 6.639761540024896602e-02 9.120786044678258486e-02 -5.476326063905421343e-02 -1.753460634566318677e-02 6.162447795517566468e-02 8.858949723887023231e-02 -9.767286135831809712e-02 -1.136597302848448530e-02 7.582518678952351876e-02 4.927324478182149546e-03 -2.186536992426868845e-02 2.585659690380327259e-03 -8.841797279152693867e-02 4.007516872117578011e-02 -3.257197597018354068e-02 2.692040357405860174e-02 -2.515220639517686940e-03 -7.537351972378930620e-02 -2.238417958645061781e-02 3.001810750751184032e-02 5.602434252068139164e-02 6.539031666128912457e-02 2.570598804689512920e-02 2.582927954657599987e-02 1.825031123744842720e-02 -6.714742798752987296e-02 8.796629429658607557e-02 2.757091442816439822e-02 -7.804185779661552969e-02 2.104126777171479168e-02 -4.875281804268360997e-02 -9.657908882210268497e-02 5.101223243164509230e-02 3.686513940233043796e-02 -5.037604701356881293e-02 9.063733689858589904e-02 -7.150890989008773513e-02 8.668115923536620637e-02 7.338755062886852254e-02 -7.576267220933669000e-02 4.107772658593997206e-02 -5.289528292250781499e-02 3.938504790925359544e-02 6.631445903811618303e-02 -7.699556124993953143e-02
6.952109200264398881e-02 -1.813856444631700704e-02 3.446895993366466508e-03 2.287968822368541613e-02 -6.796396266023319033e-02 -2.640378994324005940e-02 4.431867974334259552e-02 1.152799352224850339e-03 -7.135111719428684218e-02 4.293742018414851980e-02 -1.647490567872076858e-02 -9.542557797752347637e-02 -3.218885620352643362e-02 -1.046974526854600879e-01 3.539182387593518830e-02 9.615073775760046848e-02 5.418665977296490549e-02 3.981479860608682503e-02 -9.388986091669078438e-02 1.087523145654379353e-01 -1.000920046230593524e-01 -2.314709279414581614e-02 -9.505734015066982789e-02 -2.671516531207763709e-02 -7.939060342428141959e-02 2.116213305922166540e-02 -7.426163098092975097e-03 -1.048499607146368209e-02 -2.215555966948012240e-04 -3.747512955340059210e-02 -3.189358877898905431e-02 2.951208183410475999e-02 3.777629306799198949e-02 9.502297201405607296e-02 2.818414769058728148e-02 2.218304989502245181e-02 6.637688030043351062e-02 1.010431766755346822e-01 3.291869818547452087e-02 6.082501862540583282e-02 -3.351742729321224856e-02 -7.744988243282256712e-02 7.476761301963795459e-02 5.165488358033466093e-02 -4.981662799190914384e-03 -8.905098353706285275e-02 7.096399510204499939e-02 -6.312341154376584218e-02 8.768586494135510723e-02 8.226281801525814341e-02 -4.312565128284524818e-02 -2.321235808369138259e-02 -4.106029800663458379e-02 3.498382430089103795e-02 9.027999248023946266e-02 -8.184135525634163300e-03 -7.443956191735756622e-02 -8.277458511022099674e-02 2.168622562244772178e-02 -8.668030050335041869e-02 -5.206852212138246734e-03 1.097692041432217144e-02 -9.008279444778923006e-02 -7.285675666499689951e-02 4.204554230605589416e-04 4.924135297988455756e-02 8.327416878803495237e-02 7.289474907774153023e-02 5.885428741067173786e-02 1.260741264124020863e-02 -1.365619345802809165e-02 -7.109354695591640905e-02 -7.951757836741780994e-02 -2.377045339536154253e-02 5.800298496833094369e-02 8.722804288700566726e-04 4.625959608015749874e-02 -6.942746217634522543e-02 6.858774012862877204e-03 5.920493994995386366e-02 2.544681343668980106e-02 -8.438066540467237253e-02 2.347369486244377940e-02 6.891538228221576190e-02 -7.663693112523660422e-02 -1.694920837506045178e-02 -9.196899477239064979e-02 -6.488057155085973082e-02 8.031268437217067846e-02 -2.738808528219046148e-02 1.707578044870144973e-02 6.772008778414598251e-02 -1.002673548120232710e-01 5.000631307514438045e-02 -3.427723957037007163e-02 1.962989457072909782e-02 -6.201858303203003353e-02 -1.183257983527837356e-02 6.061638888058652058e-02 -4.736776233713034523e-02 -2.511208268708110466e-02 -5.256768176572148427e-02 -6.624458146877525155e-02 -4.520283232483199298e-03 4.369883683517086087e-02 5.764376036067385412e-02 -5.841116320678171880e-02 7.390545791960793920e-02 9.593782135734650607e-02 -9.681932859216972609e-02 -2.878210374521505271e-02 -5.497154047512110842e-02 -7.600291706210704490e-02 -8.823730072145903602e-02 9.661687723278980511e-03 -9.060333243719442473e-03 -6.646777526982661222e-02 -9.021384734568065056e-02 4.499908723231756807e-02 -3.675512847919066434e-02 4.049451804753834844e-02 4.786275062460243479e-02 2.487781865588262892e-02 -6.679279449400780944e-02 -2.029317816010488967e-02 -6.351446538168864508e-02 1.760942334861961139e-02 7.766323891522493306e-02 -3.364654214817383582e-02 -7.381638774206079889e-02 1.742838635935775246e-02 4.747237019419237557e-03 -2.225270386987928881e-02 -6.783638251397762498e-02 -7.077731328953544565e-02 -5.385899487747244224e-02 4.814729159754855409e-02 -5.577154619813509684e-02 6.886325672207996296e-02 -3.968771855517872621e-02 -9.002775533803221431e-03 2.750882420457397004e-02 -4.981480487428539133e-02 8.323818308951301537e-02 -7.246920477572960095e-02 1.700776802307799734e-02 1.130476516441365209e-01 4.368621604563151239e-02 -8.759049023688239566e-02 1.019608303609519616e-02 3.694783931485659968e-03 6.106942043150506011e-02 9.797567059607549533e-02 -6.260492510047353798e-02 -8.932382497372093333e-02 3.577461032517713010e-03 5.356317556902231297e-02 -5.020026595648570400e-02 4.377279292638428659e-03 -4.521105804315061344e-02 2.340871269195445459e-03 3.613550698786352489e-02 8.574294954466364638e-02 -7.305030802404426093e-02 -9.773314058100428942e-03 2.911256847641758780e-02 -3.531669290162719327e-02 1.034604070121210029e-01 -2.464451766522012324e-02 -6.163354484582909965e-02 -4.560496096209449429e-02 -4.182607846799131501e-02 3.591741783166507024e-02 -6.255234965737443975e-02 -3.455650465274825393e-03 -9.887734087590543952e-02 5.479358009906266057e-03 3.930115578278309957e-02 -2.293948091167790151e-02 -2.268684412798406200e-02 9.035695385399010460e-02 4.140208564579363898e-02 3.510388033012181580e-02 -1.739117874230056843e-02 -1.101800236856532444e-01 -8.961365696653320057e-02 -6.683891215846655964e-02 2.299945719582354234e-02 6.086396154209840897e-02 7.668341500732898941e-02 1.045144490819909788e-01 9.818743503634598524e-02 2.616768560851174402e-02 -1.545741082109325891e-02 2.553498841340047856e-02 9.751467062707127459e-03 3.083684700522416194e-02 7.041056536752333950e-02 -2.195191931735113872e-02 1.374290744817346704e-03 3.222958855414070900e-02 -9.629522327842211793e-02 9.814441377623978058e-02 -2.290246016990121758e-02 3.723875759643072159e-02 -7.985522696176704238e-02 3.379473316143813411e-02 -1.957395172279264434e-02 3.805499880990742545e-02 -2.835568629370700117e-02 -3.061559304995728828e-02 -3.357888891482706945e-02 4.662725643588645774e-02 1.000543324863636535e-01 -5.591031329454487775e-02 4.203751762682181314e-02 -3.659612057855606698e-02 -2.271234322396756006e-03 4.966171917022603466e-02 9.210754754717942472e-02 3.436089485229666673e-02 -5.330247725197308217e-03 -8.415816298921717509e-02 4.066954547157082545e-02 -7.527417512725903537e-02 -2.938521350934226312e-02 -1.133774638988679917e-02 2.046812795249587646e-02 -9.316036438528778330e-02 3.916893206761942747e-02 -5.855105295336758553e-02 -9.820318648015330387e-03 3.950235347263401919e-02 -8.225599481833600901e-02 2.264008359486425342e-02 5.257350554757147382e-02 7.765981678493322216e-02 -8.986885226789123951e-03 4.101685091099781938e-02 -2.359022490954332252e-02 -3.813806626886279139e-02 6.249998692440728726e-02 -3.100783549494058947e-02 -6.103032438728957232e-02 5.273557586659325530e-02 1.833859945976811998e-02 1.684943423407030128e-02 6.169627815945828708e-02 1.834060419873204117e-02 2.875605712921113985e-02 -6.571053455847575275e-03 5.314743076736325872e-03 8.126825955921664069e-02 -1.055462972888500384e-01 1.141221050084046534e-02 6.818613221461149176e-02 4.366529382137336601e-02 8.279846390875229833e-02 5.926810549421723112e-02 7.785918721432168177e-02 8.902173683804054383e-02 -5.009070480810530468e-02 -8.992049943240033871e-02 -3.910359825728419725e-02 -9.592928776874201646e-02 5.225845636503109737e-02 7.427490447439684396e-02 -9.460701527244548548e-02 2.338290391149643391e-02 9.596656370781062040e-02 -1.593587884961844905e-02 -1.911189209134636982e-02 1.066659721224168661e-01 7.361481393042877686e-02 -2.461661086275348381e-02 -3.335113643060984290e-02 -6.223037711101721964e-02 5.053076029163511979e-02 -6.327281212064103655e-02 -3.736625175430652313e-02 4.459509628009840354e-02 -1.135822195900526299e-01 -5.481150785553401406e-02 -6.743297785459462235e-02 7.692801341394209236e-02 -7.059122389909197604e-02 5.432276326124830385e-02 7.680850019026494446e-02 5.789235579795942027e-02 -9.367308760365396225e-02 4.271009164647830703e-02 -4.097361323577922154e-02 -3.473069879782811342e-02 3.047407051687773399e-02 6.172492979330434365e-02 9.369115845598716824e-03 4.207041717008730419e-02 4.569175642889199834e-02 -4.227332536714555750e-02 -2.619650610873758279e-02
-1.050090112355236928e-03 -1.632558994880247555e-02 3.237549401324730375e-02 -7.616287199604576674e-02 -2.127299361191886673e-02 -8.989783367385840995e-02 -3.817935570441416404e-02 2.612471446989779456e-02 -7.409154669031275953e-02 -7.500352797364882862e-02 -5.544670126669197507e-02 6.974198415942421680e-02 -4.447496674401493766e-02 -9.340991246928261049e-02 9.910845103142253143e-03 -9.589693151670890259e-02 4.271637323444332779e-02 4.151414376870736500e-02 -4.839156981161774063e-02 -5.737283749396478866e-02 -4.717497000511440899e-03 -5.629688667301287024e-03 -8.464528294318349189e-02 -2.555362479159649022e-02 9.319047183289247416e-02 -4.892850764866322859e-03 -5.475698586023165088e-02 6.208782722355341011e-02 -2.510762946784754479e-02 -6.985669516393477885e-02 -2.070117680792171386e-02 -4.523485908383902132e-02 -9.031931087628448929e-02 -6.532552990412059113e-02 -4.799885999760906052e-04 5.202966329780045474e-02 7.444576565663520162e-02 -3.106174695979755512e-02 7.667291219514137113e-02 -4.959198761225665913e-02 -3.281660890817788417e-02 -8.058947441465086348e-02 8.175848763157841925e-02 -6.536347462402851416e-02 -2.199086875749414229e-03 -3.750720531544129988e-02 -4.954387933535497890e-02 -3.022034189253682002e-03 3.564159400487168505e-02 -2.449655005442699911e-03 7.845943586284489027e-03 1.618620423656521408e-03 2.203980946311421499e-03 -5.286097702760847450e-02 3.518221157684753297e-02 -7.372970598922876095e-02 2.815171129443514927e-02 8.647525952523754667e-02 -2.748918494874626889e-02 4.154838434664778063e-02 -4.774846153005935651e-02 6.994727872834818894e-02 3.656449254125918730e-02 -6.528353069035813805e-02 -2.123597397175592399e-02 8.385143637393714655e-02 -7.908823058075812110e-04 -2.679487391156330084e-02 1.205433633721317808e-02 7.642715215015977691e-03 1.379001277071532222e-02 -8.842991974852670856e-02 -7.611331361681578089e-02 8.529680455893111357e-02 3.065003515646758971e-03 5.292098579596876684e-02 8.602522884343490051e-02 6.463767728081154865e-03 -3.776253124325907456e-02 -9.962756175493145405e-02 8.941297353161355155e-02 8.178028623017419285e-02 2.723587942772869031e-02 5.633287431290673331e-02 5.167718140889834832e-02 -5.528366521591256827e-02 7.470794657364993041e-02 -1.126250482957800135e-02 4.845188816570734913e-02 7.204439158242040286e-02 9.201939242152210041e-02 6.446135974675176739e-02 4.243848756925930332e-02 2.600433923912137419e-03 -3.736440494834286641e-02 1.195567400035032167e-02 5.369285450814149235e-02 -3.990608620906572340e-02 -1.315250009326535650e-03 7.843358287280632890e-02 6.590544647067438089e-02 -4.878065161205837053e-02 6.627537306729860966e-02 -7.867696732765162848e-02 3.379484399977973619e-02 -5.043448704921401488e-02 -5.278221206582658226e-02 -2.200178786996203131e-02 -1.524449055960826194e-02 -8.525198516666489257e-02 5.716202768778654714e-02 2.293560484819613698e-04 2.929478221339623309e-02 2.151003261906401023e-02 -3.598663350832298491e-02 7.981284176801370367e-02 6.674500717135119221e-02 7.451901283533025888e-02 -3.209374367974033703e-03 -1.012948611693540498e-03 8.881891043602835323e-02 7.357616944301756390e-02 5.256693945703820592e-02 -8.319868181304695964e-02 2.935866238744606893e-02 -7.609036926668134859e-02 -8.504565499657611161e-02 5.714286253885746819e-02 1.986502574626404852e-02 2.793624384365826774e-02 -2.888964704430976513e-02 6.521514222515929771e-02 7.154264128868943751e-02 1.490752988080518843e-02 3.934755403656239880e-02 -9.595442776929841155e-02 2.264033733067231935e-02 -5.402378814390022647e-03 -6.792661455696917538e-02 4.549992591545721360e-02 -9.090788880578816455e-02 -4.335782666997379381e-02 -5.841631878443530324e-02 -2.829699457941743657e-02 -8.583879448898955322e-03 2.722819059047455748e-02 -6.324928793843648256e-02 5.857239259811210935e-02 -8.856798552952564740e-02 2.505448259093651445e-02 3.723602336050897688e-02 -8.285311490438923565e-02 -1.588690853280289549e-03 -1.766107367976018630e-03 -2.453347413345628031e-02 -1.634800150248247319e-02 5.390189736731689635e-02 -1.881043083002229693e-02 7.136894685965340657e-02 -4.113758094744415783e-02 -7.306462307751018792e-02 -2.038616511083775340e-02 2.179559457176990026e-02 -9.161377887886365534e-02 9.110679466805618465e-02 -2.695549013293613988e-02 -5.682981326688793522e-02 -7.624585249206800031e-02 6.317834876654050691e-02 7.590460782366831305e-02 -7.645529753877053358e-02 3.967054241917459395e-03 4.108851531644180238e-02 -8.712334720415793043e-02 -9.590496677733983955e-03 7.784895305575284530e-02 -6.114490775501184999e-02 3.738189325298445220e-02 -4.505057072142523711e-02 9.576162336612879106e-03 -5.992239815617949467e-02 -4.530782994829449933e-02 6.280962599958181403e-02 7.084838464342599340e-02 1.015946433548113419e-02 8.628014888349722078e-02 5.857338999506980087e-02 7.511433491698822629e-02 -5.263677800007311031e-02 -3.750304292230635661e-02 9.075721771516434555e-02 1.071734107844616729e-01 2.917520514731785503e-02 1.969319001775340569e-02 -2.033970441692220868e-02 3.789357336146254029e-02 8.622955096277105935e-02 -5.766545453298787920e-03 7.978178105318110835e-02 -7.855220335512060059e-02 -7.245421146031341686e-02 -9.413694337065894868e-02 -5.641154339760219572e-02 7.434463066518344487e-02 -5.897409369183253397e-02 1.659011611733770056e-02 -1.663562846463563505e-02 -7.252232965145756494e-02 -6.021735955195781781e-02 2.362962042323793477e-02 6.544659688449520896e-02 -9.104597933866923065e-02 -5.438847736793304966e-02 2.717601508147432510e-02 -6.392973937113123617e-02 5.744914170364699701e-02 5.258715686773089530e-03 -3.136831659469997702e-02 8.673221646451829969e-02 7.689684734403556821e-02 -3.195488708352486190e-02 -4.456692194940752028e-02 7.225482603359846545e-02 -9.782963079360417966e-03 -6.595685461825821772e-02 1.252849807622441296e-02 -6.526294358531865847e-02 1.873299821140547369e-02 -8.059312776760180208e-02 8.822853573023128892e-02 4.412073939526471589e-02 9.722964110151692541e-02 -5.643468926164942057e-02 1.898638460921896545e-02 -8.766723404609451376e-02 8.027280207032221060e-02 -7.772988335836590601e-02 3.439172115402601426e-02 9.633076774333870773e-02 -3.074542421350444019e-02 -5.034548504630373400e-02 6.318731751866233509e-03 -6.661531105478855908e-02 -9.459390000265203990e-02 3.771870488645256286e-03 5.659087394508266478e-02 5.276812372125777584e-02 -6.033547282288882763e-02 8.527672308955375202e-03 -2.807934648008720679e-03 -6.759948888659582378e-02 9.379073444082627886e-02 -5.950155846599732706e-02 1.561104285126912669e-02 -9.068991022918108935e-02 -3.483078839677729993e-02 8.101862601692030874e-03 3.168046795071503136e-02 3.939729904629156627e-03 7.879679847697300399e-02 -8.275545944424067546e-02 -2.589775663182114496e-02 5.819040644992590910e-02 9.406193661449842314e-02 -3.735463042881373430e-02 -2.434927485944875236e-02 4.773659495963484406e-02 1.629199090827181812e-02 -6.805678051300018128e-02 -9.349177782052175978e-02 -4.834837355111245433e-02 5.103058882610979341e-02 8.806677349600156024e-02 -5.002815916892435627e-02 6.986662598896900556e-02 6.135102538101492968e-03 7.400066380615474837e-02 7.820654441978723559e-02 5.247411749251334329e-02 7.967709108887857661e-02 -5.043859532707595933e-02 4.386000832097072810e-02 5.360744039451292853e-02 -6.903317197417243103e-03 4.925598177406168704e-02 8.428656109125895468e-02 -6.793152151128713234e-02 6.568864466156230930e-02 7.965416090174563812e-02 -9.179374365897417787e-02 6.301094953495106621e-02 6.385841927778670990e-02 9.848058071740603547e-02 -8.565205242339271607e-02 -8.443841163007298478e-02 4.154888705701893781e-02 3.228062599384596415e-02 3.694477025425733224e-02 -8.295592037227823845e-02 5.324907238074032267e-02
1.948661573059609978e-02 9.034994268097937264e-02 -3.134003311139982317e-02 -8.753541713086016030e-02 -7.986152614547926964e-02 3.162662123883070581e-02 6.670898774958558541e-02 3.343356391342158090e-02 -7.494578263408223189e-03 2.753420421221996692e-02 -4.066433211803510694e-02 -7.658753028608728149e-03 -8.348542042601285462e-02 -4.824864096935586877e-02 -6.747547753150566485e-02 -6.251455652997035817e-02 1.468675872508169375e-02 5.237488748684476086e-02 -5.029907994655184733e-02 7.833312748102100320e-02 2.977990311619058139e-02 -1.793506568329085449e-02 -2.638878405427472901e-02 -7.607779560850772005e-02 1.005168411655866512e-01 8.585413851366151261e-02 -9.224959776741153625e-03 6.359395237872383921e-02 -5.455118395490256983e-02 4.510928366294027214e-03 -7.582453926361566732e-02 4.051233447131991766e-02 3.122868000399344965e-02 5.109108853433093345e-02 -2.642653262088533878e-02 -7.929262033843538504e-02 -1.390032924054742693e-02 -5.520859553510647916e-02 4.544442471076802492e-02 -5.562505595980238998e-02 -1.712789278153073859e-03 -6.046007564365474436e-03 2.377171323093438260e-03 3.103845549406487186e-02 -6.119380732429145070e-02 -5.187357214522249349e-02 -7.733025207044239013e-02 -7.620979544818276552e-02 7.399763080005059002e-02 -9.769061080152408039e-02 -4.966972039406083311e-02 6.423833680133503310e-02 -4.927040969946892141e-02 -2.176353513711827906e-02 9.374980956216578953e-02 7.332592479057874202e-02 7.947642921720453335e-02 -7.924066857105017958e-02 4.304767317974564356e-02 -7.777008545729743871e-02 6.966430197283884906e-02 -3.295410044487766948e-02 6.839205038862004871e-02 -5.673191496816008123e-02 -3.696295680306514730e-03 6.276724192828006532e-02 -9.414574573538779523e-02 -4.752144598765937339e-02 4.034739407629280711e-02 -7.444983728269759238e-02 -9.290119760496746981e-02 5.612631127185557095e-03 -7.397479878776760942e-02 -2.293950653082787658e-02 7.626128399613303632e-02 8.339283882145884230e-02 5.478164602738013617e-02 3.731340240544827463e-02 1.521360491842635790e-02 1.761371988236121872e-02 -9.088721074848377102e-02 1.034733003381930333e-02 9.532461552935890536e-03 2.683617303732046058e-02 -2.753546893825081082e-02 3.023731162939219397e-02 1.017958849374183822e-01 1.707326517701099680e-02 -9.224623126360423364e-02 -3.886910268163473736e-02 -3.301220070510723498e-02 1.659094194289359794e-02 -8.042482433567689493e-02 -7.229772580876961396e-02 1.100298862184633658e-01 3.283489393376558263e-02 -3.715771433772689300e-05 5.338190330482055386e-03 1.998480189282008518e-02 7.634975901080229277e-02 6.751788568250760569e-02 -3.462851552567054042e-02 2.641681006203659005e-02 7.510715646015948821e-02 -7.417331487336489837e-02 7.785262783630350625e-02 -6.794876513808012497e-02 -2.862305124724542557e-02 2.206887985024859247e-03 8.640645476433778116e-02 8.302099868284405770e-02 5.637922513820219778e-02 6.256965721787190182e-02 -9.480015656542264968e-02 3.978477416824922896e-02 6.655466903541463509e-03 -9.344468287854801325e-02 -5.515126132153628374e-02 -6.462020589285075167e-02 2.607192582832956740e-02 3.419524858374721477e-02 -5.294231674494413731e-02 -6.102666216811096500e-02 7.852929172101653921e-02 7.651966011844199556e-02 6.494056458289602929e-02 -1.850033161581061611e-02 3.496509719396376920e-02 8.472164011022957630e-02 6.044721539414853184e-02 2.797495971380296875e-02 -4.304159245148931473e-02 3.135411978070085787e-02 6.490135432481189924e-03 -6.047885944093124577e-02 1.695379712248481704e-02 -2.930897343483646056e-02 -3.275307044313292143e-02 2.523901103905120541e-02 -3.733782106482758795e-02 -4.107648395432642735e-02 6.495070526340376849e-02 -4.822722707336991876e-02 -1.935119935240668665e-02 1.072092119441449554e-01 -6.551272506768143766e-02 7.398315568216232152e-02 -1.792090083228017536e-02 5.076712932099005336e-03 7.292605554971385434e-03 1.876620723463863841e-02 5.644859654617928602e-02 -6.240125231864273453e-02 3.111846848640304961e-02 -5.388320774638297346e-03 9.928194459971899366e-02 2.068266695580620040e-03 8.313647799301658592e-02 2.125690697198617807e-02 -8.167967532780241735e-02 2.111198998571069824e-02 7.439114555530995654e-02 -1.619983215975807217e-02 -3.917913137288361880e-02 1.247206026743892179e-02 -7.604937413500381660e-02 2.588124182973430831e-02 3.444756089270281652e-02 -6.628795450038857395e-02 -6.874827378735023919e-02 -5.538449932788620800e-02 -5.176418182481126035e-02 -6.808854607258063574e-02 5.869046252837571004e-02 -2.724103581021489542e-02 -1.526646842215479555e-02 6.238884662204104842e-02 6.546292042039429659e-02 1.073126952347505936e-01 1.045838811434682825e-01 8.824026157144204338e-03 8.589590780029320027e-02 -5.396026105672044326e-02 -5.032988138142248380e-02 -9.609908566103182725e-02 8.461098408245734670e-02 3.075702329381911626e-02 3.464650931327458577e-02 -9.075547186278999645e-02 -7.158179547475253257e-02 -6.790544248212307399e-03 4.513198509719378027e-02 -7.348482762294875070e-02 4.307689228734550707e-02 -8.174020551453176076e-02 1.022733497416281334e-01 4.822556149831597194e-02 -1.251438795228865773e-02 -6.502750934947242045e-02 4.703350274070605685e-02 3.889839266970301912e-02 -7.419765410352451018e-02 -2.359554786002928881e-02 1.150327394834551459e-02 1.082007337323165341e-02 6.485458085306718135e-02 -7.927730714716489657e-02 -7.547164013790248760e-02 -8.600866709303690849e-02 -9.596262736754290756e-02 1.141725033907069892e-02 6.661228875610339384e-02 1.326311751702092916e-02 -5.883348406013767795e-02 -9.565006348248020207e-02 -5.376357816577666260e-02 3.021035170784744026e-02 5.114571191330944191e-03 -5.942687439915676079e-02 -7.166562863406424067e-02 4.931705724659904422e-02 6.499271946962043023e-02 7.353105595764183877e-02 -5.105167104999149691e-02 7.810020717967325332e-02 -5.507676189351634610e-02 -6.597651193452748475e-02 -3.955459041741242465e-02 -3.279137182880841744e-02 -5.212906459350314520e-02 2.784010783735173938e-02 6.823197693549053200e-02 7.791935125914435656e-02 5.916501485410356059e-02 3.273864648492658819e-02 -1.720612371865983328e-02 1.012139480071840014e-01 -7.521767954593837346e-02 -5.359997760424106000e-02 3.595630303816048541e-03 -9.631312851301358779e-02 6.502697972268114968e-02 7.914284171661468970e-02 -7.288765668588262012e-04 -8.404907101659354202e-03 6.054678733645149635e-02 6.426426539976211327e-02 1.961063841677911264e-03 5.242046091879153102e-02 -6.516283726914895436e-02 6.762585307173654692e-02 4.014710528162854924e-02 -1.454319377619017403e-02 -4.840994504372116147e-02 -2.937630008160179579e-02 7.737209850699768542e-03 3.049785442183270898e-02 -1.071306369322987291e-02 5.009264697968796726e-02 -6.302343207460670005e-02 -6.763675466588416063e-02 2.329895565833462606e-02 1.040431966837535895e-02 9.152222340755520810e-03 1.188430084227192450e-02 -3.107286448343382287e-02 7.492296248045927920e-02 -7.641166494939141685e-02 3.195890825236402666e-02 8.279984206660191692e-02 -5.382406946154182949e-03 -7.238177051087088532e-02 1.015148844149121182e-01 -5.733811193351254915e-02 -5.816334544036049631e-02 5.424445704011979924e-02 -4.854484579610235384e-02 -1.039225217097756171e-01 -6.823267519922339430e-02 -7.820812184538925016e-02 4.231157180863499845e-02 1.004161853723464365e-01 6.550971721883992738e-02 5.351120036371177779e-02 -4.241391811658334204e-02 5.193344523943746460e-02 -5.314068461120057679e-02 2.621662102637192099e-02 1.104430204648953161e-02 -1.741012228786800037e-02 2.895783557913734346e-02 3.497067091914874554e-02 1.821522210579759691e-03 -8.359758520845940455e-02 -6.416549238386000387e-02 -4.752758670420968723e-02 9.056526769480538475e-02 6.573254687615288916e-02 -4.400743862476442364e-02 8.139810498060699728e-02
5.680535611671236329e-02 -4.682580029997413656e-02 4.466390102781177956e-02 2.166932542050310426e-02 2.153491972626649792e-02 -3.885124376166004118e-02 7.789226413059679999e-02 2.458144701015796060e-02 7.142411542789878220e-02 2.538055540069623570e-02 -9.491434943994847551e-03 -9.400844516134169992e-02 4.132969188133466670e-02 -1.603934932952113743e-02 -9.307696251606607796e-02 -7.166889369573478663e-02 -8.010260167893683281e-02 6.359034631918179803e-02 -3.880691779504302774e-02 -9.590986808856617751e-02 4.926230711206292662e-02 -5.113617254786181898e-02 7.727891548981367931e-02 6.572157535844862231e-02 -7.668573088091464041e-02 -4.553736288049607672e-02 7.912204987052769145e-02 -1.040930598380266150e-02 -2.985280240425159173e-02 4.204544965307772247e-02 -6.279968562517454500e-02 -2.746996637835066868e-02 1.134800829234703101e-01 -3.269282849069731628e-02 -2.099037406265424552e-02 8.656500390505804388e-02 6.083290147848981200e-02 5.396558619092040043e-02 4.957098692469515816e-02 -9.424607916970954846e-02 9.974837144408907341e-02 5.707385602989980405e-02 -2.187384491557311031e-02 -2.870709139469914198e-02 8.082887582470121846e-02 8.583801793259633606e-02 -3.117714179516442238e-02 -5.115668132476151875e-02 5.288299896480615908e-02 -4.929725919408933094e-02 6.824153294680582182e-02 9.378514909683682843e-02 7.778551321271473529e-02 -4.275695019348030312e-02 -8.705121631864300158e-02 -2.013713816504348816e-02 -3.112780816542965942e-02 -3.324372919260207282e-02 1.237621637877157552e-02 -1.027505765552723521e-01 1.003198221264024886e-01 -5.869802950692552812e-03 4.352381284621778534e-02 -6.400737196663258688e-02 -3.203017442718679442e-02 -9.384401657089290472e-02 -7.624529082757774273e-03 -2.501943888300960095e-02 -5.576873598255333714e-02 3.832548213934690307e-02 6.139671929919082727e-02 -8.339659619397789270e-03 -4.133803908907631580e-02 2.962362770741697529e-02 -2.359629873477185266e-02 -1.179611944375904588e-02 -9.504431592303862891e-03 1.047762453942162192e-01 9.331449920642019558e-02 1.590177640369213122e-02 5.772839943909672394e-02 6.123167531341514036e-02 -4.122170476302051967e-02 8.482741381251567014e-02 -1.002157731941059615e-01 1.932485313676221561e-02 9.932977061097914007e-03 -1.066748659373192853e-01 2.018345521066150852e-02 -2.551032173496414063e-02 5.350125719617556536e-02 -5.866778473713026715e-02 -2.666255791678283707e-02 -2.771049969095300269e-02 -3.464827394418581313e-02 -1.120977922480618366e-02 8.815833001246839440e-02 -7.886237865167082528e-02 6.395720858335339487e-02 6.284200245099806625e-02 9.253645472370737590e-02 9.816608546355057308e-02 -6.344373185859061848e-02 -2.577523169976753820e-02 7.510211484457791908e-02 7.847032890743481370e-02 1.270388576075969639e-02 2.225383259464775235e-03 1.104373922952654463e-01 -9.356703646012508313e-02 4.288523860783463593e-02 -1.003508419634131787e-01 -3.915230891823619219e-02 8.998817645979037549e-02 5.998147308887010615e-02 -3.292812308485165013e-02 -6.231541682147061223e-02 -6.388333786518217428e-02 6.152514558583196957e-02 5.394227221227509972e-02 1.921433974759754679e-02 -4.848374119533705763e-03 -6.240999692089794874e-03 2.431105186687754043e-03 3.390050118681722097e-02 -3.216318444482879624e-02 -5.277954719515305475e-03 6.583014366150607977e-02 -6.371333692426867090e-02 6.543543262053842791e-02 4.570727601261390799e-02 -4.617362555082669268e-02 8.668563870634603263e-02 -8.308761774264697419e-02 7.334456256330053325e-02 -7.840438853486957071e-02 -3.918306793764382567e-02 -7.952869680849840306e-02 -4.511670874098153844e-02 -3.200305705991155630e-02 -5.481599545832190751e-02 9.434099701656556425e-02 -6.933083222079870767e-02 9.631509463494496159e-02 6.261378310728833718e-02 3.471638688717064436e-02 -7.594733629768211924e-02 -2.997745918113648919e-02 4.697863867122231696e-02 -1.924741375223932779e-02 2.187054874927427117e-02 -7.154837019552359734e-02 -1.425923919535037297e-02 -5.195467602564468601e-02 -6.274547069510084951e-02 4.087255648186048640e-02 3.823123194793887764e-02 8.266522783104658656e-02 3.053646518821984471e-02 -6.803431979350406389e-02 1.762705429858007003e-02 -1.603568908837340115e-02 -5.664273245064937318e-02 -5.355134531136053477e-02 -9.887447220372807405e-03 -4.881238827028992061e-02 7.081973327074957483e-03 -6.046302121941186242e-02 3.358703151352714772e-02 -5.193365547891248823e-02 -9.761161253191039111e-02 2.127101122112789316e-02 1.095839114503272503e-02 -8.949766738943144839e-02 7.960264595352643802e-03 -7.901343039179008210e-02 5.071370794037102087e-02 -6.138911776015448796e-02 3.063274432072192813e-02 -3.442214084006366831e-04 -3.017972414378225499e-02 7.761460057932396961e-02 -7.433465421048877919e-02 3.384223512960331942e-02 9.624662564985635160e-02 -5.092027287364566529e-02 7.642683459055545081e-02 -7.109957810736053374e-02 5.854665033423690074e-02 2.714703992206782962e-02 4.655564771365289928e-02 -6.423071119297897591e-02 8.963609981130084281e-03 -8.458121091309703590e-03 -9.901495587449295199e-02 -8.406021506373094476e-02 -4.188695062392166352e-02 2.822817495518197689e-02 -2.997902569377066534e-02 -3.622917223725431041e-02 -9.506919350839770910e-02 -9.818116401710805241e-02 2.780133814609658457e-02 3.048485042689016294e-02 2.190571990912204559e-02 -3.523957542943545462e-02 -5.634867289359286185e-02 -9.195210728590860749e-02 -8.214808040539668677e-02 6.750723970526836815e-02 -5.699148353323179456e-02 7.689211087154590452e-02 5.108088633583831445e-02 -7.646976527658597145e-02 9.416095041258734644e-02 -8.940128840137388788e-03 9.258058098590313256e-02 3.365819494905477466e-02 -1.002090408249652759e-01 3.669664915270864913e-02 -5.629520507977161387e-02 -1.243745411943403267e-02 -3.551051348138630631e-02 -4.849003703787710395e-02 -2.987650380127075331e-02 -1.864270037004663039e-02 4.378900601994261538e-02 3.669634719620468166e-02 1.095704319881708744e-02 7.455335325072129371e-03 -4.458929665186660979e-02 -4.916720437944915173e-02 -8.007737735007847135e-02 -8.287927966868903484e-02 4.976495454176086547e-02 1.475121102622681257e-02 6.362762119901871349e-02 2.388746366239776278e-02 4.020624883056952981e-02 -5.543861196530375929e-02 -3.862919914353273726e-02 -7.413084304800028612e-02 8.507589487021423313e-02 -3.894053727744243437e-02 2.584507399877268227e-03 -9.527658198035979589e-03 5.886786627317082583e-03 -1.318937025843345233e-02 -9.711102864666718015e-02 -2.604082851981540103e-02 -2.907477869057642147e-02 -3.463791139146744913e-02 -1.059658064313693214e-02 1.317435670241751990e-02 -4.638728310412591760e-02 -2.545387365772497010e-03 1.721361940742726845e-02 7.921306408562245327e-02 -7.536345801853532034e-02 -6.804470155680954202e-02 -8.797006821440886415e-02 1.082911826765719891e-02 -7.624372429631684489e-02 -9.616526260876716303e-02 -6.945798431143808405e-02 4.196828366829052914e-02 -8.312297395783574405e-02 3.703526666410031365e-02 1.394933910403689525e-02 5.392259380106326216e-02 4.545947470977304734e-03 -4.792518766595195434e-02 -1.345280293865965329e-02 3.540973778759455570e-02 -1.972324756949480479e-02 3.047507988278704699e-02 7.225563980204488534e-02 7.840509336574877364e-02 -1.712476371264832781e-03 6.114827602648414961e-02 5.066428698852792900e-02 4.589417542360101077e-02 4.549924441267731018e-02 4.994312033602898993e-03 -6.499807977080673815e-02 -7.353949543910211217e-02 6.833619432430083906e-02 6.738858067325871615e-02 -9.439629059582124726e-02 1.699653402478929973e-02 -3.130711820579611115e-02 4.794441785751978741e-02 9.743686033732207319e-02 5.534969149328679283e-02 -9.893905629566560056e-02 2.210005256455480072e-02 7.196972668724842259e-02 1.381325867603289820e-02 -4.582047226766574818e-03 3.154802483408479866e-03
-1.054284216294470722e-01 -3.619577487453157910e-02 -9.773078695894757417e-02 -2.566587248529031071e-02 -9.027116848069043770e-03 8.901524660761744867e-02 -9.679628138650990532e-02 -6.622144749168903943e-02 -5.371183105768272126e-02 -1.033712349088804772e-01 -4.398773907906156078e-02 -6.595319458402963686e-02 -2.397002297171306473e-02 9.526943200038889836e-02 3.986439305503293451e-02 -1.029876367745106019e-01 -4.262419521485261154e-02 -1.413447188373128174e-02 8.377325146646039111e-02 4.948380238504920120e-02 -3.453932408149200384e-02 -7.508228981116746303e-02 -7.290716551480340424e-02 4.016923440460445915e-02 -3.574746625120422960e-02 9.748089542623347703e-02 5.883378799405795945e-02 1.724320605612760654e-02 9.913645603571498433e-02 -4.694743069027181720e-02 -8.013455352813055738e-03 -1.492489037351721337e-02 -3.684054636120218801e-02 1.203965680026361160e-02 4.284112497042794065e-02 -5.799944817998298197e-02 -4.338042825758529897e-02 1.434654587989260544e-02 4.002684800371616308e-02 3.436491658059271509e-02 -1.794261929468753472e-02 -8.049161518806871585e-03 -7.865470850042185352e-03 2.139427584853995784e-02 -6.023693432191652014e-02 5.122324371145152433e-02 1.369134775114120607e-03 -4.626505516191592449e-02 -6.980540615019445450e-02 -7.094708987501578690e-04 8.614069045045956441e-02 7.403179063306754293e-02 3.805157096544000556e-02 1.927943342868117943e-02 3.564068217972948815e-02 -1.021712170536780984e-01 6.973180207068155334e-02 -4.793902130131684480e-02 4.355010905424568785e-02 5.462551769294798215e-02 -4.747458018430883095e-03 7.311680534935301179e-02 4.203450860007963696e-02 3.639073158175866463e-02 1.134005879822920851e-02 1.160645484084214668e-01 -9.476423072205570827e-03 -3.920155999614266529e-02 5.170189346325697322e-02 -2.934628768813782318e-02 2.458859979468346751e-02 -8.448866627187991141e-02 3.277355030311032702e-02 -1.471487293920548112e-03 1.011804450665843846e-01 -8.073867968219788915e-02 1.002166931474614275e-01 8.615111813695268406e-02 -5.696172096736405732e-02 -5.350078221568571601e-02 4.112705902660839657e-02 3.491462604305002604e-02 5.783337703592081672e-03 7.573535836249878361e-02 5.099628430560875642e-02 -1.055447182557088699e-02 -2.260195163406744992e-02 7.247084860410779594e-02 -1.362829236468873252e-02 7.118810024113729831e-03 -5.010173967621194685e-02 -1.541010522711757508e-02 -9.315545869907299048e-02 -2.049317205479851689e-02 -4.908116396770816070e-02 -2.079126774779427658e-02 -8.456651868831781271e-02 -3.134460249156231781e-02 9.696141311862981060e-02 1.638338357796178049e-02 9.166332601895205157e-02 -3.192662994321292247e-02 1.193425181545585204e-02 2.047671334823802924e-02 -5.762567098060268622e-02 -9.874595105648341364e-02 6.311815023694576643e-02 5.391415227833814411e-02 -6.604023662084790303e-02 -8.025498918697690498e-02 -6.053430928224351470e-02 -6.532959831907919623e-02 -1.838250430127541524e-02 5.068261362891528926e-02 3.879695004507930506e-02 8.597944992506231787e-02 8.275697443550555921e-02 -6.717430569207875901e-02 2.324261389655004131e-02 6.493135444094091935e-02 4.187549771629221762e-02 5.214293754265906383e-02 -1.996445701863776984e-02 7.430161827403455876e-02 -3.507007732409065173e-03 -9.399850478811061505e-02 5.147889057222011788e-02 -3.637535481939899173e-02 9.394550814602607366e-03 -8.154727648188270228e-02 4.596918139759179761e-02 4.202887755384952101e-02 9.667476921796605560e-03 -2.017080915684851816e-02 4.496928083494129702e-02 5.912076362214214315e-02 -5.321340748106321433e-02 3.563707625997709211e-02 -3.466231075558759422e-02 1.038482623899806140e-01 -5.123599630286045092e-02 4.074177513955690166e-02 -8.554210063897574323e-02 5.922484229283628970e-02 -1.035519219719019390e-01 -6.828843552231778080e-02 -9.103226387257693647e-03 -5.586999796430011656e-02 3.563393576889965775e-02 -9.623491062318663414e-02 -3.040329536124627280e-02 -2.031438338751752684e-02 4.003449510653184912e-02 -1.482519630566655816e-03 -3.688175057113969590e-02 -9.356731108066088098e-02 -8.243223109988667696e-02 6.987355578192884498e-02 -2.650618124817400931e-02 1.094412530586864191e-01 -1.027766623156479847e-01 7.750926161151990013e-02 4.092355021981105428e-02 9.876405512519491683e-03 1.372337835585694943e-02 -4.375502067981517501e-02 5.094734721293379259e-02 -3.133110112813201897e-02 -5.677180457059725904e-02 3.575552156857895320e-02 4.770655264501472842e-02 -1.378259885253936209e-02 2.134189623134116753e-02 -9.561445397478431085e-02 5.642946067808449857e-04 -2.831583870468953879e-02 -1.042348308414039332e-02 -8.966930240420080411e-02 7.890094981232709248e-02 5.712849868397468223e-02 -5.835307414169529222e-02 -1.521366647524358996e-02 -5.795032995069385878e-02 -9.872626401428721832e-02 9.334207030053809362e-02 -7.011460800059714227e-02 -6.634256180785669255e-02 -7.666398831415736914e-02 -1.068287954645269350e-01 -8.678151560726314606e-03 7.360828392317850244e-02 3.331768039244797225e-02 -2.971189585884426512e-02 -7.729978873694509645e-02 4.881599760793670084e-02 4.662756262105513527e-02 2.660290823786783110e-02 -5.500444725784921912e-02 -7.506748270070666418e-02 -7.035029804547254795e-02 2.765462019782232231e-02 -9.342625438935897586e-02 6.199133308120907682e-02 7.630493721817344088e-02 2.023355648453919325e-02 3.089741639734370354e-02 -3.973016632052930874e-02 3.400581834593145725e-02 3.116765418639222754e-03 8.319450952791013210e-02 -1.911108102734926373e-02 8.229943993974754568e-02 2.619898126319775145e-02 -9.673272431252383230e-02 -2.147027830548502506e-02 -1.545445592180692135e-02 2.056533864621687760e-02 7.081449800411488901e-04 -4.149211040895574992e-02 -1.056091630176280577e-01 -1.030907870179385288e-01 -5.259965677514438082e-02 -1.720026279188917664e-02 6.096485908922034958e-02 -5.881006335841880428e-02 5.526398447204752470e-03 -7.693488914600073170e-02 9.433809452505761972e-02 3.506696693846245161e-02 -8.648942455874629454e-03 -1.418106293483475944e-03 -9.205486483060300318e-02 5.721350166584407773e-03 -6.555612272714259059e-02 2.276805092671714201e-02 -6.746643987240609486e-02 4.152734217319116461e-02 -6.019474725244704921e-02 5.180429130009533284e-02 6.992138472543678318e-02 -1.360234998283036019e-02 6.875819471598557109e-03 1.396689440143839347e-04 -7.380470267737693213e-02 8.435087303238048007e-02 3.202182744569896655e-02 9.000148899767451693e-02 -6.763448556185608362e-02 9.440478808786001430e-02 5.893123781243171655e-02 -1.266089136398263967e-03 -7.777381917639265840e-02 1.854775552236639230e-02 4.920658738231040163e-02 -8.442611310311007311e-02 -1.024111541713177038e-02 -3.156619927969146235e-03 2.060901563332127873e-04 2.350546191207248184e-03 2.241199460591114523e-02 8.956049654218407874e-02 -6.226712758067973197e-02 -7.662480867982102151e-02 -5.783518915478615824e-02 3.210610120912284898e-02 -8.299682258091316267e-02 -6.369114069922490740e-02 -8.378526678035129460e-02 4.171025189333642941e-02 3.610305337056045338e-02 7.165464034313079322e-02 -4.165121552582570774e-02 6.193297913349858630e-02 -4.622128208901337548e-02 3.729233622550892635e-02 5.186552249521842947e-03 -4.813019529821743053e-02 -3.863590333155041134e-02 -9.142932974426619397e-02 3.068282785684307151e-02 -3.868937190502522855e-02 -2.901745804537229564e-02 -4.035857727824274099e-02 2.892057925047455610e-02 -5.361232539236666234e-02 -5.804135383500860779e-02 -7.629153441767365373e-02 -5.602587155360688048e-02 -2.959097724718311867e-02 -3.781794226678668325e-02 -7.727234167888565042e-02 4.122216328479887983e-03 -3.050415539502041029e-04 -9.423062127368322938e-02 -2.019922969305418606e-02 -3.783487776451675833e-02 -8.905285304711525740e-02 6.123039627376736932e-02 -3.384914762490227880e-02 -8.201512003236823001e-02
-9.281444354256186691e-02 1.343244825500214054e-02 4.428857417226848142e-02 7.074007346851865496e-02 -7.210258539474517780e-03 5.391245477750197281e-03 4.670049044434347596e-03 -8.372238273053246582e-02 5.927935324748698220e-02 -1.521388844843647899e-02 -1.083046043050633032e-02 1.803496913114253225e-02 -4.456805218600028151e-02 -8.489871514797689422e-02 -4.403131011415014479e-02 -5.509589043609300352e-02 -1.843466307752560443e-02 1.502752193897224572e-02 -4.046848950485582713e-02 -2.903616644783267933e-04 3.198764448377468261e-02 -7.984390769174931624e-02 4.660054649499562052e-02 3.349116857181804602e-02 1.115041630335717321e-01 4.401641642082783183e-03 -6.602183423516014282e-02 2.363255027623225452e-02 9.053323741657962054e-02 9.749759392077222975e-02 5.719994188490675618e-02 -2.060770500620491552e-02 -2.300655367699674936e-02 4.109075892591344120e-02 -4.248975814620997715e-02 -3.524549381412434707e-02 6.704303891614316058e-02 -1.115741784123872871e-01 -5.585453396474149290e-04 -9.050743987654404077e-02 5.313109767979504530e-03 -8.769903660670942680e-02 -1.875235415166243841e-02 -3.401296028774609959e-02 -4.668024820624246118e-02 4.023781182538538337e-02 1.471188035511862037e-02 2.758943060380409512e-02 1.671872550676361743e-03 -8.105134844769119884e-02 2.233205434605906731e-02 -6.499422145869984853e-03 -6.902453768987254490e-02 9.291928906549290490e-02 3.143746538375898070e-02 1.745298787587062223e-02 -7.235119578886417546e-02 -3.212615917765751505e-02 3.563770702927384487e-02 -2.123842446638252862e-02 -9.226073150295063807e-02 -3.103610690758411977e-02 -2.863096668541985704e-02 -2.655135874950508706e-02 5.074157615802668553e-02 2.152510638425033512e-02 7.733787088568271073e-02 2.387920832560257688e-03 8.990898903090890903e-02 -2.385820121499033358e-02 -1.223742129780273739e-02 -4.257905918565291908e-02 2.310552464641062870e-02 6.031276262791510079e-02 4.271188924171792634e-02 -6.100480895902622019e-02 8.286261647009333930e-02 -8.226610027710309914e-02 -6.289291979389348419e-02 -4.876455968727951007e-02 3.808126112938701319e-02 -6.400501552774755243e-02 8.750211147905197218e-02 5.563180115555506344e-02 -5.660935882487951043e-02 -2.949123314294736439e-02 -8.301395120884572099e-02 -1.027115811988930649e-01 -2.742052251784517572e-02 -8.193110777429624125e-02 -6.761972421569026337e-02 -1.127989075459571305e-01 5.023773995970232109e-02 -1.168143545727220144e-02 -3.018659089422065511e-02 -5.652709025130098208e-02 8.713624889530548201e-02 -2.120513004958569925e-02 2.203285624711932150e-02 -4.118272139196612648e-03 -7.061727102361570196e-02 8.881072215391497271e-02 5.145657245856301298e-02 -6.056842984152335796e-02 -1.583380840205768358e-02 -5.589938683956743870e-02 -9.363553684193097471e-02 4.681841909268780189e-02 -8.663792643375502200e-02 1.603005538394199070e-02 4.218173317413002887e-02 9.680083872055597616e-02 5.344873303867830189e-02 8.728806546879468165e-02 -7.533220892939103408e-02 3.824994137113623544e-02 5.458697986140233910e-02 -7.798559053115144968e-02 8.303933281513412035e-02 -3.658645405535676520e-02 -3.087654244307519447e-02 1.786134891459840307e-02 4.899900356474744950e-02 6.910714916131498187e-02 -6.530257490334069603e-03 8.225650693447443540e-02 3.036444339327731140e-02 -7.790298445014590470e-03 -1.012320141947941760e-01 9.742892417229002955e-02 -1.832123530695738134e-02 -5.099202339881710178e-02 -4.680662488809417265e-02 2.308467717488692922e-02 -2.951228016011651564e-02 6.769454912699698901e-02 8.694081141848578054e-02 8.496951485406586957e-02 9.575054166896182495e-02 -7.814443977720629195e-03 8.079059440799901334e-03 9.592022875936484505e-02 2.278378878335421756e-02 7.964083053326437289e-02 -1.768949374473606506e-02 9.912957666001119550e-02 -1.001855869440574504e-01 8.674710335483407087e-02 2.377827388225532690e-02 2.419000331582082247e-02 -9.652608690833837379e-02 8.741407958183977991e-03 -1.052111192611422247e-01 -3.839539337715976858e-02 -8.301869592451683114e-03 -1.096683882258168638e-02 -6.591427008236447338e-02 -2.456197056232303083e-02 -4.135530273939348050e-02 -3.404625281371183310e-02 -2.973285042066415446e-02 -7.418740497529247024e-02 7.290967586600000105e-02 7.279425661965076289e-02 7.121399461852209734e-02 -1.028815924388309516e-01 2.661998189022228220e-02 -3.499022110273956876e-02 8.407880243098483919e-02 -4.967327145036983665e-02 8.800738561768976786e-02 5.320141301841763148e-02 -8.229013679176269344e-03 3.811964226144895496e-02 1.427223745125601878e-02 1.412405340790217657e-02 -3.901934162482691495e-03 2.886593496936368242e-02 1.076173276548061768e-02 -9.392958331690597074e-02 -1.306093433473640847e-02 2.318073519084924011e-02 -6.048988474817914435e-02 -7.540182308978843340e-02 -4.028014115437245773e-02 -4.218949873102226938e-02 1.038014919608477860e-01 -1.372053177982822045e-02 -2.427965888802201960e-02 -2.551730431414645645e-03 -4.661286051766231481e-02 -7.206543138559393102e-02 -8.695386043599284687e-02 6.502116497311707932e-02 -6.968808616014574020e-02 -5.229473227423979409e-02 5.575354910672162406e-02 -1.083654102257107371e-01 5.001647015558791098e-02 5.965862272206608891e-02 -9.558368116175111617e-02 -4.244305747922222372e-02 1.300758694951964847e-02 9.451926531397518427e-02 -4.724459635352272480e-02 -4.928509077828024249e-02 2.258902416408073086e-02 8.656888062345778623e-02 -2.173469779846210967e-02 6.002317420008989463e-02 5.955689527364289165e-02 8.548230565419631666e-02 -4.394419580130056076e-03 -7.595535005757879897e-03 -4.146100524517282171e-02 6.049135533424709193e-02 1.197729796910065522e-03 -6.501091534545763717e-02 2.611454086835980626e-02 2.449620115948450416e-02 2.077697564465327482e-02 -8.344046341446101356e-02 -9.346641226895886778e-02 5.271092620600467682e-02 -2.121999604640019757e-02 8.971494775635062424e-02 4.769589200107191701e-02 -1.644218457472199080e-02 -7.704009567500705313e-02 -1.002885540781117135e-01 -4.151097385471697390e-03 -4.518779222670306350e-02 -6.677533611041999717e-02 -4.286473085264507626e-02 -4.224285241616736880e-02 -6.155191494309115302e-02 6.938125929996977193e-02 -8.614814281140575902e-02 6.401053272181055770e-03 -9.078580822586314325e-02 -9.181057504037484773e-02 9.054815138628277693e-02 -5.993325311788064158e-02 -4.701518852819750599e-02 -3.539856922383324833e-02 2.757934121677839412e-02 -2.547559192882060605e-02 -1.155287423334912245e-02 4.201447406896942349e-02 8.957447087662989693e-02 1.251555404751358846e-02 2.309654889052828106e-02 -1.064822860649714542e-01 -6.017849006331934397e-02 -7.531660196053038825e-02 5.882442750406662729e-02 8.297523956432915904e-02 7.760156943351631531e-02 5.133747214524918279e-02 6.494421397049343278e-03 -2.198392493599149108e-02 5.871594809196084563e-02 -7.764296831504476082e-02 2.032122085702516012e-02 -5.690416187115909796e-02 -2.585358041214575256e-02 9.027288044548088808e-02 7.689561417339094151e-02 -1.772584492323655767e-02 5.038324595059575500e-02 5.442023433184377951e-03 -9.281742850125153377e-02 -2.472443941315350530e-02 4.987302001841977840e-03 -4.206894580993713467e-02 -8.881657597988443231e-02 -6.330708519567605774e-02 -8.539188191364929792e-02 7.100969584172463211e-02 -5.001560764238009715e-02 2.665799681615848432e-02 2.426669727886894556e-02 -2.619769173781407584e-02 -8.696457427788002389e-03 -2.452988720925769126e-02 5.922751224520322877e-02 4.727260631072293523e-02 3.881385395302872771e-02 -5.596945060678181622e-02 -5.959759781174504140e-02 3.350331591730539710e-02 -4.623218514826561015e-02 2.760687585853966418e-03 -4.888462233184429767e-03 5.999959557852815178e-03 3.821671161512962822e-02 3.376022351954094392e-02 -8.645987303735248874e-02 -1.449342422473556130e-02 -9.314543694344176727e-02
-1.233681424999468444e-02 8.366768310696366673e-02 8.072405520561740100e-02 -1.516432321934421679e-02 9.179549631432036561e-02 3.235408450315336443e-02 -6.597573812693453789e-04 5.507450356224627419e-02 -2.960441566032490437e-02 -8.675507018378542101e-02 1.015797111897170091e-01 -6.902665967101921651e-02 3.033458663494548527e-02 -4.147762808777018945e-02 -3.514532640210984819e-03 -7.680284851188171058e-02 6.481843188638381978e-03 4.024463524994586344e-02 -1.908709624428202647e-02 4.916609302286330946e-02 2.552368327284508520e-02 2.453356862923224135e-02 6.575347747595715331e-02 -8.451040974345441076e-03 -1.446268621446247793e-02 8.345826193508468216e-02 -3.231086879637867088e-02 6.798298373431774233e-02 7.602833705239370188e-03 1.839045193618500315e-02 -4.842357607226459998e-02 -8.864816688201022921e-02 4.787771544995333972e-02 2.608169323984681556e-02 -2.092894804960866717e-03 4.651637000728763710e-02 -2.217666066851983059e-02 -4.949461305773970171e-02 -1.494830535357384235e-03 8.182207213055625594e-02 -2.402253108339931845e-02 8.971795327990278457e-02 -6.479844141841520355e-02 -7.641313938971411313e-02 -2.688129048148513167e-02 5.882169688240443395e-02 1.043306614696461604e-01 -9.484908900842289881e-02 -6.952843212901062275e-02 1.480489292442582934e-02 -5.086914978029012657e-02 5.245726197049605660e-02 -7.860928139446575480e-02 1.632761733139392879e-02 -7.743767206020239768e-02 3.896445135432712037e-02 1.097728277984912071e-02 8.437967631252434042e-02 -5.482464184878031721e-02 7.955017422331890631e-02 6.598664430274593651e-02 3.250860521765380762e-02 -3.581834564780994601e-02 -6.184827586084348100e-02 3.221073289743815043e-02 4.440571296891425435e-02 -5.153895267710001220e-03 9.625473916601522129e-02 -6.365896066751063065e-02 -8.829082795451009824e-02 -4.547174597395421680e-02 3.808413675190162970e-03 -6.087015017059910216e-02 7.324892987052401827e-02 6.422137137877743929e-02 2.949831191060350681e-03 9.587447169965111760e-02 -3.844276269525206957e-02 -1.244536330161257268e-02 5.711101808630093118e-02 2.715595426088851169e-02 -5.943653267890275371e-02 -7.965467212805625585e-02 -8.900552130521822980e-02 -5.373581842873900727e-02 7.596876744694727734e-02 -1.039257145463822474e-01 8.058236180154348949e-02 -3.863632151856127850e-02 -2.488349814561159959e-02 7.110166515200357432e-03 1.592075859239931723e-02 2.285432344603420540e-02 -5.710104326313218681e-02 -3.875694676249685777e-02 8.166637073642846190e-02 1.513262250891186066e-02 -8.688512418996742481e-02 -8.622943898872224844e-02 4.768091778652470969e-02 -4.787002905227183414e-02 5.683129283218310568e-02 -9.563134710421587747e-02 -4.716654013946043611e-02 2.010624506036496478e-03 -3.642424860994625951e-02 -7.197157076917189145e-02 1.048065683209855464e-01 5.085175937959166004e-03 -4.561693622137439480e-02 3.089647876935741264e-02 1.594097642225633660e-02 -5.330619357124561503e-02 -1.029016944428780556e-01 9.485341210025104511e-03 5.862604995261787300e-02 2.725349941068311299e-02 9.213477125554689340e-02 4.526643576445447958e-02 3.504109845391786826e-02 -8.523641622564849529e-02 5.257101845147776203e-02 6.279139026579057259e-02 7.117092730623723884e-02 2.884226525738526822e-02 -6.166777404663509321e-02 6.710205128125039560e-03 5.922522943809623713e-03 3.858431625400682990e-02 -3.750856827055940729e-02 7.348653018393445924e-02 3.027693302393389893e-02 -1.064456117056059442e-01 -4.826160147780290260e-02 4.525489136219633390e-02 -6.554591101568969791e-02 7.588153031844743768e-02 5.757810017339867747e-02 9.307550694334702779e-02 -7.278773664067596585e-03 2.990175103663322148e-02 -8.636248013317021632e-02 -5.350135354079601363e-02 -9.986022749223970318e-02 8.152683214860495520e-02 3.601983269823223061e-02 5.219109397865821787e-02 7.334048576095876515e-02 7.218114114899437661e-02 2.709936470874059825e-02 -7.117929295485105404e-03 -8.075267780146667962e-02 8.909988843569838224e-02 3.170674885482457905e-02 -2.654748452903027411e-02 -3.690532296323521810e-02 -4.505289832193028893e-02 5.321414842756343883e-02 -6.033293411838513282e-02 5.783137446957446748e-02 9.418048231949666116e-02 -5.745551270018250944e-02 -2.260152754449538948e-02 -1.044084279164861351e-01 -7.424884839465747434e-03 3.220435651857605358e-02 6.954803299591238996e-02 -4.482867181909628435e-02 -9.685205728641392564e-02 -1.401537774423559750e-02 8.911919927806410957e-02 -4.938691141514697097e-02 1.282032398361456459e-02 -1.015605010172446337e-01 -7.414997125078663653e-02 -8.251747194864901547e-02 4.330791452554182824e-02 7.332872431140133318e-02 1.643137175943662834e-02 7.622897805093280243e-02 1.684944041809751519e-02 8.456849987489740983e-02 -4.601545545333734361e-02 -3.122640518586612332e-02 -7.352776991221779239e-03 -2.925769886729261832e-02 2.542539709376770429e-02 1.129402707940570759e-02 8.351199814985869885e-02 -3.076715637059927386e-02 -7.653986044648147802e-02 -3.904131292190076569e-02 5.942092903082806660e-02 4.979397278914868274e-02 -4.176091765460515984e-03 1.918401677571724209e-02 -3.294015296706108865e-03 9.517357911565582640e-02 5.320750018338386844e-02 -8.983535663073000110e-02 -3.953220800733820567e-02 -9.346157377651147236e-02 -4.662374211967029725e-02 8.170078395231201995e-02 -2.804648532580874404e-02 4.966525437125259013e-02 -7.133273897460175317e-02 -4.887614531386907241e-02 -6.681064591490142035e-03 -6.995659442279165974e-02 3.848576116230125604e-03 2.930207963028210599e-02 6.613331320616888664e-02 -7.381881192536069412e-03 8.227969121678019304e-02 3.201468220924320179e-02 3.087964764225760786e-02 -6.807468515543571574e-02 9.956351357029748217e-03 6.337995723204080389e-02 7.463683257734810006e-02 6.825389374135300280e-02 5.343858879300985437e-02 8.690571254683249203e-02 5.747637105979142014e-02 6.418921522371404120e-02 -3.241588238060400667e-02 7.140485678358300670e-02 3.926878286156686854e-03 3.102442076634748420e-03 -9.805612439894434429e-02 1.389930013953922031e-02 5.775581163481727925e-02 -8.441020393372938857e-02 -8.897845725198945399e-02 -7.053360776227259044e-02 2.552536189896093335e-02 -5.539612350006616753e-02 -7.483672485175439128e-03 -1.833048373080091095e-02 -2.472939660122197222e-02 -3.688981201800133058e-02 5.255435647353612350e-02 9.671920883978550598e-02 -1.413519816981140612e-02 6.628249203223954278e-02 7.052929650203970668e-02 -4.080072170246911573e-02 6.656287344481107149e-03 8.151400569294509069e-02 -8.298363023265202532e-02 6.481437276076346121e-02 -2.496667603174510322e-02 3.371524286632499035e-02 8.122767597914412607e-02 -1.608346293394945573e-02 -5.705722974548804033e-02 -1.041297132577271023e-01 -4.862773322627419320e-02 1.132809970512060754e-01 2.917125566419876900e-02 3.634178549547825016e-02 3.701282495633666236e-02 3.827831560700430819e-02 -5.360434274170954028e-02 -8.628414786957264160e-02 -9.083926453302647308e-02 6.368876663399007654e-02 -8.755541043316641958e-02 8.998491504204980673e-02 -8.237930074039526152e-02 -4.237059193755579774e-03 -4.548711314049062870e-02 -1.280029009694150580e-02 9.170489166958503691e-02 5.818588640718271032e-02 -3.405998475071079362e-02 -2.653033268911110173e-02 2.938566829410607303e-02 -3.270464153395051532e-02 -1.060986715143324467e-02 -2.895825331465272726e-02 -8.066541811498219305e-03 -4.104251568622203222e-02 2.787248094086788256e-03 2.144677641239844945e-02 -1.365493494192958693e-02 -7.823421002317573758e-02 -3.804373985135510450e-02 5.876702902382594136e-03 1.119421471395307816e-02 2.092036202460799410e-02 -5.550468011301253751e-02 -1.097200441034758191e-03 -5.534776519921649068e-03 8.680838852206587686e-02 3.923531675085138726e-02 -6.165870156811004144e-02 -9.878366617761716317e-02 4.195159577623405051e-02
-4.038844139150987722e-02 3.866151169509379065e-02 4.594807216399033473e-02 -4.831895911310442326e-02 5.824976576006102129e-03 -3.891042487871136657e-02 -2.408939758685596164e-02 -2.234876158695138157e-02 4.590230339821195493e-02 -1.036563971921051763e-01 9.868665257075895370e-02 -7.502916128947249852e-02 -5.707779340743777963e-02 4.091600581551119858e-02 8.997043483007034770e-02 4.679931922990832743e-02 9.500644243662652311e-02 7.821449507130441570e-02 -4.386659013839994126e-02 -6.717061555868199252e-02 1.599079130907322260e-02 -4.486699586121005445e-02 -5.310801380818720024e-02 -3.898209717605363028e-02 7.182827188975758614e-02 6.812206196589597196e-02 -7.693685540868012984e-02 1.048074802312771031e-01 -2.406887593463432826e-03 4.900981067599279734e-02 -4.398424958353345376e-02 -1.033271513706855993e-01 -9.499505515298108105e-02 2.410907657538258198e-02 2.722609408294581271e-03 1.757446088233605846e-02 6.758090329642033045e-02 7.620254838969550693e-02 7.988769839701251319e-02 3.788322336428258386e-02 6.444706640511060902e-02 1.242227776053462379e-02 3.101392590947672431e-02 3.195913798007368745e-02 -1.156287542545912476e-02 -3.300706486973896403e-02 -1.417369171358424766e-02 1.060397338432756548e-02 3.016406818240290402e-02 -1.789592032301659530e-02 1.772585299263323283e-02 -2.579074862862884912e-02 -1.015970084074262064e-01 -4.784891067407653215e-02 -2.726633462029440583e-02 -2.604032136155726151e-02 -3.274269160717380167e-02 2.348867217110882713e-02 -7.548584520856183033e-02 -1.060011094635894963e-01 -2.595634568826298699e-02 -7.219754139227023415e-02 -1.819022281818127862e-02 3.635438219246928115e-02 -9.000300307252004361e-02 3.859567552619857372e-02 6.100991235052916073e-02 -1.051701001570058136e-01 5.487909646902795063e-02 -5.666598862686800936e-02 -1.232218393269362243e-02 6.852295529758663239e-02 -9.131546596212157529e-02 -8.250426708250946373e-02 1.171613904114977324e-02 -5.781139034703960955e-02 1.049186810154884020e-01 3.702278191430107002e-02 6.937377133823259545e-02 7.297452806062329489e-02 -5.692899451459670218e-02 7.806889268637620671e-02 -1.729814834034947360e-02 -8.297165682680400500e-02 -5.842397855982631866e-02 1.378055331966084388e-02 8.064702155676030382e-02 -3.141744617045129362e-02 -4.258902844269763649e-03 -6.337301172787557224e-02 -4.846024401461881959e-02 -2.437383932734096120e-03 -7.750171745568674997e-02 -6.626569884093962137e-02 -8.530055344818822383e-02 -5.451393674798361844e-02 1.605139553339743341e-02 2.482518834528804619e-02 6.543710502154535813e-02 -6.869165928923562370e-02 1.795937089656430424e-02 7.179377368705858187e-02 9.402821799821767246e-02 1.944242724729645586e-02 3.874110687542611092e-02 2.331045458039104207e-02 1.761332298615804828e-02 -5.959845838370222276e-02 -1.278929788618550500e-02 -2.123339514071596879e-02 2.622342163187188751e-03 4.033753106313167636e-02 -2.062651167071198957e-02 2.279487300056785154e-02 -8.341387478352065010e-03 4.698831489715130962e-03 -9.451227766960602905e-02 -8.022770319949946993e-02 -3.951882427286934618e-02 1.638085748616119677e-02 2.541945367713718817e-02 1.758163039653386217e-02 -5.268156563070239273e-03 9.575217620933904050e-02 -8.569905876357741814e-02 -6.956979056239320780e-02 -3.115678638546024240e-02 -1.095813002548584256e-02 8.428047792769529853e-03 1.059596135704842651e-01 9.983416367832637084e-02 5.187673413695529506e-02 8.897432976979299801e-03 2.655402958054431384e-02 -1.758247410494814117e-02 7.162656536724107403e-02 -2.403044998099652940e-02 -6.803197440849124977e-02 6.274357772257954657e-02 -7.721364500942158593e-02 1.432159019904285895e-02 -4.628006196393930766e-02 -8.087162219404435415e-02 7.176929633961777466e-02 6.640361348952035503e-02 1.202176250389998084e-02 -5.021894196445206987e-02 -2.318478700404493983e-02 -1.005103193489239599e-01 -6.931335753357792395e-02 5.843500999045896094e-02 -7.298031156034112676e-02 4.102162219243413871e-02 2.717283255845100859e-02 -3.061954242523566919e-02 -6.068634715581856104e-02 -8.938397029914726954e-02 -1.490324399485435866e-02 -4.455854227431389064e-02 8.819653367118771015e-02 7.853786897178155479e-02 -7.015872457564835407e-02 -9.883916935601769205e-02 6.230134406534017927e-02 -6.110115030513623563e-02 -2.528001324265097965e-02 -6.979133509672764968e-02 -6.112358532598913263e-02 5.300439022228290581e-02 5.627200049367597420e-03 8.414418562242423349e-02 8.838759061496638536e-02 6.671017446146307317e-02 -5.045143682344179620e-02 1.681485075051118022e-02 -1.146088864663093350e-02 4.442770615387781757e-02 5.502048341172113138e-02 -3.345709427559709348e-02 -5.930730752079274581e-02 -8.834394088872453421e-02 -6.723879079502491363e-02 -3.302284626306061649e-02 -3.013888127326828925e-02 -6.393813961480397656e-02 4.982980250059457911e-02 -8.213575381652588048e-02 -2.134942284356985270e-02 5.614920130294905748e-02 7.128709558296970894e-02 -4.596734405366678655e-02 6.231842350241185990e-02 7.993434901184222341e-02 8.660346891420529769e-02 6.183973882365267905e-02 -9.920807654327342545e-03 -6.917223678006796661e-02 -8.817583537501946789e-02 -7.647495625377430384e-02 1.009533779635904960e-01 1.110611677031423175e-02 4.096855043083830888e-02 -1.108856435066581103e-02 6.757162613443801202e-02 -8.424813307904256698e-02 -7.254737951080467151e-02 8.208609360067781191e-02 -1.375922638116600441e-02 8.537919953858651156e-02 -3.342311203875028558e-02 3.231266755673989355e-02 8.840657279839427007e-02 -6.695341679736605163e-03 -4.879336639200238662e-02 -1.179375311843297233e-02 6.896735011746497890e-02 -6.937634668351630451e-02 -1.062253704770603768e-01 -1.020193891967367261e-01 -1.197052052165604036e-01 -1.953730493601977050e-02 7.702112821497424100e-02 4.584883572611057889e-02 4.888986000577495716e-02 1.337756826981386683e-02 -6.330065597657340282e-02 -1.784829216211593003e-02 -6.481102533206328786e-02 1.096037478742557629e-02 8.859847007929010088e-02 7.178797882981829970e-02 -7.624297311462083226e-02 3.852025380074579342e-02 5.455512705450051708e-02 1.084268905047600373e-01 4.246029042950869720e-02 -9.322363292183930006e-02 -6.105874547354384063e-02 -9.390192191669663110e-03 -8.553498949357755954e-02 3.472450749169274375e-02 -5.067149195090386166e-02 3.449626487796229879e-02 1.258808664330962439e-02 2.897747055642756198e-02 7.293213142081329814e-02 1.259032372715921180e-02 8.468652431826483029e-02 -3.672812407496252318e-02 -1.597680269230886477e-02 -3.365896340483523486e-02 2.502258229883810815e-04 4.039209649113811168e-02 -5.792268344675128439e-03 1.986100308425649275e-02 -1.255329982602838845e-02 7.866972504276287248e-02 5.950323862575664785e-02 3.554911757126057170e-02 3.108803748584634125e-02 -4.432698477638339490e-02 4.268873132983687715e-03 2.957784793530969861e-02 4.229947576984147833e-02 4.186147790742278385e-02 -6.010106129005197972e-02 -8.102360060167632105e-02 -4.775645258793981274e-02 3.852534900557505471e-02 -4.922787664292187920e-02 4.197109740675526723e-02 5.439146649506380188e-02 4.348995762640311957e-02 7.441107685850968656e-02 8.821265054832695685e-02 -2.439881572454562914e-02 -3.066367572507487996e-02 7.084635932799938918e-02 8.580811667657899100e-02 3.898055283198192250e-02 3.202091281716525767e-02 -6.502439107847492183e-02 3.400962025429162677e-02 4.839758944528142065e-02 5.406192138674732056e-02 -1.970375010011938405e-02 4.914531988637035193e-02 -9.506110270496383186e-02 7.187727554875483760e-02 6.072254807424431328e-02 2.971119088068227207e-02 -3.507207527225907062e-02 5.148697305382199385e-02 6.997225584390542874e-02 -4.368270430966414430e-02 4.527597348856125109e-02 -2.970952898933218803e-02 -1.441726244031717521e-02 -8.401082523225601728e-02 2.062426337862138109e-02
-5.016646610598278488e-02 -6.043423216972562684e-02 -5.647012371740402215e-02 4.675349773866210173e-02 -4.701247191617911880e-02 5.776821486826961422e-02 -4.522069305091895586e-02 -7.133822380272640540e-02 -7.489389077048948240e-02 -1.951091151567600421e-02 -2.417437943607002315e-02 -8.971481505689461733e-02 8.039480667323439800e-02 2.589072795497079221e-02 -5.305119662201400119e-03 2.071652020389043794e-02 -2.989362126488333445e-03 -1.047032459742517838e-02 4.876003567716580972e-02 -4.644811470622974003e-02 7.049616868828396943e-02 9.376529625153515179e-02 -8.787291384081769019e-02 -5.960226497160518722e-02 6.756173905660668721e-03 5.863621070360498962e-03 -2.965673588406936290e-02 7.218702624729458894e-02 9.660369241923799644e-02 8.079302694953065245e-02 -1.665952333706045146e-02 7.956698772088126315e-02 -9.208411026394684729e-02 8.567895321675376985e-02 3.771268497176780143e-02 5.946242283956442581e-02 5.392079644498506269e-02 3.586435456826997381e-02 -4.018658751236465348e-02 -7.335159097574943388e-02 -4.787393589285677403e-02 9.254678881558622838e-02 -9.179883401502310358e-02 -1.121273938281824034e-01 -3.886588834199704995e-02 -2.530289853193590580e-02 7.803705086736087426e-02 4.048597785283127026e-02 2.302443264194004025e-02 -6.102367061520496544e-02 -1.706521394355551766e-02 -3.686722870131248914e-02 -3.467360143320479676e-02 6.170419870893073533e-02 2.213650784841633690e-02 -3.246547838916193085e-02 7.183091586867172695e-02 -3.575344372016114793e-03 -5.744183733034018136e-02 5.710788599828029583e-02 -1.177940250089043808e-02 7.710891546721951664e-03 4.202669573470284997e-02 -1.376022440190939958e-02 9.143190296671499517e-02 -8.038950777770528799e-02 3.169649526761928598e-02 -8.864454419988508638e-02 -5.785544787121347371e-02 -2.153969447658473854e-02 -9.280413589167604838e-02 1.999051189072868773e-02 2.536452956815537629e-03 1.053745896849485608e-01 6.371775405352714250e-02 5.999859477065412616e-02 -7.051620581588481651e-02 8.993459742727985540e-03 1.088925888808143713e-02 7.544411171915074710e-02 -2.730619796248484610e-02 -9.199647212048235601e-02 5.318248996056391953e-02 -3.915739698035442667e-02 4.571907006516447852e-02 1.774322094034709238e-02 1.101541190061431502e-02 1.142484209424488723e-01 7.597156088905487881e-02 2.614317274749183503e-02 -1.102985358285237319e-03 3.938980996067310836e-02 7.696828914613723649e-02 6.355061999637372228e-02 5.224727994048478097e-02 -1.454121192399004427e-02 8.539295711092531604e-02 4.270644653131753371e-02 5.048781797246602171e-02 -1.996123443737901279e-02 6.928703738972952220e-02 -2.954371523748874212e-02 -2.311341763055197243e-02 -6.477923509638876254e-02 7.420820108599891773e-02 -2.903509417720926550e-02 6.959139449992253999e-04 1.943572721524991845e-03 -3.561215307221694826e-02 -3.522009145397218127e-03 -1.780619170583935817e-02 -3.863070401567816892e-02 2.362465193238206390e-02 -1.296083726730091479e-01 -7.931709634274394793e-02 6.791018873618173690e-02 -6.593242640801016963e-02 6.098511048306629045e-02 -7.545710973958076606e-02 4.617627024799195179e-02 7.658002428644315740e-02 1.020316687467715255e-01 9.564490416828180797e-02 1.026634226098085967e-02 -5.981400925979590139e-02 2.728803998497605215e-02 -9.809553249736788910e-03 7.219487714155674307e-02 -3.508278242175050243e-02 -9.701068843717046419e-02 -2.998860447577318331e-02 6.044419657713573368e-02 6.523595450163983955e-02 2.707326624387194208e-02 -6.996534997153480706e-02 -4.454239400693806722e-03 -7.892892818773450392e-02 -3.700481150630813981e-02 -8.505486492889902106e-02 -4.280950098924055092e-03 5.179765634993604290e-02 5.744941207574787850e-02 -2.076490057594471486e-02 8.625141108028924752e-02 7.974463455787372812e-02 6.483953256024196921e-02 -2.036316329071516038e-02 3.197121214279145807e-02 9.590412023351416182e-02 4.288955143981480755e-02 -2.355683426125911722e-02 2.954688757468183768e-02 -6.059193136072883040e-02 6.733612053362793282e-02 3.015705451753627336e-02 2.688974306432537556e-02 -9.829832312507326419e-02 -5.352242907807149008e-02 1.054095810773923725e-01 8.263781740107478679e-02 2.047538485814584530e-02 4.747392965610830462e-02 -2.056532313199932807e-02 -3.374524608809096465e-02 -4.346084493793356957e-02 3.053616597807073604e-02 -3.025131395867036374e-02 9.871800863855301200e-02 7.321848057409342629e-03 2.055104260727834767e-02 -7.733010489142541632e-02 7.047809458033792163e-02 1.054102185963191746e-01 7.093163466762392178e-02 -6.727038617348778116e-02 7.619982938106839576e-02 -2.572379479906986011e-02 2.967537852547052352e-02 -7.669721256407328880e-02 -2.583193209538008073e-02 4.034445540904892102e-02 3.719792831843192482e-02 -2.081483168366104683e-02 -3.997390773587024271e-02 1.622300796916130439e-02 2.720640756973841806e-02 -3.007186117301599571e-02 -7.620125380166731244e-02 3.929269669926651470e-02 9.202375117869101250e-04 1.059446093328986344e-01 5.965019964841221378e-02 -2.454725012672779802e-02 -3.682480827346713836e-02 -1.693154654555078034e-02 -9.204161739533034403e-02 1.000304229505978304e-01 -6.065995901736875862e-02 1.777678349930100765e-02 -1.890099578816209925e-03 1.457030258405591153e-02 -4.663533107090060692e-02 1.259613948117185682e-02 4.069043631121704169e-02 -8.705812723782309359e-02 -5.612251481408673734e-03 -4.522557706950339901e-02 4.208734723719954884e-02 -4.389195557006485282e-02 2.515498267538041066e-02 -1.024405649256490275e-01 8.159164113938519036e-02 1.480042505949197632e-02 -7.829178860743365997e-02 -2.462529943363666891e-03 3.621051807850889787e-02 -6.635275494183612288e-02 4.989628604377958215e-02 -5.974849803000023205e-04 -5.188791593323936746e-03 7.380077289087121073e-02 7.894075631351181455e-02 1.102585552915958944e-01 -4.035723776940203927e-02 -6.257123970345479513e-02 6.176561979348883097e-02 6.388038850630636811e-02 -1.601740548041166723e-02 -5.348006613031240121e-03 6.313744725113436262e-02 2.852848237553012173e-02 -1.754070549586390568e-02 4.654690425619129046e-02 4.461727214461353591e-05 -5.215466398062245518e-02 -1.010410869187913785e-02 -1.190891187680069574e-02 -6.412854137023132894e-02 -9.338703480548116165e-02 7.764573300958142743e-02 -3.485506572589339852e-02 3.465997753852322755e-02 7.664766423544566720e-02 6.516371124068430498e-02 9.776953080251160610e-02 3.780317822771645658e-02 -3.175814949062237547e-02 -6.685091088270586623e-02 -7.738999978261122160e-03 2.745031878350247256e-02 2.998498594801380160e-02 -5.535119467329880499e-02 -7.885444186412762790e-02 -4.867554904222829576e-02 7.693377248940692914e-02 9.074096355372424094e-02 9.400894326975521229e-03 8.096242479873873299e-02 7.597438614389667375e-03 -6.926920610363057618e-02 4.937428363966009891e-03 4.249497075918751837e-02 -2.572547585632093889e-02 2.809772342960915187e-02 -9.032658717829421258e-02 -1.106229451665025343e-01 3.439023100524863513e-02 -4.947217513017491963e-02 -1.144341184965477903e-01 6.948424600325019129e-02 6.979307159970349339e-02 -2.409196200492272344e-02 -9.470182430514852145e-02 7.535418736529328476e-02 -4.837668679137124145e-02 5.529253591242132976e-02 2.413692328286649522e-02 6.416526532943392369e-02 -4.122669537234875670e-02 1.037458580882117676e-01 3.438690960516228856e-02 -5.880979128527710764e-02 8.013118181437985099e-02 -5.605219917832422044e-02 5.346397255137116944e-02 -1.811555244572144938e-02 9.296690081612880852e-02 4.726847185456353045e-02 -6.698573539569446789e-02 5.318702210371308720e-02 -2.214597634386704372e-02 -5.020577642310102701e-02 8.021443308252898530e-02 1.649587917692655128e-02 -6.182679266416837849e-02 6.383340319948243614e-03 1.629620826998602959e-02 5.781950834616904344e-02 6.788334496522809014e-02 4.237991033423638837e-02
6.878584279300710425e-02 -8.220578830566474537e-02 4.899190209948637437e-02 -5.411688276714813478e-02 -6.529671849512914961e-02 3.746434541004612512e-02 -6.375504587981520310e-02 5.252715680089339867e-02 -2.430881357488035022e-02 -8.359892861413817378e-02 -8.299423271932196422e-02 -4.341481332530290616e-02 1.056994571564389140e-01 3.150172454717602155e-02 -4.866970408439837137e-02 2.984868998813009627e-02 -3.989211961804645795e-02 1.996432919489259800e-02 -6.550282271293579595e-02 -1.617373025479079338e-02 -9.203531783812159139e-02 -1.932405629544567058e-02 5.863219812894720356e-02 4.361267486037363056e-02 7.043433132703130761e-02 8.826738133346230530e-02 -3.909634630192505150e-02 -4.247968119577434642e-02 2.686875493844034096e-02 -2.366021830929141909e-02 8.853475594895580947e-02 -1.133299416374923541e-02 6.464214738844646646e-02 5.018695670508834319e-03 -3.200417711602700915e-02 -1.964957252714912353e-02 1.987930946809485233e-02 9.242812987216177112e-02 3.276136274131487280e-02 -1.428421026928996390e-02 2.304932468285103217e-02 9.173999008709068578e-03 6.612954392091197064e-02 -6.992874661864566244e-02 -7.132252024883314889e-02 -5.032472746317787765e-02 -7.254201084606118344e-02 5.359177682609033225e-03 2.575586033248779272e-02 -7.522063460918096411e-02 -6.646528335013643374e-02 2.317128284759593579e-02 1.232123758350305298e-01 7.820670121095896210e-02 7.790688787836488882e-02 -2.929047448854286625e-02 9.729846277024761791e-02 3.091030037400116504e-02 -8.003102744720848316e-02 3.879452832188304192e-03 3.578917166605207530e-03 2.249678801541742795e-02 1.133244251806153902e-01 2.530747604851691507e-02 -1.308872366206876615e-02 -7.760308744021096605e-02 -7.681191929155697928e-02 -6.148415843810087905e-02 2.133130784847742101e-02 -8.737299847579292622e-02 -2.427049702771530079e-02 -8.937908185888392143e-02 -4.327980896648883635e-02 1.888490495895980836e-02 1.245928683737713982e-02 -5.949591422853139910e-02 5.382946952068114188e-02 -3.703139445471007735e-02 9.045181701828330922e-02 8.738170847651571815e-02 -1.174014345842388715e-02 -2.385208007134992023e-02 7.282044042456377320e-02 6.988906719793988587e-02 -4.169828784540138139e-02 3.601579905719817093e-02 6.812546155967677541e-02 -9.212822977649609557e-02 2.265339991873785430e-02 9.881462553853959108e-02 -1.904434334917910754e-02 -2.284133293151732400e-02 3.655467186137694585e-02 -6.376493425891367750e-02 -8.796697499636865758e-02 -5.932973352447697135e-02 -6.433061853333825464e-02 -4.319155333259469542e-02 8.912855008924672195e-02 -2.502215003594508713e-02 -2.679429416706716541e-02 -2.016527784805595414e-02 1.799266543044547931e-02 -1.450557213549784168e-02 1.306468007916824353e-02 -5.649753924923257148e-02 -7.156764316993693975e-02 -4.601977432736688300e-02 -3.763223148257818090e-02 -7.021975638595119237e-03 -9.077156700872365813e-02 -2.173083497435349815e-02 8.564649681055110098e-02 1.553284041637847772e-02 4.706017675947134909e-03 -5.101975200946057276e-02 -1.061951278694062140e-02 1.464491558465529780e-02 -3.786064619826379901e-02 7.429403728901183557e-02 -1.349522994132147657e-02 7.206567851471296082e-02 1.018758025628712510e-03 2.723633197109110934e-02 -7.882017467445159853e-02 6.827349566665294467e-02 -4.778962864439131181e-02 1.436810551985776355e-02 9.238632611271056783e-02 -4.633651700735479800e-02 1.093001924860651300e-02 1.319414062071763358e-02 -8.078505102171880392e-02 -4.074057903621759041e-02 -6.271363206937827228e-02 -7.285142123333304687e-02 2.418101943970508982e-02 2.308362246321420119e-02 -1.145966476266263578e-02 1.442369790589312882e-02 -8.115518165578133880e-02 5.854031555695446420e-02 -4.893216635188217534e-02 -5.755843125053133197e-02 1.789394779219420639e-02 -4.370520217505416416e-02 8.650212030124924956e-02 3.082368324451726510e-02 5.885302798059727225e-02 -3.725371502204112562e-02 -3.147617849639752774e-02 7.662127381894295874e-02 3.344805066594559034e-02 7.309179708500150585e-02 5.723738384231266685e-02 5.300661908246901560e-02 6.017847373565687191e-02 2.534158163291413621e-02 5.444464918891933625e-02 -3.051694574462947285e-02 6.375768356565239547e-02 -5.199291693936055475e-02 -3.735826116709982381e-02 -1.730652949360764192e-02 -6.703989670054016914e-02 -3.961793965029081904e-02 1.217500968693792929e-01 5.452335260864574207e-02 1.327832010256124393e-02 3.354977383967111537e-02 -7.255426397125674942e-02 -1.340778779196855758e-02 -5.820695537893651184e-02 -1.189524927615103894e-01 -7.260895135784382892e-02 8.611440078428747591e-02 8.134343797699875034e-02 -2.780055605819851949e-02 -7.191079423103045876e-02 2.239003662060473979e-03 -3.004279236943714626e-02 1.055597952783428328e-02 -2.692264202562096032e-02 8.654020601801873380e-02 -4.511357516992375860e-02 2.651545044802320478e-02 8.114431384579905149e-02 6.480692653335744235e-02 3.240951993245640844e-02 6.739522455865079587e-02 -8.872222593212301944e-02 -5.433366862056920876e-02 6.002192859120365764e-02 -1.878326852533061808e-02 6.719788688602441884e-02 -4.651012449781919550e-02 2.788135368607611714e-02 7.447053503256735596e-02 -6.663913190680982590e-02 -1.391775674979916708e-02 -2.847273954409540106e-02 7.512766584027032180e-02 -3.798449689259977141e-02 -1.301013837756393940e-04 -7.392014888627626568e-02 2.434049074586121242e-02 8.647734771933342224e-02 -8.243579724949770537e-02 5.437886278450939498e-02 8.951258409229816831e-03 -1.136983585721740297e-02 -1.887420383512236621e-02 -5.284158323150506265e-02 -1.048630871446749185e-01 1.024107806170835994e-01 2.971403765900390570e-02 -5.647634956371379300e-02 1.440859073790813800e-03 7.290218172138455965e-02 3.877729379643707341e-02 -4.403906517783288260e-02 -9.984153035499523932e-02 3.969028199396829049e-02 -4.545030849484886504e-02 -1.816064928431015968e-02 4.662122943702481925e-02 5.853514954580934376e-02 3.301379039859865527e-02 2.984613849709003702e-02 -6.911996578279862302e-02 1.145898446146304851e-02 8.557481938213008787e-02 4.577408135127018080e-02 -2.237866862490497585e-02 6.728171017109044194e-02 -1.637209221945596510e-02 7.467704860895683916e-02 -7.273890750915385298e-03 -6.436366204444200767e-02 2.279324917272163714e-02 9.007775581317750691e-02 -3.475653058618891761e-02 -9.539034041798161168e-02 1.159871375489787866e-02 -6.009977514994239989e-02 4.256216627221070387e-02 3.292267409387634319e-02 6.071716788630183298e-02 -5.017083346734925453e-02 -1.631798889316101939e-02 9.474015456298374993e-02 -6.502579017044490817e-02 1.737917161116003459e-02 1.288253730455560797e-01 -1.077938375267818299e-01 9.032773998119492109e-02 -3.055381427218034282e-02 1.738806301822105882e-02 7.217263782099472835e-02 2.381873039932903141e-02 -3.718313246652028836e-02 -9.280529463993009154e-02 -6.673000425436234617e-02 6.281497861208618083e-02 4.598988933125140732e-02 -3.000580440367918867e-03 1.257145616861443660e-02 -6.181609984366375626e-02 -5.112339313737115226e-02 -6.094849277358093537e-02 1.474362806471377421e-03 -9.125413795236793357e-02 5.698114721941591361e-03 3.075875689856278489e-02 -8.065121606252356745e-02 -8.323484012318935199e-02 -8.611599097496872024e-02 -2.699509524137140570e-02 8.201285037842999392e-02 2.128314565316183002e-02 -9.116813194439679635e-02 -1.289606953442194552e-02 -1.211460806170486376e-01 -5.883359476494973844e-02 6.370307247387255178e-02 3.291182014551542745e-02 -3.548294248884688307e-02 -3.678493861447003355e-02 -1.161130539945338797e-01 2.753683130675085161e-02 -5.107990563327028527e-02 -6.758118603973291283e-02 -9.290618704554497176e-02 8.264335481155182794e-02 4.742942311223100060e-02 6.664684309453451638e-02 1.176673583925762906e-02 -6.371672885088414118e-02 -7.259687808538947684e-02 -1.347500087467747888e-02
6.303465256828828800e-02 -2.751502307518819204e-02 -5.644793069844185329e-02 8.021562041858565362e-02 4.629722387927889121e-02 7.725707053983453532e-02 -4.795891655077802462e-02 -1.024192850209447274e-03 1.006789629364953330e-02 3.033038176818167800e-02 8.730829154187697005e-02 4.795451069025254143e-02 -3.508034196106304958e-02 -6.636606908147787975e-02 -6.902828409053964921e-03 2.046537071430809193e-02 -3.729675794367920405e-02 3.278479755933594308e-02 8.245023144139213001e-02 -8.913685632366244449e-02 4.849623969567169735e-02 8.369242960363412753e-02 -6.011358747236034833e-02 -2.441315098661386851e-02 -6.475084169689090952e-02 -2.277819351693761984e-02 6.709659672121366658e-02 7.349155111669607165e-02 6.669613960489957638e-02 -6.825643052792088050e-02 1.410163642992131455e-02 -4.139766361338948625e-02 4.397542270537012007e-03 9.705721629704795739e-02 5.188950150074393697e-02 -1.033795632596659353e-01 5.661601036214120031e-02 5.766927427293518094e-02 -6.949926112697639435e-02 -6.529182784064579970e-02 5.154751188610088436e-02 -7.360193715363619327e-02 8.110461045092853816e-02 -4.553471567359428443e-03 7.308306090431368474e-02 -9.776394743323923997e-02 7.193927429468678636e-02 -9.592766747453695952e-02 -8.941160509772530518e-02 -3.163282609194159600e-02 6.420889457794792810e-02 -4.734933371526865720e-02 -5.064685712016386149e-02 4.204025503030118377e-02 2.940864644237205748e-03 -2.098515077807611151e-02 -7.720215799688048830e-02 -9.890858065237198571e-02 -4.036345913147638964e-02 -3.409709620144711628e-02 8.334952836727130276e-02 8.920572120184681875e-02 9.548391310532821502e-03 -9.335108011451570542e-02 -2.643373796925569882e-02 1.073622204480503828e-01 1.087763708857722098e-02 -6.560074611790951693e-02 -4.145997368258492327e-02 5.183414241742508727e-02 2.315303155009654223e-02 6.453786179989443039e-02 2.704376936912190887e-02 -3.821361350501381073e-03 -7.186705983457468416e-02 -3.973596430286753522e-02 -5.478786717290636682e-02 9.566095736140844963e-02 4.960278143605425551e-03 6.761457571229487207e-02 -8.773748768633930772e-02 -3.372736657276811240e-02 6.564801608747226902e-02 2.972502463416078905e-02 -5.623463721298526535e-03 3.134056649107463954e-02 7.709640781885451766e-02 2.507081758536476232e-02 3.954852866304227332e-02 -9.116782959687864951e-02 8.200766131841834283e-02 1.261278367722963589e-02 -5.011947507497511306e-02 1.961512729324778673e-02 -6.838535456520966616e-03 4.545636272091197264e-03 1.890458216463775445e-02 8.202127779300173033e-03 -4.164677937047318174e-02 2.519381903482098908e-02 -9.388931925995930294e-02 5.003314172170345714e-02 1.128906806436897345e-03 7.322604084556526283e-02 -9.156470695227661438e-02 -1.102004006528436442e-01 3.420383052845483128e-03 9.693764337544552578e-02 3.066982148762545466e-03 -2.788000567823355896e-02 2.815312070785788018e-02 4.455697996075155820e-02 -2.647424829137321953e-02 -2.289709909002000249e-02 -6.260667985492320009e-02 6.255362699247869751e-02 -3.518416664086199824e-02 1.944847400617635141e-02 8.736785371074834439e-03 8.528078988052933962e-02 -4.337520850180329179e-02 7.040951443766779554e-03 1.010023379461528620e-01 -8.614210874878297508e-02 8.282099767533039614e-02 7.608934203068540292e-02 -5.791604546304512935e-02 -7.229032411273272896e-02 8.620762267424286751e-02 -1.991913090892758701e-03 7.606943111917129074e-02 7.531097287020641073e-02 2.284721950223367326e-02 7.492065465729906559e-02 -7.247281499691800299e-02 -7.125775034815620690e-02 -4.040837792386577781e-02 3.882367920552535091e-03 2.366529744310152256e-02 8.130802015529892124e-02 5.008576686217722923e-02 -1.688918366470011645e-02 -6.603769759209557333e-02 1.291960712044855006e-02 -8.347401333535968415e-02 5.108966414906843112e-02 5.228038285243750277e-02 -4.818257936549572018e-02 5.427911461149872996e-02 1.508130433494126593e-02 -6.319684475906371668e-02 -2.004229964814593229e-02 9.053862598551805363e-02 6.685538010373182072e-02 2.516130360740826202e-02 -1.963410169064427890e-02 -2.728218951817941093e-02 1.848432986944068337e-02 -4.729246687088691642e-02 -9.316618328347152367e-02 -1.076342582757583780e-02 8.997449096934245771e-02 1.597210304415343923e-02 5.703369055747079495e-03 -7.544819454359571152e-03 -8.143480397120970993e-02 6.359165371768223107e-02 -2.341588327478656001e-02 3.760866986003424169e-03 -1.878396683279138189e-04 -3.034560436233505951e-02 7.535242042699498433e-02 7.943895517797706918e-03 -2.022111247824016217e-02 4.681858961021775206e-02 8.580391471105314194e-02 5.102934422832611921e-02 -7.702973490975999205e-02 -1.351171890931854823e-02 -4.804953394039745279e-02 8.920902694527824139e-02 2.121759586743047349e-02 -7.217058267139918326e-02 -5.390340319846890701e-04 -2.313190311038660837e-02 -1.955574457879676042e-02 1.257607572519640893e-02 6.428936949005800705e-02 5.271852006809723407e-02 4.905041047280810779e-02 -1.141886990269390806e-01 1.104883077940579800e-01 3.154576108465723810e-02 -6.414761349809024182e-02 4.739042994412045497e-03 7.194708510144028069e-02 6.752761449023945983e-02 -4.610238146498277928e-02 2.112025525882541346e-02 -6.750364578081245737e-02 -4.508365660803692609e-02 7.047959231715968109e-02 -3.421369503846941745e-02 -4.260161201743459941e-02 4.034443449946691074e-02 3.376270851681906215e-03 -5.404013831558780734e-02 -7.847065047741677568e-02 -1.553245970459515846e-02 2.070357120089171346e-03 6.356303561021753312e-02 2.481133924125922957e-02 -8.041359623193422568e-02 7.837113132514311742e-04 -1.047669107778518016e-01 5.868865473915024430e-03 -3.277812480168910969e-02 5.964379472344977923e-03 -6.757376018898088310e-02 -2.921632996925893275e-02 -6.578455295003049486e-02 4.708961610928260461e-02 -9.112278920877558974e-02 -3.643642264751314336e-02 6.831016624406607840e-02 5.797550122222068503e-02 4.425881912162159953e-02 1.054614319527689970e-01 -4.889997108809140264e-02 1.998568979803222109e-02 1.022228859584117244e-01 -2.537232108787105395e-02 -5.218738262116734417e-02 1.055725846715630661e-01 7.925161712811737424e-02 -5.676035549737355745e-02 -1.841671003992270683e-02 6.863787899730727782e-02 9.838618123978043473e-02 -8.405179296846067294e-02 -3.660986507175310878e-02 -6.599232998323503741e-02 8.383653838058260921e-02 -9.443956425003700514e-03 2.405224949326212336e-02 -2.925464243691004891e-03 -6.426471730601060472e-02 7.294531035282264542e-02 4.071201919188986024e-02 2.249351156650753955e-02 -7.168620880508289051e-02 8.722770203204609218e-02 -8.347729101890767611e-02 3.574103259157371953e-02 -4.447147840596006596e-02 8.664305166569729114e-03 -6.151131699182491724e-02 -1.009054796118158681e-01 -5.154287093649266571e-02 1.212052406079411684e-02 8.472177855626884455e-03 3.251393306599653643e-02 -7.699391947069247899e-02 4.883142470196109169e-02 1.998345842442302012e-02 2.948951573244702404e-02 2.993323365903818173e-02 8.822794774112031890e-02 -5.218415571767243827e-02 -6.438019606051671208e-03 5.658805484425726007e-02 -6.928740729226651185e-02 -1.237767038507883374e-02 1.652560365707399920e-02 -7.426350646387952503e-02 2.613245872741844222e-02 4.118251761476540013e-02 7.863709229720636240e-02 5.028629641518554683e-02 -1.102797719284479977e-01 -7.890959296278377000e-02 -1.385370865178432200e-02 -5.143814545388556564e-02 7.963240808672963911e-02 5.078457682100267351e-02 -1.799326712794272962e-02 -1.726600518379200686e-02 7.046986688333377324e-02 -6.054211881984100652e-02 1.510612757456379282e-02 -3.608755394693482360e-02 -8.673993526133604026e-02 -4.049392246003646195e-02 8.605400776122314188e-02 -4.837149656630294198e-02 -4.905290679911849389e-02 2.419098895262747698e-02 3.177377934258721059e-02 -1.100203003943003993e-01 4.339077056582211350e-02
