7.599055333259547851e-01
1.769361975073566295e+00
4.208095413009991681e+00
-1.035219417437345246e-01
1.463790600018741905e+01
-4.284747222262325073e-02
-4.383254464285910146e+00
-1.385322464507522255e+01
5.631210903059042039e+00
-2.193479189914163463e+00
5.499675166903763568e-01
-5.989349180400687089e-01
7.670657830337831662e+00
-1.742808055524241340e+00
-1.226169669211696789e+00
1.564248385365544891e+00
-3.084311539533388213e+00
-2.638222239328320562e-01
9.764627533172770768e+00
-7.821231467905862544e+00
1.036607497415023005e-01
7.051880774143182151e+00
-3.221530947865002936e+00
-5.286170600145139176e-01
6.757292747405818645e+00
-3.110955177427232599e+00
9.669840505453120016e-01
2.898679646074437954e+00
-5.404358162280757938e-01
-3.626020199078262785e+00
-2.655545227006955500e+00
-3.435211414489213411e+00
-2.094126450948500473e+00
3.723195677670371184e-01
3.261765559511957235e+00
4.016876166879139731e-01
2.065990371283820348e+00
2.272398845708901938e+00
3.674489550855808417e-02
-2.666066530228414777e-01
-1.242935869636298207e+00
-8.008665339894921686e+00
-2.645113266081744463e-01
1.222097457200600346e+01
-1.207401801443892975e+00
2.012354396117996380e+00
3.166247665606412909e+00
6.120374634701519767e-02
-5.598905987274314100e-01
-9.063530913049077098e-01
5.355114052103300271e-01
-5.870643078324633279e-03
1.330359789257762548e+00
-3.706377422012705480e+00
-8.360579018289362452e-01
6.844878420338388558e+00
1.590340430476252465e+01
-9.464895686422845067e-01
1.677548149417833301e+01
1.966593695883321224e+00
1.119215929276754196e+01
-1.706228670445286255e+00
-2.302388590083808140e-01
-2.214414006018130543e+00
-1.404757212669666799e+00
1.067475038178803182e+00
-2.046853118122607285e+00
2.384853049883179921e-01
-7.727533192373192250e+00
-1.018788301939496321e+00
-6.792843355303426200e-01
2.031558013722248202e+00
3.488840045185312988e-01
3.000039214971700119e+00
-7.144272170500309826e-01
6.048162382963905515e+00
2.741474640322094203e+00
4.493671726045331827e-01
-1.418426583686927422e+00
6.319196743298423513e+00
2.561537610782835372e+00
1.202763469927454310e+00
5.040749813864934481e+00
7.134027452258912660e+00
3.002210314740807018e+00
-1.864598290342293074e+00
1.263791005804154821e+00
-3.343215688869980440e-01
2.674311750882232275e+00
5.085447430977296790e-01
-8.642043151073293128e-01
-1.901279958958865368e+00
2.133107414479995079e+00
4.085074114734599249e-01
-3.433588072310043593e+00
-3.899496542362804519e+00
6.912215967000612693e+00
9.867404296472841452e-01
7.343576015357718312e+00
-1.796878110224789715e+00
-1.080040468708187262e+00
5.482825976853564764e-01
-4.104042444321583716e+00
-3.503628323962189484e+00
-7.145906159481998365e-01
6.851222991956218422e-01
-4.199425110509555026e+00
2.398587807359256363e+00
1.007756978093259370e+01
-3.063312215715132680e-01
1.913664864369249985e+00
-6.274940078360378148e-01
-3.983007623765191241e+00
8.407783916622868503e-02
5.736851088524122844e+00
-6.833960834742513590e+00
6.469048516377575719e-01
2.409839659161923109e-01
-2.764532346328259393e+00
-5.192631410814531279e+00
-1.664475989920687127e+00
1.940261077249751054e+00
1.270115587874833807e+00
-6.004047515067973961e-01
1.507865819172666377e+00
1.613714246551886333e+00
1.760345126857822962e+00
-6.088725614626703475e+00
1.639987485943454670e+00
-3.966433131205272744e+00
-5.407143469088850907e+00
5.443423486355346341e+00
-1.383803872843317517e+00
6.473554098356609110e+00
-7.428749962334670887e-01
-9.724676935388183452e-01
-2.502052484091157769e+00
-1.336610507683871774e+01
-2.520411641526392188e-01
-6.001981367584754423e-01
-1.912662438153054723e+01
1.237025908378068806e+00
-1.314533634416165775e+00
7.252289267183265054e-02
-9.161720599161089496e+00
2.551331592720200270e+00
-1.032422980392685474e+01
8.369575873371385200e+00
-1.425389156085898890e+00
6.721948166788456192e-01
-5.461508769840829558e+00
8.228953951390961308e+00
4.534378909109410216e+00
4.337981764574184496e+00
-2.297660515019210870e-01
-3.678655566397885934e+00
-2.372380797852731149e+00
-1.890044853588826124e+00
-6.594344110735206321e-02
7.542886736191762864e-01
6.278696695276696715e+00
-2.119116409945931423e-01
-2.833421940268621597e+00
-3.269974338379059153e-01
-1.059106707312691498e+01
5.566823053074877237e+00
4.334573998995352895e+00
3.112373995519261971e-01
3.362880839184578363e+00
1.141651682839265103e+00
6.494170124805727085e-01
-5.835561031640258634e+00
1.928548692568339717e+00
1.477343757983303307e+00
-4.196441803457808817e-01
3.438540095122447404e+00
1.178558704351160280e+00
-7.150283413103778463e-01
-5.364122280123849507e+00
1.263347300018596187e+00
-5.909001960215654492e+00
-4.781132780810754213e+00
-9.335745598931192157e-01
4.986960613724207292e-01
-1.349331432972324718e+00
-1.641135549923040671e+00
-1.391211539331080882e+00
-1.754344909617393089e+00
-2.230097589164864669e+00
2.784042569585339244e+00
-2.120438794532966131e+00
-2.215303389922222976e+00
5.408061239331939163e+00
-7.659109004650801467e-01
-6.786342715520502722e+00
3.219727144759231940e+00
7.287788521239260575e+00
-5.017887525780949431e+00
-2.182173688720896898e+00
-2.819029031462875423e+00
-2.633911854672988717e+00
-1.926432767286367254e+00
-8.675346935096708290e-01
2.498569369801305395e+00
8.558284221037026906e-01
-6.423911351110291879e-01
-4.358967558103531204e+00
1.198345710455886781e+00
1.059759810567346916e+00
-6.052943186374872830e-01
-5.121034676131762886e+00
4.072035173492157156e+00
-5.211502283048305983e+00
7.688967577465310121e+00
-5.872672456590759538e-01
-4.878182644101164200e+00
2.114753175833230525e+00
3.332943098354010925e-01
-2.458589834184299328e+00
-7.790734594105197530e-01
4.526726733867179497e+00
-8.617412276839847562e-02
-2.065176385070914389e+00
7.601297180210172755e+00
5.314323092365562662e-01
-8.821482726653004036e+00
-1.398581037634099289e+01
-4.657406127299582588e-01
-1.123576461128964254e+01
2.825867187911754286e+00
-8.195903451253327532e+00
-2.172943452178698331e-01
-3.441261843513225394e+00
-3.250439985290007883e-01
1.694848566989199057e+00
-8.734207810087337709e-01
5.742661325038818099e-01
-4.765567431413826327e+00
-2.427037674336522954e+00
-2.254073983788771773e+00
-2.445771231733895767e+00
9.347736951061484945e-01
5.524106629115221878e-01
-4.966492494412998226e+00
8.562976594804103669e-01
-1.615011931675735113e+01
3.359456666933631208e+00
-3.361863309366921904e+00
1.843175215509666565e+00
2.703763579714357768e+00
2.483343690111935231e+00
-1.376774188487336126e+00
7.604346510457906660e+00
-2.165957772361600808e-01
1.884144456610110652e-01
5.356888121674339587e+00
-2.413844354963627481e+00
3.724916493961273556e+00
8.247723810553550194e+00
1.185110932691209484e+00
-1.447730138171081649e+00
-2.398247033458014599e+00
5.172115039674135772e+00
4.746227470126981984e+00
7.830834997745483861e+00
-3.263401579365439176e+00
1.370878691050947396e-02
2.530401524798284729e+00
-1.829285347076996082e+00
6.133915387286972276e-01
-1.653972131647297061e+00
4.481779004913221343e+00
6.561878129471213072e-02
-9.472694740216700549e-01
-3.159169119312115193e-01
2.856220001624452109e+00
-1.211651104269375168e+01
2.151963665968938955e+00
8.714297742971299776e-01
-4.705580401175241789e+00
6.950081403955447046e-01
-1.453310317296541143e-02
-5.544470450100842385e-01
-1.265779309655525431e+00
-4.251964931498251943e+00
1.006402073391675778e+01
4.111262157977972009e+00
-3.005872685283495827e+00
-3.351613326576190488e+00
8.638161394311502761e+00
2.800495829797419844e+00
4.039052530358937076e+00
-2.848680912171410728e+00
-1.016932810941311160e+00
6.347793694374634921e-01
6.734145322543384493e-01
1.078759252442206940e+00
-3.647270459340268278e+00
1.459470064727022010e+00
-3.922473025859318341e+00
