-9.362691539564198528e-01
-8.536905611719233233e-01
-1.838892277873559467e-01
2.781027451547615659e+00
-2.689824351211844711e-02
5.632077617811555026e-01
1.273796174395425140e-01
3.485875480797639980e+00
-2.589468908659195989e+00
7.364862924116081011e+00
7.349412731320785763e-01
1.233358850604026724e+00
1.016335668082395172e+00
1.940629382541068537e+00
4.485093135562958633e-01
-3.886822622638750335e+00
2.770931072491794822e+00
-4.596749012694282044e+00
-2.098760434227373128e+00
-8.823306118496039296e-01
-2.649320400439965972e+00
2.757983718236254767e+00
1.502114605316945850e+00
6.718709272730090110e-01
-5.738503119737696778e-01
2.176986513289044911e+00
5.821861014219420483e-02
-9.396799328931720874e-01
1.228851541725504370e+00
5.164125158413126471e+00
-6.974943707329731568e-01
-1.992868274592120903e+00
1.759524299546294523e-01
3.024133487195713066e+00
1.369187122228118447e+00
-1.901100284299299226e+00
-1.541711408893796653e+00
3.153844462037183494e+00
9.008157459395329525e-01
-2.999177722816375624e+00
-2.042438736943568145e+00
1.180739582974900337e+00
2.075390270128574244e+00
3.170958285627144324e+00
-1.688653596970289827e-01
-2.779398549587240197e+00
-1.307508552251236411e-01
1.794164026186209071e-01
-1.435730299926426978e+00
3.049121153526090922e-01
1.982918987479385775e+00
1.070578817319704223e-01
1.158531246866581821e+00
1.545056098067459249e+00
-1.294245530543907563e+00
-1.035775635084475788e+00
-7.664919405377346173e-01
1.369739685521194961e+00
-5.830263854400764556e-01
2.737523956415126136e+00
2.558546850725633703e-01
-1.524649470094417314e+00
1.470220427129538265e-01
9.372635920513219254e-01
-6.095729862434498436e+00
3.308074901064923523e+00
-2.022144511901139197e+00
-3.349576818604481421e+00
-5.873442213191999439e-01
-9.011112536720428112e-01
-2.258861328974912652e+00
-9.591485529413565914e-01
2.573077511352350744e-01
-1.506732639694277953e+00
-7.419173972782768800e-01
5.205316713750849367e-01
-6.110852656777419067e-01
5.376978664690268417e-01
-2.419519579095203154e-01
-5.864125724759272629e-02
2.402225892763442339e+00
4.339606213128149870e-01
2.243108253208543346e+00
-4.070179018890512701e+00
4.923702389652030442e-01
-1.891412928621378775e-01
8.157686656938134551e-01
6.568471677898111150e-01
-2.044742600905193886e+00
-2.735427164342894901e+00
1.350724491034909214e+00
1.481490170856622823e+00
-1.922064906071482948e+00
1.327445747849304247e+00
-1.834820536258101153e+00
3.622259068995520859e-01
8.430098160820960196e-01
-3.892912230743632573e-01
2.641625396418071148e+00
-2.553026439436540507e+00
5.810108424536888805e+00
-4.417107262097943021e+00
-3.501443704401696611e+00
2.019064452902572526e+00
-1.843859879019370096e+00
-6.548705247689301512e-02
-1.375250232304787046e+00
-3.923105408739058775e-01
-2.129256439142830359e+00
-1.741777486820806686e+00
1.512448315482129768e+00
-4.636626302986055492e-01
3.193653584592590633e-01
6.815258823847325509e-01
-1.070121730074319100e+00
-1.646484021319601476e+00
2.302430000417221123e+00
1.350932256873432769e-01
7.241584745733775641e-02
3.369538373029473677e-01
5.882412047379235176e-01
-1.568081188116487112e+00
2.741141712734982860e+00
3.797476900398857325e-01
-2.525668152300071689e+00
1.090009228629490234e+00
-2.287583345603063201e+00
-2.198802528966559588e+00
-8.617063236817126270e-01
-1.896321402043160465e+00
-8.092385384253374392e-01
9.390156566398042415e-01
7.135200238165446684e-01
-6.142199446814649022e-01
-2.895034790419845461e+00
1.649127254622350769e+00
-6.209759068126743387e-01
1.443857492449833080e+00
2.073576077128320705e-01
-1.677775701157786958e+00
2.648225317618979169e+00
8.883755318102517506e-01
1.087046575863512832e-01
-2.549318252660195405e-01
3.178999566323350123e+00
2.602162411315256385e-01
7.350976778409501478e-01
9.120108303627831869e-01
-8.054987842220917571e-05
8.219764864209890831e-01
-1.158417011069529989e+00
4.932659978047790328e-01
-2.684581353327749831e+00
6.592237606184419008e-01
-1.518647552632181874e+00
-1.467256094139885780e+00
3.034021075717874272e+00
3.907182269977206523e+00
1.037221183130177637e+00
-1.301997150495292299e+00
-1.970713328198777425e+00
2.321523062444859065e-01
8.409356011181889912e-02
-2.230426872489909229e+00
1.733200598541119852e+00
1.209743785975853747e+00
-3.240887681722233182e-01
-2.368745441459866985e+00
2.072387828717544789e+00
-8.903912652657175464e-01
6.825041601055812812e+00
-2.243148487715580952e+00
-1.114061709241351616e+00
4.177563904933793815e+00
2.317215480536103378e-01
4.767995111668954067e+00
3.783738920531148242e+00
-3.235383005311145421e-01
1.099394338149838557e+00
-9.880214388677655002e-01
1.456605210953773710e+00
9.747060250074551790e-01
-1.846753288313358610e+00
-3.881480283639497042e+00
-2.938140636822075713e+00
-1.532620810162834690e+00
3.373010616158618191e-01
4.504440655073326916e+00
9.661575625364473563e-01
1.405741144356569716e+00
2.739700536102465112e-01
-4.005936621827905775e-01
1.359002251026119712e+00
-5.565827359647956385e+00
-6.231209813677762721e-01
-1.629291566954271353e+00
1.736334686268381944e+00
2.886455122956359531e+00
-9.703135513282620250e-01
9.845566311098572498e-01
-9.468127318149301974e-01
1.709164038863555835e+00
-4.796924287617898575e-02
6.458448256243753960e-01
-9.982018136979662337e-01
8.017040368241872272e-01
-5.311404994046559302e+00
2.677744838561779694e-01
-4.559179211922614883e-03
-1.585648774818144258e+00
-1.170179670751529066e+00
6.293987711043735889e-01
4.146322843498242428e-01
1.307103018307805620e+00
-2.180844778457238675e+00
1.425994099693883577e-01
3.936264756088259098e-01
2.091078137116194391e+00
4.425451830551690335e+00
2.187908128259704821e+00
-3.876375198824979496e+00
3.346055752476495559e+00
2.268891999550519678e-01
1.542653298119982308e+00
-1.479967793964049427e+00
1.402614179738870925e+00
-1.939321554726382013e-01
3.952259010913551363e-01
-2.365272653081287313e-01
5.164810772837062913e-01
1.000521359723510084e+00
-3.377494548470223457e+00
-1.408529807141659207e+00
-4.737577419948670876e-01
3.243931205080129665e+00
-1.529845600250384852e+00
4.756502733013968864e+00
-1.637125760987099277e+00
-6.126010611621195423e+00
7.720811638864226722e-01
-1.801382795163851913e+00
1.392767750169648933e-01
-1.583613020688012574e+00
-5.493342080337288991e-01
1.403935795630693040e+00
-1.743020636456382721e+00
-7.593135008574867229e-01
1.168602472444745688e+00
1.173395399610956513e+00
-1.243628408742796232e-01
-5.458564937315769638e-01
1.098055441666552445e+00
-1.576569552384587070e+00
1.106328250424541526e+00
-2.025214212327091090e-01
7.595031992638126006e-01
-4.143322489434946299e-01
-6.118950654917951759e-01
2.993652594972371350e-01
-2.080022108198103403e+00
4.345654924996810387e+00
-2.341538098765831855e-01
3.884925011336518574e-01
-1.872096681609650481e+00
-3.151624196063265160e-01
1.305470236794441519e-01
-4.245666949039746285e+00
2.514452742883889425e+00
-2.485353501720728442e+00
-3.233451126705625400e-01
3.094497030650341651e-01
9.873340375914196887e-03
5.494029140810781087e-01
1.144753514864064847e+00
-1.484975354855258445e+00
-1.286542355037276320e+00
-5.148786025490781348e-01
8.080637218263695409e-01
1.858772294511135126e-01
4.653390907532582998e-01
-2.508920688742988236e-02
-3.087785892745564809e-02
-1.891918038490150167e-01
-1.256782156392159511e+00
-4.502525495109646059e-01
-1.559829640559678099e+00
2.439520782408634680e+00
-6.406540120939218319e+00
-1.077672852818996718e+00
2.683275493947829382e+00
2.479736752900869146e+00
2.156311431514802424e-01
-8.580087224739285645e-02
1.831935299310683884e+00
-3.736824017914216256e+00
-5.630137142274720397e-01
6.225356596081554894e-02
3.602945826398693541e+00
-8.416250787141792422e-01
3.264645463285736904e-01
