-1.548382127797592323e-01
-1.444159896896346496e-01
1.360092237445429120e-01
1.788485197133899085e+00
-2.466718444686455125e-01
-9.315686758242858190e-01
-6.046073676564317489e-03
-1.499110010578539320e-01
-7.866694909964383697e+00
-1.748144437422922692e+01
2.049693076203822628e-01
2.554272114249537484e+00
7.066064560472831158e-01
1.870377564522037073e+00
-5.013333377753436126e-01
-7.217874624899356384e-02
-1.272813546766523274e+01
-1.019944972928577975e+01
-1.553968204517179319e-01
-1.419794993344161149e-01
-9.653463243667298244e+00
-2.769040381150664842e+01
6.232487896902426883e+00
3.073903961926495043e+01
2.017945661983549521e-01
3.366541602906183983e-02
-1.925277682831193360e+01
-2.843880889868196249e+01
-6.336063705503445220e-01
1.076857208639837304e-01
7.113943464748291490e+01
4.478035040242223097e-01
-6.274052135007270437e+00
-1.563417483782360562e-01
1.437795072096622562e+02
3.546589097036959970e+01
5.167462633027000152e+01
1.354606472875598477e+01
-6.709391711668111213e-02
6.077879029719056803e+00
4.307423548659636836e+00
7.232176650336239465e-01
-4.393480854658563528e-01
-1.832206096401545192e-01
-1.180093731452285510e+01
-1.383226499017854394e+01
-1.847794606064667278e+00
4.558577588038364325e+01
-3.194925491625731695e+01
1.442599562403777735e+00
-8.983430403685309784e+01
4.021278525373379154e+00
2.967587166346370253e+01
1.223628006238723032e+00
-3.995422784369879743e-01
-8.093100237455885804e-02
3.305747413113042654e-01
1.188868602391509044e-01
6.246679948478563205e+01
-1.429931853290126453e-01
-1.108400580105707434e+01
-4.316628749788942176e-01
-6.681453354819571366e+00
-5.674740977267205277e-01
-5.873125473077841718e+00
1.259811267228963416e+01
-1.734919638238270334e-01
2.359593311151522710e-01
2.235218830740055118e+00
3.011252938133968993e+00
-1.401742881547786368e+00
-4.317333177149862422e-02
-2.656567223748676820e+00
5.819808018358870960e+00
7.844792612533102449e-02
1.599347059665216619e+00
-1.292815101636048780e+01
1.422675541643793018e+01
1.998623396888402404e+00
-6.490857337563600282e-01
4.285329426041274425e-01
-1.337491859827688312e-01
7.026926789725389533e-01
-5.898148891807520222e+00
4.176153518446773916e+01
-4.594948085319114917e+00
4.994173534606558462e+01
1.444523387908542400e+00
-4.633232616885353394e+01
-3.755048975329033567e+01
-7.326282004072661280e+00
2.526990722533194678e+00
-2.504794127270936421e+00
-7.792509889722548877e+00
4.469682439051397616e+00
-3.846648701831385797e-02
2.414870867287046696e+00
-2.139423288217700403e+01
-1.806582505181013043e-01
-1.189465035268183479e-02
7.614674560429296468e-02
-9.953532813120913314e-01
-1.787519617084245560e-01
1.562013603132325901e-01
-4.285476274402977293e-01
-6.035547301745836535e+00
1.571170858034626194e-03
-2.033169116193300208e-01
-2.524527319872593156e-01
7.441480264823546742e-01
-7.260519346494078263e+00
1.435833640122754495e+00
7.734247526570907638e-01
-4.189890989620952411e+01
1.352547915332742434e+00
-2.363555807761255068e-01
-2.421732594183794163e-01
2.572418855254526848e-02
2.194590821272961989e+01
1.892937376807553251e+00
-7.940019341329275449e+00
-5.841868244953327682e-01
-1.378482488502460157e+01
4.266987609551438076e-01
-2.770415608175323996e+01
1.022782822503639721e+00
-6.610815496533432167e+01
3.984404185251460007e+00
-1.109313403572821155e+00
7.120855282556767918e+00
2.744584235253069160e-01
-6.807972771164841896e-01
2.851970431766872149e+00
-3.254552691871794678e+01
-5.959880919467606120e+00
-3.479683302133319955e+01
-6.331169218100979323e-01
-2.154389054795712521e+00
3.326002766086143536e-01
-7.435794011780272328e-01
1.856273275060717154e+01
-2.650774789659579578e-01
2.531907913390198495e+00
-8.313327312999679863e-02
3.387279005686592015e-01
-1.794486402149958693e+01
-3.648870061682139010e-01
2.080232953384974337e+01
-8.468857293714806556e-01
2.438304400937685301e+00
-5.019020874420623279e-01
1.462234320738589588e+01
1.318510091938751017e-01
4.303605121203990080e+00
3.422649999780506391e+01
8.467963917006798846e-01
1.294570837889087045e+01
1.201832141034171464e+00
-3.476087074824492085e-01
4.529159363002992489e-01
-3.868913976502835794e+01
7.429360636522308603e-02
3.198899851438781639e+00
-1.746822203730737100e-01
-6.141516119028720411e-01
1.836473750532362281e+00
-2.098573132689434217e+01
6.870435249310080650e-02
2.113202274778657186e-01
-5.329943652046387204e-02
3.003668274780546543e-03
4.424261629498666970e-01
-1.096520733885444798e+00
-5.854741658852340436e-01
-2.282368783409280955e-01
2.832912111973472369e-01
3.102927842045476448e-01
9.723861565101589832e+00
-3.302395590774836465e-01
2.166069757925400907e+00
1.553705732443595444e+00
-3.648336677701121689e-01
2.539807629881100581e+01
5.901956870536027022e-01
-3.822634905976987518e+00
8.367271799786287545e+00
-9.732512949014228421e-02
1.627918776110606558e+01
1.674359987610644396e+01
1.552133828455442455e+00
-2.545003751188048113e+00
-2.114106254599434909e+00
-6.272967214612133746e-02
1.943280091635436246e+00
-3.438870388855645999e-01
-6.295699378470059893e-02
1.666748850946756022e+01
3.395362016989428522e+00
2.011176886471190528e+00
-7.450593689796985997e-02
2.023531067378715420e+01
-1.391207910769337985e+01
4.191007206309625133e+01
-1.413602762996674977e+00
-4.686033084604588894e-01
3.746470889898320111e-01
-2.393618844547285018e-02
5.446273455827309817e+00
-2.675315248122791090e+00
-1.896688834224569797e+00
-6.119307889703733849e+00
1.487164953871681572e+00
-4.639044265659541821e+01
-2.221177498456301247e-01
3.363530547265728643e+01
1.269362809266363357e+00
4.702787392962333446e-02
-1.027870704838804161e-02
-2.477581798635796861e+00
-8.041050535813651368e-03
-8.706301385814387839e-01
4.275645827467458560e+01
-3.115094111547426214e-01
-1.757667423820321062e+01
-2.018979463637669836e-02
1.021145708816016962e-01
-2.197122711409585927e-01
-3.309577301236323876e+00
1.416249912810378930e-01
1.301147938755692479e+01
-2.677742201997980187e-01
-3.765780549610119876e-01
-5.755915525777814956e-01
-1.167369617496886169e-01
-4.873342156980514872e+00
-7.524430885539159952e+00
6.335387391939199198e+00
1.787294389315953680e+01
-8.321581847571206225e+00
5.557513091054939025e+01
3.389406327323534751e-01
2.562475334291611784e+00
4.866166943564513403e+00
-1.181042065513080175e+01
1.660560199462910169e-01
1.511691483411558679e+00
-2.002342529590983133e+00
1.200406353093168121e+00
7.476225664564267959e+00
-4.562107436027375229e+00
-4.276567207355726907e+01
-2.478433908842374223e+01
-1.086973604160835633e-01
2.413677501089776523e-01
2.190862572222343374e+00
-1.583158205726463430e-01
-2.533474500829661635e-01
2.107209111250219280e+01
-8.538504699286033173e+00
-2.557835530554653403e+00
-3.571631798547095826e+01
6.095668938803910919e+00
-1.677626950274155604e+01
1.340364131675532988e+01
-1.183119863861104015e-01
-3.651341383442778810e-01
1.805382897412976195e+00
-1.716140186731553996e-01
-2.761438533158174380e+01
1.477780694294314046e+01
1.159541358975204162e+01
7.248244727198900339e-01
-9.311210353768098469e-02
-5.913383525796476192e+00
8.285991290082485250e+01
-1.965374391567334955e-01
-5.899899829916267491e-01
-5.261760283559087981e+01
-1.445491448406170854e+01
1.541647926140321978e+00
-1.114446305664083203e+00
2.717790347070286883e-01
2.818877005495097787e+00
-1.995969864103330771e-03
-4.382083015321002861e+00
-2.771933061286904199e-01
2.888023082379660711e-02
-9.443387357033559137e-01
7.910707425856644548e-02
-7.587049391635360962e+00
1.477344923879291283e-01
-1.290862469267404933e+01
1.680719871722343584e+01
-4.704763273849002303e+01
-4.577020924047295325e-02
-3.266226642306280237e-02
6.410011240228492557e-01
8.881989347555803249e+01
-2.215734262172751323e-01
4.480266279940465779e-01
