-1.684346315053152077e-01
4.182390039920116237e-02
2.769798490945394875e-01
4.572342272712707351e-02
-1.955952483574288081e-01
-2.245332472204928376e+00
-3.663021918408416733e-01
-7.926699280957141269e-01
-1.195191289126063955e-01
6.390397962747118576e-01
3.359964776473454151e-01
1.327711083913982293e+00
1.255153180391504197e-01
7.472374698680630534e-01
1.814316574200729448e-01
-2.129376783117028493e-01
5.708868398456308502e-02
5.822734750518833158e-01
1.575436873289944861e-01
-9.221900221990386726e-01
-4.701215393498270334e-01
2.173773235291784900e-01
-1.611701173892617911e-01
-3.888128117624262137e-02
-1.085148856671250273e-02
-1.724345126598768374e+00
1.299223916877417562e+00
-6.125620718126981168e-02
2.137591665678903186e-01
-6.441352560366064850e-02
-3.804322523231996378e+00
-3.608290646763591347e+00
1.167775483702952144e+00
4.641837496714049105e-02
-1.022885824753303613e-01
2.704793509937544402e-02
4.916667992775543006e-01
5.473455727639902069e-01
2.798399533262962979e-01
-8.862443839771041998e-02
-5.834971479305079978e-01
2.280383226707363153e-01
-1.689467094554164994e+00
2.303796303593383943e-01
2.114111694399993246e-01
-6.544207994395393468e-01
-3.204916290048958061e-01
2.426303788431448671e-01
8.393752987848512870e-02
5.931159983088939852e-02
5.371890513228538833e-01
-8.793716439104546367e-01
1.915166220878232739e-01
-3.201177595388500774e-01
5.158235471578751508e-01
4.377712902787241900e-01
4.044108622216261995e-01
-2.425774835577730326e-01
-6.657265339216875688e-01
8.285689333673935952e-02
-2.209379464163057083e-01
-2.895208836821109299e-01
-5.377073723418891449e-01
-4.525842005737457097e-01
1.023149494936983039e+00
-2.368922771550197037e-02
2.714782775978549445e+00
-9.910417796796198997e-02
1.061759889000352564e+00
3.184029955271334700e+00
-3.354047305373253796e+00
6.273532569724582508e-01
-2.854270342983408759e-02
8.677101273020265682e-02
1.234368239680096124e+00
4.787621283302445629e-01
5.816049840476028576e-02
5.004211892810059847e-01
8.611621528917412505e-01
4.436879872688940241e-01
-3.069029887594483252e-01
1.077207912716758198e+00
5.749154021505132883e-01
-1.177086680610887059e+00
5.421664318113147418e-01
2.401067827361027085e+00
5.954525791174335447e-01
-1.677897414335766113e-02
1.422403278236473056e+00
-7.933512410334987441e-01
2.327960052174695149e-01
2.327221867966061120e-01
-1.967647800308772732e-01
-2.668783035767374745e-02
-3.877520704426432374e+00
-3.373200150884584358e-01
8.777849659813105054e-01
-3.082283934963500727e+00
-2.030392727635874361e-01
-9.217219010768404885e-01
1.754183046324652717e-01
-3.679913097349102324e-01
-1.645878140202219897e-02
-4.608626761572158781e-01
2.941716871367269781e-02
-4.053541538101740116e+00
-1.001527769177529836e-01
-4.297770217394774050e-01
2.754808139814542312e+00
1.201950133603577608e+00
1.100780937331595766e-01
-6.121862370975031942e-01
1.557505827973367785e-01
1.531319761486638287e+00
-2.050712729595900008e+00
2.628617969349847927e-01
7.744329248656547371e-01
-7.683076584723166347e-01
4.626113646577558747e-01
3.016371248690837281e-01
7.942859167871844095e-01
-3.026538020952352248e+00
2.209975535580750439e-01
1.781216393293206579e+00
1.065004006191139219e+00
-5.686094683030845642e-01
-7.497922574976411125e-01
5.993654835939905556e-01
8.103977728317075524e-01
-4.260285441857133426e-01
8.291642919227784625e-02
1.580348387122980647e-01
-1.002217001617620173e+00
-5.253782574573359621e-02
-8.604782468961150177e-02
-1.952426111609618431e+00
1.147612402048456159e+00
4.700955317597821370e-01
-3.744226354257762512e-02
-6.358371007602297009e-01
2.973996650830946775e-01
4.135893793159004517e-01
3.049406822059879188e-02
-1.014701465086486731e+00
-1.291038582898796250e+00
2.588666103895106985e-02
-6.234957977503846616e-01
4.600016685521146620e-01
3.829585425055481718e-02
1.059626271049084245e+00
-1.984394800003756176e-01
1.554708443077696123e-01
-4.876998066237790003e-02
5.621164884941851070e-02
8.204095743312579403e-01
8.226552618667233308e-01
3.722608045635901197e-01
1.010924945265784691e+00
-2.358745804353274134e-01
1.938036262296969625e-01
2.724937361232088184e-01
4.098100249526945849e-01
-1.760524945142276643e-01
2.220670429708879179e-01
-1.403488513287985961e-01
-1.865538467082504814e-01
1.116018887292041573e+00
9.024615770177650820e-01
-3.385300248842266768e-01
-2.359878986080668484e-01
-3.584817049582966764e-02
6.399892849553442398e-01
-6.896785297080565424e-02
-6.732138736672323986e-01
4.914971821999068458e-01
2.783240814398777463e-01
4.454202250253045392e-01
1.917473606515778667e-02
-2.556257967916614540e-02
5.597246684151175877e-01
6.920229234765766513e-02
3.773872049472370982e-01
9.198399001696318245e-02
-2.000464763789724376e-01
4.212505920426120598e-01
-1.941042650354685151e-01
1.088951120528094257e-01
-1.101454078038647477e+00
-4.399005918902220147e-01
1.103791253207849210e-01
1.233647192976337487e-01
1.600446626193446353e-01
-1.969519989397623405e-01
1.274627603176524016e+00
4.397673587441524035e-01
-5.022651753725423385e-01
7.876851988023353401e-01
3.590792772538645150e-01
7.412308874119138968e-02
-4.836678803173878882e-01
-7.245991998805434431e-01
-8.045769754590139655e-01
1.189986796800117652e-01
5.819673499054472954e-02
-5.270309702429860632e-01
2.892805676511140400e-01
4.545485932588677613e-02
6.317687445592555517e-02
-4.763429621101555878e-02
3.811576513830672308e-02
-1.713126930100425049e+00
-1.069428851385875179e+00
2.985757417673972069e-01
1.963342442052780357e-02
2.312597813347470888e-01
1.230144722341371261e-01
-9.837197386044620184e-02
-3.484537664536745405e-01
6.415859471349435461e-01
5.277753543294402272e-01
-5.638451913612642086e-01
-4.753805993447259848e-01
1.033156213672545148e-01
-1.429784383992561136e-01
-5.196438223520836175e-01
2.713546563169673687e-01
-1.478318690253028755e-01
2.765608069268496449e-03
-7.043362149950158635e-01
8.720123239843827201e-02
1.007172176096413851e+00
-5.767091662280021680e-01
3.577437599901786558e-02
-2.413542943023179732e-01
1.059582365521474501e-01
-9.111540701683464860e-01
-3.542468251361525766e-01
-1.167210963400511226e+00
1.180224069519033137e+00
6.327147942073544362e-01
2.903216909779539279e+00
8.338136112807948974e-01
1.635539790257987958e-02
-2.691249027654124548e-01
8.564262061431374695e-01
-3.429922643684875094e-01
1.249067058362771099e-01
-2.897943480700702068e-01
-3.397021453749515807e+00
1.560251178962062113e+00
-3.485785248204437692e-01
-1.960971220478763821e-01
-2.265906449167620629e-02
-1.403497545011682668e-01
-1.249326941372068678e-01
-4.569684619876036580e-01
-2.177479631076309485e-01
-8.912061681567623461e-02
-1.216464541536642074e-01
-2.386213812482683161e-01
-1.285737528738493118e-01
-4.046902200168277508e-01
6.979725075508365073e-01
-1.868131560627346310e+00
2.690114719981663294e-01
-1.838019749835118066e-02
-1.106638198220478708e+00
-5.279393474591687063e-01
-1.240960218664060477e+00
7.887181148953348320e-01
-4.551791958361277590e-01
5.240864856284538353e-01
-3.739916623515755045e+00
6.092871681699517372e-02
9.028698564615892375e-01
3.167602850019282101e-01
2.006835534325905612e-01
9.298817783152336924e-02
2.618804741449391127e+00
-2.301381576572882337e-01
-7.591624272211616731e-02
-3.518259795864726591e-01
3.490733576669459159e-01
-3.615292227420696669e-01
1.371500429803830245e+00
-8.595764583420051341e-02
8.385258063769962522e-02
2.562594616741459275e-02
-4.609358349557328149e-01
7.386742338565617239e-01
-5.552455935091467065e-01
-2.041811170717068580e-02
-2.292134207231631970e-01
5.640764536195650436e-01
-6.345416583875724825e-01
-1.914315657678533067e-01
2.227929063958422606e-01
1.736393296077967663e-01
-4.678417410199648963e-01
3.012911244172775116e-01
