-4.134562189747096272e+05
3.063548194839132520e+03
-7.257077115805346534e-02
-1.744275508446525782e+06
8.345293237027419764e+00
2.113309413865766828e+02
8.309187863311022520e+05
-5.204597669301852875e+04
5.277868588916809767e-01
7.419832969057794660e+06
5.036859947277571075e+06
-1.257379491391643751e+04
-1.639287905237790111e-01
3.714817127140206399e-01
-1.602499528508057701e+05
5.969861310990057886e+06
-5.004800448415350047e+02
9.924891787063960802e-02
1.889925010040430061e+05
3.814368239578001529e-01
-1.448328266219540694e+00
-1.249889461308818310e+06
1.243091767619666888e+00
-9.660812862040720938e+04
-3.833495497508479843e+01
-1.003295627424499181e-01
-3.392694385151695524e-02
-1.529933612708583723e+02
-5.534744779299885035e+06
4.469050337451227941e+06
4.126269821091246558e+04
-3.424311052000331692e+06
2.124449416427286342e+05
4.777784161303371191e+06
1.703850724494182505e+06
-4.292709568844400346e+05
-1.376150059105674811e-02
-2.583867264102534591e+02
-1.876640681767001661e+04
-1.233779123644493148e+07
-3.223235719607219798e+05
-1.667544538437612122e+06
1.242232450066332705e+06
4.949921892473820861e-01
-5.594282152119777862e+00
2.218554683963726148e+01
8.311791272895138245e+05
6.257469975183216349e-02
1.175614276920964041e-01
-1.631967245227044505e-01
-2.033711153160237707e+06
-6.579826618075660605e+00
-9.298066401111254527e+04
6.060175773494130932e+06
2.148440240348161865e+02
-1.412137914379251924e+04
-2.356201402615752886e+04
3.122905095364028605e-01
8.063276113199998818e+00
-6.006274692991397934e-01
5.121741326729686261e+04
-4.500328883911078881e-01
3.863468622642707295e-02
-5.334307146139887627e+05
1.969112899043954536e+07
3.890139860744907055e+05
9.924389100265502930e+04
-8.307768930164296762e+04
1.068535067153948415e+00
-5.245051741817252478e+05
4.397727425282020874e+00
3.338601995105105971e+02
-2.962481657155632507e+06
1.701305465582992882e+06
-1.906168813869217411e+06
-2.701718173113256682e-01
-3.512875006053747609e+06
-5.784983378370899265e-01
4.671819541497670580e+05
-3.633982755793383035e+00
-5.900677199801293900e+05
7.096185841635693237e+01
1.341441990645651822e+04
-5.963066742493575439e+05
-5.128151961820294149e+06
2.674165666872110218e+06
-1.552907267958388293e-01
3.515004256625468315e+02
2.690819875532310689e+05
2.775179813590451377e+05
2.009380480099819621e+00
4.418514994779576664e+05
3.300941157779673674e+00
8.178364643473780598e+04
8.030535547539603431e+05
-2.029951921075798527e-01
8.159971211056405446e+05
2.783513281456393997e+03
-6.074066746565210633e+04
3.624846122452453710e+06
6.610138356137624942e+04
-1.584372468291207042e+03
-2.531629342692006379e+06
6.128718123270286014e+03
7.401622575501137362e+02
-5.303638243623940429e-01
-1.448038849312843056e+06
1.154020277166387132e+01
2.615516089724828489e+05
-5.809171124152843840e+05
-2.273323481958968717e-01
1.293261673429835501e-01
9.456404505464335671e+03
1.933807198275688570e+05
-3.395125008072673343e+06
-7.317433174368534310e+01
-2.374912174147199839e+06
-7.721524344310503274e+00
4.008461688415029478e+00
6.144026916224734858e+06
-5.994480237757301657e+05
-3.218620610376987656e-02
-4.108282267722271383e+06
4.596785493319023517e+05
7.407135470139369318e+02
4.666573661045171320e+04
-5.870851350137407110e-01
1.759853350807496160e+07
-1.649912065364846967e+02
5.530857484842617300e-01
2.693800850149726029e+05
1.440388704134321772e+06
1.414241641271605232e-01
-2.600960271231380183e+00
5.143617549707956612e+06
-1.889419661717723997e+01
-1.588373788293983089e+06
4.842160619840710112e+00
1.413132801505368669e+06
3.257802693548059292e+00
8.026977952635177644e+03
-2.718493842260104598e-01
1.713772126225030050e+06
-2.578175652860532500e+04
2.192723700436823070e+06
-6.722002470107892528e+06
-3.020139438524760306e+06
-3.348162679184046056e+02
-3.443898676314918324e+06
1.628234137766103231e+04
5.027536202945634723e+05
-1.691467819382654891e-01
2.449203312863802712e+05
4.195747419866047858e+04
-1.295075599653443351e+05
-5.721072528633186494e-03
4.442662452501916270e+00
5.109386477199617075e+05
2.346080678108536176e+03
1.248026246296115569e+05
4.784811827077709604e+05
2.736826020721748471e+06
-1.710401857111259596e+04
2.220297772649526596e+06
4.555930471634031087e+07
6.857263339417992938e+03
-1.595335171024568146e+06
-2.744082384240414729e+00
-2.024022602441159790e+01
8.811769734789848263e-02
-6.526343463925900869e+05
3.973553792300538734e-01
-2.615021009249467403e+06
8.772080276437482782e-02
-2.418004912612278012e+00
-1.780158020929237682e+04
1.377317229342062026e+06
2.398978232618380338e+06
3.046686419888904766e+03
3.530981654310292583e+01
-4.806072491426130757e+06
1.832448488605245017e+06
-1.569117682846839307e+06
4.636463134970918532e+01
1.633027776876445347e-01
1.044389938855644687e+03
2.250146567566575939e+00
-1.444600769650103302e+02
-2.660728631096081808e+06
-7.299571551895844834e-01
6.602888536152933375e+04
-1.146457954407045787e-01
-3.715890400706790388e+03
-1.156596629506243917e+05
2.446176812791787558e+00
5.031781580356569029e+05
-2.945829693810429148e+02
3.500471312213685364e+06
6.153239329811440257e+02
8.808774531368153403e+05
1.909979640654391915e+04
1.033173081598625458e+03
4.416146829972664818e+03
3.459119293944073803e+01
-2.858228142540850677e+06
-2.283071519979252480e+04
-2.808779300550189218e+05
-5.608876205124921910e-01
1.706468622797925491e+06
-1.270530684557941640e+04
3.861800668719536644e-01
3.419947877225442789e+06
-1.176738632354289293e+07
8.831159664050973952e+05
-1.235974075987368450e+07
-5.420182268301908524e-01
-1.390019863291612710e+05
-5.363062749560202569e+00
3.495267497625645774e+04
-7.112606214674217626e+05
6.464412716359740685e+00
-1.273432716000884739e+03
4.056836150258841226e+05
6.421867568706156817e+02
-1.444328623744925433e-02
3.344204109310866535e-01
7.077792910435810685e+06
-1.169629910121810390e+05
-3.290501608405836123e+03
-1.424632746101298864e+00
-1.050242839447136794e+05
-5.679725000608908158e+04
3.526382105709714233e+05
1.876996070555381477e+06
1.148448992166046810e+04
7.622301406198809855e+06
1.620963813702515108e+04
-1.113070934943747261e+03
-2.876106587739862334e+03
-3.376652104643829167e+06
1.426837260310610756e+06
-2.247062747047972865e+06
5.101474660111497506e+05
1.235955771157718264e+05
-7.662330552549040876e+05
-5.731605678589694719e+01
-2.753506836804887280e+06
-2.341678188037736863e-01
1.188380311843769392e+06
-3.852910866494268021e+02
-1.745670669251009055e-01
-7.560109739250533423e-01
3.527877621524125873e-01
-4.321289155326875334e+04
4.584866696493866556e+01
3.082023598393754469e+02
5.169838967502410014e+02
-2.231517555729128632e-01
-3.348047218545461074e+07
-4.031670250703015768e+00
-4.628504297765922965e+05
-2.973278703779252408e-01
-7.635295189401507088e+00
1.326077241222024662e+06
2.495095295167748528e+00
2.245202644523978108e+00
-5.861828764529024571e-01
-4.404623464947457023e+01
-9.932407260273495922e+04
7.509539395645496995e+01
9.018156107999732285e+01
-6.612278502354851373e-02
-1.080888037830412429e+00
-2.880606728219080592e-01
-2.598592163493648188e-01
1.147110352352644783e+06
-1.217087971536027500e+06
1.001315734060112853e+06
-4.726751895390479685e-02
-7.746156468334159939e-01
1.241071530362304838e+04
-8.802825723861811014e+01
-6.104569526768077736e-03
-1.638129888503048569e+07
-3.861705816229666652e+02
2.280914533005217208e+02
7.163330473308730870e+04
-5.266906886028174029e+00
6.402064524546875468e-01
1.758190393017559083e-01
-2.917596077178307623e+07
-3.747801301917517558e+06
-3.193798356477447697e+00
8.104602180227588862e+06
1.539826620191390248e+03
1.165747454432727870e-01
-3.898530375233294762e+03
-1.959148808738899739e-01
-2.885877372396453866e+05
-6.764769580911570301e+02
