1.283747858690331423e-01
6.438365839854677688e+02
6.861919781722264133e+01
1.227535702194353651e-01
-5.961333790397138621e-01
-5.816499519088935699e-02
1.338942700548573939e+01
9.975442637667579771e-01
-3.145346036216420202e+02
-2.754246457267175430e-01
5.010608124242922941e+02
-1.055932373018178083e+02
5.036802075119295097e+01
-7.567251171657259690e+00
-2.543737816068036409e+03
-1.766178610756141279e+04
-2.293674125669015740e-01
2.892483045836774636e+03
1.933386395331397334e-01
-3.421250599575677143e+01
-4.690769998407740786e+03
2.844888125085660135e+00
1.225771658947746867e-01
1.142766662273189468e+03
-3.020324286310116513e-02
6.882444798294293378e+02
-3.650130959451463752e+01
6.889425859965015775e+01
-6.983606650060169159e+02
-2.221717320764146741e+00
1.064442970078460782e-01
-5.844197854339253695e+01
-4.706777954282685972e-01
-1.118860493890951879e-01
1.534088588864580105e+00
-2.735977670570565351e+03
1.940204558103657291e+03
1.036545340228175460e-01
-1.881454065532432196e+01
-6.325737253367891277e-02
3.679178181177784612e-01
-1.154303029485708976e+02
-7.582669402640112821e+01
-3.015655972041858535e-02
1.506418601437095361e+01
2.177995685054278097e-01
-2.361479564458901503e-02
2.951513094224769596e+00
4.924958827687540008e-01
-5.217678250330061474e+02
-8.607033931117553038e+01
2.468165855220970116e+03
-8.140014287954333668e+03
4.218458287926623598e+02
6.591115421100372795e-02
-2.362635399518863323e+03
1.965657337533343707e+01
-5.628520520440304153e+00
7.304570420953596113e+02
1.063141370529976371e+02
4.666992948551119298e+02
1.050370669876122598e+00
-3.804116680144626343e+02
-1.186578096383196917e-01
-4.907075373384003001e+02
7.073457359790370447e+01
1.417127637166847309e-01
2.125947680516432229e+03
-1.318741531181804039e-01
5.765706220744934996e-01
-1.449661835371113909e+02
1.276754504101174081e-01
4.481369173226770727e+03
1.491497537025475140e+02
-2.403241656592476829e+02
1.522580811558192637e-01
3.218826216293736252e+03
-5.520648798469096619e-01
4.612252475182418721e+01
4.061115463276037190e+02
7.560506244846066693e+03
6.182974460339855227e+01
5.349938892242493971e-01
-6.758882492815143905e+01
3.942654607627371632e+00
2.008866885297756255e+01
2.271382531981204489e-02
5.307089914354846627e+01
1.014372229586940921e+04
-9.776479340299930598e+00
1.622014302954740970e+02
-4.919789351590015403e-01
-1.390264544655410282e+04
1.029382231930489766e+01
-9.589286353747979774e+02
1.158506858589427793e+03
-9.709721921746358930e+01
-1.559007453520603121e+04
2.399061381564366457e+03
2.050500190018974545e-01
-2.113486377291350915e-01
5.384976202558110003e+01
-1.496348974499953783e+02
-3.546857419548585244e-01
-7.622712185583830546e+01
2.169609759335359286e+03
-4.185666946783774822e-01
4.274898828650566429e+01
-1.807941353841617627e+01
-1.035431674157634006e+03
-2.021485009011672673e+01
4.274261374012227055e-01
-3.833065547780294402e-01
-7.762329799742263781e+00
6.310468065613306088e-02
-6.161243571286577208e+02
-2.387642772294994442e-01
9.511468787907961797e-02
7.710747288654936638e-01
8.294899738804897424e+02
1.906052754892559733e+02
-2.477620845268307335e+02
-2.780381421030690969e-01
1.102800526699643235e-03
-3.775011771985831155e-01
2.503285909534208258e+03
-9.656412781808657542e+01
-3.471483186077466421e-01
-4.711435531202828875e-01
3.022017179861434215e+02
6.449842561433393939e+01
-1.208772017815149047e+04
3.972241418243509543e+03
-2.019405202001199884e-01
-6.975151921040605885e+00
2.765801478751534432e+02
3.895127734782221296e+00
-2.986231128510920652e+00
9.643925660095437058e-02
1.553222432881871917e+01
5.387747321999695487e+02
1.495797789198245020e+00
1.192724749792191119e-01
3.299456793620259418e+02
8.177735381067324852e+03
-4.660020511005085950e+02
-2.020209063170808061e-01
-5.163572970031639215e+02
-1.542357848627102790e+00
3.552573144044318454e+00
-4.550148745454237087e+00
1.235112688003898427e+02
1.479889881880357638e+00
-4.439370664692353330e+01
1.432904171943113215e+04
-7.730944361798369968e+00
-2.886718176087326881e+01
-1.129030964541990215e+03
-1.024185572176226742e+03
1.279309971626836528e+01
2.204373483143482190e+03
9.064170255773124154e+02
-2.319783950678285578e+00
6.026834429984501140e-01
-1.163052160334848622e+03
-2.570455012199265310e-01
-3.483763839206541491e+01
4.069593105149259600e+02
1.874353294943587045e-02
1.899395385982096229e+00
-4.377361621262434710e+02
-2.427925035213645089e+01
1.317337944759181756e+00
5.478556960287614856e+02
-3.806080970437139968e+02
-4.422080545211447316e+03
9.274231074789979175e+03
1.107632107424891183e+04
-9.994853784740381570e+02
-2.728835166554114400e-01
-1.100128383989955605e-01
1.756560800992460281e+04
-7.620603674774017122e+00
4.160617289838691724e-02
4.059162795503439281e-01
2.615035128189837366e+01
4.240930051065353013e+01
8.928254610426832869e+02
-6.644721250178492483e+03
1.730197903209727883e+00
-1.621607270482911645e+00
-2.948102029614210551e+02
1.583896447882513847e+01
-1.277802714679535656e-01
2.150459239919013221e+00
4.450652032582152628e+01
-3.190876748360247928e-01
3.343936699056482666e+02
-2.111970567963244449e-01
-5.012253915821711203e+00
1.560052412207490746e-01
3.169229901964630614e+01
1.872725833094815773e+00
4.174192291011913358e-01
1.231991017186656556e+01
1.864136469452086331e+01
-7.460599870902086650e+00
-4.960993237004984735e-01
1.003055976441190893e+02
6.938767923719847204e+03
-1.760297043220175510e+03
3.609229334176682187e+02
1.331745912759510020e+03
-2.018086647649951601e+03
-2.537278618688769249e+00
9.954683655011399290e-01
2.821913551674408041e+02
2.722323401375181806e-01
2.064919229145618651e-01
-2.469358685370661166e-01
-5.663876904173042021e+03
-8.096688728571549420e-02
2.518776070324375560e+00
6.010873865736912194e+03
1.317166244105251462e+04
-5.572358045728560683e+01
1.141566141162058193e+04
-6.210319825552593102e+03
4.158397363749453263e-02
2.609985476388925463e+02
4.574984269762081567e+03
-4.146070448528091923e-01
-1.886405803364032685e-01
1.836232072538353188e+00
1.510649190706125466e+02
-1.896393469812392141e+02
-1.849144787918952915e+01
-1.369385903190242504e-01
-2.274355647797077836e+03
-4.167835554609125026e+00
-1.121261518142212299e+04
-8.566143721082985394e+02
1.744400326288327585e-01
-8.474076694173763826e+02
-4.778661665245209633e+00
-1.876784830635553226e+04
-2.318520792764036287e+01
2.300565409980526965e+03
-9.606030677143279073e-02
-5.294361420028601060e+03
-5.419461922677169113e-02
-1.868525194728874739e-02
-1.786461585109264671e-01
-1.215569699215250654e-02
4.558694675289108034e+01
1.331641483854009156e-01
4.687583102805416274e+03
1.999694627913633212e+03
3.624074845679304957e+01
5.216560142300988900e+01
7.938726460525167283e-01
-6.645691877319882224e+01
-7.872294673745637572e-03
-2.787777963064937126e+02
4.603933593585152195e-01
-2.787787022069707746e+03
1.786811162979323399e+03
-2.852254112342673231e+00
3.554192150808028750e-01
5.034711550932620128e-01
-6.433568822133475806e-02
-4.262645724286150406e-01
-6.464565919200819799e-01
5.787171594839823907e-02
6.064271440328423068e+02
1.505462540911632896e-01
8.807321141010584498e+00
2.006023992461896110e-01
-2.938696375790723323e+02
-4.518233650590172147e+03
3.630440187483934267e-01
-5.428228648653644939e+01
1.998371024057141176e-02
7.836600059952252195e+02
1.268930678101939975e+02
-1.599300385568047886e+03
1.529500777994287075e-01
-1.065902231895190866e+01
4.267571781415718135e+01
-1.242941868204341063e+02
3.448589644091483706e+02
-3.734694220463140590e-01
1.709732047209389094e-02
-1.456648737428606122e+00
-1.798268011126435340e+03
-2.535293664612968678e-01
-2.030866948593419430e-01
1.193449057059343659e+02
-4.658761419971346186e+03
-5.234135197695377428e+02
