-3.698557757844346483e+00
7.352741490383878364e+00
1.006777311767177441e-01
-3.574641426396070187e-01
1.073227152179279109e+00
-1.655225603004748303e+00
5.010272813008184833e+00
1.700715041094600366e-01
-2.427392591382157683e+00
-4.454453944429181966e-02
5.051872905668621794e-01
-9.915470883423422865e-01
3.055535363788970393e+00
5.672275153542414294e-01
1.872213923635816180e+00
3.742540862468292318e+00
-4.812018844405043794e+00
-5.203347769267937295e+00
-1.298663858629532264e+00
2.543169437698999502e+00
3.572103487553063283e-02
5.363413659103801301e+00
1.211992883771076635e+01
1.882227870680207138e+00
-6.998993931947494751e-01
-5.584334270934418143e+00
1.456947831061546239e+00
1.056116550835120904e+00
-6.258927537451089762e+00
-1.384040419644037012e+00
4.299387471160898144e-01
8.593923088070937411e+00
2.925061901032145251e+00
-9.987748030699292734e-01
-8.474302532839796953e-01
3.354476324318527602e+00
-2.885163197056166418e-01
1.103248339024727187e+00
-3.354134529518030483e+00
-1.376731794609245441e+00
4.816521272128563957e+00
-1.745893475986516563e+00
-9.155162093331750128e-01
1.503959034338674172e+00
9.992565172075586588e+00
5.339832875892196462e-01
-2.136662821014073899e+00
-4.921620848686358851e-02
7.997307616435446853e+00
-1.108520233159743240e+00
-2.526068239954772032e+00
2.126048180811593191e+00
-1.515240416794777545e+01
-5.228274932496134397e+00
-6.731150340637048757e-01
9.815885453727812848e-02
4.883488468774497271e-01
2.740908131552721727e-01
-6.654037511143615191e+00
-6.347048737813107522e+00
-9.107957151281396158e-01
-4.171720383381744668e+00
-1.778952523621963433e+00
2.310775049931719671e+00
-3.980254959242314428e+00
-9.579735369118356658e+00
2.734667197469569544e+00
3.347590307549415556e+00
5.128327804033325776e+00
-4.850914844381182256e-01
-4.874610159480251781e+00
2.922017739859134267e+00
9.406932462566914843e-01
-2.441781319551846519e+00
-7.309782379403610086e+00
1.687852120342905771e+00
5.646546000973964752e+00
2.789440959558195487e+00
-4.772434240361125291e-01
8.979927444540052317e-01
1.586821359787119334e+01
-3.038693625075818971e+00
-6.278803493267086644e-01
-2.074469196998702358e+00
2.342623588021208292e+00
3.321778582737977104e+00
-5.464737358606037709e+00
6.508789766074830618e-01
1.058305307872306145e+00
-2.572059249990301222e+00
-5.506071285584900110e+00
-4.340666281503754220e+00
1.806828508114430853e-01
-3.524219959522484125e+00
1.109328723313397091e+01
3.106611266811508898e+00
-3.850937353130903240e+00
-2.609025479684120796e+00
6.024297136892700522e+00
-3.785875037935931609e+00
-1.232512733834632446e+00
4.488883346284509912e+00
-1.517454829352928414e+00
1.554450875096659246e+00
7.224082245584607875e+00
-1.731559541743509456e+00
-6.091728504599176475e-01
-1.348393302331820198e+00
4.812830957426267986e+00
1.677829112451197702e+00
-2.686736290633832347e+00
3.224860527618415240e+00
6.127297253003303190e+00
-7.001546546276508742e+00
-9.057287126989951531e+00
2.636213627957814332e+00
-4.418820510768854959e+00
-3.627621753593790466e-01
-3.471744944181435422e+00
2.669467820230243760e+00
1.413117224607366884e+00
-8.868667912762456140e+00
2.339706099483586321e+00
3.716199621255329433e-01
2.508550798260531067e+00
3.749000818243416688e+00
-1.596097929184010944e+00
6.103189079184097920e+00
1.082833324761152349e+00
-7.214275942949766929e+00
-5.243495921811350158e+00
-3.398226475989055473e+00
5.810132937214542714e+00
-7.543082970367472662e+00
-4.308520363376002194e-01
2.877239875447754169e+00
-3.295362580716896250e-01
8.156093929741896176e+00
6.139371397835864386e-01
3.934379041779574315e-01
-7.706531777824660701e+00
1.969018219792881386e+00
-2.361565707838778394e+00
2.864957004189303547e-01
9.419239433569348563e-02
8.941012865612620875e-01
5.917103838074239119e-01
8.091552542629278921e-01
2.117096639523559531e+00
6.709352386995481865e+00
-6.861653589364692385e-01
-9.821682505172173450e-01
9.747859282839822503e-01
1.588666098077751165e-01
3.515646846284877225e-01
-1.558871402594416367e+00
3.456861177752297287e+00
3.249970657293934195e+00
2.060955583786282297e+00
4.937937316505880414e-02
4.547266964088920282e+00
-4.706119007000228116e+00
-1.452306448018513052e+00
3.333849989007479309e+00
-6.681856962414414181e-01
8.706471708016474409e+00
5.221095723033152503e+00
-3.232678923035810836e+00
2.443027876040115842e-01
7.419969691617023244e-02
3.650100543601316749e-01
-7.094354111115993788e+00
2.655614132790378168e-01
1.257410916735689277e+00
-8.941292777274213677e+00
4.335028181709486006e+00
-9.286603674158364186e+00
-3.913745662547984949e-02
-5.745544174580133223e+00
1.128748422651903116e+00
5.891428800097902041e-01
-4.693751963475030209e-01
1.933391405175823863e+00
1.143008318220698705e+00
-1.003013578950278983e+00
-4.232307104900585593e-01
9.019664069376300830e-01
1.198706996859471907e+00
-2.649681080701713931e+00
-2.159047778506490545e+00
4.121430790567760738e+00
-3.752678212500208943e-01
-9.481432481475660090e-02
7.832802173728621753e+00
7.413540832270305359e+00
-1.593017484844159171e+00
7.256896973845097243e-01
-8.567573746900254861e+00
-3.425443966844297083e-01
-4.480689761133213267e+00
6.290014425796952580e-02
-4.676501744170533215e+00
2.153701768015026552e+00
8.456926848529043639e+00
6.406518798769136325e+00
2.737806689181640607e+00
-2.491866267818419800e+00
-1.633934743056020711e+00
2.995246608813641132e+00
1.306501325630470944e+00
-2.187392076323178003e+00
-1.236091406361751854e+00
-3.135728469093689519e+00
7.269642184132907303e-02
-7.703935048974752675e-02
8.205473409373974292e+00
2.723396105136437484e+00
-5.312249800000905964e+00
1.180673460781305906e+01
5.624840004197947607e+00
-3.016074737316403187e-01
-6.829306791906961216e+00
-3.942839803960671574e-01
5.249964467460461748e-01
-3.772923326125288135e+00
-5.002143879677043437e+00
-4.628928386852961374e+00
-6.462634799036774069e+00
-3.560942530616434398e-02
-4.841552297869132993e+00
-4.797527706508029510e+00
3.309176189422105452e+00
1.986698829346187356e+00
2.103106749594576996e+00
1.994833220167958387e+00
-3.965713031280859724e-02
8.497515726028261884e-01
-2.740288361916614512e+00
-4.769458512466946409e-01
-5.313724559448277596e+00
-4.585864918586324279e+00
6.718527298015584126e-01
6.802589144253093245e+00
-1.526851814541148045e+00
-4.706044691744548647e-01
1.202592312396628316e+01
7.448062268330991609e-01
-8.774182182892275250e+00
4.055916824789385089e-01
-2.666735275047937836e-02
-1.908602821593049725e+00
1.077155236151697615e+00
-6.891054224075079393e-01
-5.207597235076187658e+00
1.120045975154490225e+00
-9.988278401751796154e-02
7.198650605841727668e+00
5.049588339438742857e+00
-3.776410214190146775e+00
-1.235472905631475982e+01
3.732263681249081144e-01
9.983033806534535870e-01
-1.004308281325378438e+01
1.291817018842768006e-01
-2.088706918120870615e+00
9.344211725347141284e-01
1.325968526592653518e+00
-2.480415129946580421e+00
1.240521337551290904e+00
6.714542655805603388e+00
5.667505236254063439e-01
-2.324922213429367446e+00
-8.468723771051154259e+00
3.370638931451008791e-01
-3.764143954701431039e+00
-9.417098023591495837e-01
-2.585324907284256568e-01
1.215504248302358370e+00
-2.513265525039703352e+00
-1.059027379361019072e+01
-4.499897748011767007e+00
-7.479826464657157725e-01
-2.179109233766851617e-01
9.868611920995082443e+00
-5.209400344911154335e+00
5.660117158203557430e+00
1.316722538045074486e+01
1.768716138927736381e+00
8.901782804571896079e+00
-1.894170515530688714e+00
-1.489238297686453105e+00
2.923600967114004523e-01
-6.832547964860995471e-01
5.161174085087579577e+00
-7.129460212270242181e-01
-1.244581443189453296e+00
-4.351505413910657261e+00
4.339910528438560178e+00
-1.506052163356216278e+00
9.185574087781334107e-01
