-1.904097672082390957e+01
6.093632730945920173e+00
9.378049496032072607e-01
-1.460077860999684951e+01
-1.295881704733364170e+00
-1.368446698889418656e+01
-7.112434298466236982e+00
4.646534677574499783e-01
-1.752606588756399475e+01
2.620815498639517571e+00
-1.005076079656930688e+00
1.654781105834537414e+00
1.943101148214282148e+00
-1.453966192878925590e+01
1.671870786798513642e+00
1.002886429435359616e+01
7.943490325742033065e-01
8.268707102688370725e+00
2.696323711940845413e+00
1.018337474555443478e+01
1.700014371457811535e+00
-1.281007491569804557e+01
-1.031276211489122296e+00
-1.395260299489076772e+01
3.332287093620825758e+00
1.392370936967482109e+01
1.404904910155159214e+01
-4.507007738338993263e+00
1.388777191830213553e+01
-1.328706294106033692e+00
-1.784234662697078866e+00
-9.967136590923534101e+00
-3.624448770415027887e+00
-1.150948425760247673e+01
-1.345567273472184411e+00
-4.056840792423246356e-01
-5.065512598360664143e-01
5.306333460283187975e+00
-5.310934417369168603e-01
5.217205272283518269e-01
-3.318466067362067839e+00
1.906798282751714702e+00
1.787486215499662023e+00
3.876403120131985958e-01
-2.139144538531301620e+01
-1.531693641583709464e+00
-3.256649084055384780e+00
7.471362378646873026e-03
1.313187285060227083e+00
5.904914097715821875e+00
-3.402771185339145354e+00
3.013163445777642835e+00
-2.955769169575253041e+00
2.375424143829116375e+00
-2.559864279676666499e+01
-7.456922160664987587e+00
-1.171781246641647956e+00
-5.708169524683889051e+00
3.414754439988051615e+00
4.031775909051233953e-01
3.125248754009285257e+00
6.724734428612281434e+00
-1.563576283260550426e-01
1.411993877732107716e+00
5.025319559700629490e-01
7.638118029221985239e+00
1.668343731761495530e+00
1.916601698330074655e+00
3.058082452475559876e+00
1.857035436210368928e+00
-1.110421047610191536e+01
-4.037126680941113932e+00
-2.648233950168469519e+00
5.009857235941453268e+00
-1.059719094350187518e+01
3.408005051576170175e+00
6.494202153104474462e+00
-3.298136034488580393e+00
8.549155732121604956e-02
-5.380833835645629226e-02
-3.551273061117552921e+00
1.125965722800859936e+00
5.454339048805155743e-01
-9.536884904028457566e-01
-4.561140926650277816e-01
1.835804002150069891e+00
-2.296247631270770029e+00
2.253722929527258945e+00
1.819606763065864996e+00
-9.282008393098077903e-01
-6.219039034963884660e-01
-1.177622704568125123e+01
-3.503252170367057161e-01
3.215596574255875417e+00
-2.865009972480615730e+00
1.217448916884011911e+00
3.383624546818487566e+00
-8.894580581569490718e+00
-7.248788733049410737e+00
3.552686122072295394e+00
-8.636412208935393409e-01
-7.675719945744471140e+00
2.807690795028754849e+00
1.775112162173324037e+01
2.464678901257832955e+00
-4.619767051245875500e+00
1.764315183411904187e+00
-7.057701481757558071e+00
-3.838818582667169466e-01
6.966782211002398029e+00
7.501856646960091801e+00
2.433918602186622593e+00
-7.494827574772477963e-01
5.688024069641429037e+00
3.812729844415312375e-01
3.227354021506105397e+00
-1.292956037166567640e+01
-1.636232308327392193e-01
3.105073026762667610e+00
-6.617121837067325707e-01
5.494112144461573699e-01
-5.723106158397408549e-01
3.670574879027239668e+00
-4.345968745690385049e-01
1.479515823743666081e+00
-7.392497517068399304e-01
1.067941834174819604e+01
1.369713272303691731e+01
-1.280747069337625987e+01
2.046685134177799625e+00
-3.236559162874144135e-01
4.407178623826299102e+00
5.234456673439234820e+00
3.637902113979043950e+00
1.468499351699898980e+00
-1.547954637393491772e+01
-1.729121115574337564e+00
4.382139473177014466e+00
-1.969670867896628375e+00
-1.799857633325956385e-01
-2.792667706965499264e-01
3.726157005231577557e+00
-7.626182611436554737e+00
-1.823203974094563140e+00
-1.257716202645147163e+00
5.585912804832785739e+00
-1.748433596159743786e+01
-6.388212269094620588e+00
-2.646024450617119328e-01
1.101342972525904074e+00
-1.016088567028476852e+01
1.429798870046100490e+01
-4.034070997285428284e+00
4.750345490726559206e+00
1.113885074187241031e+00
9.903662272798925414e-01
-8.415737611152067643e-01
-1.675222888268594801e+01
-2.034874090408063552e+00
-8.891701738553786427e+00
7.918593456749050574e+00
2.955954485297028089e+00
2.112007154214974847e+01
1.382581471008051954e+00
-1.647485484812597489e+00
-1.112529807504938617e+01
1.023764586719291536e+01
-3.047301049316441635e+00
-4.064755989591575247e-01
2.685478947004413808e+00
6.461268209789332140e+00
5.498756377524528283e+00
-6.929597861670720782e+00
-1.978919809261181229e+01
7.182137118385126584e+00
-6.411487461833413448e+00
-5.806673724567144035e-01
-5.301421384061356434e+00
3.016705925257262777e+00
-4.546735467070353920e+00
-7.860314276260751853e+00
-6.461416774027086696e+00
-5.035884885790089527e+00
-2.812020784013529173e-01
9.857412379829511906e+00
4.775941287706563898e+00
1.069989472346795267e+01
-1.301150676414066076e+01
8.817429221235029146e-02
-4.778209221958848119e+00
3.197649744946673422e-01
-1.706765905455409182e+00
4.908357178670169074e-01
-1.475554508461019765e+01
2.005134058974503031e+00
1.040322423180933598e+01
1.438569797476514722e+01
2.651914354264079954e+00
-7.279094653957144168e+00
8.081357552143231260e-04
-1.460647622951973590e+00
-9.629308836983909714e+00
-1.972555581517914547e+00
7.792744646314941903e+00
1.252927405390735771e-02
3.723091041411540569e+00
-5.870850533084315259e+00
-2.052552991143435257e+00
-3.618892290405346657e+00
-9.132194636645452057e-02
8.836140621742893941e+00
-3.693949830412228241e+00
-6.014562365370583308e+00
5.227641926211624712e-01
8.801937064673726496e+00
-6.420861273294448779e+00
-1.774527900243609935e+01
1.319551740893573388e+01
-7.691161823580712209e-01
2.330040222800149330e+00
6.325501500851570924e+00
-2.724193610234909357e+00
3.261956725859286532e+00
8.032646395600382405e+00
-3.991860670266539568e+00
8.249563798267098846e+00
3.655232970951027394e+00
3.691941672412015762e-01
-7.816305844902004196e+00
3.336020756354930228e+00
4.015739115156872430e+00
7.800173968728429941e-02
5.112117661328920093e+00
4.922949195224903818e+00
2.774571788310431941e+00
-1.198846064370998832e+01
-1.272507898741965793e-01
2.340844289716988769e+00
-6.776778342668774435e+00
3.465694589582446028e+00
5.221389918362747906e+00
-1.184210230900660576e+00
4.573023253648242914e+00
-1.640877841262355474e+00
6.788195305977851035e-01
1.291762458646660150e+01
-4.842288617502463310e+00
-3.247128770141891607e-01
1.843268488752620726e+00
1.980532274280006888e+01
8.342116318904544414e+00
1.030558732326169036e+01
-6.306538190687599688e+00
3.530462134890512971e-01
-1.821345557530640757e+00
-2.625434601266348089e+00
4.265161294241793577e+00
4.270154940055199688e-01
1.190883242922635610e+01
-2.792719462098355621e+01
2.659670679987975461e+00
1.967080991510756505e+01
9.139852183666775431e+00
1.887740158808196567e+00
2.436089840619342084e+00
-2.218343379513812863e+01
9.274831310619013891e+00
3.625715199011742662e+00
2.396030460665993900e+01
1.665468028423744418e+00
-1.881419226617914831e+00
1.209682603751676311e+01
-8.462694877059742993e+00
6.122131001408084305e-01
9.246492959890689534e+00
-1.075947475476488613e+00
-2.436929724612024284e+00
3.785453371533938682e+00
8.786698055677181429e+00
9.136512100092396338e+00
1.242835189219353609e+01
2.491307788694457237e+00
6.095602338445008428e+00
-2.362959671852582044e+00
-5.248654335873132126e+00
2.050649434205884702e+01
-8.844219000495709082e+00
-1.949932355492531855e+00
-4.101310994815952071e+00
-3.672247668457995218e-01
-7.226121316326555188e+00
-8.730639612101695590e+00
5.797166988831667922e-01
1.767562893914489397e+00
1.442346848519854063e+01
-1.627745873477423899e+01
4.682902572130421603e+00
-2.713776891627317056e+00
-1.089844814531913286e+00
3.644303287106787081e-02
