3.447762556720545044e+11
-1.066134746883710022e+11
-7.579013480430923462e+09
1.846966080719609070e+10
3.816102860554039478e+06
-5.482564943416580200e+10
-3.493163777801175117e+08
9.127623139781346130e+10
-2.441607840741061401e+10
-8.472753295811567688e+10
-1.593143149413959312e+10
3.358837103396511841e+10
1.169910223047574463e+11
7.438336626872351766e+07
3.568986619274322510e+09
-2.260855769075285339e+10
2.293402610528414249e+08
-9.457317800010461360e+04
-4.362467455292864703e+06
-3.705079532471833801e+10
-6.441821477332402039e+10
-3.400500856305845865e-01
-1.804575123080923715e-01
-7.311057518284566700e+07
-4.301299876148737907e+09
4.638243630945270538e+10
-2.561372594012911987e+10
-2.932001300038654804e+08
1.276215858460809231e+09
-3.016934467826164246e+10
-3.740839113785375977e+10
-8.874444212639205933e+10
4.366986866534826660e+10
-2.240796281323558044e+10
7.041768810853173828e+10
1.304705747348658371e+10
8.904240339156156778e+07
-6.979697865530653000e+09
8.999287313000563504e-01
4.775860311348388672e+09
5.224223529109737396e+10
-2.090984992464922365e-01
-1.212996488212286308e+07
1.232170433887896729e+10
-1.187045842894334793e+08
-8.555909467497576904e+10
6.217641931355279541e+10
6.191197448171562195e+10
-7.975008180255525589e+09
-1.415543157535598755e+10
9.526260901481143188e+10
-2.924580459624946594e+10
2.918774996526008606e+09
1.468690899121840820e+11
-3.883175133798727417e+10
2.885025248619310645e-02
1.348269756639483643e+10
-2.662447278170124628e+04
2.827118761628585815e+09
-8.681169019562703324e+05
-5.121470046661582947e+10
2.996492309116183472e+10
-2.020796072421562958e+10
-4.399204033608472347e+07
6.766122330622798204e+08
1.162464558491947651e+09
4.302142710171572113e+10
-1.733297755637382507e+10
-3.370141306873130798e+09
-7.446275827896337891e+10
9.185861384971454972e+05
1.160934771272887883e+05
-5.049237240054286194e+10
-1.382528107839791107e+10
-3.605434283009574127e+10
2.756007959027660036e+03
-7.473898354580474854e+09
-4.268146785296915099e+06
2.932692356093841553e+10
3.132621519013429260e+10
-1.837163031060748963e-01
1.312774298508131409e+10
-1.267599950971191025e+10
-9.482140800725727081e+08
6.374759258053119382e+00
1.587552331572383568e-01
7.629930567178445435e+10
5.185444552905564880e+10
-2.417110380213446490e+02
7.154285863521595764e+10
6.466359923538134098e+08
-9.357685573069845581e+10
-3.305471583030408621e+08
-9.615111206394555664e+10
-8.543042858053011894e+08
-1.559759540041492462e+10
-2.473610099930042267e+10
-7.829956742326812744e+09
5.746342126761238098e+10
-1.278688983910989482e+06
-8.803221160491519165e+10
1.684486378506728516e+11
1.086791204499162903e+11
-8.588408905210986268e+05
-4.977070583837409973e+09
1.423606233371673965e+10
1.948090659817306519e+09
-4.289060242788416290e+10
1.674357847678653717e+10
1.761624107505920410e+10
1.070220349747934563e-01
2.198187441577673721e+10
4.782534091829829849e+05
-1.860486155405217171e+09
-4.696795116726251221e+10
1.081273453179183655e+11
1.183803643462637329e+11
3.823337556098265076e+10
-7.880817278474513441e+05
9.139961334828570557e+10
-2.424680412826060783e+05
-3.120386367237409973e+10
1.811116878639700890e+09
-5.251377358020122647e+08
3.675737029754591370e+10
-1.881513586151505280e+01
6.892172203102421570e+10
1.274472625550781377e+06
2.046434032690881348e+10
-8.150301058448196411e+09
-3.603286605180105591e+10
-1.047878914497308502e+11
-3.546240447284564972e+10
3.737701628760506511e+08
-4.048284393366555989e+00
-1.163768749991267776e+10
-4.492768958662792206e+09
1.712596382990576172e+10
-1.427694815371946716e+10
1.641344784516279297e+11
-1.168384261498933483e+03
-1.127098242876743376e+08
-4.922761987905864167e+00
4.191501666719383001e+07
1.232269165278923538e+03
-3.604433495973573685e+09
-2.887406511999671936e+10
-4.015925349409646511e+09
-1.670137095173780395e-01
-4.195435690958446503e+09
1.817237336040662399e+01
-5.230342595107111265e+04
2.492786329762160492e+10
-2.592845300281429291e+09
4.458516054407957199e+03
-3.738432364477242279e+10
7.165220890061027527e+10
-5.120184505501165986e+06
2.630083739653057861e+10
1.206545386631745696e+08
5.763014082339283752e+10
7.367101279573959112e+08
1.502521046759700775e+09
-2.789093816813403320e+10
-2.129145068114948273e+09
3.556624270315032959e+10
-5.072464494769148254e+10
7.731761392312579346e+10
-1.855996155973939896e+08
-1.040257672459229354e+01
2.612253104221970588e+07
-1.496899098472010344e+06
-2.050121379657021332e+10
-3.966545078810058594e+10
4.033222797545565796e+10
-4.861129813708164978e+10
-2.844032099116555214e+09
6.423846362467626953e+10
-1.699595503790437889e+10
-1.010501197455581360e+11
-4.647997313860928345e+10
-3.915220512771077077e-01
-1.072908059225273743e+11
-6.405194694512591553e+10
7.674362858327694702e+10
-1.489973345528937876e+08
-1.219930862197253418e+10
-1.471297297558421968e+06
1.645167333416790962e+08
6.416284274350459290e+10
-5.173654350015604019e+09
3.174873550070105791e+08
1.249570567678334236e+09
4.111518529557800293e+10
-1.061732753107158661e+10
6.051680017307397461e+10
4.458740359039066315e+10
3.295296684970413208e+09
6.600950369111262512e+10
5.093161184985889122e+03
-3.020602314354866028e+09
9.151557496883300781e+09
-1.126416790726120300e+11
-9.914340295456097412e+10
2.819560816113624573e+10
-1.667857554210191727e+10
-1.930697983925070190e+10
-3.551586707591080666e+09
-1.615408760887761497e+10
1.764887365331873703e+10
3.075170390157294083e+10
6.253769935447423935e+09
-8.173547429337207031e+10
-2.015303475641612244e+10
5.090239143323104829e+06
4.291176485155516052e+10
5.459725378071872145e+07
1.092886201206972124e+06
2.716453569785767365e+10
-2.858948187274509811e+10
6.065815774472259521e+09
1.268166583866797447e+09
-7.314093315165345669e+08
5.798829475532407685e-02
5.815745285185138702e+09
-3.437820120231163025e+10
6.695255367645267487e+09
5.556981584037397766e+10
1.238008018800150757e+11
5.310941691433638000e+10
-6.313258353091714525e+02
2.387074622151931763e+09
-2.695324590668008423e+10
-1.545320374209553528e+10
2.322178447723344434e+05
-5.735317639271553040e+10
-3.983445928221475220e+10
6.580719937459209024e-02
-2.023203691078138733e+10
-3.472522313735659122e+08
-1.810633595085929871e+09
-4.962813857697938538e+10
6.317823422364039612e+10
7.404979500640747070e+10
2.160445889089933872e+09
-9.237412018304663086e+10
-7.309556007702331543e+08
9.239186531199114990e+10
-2.331577619304816425e+08
-5.831012682555291748e+10
-1.593119013641562500e+11
-2.399219568230424193e+04
-1.366173217637483826e+11
-2.730307310527450562e+09
-5.075949651302263141e+06
-2.347461170671790695e+10
4.191654142733440399e+08
-1.406069122234244961e+00
-2.923902252708854675e+08
5.741326210447846222e+10
7.276884842118017578e+10
1.072755382420562983e+09
1.289231001782014771e+11
-9.849217602673104858e+10
7.874216256797327995e+09
7.111158380907830811e+10
-3.869840550118288434e+02
-1.279162741738263369e+08
-1.024070064443753052e+10
1.126410313644958801e+11
1.952599946888614795e+04
1.135251772151083069e+11
-3.897023939784362793e+09
3.665195815146601868e+10
1.949018219792539120e+09
-8.089218895279588699e+08
7.440106689148620605e+09
-3.159162090901654816e+10
1.216023801551466370e+11
-7.528824412162655640e+10
9.228955304304337082e-02
1.546990576194557571e+10
1.026126017248983383e+09
4.575500346055504608e+10
1.415500852778458595e+08
4.399997135163056373e+04
5.268395940319987488e+10
1.115398268158531189e+07
9.838003051420058012e+08
-1.937866661315068054e+10
7.025897083542300224e+09
1.355354990196939724e-01
-2.076856753448106384e+10
-4.336884440947095752e+08
-6.482958382209243774e+09
-2.809364579473230988e+05
7.099970645685791969e+06
-2.648039221803707433e-01
-2.683878663862924194e+10
-1.066468092058325195e+10
-8.475128491829789734e+10
2.431214569834456718e-01
-1.659017479214646149e+10
-7.757634783735870361e+10
2.377855903047924805e+10
-3.242874431955499172e+09
4.555994370618016052e+10
1.707987221890092163e+11
-5.047125058041574097e+10
4.234701053484111786e+09
1.197870269357518921e+11
2.633773038337302208e+08
-4.841487917239101080e+03
-2.069839527453408241e+09
9.705049665517147827e+10
-3.712855529041357422e+10
1.942738071521373788e-01
3.455632158024859619e+10
-1.619981310511744022e+07
-9.385139393754003906e+10
-1.476844368625948486e+11
-5.905992786921842957e+10
7.432737103938629150e+09
4.339999965717496872e+08
-1.935938175919570160e+10
2.349008856281652451e+08
-1.860449116968339539e+10
4.946422282557820129e+10
-3.175492188057283783e+10
-2.875556086379490793e+06
-6.071505032222843170e+08
-3.608329272038397980e+10
-2.484587010361339569e+10
-2.073322813137338257e+10
-6.526569619558621198e+05
-9.943987501200749874e+08
-2.946151228404932772e+04
3.144385443323566842e-01
-9.247127911770941162e+10
-3.343711987473921180e+08
3.452999668587960052e+10
1.996415307558478355e+09
-3.822036363381816864e+09
-1.129826962503029790e+05
-2.130066915106154633e+10
-1.348381813554774544e-01
4.271744987593418884e+10
-8.932410370210656738e+10
-9.664225036343682861e+10
6.674549643840058707e+05
1.103099942544105530e+10
4.264464716698801994e+09
4.324007964304502487e+09
-5.150044738436181641e+10
6.542305902491979599e+09
-1.192214198405343475e+11
5.634180926688968860e+00
1.411615946611707211e+08
1.665665158470331669e+09
3.961892138951696452e-01
-4.527867549431428528e+10
-2.669810746890052795e+10
4.087035250217782497e+09
4.172683303962359619e+10
-6.768005043191466331e+08
5.027006070483032818e+04
9.589932862779365540e+09
4.687913907572604949e+05
-3.617959840824928880e+07
2.193447617019565582e+10
8.646529688805049574e+00
1.060983567896047211e+10
-9.128723391467151642e+09
6.248309307794280052e+09
-1.115997825283903503e+10
1.739162843152478027e+10
-1.697351135334978462e+05
-6.139395230651152039e+10
1.350828342584084320e+10
7.781668804211539100e+04
-7.238926532918121666e+03
-3.261987950201475620e+08
-1.270337012561609969e+07
2.302778248272061539e+10
3.160953073067916870e+09
-3.175093678957269669e+09
1.448017271176334918e+08
1.319144644339496231e+10
-4.477978455764027596e+09
-2.467755507709625244e+10
-2.203923994760258789e+11
-8.816301195936441422e+07
-1.781004860054166794e+09
-3.666640993148628998e+10
-9.473352230801266479e+10
-1.428783057110083008e+10
-8.127594942625653076e+10
-4.520611846499325562e+10
-2.635457380077377319e+09
-6.773135892648178101e+09
