1.478093594744311901e-01
-2.806611810707578814e-01
4.941467809724415794e-01
8.536644209078954049e-01
8.092379299248908531e-02
-1.959654100138510380e+00
2.399414048412331635e+00
-5.304210253512045004e-01
-3.181287175972487891e+00
7.877408936569838538e-01
8.879707748718942417e-01
2.552138212155687036e+00
4.306327924811025332e-01
3.364480222165008527e+00
-7.416803868867880567e-01
3.170089249114491636e-01
-3.105282172349506098e-01
4.834994227512442677e+00
8.542162514928470785e-01
2.451825186996070549e-01
-1.888979470069658939e+00
-6.774864846594352841e-01
-2.908273776322408133e-01
6.665741348616857076e-01
1.670091982678056031e+00
2.660423393586053731e+00
-4.319547123230186969e+00
-5.649889967228988175e-01
1.850901530284545515e-01
-1.374681847695486958e+00
1.064184758491445004e+00
1.249656396783116241e+00
3.858440439262400545e-01
3.711017362375885753e+00
-1.765908476218647216e+00
-1.866709521639835501e+00
-2.166417799806838573e+00
4.146251005882144902e+00
-2.901737790193847921e+00
-1.207689507120599970e+00
-7.366268257901533723e-01
1.116533223383051610e-01
4.869232619152523700e-01
2.057921691685692167e+00
-1.247369630311590871e+00
-7.873528309795205793e-01
-3.488158758544488425e+00
-2.489370722068728448e+00
8.347504905255815899e-01
-4.082934210729241009e-01
-4.862509749956092975e+00
-2.774036846686180002e+00
-2.101578005651782988e+00
3.223443816806336848e+00
-1.808390784413033414e-01
-3.890789790204675747e+00
4.662709960804799492e-01
-2.919648727678537448e+00
1.361149191794014168e+00
-3.350942296836603163e-01
2.421679630274092276e-01
4.374208574703647656e+00
2.423445401384727860e-01
7.896693980250950595e-01
1.860920488416635266e+00
-1.442178943723210427e+00
-6.688862322834454588e-01
-1.316885966443480660e+00
-2.789359951947916194e+00
5.967574510280577726e-01
-1.871644240214816124e+00
9.559768762599780700e-01
2.933869943025597671e+00
-2.560611663267968741e-01
-4.184219408372739091e-01
-3.341273233248112984e+00
-3.714377921139456085e+00
1.656360414254061553e+00
-1.059018996078959551e+00
1.521351051340663174e+00
2.781859297842790735e+00
5.696442599896603953e-01
-6.485495630966096048e-01
-2.956319461844783447e+00
1.330067383356997590e+00
3.321394232614254260e+00
6.294948785596581331e-01
4.604825258844029712e+00
6.968085289115339975e-01
6.811326592401534263e-02
1.155401265587626014e+00
-1.049271478530780843e+00
-4.353087032253252886e+00
3.544981052369600150e+00
-5.861882346016886736e-01
6.861401041685277757e-01
2.779145679247362999e+00
-3.718678922088316963e+00
6.410383476390749680e-01
-5.126225163250794914e-01
1.757664146202007061e-01
2.417777699550385240e-01
-4.099914654802062408e+00
-1.248578150229791017e+00
-1.383098467094037609e+00
-3.423660090575493697e+00
-6.963499711480696241e-01
5.540100526250613111e-01
-1.953959208092584277e+00
-6.937597154011600153e+00
-3.510725952196869226e-01
2.619205122883130343e+00
2.105279455001691780e-01
-2.215276578130467744e+00
-3.150983824572918479e+00
-7.522311873772049573e-01
6.272080638596504443e+00
1.146154006041827600e+00
3.132260291652825046e+00
-1.791366662202849014e-01
-7.420296249475528683e-01
-3.550916785819628885e-01
-8.434621463428589871e-01
1.724036216406343858e+00
-8.525552392907203014e-01
-7.291578518352741511e-01
3.519822679181718428e+00
-4.232565894058156530e+00
-1.301753995382596285e+00
1.239326432575187376e-01
-1.098092108414244983e+00
-4.017852382893327690e-01
-4.637033276415958305e-01
4.874166688802143987e+00
2.148385741539471816e+00
-2.204605880931797213e+00
2.820630181125992397e+00
7.564388231179923761e-01
-1.330420872318090475e-01
6.522726041532136421e-01
-1.021273385164636061e-01
2.012152299142687895e+00
2.383691017924332578e-01
-4.360073667440467204e-02
-3.737222002681424016e-01
8.797335267603111353e-01
1.077696160017946436e+00
6.897127602152073322e-01
1.478854199794938040e+00
1.468283616526838919e+00
1.737176857083638559e+00
2.057947258467642371e+00
-2.774096750560208768e+00
1.948835007333761693e+00
-2.038383821888323233e-01
-7.673016130357523945e-01
6.309230456889596272e-01
-1.971151322371852199e+00
1.287737812451588137e+00
-3.959832913380512132e-01
8.788956028300553003e-01
-3.330477857768937566e-01
9.449701682885031095e-01
-2.610457613936078225e+00
1.446274094240678654e+00
-1.069256340563899954e-01
-2.348615098345139263e-01
4.703347299949319549e+00
-5.384868628759533316e+00
-7.567303252690103399e+00
3.234155415846210246e+00
-1.648337059033917917e+00
1.460739680641756966e+00
4.793606780918109322e-01
-9.184856308673496894e-01
3.924500544067626162e+00
8.039059487560575867e-01
1.089577631446291939e+00
2.822060167084007087e+00
-4.559849222692111681e-01
1.266353021741571050e+00
-4.742251934065938812e+00
-2.150304246094772331e+00
2.439559328894484125e+00
2.382126364826700815e+00
-9.398656889681471505e-01
2.477955391291745357e+00
4.069334184849850988e-01
3.143353905611996790e+00
-1.152621768910294442e+00
1.852974341567918737e+00
2.734502424485851790e+00
-2.242311291926287531e+00
9.298236194224842599e-01
1.701075541722589790e+00
3.280337990922204128e-01
3.600064841989420117e+00
3.377926762331985522e+00
-1.681281995256003192e-01
2.123650796366726379e+00
-3.936005020235013863e-01
-4.857588653328908102e-01
1.934225195644756923e+00
-2.377518429235748521e+00
1.299275662441834678e+00
2.985220906905725613e-01
-1.705538897844521840e+00
7.129319826698810036e-01
1.492304866352024639e+00
-1.980834391726352894e+00
1.091418912377803974e+00
6.822670095536098600e-02
1.784080366825289143e+00
4.269812416878948635e-01
-7.755251785830710176e-01
-8.727459710085678779e-01
1.534919200869075295e+00
3.638730285089216698e-01
-2.818499181013675692e+00
-2.769541486206938519e+00
1.306922408414467496e+00
9.815166001743680368e-01
2.144215830043508575e+00
3.396458552970824663e-01
-1.557990368791756786e-01
1.574186691218466549e-01
1.096624256197425762e+00
1.151066975357226407e-01
1.123968550025799651e+00
-1.246142246292538225e+00
-8.215979075640436058e-01
1.530183812773333152e+00
-1.747321949994915080e+00
-3.997597883215530112e-01
-1.365352354205504604e-01
3.443202103094163302e+00
-2.110710626028311054e+00
3.644513324470688431e-01
7.484145360953307069e-01
-7.601328854643050192e-01
9.247528466021304183e-02
-2.884469037757431131e+00
-1.735531211017159237e+00
3.070498553291450272e-01
-1.474278535535221035e+00
3.417046204460456593e+00
-3.390191583161070721e-01
2.034750753558082881e+00
9.104500058594418022e-01
-4.993992782807415987e-02
3.235867104382760262e-01
1.222040105217150341e+00
-3.121298847836859736e-01
1.622692947292385668e-01
1.603958702003273729e+00
-8.863101045571504244e-01
-6.820149914248088141e-01
-1.899274912096863943e+00
-1.582316485722606636e+00
-2.530717360729716869e+00
-3.646040776463880251e-01
-3.901850230869116309e+00
-1.951237982797070281e+00
-3.302231925983880600e-01
8.586978215952636440e-01
-3.075896520684176849e+00
1.629261614048015616e+00
-2.099751128690435786e-02
-2.402097919892448363e+00
1.411377508043323736e+00
1.919617380620064928e+00
-2.160325452180297479e+00
3.148607464319030491e+00
2.125624376646495506e-01
-1.932080874433177442e+00
1.064958135204467915e+00
3.248889740029772266e-01
-1.104585945109519685e-01
1.780729992819125029e-01
1.213313501307646147e+00
1.006216892205395563e+00
-1.806477032724342624e-01
6.539549988792650037e-01
-1.357353196870100476e+00
3.021547645477185018e-02
7.724856567836685395e-01
-9.522424635680155625e-01
2.030592238015451745e+00
-7.902438678192600374e-01
1.534938893526757164e-01
-6.123906446771125722e-01
-2.366011718970120636e+00
9.991238012785291778e-01
-5.717295002497483347e-01
1.377819662376572607e-01
-1.305309181592217094e+00
-6.288323134342923559e+00
-1.330819193832476710e+00
1.080926509514819500e+00
5.782262410165226463e-01
