-2.549081354534730225e+11 2.549081354288515930e+11
-2.396773672803319397e+11 2.396773672086781616e+11
-1.154760422078917084e+11 1.154760421081255798e+11
5.790977738336595917e+10 -5.790977737654811096e+10
-2.919514205197293701e+11 2.919514204201441040e+11
1.719352926359590530e+10 -1.719352926269319534e+10
-2.001427535106703491e+11 2.001427534654647522e+11
8.558102605162823486e+10 -8.558102609690106201e+10
2.250137378071214905e+11 -2.250137377195991516e+11
-4.699836219294135742e+11 4.699836220676889648e+11
-1.552435868825179749e+11 1.552435868909711304e+11
1.704876788928665466e+11 -1.704876787589678345e+11
8.460864277886868286e+10 -8.460864271458061218e+10
-6.239318045806786346e+10 6.239318054020511627e+10
-1.448470663200146484e+11 1.448470662531825562e+11
1.107784763714672089e+11 -1.107784763294943237e+11
2.624986116045114136e+11 -2.624986115340387573e+11
-4.909830418275466919e+10 4.909830422658938599e+10
-3.468793703712654114e+10 3.468793701451208496e+10
-1.482075506805567017e+11 1.482075508554491577e+11
-2.106577500782902222e+11 2.106577500517031250e+11
2.450978753362908630e+11 -2.450978752069706116e+11
-6.408993689476104736e+10 6.408993696409701538e+10
-1.141706461526441345e+11 1.141706460038649292e+11
2.003630592905516968e+11 -2.003630593704245605e+11
1.690166293190433350e+11 -1.690166292967781677e+11
2.406117519560888367e+11 -2.406117519464055176e+11
-1.222144728407565308e+11 1.222144728661686859e+11
-2.731636210463300171e+11 2.731636211414995117e+11
6.542575919418502808e+10 -6.542575921742112732e+10
1.528624220468291321e+11 -1.528624219443207703e+11
-3.148187288520725098e+11 3.148187287304515381e+11
2.831522093162808228e+11 -2.831522093531309814e+11
-5.358666306957451782e+11 5.358666304664353027e+11
-1.015420431705134888e+11 1.015420429850196228e+11
1.819034987033390808e+11 -1.819034986593654785e+11
-5.723300835245214081e+10 5.723300830517009735e+10
-3.125938255984064941e+11 3.125938255692943115e+11
8.800770219877147217e+11 -8.800770216106983643e+11
-3.508010057661865234e+09 3.508010065434103012e+09
8.301832688978047180e+10 -8.301832689403862000e+10
9.913006132892910767e+10 -9.913006133405189514e+10
-1.056149338044008179e+11 1.056149339633562622e+11
-2.078394779788841858e+11 2.078394781018034058e+11
-7.100156910961431885e+10 7.100156912175581360e+10
-3.722764699831796265e+10 3.722764694307640076e+10
-2.593703352726935425e+11 2.593703353922197266e+11
-1.188246448364209442e+11 1.188246447656672058e+11
8.566319627254949951e+10 -8.566319617442164612e+10
5.415704039898172760e+10 -5.415704042812553406e+10
2.087939678170280151e+11 -2.087939677254314880e+11
-5.372410998904257202e+11 5.372410998090447998e+11
1.828267461615816956e+11 -1.828267461232187195e+11
3.028390563693510742e+11 -3.028390561064732666e+11
-3.250788361655280151e+11 3.250788360384182739e+11
3.132568364343593597e+10 -3.132568351621671295e+10
-1.901565864249091797e+11 1.901565862332732239e+11
-4.656833746031884766e+11 4.656833744694797974e+11
1.391209913543647461e+11 -1.391209911063198853e+11
-1.153347601573059845e+10 1.153347598803654480e+10
-1.464454789421358032e+11 1.464454789002785645e+11
-7.133615821256562500e+11 7.133615818015959473e+11
1.695415862870009155e+11 -1.695415862578025513e+11
-1.789616147923295898e+11 1.789616148349669800e+11
-8.038686774069538879e+10 8.038686768823432922e+10
-2.741209556409778595e+10 2.741209561832257843e+10
2.195212004969503784e+11 -2.195212006832507019e+11
2.349890688833328552e+11 -2.349890689903735352e+11
3.645551153072449951e+11 -3.645551153664674072e+11
1.535753193462632370e+10 -1.535753207658906937e+10
-2.366133906778142395e+11 2.366133906383179932e+11
9.166481510647065735e+10 -9.166481507054821777e+10
1.686244502684669189e+11 -1.686244502507648010e+11
-1.822082279635307312e+09 1.822082246686592102e+09
-5.174447258406666565e+10 5.174447252369589233e+10
-5.889658846862196350e+10 5.889658847486575317e+10
1.497834711091798706e+11 -1.497834711943889160e+11
-1.119108995542109070e+11 1.119108994610241547e+11
-3.001116623618799591e+10 3.001116619058285904e+10
-7.942419915074734497e+10 7.942419915555047607e+10
-3.573998657582105713e+11 3.573998654973156738e+11
-1.728443741659875488e+11 1.728443740367489014e+11
-2.023378272976731873e+11 2.023378272837042542e+11
2.893361563543340683e+10 -2.893361561787720108e+10
-2.345673644402792358e+10 2.345673645280504990e+10
2.247690977232069016e+10 -2.247690998690518188e+10
-1.961460124731917725e+11 1.961460123906630249e+11
7.542124399479354858e+10 -7.542124391808836365e+10
1.365858603878863220e+11 -1.365858604732405090e+11
-4.920371889467622375e+10 4.920371869964035797e+10
-1.589764167077481689e+11 1.589764167852413635e+11
-6.698467748861061096e+10 6.698467746613397980e+10
-3.126496373298493652e+11 3.126496375651597290e+11
-8.966451424880798340e+10 8.966451412024201965e+10
3.164025330649104004e+11 -3.164025330007971191e+11
-5.376291717398927307e+10 5.376291704452345276e+10
-1.916128174192473450e+11 1.916128175235503845e+11
-2.321637666991624756e+11 2.321637665636275940e+11
-2.002485109846791077e+11 2.002485109310272827e+11
-2.666290902060520172e+09 2.666290954343126297e+09
-3.839571826131008911e+11 3.839571823665551758e+11
-5.376845633985778809e+10 5.376845643290927124e+10
-1.211189783899998169e+11 1.211189783085052795e+11
7.180221322834220886e+10 -7.180221317473654175e+10
3.779948230182812500e+10 -3.779948246921458435e+10
2.928134375348865356e+11 -2.928134375385209351e+11
5.504477095369710693e+11 -5.504477093745460205e+11
-2.181611902539368057e+10 2.181611914775665283e+10
7.735635492184461975e+10 -7.735635488581103516e+10
3.275168564635084534e+10 -3.275168566690412140e+10
-1.871353963033617859e+11 1.871353963300152893e+11
1.314949982750067444e+11 -1.314949981607433472e+11
-6.697339574453526306e+10 6.697339584771466064e+10
1.536511857731856537e+10 -1.536511848639787102e+10
-4.969561441812936401e+11 4.969561441896567383e+11
-7.702257892356665039e+10 7.702257880740342712e+10
1.472260126095498047e+11 -1.472260125964691162e+11
-3.500029960607070923e+10 3.500029961936174774e+10
-5.240381449923001099e+10 5.240381467602944946e+10
-5.763768784652149200e+10 5.763768787276254272e+10
-2.613937822438254700e+11 2.613937820287680054e+11
-3.107487369390240479e+11 3.107487367995088501e+11
3.466063175120059967e+10 -3.466063175212033081e+10
-1.067701014883673859e+11 1.067701015281572876e+11
-2.526948279283603210e+11 2.526948278896032104e+11
5.233155070684478149e+11 -5.233155068851004028e+11
-1.806228131219403687e+11 1.806228130119002075e+11
-1.085223075137616425e+11 1.085223075380755768e+11
-7.835426530239990234e+10 7.835426537014689636e+10
-1.734699103819538269e+11 1.734699104917410278e+11
7.149139224761087036e+10 -7.149139223994070435e+10
-6.886985860073364258e+10 6.886985861519160461e+10
-1.622299931567429199e+11 1.622299931004046936e+11
5.972315062648306274e+10 -5.972315076333678436e+10
-4.057263467858058929e+10 4.057263461021955109e+10
2.039375135514019470e+11 -2.039375136156673279e+11
-3.173755082272688293e+10 3.173755080033517075e+10
-1.434927344584903259e+11 1.434927344164404602e+11
-4.586498859654585571e+11 4.586498858896537476e+11
-1.314055644399997711e+11 1.314055644232238159e+11
1.180959284023473358e+10 -1.180959281964719772e+10
1.555117764556827393e+11 -1.555117763945825195e+11
1.970884966860585785e+10 -1.970884953158322144e+10
1.177451926576441956e+10 -1.177451914046977806e+10
-2.404825242825374146e+11 2.404825241938216553e+11
7.301937075439157104e+10 -7.301937079963302612e+10
-4.204252572402351379e+10 4.204252570745361328e+10
-8.919806231846865845e+10 8.919806238481813049e+10
-1.140076653130926056e+11 1.140076652567648773e+11
-2.872346385477702332e+10 2.872346379069630814e+10
5.494691020768333435e+09 -5.494690862005554199e+09
-2.370878661001572876e+11 2.370878660278309631e+11
-2.319466819085199585e+11 2.319466818290109863e+11
-7.248408309975251770e+10 7.248408330239306641e+10
-3.980710064206069183e+10 3.980710065045579529e+10
1.381361161415289612e+11 -1.381361163199271851e+11
6.015242826718371582e+10 -6.015242838966757202e+10
4.764021204750393677e+10 -4.764021205496347046e+10
1.354512518127753067e+10 -1.354512519942566299e+10
2.581188924434873962e+11 -2.581188924013351746e+11
-7.908352816438016891e+09 7.908352897283397675e+09
-4.493019546079364014e+10 4.493019549891175079e+10
1.155528993952026062e+11 -1.155528993731079407e+11
1.295710761317920074e+11 -1.295710760931025085e+11
1.009414965688758698e+11 -1.009414964496853027e+11
7.952708783677113342e+10 -7.952708786103332520e+10
2.823135692841012573e+11 -2.823135692590958252e+11
1.450315264517916870e+11 -1.450315264003228149e+11
-2.681405831046800995e+10 2.681405834999758148e+10
1.257237149192352905e+11 -1.257237148057260742e+11
5.468788279573048401e+10 -5.468788268856492615e+10
8.891869421909361267e+10 -8.891869413300555420e+10
-2.248160208252181244e+10 2.248160211683647156e+10
-4.425841512084560394e+10 4.425841504815780640e+10
-1.073968836749084473e+11 1.073968835809659119e+11
-1.348663661156084137e+11 1.348663659802399597e+11
1.489076999095004272e+11 -1.489076997604215393e+11
-9.929883081814991760e+10 9.929883078851016235e+10
-3.598012714725466309e+11 3.598012713453287354e+11
-5.520567245898326874e+10 5.520567240497824097e+10
2.197555709426688385e+10 -2.197555701523661804e+10
2.058721607352661133e+10 -2.058721608858812714e+10
-2.483573632772696533e+11 2.483573632612753601e+11
-2.727089350011609497e+11 2.727089349217567139e+11
-8.432938492178625488e+10 8.432938485285144043e+10
1.115856836257607841e+10 -1.115856832134187317e+10
7.467331376704188538e+10 -7.467331365416297913e+10
-6.989530216392570496e+10 6.989530209386930847e+10
6.495161553798051453e+10 -6.495161553197637177e+10
-3.744812605395286865e+11 3.744812606249515991e+11
5.359694327164138794e+10 -5.359694301753781128e+10
1.277601865324927673e+11 -1.277601864725070038e+11
1.169431087891088409e+11 -1.169431086880723267e+11
-1.207764762534425659e+11 1.207764762566847839e+11
-2.079940127508858032e+11 2.079940127426442261e+11
-1.340976940284123688e+11 1.340976940652032928e+11
-3.632611352300576172e+11 3.632611351598234253e+11
4.890178479214458008e+11 -4.890178481400813599e+11
-1.064463562357706757e+11 1.064463562615748291e+11
3.456036812521874390e+11 -3.456036811921423340e+11
4.284394981978660889e+11 -4.284394980015014648e+11
2.457723430413724976e+11 -2.457723430930855713e+11
3.327777550437061157e+11 -3.327777546805510254e+11
1.478715382717833252e+11 -1.478715383176068726e+11
5.438974462380814362e+10 -5.438974468352539825e+10
5.176478551824089355e+11 -5.176478551139533081e+11
1.936049033689395752e+11 -1.936049032899127197e+11
9.645805072849380493e+10 -9.645805080356420898e+10
6.497162468648454285e+10 -6.497162479924925995e+10
7.254355912264321899e+10 -7.254355908731416321e+10
3.845931979863697510e+11 -3.845931979174569092e+11
3.360919426211553345e+11 -3.360919423500042114e+11
8.599698796501748657e+10 -8.599698792027310181e+10
-7.881719792941543579e+10 7.881719789600167847e+10
9.464892918353562927e+10 -9.464892905449887085e+10
-6.670314163383058167e+10 6.670314161800783539e+10
2.313210722855726318e+11 -2.313210721549124451e+11
-1.425265747391787415e+11 1.425265746261325684e+11
-4.851839163026304245e+09 4.851839055219627380e+09
-1.070222409631672211e+11 1.070222408177002258e+11
-1.561091221950999756e+11 1.561091220877727051e+11
8.455963766435882568e+10 -8.455963766248910522e+10
-5.635769455381427002e+10 5.635769456509643555e+10
-5.291875941541060181e+11 5.291875941441745605e+11
-3.011969258966829300e+10 3.011969255055123901e+10
-1.226794522340487976e+11 1.226794520822798157e+11
-5.355093114422023010e+10 5.355093105236203766e+10
-5.613246958976810455e+10 5.613246971859236908e+10
1.647492124294045105e+11 -1.647492124110248413e+11
9.499590933242098999e+10 -9.499590931576901245e+10
-1.256589967272006073e+11 1.256589966919106750e+11
-2.314154093580154800e+10 2.314154096768582916e+10
8.683642965923233032e+08 -8.683641414528951645e+08
-4.763695246742457886e+11 4.763695245506918945e+11
9.310986586445098877e+09 -9.310986645934017181e+09
-2.239552318574366455e+11 2.239552317877291565e+11
1.808459980662199783e+10 -1.808459969520469284e+10
9.268160632594537354e+10 -9.268160622688191223e+10
-3.404913808296208382e+09 3.404913863108673096e+09
-1.027138856533953476e+10 1.027138860386964798e+10
1.926184059309039917e+11 -1.926184059139349365e+11
2.789567578874809570e+11 -2.789567579550241699e+11
-5.461448617563885498e+11 5.461448617002081299e+11
-1.764919577606250610e+11 1.764919576751968994e+11
1.419281701774760742e+11 -1.419281700371756592e+11
-2.079316266976105347e+11 2.079316265295169373e+11
1.304321393184331818e+11 -1.304321391439352112e+11
5.109493775273630981e+11 -5.109493776080860596e+11
2.502392833949163055e+10 -2.502392845006159210e+10
-2.228911448813045654e+11 2.228911448273782349e+11
-5.435315041304525757e+10 5.435315042225529480e+10
2.440078703932107239e+11 -2.440078704315838318e+11
-1.605398166793183594e+11 1.605398167997359009e+11
-1.762725878104642487e+10 1.762725871279788208e+10
4.109026951860877228e+10 -4.109026945605553436e+10
-3.816535490863336182e+10 3.816535487932444763e+10
-7.367849737873779297e+10 7.367849734758393860e+10
-1.277743073184526672e+11 1.277743074444443359e+11
-1.458214059046589050e+11 1.458214059502900085e+11
-3.552672062487347412e+10 3.552672061477201843e+10
-7.424224676653222656e+10 7.424224673377578735e+10
-3.752974929600789642e+10 3.752974914539105225e+10
2.914566527985691071e+10 -2.914566527230870819e+10
-8.107302983455284119e+10 8.107302977280131531e+10
-9.644276130268257141e+09 9.644276139625076294e+09
7.170116707409149170e+10 -7.170116727328303528e+10
1.674032802918431091e+11 -1.674032801530253906e+11
2.383184556153329773e+11 -2.383184555595971985e+11
-1.664436364905880127e+11 1.664436364564690552e+11
-1.370820040013253784e+11 1.370820039730760498e+11
-5.994649935794388580e+10 5.994649938858114624e+10
-1.509645340061243286e+11 1.509645338354533081e+11
6.623080081896458740e+11 -6.623080084441708984e+11
-1.427249152753116150e+11 1.427249152260846863e+11
1.386582891369821167e+11 -1.386582891394859924e+11
3.829535796913274536e+11 -3.829535798669464111e+11
3.291361120754464722e+11 -3.291361120247216187e+11
-9.267293613062312317e+10 9.267293608031509399e+10
3.751275167332329102e+11 -3.751275165340502930e+11
-1.043252763687698517e+11 1.043252763633590240e+11
-4.167726416263046265e+11 4.167726415221199341e+11
2.268942263043511658e+11 -2.268942262932436523e+11
1.455806252013691101e+11 -1.455806252271549988e+11
2.412111024060009766e+11 -2.412111022691437073e+11
1.072849293609558563e+11 -1.072849293216994171e+11
-3.910307172140597534e+10 3.910307184131765747e+10
2.193022219320432129e+11 -2.193022218582113342e+11
1.352269304222141113e+11 -1.352269304797630615e+11
1.630986508703348389e+11 -1.630986509780921631e+11
4.042638129076298523e+10 -4.042638142035824585e+10
5.055297964681399536e+10 -5.055297971937795258e+10
-2.173668254617266541e+11 2.173668253728105469e+11
3.004745766853026733e+11 -3.004745766685408936e+11
4.423246279369492188e+11 -4.423246278348781128e+11
5.122102664098826904e+11 -5.122102662137669678e+11
8.116028216599060059e+11 -8.116028215649826660e+11
1.430220862197345276e+11 -1.430220862468828125e+11
-1.214465945165433350e+11 1.214465945939483643e+11
-3.979790215658314209e+11 3.979790214345251465e+11
-4.262309562401205444e+10 4.262309566483411407e+10
1.666554332390615234e+11 -1.666554331304362793e+11
1.868369026451945190e+11 -1.868369027597126770e+11
1.051702108290160217e+11 -1.051702108282412109e+11
-1.561914815872730408e+11 1.561914816121446228e+11
8.360608871598759460e+10 -8.360608871064767456e+10
2.666684308487395477e+10 -2.666684302177511978e+10
-1.451661082376000061e+11 1.451661082329924011e+11
-9.894610410182281494e+10 9.894610394884460449e+10
-2.687142124926809692e+10 2.687142118757439423e+10
1.804214280170061951e+11 -1.804214279810862427e+11
1.248665746815934181e+10 -1.248665751844324493e+10
-2.875884617461584473e+11 2.875884618640552979e+11
-1.506017091246162415e+11 1.506017090889879761e+11
4.090496174459537964e+11 -4.090496171356900635e+11
3.714115077529620361e+10 -3.714115071447515869e+10
-4.713720479508526611e+10 4.713720460514562988e+10
-5.262478675548145294e+10 5.262478660193531799e+10
7.416542454573976135e+10 -7.416542450764813232e+10
1.469040996944664307e+11 -1.469040997195180664e+11
7.966078213101019287e+10 -7.966078208242918396e+10
1.106117386206477051e+11 -1.106117386505147705e+11
-2.896096035718609009e+11 2.896096036737812500e+11
1.593451851315817261e+11 -1.593451852470748291e+11
-7.995600057844403076e+10 7.995600068225112915e+10
1.272102145165948181e+11 -1.272102145273796844e+11
-1.320536971142415314e+11 1.320536971211658325e+11
6.366301173136482239e+08 -6.366300381403417587e+08
-1.181501798159792633e+11 1.181501797454987335e+11
9.388138684625767517e+10 -9.388138700687094116e+10
-1.187441709408203125e+10 1.187441714265419579e+10
-3.605200585502581787e+10 3.605200581095038605e+10
-2.424979883328255463e+10 2.424979882031452942e+10
-4.687991189981358337e+10 4.687991191021096039e+10
-1.584046289610436821e+10 1.584046281771380615e+10
-7.400404738706710815e+10 7.400404735675721741e+10
8.974515843054580688e+10 -8.974515822457461548e+10
-1.050340963102177429e+11 1.050340961054070587e+11
6.215727992782674561e+11 -6.215727992001812744e+11
1.758487026924560547e+10 -1.758487028084073639e+10
-1.495677287212418213e+11 1.495677285722970581e+11
6.545140330923938751e+10 -6.545140316103834534e+10
2.573086803733577271e+11 -2.573086803702184448e+11
-2.981033290261141205e+10 2.981033298873387909e+10
8.268207430486267090e+10 -8.268207422257250977e+10
-6.426762522269824982e+10 6.426762508965673065e+10
-3.960771626412258911e+10 3.960771626817610931e+10
-1.923808824683978271e+11 1.923808824168414917e+11
-6.357934110618896484e+09 6.357934109297523499e+09
1.864978581759397583e+11 -1.864978581686077881e+11
2.200569525146986084e+11 -2.200569524288597107e+11
2.801316214024888306e+11 -2.801316212913424072e+11
9.809475764877268982e+10 -9.809475761231669617e+10
1.782107965611683655e+11 -1.782107965123548889e+11
-3.722715757768082886e+11 3.722715757400609131e+11
-1.897860755198272095e+11 1.897860755352919617e+11
4.141762653002303467e+11 -4.141762652432059326e+11
-2.319180452574171143e+11 2.319180452461011963e+11
2.973124070940280762e+11 -2.973124069468519287e+11
-3.215636724138852539e+11 3.215636723141024780e+11
3.843826033188999176e+10 -3.843826042560455322e+10
8.340864282778451538e+10 -8.340864288712188721e+10
7.066073153861514282e+10 -7.066073159832644653e+10
-9.888601056186999512e+10 9.888601058813595581e+10
-9.397367251160317993e+10 9.397367248709698486e+10
1.029780597762945099e+11 -1.029780597412127075e+11
2.503757815093567200e+11 -2.503757814954084167e+11
5.285489408171568298e+10 -5.285489408315913391e+10
-5.707155455590409088e+10 5.707155443851685333e+10
-2.258342889020389709e+11 2.258342888613038330e+11
1.479715197186519623e+09 -1.479715011766128540e+09
4.691514860300925903e+11 -4.691514858671317749e+11
7.763276630732503891e+09 -7.763276564528675079e+09
-1.525766659410253906e+11 1.525766660073963013e+11
2.298975320866794434e+11 -2.298975319809478149e+11
-1.337463755900460052e+11 1.337463755239342346e+11
4.725958410994265747e+10 -4.725958396264176178e+10
1.371102099151226654e+11 -1.371102098235198822e+11
1.240006480769941559e+11 -1.240006480740724640e+11
-2.352205062147968750e+11 2.352205062290986938e+11
-2.627018428437702942e+11 2.627018429579678650e+11
2.481499236860202332e+11 -2.481499238114668884e+11
3.246440179747727203e+10 -3.246440176198970032e+10
3.706394767217500000e+11 -3.706394765982081909e+11
-4.170961984737390747e+11 4.170961982175546265e+11
-1.304144121262173920e+11 1.304144119643061676e+11
5.101052802503394318e+10 -5.101052800732621765e+10
8.320642872914670944e+09 -8.320642837691440582e+09
5.436017276802658081e+10 -5.436017271332720947e+10
-2.922911614867945099e+10 2.922911611153516006e+10
1.793795855662920532e+11 -1.793795853740842285e+11
2.055103335388756180e+10 -2.055103341988301849e+10
7.195232426404277039e+10 -7.195232429796211243e+10
-2.904381303395313110e+11 2.904381302727244873e+11
-1.103267649902175903e+11 1.103267650196079865e+11
-5.841432650850568390e+10 5.841432660935340118e+10
-2.217637602509729004e+11 2.217637601738773193e+11
-4.456569160912051392e+10 4.456569154486422729e+10
2.095738727658823853e+11 -2.095738727068152771e+11
-2.218559767288449097e+10 2.218559766617858124e+10
-5.348468193741844940e+10 5.348468182016259766e+10
