-2.228430676268389893e+10 2.228430673225743866e+10
4.378225858208480072e+10 -4.378225860031676483e+10
1.581417669903265076e+11 -1.581417669163598328e+11
4.954738118828417969e+10 -4.954738115628462219e+10
-4.069017080665071106e+10 4.069017077876461029e+10
1.125056658877722931e+10 -1.125056656668266296e+10
1.304494331750684547e+10 -1.304494329650815964e+10
7.513924984605754089e+10 -7.513924976877832031e+10
-1.989321248632003784e+09 1.989321232130685091e+09
-2.719905391156534576e+10 2.719905389429980469e+10
-6.280311100398470306e+10 6.280311097043855286e+10
-3.544192931918353271e+10 3.544192926870850372e+10
3.198688079891849136e+10 -3.198688079361780548e+10
1.669689584361761475e+11 -1.669689583404660034e+11
2.094610491295289993e+09 -2.094610491339926720e+09
-1.911290692380933380e+10 1.911290692212004089e+10
-8.532165703171934128e+09 8.532165702179738998e+09
-1.664327582670186234e+10 1.664327578649285889e+10
-3.069279486720536804e+10 3.069279486359915543e+10
-5.314835929550737000e+10 5.314835925666190338e+10
8.377086125838195801e+10 -8.377086119912753296e+10
-2.467841511172694778e+10 2.467841508835146713e+10
8.591309202393453598e+09 -8.591309212278072357e+09
-1.239507023138936310e+11 1.239507022299262543e+11
2.210064057029636383e+10 -2.210064054984127808e+10
1.610329467381037903e+10 -1.610329465840680122e+10
8.053974986127601624e+09 -8.053974949135137558e+09
4.101920856478514099e+10 -4.101920857130947113e+10
1.940440544453952942e+11 -1.940440543009107056e+11
1.635161927599037743e+10 -1.635161927306904030e+10
2.300576747745296097e+10 -2.300576745324887085e+10
-9.962240295264515686e+10 9.962240289830905151e+10
1.061730705859544373e+10 -1.061730699574317551e+10
1.435608598534836578e+10 -1.435608597573803902e+10
-1.140996980051690674e+10 1.140996979095441818e+10
1.227358933267279510e+11 -1.227358932177958679e+11
2.937581955336430359e+10 -2.937581956124232483e+10
-9.275159632670581055e+10 9.275159624984126282e+10
3.309518561184362030e+10 -3.309518557760690689e+10
-3.224580150215882874e+10 3.224580149018679810e+10
1.118165816498340454e+11 -1.118165815599476318e+11
-1.992222479483332825e+11 1.992222477597085571e+11
2.646614461855215836e+10 -2.646614460765351105e+10
2.152406467593251801e+10 -2.152406464232922745e+10
2.523844889667652893e+10 -2.523844884859150696e+10
-3.791217214325713348e+10 3.791217208657838440e+10
-1.001374128430148506e+10 1.001374127127812576e+10
8.896891858100540161e+10 -8.896891853214901733e+10
7.704380643291995239e+10 -7.704380635548016357e+10
6.834266632905777740e+10 -6.834266629935095215e+10
-1.549202984049482536e+10 1.549202983237803268e+10
2.533123095797237778e+10 -2.533123090952638245e+10
2.965813002338416290e+10 -2.965813000085779953e+10
-1.106632592244439087e+11 1.106632591315690155e+11
-1.424799908622389221e+11 1.424799906815550537e+11
-1.577092101016546326e+11 1.577092099933096924e+11
-7.858273353824993896e+10 7.858273349294692993e+10
-3.388555346444100189e+10 3.388555345151478958e+10
-1.721566270555290985e+10 1.721566270059133911e+10
7.219733315777725220e+10 -7.219733312749244690e+10
-1.780430742020885468e+10 1.780430741108619690e+10
8.418120874862506866e+09 -8.418120856264940262e+09
-5.803897593960980988e+10 5.803897586568352509e+10
-9.262166069788562012e+10 9.262166064491139221e+10
7.907401381885290527e+10 -7.907401376135746765e+10
6.546003169243233490e+10 -6.546003160802120209e+10
3.384968812860445023e+10 -3.384968813141818619e+10
3.949620057561875916e+10 -3.949620053670822906e+10
-5.174981232013002777e+10 5.174981224979486084e+10
7.183334154895433426e+09 -7.183334184722738266e+09
-6.784166610174514008e+10 6.784166607785477448e+10
-6.211042491585108948e+10 6.211042489183125305e+10
-4.082006985526451874e+10 4.082006984393922424e+10
9.496702293996330261e+09 -9.496702286979297638e+09
1.889815721179276657e+10 -1.889815720591809082e+10
3.717423706986260986e+10 -3.717423705116350555e+10
-2.605993015826432037e+10 2.605993013596818161e+10
5.056948648463014221e+10 -5.056948645650622559e+10
4.513714040227953339e+10 -4.513714037287439728e+10
-5.848373998318618774e+10 5.848373994655964661e+10
-2.047666237154666901e+10 2.047666233276163864e+10
4.923640825886755371e+10 -4.923640826203755951e+10
9.924855221604398727e+09 -9.924855221786111832e+09
1.070333147829006672e+09 -1.070333125118440747e+09
-2.867823966365099335e+10 2.867823964021709824e+10
-1.019910099099053802e+11 1.019910098861256409e+11
-7.263587457447679138e+10 7.263587454157012939e+10
-9.339080534543118286e+10 9.339080528467117310e+10
4.693730071950997925e+10 -4.693730070038548279e+10
9.694901069864907837e+10 -9.694901068131478882e+10
-6.325946132492267609e+10 6.325946127444379425e+10
4.348289825908942413e+10 -4.348289828775548553e+10
-8.640709462820400238e+09 8.640709437537937164e+09
-1.785032660463046265e+11 1.785032659181812134e+11
-8.395200208193099976e+09 8.395200216699747086e+09
2.565586427474799347e+10 -2.565586428491942215e+10
4.472259233633605957e+10 -4.472259230602337646e+10
-1.922718699570185089e+10 1.922718699062698364e+10
-4.276697958598354340e+10 4.276697953352694702e+10
1.348112517521348381e+10 -1.348112517182826805e+10
2.408980314347444916e+10 -2.408980312150229645e+10
-3.702045120147090149e+10 3.702045114642280579e+10
3.560757474453707123e+10 -3.560757470220415497e+10
-2.821314682318084335e+10 2.821314682020737839e+10
4.510815067547591400e+10 -4.510815065032466125e+10
-4.875713343352972031e+09 4.875713329383186340e+09
-6.131166558289109802e+10 6.131166549634355927e+10
7.784255470184623718e+10 -7.784255463104629517e+10
-6.383557830479634094e+10 6.383557823062588501e+10
-4.321084478267404175e+10 4.321084479512684631e+10
-1.551982129564220238e+10 1.551982132429574013e+10
-1.843680314433460236e+10 1.843680311604458618e+10
-6.216276422504190826e+10 6.216276416244063568e+10
-6.464016350416928101e+10 6.464016348967800903e+10
6.862420211668614197e+10 -6.862420206988484192e+10
-4.798130462745224762e+10 4.798130455083233643e+10
3.947518248931511841e+11 -3.947518246094041748e+11
7.558652147877499390e+10 -7.558652141065647888e+10
6.595703075419412613e+09 -6.595703096480214119e+09
-2.854342055966670990e+10 2.854342059759436035e+10
-1.069424825617045898e+11 1.069424824981153412e+11
2.364286193154661942e+10 -2.364286194213807678e+10
-2.525607603197458267e+10 2.525607601422583771e+10
5.664078216252489090e+09 -5.664078212556690216e+09
5.966593349419757843e+10 -5.966593347241996002e+10
-5.980898523294327736e+09 5.980898537533683777e+09
-3.696706066487899017e+10 3.696706062609356689e+10
-1.063188580432671967e+11 1.063188579992904968e+11
-1.004115450232263336e+11 1.004115449484703369e+11
-5.688941445115287018e+10 5.688941440203178406e+10
-3.460177939386273193e+10 3.460177937776268768e+10
8.158876518946209717e+10 -8.158876514322279358e+10
3.044683243924003601e+10 -3.044683242047068024e+10
1.521300271696896744e+10 -1.521300274788409424e+10
-3.593242722109897614e+10 3.593242716640661621e+10
-7.628948267695758057e+10 7.628948262944895935e+10
-3.678577781777205658e+10 3.678577778776942444e+10
1.807039148292978210e+11 -1.807039147058829651e+11
-5.792864844560613251e+10 5.792864841314435577e+10
4.809793793123777771e+10 -4.809793791333679199e+10
1.135007981729989052e+10 -1.135007980813600922e+10
4.538020687922164154e+10 -4.538020686485824585e+10
-6.351427569755616760e+10 6.351427567508210754e+10
1.494502553878711319e+10 -1.494502549402023697e+10
5.186276913486994934e+10 -5.186276909712555695e+10
1.971999500170050430e+10 -1.971999497135299683e+10
-4.102259100005177307e+10 4.102259101917756653e+10
1.521152685323688698e+10 -1.521152685164769363e+10
7.072380976863711548e+10 -7.072380972216702271e+10
-1.581011561563163452e+11 1.581011560233572998e+11
2.703127783320034027e+10 -2.703127783451076508e+10
-1.808761381151806641e+10 1.808761379333573914e+10
-5.930651035943708420e+09 5.930651039520439148e+09
-6.900565468159959412e+10 6.900565462622612000e+10
1.304618887833817139e+11 -1.304618886987011261e+11
-1.542323531184520149e+10 1.542323529014649773e+10
7.626547472895227051e+10 -7.626547468366197205e+10
-5.630361581529899597e+10 5.630361578564714813e+10
1.640317346261693382e+10 -1.640317347020593834e+10
-3.557895453630709076e+10 3.557895448560214233e+10
2.978083097106764984e+10 -2.978083093568532944e+10
1.453877957876403809e+11 -1.453877956824927063e+11
-5.269536870929785156e+10 5.269536867724852753e+10
-3.412259077648353577e+10 3.412259076511377335e+10
-1.226740866043586273e+11 1.226740865732410126e+11
-6.650769499667645264e+10 6.650769493654895020e+10
-2.598843569674930725e+11 2.598843568354020386e+11
3.736722964444331360e+10 -3.736722960687306976e+10
2.264636118014670563e+10 -2.264636117620277023e+10
2.532527982326430511e+10 -2.532527980228820801e+10
9.847075530725991821e+10 -9.847075516717626953e+10
-2.166906803738883591e+10 2.166906798644574356e+10
-3.493120776384620667e+10 3.493120773456966400e+10
-2.868626996422553253e+10 2.868626991767392349e+10
6.870071794921035767e+10 -6.870071789589983368e+10
1.722778084170132065e+10 -1.722778084248150635e+10
-2.347084258711784744e+10 2.347084253339668274e+10
2.252796622053409195e+10 -2.252796620446929550e+10
-4.802668757671747589e+10 4.802668755568977356e+10
1.747391547572347260e+10 -1.747391545458544922e+10
-2.806393785592483521e+09 2.806393777988632679e+09
-6.835064747900528908e+09 6.835064749467944145e+09
-2.214309801434749222e+10 2.214309802541512299e+10
5.558599920706185150e+10 -5.558599915985511780e+10
-4.708725771078936005e+10 4.708725768337858582e+10
3.294085926213307190e+10 -3.294085925531860352e+10
-5.258463983438710022e+10 5.258463981027680206e+10
3.469089932804433441e+10 -3.469089931959410095e+10
-5.827851065924533844e+10 5.827851067559054565e+10
-6.304224866969829559e+09 6.304224867969090462e+09
-1.342618961448779297e+11 1.342618960735975342e+11
8.177497280265158653e+09 -8.177497271516128540e+09
1.595718016372148132e+10 -1.595718013332436371e+10
-2.047388439580322266e+11 2.047388437939589539e+11
6.492759893639804077e+10 -6.492759889518102264e+10
-1.467728727859013557e+10 1.467728727091278076e+10
-1.060861106842678223e+11 1.060861106652115173e+11
-3.001140164156051254e+10 3.001140163441986847e+10
6.118017856164469910e+10 -6.118017851523853302e+10
-5.345038467751076508e+10 5.345038464560345459e+10
-6.794842014383981323e+10 6.794842011988812256e+10
-4.679885203954790497e+10 4.679885201422766113e+10
2.550237125205261230e+10 -2.550237121876013565e+10
3.354429982236522675e+10 -3.354429979677359390e+10
4.415931750040955544e+09 -4.415931752744760513e+09
-2.941605694542284775e+10 2.941605691536606979e+10
-1.205066520951323700e+11 1.205066519660644836e+11
-9.944110750173895264e+10 9.944110750040896606e+10
-1.852440226547370911e+10 1.852440224613327026e+10
1.290473892897625885e+11 -1.290473891958285828e+11
2.343401762160116577e+10 -2.343401760869472885e+10
5.406769157907779694e+10 -5.406769153906801605e+10
6.302870237760615540e+10 -6.302870232645912170e+10
-3.938648599418116760e+10 3.938648596513040161e+10
6.276818587014546204e+10 -6.276818583311898804e+10
-2.340558941343055725e+10 2.340558943850770187e+10
-8.147072316344221115e+09 8.147072312608484268e+09
-5.801392818299893951e+10 5.801392811746221924e+10
2.362679769926772308e+10 -2.362679762306586456e+10
-1.662460221069124451e+11 1.662460219680076294e+11
5.569280317926980972e+09 -5.569280326395840645e+09
6.333754460567329407e+10 -6.333754453293450165e+10
-4.928956137750402832e+10 4.928956138444408417e+10
1.553216560554407654e+11 -1.553216559332699890e+11
6.306950092420878601e+10 -6.306950089000144958e+10
-5.193402599050406647e+10 5.193402594385829163e+10
1.076527999100934410e+10 -1.076527998272119522e+10
8.141449776009715271e+10 -8.141449772060891724e+10
6.422838208981975555e+10 -6.422838204121694183e+10
-5.612008911592241287e+09 5.612008929841299057e+09
-4.220730852299770355e+10 4.220730851226548004e+10
-7.587895472241749763e+09 7.587895475345078468e+09
-5.687234470675425720e+10 5.687234468726056671e+10
-6.632609554534610748e+10 6.632609551023609924e+10
9.177646644929548645e+10 -9.177646637446427917e+10
-3.132139312863874817e+10 3.132139309912002563e+10
-7.000996657434597778e+10 7.000996655152943420e+10
8.570220016492582703e+10 -8.570220011186953735e+10
7.709530500065036774e+09 -7.709530500816967964e+09
-2.066816281087181702e+11 2.066816279547362671e+11
8.948594199099914551e+10 -8.948594194653916931e+10
-8.713504830499998331e+08 8.713504984389386177e+08
8.284736396726103210e+10 -8.284736388963653564e+10
-1.495739531600117111e+10 1.495739530428283882e+10
-2.425096521079637909e+10 2.425096520748460007e+10
-5.909181175580513000e+09 5.909181169089426041e+09
7.006742903989686966e+08 -7.006742456735019684e+08
-3.133008359070614243e+10 3.133008356116566467e+10
1.127413836576875305e+11 -1.127413835712501526e+11
-1.035461828009067993e+11 1.035461827226418762e+11
-4.803512776779087830e+10 4.803512772635777283e+10
-3.602637476545310974e+10 3.602637475688739777e+10
3.925665096447789764e+10 -3.925665096809800720e+10
-2.233941980924194717e+10 2.233941983101978683e+10
2.102289796107809067e+10 -2.102289795281887054e+10
-2.357230272249863434e+10 2.357230272524195862e+10
3.447086379846933746e+10 -3.447086378426124573e+10
5.643446955184529114e+10 -5.643446954394712830e+10
-5.327683146685846710e+10 5.327683144424121094e+10
-6.976408644271723938e+10 6.976408638943870544e+10
-2.925687850857502365e+10 2.925687846168903732e+10
5.634618925271304321e+10 -5.634618922034736633e+10
3.660026522491216278e+10 -3.660026520406414795e+10
6.165542233586435699e+10 -6.165542227281322479e+10
1.198099514339333954e+11 -1.198099513231368713e+11
-6.628229635158361053e+10 6.628229631335634613e+10
2.951117112904734421e+10 -2.951117111081803131e+10
6.131685322497895813e+10 -6.131685318242788696e+10
1.378368289310871887e+11 -1.378368288499840698e+11
9.104486482169734192e+10 -9.104486476646255493e+10
-4.909191000542587280e+10 4.909190996717823792e+10
-1.258119695068282509e+10 1.258119694161870003e+10
1.599763974633000374e+09 -1.599763993774036884e+09
8.762333353657673645e+10 -8.762333346791470337e+10
-7.961178904852581024e+07 7.961187868008708954e+07
5.691944190937308311e+09 -5.691944163857625961e+09
-1.304228671985109901e+10 1.304228668749949646e+10
9.785539436923384094e+10 -9.785539433209455872e+10
-4.291982306751378632e+10 4.291982304505809784e+10
-4.314259410042885780e+09 4.314259432168686867e+09
-3.708962145054971313e+10 3.708962142259328461e+10
6.407643795556304169e+10 -6.407643786198624420e+10
8.888212727019533157e+09 -8.888212699309349060e+09
-1.642182239272546082e+11 1.642182237699722595e+11
-4.046963816647030640e+10 4.046963813932450867e+10
-9.204301358540148926e+10 9.204301351880722046e+10
1.120465284809887390e+11 -1.120465283898232727e+11
-4.233084858161983490e+10 4.233084855239163971e+10
-1.829408955766854477e+10 1.829408956127908325e+10
-2.315090224850149155e+09 2.315090178399797440e+09
2.405297049643911743e+10 -2.405297049178934479e+10
8.466305242659504700e+10 -8.466305239928236389e+10
5.807515231890627289e+10 -5.807515230688711548e+10
7.153425560814805603e+10 -7.153425558090785217e+10
-4.229274864986054993e+10 4.229274860329995728e+10
9.250993065476783752e+10 -9.250993064888839722e+10
1.911657135248857422e+11 -1.911657133931761780e+11
-5.861238103529006004e+09 5.861238104781511307e+09
-8.670621422321525574e+10 8.670621417333236694e+10
4.337511792552470398e+10 -4.337511789320770264e+10
4.560748535793955231e+10 -4.560748535716541290e+10
6.244767130948888397e+10 -6.244767129695102692e+10
2.509736507139833832e+10 -2.509736504485639191e+10
1.472161357977397156e+11 -1.472161357239987488e+11
-2.288947432748465347e+10 2.288947434779949951e+10
-7.389261304485717773e+10 7.389261302808604431e+10
6.355915124210385895e+10 -6.355915121360448456e+10
1.335018673698488159e+11 -1.335018672673538666e+11
2.273761167230972672e+10 -2.273761163845263672e+10
1.169185148851248016e+11 -1.169185148031664124e+11
-2.233765039501053238e+10 2.233765036795576096e+10
-7.016514145219122314e+10 7.016514143743136597e+10
-7.188947851756488800e+09 7.188947848647717476e+09
-4.521454264322241211e+10 4.521454263938528442e+10
7.737163004997236633e+10 -7.737162998285519409e+10
-6.065105462658533096e+09 6.065105452366206169e+09
-1.190488486833097649e+10 1.190488485837835693e+10
5.320871791749581909e+10 -5.320871786311370850e+10
3.060591684595590591e+10 -3.060591679494073486e+10
8.580596912349197388e+10 -8.580596906050682068e+10
-3.146089697346134186e+10 3.146089694191218948e+10
9.224450325271656799e+10 -9.224450317434478760e+10
-6.735752566436287689e+10 6.735752561610037231e+10
7.942442361587925720e+10 -7.942442357120501709e+10
-1.844662690630619812e+10 1.844662689809118271e+10
1.422256016817223430e+08 -1.422256042561529875e+08
2.398244750936634064e+10 -2.398244750894045258e+10
2.847745009352731705e+07 -2.847742923834419250e+07
2.805775673501909256e+09 -2.805775653943383217e+09
-1.449853800135469055e+11 1.449853799297478943e+11
2.005625463496803665e+10 -2.005625463075276566e+10
5.283746527978044891e+10 -5.283746521824505615e+10
-1.816394785420748520e+10 1.816394786842613220e+10
-6.208647090745970917e+10 6.208647088200665283e+10
7.990142272446539307e+10 -7.990142263167245483e+10
-5.455975200518053055e+09 5.455975199400985718e+09
6.388722066324150085e+09 -6.388722056892650604e+09
-2.875833601576997375e+10 2.875833600502148056e+10
1.764300701890942993e+11 -1.764300701104564209e+11
1.860569302602403259e+10 -1.860569299279601669e+10
-2.526566758187133408e+10 2.526566755184092331e+10
-1.979336375341536713e+10 1.979336374109020996e+10
-9.241511234583862305e+10 9.241511226219258118e+10
-5.653300645386154175e+10 5.653300642534175873e+10
1.693362444162861633e+11 -1.693362442829792786e+11
1.333033877980326691e+11 -1.333033877049245605e+11
-4.516465857759735107e+10 4.516465853598807526e+10
-6.312881606975347900e+10 6.312881595755326843e+10
8.254294337796157837e+10 -8.254294334140672302e+10
1.816856264143648911e+10 -1.816856262641288376e+10
1.875176090706225586e+10 -1.875176090869165039e+10
-6.229389271426720428e+10 6.229389267725034332e+10
-3.154076800086311722e+10 3.154076800728203583e+10
-4.448737250588395691e+10 4.448737251463018799e+10
-4.113612783293280602e+09 4.113612759553266525e+09
-4.749395684066200256e+10 4.749395679592395020e+10
-2.713304304850499344e+10 2.713304302011220932e+10
-7.287187485002207756e+09 7.287187489821281433e+09
3.803317395622627258e+10 -3.803317395317864227e+10
2.075058817857409286e+10 -2.075058820044665909e+10
7.602446853754841614e+10 -7.602446848233448792e+10
-1.039928064507418671e+11 1.039928063863770599e+11
-4.505395767913625336e+10 4.505395765433855438e+10
-3.459515368957776642e+10 3.459515366294012451e+10
-3.278001756831275558e+10 3.278001753498857880e+10
-1.447423309619249344e+10 1.447423309752667427e+10
-7.713807559028955078e+10 7.713807554385346985e+10
3.838893241509080505e+10 -3.838893240259923553e+10
3.547890630767887878e+10 -3.547890629037171173e+10
-3.856286307779004669e+10 3.856286307046602631e+10
2.686084090816093445e+10 -2.686084093448774338e+10
-6.060649657568814087e+10 6.060649652302884674e+10
-5.637782202663020325e+10 5.637782196213842010e+10
-1.882011235202638855e+11 1.882011233624658508e+11
2.182259756945467377e+10 -2.182259754302025604e+10
-8.309977714497167969e+10 8.309977706731661987e+10
-5.865998161359128952e+09 5.865998149652214050e+09
-4.903308151505163574e+10 4.903308152471230316e+10
9.468436122284126282e+10 -9.468436117545239258e+10
-4.669115344065892792e+10 4.669115340556655121e+10
1.749994798714063110e+11 -1.749994797769074097e+11
5.262762656201239014e+10 -5.262762650381670380e+10
9.209079106190795898e+10 -9.209079102693855286e+10
5.777259835606591034e+10 -5.777259835353790283e+10
1.751107807322288513e+10 -1.751107805669345856e+10
-1.008191290596169281e+11 1.008191290124824524e+11
-7.816220278000831604e+10 7.816220278279002380e+10
-3.427994305373387909e+10 3.427994303608662415e+10
-3.681368585519990540e+10 3.681368582685696411e+10
3.952486281489276123e+10 -3.952486279183758545e+10
-5.497791087334640503e+10 5.497791083507109833e+10
-6.712277970039260101e+10 6.712277966447325134e+10
4.325747977410797119e+10 -4.325747974017876434e+10
-1.011678927670404053e+11 1.011678926635845947e+11
-2.356447655339894867e+10 2.356447649771994781e+10
1.703778787036882782e+10 -1.703778786996347618e+10
6.031977303726097107e+10 -6.031977302289722443e+10
-4.745598432282102966e+10 4.745598427765829468e+10
-2.642557316853173828e+10 2.642557313371011353e+10
6.493872562393486786e+10 -6.493872557719303894e+10
