-3.864278431898804378e-02 1.098996734919658325e-01 9.865251520239660954e-02 5.616756815622640092e-02 3.619733105406813117e-02 2.942948703711879832e-02 2.005194791242736682e-02 -1.112348648975841625e-02 -1.039010234036555763e-01 -4.272289469350815105e-02 6.137628250716928302e-02 -6.043919500270073658e-02 -7.444512352185846116e-02 3.510564347654226980e-02 -6.845489128612811114e-03 -7.893136942306823098e-03 9.005156367048108845e-02 9.018231725351356920e-02 1.186874182173126846e-02 -6.465218910241947448e-02 -2.524758831231639633e-02 -1.102384518879328673e-01 -9.580915637885942249e-02 1.608093973020815332e-02 -6.996688326589983742e-02 4.782813046980052135e-02 2.925764477488584925e-02 4.629486008180711681e-02 8.503589560964032457e-02 8.809483100830861613e-02 -5.258150213075439561e-02 8.299133743216535828e-05 5.544795192451696525e-02 -1.492403088553665921e-03 -5.118205615409321396e-02 9.984488530942537896e-03 6.524146383510535940e-02 -8.704180546290986309e-02 -8.414376217445816708e-02 8.839008355748194379e-02 9.309833393049640748e-02 -8.594906071278576171e-03 6.982032887413037146e-03 -3.833480523405125018e-02 -8.847643345421236927e-02 -3.756046932387718112e-02 -4.947135483091145980e-02 -2.599817814345706246e-02 -1.009698634201881134e-01 -4.943413700955692769e-02 -7.368684062111555133e-02 7.956106252938732748e-02 3.462837089419375236e-02 -3.494019491853986303e-02 -8.856518464779267186e-02 7.744150665557368585e-02 -7.649453671652177433e-02 1.042646136350502128e-01 4.589044034834954822e-03 2.468141983861099967e-02 -1.041514734087504029e-01 3.313368443495356974e-02 -1.060296519823567540e-01 -1.003986741004880973e-01 5.797834019198384869e-02 -8.966029978486964036e-02 -4.835895828096343357e-02 -6.261012177473994356e-02 -6.243985994188374494e-03 -9.518499768628500834e-02 -4.357733038948406051e-02 9.904447584032712026e-02 8.629655286152940197e-02 -7.001665190478228995e-02 -5.691274580992207455e-02 -7.546923287622057941e-02 -8.677263950229273382e-02 -4.939384699747299823e-02 2.188145669399609028e-02 -6.460363020557711999e-02 -5.100012037817800575e-02 -8.323104233294240095e-02 9.391295727924421632e-02 -2.228403199613126009e-02 8.201098382321840574e-02 -5.312337175965831798e-02 -5.173423965106251771e-03 8.127840017106723047e-03 -8.744986555076544876e-02 -7.824263554321868319e-02 -9.955291923255107922e-02 2.964661595802304400e-02 -8.860328030086404849e-02 -4.995665379152705587e-02 -9.137056304570098653e-02 -7.139990720398513291e-02 -8.469313674268734438e-02 5.782347830825953355e-02 1.059076172563325619e-01 8.821092113803288837e-03 5.521773219224044432e-02 1.094775742289001708e-01 3.556141255007139873e-02 3.817973698394162146e-02 6.887611865176988812e-02 1.018699851570734199e-01 1.427647037071781699e-02 1.048738724892411961e-01 1.068222506079701539e-01 -5.224376941111231326e-02 8.895019426504083282e-02 8.712109170462055407e-02 8.163691293938396543e-02 -7.279865211106470446e-02 -8.246974500980917833e-02 -5.132266487031227065e-02 -9.649982666583582780e-02 -1.065882905941328423e-01 5.200496413584155403e-03 1.006009678016928643e-01 8.028004865129204082e-02 -6.410703155025383737e-02 -1.344566747160945257e-03 -7.848381746494624556e-02 -5.615167731730801026e-02 -6.075411440132193891e-02 6.426385077315362182e-02 -8.128294873047832436e-02 7.344313074088491518e-04 -4.507609551241297668e-02 2.428529178719445510e-03 -2.637539614520868075e-02 -5.150076635088474131e-02 -2.818661494922437144e-02 5.667773080318871948e-02 8.050051411715564154e-02 4.529926767439874241e-02 4.398202734740022657e-03 4.674066576904417625e-02 4.235114933191364700e-02 1.200044033210490024e-02 -6.907273481331165088e-02 -4.760950494434958158e-02 8.391695674668489535e-02 5.458232332422366384e-02 3.626778854874901110e-03 9.549206829640501104e-02 1.379817654148286603e-02 5.723973080041462602e-02 -1.009150414439353126e-02 -8.207147932680756985e-02 9.602421884711866140e-02 -9.449171295725340702e-02 1.364144245443131391e-02 -3.465652423809551658e-02 1.070648625372385039e-02 4.464531098677327475e-02 3.317369907243386540e-02 7.570538002279504630e-02 7.759938033364258483e-03 -1.092149924789579812e-01 -7.711335551172628089e-02 -8.856286731173286519e-03 -6.123970855320579054e-02 -2.138287217341253502e-02 9.912519984810481272e-03 -3.147968294791588656e-02 -5.880612652429020176e-02 -2.042544243808424448e-02 -9.451270372423267729e-02 3.920009697528464843e-02 9.548096958045078353e-02 -4.215923270088595132e-02 -4.872865080582459291e-02 -5.799175314072683302e-02 1.198992074738753841e-02 -1.986432154171981213e-02 1.042065098345582030e-01 3.649831626386371847e-02 2.175651596591669790e-02 4.820226605893160321e-02 -3.645391409589293641e-02 -2.134368251644856371e-02 6.261367346240209741e-02 -3.120953598784044145e-03 1.678245956506321454e-02 8.212813526269036046e-02 3.550111491440162415e-02 -6.663166012422758189e-02 -1.044116928563554314e-01 1.322614367762999475e-02 -8.806066427616911219e-02 -2.029188857727323974e-03 -6.683146520145318015e-02 -3.909921792590952822e-02 -7.122749037566772010e-03 -1.073139215086202497e-01 -1.079503345251596469e-01 9.808291259251769589e-02 -7.071456521394542394e-02 -7.016943432519878732e-02 6.021394998526124337e-02 -4.442475054856942496e-02 -1.064728267574375775e-01 8.275405977715476202e-02 8.945458748099709145e-02 1.323039842139246344e-02 9.289251926247946156e-02 -3.870993144361845745e-02 -3.557480076350742759e-02 -2.931266400591492002e-02 -4.749927100334033758e-02 -6.595841343623709552e-02 -5.188875258872918672e-03 3.658523264899115994e-03 -5.382543225713962848e-02 -5.209013866086312228e-02 -6.108192220954106189e-02 -2.467339701625927140e-02 -2.780359233368158781e-02 -2.294555489799115361e-02 -3.013139346477104741e-02 4.875588056883790877e-02 9.024045824067851440e-02 -2.232497138518709998e-02 1.861249863386465770e-04 1.829333922704112422e-02 3.424601318154705393e-02 -2.866509491141365149e-02 -6.774752388658533686e-02 8.911374625167324537e-02 -2.798757871357408084e-02 -3.455303964644065862e-03 -7.856441144472202376e-02 -3.849254486347698789e-02 7.151533439875470965e-02 -3.897786022067776385e-02 2.041173521568659041e-02 -6.640606356427676549e-02 -4.277625426303230394e-02 -2.811045970056467308e-03 -3.908113364754368935e-02 -4.961249505565012985e-02 -1.042117983605109766e-01 3.593940390869053425e-02 4.429106040549915524e-02 -5.981614092189789511e-02 -8.212375743452010601e-02 1.072686376420880494e-01 -6.205435769573638786e-03
-7.496066954167387997e-02 -1.805863259835126591e-02 -4.036582790065906118e-02 9.405240682172626154e-02 6.863148199387697490e-02 -1.161976951907800482e-02 2.799904061872309988e-02 4.698414632385704975e-02 -8.887647009971320899e-02 1.678196560654374170e-02 7.796031488593775649e-02 9.568803441979140123e-02 4.280784000527674410e-02 -8.592393798883513067e-02 8.579139361292921484e-02 -9.237193475318072888e-02 -6.058020329558402861e-02 5.890004307159694974e-02 2.284450593868904769e-02 2.518725293125545842e-02 9.749641738404804525e-02 3.328334658130419760e-02 -4.426162722283672607e-02 6.658268430932463844e-02 -9.076289159087659597e-02 -5.640850784876576957e-02 3.498642227825356221e-02 9.961939920025772444e-02 -6.805693247751377906e-02 2.652237388995315123e-02 -6.091946997337940872e-02 -4.597569185357294752e-02 -9.639524672832577856e-02 3.191859706581460371e-02 9.846295805468915918e-02 -1.053453854625732572e-01 -1.346896613982844632e-02 4.174182394050528558e-03 6.016467199956870154e-02 -3.828542771749435247e-02 8.689671383087757550e-02 -1.348805886481284702e-02 4.738535267088995334e-02 6.457743072211166724e-02 -8.431268362595459309e-02 8.381027138698593504e-02 6.113962512281961859e-02 5.246691651572883697e-02 4.294357858093039021e-02 6.179029464647455006e-02 4.287263688467578271e-02 5.323125130593654719e-02 5.082045268384122877e-02 3.326440124657453062e-02 -7.542683751704522266e-02 -8.902003629286721342e-02 -2.559958946925993198e-02 8.042044219196142762e-02 -7.617097954541862670e-02 -4.926020808220294214e-03 -6.601548833548907813e-02 -9.426622988957411575e-02 4.267782621897923262e-02 4.816900764144840114e-02 -2.814494660355318367e-02 -3.741039370103953383e-03 7.214191947207755640e-02 1.129094099497365417e-01 -1.644644475917529311e-02 -1.015467684766060454e-02 -2.679557222864070720e-02 -1.091277344691547746e-01 -1.182179885867210532e-03 -2.824383220130262037e-02 -6.849611288544270316e-02 1.520495071795787551e-02 -9.338785279067040798e-03 -5.765908152622375993e-02 -4.121350958120065244e-02 4.387860301625631787e-02 -2.841098538654516364e-02 -9.272528948600947118e-02 3.963067946733250108e-02 1.095944305304137334e-01 1.657675093751244041e-02 -1.043079526105762100e-01 -8.950996643653635898e-02 3.759230106747273731e-02 -1.890535415128500457e-02 -8.447506357099947294e-02 3.279296273569655418e-02 -3.765656546754592160e-02 -7.550159933365702125e-02 -4.792192564780901193e-02 -9.862675138523542551e-02 5.589279849244122717e-02 -7.578251554082847397e-02 5.565707991691973278e-02 8.701678229030584966e-02 -5.069586299250370548e-02 9.053615981113177780e-02 4.303175041669182743e-02 -1.037407797279883137e-01 -9.794641803942381875e-02 -4.772362301413444335e-02 -7.580961807964187171e-02 7.996581199909415238e-02 8.674448087293079590e-02 -8.081667188300872828e-02 6.906111818884871911e-02 2.606684563180555053e-02 -1.836043198872942123e-02 -7.954226824313395672e-02 -9.944229259108641750e-02 1.116391266817369499e-01 -1.028708435246532410e-01 1.014355550007756956e-01 -8.870730877367340173e-02 7.027377973285282853e-02 -1.078809804861905614e-02 4.739142588662726557e-02 6.231974157254580038e-02 -9.453659545305037604e-02 1.862296101126114170e-02 8.423405170909376016e-02 2.999080179132149540e-04 -6.972971363347829632e-02 1.967633416661602672e-02 5.381897756067305361e-02 7.745000918363917353e-02 -6.519472652081402531e-02 -8.558385640205187772e-02 1.025930986545068625e-02 6.501255513906063765e-02 6.411537935106302599e-02 -1.124371954435252063e-01 3.066110743493268009e-02 -3.825377986602838259e-02 -1.217507272918709124e-02 -9.504800610152008833e-02 -7.462573867368577085e-02 5.748137854534206281e-02 9.790468684453597359e-02 9.758966281778932994e-02 -7.636164723099701790e-02 -8.799309718448012838e-03 9.367556235777792228e-02 -6.093682355929015693e-02 2.208934342860295261e-02 -2.444769106105219164e-02 -6.353833287209310898e-02 -3.483407048238310044e-02 1.892501431372146936e-02 -7.100310303111356802e-02 1.079498269184869241e-01 -6.321873708556263738e-02 -6.772602727457376071e-02 5.878283534424331297e-02 -4.668804921541797742e-02 8.171490008283749384e-02 7.262602215315137888e-02 -9.017096399322395428e-02 -1.060001476639117063e-01 -3.038192357447929565e-02 -9.200346691761758858e-03 -1.703916374480697604e-02 3.586194065825755450e-02 4.445093610479656371e-02 8.929560464421321120e-02 2.332069975235002979e-03 -7.577253621068055778e-02 -3.281223693368347932e-02 5.068722678043582897e-02 6.147267379666141937e-03 -4.368499680483300257e-02 3.838122116875334298e-03 -8.037268003732427751e-03 2.762381676769081612e-02 7.635718104142216744e-02 -1.548085335273263925e-02 3.187023136092344278e-02 1.026791138027735861e-01 9.695479632966894079e-02 2.244997845095375241e-02 -8.116626001382502842e-02 -2.544511040708444596e-02 4.990876811933502716e-02 2.849989847305277671e-02 1.014472302847849311e-01 -6.281712043869414064e-02 -3.138431115043301134e-02 1.833315913030542435e-02 1.062343805105358668e-01 5.357284635895199348e-02 -2.127162926877167182e-02 -5.852446964406820412e-02 1.150686707522726726e-01 -1.336501879803615386e-02 2.108092972502504173e-02 6.909703008161442728e-02 -5.550540127212283403e-02 -4.188710900717880492e-03 -7.846337628179210488e-02 4.175078714120580847e-02 5.681929968966517586e-02 -4.351145537778386418e-02 -3.947071301256355191e-02 3.917133351795866469e-02 -8.877687012861609772e-02 -5.235244674751158428e-02 -2.607302356571997853e-02 -5.506681971768315198e-02 -2.617494105715155103e-03 1.072993729383322908e-01 4.825611401413579943e-02 8.973744628380965482e-02 -2.513563763980491278e-02 3.736281781226712811e-02 -2.130250052116525183e-02 -8.870306050246798413e-02 -1.572153475853465751e-02 -9.897988436271798127e-03 -4.404882537312256041e-02 2.353271507184593811e-02 6.422571613894995785e-03 2.867929529521676471e-02 9.852155446169610920e-02 2.363336013613336409e-02 -6.432682706744566326e-02 -4.661184875727714810e-02 8.893036235371968440e-03 -5.292277270993393269e-03 -7.819949168005281559e-02 -1.016677408081428785e-01 1.004745544826834980e-01 1.198063296380869405e-02 5.083410290206637899e-02 1.070738578049097722e-01 -2.667391978961258098e-02 1.503844708997928090e-02 -6.100527650054120288e-02 5.833640631460833281e-02 -1.228945282963422002e-02 4.224152740635635228e-02 -8.248897198456676960e-02 -1.854908163844704722e-02 1.773718497379965509e-02 -9.251894251676344438e-02 6.103081481897243421e-02 7.828370861131776770e-02
-1.445127532647009355e-02 -2.329565626084244973e-02 -2.396528369210391626e-02 8.154477349143801623e-02 -9.046838480670030269e-02 5.385396766050632583e-02 7.691831982276677027e-02 8.746528366356003115e-02 5.887236195238055442e-02 5.191584718722821318e-02 -6.051493702791025525e-02 -6.688092616683827263e-02 -1.151492372824689144e-02 -1.040168365927290478e-01 9.297276340955526464e-02 -1.091763079075863951e-01 9.049188875620629846e-02 -7.199491866446158447e-03 9.743818849645523653e-03 -8.451660053649309723e-02 7.168220991505415418e-02 -3.476773619697298701e-02 -6.864815161182866166e-02 7.757169178869348369e-02 6.747457591867492277e-02 -4.448760301067365697e-02 6.699605572340321114e-02 -4.312311230241550747e-02 -4.839805112417495253e-02 -3.535761826984738093e-02 3.652726220074489771e-02 -1.033167326238555728e-02 9.601372760934891171e-02 1.735338630333038050e-03 -6.698490319298922024e-02 -9.063712904894868916e-02 1.083831478617819644e-01 1.133421854280665560e-02 -2.670772342826555068e-02 -1.673244944969347336e-02 -2.522921249738817318e-02 2.281303138694671523e-02 -9.718162417766917915e-02 2.789212677652595090e-02 -2.681270295193050046e-02 8.286824748585960854e-02 4.164700109235391218e-02 4.142306701675670111e-02 -2.750783905439534160e-02 2.035333812959722391e-03 6.892728833921643594e-02 -6.280094007333453243e-02 -8.946568341531407897e-02 9.674337957740877791e-02 -7.153293559552516279e-02 -1.238910342390416031e-02 8.266567094279905770e-02 -1.513440402072856530e-02 -5.428332088492818230e-02 2.965027822631218207e-03 3.745413994706550155e-03 -6.248800414780598250e-02 -5.189882830895289900e-02 8.769969922746223556e-02 -9.890210359223121361e-02 8.701376021916960857e-02 5.996443594969341068e-02 -7.112174345599281411e-02 -9.169834344222992095e-02 7.940075930978335306e-02 8.799844857227238915e-02 1.213601001376281296e-01 4.222098319033723568e-03 -9.628343017487706046e-02 -6.924654335488714119e-02 5.100700897364533054e-03 -9.085906690311350287e-02 -1.062160500415016695e-01 1.039380534649956972e-01 -9.798817530788633129e-04 2.234465690774625410e-02 5.114033066227648833e-03 2.885588320363298778e-02 5.054161437571361853e-02 -5.363720658749971532e-02 -2.003474916010969040e-02 5.667950778969430697e-02 -8.086923054770034369e-02 -2.373767676601435186e-02 7.254889482244199217e-02 1.845047831822871354e-02 9.903596269516104500e-02 -2.707601284335379305e-02 2.462751739397421764e-03 -9.022810243103134009e-02 -9.243614954407418371e-02 3.212146163801395116e-02 8.020683734369496443e-02 5.426859843942246492e-02 -1.827877739906178661e-02 9.565516044979656407e-02 -2.240257767232506358e-02 -4.913742759397923821e-02 4.628579766657090096e-03 -3.022208598541076957e-02 -6.357341473487193584e-02 -1.877174155443661271e-02 3.819787615716730041e-03 2.655299475245937249e-02 1.918501307686715229e-02 1.078711619112741465e-01 7.670359516028937841e-02 1.152600815580463178e-01 6.820721025809592386e-02 -1.152916111154083795e-01 7.626942812730643471e-03 -5.822447617313613460e-02 5.691209323591301522e-02 1.358569378787999153e-02 1.678981499684728540e-02 5.978976344925184330e-03 -5.322530146213128727e-02 3.297071345269679543e-02 -4.718452316876873415e-03 -4.582818503929204229e-02 8.267900970644921632e-02 7.409963381438360377e-03 8.367045988632149101e-02 -1.920579325284792107e-03 7.154527186735568089e-02 8.159291522972224320e-02 8.402914977249327511e-02 -9.549036726346962767e-02 5.582747135081311124e-02 1.109127994331660788e-02 -6.085246514907481641e-02 5.801460223401598559e-02 -1.143651370041621693e-02 -6.271882953499123559e-02 1.049676389248672265e-01 1.026000358553119940e-01 1.270513158137086956e-02 -9.430482147697109852e-02 -9.148927500936239465e-02 -3.687770557843523395e-02 1.078518126910001790e-01 9.249065094122889408e-02 3.009955190234458317e-02 1.752470946895320209e-02 -5.212742052081323352e-02 7.078372737531159198e-02 -1.423567369848606750e-04 -8.848060814818807518e-02 -6.488907879111269206e-02 -3.487578468947035576e-02 -5.314683506566657972e-02 1.909168429206732284e-02 -9.791363248406140252e-02 2.457464212558690270e-02 7.319585444009762965e-02 9.139422137468487806e-02 2.109625690607441414e-02 -1.034438966898011819e-01 6.668925484664443848e-02 1.975711213308986580e-02 3.978143231703069188e-02 -4.757537786630657711e-02 2.818467147748178123e-02 4.475470432468307835e-02 -1.046329897319039082e-01 9.344034927908824451e-02 -3.975459889772742922e-02 6.033984727592048292e-02 1.003594123011960354e-01 -7.169170898737550410e-03 8.432965025946927151e-02 -2.673512413636560531e-02 -2.410111512004658660e-02 5.463899855135052885e-02 -9.834858373669848330e-02 4.367676805457353095e-02 5.217558070263495634e-02 4.032480395634495396e-03 7.761187424482211827e-02 9.804499074930018987e-02 -3.838347070335691724e-02 1.191998807267061374e-02 -9.216162170292606370e-02 7.358807365853854698e-02 3.487546607181976621e-02 5.646752322890833536e-02 5.295370478867192365e-02 7.583129327697600564e-02 3.530317199390178851e-02 -6.397567942781196004e-02 -4.517687337880321036e-02 5.423656821871401801e-02 7.002626902973091427e-02 -7.672296494298748437e-02 -7.169629003762019448e-02 4.011618531664181558e-02 -3.809886357074179081e-02 9.970343590227906394e-02 -6.942934621627615266e-02 -8.040191941761193339e-02 2.345839501418146497e-02 -2.515417211046809542e-02 -4.662079597506828960e-02 -9.679504266352462194e-02 1.000594616619538552e-01 -9.301916847368296715e-02 -7.776354738664638389e-02 -3.419033351371492807e-02 -8.525466173843646933e-04 -5.788463752320936045e-02 7.271544529176496297e-02 -1.471678562008283710e-02 7.934789218538186584e-02 2.930492511212630380e-02 2.875453093203614308e-02 -2.826970555006981869e-02 4.335720543786385217e-03 -2.431685644064245436e-02 -6.523006066989384122e-02 -9.775336137729424835e-02 -1.279641495579727714e-02 -5.476739171471473738e-03 -6.019959457323041663e-02 4.441107108174256052e-02 -6.176731746926691045e-03 -2.383580416201798793e-02 -9.880627748821269041e-02 1.052849773013818935e-01 -6.647960781121632634e-02 6.132682326035679421e-02 7.582358607728384436e-02 -1.077607232554474020e-01 4.834210765966435314e-02 7.453275303856167489e-02 2.658911979032412692e-02 -1.433931156558547644e-02 -5.808324398454989962e-02 -5.520109546284069496e-02 -3.269489556703078503e-02 1.432718799451605796e-02 -4.161911585269317815e-02 4.045184829018243222e-02 5.915924778212664631e-02 1.072896052874626055e-01 -7.682686055198528763e-02
-4.618018737143143870e-02 -5.840789442383466368e-02 -7.321210942752719164e-02 -8.055316629549323648e-02 2.987418341688508408e-02 -3.648046656042793628e-02 3.344851001634521759e-02 -1.913232565389800036e-02 9.395376671663596690e-03 -1.042357809012765812e-01 9.357924834989597707e-02 3.272787718276315427e-02 -4.151125670683538521e-02 8.555925071474947130e-02 7.886775956103703189e-02 -7.566695088397870639e-02 1.087296790700826299e-01 1.856265173777129143e-02 3.504470618076346161e-02 -3.255930242451772483e-02 -2.387605195019213908e-02 6.712089251236726117e-02 8.200340648215227735e-02 -3.766010143792462503e-03 5.879739490200957402e-02 -5.891185176359053227e-02 6.366192743130058562e-02 2.764940030638822141e-02 -5.971704107990384591e-02 -2.198375243605332069e-02 4.467107858928037745e-02 -6.476293859909937334e-02 1.021333966577557817e-01 6.833045198609954962e-02 8.394024575477772310e-02 8.465562081070333866e-02 4.060565715173215101e-02 -2.061384547788622235e-02 -6.517837955309657705e-02 6.725891814709049343e-02 4.215636358207668077e-02 5.166718179594693983e-02 1.008958845583143027e-01 1.330818069471194354e-02 2.721460257525019910e-02 5.094192652367129232e-02 -2.163011500660068712e-02 2.059432061625601773e-02 2.493568135636686604e-03 8.521279225263037049e-02 6.965850020993007673e-03 -4.617429279387454816e-02 3.880372933794368207e-02 -3.218472547609353002e-02 -3.494515074479949412e-02 3.534866821153202082e-02 -7.783563091933140554e-02 3.463274780903669026e-02 -4.338189880078893723e-02 5.718975585253743138e-02 -2.275733775753303878e-02 -4.588080161323457654e-03 1.866082641612717280e-02 -9.496266718504103865e-02 -7.151077140885379879e-02 4.212166449956889630e-02 7.028554498828129202e-03 3.506810781292777485e-02 9.881882827853660789e-02 3.712109707668586472e-02 6.164394242715153654e-02 -6.920432796778999696e-02 -5.032564044455336769e-03 -9.377530074351347888e-02 1.151105026847119572e-01 7.229891273260280471e-02 -3.022454748818549988e-02 7.936378453298026381e-02 -7.474247185858998166e-02 -6.034798838092356177e-02 -2.433253033658493159e-02 -1.892758995573161351e-02 -8.362394998137270830e-02 -1.011457782344905298e-01 9.834082319716959397e-02 -1.437984073696218883e-02 1.056901049415439192e-01 -5.544318098286117429e-03 6.026472290767367901e-02 -9.984402322887148129e-02 -4.981029605936969362e-02 -3.754113014063803488e-02 1.724214436849827795e-02 -9.000798713916673133e-02 1.114826702887765364e-01 1.049367297880826611e-01 5.214183976303605333e-02 1.059284753514593419e-01 -1.184762777376189014e-01 6.862504912051228985e-03 -3.068579373318336065e-02 -1.770458229485617763e-02 7.481799164909173905e-02 -2.984921759272299649e-02 -3.376612455096290877e-02 -3.896941651521387134e-02 -5.020537421269441469e-02 -8.051522486221507346e-02 1.020168052268898701e-01 -7.054531348636272625e-02 8.243318792716800014e-02 -5.537997802591577978e-02 4.446203258642914512e-04 3.580681707566808758e-02 1.063574251039179352e-01 4.900411117534974464e-02 -1.163667528341941551e-02 3.024977720941397427e-02 -8.001620710813148879e-03 5.689933487938475531e-03 9.854397169000098100e-02 -1.012314766597834370e-01 3.019323035753848639e-02 -8.492568603765077162e-02 -4.720785228654965360e-02 1.102640235294457260e-01 2.289528226371625313e-02 4.699121423987839136e-02 6.262047915195975700e-02 1.131296084078093067e-01 -2.824204266896123989e-03 -3.541729640620611130e-02 7.606917631967952120e-02 2.300966547724888830e-02 7.997150643835031214e-02 6.537521642729314519e-02 8.031779501772431940e-02 3.572515282712948170e-03 6.453377949341464193e-02 3.704451131223876481e-02 2.774102876652441083e-02 -1.093681589528652381e-01 4.683835920420465621e-02 1.010865030931179798e-01 -6.277758829029604984e-03 5.620297037940134854e-02 9.081216671410174968e-02 1.073224267447671632e-01 9.223389490820378678e-02 3.900653809298002678e-02 -8.804356086229625511e-02 2.015527145282232716e-02 5.633856524895069356e-02 3.061587692745335737e-02 4.357587961426116763e-02 6.960759944676847555e-02 9.101013612335394354e-02 2.515365769972810472e-02 -1.072055886976990557e-01 6.030773799838143323e-02 6.490506132367415693e-02 -5.995923338449335449e-02 -4.220882491595805142e-02 -1.949546952117935193e-03 1.351948435975942366e-02 -7.512999806708900441e-02 -8.963813973073457564e-02 -8.853043663778892292e-02 3.277922848285669266e-02 9.415358749326596666e-02 8.151502049360261071e-02 -1.019308477170694990e-02 1.117633727624791629e-01 -2.476750467469714459e-02 2.648413559602091905e-02 7.790344684949179754e-02 -6.669561203612677132e-03 2.003121662826544760e-02 4.995201125194652716e-03 -7.446274401687834332e-02 -6.353586973313903041e-02 -3.208502578496214008e-02 6.605984613026361085e-02 -2.134499971765749585e-02 7.981375967639478541e-02 -9.407033626267603810e-02 5.708143249654063639e-03 -1.555626846859004334e-02 6.458847066950972049e-02 7.713191188002786747e-02 -3.920024266946194741e-02 1.091298085331266349e-01 8.595359370264613053e-02 7.773910618894594449e-02 -9.243631002780010320e-02 3.650357055255840782e-02 -8.118033913361426268e-02 -2.148257421369092687e-02 5.824637894651876757e-02 -9.204631404203821032e-02 3.008565992522189633e-02 9.364270498506611917e-03 9.824206878264493681e-02 -8.441581493852599871e-02 -1.641616318590573276e-02 -1.033099600433834836e-01 2.795782758631622580e-02 3.344710059889017401e-02 -4.565807328444856927e-02 7.804582889891981123e-02 1.107033732356880323e-02 3.417327175433304554e-02 1.699161982988744296e-02 -2.065585300217476911e-02 3.897378791300751266e-02 -7.368573331628169854e-02 1.079726057760084373e-01 4.550289633461050698e-02 -1.051180968997155046e-01 -2.496438253854897649e-02 2.060320231994126200e-02 -4.966800234810152953e-02 -6.394193038145110086e-02 9.723925172227100566e-02 -1.917313719390531870e-02 -7.765236357696238267e-02 -9.026968958774236884e-03 -8.932163624689636733e-03 1.747390074467558563e-02 6.797322940656376489e-02 5.187041822382965767e-02 6.618085647236875146e-02 -1.851596098708791979e-02 5.999414112324641390e-02 1.110113877662149556e-01 2.775498723503891027e-02 -6.923585504695466131e-02 1.993518254492413280e-02 4.396205692316092206e-02 1.702985933570634602e-02 -6.374600824597388693e-02 -8.575302176787578945e-02 9.495088383272198840e-02 -6.486569750092212316e-02 -9.539828301831386470e-02 3.221991146525861327e-02 -5.668182304216003164e-02 -1.026854512325090923e-01 -6.407759609758199859e-02 1.541539992651617084e-02
-7.036071351586675737e-02 -7.349039479516068785e-02 9.957591835746570919e-02 9.702655606432092350e-02 -8.390966638191833804e-02 1.005753314868212400e-01 -1.234586058975479031e-02 6.763468088026473868e-02 -1.731062265684305684e-02 -4.099856824529063415e-02 7.695300028350373668e-03 1.088163979730795566e-01 7.122837797830133821e-02 2.334846213750492450e-02 -7.404264495916458577e-02 5.704320216298425922e-02 3.322300399548569483e-02 1.263651861101762995e-03 8.021417980543339710e-02 -8.267678575091172433e-02 -1.322720519148375996e-02 6.279530443525843664e-02 4.413782633941223943e-02 1.127344140103808540e-01 -5.925333883837998611e-02 9.704363262744074292e-02 -6.031611678152871969e-02 -4.843425854589642268e-03 -1.107741666515718870e-01 -7.994040659945625404e-02 -5.530836783231087711e-02 2.902823269864204803e-02 -6.095202603566330507e-02 2.259454550381831753e-02 -5.261820384885149311e-03 8.521861652673692888e-02 8.739137548436980152e-02 -9.414273091956196216e-02 7.224938851378404081e-02 1.216580185283569135e-02 -3.436684332870292707e-02 1.987599231104976091e-02 -3.165416288276720613e-02 1.463774000850023849e-02 8.874321472771544428e-02 -3.751810343133755998e-02 -9.511830664643497468e-02 -5.709379359041966140e-02 7.552870821632015619e-02 3.921869134536436381e-03 4.091323999509192261e-02 -7.188753738165666596e-02 1.076848585416663034e-01 -3.463789365023284272e-02 2.698403798652063146e-02 3.524714030470380011e-02 9.501334443257075657e-02 -5.601335646472799940e-02 -4.790682708072659113e-02 2.252468478398310728e-02 -3.372378501132844431e-02 1.472702768190750286e-02 -6.177915892266717945e-02 1.114620996268891329e-01 -1.175752109308477594e-02 2.649380780094231363e-02 -6.648079327406344885e-02 -1.767648984345646102e-02 -8.236105733361888392e-02 4.582705976917138269e-02 -1.109288794286878987e-01 -5.826469908114151330e-02 -4.992765408358756929e-02 8.379362172423188149e-02 -2.572130266223600706e-02 -1.243040378066798297e-02 5.968276984321566753e-02 8.603390931533526353e-02 -1.031413493507484999e-02 -3.079589279959980483e-02 -6.997783142486173336e-02 -5.895375666531151720e-02 6.469497651226371882e-02 1.163973287846150756e-01 4.545298141866528641e-02 -7.291270223137574780e-02 -5.501180078127020784e-02 -4.177110198301010185e-02 1.629236852101065974e-02 -3.964973942584124056e-02 8.273835272061484669e-03 4.285388022344030490e-03 -1.990229556818033652e-02 -3.648416196084275365e-02 6.267267698652168040e-02 7.079897844109003802e-02 1.299166894781600412e-02 -6.070325472806749334e-02 -7.171580391172922841e-02 -5.844850131737118351e-04 -8.443751732345287919e-02 -1.166828961449803415e-02 6.243170373008490731e-02 2.285211780590642311e-02 2.941120311530714959e-02 8.478899546124249453e-02 -3.866408672851924522e-02 6.481233956533007101e-02 -7.202184308722710260e-02 4.156819218046803321e-02 -3.697943840021856304e-02 1.409657080973481316e-02 8.671754469179727975e-02 -1.009697131142278381e-01 -2.927311915138996329e-02 1.670110625866723375e-02 -8.234607683712615728e-03 3.812604664688924727e-02 6.157214751709844808e-02 2.714796276941562614e-02 3.109132529059551245e-02 -3.067385768539625940e-02 4.619668470346688371e-02 4.003310114090876878e-03 -4.539170010531189819e-02 6.659845163567802706e-02 6.179025243900161668e-02 -3.239310998054480834e-02 3.023836706592930232e-02 7.091081992028766545e-02 9.352326282137210511e-02 5.242388364105322884e-02 -8.828002162313124124e-02 -2.302090077013821748e-02 1.048165352675034384e-01 6.609562143103178689e-02 2.208146277186631354e-02 -4.893720271328157873e-02 9.122740948216054302e-02 2.871020732951254026e-02 8.281277500939279723e-02 -1.170794673495574589e-04 2.413729328442864447e-02 1.097154552700722041e-01 4.572416538514938178e-02 7.300096808997695585e-02 9.668294088291679023e-02 -1.122817172846995587e-01 5.923379433359205609e-02 -1.108135070688392176e-01 2.693994965559779603e-02 -3.901312228097086193e-02 8.063200329786290865e-02 5.098487341205967804e-02 2.259524021905423216e-02 -4.410836868504863090e-02 7.565657296524569420e-02 -4.629115973231926612e-02 -5.772472146938422560e-02 2.075256306172127904e-02 9.285242115646583083e-02 5.680152780292836712e-02 -1.057148999173479903e-01 1.015344375085493467e-01 4.179469833158454273e-02 -9.642588234378611511e-02 -8.006008674585432874e-03 -9.460413527460943828e-04 -6.213824762787668182e-02 -5.536681524816892269e-02 2.399328775092307662e-03 -1.598667715076182785e-02 3.185337883859041402e-02 8.961262931638401541e-02 -2.962328464689119312e-02 -9.662064311291837515e-02 -1.548886240191933716e-02 -3.980503344266340948e-02 8.522138930784187161e-02 7.969327802041249742e-02 1.883080905034670641e-02 -1.909271106468319115e-02 -9.563842770927126480e-02 8.476316519064289179e-02 2.643343588112823019e-03 -1.314346177084575046e-02 1.043728184007993581e-01 9.521218869507890037e-02 -5.188294502984740902e-02 8.198103157439659561e-02 9.101044706457186995e-02 -1.008488007774987899e-01 5.647026383557370716e-02 8.482331369309326075e-02 8.324147844297603849e-02 -3.061441099028471349e-02 -3.667580620179457240e-02 2.775714663459645515e-02 -7.699135825815492558e-03 -5.239501436265700529e-02 9.884409579791796074e-02 -5.668502972947775387e-02 -4.670524164064750183e-02 1.135945162208782666e-01 8.764412555899733781e-02 -4.724265904396360988e-02 9.269196755148485789e-02 8.029255274285752864e-02 6.231995362030408325e-02 -5.632521038266095903e-02 2.820703612787383782e-02 4.247971963330272188e-02 4.356016529043586077e-02 1.001193650276233360e-01 1.020865696904404984e-02 -5.916682809863933051e-02 3.345592873156544994e-03 -6.831351119449632914e-02 -8.472820740994356503e-02 6.263653815353924237e-02 5.013713446954184971e-02 5.786490447787888403e-02 4.032177107006430089e-02 -1.082440065498000981e-01 1.729078870822271449e-02 6.014335889304214117e-02 5.536145837192653352e-02 -1.170093467610688193e-02 -2.726739977472253038e-02 -3.972806872163545805e-02 8.058785307868042425e-02 -3.439728767254831426e-02 9.065226353728016162e-02 6.213593658586512997e-02 -8.253298402655696864e-02 -4.368256003434801277e-02 7.081109242700564521e-02 7.431794022680247858e-02 5.765969694400140122e-02 8.472352209215698593e-02 5.370008875168382628e-02 -4.050886634554691501e-02 9.328733676021269683e-02 -8.114519110689419334e-02 -9.062628695639061982e-02 -6.983945561617747877e-02 6.870789884940926504e-03 -2.144081486477312018e-02 1.036017790351875106e-01 -9.792505350949642917e-02
-4.943259086895655796e-03 1.446593613577277365e-02 1.082106011772128590e-01 -8.580612883194087270e-02 3.371754821945628644e-02 -2.006254194872868560e-02 -4.252620223399744548e-02 8.533575069303893368e-02 -5.041972338955336835e-02 -1.754815787308317346e-02 -1.182202755635792558e-02 6.953524939983872499e-02 4.203297669194558384e-02 -4.230792758172268603e-02 1.621213598211299414e-02 -4.719665180224563716e-02 8.301747288439999262e-02 -1.075527791136835117e-02 3.804515601235497219e-03 9.892174965729440272e-02 1.136069327708735463e-02 -1.767952643444450911e-02 8.726622160503254289e-02 3.656997902648927157e-02 7.891170112052969809e-02 8.714588106929203881e-02 7.708154277899274820e-02 8.441508557313223693e-02 3.291094626156963049e-02 3.891899622590572205e-02 -7.156436456873752072e-02 5.139306395192334148e-02 -8.649525696295622124e-02 1.031170024020261894e-01 4.101247176646350551e-02 -8.159222239628714790e-02 1.866523713108898808e-02 9.220228022489582176e-02 8.784176634329440847e-02 -9.379893287998487816e-02 -2.773502676677112953e-03 7.117644932552970316e-02 6.177596790921906916e-02 7.397592321698936990e-02 -5.700346614369223436e-02 -7.332885538922143120e-02 4.440556740164159494e-02 7.166475445511845399e-02 -5.704910301893189456e-02 3.948105683500587743e-02 -6.641560135572856238e-02 -4.115182236281496320e-02 -8.393376872907672148e-02 -4.498225197742134612e-02 1.102867740874878266e-01 1.116998100606669711e-04 -6.276086651974993602e-02 -1.018886548792312247e-01 6.213711868186146819e-02 2.878187969782684125e-02 -9.003564049280222970e-02 -3.392229262542910406e-02 1.346088670641181102e-02 -3.009754105796865267e-02 8.792205041225271966e-02 -8.617548769994889946e-02 -2.635336976896971144e-03 -2.489574541984012485e-02 4.958273185240531095e-02 -2.174690842666849103e-02 -6.503700971017503663e-02 8.156450533589643115e-02 8.747615494268518727e-03 2.573877098533575852e-02 -6.200390365620122440e-02 -4.070410814841445707e-02 -9.208243844496243058e-02 7.491346179592359156e-02 9.203609093655103213e-02 6.708179395598991290e-02 5.760275460330670921e-02 -1.571898460735779088e-02 -8.728996362768323691e-02 5.262124233879381802e-02 4.440396631614886014e-02 -1.278763410787602970e-03 1.236559427769345042e-02 2.994043890740693062e-02 4.619015645034472289e-02 9.564070029998478217e-02 -2.797599126939342984e-02 6.362994075707907593e-02 -3.025444233031352598e-02 -6.029668515207092794e-02 -5.844011700799516679e-02 2.477629284560973338e-02 8.993880473662910213e-02 -1.061971757645967240e-01 6.804608215978427688e-02 9.828969928897278441e-02 8.057211445850120946e-02 -1.004348012781094562e-01 4.176326037535531277e-02 7.066142013535107146e-03 3.656380695826250138e-02 9.174967162599666215e-02 -5.866006208865324340e-02 3.908704899494726270e-02 2.263707610775192447e-02 -2.865614921209031982e-02 -9.196994655190302015e-02 2.542521265285124787e-02 3.179184957015902813e-02 2.898171021561980060e-02 4.952552725046300425e-02 -2.776668065696758295e-02 7.772262227991262595e-02 -1.893181962983887107e-02 -3.626746582033869154e-02 8.421970462927143297e-02 5.809606187540460043e-02 -7.162761918424959129e-02 1.276829853474689734e-03 5.358681374522222818e-02 -4.328110555078015093e-02 -4.842281033111796307e-02 -4.429313455301863572e-02 7.370980781498459589e-02 8.657980848571571186e-02 5.358830100892934128e-02 -9.729786590123236378e-02 -4.500211248493612287e-02 4.286740787084481613e-02 3.521184861564718299e-02 -8.737713828783867653e-02 4.910809924353431305e-02 -1.026050417961368727e-01 -4.345908566908680826e-02 1.997682344753421921e-02 8.851354255838694840e-02 1.515951121080508397e-02 3.967180314476749514e-02 -2.749828029237615101e-02 -4.600543214490769584e-02 8.939970171475740413e-02 -4.314343194148766159e-02 9.211989240871258644e-02 -3.862202729820849584e-02 2.057431657520693985e-02 -8.752093408157503307e-02 -2.849918096377023966e-02 -1.011677886213495636e-01 -7.534612169365072221e-02 6.064129068543503559e-02 6.110930506956264302e-02 -5.847747361811230643e-02 -9.407981269756142406e-02 7.154590590197389133e-02 -8.836065218752132966e-02 5.288089092993863982e-02 9.277339388230919359e-02 8.417663382676875139e-02 8.861263247072312388e-02 -4.021490812283638749e-02 6.106308563614763069e-02 7.605523395518297425e-02 -9.766340115675714584e-02 8.058693331659841363e-02 7.047339255255628820e-02 9.266492800090037063e-02 7.276153711475560892e-02 -5.409601874435771007e-02 1.898588781509665327e-02 5.694059020438464735e-02 -9.401253577046317367e-02 4.769283805940174176e-02 -8.990622611025166078e-02 7.708737080852415269e-02 8.083888719872417417e-02 -1.399642912611034906e-02 3.132843366841393806e-02 8.324039930866912462e-02 8.011461684569251562e-02 -6.690807230414251572e-02 5.443752051988618584e-02 9.773104624990172629e-02 -5.250452155736787252e-02 4.241203711896688461e-02 5.599541888884835422e-02 8.910430040911228311e-02 5.627891159688188510e-02 -9.622671211772329883e-03 7.589024966250104871e-03 5.822976822491171545e-02 -6.245179491316544401e-02 -3.660299523319617693e-02 -7.328608551008648775e-02 8.363498600196273003e-02 8.398509200612755410e-02 -9.506620666341884796e-02 -4.564804757166365107e-02 6.450974971771529509e-02 3.247758836286822326e-02 -4.984187557601887919e-02 9.857049910123234782e-02 9.132637492568955462e-02 3.945051107507205161e-03 -8.165016033891937808e-02 5.687102597560476230e-02 8.149287063584563506e-02 -5.151822393755967067e-02 3.444836731629510873e-02 6.988942365457959105e-02 5.103541786079611453e-02 -1.922349707318193879e-02 -2.506232949847318758e-02 9.584164250248393413e-02 -7.064750676977700483e-02 -9.245208469351512415e-02 4.415772236536940482e-02 -5.268082484292986242e-03 -8.598724586825978733e-02 -1.242083479952488939e-02 -4.865237644662570582e-02 6.664212184151786789e-02 6.642981327282171389e-02 -4.342425523485005101e-02 -4.923943313857745419e-02 -2.213820062568614550e-02 -8.249184762453719288e-02 6.670111169656914307e-02 -6.152625646452222069e-02 3.726236472721685539e-02 4.121773353988621158e-02 -1.019321862387674305e-01 6.463701608946205435e-02 -3.861859377960838013e-03 -8.965790247525588785e-02 2.198499539570935787e-02 -9.327215633882432466e-02 -5.619664487503612041e-03 4.193615704191229476e-02 -8.924786105318936735e-02 -7.317325172375924690e-03 -1.049156895151734659e-01 -1.785681946511083473e-02 -1.406419675914201764e-02 5.917973221289418717e-02 -6.886264909341197060e-02 6.721655435033783987e-02
-6.726025823284810523e-02 -3.215209169195398092e-02 7.433764868983357144e-02 2.226762976455672755e-02 8.776124099056181738e-02 -2.862848765393818506e-03 -5.334724117367879714e-02 2.206616371544755512e-02 -6.859510420348227666e-02 7.274670744666270061e-02 6.859458756925626566e-02 -4.749475132670395033e-02 -1.712571880401484933e-02 5.332504849910336964e-02 -8.486957332181821467e-02 9.684964118041348990e-02 3.093332236436043339e-02 -3.982359293336652090e-02 6.051653455116502017e-02 -7.620450041130281960e-02 -6.665084058932767286e-02 -2.188257948952854887e-02 -9.768997126501553774e-02 -4.958535056711996930e-02 -7.018397690158634239e-02 -1.665397386349503489e-02 -3.009819578942479756e-02 -4.721911399282177624e-02 -1.963950928917065214e-02 1.454247224533238014e-02 -9.310138467848380617e-02 -4.589500940199970486e-02 2.261570216949309459e-02 2.081007056817986423e-02 -2.892790942016083833e-02 1.209539067572561882e-02 7.508572666756119229e-02 5.255047807428172429e-02 3.906629139808318572e-03 -3.106979827236863723e-02 -6.644398739289078537e-02 -2.622529423839406459e-02 -7.352074658505933225e-02 2.572140499772163861e-03 7.317814920108264842e-02 -5.581146074053894290e-02 5.780216656352079457e-02 4.643505015841292716e-02 -2.616594108864672349e-04 -1.081668437466929006e-01 5.009120102019967713e-02 -9.348096863885747843e-02 3.754090433310278835e-02 4.699844732947788817e-02 4.965763500472963887e-02 -1.140369898130727810e-01 -5.939224214092343745e-02 -6.532940766926852161e-02 4.357355643706765924e-02 -8.333780370345053590e-02 -8.552747668295607175e-02 3.644775221401628379e-02 6.128571472693871217e-03 -4.039900470651954650e-02 -7.104577179159760059e-02 8.556524103879890875e-02 -7.903352841277168361e-02 -1.902412793094939575e-02 -6.835085077285055211e-02 -1.013901191072194008e-01 1.040063423479206800e-01 8.085635214640511659e-02 -4.594385983731917589e-02 5.429507025254513147e-02 7.531839281439037248e-02 7.848454723252504261e-02 3.881903678784601186e-02 -4.720488754781381607e-02 5.071387701211178128e-02 8.462010810993307597e-02 8.515065417243613405e-03 -4.549260311697814196e-02 8.568469878848555821e-02 2.021159832065912154e-02 8.684623487248081808e-02 -8.223052725846866085e-02 2.489865124833145343e-02 -1.493951096870292129e-02 8.656852499704145720e-02 2.090961269277611875e-02 -7.134854655928060674e-02 4.945819196251381722e-02 2.341633352692154557e-02 2.597501619131704909e-02 -3.071927305876323740e-03 8.908258716037957547e-02 6.804464733655404829e-02 8.474711485792052468e-02 -8.092635092341968206e-02 -8.172328775673172452e-02 2.561503678017081412e-02 1.251573713547624034e-01 4.050222173511070119e-03 2.753914144978544462e-03 -8.449230519291629771e-02 -9.123766674888644790e-02 -4.742343854901186900e-02 -1.110686705759838210e-03 8.562930266185259098e-02 -1.065576495537732676e-01 -1.497663415818408644e-02 -9.441512254603601217e-02 -4.129399318852340107e-03 6.422926767770768819e-02 1.807619055520243503e-02 9.871792118877460720e-02 8.162227859740329994e-02 -9.231817289162275175e-02 -7.096896683586945143e-02 1.599717628321541477e-02 7.436695919747103589e-02 1.172289713011705620e-01 2.845692406524535575e-02 6.577675546149168440e-02 8.613611173390146869e-02 -2.093020782162098581e-02 -1.062974368991515817e-01 5.628290803937364278e-02 -5.928689771653845864e-02 -3.068637720943494934e-06 -7.814834030967046652e-02 -5.359577448063029825e-02 -7.668364066598136290e-03 -6.624717976592751911e-02 -6.574031288792783756e-02 -3.381500431175415988e-02 3.659103091711808642e-02 -7.576744638182993097e-02 1.819041941672146917e-02 -6.227999327338382823e-02 8.018100108079156962e-02 -5.298137462254894764e-02 2.117849170711614756e-02 7.419885799973675866e-02 8.255498583399935308e-02 -5.008100076164057057e-02 6.667260906300689904e-02 -4.675867533221074457e-02 6.989922124659188329e-02 -6.463978442057692619e-02 3.688259497776501944e-02 -6.612104169471079429e-02 -1.091428290068167106e-01 -2.110108311980153639e-02 -9.251666185396030528e-02 -6.415170750763712904e-02 4.483437838201216608e-02 -9.004286434337395451e-02 1.489109932957700076e-02 8.021329114413512651e-02 -5.718781888722546114e-02 5.347637144461883651e-02 7.246293646544922640e-02 -1.007549361962546963e-01 4.989648354630856625e-02 3.630720092002723276e-02 4.521154423061448518e-02 -5.736294373083256765e-02 7.936773849626500843e-02 -5.628346901664033758e-02 -1.059792956361355204e-01 -5.783070619729545336e-02 8.666453227253664848e-02 -5.539752530082683174e-02 -5.311511390439931091e-02 -8.093820243665096614e-02 -5.213107846397713185e-02 -9.626365067403780396e-02 -7.430216329956905452e-02 -4.095673008286602329e-02 -5.334943804454071042e-02 7.807606627445354275e-03 8.085617054293064987e-02 1.102053406485820897e-01 8.807013353800442756e-02 7.250598504718043513e-02 -1.666999813420655396e-02 -1.099431398961462775e-01 1.192857358971162324e-01 5.904480738715853910e-02 -6.589488469781175015e-03 -9.653940903411313557e-02 -4.938989013309845466e-02 5.399519119425538229e-03 -1.037450669294552597e-02 4.595057946600183962e-02 3.187854144871311857e-02 -1.286888338134162257e-02 1.806584354825647651e-02 1.023556667747511639e-01 2.907892427541059616e-02 -5.333967947826132039e-02 9.928851435759591948e-02 4.835608533799662379e-02 -1.104029516741663886e-01 8.254479185957730447e-02 7.929670151766467223e-02 7.853646722476716191e-02 -3.568749451334365247e-02 1.164721016652578607e-02 -1.278125165233585242e-04 -9.097582080518133718e-02 -1.010678942918044956e-02 -2.422713138444698364e-02 7.337531600415715671e-02 1.982710909510417008e-02 -6.398617218879332214e-02 -7.634408067176129409e-02 -4.436025900991817303e-04 2.689891106278208266e-02 -2.678069052773211778e-02 -5.512587194415380712e-03 -1.302274098489905781e-02 1.132793478035870327e-01 1.003014240406817775e-01 -2.560219592855998965e-03 -3.038666459762452352e-02 -4.042309144656942854e-02 2.130598312459790894e-02 -2.990721105802639918e-02 4.509763618346963182e-02 7.623263809397078095e-02 -4.382446769917183738e-03 -2.168345543379775198e-02 1.376099060429640877e-03 4.268886470915376347e-02 9.958449059789317714e-02 7.289150408426773621e-03 2.453751710152773588e-02 -5.248839962884601501e-02 8.526584755714905484e-02 -5.427685011290672712e-02 5.473593392631029980e-02 -1.012389419291040288e-01 -9.762069327326203250e-02 7.584898636259482241e-02 8.790867694709811331e-02 3.884763905851262855e-02 1.297499595705587684e-02 8.993778740557201168e-02
-9.232263129650664091e-02 -1.256973757054983057e-02 -3.819442974958917048e-02 2.281901301372093321e-02 5.968022960645665356e-03 9.060908127786231059e-02 8.896395932246432825e-02 -3.991937898156156656e-02 5.139935884368077024e-02 -7.266346821439426118e-02 -2.723611195251609066e-02 6.332141546991873482e-02 1.648651207566755733e-02 2.224776868933017390e-02 -8.120495502688260259e-02 3.512598515524086723e-02 6.106158019371142609e-02 2.794555436712936602e-02 -3.612972167639217497e-02 -3.296720557256144213e-02 -2.173689634088501674e-02 1.039599644892760105e-01 4.316672003569153176e-02 7.508407735506847369e-02 -3.577538061078298914e-02 4.484958998821481080e-02 -2.502251084570700917e-02 -2.518827547822372059e-02 -1.368700218688324345e-02 8.795534888698236520e-02 8.696919602094380086e-02 -7.556623037128236409e-02 7.894019175393106325e-02 -1.022704185203265614e-01 -3.488480347548548327e-02 6.445400069063546289e-02 -8.727882435994858967e-02 -2.514882886292352585e-02 6.756646894829840266e-04 5.013078672823083337e-02 6.510526019277415588e-02 6.911100831300870384e-02 -1.540231868912039087e-02 7.006702897702364596e-02 -2.843759612250266328e-02 7.049494441745222939e-02 7.092838658158830134e-02 -8.692525524301139561e-02 5.532384256403066747e-02 5.065382683736926323e-02 -2.271084146916454299e-02 -7.694766055727871035e-02 -1.142685685759759207e-01 2.948797818706044155e-02 5.132583172163097604e-03 -1.197336752684765443e-03 -2.820261460381458252e-02 -6.294871126793387395e-02 -7.084998990923205286e-02 -3.874299538756569711e-02 1.023314054517240473e-01 7.396421562783543624e-02 -9.397458252367450748e-03 -8.507228046091425133e-02 4.369196191909366367e-02 3.683262626613756363e-02 -5.376055188397078216e-02 2.659554401777709451e-02 6.403822644454791602e-02 -9.650924428721990855e-02 -4.114938179139216584e-02 3.196541973794730929e-02 -3.246951403958575622e-02 -6.710718115651914673e-02 -6.993005872585356109e-02 -3.797939070551735463e-02 3.568200707300498570e-02 8.691430485406252682e-02 -3.599430053676298813e-02 -7.844895502477780558e-02 -3.150496018745451571e-02 -1.010328637351520231e-01 -4.614024038180056936e-02 -3.821181219772337712e-02 1.980024210184871264e-02 -1.017863566458209884e-01 2.638143522577163225e-02 8.439144949846494326e-02 -2.327169180000095844e-02 4.027999552088155910e-02 -8.553970336203982339e-03 8.338692887235740758e-02 1.012919225523545436e-01 -2.199368950537658809e-02 -1.153161693229093343e-01 3.148685397191161583e-02 1.134881217010966399e-03 -6.181445355053856450e-02 1.113400056360024371e-01 9.127541097937449943e-02 8.367477953484547815e-02 8.839914929029364654e-02 -7.023788861615516688e-02 1.725284988040685571e-02 -6.690963363355459381e-02 1.019487806698778504e-01 -3.090223325128218027e-02 8.869871470705076311e-02 -5.527817587711676001e-02 -9.013105643042652881e-02 7.948100247354507319e-02 -4.680486060571574514e-02 -1.020543501897729216e-01 -4.891150335697864310e-02 -3.589638056521920334e-02 4.580839290636896932e-02 -8.310543924094267176e-02 -5.720586388297089347e-02 -6.737766224142714699e-02 -7.521587834266277306e-02 -8.995963239883952856e-02 -8.466633685672164678e-02 -1.129211591360874400e-01 -6.175129805358674402e-03 -2.833695158412113946e-03 5.679615383926886474e-02 -1.789029085855322124e-02 6.569817854048329298e-02 -9.270538534523524443e-02 2.839869086122893613e-02 -8.093517776906677952e-02 8.472141791057288124e-03 4.673985610234131227e-02 6.078548494760306620e-02 1.641867800446744630e-02 -1.086560085277880894e-01 6.326155208265514529e-02 2.142306171632422582e-02 -2.523795439153187457e-03 -4.706768388605687969e-02 -1.038853808048948585e-01 -3.538698800364535602e-02 -3.668771845228410017e-02 -8.913667970630374804e-02 -6.307947187919694942e-02 6.678816399150193373e-02 6.441513368636743453e-02 -4.886515856414103826e-02 8.964687970139904871e-02 4.943954064363466350e-02 7.327991466634904694e-02 -4.164623707000052188e-02 -1.122910624424401788e-01 3.860724238550246323e-02 -5.306229374092658047e-02 1.102159923745250035e-02 7.118907150319885024e-02 -6.440835931766777933e-02 -1.027549538003490193e-01 9.085552282150734238e-02 3.279980917588031647e-02 5.027977387048241514e-02 6.125953717448096546e-03 -1.016546885910209058e-01 -4.656526766198675060e-02 -8.364800407526258585e-02 9.648254967915266544e-02 -6.006203761006945890e-02 6.927565765448159829e-02 -6.226755230131149864e-03 -9.997085178219952684e-02 -7.522753242889970715e-02 5.350479106327433315e-02 -3.913780533330711575e-02 6.032173283073523351e-02 -3.097619091640089681e-02 7.875860354079315673e-02 8.261014889602563693e-02 -2.799421963318010631e-02 1.863841770716619106e-02 -5.659378869345615959e-03 2.415229017854205601e-02 -9.400435744377322322e-02 3.879118948794056665e-02 4.743301972139392364e-02 1.208908605855164298e-01 6.986110720332602830e-03 -5.780866271451972835e-03 1.920580984815100506e-02 2.509744376269485572e-02 8.826004629568960647e-02 6.227439143647808470e-03 -6.357683265519002702e-02 2.187296566979136589e-02 8.313296316363052996e-02 -4.402763475824641309e-02 -5.815224624677742260e-02 -2.491813503515001929e-02 -2.100071602059525727e-02 -1.861063150107861164e-02 6.146695996909725540e-02 3.736240020632986686e-05 -1.717596005180799246e-02 9.381751923704548246e-02 -4.209775225085734401e-02 5.297366253152075224e-03 -1.068320847315473304e-01 4.320769975672268670e-02 6.351379041692949146e-02 -9.508721087244863604e-03 -1.836791386045020374e-02 9.700499015989928753e-02 2.035200286218089016e-02 8.561832172661568152e-02 -8.048930921262374694e-02 -2.934884007951234913e-02 3.768933411434189154e-03 9.063519499794567280e-02 8.598560592657467083e-02 8.875626746375450682e-02 -7.647559825917013554e-02 -1.042283366542687134e-01 -1.893729228597798575e-02 2.428360542519801546e-02 -3.882040372807012141e-02 -7.030820068485735264e-02 -9.448894040155605967e-02 4.691229926478170109e-02 -8.527508140682014959e-02 4.110258717070262857e-02 5.024506524149187359e-04 -4.408331163786211732e-03 1.008836701066559705e-01 8.560577930133526914e-02 -1.032043262158308626e-02 -8.260196470592963414e-02 -5.294099381992563302e-02 7.807706140691707611e-03 -2.506021592911402557e-02 -1.115112213147119724e-01 7.606898628349607894e-02 9.713744109066971277e-02 -1.112748777439493686e-01 9.674326291432333580e-02 -8.147263724663864060e-02 1.526358172445551643e-02 2.615180017170497945e-02 -9.577446762172001082e-02 6.421390903748923698e-03 -2.853498393395382041e-02
4.094726407970143700e-02 2.422292056635821228e-02 -1.077202976021229136e-02 -2.376258700652067804e-02 -8.507784633287400478e-02 8.147000452230114542e-02 -9.858870126392023370e-02 6.291558335342049835e-02 -5.323236943994756609e-02 -5.884725277229749946e-02 -5.981914484714571933e-02 7.486006061353518704e-02 -1.145885114940476679e-01 2.500570116806416152e-02 2.233873909192607855e-03 9.921807898835229012e-02 -1.792752739033977999e-05 9.821672160429789633e-02 -6.266941288076571803e-02 -5.056780178812328441e-02 -4.264366154643482731e-02 4.608241915354653086e-03 6.589290715880399829e-02 5.974582498997463298e-02 9.226512724403544696e-02 2.649884619517916054e-03 5.491500815758510595e-02 1.074655987408655172e-01 3.249007062983098708e-03 9.606393150535894043e-02 3.330187836766172749e-02 1.046202134265866585e-01 8.918972510559991518e-02 -1.627305445610702228e-02 -1.013622563319916264e-01 6.742925756634675361e-02 -8.318656680212527244e-02 1.075237171490714960e-01 6.022582353907079966e-02 6.956994027490685795e-02 -2.723454826487748184e-02 -4.335242037187509584e-03 -8.769781973148625676e-02 4.808789708214990938e-02 6.622955545847704351e-02 5.614757317611049348e-02 -8.020328465832463061e-02 1.041470362642549774e-01 -6.340291667580894019e-02 -1.648822241198125843e-02 2.849011592270973142e-02 -2.538489609508583905e-02 -4.791059264464373607e-02 1.159173112770316150e-02 8.759016307562669801e-02 -1.256206248374461786e-02 -1.503519520932672555e-02 6.346714167840737664e-02 3.869732441266391515e-02 1.856259718910149153e-02 -5.709150010659927443e-02 -7.891236494480766139e-02 -9.975101021252508193e-02 1.521968752440002945e-02 -9.444509659651111055e-02 -5.061362331052272900e-02 -2.119752673084537679e-03 4.361580685706900606e-02 7.257049989951126767e-02 3.273479772297356594e-02 8.888998769368684771e-02 -3.192228548184634224e-02 -1.153274165529405426e-02 -6.499463216738313523e-03 -4.079786569125988527e-02 3.940908417531380215e-02 -9.205043378395229292e-02 -1.103564550737148736e-01 -8.745032709545756677e-02 -1.183327419806622701e-03 8.832382282669869189e-02 1.157384790739916652e-01 -7.460482107259587548e-02 5.723717931978106145e-04 4.693290047571992488e-03 6.145997478402962649e-02 6.685762804570127837e-02 1.509418351103770754e-02 -3.285931115599238783e-02 8.132153396076174934e-02 -4.547664941356627244e-02 4.086559424489931078e-03 2.285225730586569817e-02 3.375428872793943824e-02 -4.003317617911737736e-02 -1.415424224730317537e-02 -1.201054049889586084e-01 -9.328153999593861989e-02 5.739149512477656478e-02 -5.020803013183357255e-02 3.196951014467023372e-02 -5.124039721372247030e-02 8.510424125810164830e-02 7.010810374405275491e-02 -7.991063452714015913e-02 6.656832005513019235e-02 -5.369457992905576210e-02 5.112859605371583571e-02 5.931670326604635696e-02 4.399295772969787771e-02 3.787561295156620378e-02 -6.709701901141008375e-03 6.536505425526885349e-02 -6.335317465499244738e-02 9.301575450193017014e-02 2.924920651021085689e-03 1.106617078217578543e-01 -7.714630563479502046e-02 1.127328657061184708e-01 1.904766018103806226e-03 4.188423810882443282e-02 6.261591842745121983e-02 -5.143509630583867343e-02 9.461846865326443978e-02 -9.849560448199257134e-02 -4.487760423121284203e-02 2.407330969864408809e-02 -5.493210688494493815e-02 5.430184096619953410e-02 7.445835211275729504e-02 9.457269295895608108e-02 -4.379349502581616344e-03 9.047255529489203751e-02 -2.693790363815991643e-02 -6.444149675673938038e-02 1.121772985921076216e-01 3.535670077455805443e-02 -8.474576588596131888e-02 -3.698519643154044023e-02 1.028982036713046166e-01 -2.106340527561788994e-02 6.479727746600797041e-03 -8.659788837568491160e-02 1.024370296189709845e-01 -6.390580976677942560e-02 4.550911976185296332e-02 2.015489518315066297e-03 -5.410359828379459474e-02 -2.236064006769116277e-02 -2.988832964561220253e-03 -2.528458293665790738e-02 1.008414299253572316e-01 -7.667219656793851368e-02 -1.071800491447083559e-01 -9.601902204143550335e-02 -6.434167383843306109e-02 2.364969950188969272e-02 5.247229251164971242e-02 -1.781287314900012464e-02 1.134542871400828247e-02 6.127249153772643814e-02 -1.097680345973712709e-02 -9.082620098733554248e-02 -7.908229467827289361e-02 -5.969403170474043424e-02 -2.288101524018973723e-02 9.331180897609954450e-02 -6.659332902724024450e-02 6.001667646677471407e-02 1.014255994844499575e-01 -1.003357344072914603e-01 -2.517888376285416091e-02 4.462066857889369215e-02 6.280789778828817227e-02 9.233315739453784587e-02 2.915442839376579821e-03 6.877867906940944576e-02 -3.985947219199618280e-02 9.625516418167850974e-02 8.243334570942818795e-02 1.433706002234489373e-04 -6.579574277610467092e-03 4.655944761304368212e-02 4.569726924843522942e-02 -5.436220042578286671e-02 -1.969302966476464689e-02 8.779821428613304723e-03 -1.692148630427097594e-02 7.310594583106773403e-02 7.190740371624489147e-02 -1.162827493392642325e-01 -5.267969791669464309e-03 3.133911281420063868e-04 -1.177350159617802650e-01 7.495777766308697743e-02 3.306197831279411581e-02 -3.583923343368260878e-02 4.894018332695647400e-02 -8.081789029542493785e-02 8.142485924207379377e-02 7.847495167153971385e-02 -3.770876072934938733e-02 2.289767045899999270e-02 6.828863996171367912e-02 -8.906699341705881512e-02 -6.065176327621948915e-02 9.444785368736120876e-04 -7.045481372367651610e-03 7.330398381127717355e-02 -5.296405618188861769e-02 1.125222267458475395e-01 9.087842474444490781e-02 9.040601294246106145e-02 -4.962358734181925024e-02 1.037929978432052536e-01 -4.727317371921544581e-02 -7.370858274805075494e-02 -3.862635335157126731e-02 8.848832383306561022e-02 -2.780022032882045052e-02 -5.073248408838528650e-02 -3.813839729088781133e-02 6.228597159431309427e-02 -3.874161649878249403e-02 1.124522659578123043e-02 1.739194390975600316e-02 -8.351030076050527592e-03 5.990580914094528059e-02 -6.217928386359972831e-02 -9.084931982785980631e-02 4.032685103416549025e-03 -3.510375948088988868e-02 -8.984758274590104801e-03 -5.820355269006154131e-02 6.257526621705157555e-02 -5.739918500756339276e-02 -7.074329280171778866e-02 1.799889113506433075e-02 -2.346832383060634686e-02 -3.100595752284361975e-02 -6.595959907436099723e-02 -6.331342704311823666e-02 1.794186493522808429e-02 -7.754237208542698323e-02 1.484287335251347449e-02 -2.469295805855912726e-02 -7.872753146488663256e-02 3.882933967232986977e-02 3.429253410795975177e-02 1.032304113101161075e-01
3.516902441987151962e-02 9.405612251587526507e-02 -7.235175653355198355e-02 6.131442400597756498e-02 4.802279994427539889e-03 1.173329814976689514e-03 7.291905789877037303e-02 7.576238012196533089e-02 -1.172630990154624464e-01 -4.267302223929918953e-02 -6.152120863675276247e-02 8.806403677503434058e-02 8.558143657476386529e-03 3.378260525850901308e-02 -9.740145258328490596e-02 6.397059937120940822e-03 -8.438632940433517249e-02 -2.481762349242938592e-02 -7.282995414834927961e-02 5.706533868318935943e-02 -1.285629197551592384e-02 7.655482549230446798e-02 8.788770487506833429e-02 -1.061863628896092121e-01 -1.144733115856163969e-01 -1.188606892791375241e-01 -7.208416556893101901e-02 -1.019571613772615459e-01 -2.141336541271574717e-02 6.616749320101072973e-02 1.823136163153360467e-02 5.111950335281731719e-03 -2.000508156467163332e-02 9.253851994549733284e-02 -3.835017092591103821e-02 5.853761132262260032e-03 -1.141052437189579022e-01 -3.961980600731133950e-02 -5.012805758787579336e-02 3.904498867745892499e-02 2.779215627786711315e-02 6.808507961010709653e-02 1.146586160903188649e-02 2.148224136935993414e-02 4.542799532926296291e-02 1.136699452998316331e-02 4.040475287555139391e-03 -8.661461353384955486e-02 5.812315698623689297e-02 -6.225390202375446352e-02 8.745716561756763929e-02 1.073774962658539528e-01 2.482260657560427658e-02 -8.850561041030700904e-02 -3.337036712170041858e-02 8.878640778559145075e-02 -7.018862671631320715e-02 -3.577305176157059841e-02 -1.171394755630476847e-01 -6.007831428167462184e-02 5.804703478420605856e-02 -4.934812663735682614e-02 2.822119161320116656e-02 -6.450859348793146208e-02 -7.002109326813647783e-02 -3.807333278518267028e-02 2.681470176918462900e-02 3.589283844387539113e-02 -8.603450895076573957e-02 6.838038065941655363e-02 -3.631271095307320868e-02 4.974315678399196528e-02 -2.558490219222935881e-03 4.084796867660960007e-02 -5.964387960145595136e-02 -4.202366688613486806e-02 -3.331706697132928024e-02 2.540837976588643590e-02 -7.874826499284816317e-02 2.967703821504593005e-03 9.860004481733192216e-02 3.677221594598529403e-02 1.027317915495643968e-01 -8.762568489451653952e-02 3.940055458924444920e-02 -2.641974104223740807e-02 2.181633798680358144e-02 -5.708745220416311383e-02 6.358858398111090493e-02 -1.512107995298187652e-02 -4.254720219713147705e-02 -3.191496388319335631e-02 1.130781723614672357e-01 3.388922670612685983e-02 3.263414368405335997e-02 -3.465599543498797813e-02 6.685611455306821049e-02 -3.377384617862160682e-02 7.265692187586600403e-02 4.650951410089407267e-02 8.606441540756381778e-03 5.736884398863715401e-02 -9.407648090165388402e-03 -4.288946307617255704e-02 6.455560374597115424e-03 -1.104605420170320512e-01 -3.476919829323422972e-02 -1.036822321426944526e-01 -2.689288179792606245e-02 -1.601659318366309079e-02 5.801163548774332379e-02 2.954118035716377100e-02 1.704733882822294724e-02 4.048900298683909271e-02 -5.166195142998584316e-02 -1.175352007012497174e-02 8.885601794411578103e-02 -1.445268082980849522e-02 -2.207681322057356704e-02 -1.565136861124035534e-03 7.426369289958549558e-02 -8.431532263406035788e-02 -8.626677774704004376e-02 -9.249047973827975722e-02 -1.519185298153714545e-02 1.999675591109353542e-02 -3.422348597076845661e-02 -6.702532307532579892e-02 -2.089751755265565475e-02 7.102165614348592004e-02 1.021601424321939428e-01 5.124471643222375944e-02 -2.560439589256611331e-02 4.815769360665209109e-02 1.952673550188496060e-02 9.691883570493634026e-02 1.061981778205611654e-01 -1.023065023143457375e-01 -5.981635401550547404e-02 7.176580249271008460e-02 -5.624607396812400864e-03 -2.580365209226496634e-02 -1.234801553390407758e-02 -7.365217267773881485e-03 4.633896991724675840e-02 -1.021745368238338864e-01 -4.458980376071053353e-02 -1.802852947549535637e-02 -5.291995808656743683e-02 -5.388176130975091266e-02 3.544066148368242575e-02 -6.275326275227058326e-02 3.304591356887666420e-02 -1.103455904173409746e-01 4.650923939175298505e-02 -7.062156251463713730e-02 2.863905325249434947e-02 -1.105809245346915659e-01 -3.553009584131261445e-02 1.893981544665095801e-02 8.710566525787294401e-02 -7.771904497915781140e-02 9.463582343152038279e-02 7.834749622227507593e-02 1.043303230650347302e-01 -1.330550664271209771e-01 1.858671393659845628e-02 -1.318951407366862616e-01 -6.849610069298171788e-02 -2.251024151108566712e-02 -1.853164299322238029e-02 3.940776858605484628e-02 7.092393834236164485e-02 6.193914238303743769e-02 -6.540304702685521832e-02 3.595619807619550301e-02 -1.022299839601976679e-01 -8.861669092491362976e-02 5.414996674560997036e-02 3.090316012387847242e-02 -1.779067688436772668e-02 2.020467121275188425e-03 1.117409146297752703e-01 -9.805930153327892251e-02 -1.574921149410331289e-02 9.246467456363013926e-02 7.593925129619914782e-02 4.762433442495855179e-02 -8.570034739663758006e-03 -2.252057935505879377e-02 -1.386523440428959544e-02 -9.002519128909512725e-02 -2.503865229430625103e-02 -1.153738952124207240e-01 -1.266644506229935288e-03 -2.436578254093359208e-02 5.249241659377552882e-02 7.947823164956105413e-02 -3.540343023840319958e-02 1.114511632138646957e-01 -8.304201349164508361e-02 -1.052378671205074674e-03 8.853681056816628536e-02 -5.210703127951466646e-02 2.340117528214730874e-02 8.013733273671257151e-02 -1.531379877416749226e-02 -4.996432438282149419e-02 5.222554716084214926e-02 8.368681555169973918e-02 -7.078996137333928851e-02 -2.315924156916055951e-02 -8.249119437877053262e-02 -3.945099038289140436e-02 -2.928999137711945158e-02 -1.149094647512552969e-01 -5.838917408884276156e-02 -4.289861679806139527e-02 -2.467748678291679584e-02 -8.141676734257013298e-03 -1.884318961680443022e-02 -8.653377796086107743e-02 2.909001358603622786e-02 -6.616774780616012375e-02 6.346557148828023409e-02 5.861172879831769156e-02 5.706804005102266569e-02 -5.758580000185851283e-02 -4.985954594970227333e-02 1.074081739338721975e-01 5.209494954277955198e-02 -2.418063939478474339e-02 -2.778177976645073224e-02 -6.670317055858838995e-02 -3.454284627618459808e-02 3.999436831810019438e-02 -3.369631238675342005e-02 -6.836986909127781842e-02 3.849840986176605862e-02 -9.467623064843605496e-02 -9.787616719320739456e-02 2.927902084911777891e-02 -9.772240145607373474e-02 4.929662618183318357e-03 7.618753808761554065e-03 -9.091629171678518306e-02 9.410893754014125479e-02 -1.402948349736827249e-01 -3.277841979293608099e-02 -2.633082672170844116e-02
-1.029551501349724174e-01 9.138797236208461017e-02 -7.896111078847373177e-02 -7.229343687417852382e-02 -7.133959926172010746e-02 1.625997504327700641e-02 2.203190209967461136e-02 8.879625968593571339e-02 6.051616180070421708e-02 -1.081433988241986381e-02 -1.029785602828260371e-01 8.141280149616078599e-02 -6.851316140035285107e-02 -5.267600816167125610e-02 8.137148194093538067e-02 -2.380077073414542388e-02 1.205446865192962291e-01 -3.939449445425850099e-02 3.957136871594005290e-02 9.244272338518257082e-02 -9.569356692789042496e-02 -8.469934595938073685e-02 9.378179468196207180e-02 6.816237630003901815e-02 -5.055634589963274583e-02 3.264057312377067338e-02 -7.500568633937061691e-02 -6.834538959484358356e-02 5.616404901859588933e-02 -1.011243169506736150e-01 7.935269662237530441e-02 5.507615843827299261e-03 5.723860719486394827e-02 -3.164473238522431519e-03 -2.199993967273101980e-02 1.039423700709278392e-01 4.286507185208324883e-02 -5.023770732314617599e-02 -5.970097667409990372e-02 -9.963500899148503009e-02 7.396992850024447508e-02 -6.286780282799607489e-02 5.849204404042359674e-03 9.067654073380471483e-03 4.584178009274363780e-02 -3.335223516071881417e-02 9.833831147475745327e-02 -8.505388434737773395e-02 -1.593527450953381025e-02 -3.712837820197044045e-03 -4.760164167383321848e-02 -8.396199410051000123e-02 -8.615248529291743076e-03 6.993986004873374573e-02 3.098114838193669757e-02 6.068217701156292110e-02 -7.404512452071140838e-02 8.352969161874614426e-03 9.892720462084288180e-02 -3.045172767575716598e-03 8.774901748415400715e-03 6.885587154060719695e-02 5.434371076196755843e-03 -6.934856726448000372e-03 -6.120750617835439555e-02 -4.028096008329122568e-02 -4.025608535871130073e-02 8.485423392786577146e-02 9.570485617201645798e-03 3.866022997953905138e-02 -1.034407260128137607e-01 -9.813039795373243446e-02 -3.615590701808753249e-02 -5.902279691101700726e-02 -9.711919877366768927e-02 -4.161683398723297483e-02 -6.008276229262012047e-02 -8.670399308396133098e-02 -8.183825425466785541e-02 5.270978362210705648e-02 6.028146373037877176e-02 -2.337704056697127025e-02 -1.141627487190665508e-03 -8.264719622444705038e-02 5.607883054758978914e-02 -7.827325076874919185e-02 -3.751515887140986077e-02 4.161954486892152638e-02 -8.162712138837496800e-02 -4.323874732897388731e-03 5.927813874161648455e-02 3.901869043433449369e-02 -7.064956282934789500e-02 3.101019899969152671e-02 -8.151579191433727667e-02 -5.969578145907848687e-02 -1.391511318041828774e-03 -9.905995912213835797e-02 -1.053812768299474817e-01 -6.378329039807262291e-02 -8.308357196830086500e-02 4.198941835307906656e-02 -7.802562320592897060e-02 6.469315495096623903e-02 -6.071190101194949562e-02 1.932910853570944665e-02 -4.709857024236884654e-02 -7.779379374206688014e-02 2.871153654373535813e-02 2.056769185801809660e-02 -6.014394594831142665e-02 -7.661034863803614647e-02 1.158574311347927016e-02 -1.076852186633570768e-02 2.692966193144802345e-02 -5.279513895110476279e-02 -4.568187442967899803e-02 -9.745385601705662537e-02 -5.257338787801320995e-02 -8.114302112489436836e-02 7.559464789595553291e-02 -2.372965364517405293e-03 -1.187831542118204797e-02 3.233704174052671326e-02 3.520113527720495489e-02 9.583757840854689736e-02 -4.437379291035745132e-02 -3.236444428302974463e-02 -4.375267245054098586e-02 -9.684462212032289574e-02 6.148426016552955425e-02 9.883728724376206198e-02 -8.526347710921071410e-02 9.997553399550800080e-02 -3.274409908557505966e-02 4.543751163365403190e-02 7.420801665881465725e-02 -9.562588371732022585e-02 5.981370646913859029e-03 4.461135229534843316e-02 3.018459254145064181e-03 -7.791758049196066682e-03 5.580869695438643585e-02 -8.992969681590348707e-02 1.895529793092682810e-02 -7.022517719965105931e-02 4.670848620655096428e-02 -1.021634794368036780e-01 -3.241092192101130420e-02 3.735623575787892087e-02 3.413467094384397757e-03 -2.836368764109763879e-02 1.729843392615846437e-02 1.104157863940488510e-01 2.817732251959580506e-02 6.636584317503595176e-02 6.737113703172763375e-03 -5.573695222873837479e-02 9.512346190431185400e-02 -3.531465142098337562e-02 6.906370998374929127e-02 -7.020023459975954783e-02 -1.117418265149528744e-01 -5.900804600145886925e-03 -8.462550829460598056e-02 1.020704234254306980e-01 -5.814286136091523227e-02 6.825951960812862152e-02 8.511251829943916603e-02 6.870729005367903763e-02 7.026052955218435592e-02 2.039505100842219781e-02 -5.607306064929715173e-02 -6.153292569393183087e-02 -9.696762563863921963e-03 -3.813371532652982954e-02 -1.003589685066664794e-01 7.484580016027318761e-02 6.051879555135458721e-02 2.207879646440952942e-02 -9.783687367516334665e-02 4.365201936716150283e-02 2.610556373401026753e-02 1.072189811767132878e-01 4.753645509226507582e-02 -1.075470595042101775e-02 5.868601678786349030e-02 -5.997560132538839323e-02 -3.020786595244832201e-02 -9.250553263240487989e-02 -8.556361105484772134e-02 -4.048310703911240510e-02 2.364148242003714928e-02 -5.016212551143608978e-02 -1.394564954706910970e-02 4.193916213028670015e-02 9.040135661999619543e-03 -1.549588101564625120e-02 5.179866770026359674e-02 7.211244899766151850e-02 -9.845630260807276823e-02 -8.818660990033780345e-02 -4.367186474931101375e-02 6.376768050149630995e-02 -2.557707352219490415e-02 5.617337281141619731e-02 -3.340363804597796388e-02 -2.745708142619988912e-02 -1.020806512504789515e-01 -8.886382842836344775e-02 6.107345628345422356e-02 -7.415456052533236919e-02 4.364195232620592113e-02 -4.687981450174887738e-02 8.646763203342813786e-02 -2.836967347148677127e-02 8.194651264169856841e-02 1.036106767699595393e-01 -9.948409785383775794e-02 -3.330893234099959604e-03 8.533544201848522470e-02 -6.574158111358271994e-02 7.362056318373236263e-02 -4.184895523575995341e-02 5.022613353864250479e-02 -7.743544211511377284e-02 -8.557230511742854040e-02 4.459934427722823252e-02 4.806154971938618459e-02 2.415264383367415196e-02 6.706271729896039202e-02 5.307179402774418395e-04 -1.359822767609169397e-02 -3.043665445305089590e-02 1.623424286464068833e-02 3.183766286879248855e-03 8.170296132923744736e-02 -8.410552522267747411e-02 7.129161624851527990e-02 4.333708185181459061e-02 -1.238674492257309939e-02 -9.618496532552077427e-02 -7.098981007401391000e-03 9.237187602950641674e-02 -7.463292587403443090e-02 -9.040686178531864847e-02 7.710647924785202223e-02 7.327315893194831509e-02 -1.619175752522891698e-03 6.191772976789701455e-02
6.455322475700889240e-02 6.934270048638609130e-02 5.911214501325452730e-02 -4.395298241831244006e-03 -1.371736571765090618e-02 7.736222024883981918e-02 7.099432797204978385e-02 1.349612125382760111e-02 6.671083490443194264e-02 9.619522660306827067e-02 4.434662796481447788e-02 -9.709490987836626175e-02 1.505965251196187543e-02 -7.716833292818371312e-03 2.876829993294501356e-02 -7.016227411230992195e-02 6.937591254198430257e-02 -9.759656810836690732e-02 -4.469600585496447814e-02 7.494444173852571334e-02 -7.551981981526560694e-04 4.688469443962653416e-02 5.336106401450898748e-03 -4.014370889036508044e-02 2.107276872077000832e-02 3.067668467442209723e-02 6.338365918058531945e-02 5.417185908693491342e-02 -2.771679740969863401e-02 3.944137056772792360e-02 9.729539898356649730e-02 -5.707628587600327430e-02 5.429929633059821237e-02 2.882623700721277313e-02 -8.514476861125701290e-02 9.452397523787115646e-03 -1.793966455946191529e-02 8.426937140721803277e-02 7.540681063192791744e-02 -9.586360914742339534e-02 6.365553308688157164e-02 5.549021743238265886e-02 -9.451939416669616345e-02 -4.605454854278560883e-02 -4.508509062186730199e-02 3.189746965958682040e-02 1.462262077151343237e-04 1.754158083890867623e-02 -9.028531773487930012e-02 -7.023541034445107689e-02 9.950048058815889884e-02 -3.200657530409248275e-02 -3.409210199667975921e-02 -6.352487202488919793e-02 -8.569046768245357215e-02 -4.828967748168842833e-02 4.025959467370297112e-02 -7.521649252596449009e-02 -8.730799774602206187e-02 8.031747373765368847e-02 -4.750310070868854484e-02 4.019051072944308106e-02 1.595734866997738921e-03 -1.045109984257703573e-01 -6.008607721835872162e-02 2.104443536134438519e-02 -1.518933720811749613e-02 1.123139071831031482e-01 4.723546542157060213e-02 5.382726336459230099e-02 4.419561601444123994e-02 -2.923595816522854898e-02 -9.240606783975559291e-02 5.678977145196190124e-02 9.863644781504260148e-03 9.477691398073204154e-02 2.687206076141520142e-02 -8.001729622657338670e-02 7.618338698944222831e-02 7.679527139470310182e-02 -7.300625939713127621e-02 6.835135125581302817e-02 9.706430980795252572e-03 5.606498121855447991e-02 -2.603401209789125287e-03 9.154795731004075621e-02 -3.979500423548855415e-02 2.630545097412142347e-03 -9.040465163593273956e-02 -6.100919730281877118e-02 -4.181594456736664744e-02 -1.067943470915816012e-01 -1.058440212958722121e-01 -6.732878605111521086e-03 7.109685386019078124e-02 4.807870728243245073e-02 4.837908418536156219e-02 -5.223344846442560391e-02 6.729342931734642874e-02 4.571919408573778265e-02 9.857887192931773929e-03 2.724664155460774367e-02 -2.243320534034720301e-02 5.742720273819694465e-02 -2.332367154508059592e-02 -9.707270818853140637e-02 -1.157995099318622281e-02 4.568610391414033162e-02 -8.217783120085128679e-02 -6.096638697445683902e-02 7.398957190734707645e-02 6.759296602156338041e-02 -1.057635682128235804e-01 -1.904120951073883655e-02 -4.676236138561863653e-02 9.588186037033843978e-02 6.883177601380503774e-02 -1.000046393381467114e-01 -8.338134885986667189e-02 8.988093986515532929e-02 -5.340795691612977569e-02 -9.367315959095018352e-02 -5.123940330111761282e-03 -1.192033957722431030e-02 -5.281920271495266217e-03 -4.607514200628153034e-02 4.852202437643603899e-02 3.036852985142599395e-02 8.126059433599670812e-02 -2.070340489653878235e-02 -2.555925762257860515e-02 5.644301913389650899e-02 8.837991089156181646e-02 9.256177269942565677e-02 1.738174305099401962e-02 -8.010491859663082526e-02 1.092293579239804330e-01 -1.141202994493637213e-01 7.041727162833505416e-02 9.406607842895171878e-02 -7.517784863752941145e-03 -7.936128955391705264e-02 1.182980161525660767e-01 1.027687417261360647e-01 3.928058001976367924e-02 -7.735369363588209812e-02 9.945972124042860851e-02 -3.439724392012266652e-02 5.182850216046641645e-02 8.710396892541141800e-02 1.042814929461268747e-01 -5.802515811241717308e-02 -3.417882572413109138e-02 1.092680006668655668e-01 1.373368401574822859e-02 -7.398947743194472793e-02 3.410161359698438838e-02 7.938002960896968496e-02 9.690320708586472320e-02 -1.031343020643334940e-01 5.055231625016001935e-03 2.356330596510224085e-02 2.803901763015066717e-02 3.295419100788577610e-02 -9.813262199818111042e-02 6.414151340908226528e-02 8.511133115574441577e-02 -4.820533496968567103e-03 3.044835831330284029e-02 1.251883506687135814e-02 -5.652357237376414573e-02 2.971397147759374802e-02 -7.492213554580505475e-02 -5.689086453619369987e-02 -4.859421127881775881e-02 8.757775235670257896e-02 -2.088706065968755007e-02 -4.225159603496856514e-02 -5.785782103492877193e-02 5.761321550901098848e-02 -9.196743152729795756e-02 -1.033249553652406394e-01 7.515954572046822102e-02 -4.914860624263113487e-02 3.766987805409967999e-02 -1.055866080252164663e-01 9.586327583291642807e-02 9.066834998989886651e-02 -7.972760558147523602e-02 1.574666878149169440e-03 9.436312210759172092e-02 3.590192586833469701e-02 9.308623465592909263e-02 -2.305476498296586338e-02 7.455963971777219979e-02 -2.811833674866366910e-03 -9.572008580801899535e-02 1.277511765889488386e-03 -1.186657109657974184e-02 7.122089040983245467e-02 -7.188092678978441619e-02 5.183515588877957159e-02 1.063995101656407122e-01 2.065952306703443958e-02 6.519921152149169008e-02 -4.500297421194481007e-02 -8.233354272543944030e-02 -4.607320383237076267e-02 7.020899921342887984e-02 9.427901736088536294e-03 7.261180949920615149e-03 -7.064359877067560856e-02 -2.164278596940343719e-02 -4.095438264399696437e-02 5.033900621286056115e-02 -3.890899540931390399e-02 7.309328301147509366e-02 -8.200821923885907860e-02 7.673835210915146143e-02 8.171033570762337161e-02 9.001310245932753196e-02 -4.916235655205015292e-02 3.999834618658899832e-02 -6.534127839442549490e-02 -4.319651122202516208e-02 3.164573983086080289e-02 8.371994069626279011e-02 6.338601178311993600e-02 -5.626045868176322157e-02 -7.450665649266895174e-02 -7.482770980386281579e-02 3.916731771622437852e-02 3.766673905938723588e-02 6.598649480883442275e-02 1.852794404654431112e-02 1.458565647739464358e-02 4.957345152430207152e-02 3.207233053134246614e-02 -2.556446407140906818e-02 8.610881824582829192e-02 5.688663592198612423e-02 -1.657563945067416430e-02 1.814027505511171812e-02 4.731042183161991710e-02 1.394710105490962887e-02 4.584003157649118448e-02 2.782560650439795322e-02 3.950842678261654722e-02 5.417250931709047951e-02 -9.931410490368691724e-02
-3.576390624957699604e-02 2.130547034141545143e-02 -4.501062844275242891e-02 8.523426794519962935e-02 4.574765001398665987e-02 -7.411537908981426226e-02 4.766789061510751102e-02 7.996224446021034382e-02 8.421736880687311078e-02 3.983129657273087182e-02 4.740411493687105710e-02 3.155639147728117599e-02 -8.095828273148140963e-02 6.681187092944601558e-02 4.163357159568528698e-02 3.097262832380833636e-02 -9.435655110283161506e-02 4.976173366125036246e-02 -6.657069782731901697e-02 1.005615661307954212e-02 2.748182749903264888e-02 -3.651897047171590027e-02 -7.530799901993638634e-02 6.195129517919475276e-03 -8.375932487650647462e-02 5.770207641947338456e-02 -4.518803443136771257e-03 -4.088712832182601897e-02 1.676769760955913041e-02 -8.397537093272196274e-02 -2.182255926129959486e-02 3.352887085825618368e-02 1.084416130728330097e-02 5.124294940665352627e-02 7.735409680591034953e-02 9.477246574171088733e-02 4.132547331593101891e-02 -7.633164741596507041e-02 7.260406071918477922e-02 7.408937322914575796e-02 -8.952131386969372495e-02 -1.143673513931087599e-01 -2.857762390587468074e-02 5.196817996125065175e-02 8.274506681252333240e-02 -1.255632241017999064e-02 4.794463994382246186e-02 2.381492125725546277e-02 6.159570378812811997e-02 8.963221356713267640e-02 4.615964703907225221e-03 5.091630978193037449e-02 1.330359455479300686e-02 -8.745009835816325294e-02 -1.073198154096441370e-01 -6.216212542940809105e-02 5.132909554152387255e-02 -3.960396612371115677e-02 -1.255472345744450095e-02 6.517802278417261785e-02 4.807595610228095062e-03 -7.244111041936222850e-02 -5.856873150643239490e-03 -5.787907085394104756e-02 9.424152895217027814e-02 -1.078819738395474792e-01 9.179052008567843701e-02 -5.595830503784560150e-02 5.532072188418420133e-02 -1.028582410529088435e-02 6.099221108462135610e-02 5.278657672022945418e-02 -4.589593252845712568e-02 6.924021248185356636e-02 -6.054755439064150174e-02 -1.109266726437567185e-01 -2.615153591585217194e-02 7.076710410732132972e-02 -8.174544353311581635e-02 2.343894719135909341e-02 1.629566380527365868e-02 -4.474137900049485889e-02 8.459645840615150070e-02 4.109912879541196412e-02 5.686369129051437737e-02 9.948687380731396912e-02 8.365045015309655052e-02 -6.130634763790934055e-02 1.180269920993312974e-02 -5.216668319629535339e-02 -5.517666021031850110e-02 7.296214892919208883e-02 8.855252342761139872e-02 6.831501369999266882e-02 3.392559113127899262e-02 -3.154779329101553564e-02 9.966080181618418299e-02 -3.786457309937753951e-02 5.041237359719189653e-02 -4.424493213493891491e-02 1.024147717550795700e-01 5.318477067352382626e-02 -7.483791932294707461e-02 -3.251025084267524651e-02 -5.218790422279597635e-02 -3.762049109783248413e-02 -9.921988151742243411e-02 6.595774886481325927e-02 7.519785081035666729e-02 1.531364130271300680e-02 -8.408705009279669740e-02 6.340669758012201784e-02 -2.553616510175475349e-02 -2.239499797274461731e-02 -3.513470029409487827e-02 9.185389014089060181e-03 -7.409312069490014974e-02 3.196336251862072486e-02 9.916582251135806769e-02 7.505389883593843736e-02 8.882581898849163660e-02 -1.659803661341823985e-02 1.624274628840470872e-02 1.278251882328408362e-01 -5.583368154454666082e-02 9.450286958064926801e-02 -6.993511759260271840e-03 6.476595224273476448e-02 5.108877323162941235e-03 3.018549977589873347e-03 -3.729312694312696130e-02 -7.876426652295837050e-02 4.653138666798421058e-02 -8.664524524048168586e-02 -6.797702493194496265e-02 -6.644188572511263748e-04 1.179275549446206217e-01 -8.020740946316726183e-02 -1.928506069578601878e-02 -7.965672268594055014e-03 -1.628978611956721431e-02 -1.536755880226930472e-02 2.332552970284223950e-03 -7.545793968379647942e-02 -1.144544057532854847e-01 3.304795053728082355e-02 3.199497231255921809e-02 -8.604847407013191396e-02 -3.260998650275682281e-02 -5.922210977085868439e-02 1.216445371433796940e-02 -1.010023570190479170e-01 4.430616379787632314e-02 -2.023175903080200524e-02 -2.396712048308106968e-02 5.523999126116618807e-02 -6.847152230204182899e-02 5.128940182749994886e-02 -2.675191455635653193e-02 -1.166852085980635695e-01 4.535608534943649101e-02 1.221284303555923295e-01 -1.270735480515508276e-01 -5.780796186234248013e-02 -1.308641354800798018e-01 -4.250084913221419125e-02 7.323268695585963273e-02 -3.047240725734380595e-02 -1.014055984402528615e-01 -7.036885828278763300e-02 -6.365142232065353067e-02 1.047102077356854843e-01 -5.241483028336547945e-02 -5.438495760240544263e-02 -1.028851445442241497e-02 8.675935625072872526e-02 3.280720439068452593e-02 8.023590158145511853e-02 -1.188757744563814257e-02 5.803543894893824912e-02 8.638405198816882791e-02 -9.374475244739119764e-03 -1.543248997053169730e-02 -3.428737248871587678e-02 1.176009294433404545e-01 -1.345089417371407581e-02 -2.528118119285381604e-02 7.974527993549450355e-02 2.324125937125664371e-02 -4.464859715225075881e-02 -8.147601611101798480e-02 8.065027418864406661e-02 4.440430812601272453e-02 -8.335881235865444383e-02 -6.303318112675336538e-02 -8.453315023729188193e-03 -6.129023876286995159e-02 9.129240947278303986e-02 8.029557608083308373e-02 -6.299358500983361087e-02 1.723812869520423025e-03 -1.215058305564610808e-01 3.057145421405335628e-02 -2.101123088148659779e-02 -9.816992274093189197e-02 -5.731593386283188873e-02 1.640220703392325508e-02 1.385779175267184450e-02 -6.542907802457588462e-02 -2.992978761785792391e-02 5.619101238872226817e-02 -1.192048627603424331e-03 -1.165821965524105192e-01 -3.081824063792540369e-02 1.733941071248525437e-02 -2.584306034283135461e-02 4.851600891403906601e-02 -1.478492028376047866e-02 5.758448906807327183e-02 -4.259195000516490665e-02 4.660416409656134573e-02 3.996846862814300988e-03 -7.020688420735618496e-02 -4.083254492822436382e-02 -9.399835434284260077e-03 -5.773837272184531577e-02 -5.852390901688127225e-04 1.748590917656304283e-02 5.367183405167876009e-02 -1.215922114816955085e-01 -6.040304108913919362e-02 6.229277435363687887e-02 4.831788170288243284e-02 8.439501776572938541e-02 -5.491725610986094436e-02 1.073045835744629584e-01 9.244516247469547476e-02 -9.550063012607287738e-02 -8.481235549382452887e-02 -3.955917170753067702e-02 -7.598651717299297059e-02 5.208849104468005892e-02 7.726852318036130096e-02 1.881187114130752902e-02 -6.832501048135711241e-02 3.221485653684227901e-02 8.744058877135682528e-02 3.445388967592444979e-02 -8.779762776207883368e-02 -6.450343639202336943e-02
2.018482855696556843e-03 2.449223307475855479e-03 1.785150076325873678e-03 8.235314666783677406e-02 -1.066397868288687656e-02 4.352990719825194921e-02 8.169718447535935513e-02 8.408950939187673224e-02 1.224830149031030588e-02 8.056952735185087325e-03 3.039287363747917442e-02 6.178319186292743209e-04 8.856642838478587243e-02 -5.216243053687671938e-02 -1.898833804307353823e-02 1.110722849091472578e-02 5.828916812199422953e-02 -3.374876642415458681e-03 2.966539676298071346e-02 3.503101899527801683e-02 4.415884464846043080e-04 4.213556483175337486e-02 7.240853461393417789e-02 2.769770889632997696e-02 2.793167999535067086e-02 1.594942851179533341e-02 -9.001364548535635557e-02 2.378280466231337889e-02 -3.465753474771424841e-02 1.042138711623860209e-01 7.113527774493103029e-02 1.061595844086028612e-01 -9.889430853643303015e-03 1.287327951989998553e-02 7.221137475324257426e-02 -8.684076471653780910e-03 -9.967535730436914709e-02 2.044859560132864570e-03 3.802162396680634077e-02 -3.195716324651932255e-02 -3.553732843985593637e-03 -1.019672626190084030e-01 -8.018031860600033367e-02 -5.895102761281757059e-02 6.877343173018565792e-02 -2.764279736343852600e-02 -9.320330342862162554e-02 3.978113405749517106e-02 -4.898113469336681791e-02 -3.942166384021024428e-02 6.030980750452650391e-02 5.182991130228040144e-02 8.585113918359869867e-02 -5.131737414177976742e-02 3.636544360310862978e-02 7.786071177032410917e-02 5.600015093162834939e-02 -2.811079686018364693e-03 2.651451813415359182e-02 -1.828444155793034626e-02 -5.205527389552597889e-02 6.249632325602206412e-02 1.256887597180319782e-01 -4.926185054257321144e-02 -6.864554868766095663e-02 5.598055265435633587e-02 -6.003710592488683759e-03 7.547336931974460428e-02 -8.608043608995913365e-02 6.538129933065957300e-02 -7.842548764690555896e-02 6.624955927264623845e-02 -3.438333832786898830e-02 -8.169322846630766577e-02 -1.755608020347660184e-02 9.263147397688288598e-02 8.199072388973653591e-02 2.162747763054011924e-02 -1.479788104892374064e-02 5.573139065390586566e-02 -5.044700754398261794e-02 3.045550490072688327e-02 1.616801298853700469e-02 2.358429488663341123e-02 1.738519174908554135e-02 1.183862720831552334e-01 7.742058658721207021e-02 5.567591225979544312e-02 2.430272293278012974e-02 -4.650460388658497757e-02 -1.101412024416433683e-01 -1.076769080916102350e-01 1.016681499721087956e-01 -1.527854230228310305e-03 8.108858106837620039e-02 -8.997012925363156999e-02 1.280332461138228468e-02 9.340422495536476744e-02 1.133959745243499628e-01 7.718865002616473459e-02 5.250419945835675499e-03 4.229716994283479886e-02 2.040966901455811347e-02 1.346709640691990187e-02 -1.857907633341483039e-02 -3.925346584906393155e-02 -9.463901969290967886e-02 8.378420676031966829e-02 1.002909157215978453e-01 -9.099395794982905600e-03 3.176682768445958371e-02 -8.114943021159119751e-02 -8.935857050270089308e-02 -5.516781523240779639e-02 -1.065328162427778835e-01 -3.478627049315042435e-02 -4.818349380220525446e-02 7.878495317328428060e-02 -1.978026034126060401e-02 -6.081913369045038181e-02 -3.485546189748422313e-02 1.165423135535304244e-01 -5.716250806893090342e-02 6.305785159098258041e-02 -5.237776146205583988e-02 -7.024228496547230138e-02 2.144128799373600999e-02 -3.888139355021051624e-02 1.144203470546220798e-02 9.468309155696415236e-03 1.764028879582383788e-02 -1.347180469013080639e-01 -2.439833331294371382e-02 2.462504452860726084e-02 -6.578776845073591728e-02 7.632733630718779860e-02 5.153401912574488014e-02 9.518677340931835928e-02 5.102205344632017997e-02 -6.713013525162679629e-02 2.806364662344400934e-02 1.810072501970718187e-02 -2.299289478713215443e-02 -1.248247198443499101e-01 4.119218716645489491e-03 2.079646556028983198e-02 6.603369528838076707e-02 1.051134859028655250e-01 5.695117797466364012e-02 -3.381517948087345293e-02 1.463389122100807772e-02 2.207195750518053945e-02 1.515927075798595945e-02 5.415695657976821870e-02 -3.960862070620167763e-02 -2.373069477127764254e-02 6.315809684168192939e-02 4.705753613958541665e-02 -5.489578614809475197e-03 5.141442016310309587e-02 6.519450979870655694e-02 1.403164081974915935e-03 2.412943015586028854e-03 -9.074999058501250979e-03 -3.417608315959960730e-02 1.982164871312377605e-02 -1.176740494396255471e-01 6.561616416031643140e-02 3.545415515681218238e-02 -5.898950812885760814e-02 1.379183689906797634e-02 3.274328781176086972e-02 -5.494663177565739520e-02 2.226193112842115435e-02 -7.290278879605624485e-02 9.026117762598644123e-02 9.542888990333243948e-02 -2.942792491360570351e-03 8.583372371613981477e-02 2.019821486423740292e-02 1.352755957701676781e-01 7.984731367758192422e-02 -9.610154479837634822e-02 3.453467803297472632e-02 1.064024529213902504e-01 -8.591100884996437370e-02 -3.733846053097000101e-02 9.646012435164777465e-02 -5.465488807746077260e-02 -7.156117978760817566e-02 -8.549952424274738505e-02 -4.258581804271347609e-02 -9.688094321169578305e-02 7.583891989944031853e-02 5.072146344928176592e-02 -8.358742630512006055e-02 3.799969305000831105e-02 -7.692870635343784791e-02 -7.389436675134820887e-02 1.873032026340807135e-02 1.695279643905982583e-02 7.726264275388033953e-02 -4.224356579887195845e-03 5.633411220348286813e-02 -1.148509704246749863e-01 7.024696825350531387e-03 1.416600301408463096e-02 5.948663596369536954e-02 6.756513176101679174e-02 7.645039841092780841e-02 2.360518446387935981e-02 -6.406397315421799576e-02 7.614442052691827723e-02 -3.923329457095334205e-02 -1.121535438876954463e-02 7.735000859073178081e-02 9.081357994003465273e-02 -3.780072772032923994e-02 -9.665742350623271473e-02 -8.386380043749994129e-02 7.154665413383190509e-02 -4.402570047772455530e-02 -4.381008859170131692e-02 3.822261368977254020e-02 -4.190972454134345160e-02 -7.320843347197981792e-03 -5.109900358967277290e-02 -1.021539892359225182e-01 -7.163782509569104062e-02 9.003123094013446015e-02 9.432495493712829415e-02 -9.501517874278289644e-02 -1.006644095044183229e-01 -7.174471205537848173e-02 9.991293096211072144e-02 -2.000990124842151607e-03 9.940311518847502747e-02 -9.108004386380791351e-02 -9.333040398692579731e-02 -4.789351099986890320e-02 -9.780349367691950485e-03 -8.819040046603154881e-02 -1.805482451207088626e-02 1.190205802776318211e-01 -8.053078709678733460e-02 4.934177385168911356e-02 -2.091248609301555456e-02 8.690511919637822214e-02 5.923436452171898514e-02 8.865661953904470372e-02
6.106335653651489767e-03 -2.262692522583745550e-02 9.339282924210379200e-03 5.504682173842685711e-02 6.481093813742266896e-02 8.837202513565575734e-02 -7.102823994033083399e-02 -2.867665506039365070e-02 -6.264620462691602998e-02 6.759594706241157935e-02 5.986704577589592284e-03 -3.369431290273786767e-02 6.290472878843735016e-02 -3.877825853796885297e-02 -8.146614673695265485e-02 2.181416189325184607e-02 -8.453935544518355327e-02 -2.114993682071991676e-03 -6.023238299440216966e-04 -6.098380167015398506e-02 1.403041974169176066e-02 -2.522320952860062498e-02 1.369969514121922166e-02 -2.739065671121392997e-03 -7.167751364586976044e-03 3.050948225866080554e-02 8.085736942816947048e-02 -1.014119346781335029e-01 -4.275775195811355039e-02 -8.352748239729236579e-02 9.323840496271548761e-02 9.206865848594190938e-02 -7.140783411122816893e-02 -4.894270864777069269e-02 7.872184317766779682e-02 -7.180183654266651672e-02 -8.943787961718979718e-02 1.033110945171687896e-02 -8.956950557834401916e-02 -1.325420445505513974e-02 6.103149828615244549e-02 5.435285422390970234e-02 -1.155621334138047518e-01 -7.741856705397312521e-02 1.236377256956199509e-02 3.805962329881137224e-02 5.676864761561133815e-02 5.000142664004099402e-02 5.774307564144804533e-02 3.153365987590644320e-02 6.599607704083908233e-02 -9.826351616977122005e-02 -1.026535859174862453e-01 8.507531796398731805e-02 -3.631707619287434519e-02 -8.602424396346371183e-02 -1.204851921379118396e-01 5.870413557435168184e-02 -6.270177344826566301e-02 -6.306475206015736690e-02 6.718201979351734465e-02 -2.113205335324751938e-02 4.956853337718653690e-02 -2.410742434625092606e-02 -6.874300371798341969e-02 -1.228294869786411697e-01 2.457025026827422062e-02 1.372779094898877485e-02 9.795135342597244277e-02 4.778532389317975693e-02 -2.771803507800825461e-02 9.818555698252409702e-02 9.926406467161656699e-02 -7.240592239633768246e-02 7.229517734696662423e-02 5.659602887345907551e-02 8.442061381392453046e-02 9.668096061721251355e-02 -8.450115172056579804e-02 -3.431670459621537911e-02 -1.735551977121622957e-02 7.559178890948023422e-02 -4.546466220875697989e-02 2.059611240989137407e-02 -6.848596306474193096e-02 -8.820831024443175072e-02 -4.938884337650941564e-02 8.547156841166472611e-04 -3.708921851816868176e-02 -4.232126720688374893e-02 8.177148843040385473e-02 3.431942686861457360e-03 -3.367644667545131865e-02 -5.553415314210070897e-02 -6.841526237122396055e-03 8.697860260521686482e-02 -1.759972902313720541e-02 -1.041441393543835747e-01 1.976730869900314783e-02 -8.912697074064294955e-02 -5.087475200285072885e-02 8.403018055865105196e-02 -5.507712446124330558e-02 4.633317409795430913e-02 4.307942415912653644e-02 2.411299603492247923e-02 8.841172409581880137e-03 6.229403775154662704e-02 -3.968892510542464114e-02 -7.761574773815355099e-02 6.482646055908138083e-02 -1.021794263518919776e-01 3.657866442218415254e-02 -3.828631489539580796e-02 9.691714839089557443e-02 -3.312505512674468466e-02 -6.768396700792730925e-02 5.601314640831213387e-02 6.865282084625930203e-02 -7.335180910747569893e-02 -9.584070052155646557e-02 -8.992489325921658450e-02 -1.012405148949251099e-01 -4.469419791210051812e-02 -5.919634173273607275e-02 -1.083043401547017087e-01 -8.812511512167250927e-02 -4.016559454238483040e-02 2.955770175772185360e-03 7.011919599380229962e-02 1.093344482472995566e-01 3.025006100626296754e-02 6.961929889221923906e-02 3.971596493865049704e-02 -2.650733405671028622e-02 1.782850789627027713e-02 6.980217603885682798e-02 2.570058627534585471e-02 9.185210028432580151e-03 -1.229093608497760538e-03 2.930625007239863813e-02 6.964938348034774122e-03 -1.037070326060268027e-01 -3.745707078327003420e-02 4.669881233663568387e-02 -1.155088514617232248e-01 -9.565553244045451025e-05 1.379529341687619863e-02 4.595234938173788086e-02 -2.070788488769096866e-02 7.837104249889692564e-02 1.217157667637856419e-03 -5.827490252193218145e-02 1.670922612524764449e-03 7.733691228862361877e-02 8.022143693768812173e-03 -6.676420445269555352e-03 7.323540028874778174e-02 1.092675246720430926e-01 -8.093395145633619503e-02 9.526277480866948352e-03 1.259341047548691826e-02 -8.933221057296204803e-02 -2.377793867149921234e-02 -8.863326919156641615e-02 1.224857472105830292e-01 -1.050726348699377311e-01 7.228565607616156685e-02 -4.424462705071201263e-02 -8.078311999923723508e-02 2.986055088445702457e-02 4.960724780610764606e-02 4.429198180716845817e-02 -7.430810688145310372e-02 -8.956306861868078284e-02 -3.271024847315180673e-02 1.468068121446149468e-03 2.177617780180786736e-02 8.988631302159360431e-03 -8.643095797257768775e-02 3.576053534329917682e-02 -1.100415484899700536e-01 -6.572461778814685240e-02 3.234323614692245774e-02 1.107751887096050936e-01 2.010791122819847662e-02 -9.950524527287001042e-02 1.039492049917462302e-01 7.795543507288991980e-02 9.866940544754970732e-02 3.172517387304244364e-04 -2.810830289173394878e-02 -4.242160385184615135e-02 -3.490845986810574286e-02 -8.820859996445070891e-03 1.166627904610309657e-01 4.518726814597726765e-02 1.858965300338891180e-02 2.795633788007204253e-03 -5.547809756156361904e-02 -7.012241540443752037e-03 3.034266145353185784e-02 -5.922551674869173249e-02 -9.666220695685241726e-02 -6.661929544799813363e-02 1.214914593010967860e-02 3.575833664707381288e-02 1.695627071911730375e-03 1.144669611528809083e-01 1.184502144095989432e-02 1.062632219497244845e-01 -5.576139480592249426e-02 -3.526044738220248526e-02 1.266283693638924415e-02 1.194420058532862650e-01 -9.804219951269708966e-02 2.391898100938302102e-02 3.226377026778878832e-02 5.037592978342642080e-02 -4.271906820634058938e-02 -1.307117362523004325e-02 -1.921824460777076665e-02 -7.191142368615940916e-02 5.911205504663295807e-02 1.202193766400558861e-01 7.892070710688359192e-02 7.424596730450026827e-02 -9.081051778616075487e-02 6.896973725244902320e-02 -3.644276610596868665e-02 -4.039320517114908943e-03 -4.295640141646143301e-02 1.400735918293069711e-02 2.267492081704795999e-04 -1.287252242782875311e-01 9.463849543589084035e-02 -2.834277459778199171e-02 1.958856350521347850e-02 3.312441211461739088e-02 7.549886762421637032e-02 -8.170167839261074927e-02 1.296512826243150993e-02 8.935488381451868467e-02 -5.412365497377218809e-02 -7.937420208998210991e-02 -4.667750723631503007e-02 -5.908722598142311655e-03 -3.840796622853744069e-02 1.538776322022273636e-02 1.224589012485666250e-03
