3.397416224130437513e+03 -3.397416522297823576e+03
-1.634530417967424910e+03 1.634522262995582878e+03
-1.666298156197518665e+02 1.666244524142408068e+02
1.835939779497648487e+02 -1.835959283644278912e+02
1.300771153081986995e+03 -1.300761909309040902e+03
-2.921649230850040112e+03 2.921663120032910228e+03
7.727860009082188526e+02 -7.728069224489627231e+02
1.445684193480953809e+03 -1.445679364557953704e+03
-1.377721460639585075e+03 1.377723475679762487e+03
-2.125259795279159334e+03 2.125261770085725857e+03
-2.294542723692276923e+03 2.294556942091784549e+03
7.001870636294538599e+02 -7.001749896897511007e+02
3.377497697142312973e+03 -3.377499191042909843e+03
-1.136858150341425016e+03 1.136857348424531665e+03
-3.665391175698458142e+02 3.665428167708951150e+02
-1.056382970160603350e+02 1.056416840630370189e+02
1.743228476166040309e+03 -1.743222818030570579e+03
-1.424598393366445407e+03 1.424605333090300064e+03
9.125376345087202935e+03 -9.125363543429182755e+03
1.157461647194376155e+03 -1.157466970106295548e+03
-3.644999065309377784e+03 3.645002396448347099e+03
2.358146054621195617e+03 -2.358153239266560377e+03
-8.941395620103194233e+02 8.941399417853164096e+02
-1.559113832765146981e+02 1.559141484583955730e+02
1.734212092131639110e+03 -1.734193431543431416e+03
3.141820306717763742e+02 -3.141754024859224046e+02
-2.050502846917845545e+03 2.050504274911818811e+03
-1.081044058472787583e+03 1.081048735177737399e+03
2.655881673132272681e+03 -2.655886421509365391e+03
-4.422415388204394731e+03 4.422402548122423468e+03
1.161476008023890699e+03 -1.161478133037034922e+03
4.094695012423127991e+03 -4.094672898947894282e+03
3.568694087522423160e+03 -3.568676780415653866e+03
-1.184487955411294934e+03 1.184493660096632766e+03
2.755566314243857960e+03 -2.755547749447289789e+03
1.453655665017818592e+03 -1.453655776969260387e+03
1.635271214042119709e+03 -1.635272859739248815e+03
-8.842931216070380742e+02 8.842932506240423436e+02
-5.845613160113496633e+03 5.845613797678344781e+03
-6.160287915615181191e+02 6.160248874684696148e+02
2.927747056393452112e+03 -2.927741455902626967e+03
6.294538310217945764e+03 -6.294525600780625609e+03
-3.938739736791612813e+02 3.938800042927493905e+02
2.291131183221950778e+02 -2.290956537742069941e+02
-5.982072558909801955e+03 5.982072044373741846e+03
-2.486090931194621589e+01 2.487904954879331854e+01
4.458423907270846030e+03 -4.458424493232534587e+03
-6.636675684843896306e+03 6.636689451237736648e+03
-4.761955199139580145e+03 4.761975363029162509e+03
4.750309681294414986e+03 -4.750287525670353716e+03
-1.059317990253256539e+03 1.059309210313850372e+03
1.404859242377529881e+03 -1.404856183991003945e+03
-2.123458291839031517e+03 2.123473850260936160e+03
2.554960062133442534e+03 -2.554905827766427592e+03
-2.147409478623386349e+03 2.147435189966362486e+03
2.806731339404175287e+02 -2.806749902776846852e+02
2.258696372088059434e+03 -2.258694265180069124e+03
-9.008878286863488256e+02 9.009029728147352216e+02
-4.519954981927395238e+03 4.519981980145540547e+03
1.226873969724362269e+03 -1.226861566499177798e+03
-4.493065954719184447e+03 4.493072112259216738e+03
7.333758458444625830e+03 -7.333739019856982850e+03
-5.845241486477183344e+02 5.845287363256874187e+02
-1.452939919311108133e+04 1.452940537019557996e+04
-2.409091182746284403e+02 2.409103721322233582e+02
4.296252819552482833e+03 -4.296245633174728937e+03
-9.666258383674723973e+02 9.666366765681588049e+02
-8.179716633891280253e+02 8.179629032653293734e+02
1.207090199171096174e+03 -1.207069599810088675e+03
-2.950852649509816729e+03 2.950874042675503006e+03
-4.378777562079343625e+03 4.378773242715506967e+03
9.547072048476935379e+03 -9.547077626826532651e+03
2.028035859573086327e+03 -2.028001594496469352e+03
2.089200183121027749e+03 -2.089200377310181466e+03
1.536849475386162567e+01 -1.537037358864336056e+01
2.670581161353263724e+03 -2.670580748123178637e+03
1.032182668641467171e+04 -1.032184305435989882e+04
-1.366074678904836674e+03 1.366102362951783562e+03
-2.239112343359618535e+03 2.239102328567174482e+03
-2.982751697906061963e+03 2.982756861485841000e+03
6.255140181113616791e+02 -6.255074653470678641e+02
-1.137312834646943520e+04 1.137313844968077137e+04
2.191858045202732683e+03 -2.191856992198212993e+03
-2.567532994933096688e+02 2.567551446150478114e+02
2.300770998950188186e+03 -2.300769251664565672e+03
-7.906156062247486034e+02 7.906094483570464035e+02
-5.352212196787456833e+02 5.352272537299652413e+02
2.339062760025862644e+03 -2.339052057515969864e+03
-1.096986916933055545e+04 1.096989341513163708e+04
-9.094030485773315377e+03 9.094057942389328673e+03
1.600673226548542516e+02 -1.600645604456091746e+02
-3.423430222891592621e+03 3.423513023011521454e+03
-1.436637363317132213e+03 1.436655294304393010e+03
-4.958165546930593337e+03 4.958203637364964379e+03
1.031383109687613342e+03 -1.031380048506084222e+03
5.305746915383133455e+03 -5.305733192897077970e+03
-3.539146780001627121e+03 3.539142140158284747e+03
-4.165102578217274640e+03 4.165100971598731121e+03
-1.941463038157805840e+02 1.941496198089507743e+02
-1.870158591131753383e+03 1.870198629052342085e+03
-1.749147504790107178e+03 1.749143242820507339e+03
1.884054764906258470e+03 -1.884048044622161342e+03
7.113163540579226947e+02 -7.113144447536765256e+02
-5.362815234764231718e+03 5.362824348438938614e+03
-1.122217340191933090e+03 1.122218577052071623e+03
1.207422349930460041e+04 -1.207424385017194800e+04
-2.719891576007482399e+03 2.719907093139167046e+03
-5.142536809768137118e+01 5.144210388312058058e+01
2.689571850297911624e+03 -2.689549307846066768e+03
4.321639941136247216e+03 -4.321638249022931632e+03
-8.517573364614416278e+03 8.517567214696693554e+03
8.025534964921672554e+02 -8.025489259033704457e+02
9.940037206942970442e+03 -9.940008544509426429e+03
-1.918415253135843841e+03 1.918417806823574438e+03
-1.476316789812326988e+03 1.476318770224485888e+03
-6.659815316075284954e+02 6.659872049107557359e+02
-1.852036967544236177e+03 1.852046531088124539e+03
4.662182495516968629e+03 -4.662183465913269174e+03
-3.597091494497693930e+03 3.597094302587122002e+03
3.326434350109241677e+03 -3.326424377723463294e+03
-3.049071983267049745e+03 3.049074284095607254e+03
2.495045084003976399e+02 -2.495065562850387266e+02
5.212989143423727910e+03 -5.212970470315522107e+03
-1.945065462085215131e+03 1.945068866121593828e+03
-5.233972911937488789e+03 5.233981922242673136e+03
2.418571096983014286e+03 -2.418538172378361196e+03
7.950874488849285626e+03 -7.950865535564582387e+03
-1.535143523395436659e+03 1.535146686623970481e+03
-6.110307981689617236e+02 6.110327095840392531e+02
-3.059198452113617805e+03 3.059239168153148967e+03
-1.639370506103010712e+03 1.639377101202595895e+03
7.242847677806257707e+03 -7.242821010027928423e+03
-2.258695101039029396e+01 2.259764504674126329e+01
1.025058889366537414e+03 -1.025064989332016467e+03
1.569559771959425916e+03 -1.569544459553068691e+03
-1.285028055720489192e+03 1.285023669814812365e+03
-2.251657287323782839e+02 2.251699226812911547e+02
2.935223351599706348e+03 -2.935229124755141584e+03
9.404038227720577652e+02 -9.403970438617714080e+02
-1.785118799640046745e+03 1.785102012527825082e+03
2.207791309919195555e+03 -2.207814817439664694e+03
-5.793004499826145093e+02 5.793026643163987046e+02
-2.105587329090099615e+02 2.105610731623649485e+02
6.559901600223015521e+03 -6.559896122438958628e+03
1.815642693988261726e+03 -1.815636397494294215e+03
1.936056135358616757e+03 -1.936061405040420595e+03
-6.152045222379193547e+03 6.152054122344459756e+03
-1.175552315376270144e+03 1.175555783697504012e+03
3.515098111495068224e+03 -3.515100871299857772e+03
-6.554557807674063952e+01 6.555516916683063755e+01
1.982952839362968916e+03 -1.982947351858340880e+03
-5.424014460498273138e+02 5.424020023832542847e+02
-7.193132190609826466e+02 7.193122286975060433e+02
4.944562570694938586e+02 -4.944407626037395858e+02
2.047766113493960802e+03 -2.047740575166552617e+03
2.627871668819372644e+03 -2.627877548790480432e+03
-9.764827113403622207e+03 9.764825404024431919e+03
-2.625574678633879557e+03 2.625580463086310829e+03
-3.066467430780175363e+01 3.066832875129921376e+01
-8.114816814344565501e+03 8.114881082416266509e+03
-1.691323579382286425e+03 1.691331285131593631e+03
3.478565455575680971e+02 -3.478551485253018996e+02
4.641031281911113183e+03 -4.641032972503651763e+03
-1.916245898115945465e+03 1.916249891658787874e+03
5.728159786631253155e+03 -5.728140406032222018e+03
3.102967626141267374e+03 -3.102965554052884727e+03
-8.720686158406520008e+02 8.720694379081606940e+02
-6.819684734035147358e+02 6.819709832760704558e+02
-1.118642188414480415e+03 1.118643147764715877e+03
-4.109399367463639692e+02 4.109380322356705619e+02
-5.018863583663988720e+03 5.018870710126125232e+03
-1.982289308247977715e+03 1.982323227824185551e+03
3.115387069748246631e+03 -3.115376192809171243e+03
-6.627328961235009501e+02 6.627554756380995968e+02
-3.449934727867250785e+02 3.449953393460518782e+02
-2.177069758525328780e+03 2.177097764766516775e+03
1.614734760064043712e+03 -1.614707919322088856e+03
2.800832318613116058e+03 -2.800829001944636275e+03
-2.881970460086209641e+03 2.881975815999044244e+03
-4.276176837606471963e+02 4.276260017069330388e+02
-8.433991691571633055e+03 8.433992474675507765e+03
-9.432096987705219817e+02 9.432145807894492009e+02
-2.090574951147118554e+02 2.090675578237592163e+02
9.396817988380979614e+02 -9.396811800327045603e+02
-5.433004618567965736e+02 5.433087798162205218e+02
4.034990098533107812e+02 -4.034901534334840107e+02
-6.905116960619398014e+02 6.905152293851340346e+02
1.822215634492707068e+03 -1.822216232553656255e+03
5.230564632823862667e+03 -5.230516696107002645e+03
-5.947326280929369204e+02 5.947253517315227782e+02
4.995976642589033872e+03 -4.995980698703133385e+03
-1.076788531068584234e+03 1.076799405232531171e+03
1.758090862674935124e+02 -1.758142318943896498e+02
7.358171267407726191e+03 -7.358158648945372988e+03
2.896612796480832799e+02 -2.896616008163196057e+02
2.221541214375560230e+03 -2.221527145899951847e+03
8.874492902061706445e+02 -8.874131528829574336e+02
-8.767511122124353733e+02 8.767570374207523400e+02
2.642597833159941729e+03 -2.642584715018421321e+03
-2.610712431334362464e+03 2.610720481604703309e+03
-1.366150712226567975e+03 1.366147371823025424e+03
5.703759186325252131e+02 -5.703748574831123506e+02
-1.112543279696945319e+03 1.112541096291138729e+03
1.742024651531132122e+03 -1.742009459643379614e+03
8.249372821292106437e+02 -8.249335010901680789e+02
-3.584565453983716907e+03 3.584594745608607809e+03
-1.117072683919554402e+04 1.117080092270197747e+04
-2.611309815730532591e+03 2.611314783814478687e+03
-6.741436532597414043e+03 6.741470957803758211e+03
5.599734713083148563e+02 -5.599731497120559425e+02
2.790808710644979783e+03 -2.790799913949193979e+03
-1.310864985226074623e+03 1.310874427259239383e+03
-1.689575379993894103e+03 1.689578372808168069e+03
4.417332841465820820e+03 -4.417313226697189748e+03
1.381916335724486999e+03 -1.381913521048259781e+03
6.462609430267775679e+02 -6.462506858337401354e+02
6.529649928080601967e+03 -6.529600964660427053e+03
5.440611025217768656e+03 -5.440581581924940110e+03
3.061788258316039446e+02 -3.061676982629614940e+02
-2.553204079442602051e+03 2.553203153467252378e+03
2.382755733067800975e+03 -2.382758213755844736e+03
7.151464119159991242e+02 -7.151463905705295474e+02
3.113536261703861783e+03 -3.113516350086230887e+03
3.166102087163743363e+03 -3.166104026866949425e+03
-4.161727116563565687e+02 4.161756700698992972e+02
-8.789359931508806767e+01 8.787902137864023189e+01
-1.997853542248565191e+03 1.997862690278785976e+03
6.189178533424984607e+02 -6.189144742316311749e+02
6.240186401424252836e+02 -6.240003107084747853e+02
-1.515897735932979458e+03 1.515911912174218742e+03
2.398055403735038453e+02 -2.397838264417327991e+02
3.829106280957568742e+03 -3.829096534490465274e+03
-6.369048127056827070e+03 6.369068783111291850e+03
-6.515771157287606457e+02 6.515719856459650146e+02
2.467856536544976279e+03 -2.467820582789362561e+03
-6.342324327811552394e+02 6.342372760070297772e+02
-8.297620500426307899e+02 8.297544063706531006e+02
7.415845107994557111e+03 -7.415838277782072510e+03
-1.543356582702850574e+03 1.543356773340972268e+03
1.440499028539895335e+03 -1.440496670023872639e+03
-2.558316325533130112e+03 2.558315042942582295e+03
1.655140658920619444e+03 -1.655142574466542555e+03
-5.993384515921386992e+03 5.993419305189519946e+03
3.124221151666754395e+02 -3.124102130850824324e+02
4.954397218671616429e+03 -4.954383923071381105e+03
2.313042433456688741e+03 -2.313033235625593534e+03
-3.347280662217083318e+03 3.347274820683299367e+03
4.130066555295452417e+02 -4.130030046346721520e+02
-2.832580129017047511e+03 2.832569712067922865e+03
6.652201411799424022e+02 -6.652210789388030889e+02
