-7.344172410070459733e-02 8.645524982791076563e-02 -1.035220404334790539e-01 9.768333841184181909e-02 1.037667784334958369e-02 -1.082273815550154894e-01 5.798500498784085917e-03 -4.075807573527355510e-02 9.398635161918289516e-02 -1.258492200881528890e-02 3.570763354359688529e-02 1.176666471301583000e-02 7.043389895737722783e-02 4.664103600346667516e-02 1.061639211554788464e-01 -7.552368805472259305e-02 -1.015763102327178237e-02 6.223454417196664160e-03 5.105434710741565962e-02 6.428265973827144986e-02 1.029538991585675495e-01 6.150915342957551102e-02 2.007452044551566450e-02 -8.812283744424195819e-02 9.268552961974851900e-02 8.176755102007224330e-02 -5.472147778537093943e-02 -4.520172838583400021e-02 2.390171916296555954e-02 2.556950463961480020e-03 -7.561240747250326522e-02 -7.138791519375305150e-02 -2.414598717605915060e-02 -8.471533619170990015e-02 -4.598564355003773724e-02 -9.269035206181280850e-02 -2.747133217709197411e-02 -1.665983412192098556e-02 -7.507555559108068655e-02 -3.036939595929719765e-02 -7.135979232786938964e-02 -5.692397269334699417e-02 5.636387188079276800e-02 1.680094552862100923e-02 -1.062915678741138542e-01 -6.285447115496685389e-02 4.677219281208443158e-02 3.681747357594824382e-02 -3.267497263407970892e-02 1.722239269156247612e-03 7.503255368508389422e-02 4.761918177425658594e-02 9.783373678939372153e-02 2.447356470112463638e-03 9.675646620938849196e-02 -4.504050909277429460e-02 -6.801440449113635434e-02 6.825927106911135189e-02 -3.395092848756509074e-02 4.284638080181672054e-02 -8.263351518629286074e-02 -2.553014440066969995e-02 3.768460531014049264e-02 -5.065852966131413615e-02 1.666043036892831189e-02 5.688780388387698617e-02 -1.680034896741614339e-02 1.063477345482590347e-01 -1.619834918233219179e-02 -4.503415230123839624e-02 -4.294179790115222606e-02 6.438948361889962335e-02 -4.167369540450847031e-03 -1.517357684785295389e-02 -3.371424952715449536e-02 8.199185628847510676e-02 8.686843552175773503e-03 4.096076697325000404e-02 3.644729632920765822e-02 3.060066691950918960e-02 6.416661535255929749e-02 -8.514545482241649144e-02 -4.352939226185976312e-02 -2.616889872308681558e-02 1.081509848940962887e-01 4.498854272976936935e-02 -8.479507662790500278e-02 4.706886380750498200e-02 -6.958830126867210364e-02 -1.217735917601546654e-02 -1.883983574758376148e-02 -8.745782030720482270e-02 -1.000525170596179847e-01 -7.954190537921659865e-02 3.645497487050778761e-03 4.505272325410869527e-02 7.992110667089746476e-03 1.056308094415974175e-01 5.381748394543854619e-02 -7.771160840653126844e-02 -6.494701392936617912e-02 5.099971700693788773e-02 -7.228514201347503720e-02 -3.453575246515228764e-02 -5.288621130178561280e-02 -5.374250233577326785e-02 -3.164689844398514001e-02 1.303334167745168019e-02 3.499128316433556402e-02 -2.754622218682967541e-02 4.703707522134221303e-02 9.500021235600095149e-02 -8.781060817187182760e-03 7.692907627483268340e-02 -2.681923061654210849e-02 -1.091705727420641953e-01 -5.802562915831487728e-02 -1.771858157912421274e-03 -8.422072307319614093e-02 -8.892595209197326489e-02 1.065503219516033828e-01 -9.731687151489676335e-02 9.021808972134046090e-02 -4.184250557226890793e-02 -2.524502345055347832e-02 3.300800832286068104e-02 -1.115024634108737443e-02 7.489791885597125998e-02 -4.485855277283685993e-03 5.568641609368440992e-02 -7.041818147015834438e-03 1.025076019012407802e-01 -6.478451341080632142e-02 8.739830957274249967e-02 8.997532383722865734e-02 -1.071975825254836007e-01 -8.053362675920350613e-03 -5.204603349763180231e-02 1.888807682191452619e-02 -1.075377973313943435e-02 -5.173487594540621820e-02 -8.642932779828702006e-02 -6.407969460599247102e-02 9.075133771262441917e-02 -2.415731052351004216e-02 5.093598380535890868e-02 -2.707301571217176142e-02 -1.004172861689895391e-01 -1.474311969965335679e-02 7.373540309502385481e-02 -2.009373090315428115e-02 -4.645871978206062708e-02 -1.418119705674158147e-02 -5.632261001628415670e-02 1.076394982177419773e-01 9.121706831430018148e-02 -1.867278001170680300e-03 -8.395635001361184679e-02 -6.875861093879483132e-02 -8.855198551709690669e-02 5.505414446607260343e-02 3.410254412171015437e-02 -7.248969899208032586e-02 7.101594502152956678e-02 -6.691728264188163966e-02 9.144548905603389066e-02 5.915328997489965185e-02 -6.385423179756567758e-02 4.984707217860705891e-02 3.748092108688362567e-02 8.436898287523832141e-02 7.969957449862452581e-02 -7.768470685125408726e-02 -9.269067443294409792e-02 8.439252984282398506e-02 5.116273410761754126e-02 6.115046771320598333e-05 8.045472820142537951e-02 3.095109049523396896e-02 3.976124138402713920e-02 -7.940637444431898617e-02 -5.613328127960330594e-02 -4.890501942285942205e-02 7.533450488194352868e-02 -1.084656721624617515e-02 8.366623182798373082e-02 2.350106244778650891e-02 3.620249349735831651e-02 -1.626972095709369390e-02 -4.997364638201901715e-02 1.067291902705211071e-01 1.077950845980731737e-01 -3.497845924733217204e-02 -1.043726708855244739e-01 7.500895122599635090e-02 1.007107116197307750e-01 -1.070362776136498939e-01 7.244250959356739183e-02 3.595386328628534522e-02 9.078720966662873204e-02 1.020685449274077033e-01 -5.465899971885097158e-02 -5.864787544654109092e-02 3.265388351442181925e-02 4.001396063704019956e-02 6.351055763300209045e-02 -9.707327013324011655e-02 3.916352054933091437e-02 -2.673866097840011183e-02 -5.064199311304368178e-02 2.363046138828157547e-02 -4.035399572224605824e-02 1.025127100211409431e-01 -7.614915713055364632e-02 -9.672425309167703711e-03 -3.032605755425712979e-02 2.116234048631312689e-02 -7.537857340096551853e-03 -5.118915859743666114e-02 7.506550709167887636e-02 4.048361379760082208e-03 8.350685628875293906e-03 -9.232699605169586432e-02 -1.066119447368572420e-01 6.450839447823256134e-02 -3.236262799821559843e-02 -2.217070344627590506e-02 -1.307941963956108422e-04 -4.285775777255888125e-02 7.063833439993337515e-02 4.372341681282884696e-02 8.578567299715630923e-02 -5.691858028942667347e-02 1.026960009406577695e-01 7.181792138638577738e-02 -8.259523020866162135e-02 2.585740593551768413e-02 -1.064059246495943079e-01 2.571850204103259471e-02 5.230954259621480029e-02 -4.158264072953046786e-02 4.890465553489985184e-02 1.078321867244363130e-01 -6.956947038477902245e-02 5.898584639224032505e-02 1.175575204632600158e-02 8.463537534660930950e-02 -6.202086252447328724e-02 -3.825063588816350613e-02 -3.350900565312636692e-02
-6.517754708985774859e-02 -6.694481976414624891e-02 9.054078807586937727e-02 1.726474498554637221e-02 1.855191300890221898e-02 -4.115351236209017355e-02 -4.928216404803621026e-02 -1.020550807091666484e-01 -8.584148483420463160e-02 2.621334220735426976e-02 5.521348829540403264e-02 -2.495631480867578980e-02 -2.272518298580410850e-02 -4.206446460002324916e-02 -9.259960915885909194e-02 1.023948143484420398e-02 2.907060414617910690e-03 -9.581695028207690146e-02 -9.583587212866431781e-02 4.737149873336047451e-02 -5.301557995027088299e-02 6.664812261364953805e-02 8.793432111304104459e-02 -6.867688547014112743e-02 -9.282277045116051756e-03 -4.703903351900384777e-02 -6.179828234194671005e-02 -3.023434700664628244e-02 -2.099746936781932485e-02 2.381027491348257016e-02 1.394007373723819831e-02 5.119701943272624706e-02 1.055217465703417803e-02 1.047903852176293171e-01 1.002537765684470839e-01 -1.495954561874413696e-02 7.831955902619354426e-02 1.057997346621854795e-01 3.605569189145181597e-03 8.294873485773406052e-02 3.249417701748543580e-02 -5.188474062787309937e-02 -3.027183384442508340e-02 9.953990757010761081e-02 -9.946181359649879095e-02 9.370469369677483784e-02 -4.482312660262008711e-03 -4.669390016557142115e-02 -1.029465061347322741e-01 -9.777046937674196969e-02 -9.692225561523669375e-02 6.952886853173700921e-02 6.624112578127579198e-02 -3.468276058791319033e-02 6.778102489281970233e-02 -6.655952305121996815e-02 5.967539438448941219e-03 4.296391724733446271e-02 8.307073760315999977e-02 -3.191374690788783414e-02 3.574880228104550250e-02 -4.640328923400339686e-03 1.858549961649444762e-02 -5.785981001934623058e-02 5.836042289109417275e-02 -7.000372385865488711e-02 -1.020720064506106667e-01 -7.926731308257241315e-02 5.374106256514041280e-02 -1.048187922090298568e-01 5.089644272565468919e-02 -1.106070052452416339e-02 -7.785644393411590702e-02 9.933582247526806519e-02 6.759635849986546374e-02 3.381595704416753834e-02 1.668720062010236455e-02 -5.289240627778772630e-02 4.764499244788232557e-02 -4.100495461934894337e-02 2.249183336899609337e-02 3.986986485007322500e-02 -8.973726346478609617e-02 1.026335059536407773e-01 -4.207193631170236953e-02 -5.084084370203013903e-02 -1.184647311995568747e-03 -9.358396584250300299e-02 1.888406587278440921e-02 -1.061876180883968429e-01 -3.698726279907233599e-02 6.030422542541995223e-02 1.036442640038385266e-01 9.962838391813760852e-02 -4.298766876067237203e-02 -1.041528455930634256e-01 3.356236768237306350e-02 9.311995379354091884e-02 9.869089897968591485e-02 8.869784167021277366e-02 6.837618335131875891e-02 -8.432956492728646558e-02 -1.722537006902792600e-02 -7.408238476512299386e-02 2.294650564093957124e-02 -1.941596556473554683e-02 5.597472674846975388e-02 2.251205467167254407e-02 -5.377991606730957858e-02 6.241039370145224502e-02 -8.644505781659636567e-03 9.261000551528925095e-02 -7.157373539631141368e-02 -5.628570543353153544e-02 -4.513006563737719662e-02 -1.779068499400008468e-02 9.445562168342923337e-02 6.758883576873285504e-02 -3.056138723669580073e-02 5.868744441013884483e-02 1.091583413270357829e-02 1.053393276504626525e-01 8.407617124118035856e-02 5.550117418695262733e-02 -4.507013721454607852e-02 -1.924035847927359558e-02 6.642901972276342437e-03 -7.549959939895201089e-02 -1.179903083136454867e-02 -7.714847836810284631e-02 6.192097447279979600e-02 1.018516405690973736e-01 9.844394619410189173e-02 2.898868687098753519e-04 4.004902316010103790e-03 -8.203991359345570722e-02 4.234235544206739477e-02 4.323433599510689840e-02 -1.009388228762066360e-02 1.053624270570207022e-01 7.948622219723824878e-02 -7.897242642810624325e-02 -3.612469575975726845e-03 -9.928725643774415077e-02 4.800775058697751702e-02 8.241360320937529682e-03 -7.254247704915539607e-02 1.202440137340526558e-02 1.052460447797556320e-01 7.531615461245783072e-02 7.046952304810062684e-02 6.542362696669407063e-02 -6.274569202116452027e-02 -6.664746808147611890e-02 4.186344308091181216e-02 8.344120010838804169e-02 2.509703732747475130e-02 -9.592091821400218488e-02 -3.141080648067561681e-02 4.801141501043639653e-02 5.224387719398384394e-02 2.725762484920964124e-02 1.059237538505111847e-01 4.613033979984116489e-02 -7.887569276308831201e-02 -8.046140351047288697e-02 -6.742315425113740157e-02 5.347072316327201001e-03 5.849927309679233203e-03 6.064073914643849927e-02 -4.766948965133849941e-02 7.220055005671405235e-02 -9.223976110537163153e-02 4.425073690977088248e-02 -6.408338250367105055e-03 5.439964784495159716e-02 -7.402606380527158858e-02 7.948565601695570249e-02 8.406901323217830582e-03 1.666680991327656666e-02 -3.736240822259734307e-02 -2.690507319307511649e-02 -8.450279764798573900e-02 7.366182148058236789e-02 -4.938388339348106365e-02 -1.074588851119347710e-01 6.633283683025097133e-02 8.012983716322585881e-02 8.563769785814503988e-02 -5.279953223258618267e-02 7.713790879127428723e-02 -5.536149173272566365e-02 -6.784472624313869771e-02 -3.038526889367017605e-02 8.319513103349127081e-02 1.032426146810836408e-03 7.090017243206159225e-02 7.056858293085274680e-02 -3.265044101245367925e-02 4.250935964041940851e-02 4.653288326852086237e-02 7.825227679679141665e-03 -2.359941866297313867e-02 4.677877036093626775e-03 3.092413108177977446e-02 -1.278164041090723568e-02 -3.808017637787536325e-02 2.409456137234113754e-02 -4.092134695655890581e-02 8.418254920972788324e-02 -7.380495648726413671e-02 9.185541897400456568e-02 -1.056532804380646007e-01 1.130213982547336599e-03 -2.792412313625498160e-02 -6.511245493268136286e-02 -1.181744445152581313e-02 5.857322196502270928e-02 -6.213375580922990415e-02 1.012254521516734729e-01 -1.562885180374956606e-02 -6.053299065080537146e-03 2.094208010808421699e-02 -9.178023057824692688e-02 -8.900681521735592794e-02 -6.065827316016614984e-02 -5.870418819409590344e-02 1.011206881162423493e-01 1.778435924271749499e-02 3.628240455808295906e-02 -9.729920085916847483e-02 -2.192201903233104848e-02 -7.059522727988623569e-02 6.675214697212979165e-02 5.540064158555627755e-02 -1.372096455564202414e-03 3.878349007499270334e-02 5.550232038802582757e-02 -9.655647833238871491e-02 1.202326219074291956e-02 -8.267989950089080220e-02 -6.242227944092217096e-02 8.737073491231361899e-02 -9.694444780379209148e-03 -1.477622449163461943e-02 -5.237335378901575300e-02 6.986794113886075908e-02 -1.533117757803551667e-02 8.631284243704835657e-02 -1.013143728499580620e-01
2.957687313061846401e-02 -2.860755400249659006e-02 -8.079628638950318159e-03 -7.399898103705124242e-02 5.215746637302939165e-02 7.709270161275963429e-02 5.015737843197914936e-02 -1.162859567393441894e-02 8.093511516299420339e-02 -7.109047367585057120e-02 -7.790766943644154841e-02 -8.849300445521682268e-02 5.962943918246246117e-02 -2.230996774663190560e-02 -7.288943086418753214e-02 5.576646281310444070e-02 5.850949574235763534e-02 5.450573823328540291e-02 -8.449125018939573906e-02 -1.134075588402168044e-01 4.362472880709417772e-02 -1.915634678821469955e-02 -1.034909922619144385e-01 -5.034775390744501700e-02 -9.748976573874830465e-02 2.262307260878429135e-02 2.901663259756643090e-02 -5.774102369897958498e-02 1.071649863140782116e-01 -4.203696625589310037e-02 3.699684572454738085e-02 6.790664473298618775e-02 2.083021330427223955e-02 7.449099928281897876e-02 -3.940638263937202429e-02 -3.279468066446739050e-02 8.810541096061417360e-03 2.997450405594956693e-02 4.212825346348936240e-02 9.487192310565749354e-02 -6.909364404160081574e-02 -3.185403743255876829e-02 -5.336157200906211512e-02 -3.639853454893919593e-02 -6.555680707806660346e-02 -1.867558764011086406e-02 -5.994214350259226970e-02 4.388259683805723760e-02 2.058164002132556458e-02 -8.321637729597941568e-02 -2.042799173819589628e-02 6.415625616619982652e-02 -9.518853075631494853e-02 9.682609620279866713e-02 -6.218054340653826617e-02 -5.738319341696009740e-02 -1.185465870310568361e-02 -3.647373316934029303e-02 5.975874562482325764e-02 9.005435731759463269e-02 -3.471339929667644885e-03 -3.464202529274489680e-03 -4.447539782773268779e-02 6.343793955671556128e-02 3.381320072389226022e-02 1.124473203685701361e-01 9.824015507481269338e-02 2.629083710109863734e-02 1.877645435607530958e-02 -3.221064413175807328e-02 -3.819036657816615027e-02 -3.665667542115631783e-02 8.926562872790323386e-03 -2.154913114011860337e-02 -8.582007038979073965e-02 -7.455547192877128027e-02 -7.501997853112724046e-02 3.226986552222658317e-02 -1.136601020051240390e-01 9.167416144209941664e-02 1.003551435662042024e-01 -5.035104314619036001e-03 5.305598412988875995e-02 -8.832511091224516664e-02 1.082560960242306275e-02 -2.728448693673557121e-02 8.607166962517348585e-02 8.623518690175063783e-02 4.008788927953127468e-02 -7.187571749327854864e-02 -5.946188296797543828e-03 4.098060030710890672e-02 7.578909154863179565e-02 4.096221764525562192e-02 7.497972749596723552e-02 8.952396291817582563e-02 4.624598236463491746e-02 -1.916191495494498978e-02 1.237798230055339038e-02 -1.242325518060108554e-02 5.548978280863033075e-02 -8.719500719083632390e-02 -8.834476849437594703e-02 4.918693876702292384e-02 -4.941674830590683798e-02 7.592051947008028601e-02 3.140560062589278952e-03 -4.077347961339305993e-02 7.342264902345014936e-03 1.727981975716166678e-03 -6.232770852418873658e-03 3.240728257446756633e-02 -9.073562439749430220e-02 -2.815901897516119926e-02 -9.449984891772544859e-02 1.969152042079467570e-03 -4.984333509229227355e-02 6.205585049915117446e-02 1.474233042473669861e-02 6.821977883229908557e-02 -6.207546335376421670e-02 -9.297740487122255204e-02 7.597510294411376208e-02 -9.859756977864053695e-02 2.223909343409976713e-03 -5.486515742564251896e-02 6.155929183925541032e-02 -7.341260891651282816e-02 8.836406968024757003e-02 9.833709600280869656e-02 7.176965915488969783e-02 8.129768743355858529e-02 6.122546924129158852e-02 -8.059137327244610127e-02 -7.482233507828485453e-02 -4.739346691661867200e-02 7.195122152886404554e-02 -8.652899406636638258e-02 -1.204797313200394425e-02 -2.300775421026934539e-02 9.948622528349014560e-02 -2.659381806040358662e-02 -5.588008034414279623e-02 -2.538059406670337831e-02 6.579857836408392613e-02 5.519302544306432107e-02 1.080339189903525843e-01 -3.396211153570471986e-02 -8.538092356568890984e-02 8.522416858810952234e-02 -9.847822682973471353e-02 -7.000376997807579438e-02 -3.795458380739460263e-02 8.138794910526746251e-02 -4.794575423917650514e-02 4.884688681363973800e-02 5.728875311966515754e-02 2.678684183264412252e-02 4.202145551823425335e-02 -1.979021520045798690e-02 3.421725405919610191e-02 9.730663780184981015e-02 -5.204738405812619345e-02 -8.873409853506715461e-02 2.414765096583615031e-02 -5.701146697728229351e-02 -2.679037984713742229e-02 2.852692224100905269e-02 -1.006833895205799106e-01 4.261383898325278585e-02 7.362138526225188440e-02 -9.391862120848298856e-02 -9.344803096388459331e-04 -9.994024180863080031e-02 4.793027949366549662e-02 -1.064290808054519089e-01 -9.444056333064511366e-02 7.586153708115581096e-02 3.765977678934930017e-02 -1.009908461130951951e-01 -8.220293019131627577e-02 -6.453385347868378918e-02 -5.971861141888948343e-02 -1.358819731332615473e-02 -2.184328414038624530e-02 -8.540751756045822374e-02 3.983945622424080180e-02 8.756747927050541336e-02 1.004384960363349372e-01 -7.947570700666881094e-02 7.250494958577401172e-02 6.809827415314202714e-02 7.725222000942441603e-02 -1.907699154080309822e-02 4.916859155810060500e-02 -4.012329845420832541e-02 -7.955882036737799146e-02 -6.622640116707378954e-02 9.282531253698478313e-02 1.029410618322905563e-01 9.472173292612315332e-02 -6.942367176858298128e-02 9.540065083191409667e-02 -3.177352954656003509e-02 2.570585104059108783e-02 7.901606240092043376e-02 7.910098173253557463e-02 6.697424050413278152e-04 1.409132840197008935e-02 -9.937849693741444834e-02 -2.223004903537808760e-02 2.825901897042576091e-02 9.354456423216560290e-02 -3.215500149364022842e-02 2.753337314922747400e-02 -3.573200311028114362e-02 -5.097932615722076261e-02 6.263865843064321537e-02 -4.179273158754046036e-02 7.937473655765651948e-02 8.443555633588861742e-02 2.102761465346471639e-02 -8.410438659985158827e-02 -5.580292497189241752e-03 -9.902795950535762948e-02 1.134626134353296512e-01 1.110300319468592034e-01 -7.600742745517635734e-02 7.852669694938864409e-02 1.558919321579156289e-02 -2.906969834519326432e-02 -8.967894455770820950e-02 4.457759922411311249e-02 1.662529617432789708e-02 6.337271934424983100e-02 3.336069926617189069e-02 1.189234160563915933e-02 7.698471700256521999e-02 3.414956282443164237e-02 -3.593565882051213967e-02 -2.847044289514047768e-02 2.130344207288601202e-02 5.180911474523194199e-02 2.340590756893191210e-02 1.930669814489336528e-02 7.469729352892144625e-02 -6.397017148547960719e-02 -1.372565972943671012e-02 6.146163600179065795e-02 -8.292533087829530303e-02
9.881961196529115421e-02 -3.722370821157626464e-02 -5.419890514408483295e-02 -2.860894698422201954e-02 -2.024939535388051940e-03 -2.955964360565149079e-02 3.940768990474197847e-02 8.929885192687726791e-02 -1.064505988386975008e-02 1.132762238845467923e-01 4.443055764012793923e-02 -3.571540275912936380e-02 3.230246771302890119e-02 1.584887977274932261e-02 3.203613967442144744e-02 -3.696401383185841938e-02 1.818013080679968183e-02 8.651924322826768862e-03 -3.489363922165931303e-02 -6.943952202033704113e-02 -8.573799639141552187e-02 7.189415628854801954e-02 -4.331818447278802664e-02 -1.330074518695756325e-02 3.447235519563646156e-02 -9.656500029110164085e-02 6.919410960609753691e-02 -2.451040244569965831e-02 5.159483885712085049e-02 9.909402605476003156e-02 4.839896431963451595e-02 1.876126762544040594e-03 -9.478755704627930823e-03 3.887600888675610961e-02 -1.141226939028996967e-02 7.004771238220718066e-02 7.056684066004992317e-02 -7.598724862297184801e-02 6.938736736489356516e-02 7.194114025881248597e-02 4.940644065888270126e-02 1.659489301045842871e-03 -4.849979107701542919e-02 5.378588806453908633e-02 -3.467518160987066722e-02 1.771211991483544190e-02 -9.076315822037241132e-02 -2.391735713857947795e-02 5.766302520036215712e-02 1.005226273792232949e-01 1.269602783075119423e-01 -6.764083536608835046e-02 -5.138434346357795973e-02 3.382356784419138923e-02 -5.737378365675283032e-04 9.973448263819970072e-02 -1.141605499048299888e-01 -3.003190482701802166e-02 -3.802223394997495537e-02 -9.098825807656524267e-02 -1.395740110053726030e-02 -1.601108026736926260e-02 5.720654077185550329e-02 1.519046855845147988e-02 -5.332402388558938472e-02 9.012222860125967266e-03 -8.709557007796571437e-02 -4.133213627611996566e-02 1.086218880402897297e-01 -1.041335574665614855e-01 -1.506659216983997213e-02 8.960703547366484500e-02 -1.050621946620231839e-01 -8.331785803828656300e-02 -9.208680595052247397e-02 6.337468293270069608e-02 -5.909520793396969007e-02 -4.430774762168250558e-02 -3.595833847103747927e-02 2.559183638423920271e-02 9.879743775737799549e-02 -3.594953228625005770e-02 1.508867789477218516e-03 -1.936838139268771616e-02 1.127867016371515430e-01 -9.151532245812883659e-02 -1.108085322395240407e-01 1.519316102176160657e-02 7.417969080917555594e-03 1.643491184524517243e-02 -5.293314456075277896e-02 2.643320568366799850e-02 -3.774217594972082562e-02 -4.095051389921471052e-02 5.414796623185404861e-02 7.907272469568342455e-02 -9.098801198523429057e-02 -2.011068825039594166e-02 -3.798562589324954580e-02 2.255078788945464457e-02 7.297382103310350032e-02 -2.369181612697120534e-02 -7.231018611418911501e-02 2.649555493267857602e-03 -3.630792950212734238e-02 9.675035127977309191e-02 2.675725773237726951e-02 1.064521915398597557e-01 9.431211027345579034e-03 -5.999733673725521355e-02 1.388411418935248803e-02 8.568852702318266457e-02 1.343479681771943268e-02 -5.731137093563294649e-02 1.226797420210737066e-01 -8.702359599610176577e-02 1.102019084207622318e-01 -6.996443637999853749e-02 1.099337798558153168e-01 1.895064017422389349e-02 7.606936572995917634e-02 8.518934070017060434e-04 6.270537520309794888e-02 1.000127008799510109e-01 4.979312313886791880e-02 -1.035978376944654833e-01 7.476873662337835819e-03 -1.978584665425204073e-02 8.252007092363893015e-02 1.224461110064830813e-02 -4.337472958008597307e-02 -1.099147761060488906e-02 -1.033648654413224788e-01 -9.133075597475925900e-02 -6.126777325355992065e-02 -1.086853810606299986e-01 -8.315320962399760929e-02 -1.111602363915771552e-01 5.668387485098706075e-02 3.229425039005887673e-03 4.178453961249965765e-02 -3.783734802903388622e-02 -4.766238995718525759e-03 -4.822229445270880682e-02 -1.171209734446019141e-01 7.665798708450724530e-02 2.094692210156381962e-02 3.544518423125427725e-02 8.896476769798349060e-02 -6.199980017552055717e-02 1.729846110722927863e-02 9.716408585807602416e-02 -1.223917725930667548e-02 9.763518935040363389e-03 -6.698845480074301639e-02 -1.550073468130096221e-02 -7.027944247961497026e-02 4.399748599183955777e-02 -1.091134895311581254e-01 4.736089981815178040e-02 5.539756416732530275e-02 5.097593072819165544e-02 2.355621037110667421e-02 9.241647916591694267e-02 7.509018614837313643e-02 -5.294952672823383805e-02 -3.892680624077494989e-02 3.954234547905232516e-02 1.205713740960345781e-01 -3.920486608290030262e-02 3.063849324579126163e-03 9.692854155944179151e-02 1.923343120158467132e-02 -1.697047789492168307e-02 4.429373249472131485e-02 -1.031601042504579901e-01 -1.119516603763110775e-02 6.220853339801541565e-02 7.439199878395232057e-02 7.675177883849777782e-02 -1.936116339465265151e-02 8.610004078759196655e-02 7.009834249255850191e-02 -8.268331996157882169e-02 6.061043543023199309e-02 -6.247054024325397747e-02 4.322804435736559564e-02 1.415613699367879522e-02 -9.258197424676462006e-02 -6.106414108277333913e-02 -8.187461833978534886e-02 5.755014459123999893e-02 1.093982860323334111e-01 3.832658887442319529e-02 4.369190116380636951e-02 9.974065301467215094e-02 -5.955090098638185503e-02 4.500549512926975415e-02 6.517968656221849455e-02 -3.888043360041247565e-02 5.437626171636159716e-02 -3.319135838510490349e-02 -1.044142164447282306e-01 -9.883535696081069410e-02 4.844529765899844437e-02 -8.267810735547115319e-02 3.812979266711132714e-02 9.886503560855505746e-02 1.851510099303503923e-02 5.048865822855545804e-02 2.006878886157289609e-03 -1.795497394210459480e-02 -5.640321392773448017e-02 9.076566703701761940e-02 8.880097617101526120e-02 -1.015221022603044754e-01 -1.258328971095984752e-02 1.740469629777417412e-02 -7.912544760177147446e-04 -4.633818927502433155e-02 -7.048359750761837295e-02 -8.428265137094473336e-02 2.619860586901226300e-03 -8.926500689711531350e-03 -5.375645930971558600e-02 -4.838333000924199129e-02 9.540455227242973513e-02 -8.033242280657910961e-02 9.207880514379171433e-02 -4.385205661309153624e-02 -4.615152657568544724e-04 1.093837289644208344e-01 -1.075964395616855612e-01 -3.384588017194448128e-02 3.466068257149726439e-02 -1.262449211671072893e-02 1.349599110128759348e-02 6.790878873086848844e-02 -1.689758380705359830e-02 -5.546127800072030156e-02 7.580306300056730527e-03 -4.745138024140989862e-03 9.512071224622707655e-02 -2.173043774541910667e-02 -6.675425440123364251e-02 -2.440275536864882494e-02 6.255917498011924482e-02 2.712244699123771141e-02 -9.361632916507080238e-02 -1.624486843342749440e-02
-3.265946743090022281e-02 -8.890869033998009818e-02 -2.459627443594447627e-02 6.609681943947685878e-02 -9.506329408487403099e-02 -3.268078378184875038e-02 -8.259968209003638873e-02 -4.597623938938785737e-02 1.790972346618932912e-02 -9.996150616706178660e-02 7.866284910509144940e-03 -2.215465580142387397e-02 2.013493869385811486e-02 -9.673510401044918550e-02 6.742853346435294382e-02 4.349568293280920567e-02 -5.341947208758837662e-02 5.187451699087886753e-02 -5.546312366848511061e-02 1.013551777189603681e-02 -2.290323208552255251e-03 5.826372805721205528e-02 -7.995160954145527632e-02 2.022793853840843675e-02 -1.399528089866211057e-02 -7.756656343250069655e-03 4.410702299415201338e-02 -9.127592392783615005e-02 -8.562117725770630738e-02 2.770833594471113284e-02 -6.867656510789336977e-02 4.536402802556527974e-02 -3.178983728020971788e-02 -9.826277924181142653e-02 8.291016828992475718e-02 7.357479129990233957e-02 8.123794566321024258e-02 3.385853886593488682e-02 -4.462001478141856825e-02 8.211665657943276186e-02 9.373319830877140102e-02 6.310352773999766685e-02 -2.698395056886526353e-02 -9.145763296017579702e-02 -1.537871182173329923e-02 -1.073911580351632478e-01 -9.071712621600043491e-02 -8.395314908269427626e-03 2.626037624483446020e-02 -5.402732929040493515e-02 7.741742406306741098e-05 5.355844218255794570e-02 5.731749717094079821e-03 -3.486043282791589232e-02 2.745324019862537684e-02 -5.188006121163081519e-02 -2.161071491143038564e-02 -7.661123978446307548e-02 9.567417646898666861e-02 9.241267722996454603e-02 9.930699956670329190e-03 -1.137697979612195889e-02 -6.690112152115325339e-02 -3.469863858139813489e-02 1.721892708665644089e-02 -5.065094427320598197e-02 -1.136375179134008727e-02 -7.556426694068957284e-02 -1.201911035697434960e-01 5.665973702531380829e-02 -1.361674492486294671e-02 1.668742806527953246e-02 1.005647160168883641e-01 1.319528462065414250e-02 7.656264840844809183e-02 -3.878729089582821921e-02 -9.145449673003651359e-02 1.162753330663886392e-01 3.950551795035072561e-03 -6.149832823794460640e-02 1.441992940015381260e-02 3.246971725706326167e-02 -3.462632964139720354e-02 2.834020305284545502e-02 -9.621612439368415481e-02 -9.656631076781951872e-02 1.004676994181061545e-01 5.990290340840510180e-02 2.715707844276676192e-02 1.162649971391315623e-02 5.697562407631041187e-02 3.131246878964753788e-02 6.533905898753566976e-02 -5.529635249480848586e-02 1.056128293551128472e-01 -7.466641672450939626e-02 1.564598417956622467e-02 -2.780366166775118109e-02 5.523068153767526217e-02 6.839274281181202675e-02 -1.200980442455779063e-01 -1.933765248902463013e-02 -3.708396536804955956e-02 2.339431352931353389e-02 -3.311358203178885184e-02 -3.108555894358446675e-02 6.114675284600963601e-02 8.733034209481681243e-02 -3.631385524033804713e-02 8.047138432759837201e-02 1.908865045731053880e-02 1.086935528794943651e-01 4.114909895436155707e-02 -9.012845977860997268e-03 2.461863354353686570e-02 -1.201035879063019063e-01 1.648388143914523638e-02 -7.284199071997567165e-02 5.363016227547853093e-02 3.904556038565057396e-02 1.201017017842151563e-01 7.037510760298955337e-02 2.444809990885931858e-02 9.304798397157656997e-02 4.773104695472656089e-02 1.420529654295936417e-02 2.816489944194309342e-02 4.514164132137291063e-02 2.253623836789101290e-02 -5.810421313834834151e-02 -6.987456840122623081e-02 9.151403435247519591e-02 3.381886216076532281e-02 -8.228737704983719869e-02 -8.986140309247959979e-02 1.362103637065982358e-02 -5.125901971397042040e-02 -1.952007483097062748e-02 3.803314185112749435e-02 -2.587521002099433046e-02 -1.273086405075959660e-01 1.040273351016893916e-01 1.392854749728271446e-02 1.155317784105388546e-01 3.389400877028454079e-02 -5.066941320353363781e-02 -3.767031584699327695e-02 3.917578553439836353e-02 1.322090975819278924e-02 -1.260542382438171755e-03 -1.032283440290523019e-01 5.406562024023626144e-03 1.054846109510841901e-01 -4.724666384805716046e-02 -8.794452650960894735e-02 -2.416448832251045717e-02 -7.533950043760750948e-02 7.099548203324711204e-02 -4.815020079111188844e-02 -4.134860335705032447e-02 4.595288783928140608e-03 9.967786147914035888e-02 2.570826996619099761e-02 -2.556556133432193526e-02 -1.137466764846333939e-01 7.916897752165452662e-02 -8.661626458777864357e-02 3.661714734955560241e-02 -2.684292206539594036e-02 -6.242211442975580810e-02 3.670827780234879600e-02 6.393893455949206661e-02 -3.833861765100041175e-02 -2.279081995316186576e-02 3.486418369349122970e-02 -8.537748896277365385e-02 1.123154801848321310e-01 -1.723072817302167756e-02 4.437857189732553886e-02 -5.582414607806403251e-02 -1.065452146829034275e-01 4.510735645819712036e-02 6.876206355766793787e-02 8.673999850534430678e-02 -2.746622367178979535e-02 2.902687699892071010e-02 5.416348675192485945e-02 5.302432253540816792e-02 6.708187549584644638e-02 -7.408778822477248005e-02 2.529850199808879232e-03 -5.357234492021150513e-02 2.716982998187257581e-02 5.576209143396564094e-02 9.885639395729672874e-02 6.530724096514575749e-02 -1.831685524256230005e-02 8.856727816959598931e-03 -5.716525772673951289e-02 -1.315777723323292500e-02 8.581279453851636818e-02 1.311139709211347430e-03 -1.142373486896578472e-01 3.439772744918858510e-02 -1.023390418116933986e-01 1.224108700610038042e-01 -8.283796701103343652e-02 -7.889099292508806871e-02 -3.664523359777194927e-02 -1.143490314773360911e-01 1.102529384837421106e-01 2.940093346943010305e-02 -8.372419958041152355e-02 -8.691028919422508214e-02 -3.758349586423958416e-02 -1.078979211856929549e-01 3.029652186552006174e-02 -5.821813496850414271e-02 4.169033007393774248e-02 -9.943009033076288805e-02 9.707375255221967203e-02 1.020317328447814809e-01 -6.242951094199721690e-02 3.660213156595729794e-02 -1.602560950044380414e-02 -9.493792041153124861e-02 8.626787829984405853e-02 2.079934799194389089e-02 8.129633954361416281e-02 4.001048181012728522e-02 5.361320234754746866e-02 -2.248084226290288437e-02 2.936156448480132380e-02 -2.896919211754666462e-02 -4.227746421756949091e-02 -7.605564814768552007e-02 8.825327902691701421e-02 -6.589343355779564773e-03 -6.456451160542325818e-02 1.278526130571225675e-02 6.632529972879917801e-02 5.647557822684508982e-02 -1.038941661900081997e-01 5.321516345544689830e-02 -6.041935419577069283e-02 -5.307231713512626948e-04 -6.465678700312205672e-03 2.925773257849128423e-02 -4.446818357026530860e-02 7.859443416066895505e-02
9.636176689707820486e-02 2.179881366703908391e-02 -3.293255668624714416e-02 -2.015577511065478472e-02 -5.239709874623669876e-04 -8.685821232432017203e-02 -2.613981092017642754e-02 2.900858086136449618e-02 1.184550067450339111e-01 5.311136722234953422e-02 1.013445450611799997e-01 1.004227974637143112e-01 5.468006923133200171e-03 6.790370019832962789e-02 -5.161922416809899307e-03 6.467312661405527630e-02 -9.648051270131233204e-02 -1.090738885037216555e-01 -1.027103184658290924e-01 2.916976019031112741e-02 -7.211492332779934067e-02 -2.869364048799159100e-02 -2.054774336619882673e-03 -8.637297755337544625e-02 2.854710941006393873e-02 -9.031293155553990482e-02 -9.549494118578563673e-02 -5.261465351653443062e-02 -7.511734440153199077e-02 -8.361268667975500779e-02 -1.597021724702697362e-02 9.335061581289402777e-02 -6.326320897039225399e-02 5.521980204501855671e-02 -7.032633899625179152e-02 -1.362324354187447427e-02 -4.178614856167732830e-03 -1.552452144603352728e-02 -8.855813370602688694e-02 -8.664633589669860914e-02 7.654579255023302720e-02 8.915762910783982254e-02 -9.248094680608487383e-02 -5.807873750156735543e-02 -8.981418625774312270e-02 3.301238814536951865e-02 -1.294629624731270801e-02 2.668781313053266574e-02 3.033667325931590705e-02 -4.221944967180413927e-02 3.238286993972541716e-02 6.272045019524835618e-02 6.616498975030870450e-03 9.278910388851527302e-02 -1.565682435808601891e-02 -3.622458651543799396e-02 -3.114814102008080579e-02 8.555660018150791635e-02 -2.437164638590896479e-02 9.155282954069500490e-02 9.035708523825815991e-03 3.922285002767057077e-02 -1.108142031942032785e-01 -9.783439113694297751e-02 -2.122327004562410760e-02 1.945673365254962581e-02 -2.658178193707287640e-02 -2.428829878228067757e-02 -1.272938886595036904e-03 -3.138955014916495340e-02 -1.008479108055169576e-01 -7.723050244289406119e-02 -4.106183652283467572e-02 1.233069954636526432e-02 -2.736906775351346729e-02 -8.402978461479457262e-03 5.241429324546474471e-03 5.615111499662860106e-02 7.253599516711554951e-02 7.037833503255057355e-02 -5.921598967376004441e-02 7.122590681503945809e-02 -2.241796988011948016e-02 2.363815988774235766e-02 3.219023855996310662e-02 -7.755097021009886571e-02 1.234523196715080484e-01 -7.706509298235257599e-02 -8.246044643346736591e-02 3.338517070998923281e-02 -9.354058833104954285e-02 -1.202796715604572027e-02 -8.387576306274985294e-02 -8.471202627340383706e-02 -5.420480122099560587e-03 -1.004908847403110511e-01 -7.956868688677141976e-02 -4.227737645855793314e-02 8.047417379745171184e-02 -4.394625470090653130e-02 6.629714661872006254e-02 8.368721904726783914e-03 -6.142828263749133128e-02 -3.898232725157478595e-02 -6.203497897675334244e-02 3.921817221390527103e-02 6.424027234631837779e-02 9.036958773325536043e-02 8.287397385080567946e-02 2.625511231804639189e-02 1.070293602338571876e-01 4.830125526460726793e-02 7.303048877106132868e-03 1.321051885842808304e-02 5.848105496896872924e-02 8.637724638754376572e-02 9.765652181302930668e-02 5.689201421453578267e-02 -9.131225837669933176e-03 -7.783768183238400085e-04 -6.350083274998100102e-02 -8.173326286095564108e-02 -2.898274140322252765e-02 -9.627521386970766537e-02 -2.187014288519726485e-02 -9.781836953045922045e-03 -6.076190817582813319e-02 8.297586379684822322e-02 -6.675251819507944939e-02 -3.490910441243340323e-02 1.135076582291333000e-02 5.210297005218441496e-02 4.349533029594131010e-03 -8.259418286048075819e-02 -3.108578334308290808e-02 4.818187466208956327e-02 1.059922176934867816e-01 3.729842247272690398e-02 -3.089525002463290246e-02 7.455616748157711804e-02 5.265983339232515464e-02 1.072926513157188427e-01 3.122433223200235877e-02 1.040804929712533522e-01 -2.997327952205380841e-02 -8.774039211786700820e-02 8.207711293210916137e-02 -8.312092745766661017e-02 4.012390013427220847e-02 1.647148690421133127e-02 -1.461451366136144563e-02 2.543238059308131072e-02 -1.851621398973432586e-02 2.715969320907664700e-02 -9.153708446453159842e-02 6.418771483086635476e-02 4.324257644839071824e-02 1.780848988216720413e-02 1.123032589584199437e-01 7.758030651896621888e-02 -5.338589330741101008e-02 -8.649710646307672002e-03 -5.205877242652780235e-02 9.516917875714334119e-03 1.097026920718178686e-02 1.022658590361322783e-01 -4.831129660892798106e-02 5.144299031918787152e-02 5.853645625896172072e-02 7.586619577766174488e-03 5.972499038817011274e-02 3.932271074495724550e-02 -4.160302391459573534e-02 -3.806486469818598506e-02 2.521427437827047230e-02 -8.506456982241634296e-03 -5.280121715913493191e-02 -8.657361750461890770e-02 -5.809302653132563526e-02 9.065210734133791193e-02 9.158397219965255798e-02 -1.244561259411999382e-01 -1.115752599077358687e-01 3.396853869393438863e-02 -8.346471855836343212e-02 3.686467807647664241e-02 -5.340118645814245085e-02 -3.690944613513254952e-02 3.339106635113901073e-02 -3.142990187622330539e-02 9.051504313750732833e-02 -4.258289923736435778e-02 1.002461404889000568e-01 -3.992712967217663944e-02 1.371390129525012352e-02 5.724342252244159213e-02 -4.098683319156382066e-02 4.224598280243067883e-02 -7.168073765993233926e-02 -8.552579061446193009e-02 1.153732436253196852e-01 -6.037844383165802409e-02 1.044288298405137566e-01 -9.921700365818862666e-02 1.610528754367378940e-02 1.367281949892300980e-02 2.986355720374067602e-02 3.335053166646816114e-02 1.118935356940331666e-01 -2.967672392602045683e-02 -1.161798839323075205e-01 -1.783016705411649347e-02 -9.905841438169070423e-02 3.744635909972716253e-02 8.662676791884017791e-02 4.622483368556103145e-02 -1.165342070080614273e-01 -5.437177686658355158e-02 -6.120805622891282993e-02 -3.437954475580015656e-02 -8.159365666073058188e-02 -8.862191789636154893e-02 1.944963815633120319e-02 5.889378951475793267e-02 -2.562676876124281300e-02 4.558598771257714455e-02 -1.654249920233560357e-03 -2.831629924795357484e-03 -3.460355523319059989e-02 -6.638944929721339594e-02 4.585617822335011362e-02 2.255716256528871033e-02 8.401004294214488299e-02 -7.175750801935695811e-02 -6.173191098073023408e-02 -9.346138502288610372e-02 -6.709118950186497565e-02 9.856294922657524160e-02 -4.032522230540229458e-02 4.893669993079895891e-02 5.868850787382140499e-02 1.902800665354544354e-02 -4.735695628662274503e-02 -2.966191740791725845e-02 7.038189643994473277e-02 -5.861234592484559219e-02 4.781224369016552622e-02 -6.039376186793619927e-02 -6.965678569445163393e-02 8.447410027909782460e-02
-1.084836283643372257e-01 -9.707997054934577874e-02 -5.396356512973943947e-02 3.200721708168609292e-02 2.324069605627360896e-02 1.134851793344844317e-01 -3.470156364795416726e-02 -2.609255587317504954e-02 -1.352389576856299555e-03 2.848060549346943457e-02 8.095251918496612631e-02 5.841771763757414027e-02 8.109310956932014314e-03 -2.302140582497265962e-03 2.966222883009188988e-02 -7.204162933237129307e-02 7.203394784186259447e-02 4.055514522490787088e-02 -6.009422447822764662e-02 -1.113329429672970938e-01 3.935834616115399531e-02 4.390145273365531065e-02 1.474192725008292501e-02 -1.343415182781417666e-02 9.926957539316966228e-03 -1.043614997563361776e-02 -1.888879484444692600e-02 -1.129228322784491256e-01 9.199809660635854813e-02 8.298580491983485741e-02 -5.561545039888662889e-02 -6.867208281879499422e-03 9.496479116511587215e-02 -4.501618583369067228e-02 -2.955742389675302187e-02 8.753251900373609784e-02 -9.206408273813330989e-02 1.782056413614048831e-02 -5.344670962274411519e-02 -4.917134086211256971e-02 4.667292165113117591e-02 1.025817406318207427e-03 -1.084107315593009352e-01 -4.814288990699208681e-02 -8.918593603888262666e-02 -8.848519721617871536e-02 -4.818373055684146977e-02 7.995945486222895415e-02 3.426620288524182423e-03 -6.179330528205962542e-02 -1.022295992326365949e-01 -8.113157669695833518e-02 9.551605936110746375e-02 -4.970891982368192547e-02 -2.932303299641059874e-02 1.148710434404113037e-02 -1.734945924315129187e-02 -2.241002163798169224e-03 -1.778711076634389987e-02 -1.654621345612254310e-02 -9.169495617104363172e-02 4.295128920722766225e-02 -8.124686550671740559e-02 1.681610198002558149e-02 8.279482278977473575e-02 4.803656204073572522e-02 6.385034512552879848e-02 -1.274840021682582120e-02 -7.411232006269742600e-02 9.119290273707447714e-02 -6.208700355337334886e-02 2.253732470444115218e-02 7.387293046026162380e-02 4.213507970266444635e-02 5.368059302437963587e-02 2.753171364364083787e-02 -1.118040199379323196e-01 -7.852709961662658611e-02 -1.124894195438463779e-01 4.332412358438803707e-02 6.085198497030232245e-02 -8.444379128674228685e-02 9.780970361763548226e-02 -9.678940536121931337e-02 6.111092534426928319e-02 3.151444251474588149e-02 -6.365701424903859318e-02 -7.284148697685417784e-02 4.711257733406688797e-02 3.391247199623553810e-02 -7.114729518902936090e-02 -6.794531992204000392e-02 3.705864538012569945e-03 -2.471062060875849065e-02 -9.005737747011993699e-02 1.500000212893886492e-02 1.159264899008154021e-01 3.859750190130285113e-03 9.843016242496328838e-02 -1.029916421915792746e-01 6.624463036695484031e-02 -3.562733300689478744e-02 6.820103471166706621e-02 -1.212113380129621609e-02 -9.137406147566569034e-03 6.108804561252190179e-02 9.083098789594566680e-02 6.824345961286268358e-02 5.152940944359619968e-02 8.387802434196588164e-02 8.833721264529173500e-02 2.521883645632695334e-02 -1.135304946380490537e-01 2.230576571335926572e-02 -2.365397224735591927e-02 8.430247066985110949e-02 -3.590425246185040969e-02 5.865426343304909473e-02 -7.429822973244640250e-02 1.023809898515956746e-01 -8.584480257808753401e-02 8.554946282393362245e-02 3.534045436528697459e-02 8.877899551632270625e-02 -2.673298735868605974e-02 1.008970729405894023e-02 4.606792005596132417e-02 -1.118112171421213885e-01 -5.423171804142496583e-02 -7.931683505137761270e-02 -1.635163995813787227e-02 -5.222218238510195620e-02 4.053038922578303116e-02 8.116067479433768106e-02 3.540807732163729626e-02 8.863893915788489605e-03 -7.546219044038103563e-02 8.228607373970037164e-02 -5.303800789885445427e-02 1.396563212987027985e-02 -8.950504789802037064e-02 8.351482278422353578e-02 -5.100266678406167181e-02 -7.613383071483510733e-02 -7.948004143804339450e-02 -5.035666828071463236e-02 -8.108148944477663878e-02 9.737455682607351615e-02 -7.032637495597257593e-02 8.824984084433537546e-02 9.005253970404145103e-02 4.778600772352097070e-02 7.579253855755083147e-02 3.258179851327130255e-02 2.302045919550627096e-02 1.488315925017515487e-02 -7.398798675670455183e-02 8.967755762134889397e-02 -5.422824524137873081e-02 -2.104205419299843421e-02 -5.339250747298161792e-02 3.570518992522052782e-03 -9.325194350931340082e-02 5.668819597532760712e-02 7.051796765094849040e-02 -8.335247002831341900e-02 -4.229836185291359352e-02 1.521433044427959909e-02 -1.796657849031185403e-02 3.804154943874234890e-02 5.279915447871919021e-02 8.478409061494898702e-02 -6.998170181225882303e-02 -3.100825131927024969e-02 3.087906172802847016e-02 3.722463733006411285e-02 -4.686578182297375383e-02 -6.523011511271847862e-02 -4.284183439712580671e-02 3.725941877503206878e-02 7.838244959652131486e-03 9.680562280016334620e-02 -9.281552674475126996e-02 9.360953634950937297e-02 2.607634470481150213e-02 -3.195005773812215066e-02 5.849827081857311706e-02 7.120621223605676231e-02 -5.776248749758570999e-02 6.652106190398557328e-02 4.119066717995380385e-03 6.454816512201677625e-02 1.011073306760338908e-01 4.125426327651862679e-02 6.632053758749170691e-02 -9.767123038895071663e-02 -6.941748212351042668e-02 -8.582650441258426327e-03 -7.407632183336117226e-02 -7.208042541081249865e-02 -2.971097741560691646e-02 -6.869180122142887202e-02 -1.007192324663589919e-02 4.063868876225318338e-02 -6.206629829822885719e-02 6.598101711498030944e-03 2.392842154004685279e-02 1.382339166015390808e-02 6.041168468253972634e-02 9.564536783797690511e-02 2.620664006407620594e-02 -4.408957232780027352e-02 2.078478596693145164e-02 8.764647607928525985e-02 9.250125174128887018e-02 4.058741336198654071e-02 -1.044822665752284524e-01 -2.887230429996744813e-02 4.561243994780106448e-02 3.834058382835148909e-02 6.721207271535779848e-02 7.717582193817791592e-02 5.456103722927973382e-02 -6.493995089527313316e-03 2.446134654562982791e-02 5.062969920161464882e-02 1.157715171185108721e-01 6.918674179337511165e-02 -1.470557222503426215e-02 -7.362713539295002996e-02 4.163668531734437267e-02 8.543599859356244830e-02 -3.207291231060584169e-02 2.570054463842080111e-02 5.474628272098927551e-02 7.203913100345937792e-02 1.330131809094547805e-02 -7.362620557953597489e-02 2.195288597491312083e-02 1.697855565399048177e-03 6.746905389408454357e-02 -1.118163145897702881e-01 -2.045945945253425935e-02 -9.351894043395753142e-02 6.161298140138541518e-02 -7.103960693553121319e-02 5.149008961814031948e-02 8.601447198289288720e-02 -7.172094796179908846e-03 5.553141975348942910e-02
2.560412046667745467e-02 -1.031132175313745902e-01 -6.605688641703785779e-02 8.793181809442437991e-02 6.136505445765552506e-03 -6.269698356534121608e-02 -6.368885474014590597e-02 -6.431465148185783187e-02 -1.143633740804547161e-01 -4.556330577421659894e-02 6.203065148275973412e-02 2.880336272787814567e-02 -1.437476788509030844e-02 8.568713190649115963e-02 9.229051423555827138e-02 7.950263677373733961e-02 4.987572427677260806e-02 1.022538496883838161e-01 -7.261741827583517717e-02 9.011484379351618335e-02 4.984361725600595927e-02 3.705292003306109860e-02 9.118960951167216777e-02 -4.531281678330155438e-02 -2.128793240411439719e-02 6.832948688680023919e-02 -2.366320075308193244e-02 6.304740887382617731e-02 6.570640427216242752e-02 6.785417078735869745e-02 7.744079920641279424e-02 -6.258287150088723272e-02 2.525126616097914459e-02 -1.055130358067921242e-01 -5.191397824690480167e-02 8.918341910026243713e-02 -1.945678641875738663e-02 6.091465693583320018e-02 -1.159421493392450049e-02 -8.257447120612231017e-02 1.034570288922072312e-01 -7.177074457068155500e-02 -1.214355762077459419e-02 -1.600381382297182131e-02 4.641884490919134798e-02 -3.973600156273165984e-02 -5.898196606037383466e-02 -1.517662500540587194e-03 2.668781798291837773e-02 3.270282409476901742e-02 2.346616665502167937e-02 -1.157120045414752330e-01 -2.311097578802836019e-02 2.103580336770697126e-03 6.048573483228364411e-02 -7.312786021649922419e-02 -1.052243560918399434e-01 9.296722596430852248e-02 -5.456770572960248367e-03 7.675964342939946283e-02 2.351375577913603770e-02 -5.391664772101915915e-02 4.329864830842215795e-02 -6.383400919597302658e-02 -2.457301684224620815e-03 -1.327646735775412506e-02 9.756009868128580689e-03 7.630318852287920617e-02 3.425516024666540316e-02 6.426887084483029478e-02 2.263197158743055978e-02 2.692067995269925920e-02 7.537429665711047055e-02 -9.122440166197043343e-02 -3.934636314287045383e-02 2.837097056073685508e-02 -2.435611320040485014e-04 6.329437548387024937e-02 5.187829069542978372e-02 -6.679149649991028559e-02 -7.868629502000608344e-02 1.040459300526899583e-01 7.027416827705877667e-02 1.004838567982379721e-01 4.830173211466741445e-02 -3.111049460239702705e-02 -6.660709647712993384e-03 2.495053011304336141e-02 1.028965674119382834e-01 -7.289853285021122287e-02 2.714677935066559314e-02 6.224898871435510794e-02 7.401558239417083129e-02 2.060491335049807055e-02 -5.479650534582792415e-02 4.226483985023290341e-02 9.412586702443480335e-02 -9.845079885701310540e-02 9.464809757178938021e-02 -9.623635495766018344e-02 5.112440041355134634e-02 1.004602473529461470e-01 -7.814590421350363358e-02 -2.792582748153736930e-02 -2.749581910614407043e-02 1.894265238551680374e-03 5.361730565562627254e-02 -3.216244268171977727e-02 4.085665513699100054e-02 -8.527391264971440066e-02 -4.612348868268933283e-02 8.589648627724186247e-02 -7.425431970701033835e-02 -4.777242041278662726e-02 1.033148890826854072e-01 5.354110244230409626e-02 -8.721702595829140814e-02 8.968161367189433908e-02 -2.402558091559246767e-02 -1.978093141835074106e-02 -5.812542277243276656e-02 9.393244657317842417e-02 6.389015027721287043e-02 -5.042379593416421862e-02 9.557545277992052224e-02 -6.016606948170589997e-02 -2.403966459972081693e-02 -1.582401941799922024e-02 5.038249583134392362e-02 -2.114768790843863169e-02 -3.068172174843862912e-02 5.664265709618160165e-03 -3.346679221518080588e-02 -6.569418701970150543e-02 1.504049398006195720e-02 2.585175467118525430e-02 5.417267109316164370e-02 -5.045145602083784403e-02 -1.881516675056883747e-02 -9.547176069244424357e-02 7.234015112120247004e-02 2.460333958669420201e-02 2.910280722039945700e-02 8.040749922657960957e-02 -7.775840067679384848e-02 7.129851050798431678e-02 -2.836837440601539320e-02 1.003311333560686774e-01 -9.793458659250391107e-02 -6.221838542887019041e-02 3.676676739086046086e-03 1.739414763557935867e-02 -7.128439226828354146e-03 7.358932904815825016e-02 9.654870254675727848e-02 3.871465986107214263e-02 -9.416346124585978083e-02 -5.841651354710694632e-02 2.815185960777775998e-02 1.090787190846881916e-01 -6.332060481851886635e-02 8.303152732042182183e-02 7.871439742569723286e-02 1.715849186413094529e-02 -7.964349842100344745e-02 -2.199165396714397591e-02 -3.533915611094604753e-02 5.193258725954966182e-02 -8.058244232917509409e-02 -2.013159301882242944e-02 3.263717780973580257e-02 -9.880924858506008601e-02 8.847995069976050120e-02 5.080335728099388132e-02 6.549276907863189889e-02 -4.409420797197243641e-02 -7.571261632800935226e-02 7.659659687955568119e-02 -5.795899181498768288e-02 9.522731022506385201e-02 -5.977758377593881192e-03 -1.838060811008306733e-02 7.911876821340906030e-02 9.843921464950335098e-02 -3.570859558728656236e-03 -6.117756070972066307e-02 -1.229512964606700167e-03 -1.121099377476837411e-01 -1.860195570832207795e-02 1.188249692376644462e-01 -5.764229895706740603e-03 -1.093682981196348186e-01 -4.771780276691702655e-02 -1.631416651530556705e-02 9.334432084827445908e-02 7.300898374490018272e-02 -7.253749398858902464e-02 -2.494396444823170078e-02 6.510855650786408211e-02 2.489478446009378565e-02 -2.775734282047632312e-02 7.380957908353505403e-02 6.633527791436444332e-02 6.527361302466330728e-02 1.865184920096774578e-03 4.628601215893064780e-02 6.060191941180295694e-02 -3.604723199497224945e-02 4.482551352054817140e-02 2.213238894235695919e-02 -7.965234965904950670e-02 5.635486716813885993e-02 4.583806478853697658e-02 2.210260549950441439e-04 2.138770408514476667e-02 1.016402619310419198e-01 5.686394631978477360e-02 8.115856982358050919e-02 -6.003283306262092306e-02 7.235058448591426272e-02 -6.264841408401711220e-02 7.455543691608179646e-02 1.060800763674388941e-02 -8.028250667106182070e-02 1.180124280623585376e-01 -8.539043287171767249e-02 6.293131915237797080e-02 -8.165122818341728761e-02 2.530224492186007590e-02 -4.908822929903864513e-02 -4.376357132505457465e-02 -7.703437798923477853e-02 -8.902393185337253989e-02 -1.061255476154185778e-01 -5.989328287603130213e-02 -9.839881627144807241e-02 -5.010816464281186294e-02 1.054061923416576285e-01 1.111086828955131466e-02 9.867827666306452916e-02 -5.824262586353300825e-02 4.708971559480253088e-02 8.735953009217412718e-03 2.837508985679632750e-02 -1.338355657188820130e-02 -4.170073402268700824e-02 -9.234665868376625356e-03 -4.051342508649169102e-03 3.569149126764697283e-02 1.430090765360513688e-02
1.046472649074433880e-01 6.009698125006675967e-02 -3.303672630824824180e-02 8.018017275363090168e-02 -1.015888595862953769e-01 -5.131253517243632156e-03 -1.066105155029415386e-01 7.219348380637109937e-03 -6.781693769867649935e-02 7.003729427416428843e-02 2.787394197735029635e-03 -8.037813066802687589e-02 6.609164787142261799e-02 8.016725463308783939e-02 4.457817037352707762e-02 3.118993716609451405e-02 -8.654237279951378092e-02 1.850443078659502099e-03 -5.890005062206005171e-02 5.488723127322991252e-02 1.813014415905650836e-02 6.204241881129095131e-03 -7.196028032552817533e-02 9.226454752240668966e-02 -5.181016493927249195e-02 -8.205040915566760851e-02 -2.832336116326899730e-02 -6.967435398186148932e-02 7.167151535273111329e-02 9.541015603737564021e-02 -2.332448494089351190e-02 -6.427340293931163573e-02 -5.844338530284119704e-02 7.821813182504711026e-02 -8.303426796593851855e-02 7.421115726809385249e-02 3.463827047545973287e-02 -1.620936034673651441e-03 -3.102646417300240766e-02 -8.273804286220826087e-02 -1.717809520753871277e-02 -6.056877520212031185e-02 3.119016877308509669e-02 6.769414284799616689e-03 1.274241395644056252e-01 6.618007297775288511e-02 3.670124442950169902e-03 9.184733697845881562e-02 -4.051603080158758252e-02 -3.019382110901332530e-02 -9.553083636682294100e-03 -9.527959567698483789e-02 2.203927089956658064e-03 8.070790643955852439e-02 -9.269119988048749037e-02 4.454927168583830421e-02 -1.871724155605031942e-02 -9.669216617888595766e-02 -1.053647380787827922e-02 -2.176945199406877390e-02 -4.859775148158172742e-02 -8.968778999965941467e-02 3.581706587362135791e-02 5.456038348039994601e-02 4.360962575445647554e-02 -1.582956627529752414e-02 2.685585469692674393e-02 -9.860249462831724432e-02 -8.920938846986310733e-02 -1.792061932161853263e-02 -5.802536596478930636e-02 -8.897155097586526007e-02 1.023609212748609332e-01 1.248321642907261955e-02 1.005272393825089872e-01 4.881585566687397792e-02 4.830317152699396127e-02 -1.135235784527396236e-01 9.326323712277255484e-02 3.424044906715732750e-02 -9.141670533373934607e-03 6.371927335838212247e-02 -4.608691366144936769e-02 -1.127461637856380303e-02 3.116404758671566244e-04 -1.048294889718559830e-01 7.676162397061464526e-02 -1.071310455919715354e-01 2.273979021253462462e-02 -4.361798841448729508e-02 5.385550960385222102e-02 1.907590633181729944e-02 2.422553312794940156e-02 1.009445629570933090e-01 8.743554352492799442e-02 -2.264658902237378160e-02 -1.014842338982995529e-01 2.054940972465893814e-02 -3.756795697238903692e-02 7.882148192639333584e-03 6.997769418055894974e-02 -7.045563102771713881e-02 1.115999091994276105e-01 -6.497759780961770426e-02 1.334202441617627320e-02 -9.993785115507422892e-03 1.121340574153400632e-01 -1.119954787059076057e-01 9.373932554418426544e-02 -1.104507768814151220e-01 -2.777875963352340744e-02 -1.030147267109357834e-01 -1.108655331078748155e-02 -2.750628832044582292e-03 3.984816554156352802e-02 -5.456922736823194980e-02 -7.513096816408729173e-02 3.756561216120531121e-02 1.398292490555695482e-02 -3.466007892458228268e-02 3.187898726090685614e-03 5.785980477779223419e-02 -1.983270011655377703e-03 -6.137590072581360079e-02 -4.265960083355078980e-03 3.765693413930533417e-02 7.760166121256955631e-03 4.592057235488958278e-02 -2.208185206405851447e-02 8.711342091664697751e-02 5.933862418299430674e-02 -9.352646368297468094e-04 -2.900303832465525589e-02 9.804221884977278034e-02 -3.466553972872275097e-02 9.637508922387222343e-02 -8.582177840250103384e-02 -5.138247261797696669e-02 -1.907270570261405604e-02 -5.764787825824824880e-02 7.653074004822359687e-03 2.899819659571484937e-02 -5.337355612148731582e-02 7.042642241431891492e-02 -5.932611324317270049e-03 -1.542535227902877212e-02 1.159856174806655517e-02 -1.336650791946016568e-02 -9.748869958661246504e-02 1.258894205480319203e-02 1.239840187894034745e-01 -5.313035244568808935e-02 -1.020919573779524858e-01 -8.325985856513008765e-02 6.157708098532817254e-02 5.139254233761121615e-02 -2.409096046594774373e-02 -9.214036523359499242e-02 3.046164111569945460e-02 2.641549976143972925e-02 2.844895457022934490e-02 6.814029233120873219e-02 -3.298359401394672374e-02 -6.265839825928305740e-02 -5.700310782580627483e-02 -7.448209020896777444e-02 -1.037937114734854976e-01 -3.861959168569954748e-02 5.810985638931778774e-02 -2.334140556687489682e-02 4.905814341371536602e-03 -2.226212983155534397e-03 -6.713127186055889428e-02 5.016858770151663705e-02 4.331722275212175621e-02 9.902404558627828091e-02 5.746747795917212659e-02 -1.094891684706730955e-01 7.625324196346644490e-02 -6.503930576402275343e-02 -5.536517269853178519e-02 9.309600613017929294e-03 -8.019695157991355017e-02 -2.874030823402620033e-02 4.221368498391624841e-02 -4.371856955216567309e-02 4.449880927581532919e-02 -5.114550718592243694e-02 -3.223415073349998605e-02 -8.218255140616255450e-02 -9.541496686114209203e-02 1.157929526766785788e-01 8.004136498541154776e-02 3.669910788523322170e-02 7.856922436760115092e-02 6.156084840618090970e-02 -8.140608787226037701e-02 -9.825359489436148730e-02 -7.786624237849104624e-02 -6.643447028087241801e-02 5.010420460853961394e-02 -1.726078682554093441e-02 -3.854761492648326598e-02 -4.787584599276356601e-02 -5.537948019993751969e-02 3.893270866447608863e-04 -3.504593781187032714e-02 -5.995418800612747900e-02 4.542241108163479722e-03 8.384053145189172135e-03 -7.889536608959239750e-03 -1.194827869322121761e-01 1.143965001086907560e-02 3.040318667479480208e-02 -1.047200619680546396e-01 1.607171562255609379e-02 3.508349946658533263e-03 -5.589369118452882507e-02 -1.064982913010132648e-01 6.560453803011395690e-02 4.757859042259746096e-02 -3.671950631963234735e-02 2.734054502440146778e-02 7.223661759508830105e-02 -4.436944892539074897e-02 -1.224466576857684563e-01 4.132001943057993232e-02 -9.385505824219824919e-03 5.325043275446177116e-02 -1.179419203930823570e-02 4.581686880990385423e-03 -1.039620136244655269e-01 5.856638082943984441e-02 8.127068741868970214e-02 -6.768784819675503772e-02 -3.535876010667079322e-02 4.890009620419007164e-02 2.235260900973738696e-02 2.168835549736908633e-02 -3.941109948492634019e-02 -6.378248390850363436e-02 4.825793443754815282e-02 8.241252412833009744e-02 -1.133962649093000763e-01 1.084700638957006164e-01 1.024927227613715019e-01 1.049638342776018363e-01 -9.485822387475993656e-03 -2.930504450585645626e-02 -1.071371875119483813e-01
8.510012746261810812e-02 -6.118789440038689686e-02 3.618331669401900208e-02 9.816803188795615587e-02 -5.672413894905670856e-02 -1.067141035415039019e-01 1.719665837959591381e-02 -1.054103169140948315e-01 1.048566424080325798e-01 -8.509500978476139399e-02 4.514151529553772635e-02 -8.981374455214907737e-02 -6.752597345522826089e-02 1.068518387756709903e-01 1.034338249243564600e-02 -6.853662663431756008e-02 -1.563682565236926975e-02 -7.931951201372655635e-02 -1.219584088682698110e-02 -5.076354481327321339e-02 1.429425706723241353e-02 -9.382591720242772215e-02 -8.677997753232151446e-02 4.514933702830517537e-02 4.371450609599241560e-03 6.418305500935954366e-02 -3.631724980664140234e-02 7.766235134703454446e-02 -1.592026564754085022e-02 1.526094674805712759e-02 3.712737110572507382e-02 7.294686911434364318e-02 4.640983018827021800e-02 -1.116130383354985295e-01 -1.054090750647268815e-01 -6.624000625574197332e-02 -5.810667364153003500e-02 -4.469059435671906416e-02 3.984862484427380280e-02 3.887676545911167292e-02 -4.720793173346400640e-02 1.098148344167286378e-01 -9.823396702133491143e-02 1.244087739996743193e-02 1.279862519397864315e-02 5.110734468176468537e-02 -8.208260697268572603e-02 -3.169901288324847213e-03 -8.160384691360166032e-02 5.242161256213698217e-02 2.691631909457257651e-02 -9.887253436163037645e-02 -4.064389215228696173e-02 2.684093804166018046e-02 7.326513336935888687e-02 -5.752177726611903269e-03 -1.482925407239335872e-02 -2.581090830783829698e-02 7.523611298773413836e-02 7.424236401338137059e-02 1.823746404535151258e-02 7.955541088792372761e-02 3.349933479746409343e-02 6.549280204677986050e-02 6.414942249057251078e-02 -1.072698834129673928e-01 -9.029452479362863604e-02 5.358339913787110373e-03 -7.675157558297347749e-02 -1.203499768061275753e-02 -6.693724879690892901e-03 -2.783952062860839405e-02 -4.143453055088858021e-03 -5.559659293975003497e-02 -6.243807966032341450e-02 -1.294796117001387539e-02 1.945013750929463700e-02 -6.876794567554471438e-02 1.672712937051781899e-03 4.074632276600743952e-02 2.648955872318569521e-02 7.540271789343035158e-02 2.708674971250548888e-02 -7.125772405889400918e-02 1.013353092732514199e-03 -1.045632000091016867e-01 7.290968054776521268e-02 -1.720039553243359748e-02 -4.517511404081113457e-02 -3.154575486452299016e-02 -1.021810575493574680e-01 -4.697113033624136791e-02 -1.095902225467711676e-02 6.526796194804310169e-02 -1.130324062943029728e-01 8.131623551639949321e-02 -2.778190087253013321e-02 9.678840117240182159e-03 9.112844248879653497e-02 -3.095049363126681219e-02 -8.578765971450581784e-02 -5.843420541471432139e-02 6.721468651491742385e-02 7.463319511474081347e-02 6.728376403964012042e-02 -1.686798989600737236e-02 3.824820508495759691e-02 1.756020385613725823e-02 -1.246063423155016267e-02 8.923358939572040294e-02 -9.223948825466862789e-02 -1.325901753585705979e-03 2.016703499765539614e-03 6.014568308762645310e-02 1.051833964842355251e-02 -8.498831704031799272e-02 1.825507944359719067e-02 -3.867491779039381600e-02 -5.248338277544223329e-02 -2.567417522395529575e-02 -9.959890419498715342e-02 -3.465378444533542823e-02 -4.732328527462796586e-02 7.963714208571447128e-02 7.467856373059431063e-02 9.693846364526365056e-02 -4.505719527562072196e-02 3.685678175747469226e-02 -8.901809345379721461e-02 5.081452325102470136e-02 2.631085106117921416e-02 -8.457999446111366670e-02 -6.955992798716723047e-02 -4.379265714508149068e-03 4.247559923491669304e-02 5.887860195349658293e-02 5.414354979880234980e-02 -1.762673639588563032e-02 6.735716994088528087e-02 -6.042468325525129219e-02 -8.210369859366592471e-02 8.719979324143581345e-02 -3.940444024193137489e-03 -7.608390891865840500e-02 -7.908232925549325831e-02 2.307292775051267633e-02 4.404487558340890174e-02 2.103533786890662144e-02 8.571865320757890427e-02 6.850605918684450624e-02 6.817488153934177231e-02 -8.665344117671650026e-02 -3.048181034928456462e-02 -1.634606380312891502e-02 9.693360399385624049e-02 -7.923140743050395562e-02 6.605065440487818684e-02 -3.390672457253927213e-02 1.615634165710346654e-02 -1.862549368104862713e-02 -5.901214108452861040e-02 2.958870413141536510e-02 1.901759045819831351e-02 -2.023999941878545927e-02 3.009820181978728471e-02 -6.396726654010574664e-02 7.956856657026784019e-02 -8.828548852722131746e-02 1.004061164053377392e-01 1.404581199450726132e-03 3.844507477981264076e-02 6.837875769975086671e-02 -1.060753677231228015e-01 -9.214554783206729827e-02 -9.051890456453523526e-02 1.222638826767859926e-02 -1.095694930075098300e-01 8.462461757176657773e-02 9.180864606843771800e-03 2.863285698463648166e-02 -1.206433925009293279e-02 -8.363205715779949145e-02 7.997599475596532670e-02 -6.357104763780796475e-02 -6.974456700577144619e-02 2.910258079086157357e-02 3.008588372553981302e-02 4.846668602167555906e-02 -9.044007525327512134e-03 -8.515558119277374938e-02 -5.431541101192864651e-02 -1.149427505977284603e-01 -7.307693892458273777e-02 7.431123889998640653e-02 1.337660053022941484e-02 1.029622345612928314e-01 -2.252031163197858871e-02 9.577934539209100040e-02 4.713443694376591442e-02 7.646170088044448865e-02 2.846999046976715284e-03 8.887147740531334272e-02 8.962642887072205800e-02 1.069758832079270583e-01 -6.123533433608882581e-02 -7.260163152552907839e-02 -4.646540694354076191e-03 -1.306680318242819938e-02 -3.636025043182740391e-02 3.994245714852158458e-02 1.044124086666619461e-01 5.027568842005622485e-02 -9.406680184188886962e-02 6.746529041780963479e-03 9.524753866994360718e-02 3.296625688715595914e-02 -1.112997256113669592e-01 -4.233903263457436394e-02 2.496810362651667378e-02 8.435780002867744598e-02 8.621942087082122563e-02 -1.081831293249513500e-02 -1.050149663955377427e-01 6.320791952874821318e-02 3.846090323901053820e-02 3.526656308307794807e-02 1.908195154635317081e-02 -7.295572422624765213e-03 7.106281540493224191e-02 -8.458690758714650093e-02 -1.969939184849305025e-02 -6.658198559627286073e-02 -6.289661953923421367e-02 3.689992155115517231e-02 -3.031466658588695406e-02 5.817225475444153665e-02 1.108341558205605953e-01 8.295106375550875821e-02 -4.209149368276191711e-02 -2.100811552866770765e-02 -8.375567394688371303e-02 9.544460740004723220e-02 1.534288135430674285e-02 -7.800623939616130320e-02 -3.122930991308629257e-03 -5.725420476909039852e-02 -9.991408234567478175e-02 1.123299534846617098e-01 1.880311019328714806e-02 1.758130330312462214e-02
4.064392340039268449e-03 -1.296587554131203683e-02 -5.543832935157843450e-02 8.806567611213841906e-02 -5.278492257926283016e-02 6.900700406404723652e-02 -1.161899191523889201e-02 6.743972820937289836e-02 -1.072498046807918021e-01 -1.660695608320400876e-02 -4.168072573546481585e-02 9.312799950766981194e-02 -3.652238529135443806e-02 -7.974642704564630091e-02 -3.743016463329491145e-02 -2.409923788197935665e-02 -3.333437498699710205e-02 1.073179903177578914e-01 -3.558778938339367866e-03 1.065878459304121645e-01 6.163566325082749098e-02 8.456316536977676046e-02 -3.394507878098642489e-02 -7.978423129459703486e-03 6.474190463182016853e-02 7.433850730843431787e-02 -2.375095470367042175e-02 1.190286397598018797e-01 1.917539235994765445e-02 -5.258580770066466348e-02 -5.389314613737210269e-02 -8.617444142071150129e-03 -1.198845692088004872e-01 9.329625767522137236e-02 -2.414474791125653663e-02 4.045247133001442924e-02 -5.499822100727772695e-02 -9.567523304998822031e-02 -1.196841028248361513e-02 2.113327884557704081e-02 -2.107114752097938651e-02 9.266841266339814753e-02 4.664842033877474731e-02 -1.566737748734166671e-02 7.757009408037764640e-03 -5.919637571350042093e-02 4.818715200296573575e-02 8.123675311618680506e-02 7.390206051795852882e-02 5.593295316126475902e-02 8.683565766460966950e-02 -5.532520825845990003e-02 3.333594788919173185e-02 -9.135338811430600281e-02 -1.542033513560688712e-02 2.880552796571859628e-02 5.062238892509407506e-02 2.871449459647262489e-02 -1.421684397503422508e-02 3.479733041117916148e-02 -7.193181473827790773e-02 1.766144634047992629e-02 2.105826726280665348e-02 9.256514926976776303e-02 -5.001249538354535923e-02 2.102080844866317105e-02 3.345936342664532909e-03 -1.674833706215339904e-02 1.155136161717274373e-01 -1.377643288389075182e-01 -4.183786785237196548e-02 2.909188980860293733e-02 6.744715179728419385e-02 -2.322639701804612988e-02 -8.231564591145680565e-02 1.724151018789162396e-02 -3.881822747022907472e-02 3.001066178063968234e-02 -5.412371107569966672e-02 1.038734121333811378e-01 -6.109188400038665506e-02 -2.783919065420918659e-02 8.536107536343474911e-02 3.426580530487735587e-02 1.001415409469099960e-01 5.818772920267689663e-02 7.380989325245870813e-02 -7.204963744041945062e-02 -1.058810429583275786e-01 -1.191892105544342939e-01 -1.055179942702539064e-01 1.051192257704406524e-01 -2.988390140398288972e-02 2.384448437329218101e-02 -1.689647066704867348e-02 -1.000989270611725851e-01 9.837400730448550221e-03 5.901875161715497767e-04 6.168540070692017652e-02 9.783847945970795823e-02 2.235287200997600893e-02 -2.019834016013550074e-02 -3.835422822718210362e-02 1.847811345060519986e-02 1.037252902792855369e-01 1.005841576919926442e-02 9.781293632229945412e-02 -5.412925669955030022e-02 -4.360301050514976684e-02 4.595972183705510777e-02 6.221717483571728713e-02 8.381632818087605963e-02 -7.542769239638505430e-02 7.205679539505245590e-02 2.777364182125616893e-02 3.266590034250941438e-02 1.066919176571637928e-01 3.477796495065755417e-02 -4.974368890223018064e-02 -2.365326870376350046e-02 -3.723028844808286275e-02 -4.051659414291288591e-02 2.588120279231293647e-03 -3.026675080835739343e-02 2.636487754874795864e-02 7.627968608572838205e-02 9.690477270768989293e-02 4.728769040669331819e-02 1.091821556291626555e-01 -5.575825097108859547e-04 -2.032392628130361145e-03 7.294517440197889786e-03 7.645082542695136318e-02 5.104833815229893601e-02 2.867545616635417891e-02 -2.053924160846025762e-02 -3.881203421099777007e-02 4.929550631715508974e-02 -6.085687038851552572e-02 -4.793342435871850854e-02 9.000111030563184844e-02 -6.454838529904079192e-02 1.045678386941742560e-01 4.347010100630415569e-02 7.412219741280479113e-02 2.363111491229984498e-02 3.689031124111557397e-02 9.300318857449117738e-02 2.024815389491169473e-02 4.077678236134697071e-02 3.648944455600661857e-02 -7.764104658718767871e-02 -1.451841179414716312e-02 6.323682610057283771e-02 -9.689521688123429316e-03 -1.167812392201186961e-01 -8.423403018427318145e-03 1.000910173910227879e-02 7.137588796756030862e-02 1.041905187226047913e-01 -4.497873766747678692e-02 4.432270298059504815e-02 -4.022244726698051553e-02 -3.176629172394344891e-02 -2.305990624786706175e-02 -1.019702843299426370e-01 5.905505080717821792e-02 6.046395431070412940e-02 -7.491127803531862084e-02 -7.013234555214654942e-02 5.010727107430999749e-02 7.795709328605135435e-02 -8.848099853977563906e-03 -1.799190666060667548e-02 -4.843386810940771003e-02 -6.796704653387533601e-02 3.072439494618026817e-02 1.022671660302491570e-01 1.232699204664174375e-01 5.787009597470770678e-02 -7.058104368854442590e-02 -9.249231967106584171e-03 -1.102457814696215441e-02 8.229701552851741153e-02 -6.641111883735364291e-03 1.103366015966130154e-01 5.205215724070853811e-02 -7.654561302760040653e-02 1.140255667038553300e-01 -4.537273367882713182e-02 -3.958563830432600822e-02 -3.600028857640615726e-02 -7.109402113710318327e-02 -1.154607202904031210e-01 9.620524355886897472e-02 -5.381333503275337500e-03 -3.138762730758238445e-02 -3.235690693429310594e-02 -2.534784110587654654e-02 -9.618104441095970403e-02 -6.437911757772106502e-02 -3.608047975830298154e-02 -2.758983449233303603e-02 -5.405873311301842565e-02 1.125680495309402812e-01 -8.608144912952077343e-02 1.079261383894714044e-02 2.245232285839458136e-02 -6.717093083933818598e-02 1.029642715386021729e-01 -4.202195854141389797e-02 -9.005988037222428799e-02 -3.778280174639376404e-02 -9.753154081474808834e-02 8.118960940823240213e-02 -6.002530276870551157e-02 -2.989940168110419641e-02 -8.656889919097029984e-02 6.962825061745439581e-02 -5.233320951650093089e-02 1.042547212120095296e-01 9.365311160204929652e-02 -5.084560561630611930e-03 4.307021492787009576e-02 -3.956553549784058016e-02 -1.256692830509738568e-01 -1.228342005943233312e-01 1.814126710205940865e-02 -5.651110936297048387e-02 -8.962809308707887779e-02 1.921294252082312790e-02 -2.748843262048527442e-02 3.365549227249169106e-02 -1.325280610756405164e-03 -3.814992979213849018e-03 5.552914325069630008e-02 1.010097922461686698e-01 -4.396576130474035005e-02 -1.820243954270802712e-04 -8.892502456515771758e-02 -1.543942593411887741e-02 -3.734176222789922783e-02 -5.061631065857662148e-02 -5.413608429992486371e-02 -5.630501787588584883e-02 7.838146464305294214e-02 -9.651985311664361411e-02 -4.542333033150225408e-02 -2.646977460049586631e-02 -1.980943410736685228e-02
-6.088874401408842646e-02 -3.162875590940902870e-02 2.629342569307566851e-02 -2.359396444712871105e-02 7.360521510617944185e-02 5.151865026933713509e-02 5.222647631206568664e-02 1.013346768634146577e-01 7.738642284125298032e-02 6.610319242668422079e-02 3.875434438690353312e-02 -3.011708704762198346e-02 5.632907858460409894e-02 2.760827898302053995e-02 6.110483961786046525e-02 -6.530392319206035356e-02 1.134149905437841915e-01 -4.817499352260159323e-02 -6.626935550084676885e-02 2.378880014276716498e-02 -4.801669187162926900e-02 -7.981638522595956020e-02 -8.046997544775442990e-02 -7.185687015587367832e-02 -3.796586724963323806e-02 -1.151875146869573846e-01 9.185665366849862790e-02 -6.907719502743973894e-02 -9.827750544671030875e-02 7.824596262311486750e-02 1.262440040465318269e-01 8.410292559477616781e-02 6.828754575556705841e-03 1.371327799038652706e-01 1.057816526479988112e-01 -9.128780846645991043e-02 -6.946231467845769003e-02 7.085401236275618020e-02 -9.317261041921118259e-02 -5.648018608618618486e-02 7.794834377458285946e-02 9.060144978949032091e-02 7.124461395665643293e-02 -2.260345734372647478e-02 3.438318639263500398e-02 -6.571077147461680534e-02 9.450462465888335994e-02 7.126416160974785585e-02 1.511905362006763821e-02 -2.825146792806737181e-02 -2.430334722235309025e-02 9.987727792591714546e-03 -5.589761859219129214e-02 5.504553576276874881e-03 1.126321714348132580e-01 -6.603656735420593629e-03 1.004347894278323633e-01 2.201156533128968695e-02 4.213378098177165271e-02 2.868746823307067109e-02 -2.399101944704409156e-02 1.150482326261626637e-01 -5.786786600205905129e-02 8.885207311197718116e-02 5.151210808269655189e-02 8.774953858931469619e-02 3.138110727363321167e-02 8.178819709030415996e-02 6.343348379680961713e-02 -9.414087197116069797e-03 -6.884797667096387297e-02 4.517087812650341649e-02 1.524539364314414676e-02 -3.088759911670589664e-02 5.841051889076409598e-02 2.557699493366355666e-03 -1.279687935741047507e-02 -9.340378367339299825e-02 4.322050544757778667e-02 -9.822322227166488395e-02 -1.074723265040124914e-02 -1.817115039307273805e-02 5.983182309823572437e-02 9.325723205064694044e-02 -7.890958212004010874e-02 -4.257857328297535993e-02 -7.814352764524887252e-02 -2.507657537945023538e-02 -3.164082367521758865e-02 -5.775762877253683841e-02 2.785101488810396569e-02 -1.079441431041855762e-02 3.893608689185940053e-02 -1.023652392650934231e-02 6.810864631201025976e-02 6.380923070687770371e-02 8.395400109715141224e-02 -4.642388404373859814e-04 -9.768618349043451873e-04 -6.164351778013379274e-02 6.810912562705528916e-02 4.036088952483352782e-02 3.170436257819539416e-02 -1.108039373665826305e-01 -3.857971613600101601e-02 -1.187293639400238132e-01 7.843176344849799031e-02 -1.159208737653132787e-01 5.459746993756760258e-02 -7.258276229743972074e-02 1.152287530944065205e-02 4.243518934665176795e-02 -6.145058726424228179e-02 5.858541652557110180e-02 -1.086927248570352111e-01 -8.075240544801014220e-02 -1.657601116667258359e-02 7.932014199470065197e-02 4.657789513768574585e-02 -1.356361741575423663e-02 -2.990249773504988912e-02 4.475351149475422646e-02 -2.319689857486255391e-02 -2.827455181312468410e-02 1.004944988477135398e-01 -7.720097783183599294e-02 7.440877086157263870e-03 7.297718599435246145e-02 1.224483390984911768e-01 -2.938261528016894095e-02 -2.288760004907573753e-02 -9.796395953051781347e-02 -1.039528957710735696e-01 8.756434568840074095e-02 -6.774722775183401879e-02 5.985304460152760658e-02 5.558610472037519429e-02 7.314679084894025463e-02 4.836723713789226053e-02 -8.000644551250345182e-02 8.962276362301241361e-02 -3.400805174070636872e-02 8.979861102106408144e-02 -4.230014985279797329e-02 1.055695949957173169e-01 4.003892827532475052e-03 -5.731234416563410483e-03 -2.310000974548998692e-02 -4.067239267380724603e-04 -6.596848430698526444e-02 -5.821091448051653183e-02 5.188057033398284223e-02 6.930429574689447869e-02 -8.756949127528025623e-02 -6.998978166194709527e-02 -1.937724403862965683e-02 -4.584875337729924644e-02 5.697326067461714466e-02 -3.983254651214816755e-02 -6.087223649062439845e-02 5.790699217602229831e-02 2.846957821083785645e-02 5.834685797332238473e-03 9.210719417332401127e-02 7.199298562706837878e-02 3.378654528822676306e-02 7.491741306292086511e-02 -1.144283800531245565e-02 -3.036804626015889713e-02 -1.430701432980087395e-02 -3.720049388091489079e-02 4.450327087615813665e-02 -8.278013783721896446e-02 -6.369635571956211439e-02 1.066043241169197103e-01 1.264732186246826304e-02 -3.127362054481953174e-02 1.361543508780357556e-02 2.548660150407446381e-02 7.212425448971795938e-02 1.787481210068542561e-02 -6.608472595982395337e-02 4.344915317270402200e-02 4.286304725235545038e-02 1.064474541706121602e-01 3.200298708363821798e-02 1.083069302794306688e-02 -4.599457416992188546e-02 -8.654297768282139328e-03 -1.231210409096590574e-01 2.966804921400023262e-02 3.318604238486461827e-02 -9.856514556949895478e-02 4.762625926095860607e-02 -3.304979927176237425e-02 1.534239732334483422e-02 -7.826618834641044242e-02 2.399957579414024531e-02 -1.330423736698405600e-02 -1.388000005697377984e-02 -5.582271764462447272e-02 -6.315777336644007312e-02 3.346737844214094787e-02 -6.056975846733329838e-02 -6.067845753518352064e-02 3.153851501909339661e-02 -9.283111484022250892e-02 -7.761478209718246368e-02 -9.442208908981061799e-02 -8.983243398195393803e-02 1.335886897997879026e-02 -5.309885045737864490e-02 -1.429124165842564076e-01 2.451131846843455225e-02 5.114419025362023502e-02 9.038983211310128163e-02 -2.304424647312478154e-03 -6.039308475343619503e-02 1.002999945917588953e-01 4.212979878552512714e-02 -6.564590340422658821e-02 7.170361752590270754e-02 3.392526531845038718e-02 5.168066327114295005e-02 3.359681851041280282e-02 4.533639134208805599e-02 -7.106057202289005337e-02 6.367669609425871159e-03 3.867180525766934773e-02 6.276502286124099883e-02 -1.327653807869071390e-01 -3.538814449192767553e-02 -5.825385640837790757e-02 -5.832261556361403865e-02 -7.735727450604377997e-02 -5.038734090782495678e-02 4.080539283556530034e-02 1.822656783837181549e-02 2.181769987499973182e-02 -6.489583162847363529e-02 -9.159079102687227303e-02 1.714886188728404620e-02 7.544146072557027238e-02 -6.852404123009520065e-02 -7.331779377101462977e-03 -2.104829585046166102e-02 -6.567702007348667770e-02 4.395366677082399032e-02 -2.702396115770642343e-02 3.672005379482963516e-02
4.176350120030328239e-02 1.073417082996255822e-01 -6.613263423709610234e-03 -6.731325947619805350e-02 8.852528907715440099e-02 -3.366501837342926462e-02 2.348970547968466660e-02 -4.921456226400263562e-02 -5.569641259342582307e-02 -4.168164376272374266e-02 2.441662818425083606e-02 1.013901482272235588e-01 -6.640560609775335299e-02 8.003005702563899260e-02 -3.871839209857109304e-02 -7.290260887757238351e-02 2.730640496972023407e-02 9.949510003243873524e-02 -9.283676305661104321e-04 -9.309211872826060608e-02 -2.014189415162467509e-02 4.065054131423324196e-02 -6.024660299308417372e-02 1.082023810558653820e-01 -3.934345219396526150e-02 8.086216675854618341e-02 -1.534972683770723274e-02 -4.766767820937579947e-02 6.902959630818218673e-02 9.308787862951409253e-02 -2.637688492364258924e-02 -9.593901175259720096e-03 -5.322359513083492824e-03 -3.515545883582756048e-02 -3.686612511355375627e-02 -2.582850762167327938e-02 4.437355301559778309e-02 3.240347003978404083e-02 -1.874843555658242331e-02 6.892304710798129175e-02 -5.293511591402656064e-02 -7.308602384149900932e-02 -7.863815728477942246e-02 9.621080382114616247e-02 7.868634939205440548e-02 -9.395858077894569949e-02 2.693175563490866203e-02 -8.872436177426189230e-02 6.073332195401337508e-02 3.039664702087068598e-02 -6.310187058133391591e-02 3.273138937388252873e-02 -7.791196849372843125e-03 1.151547561057887914e-01 -7.113702153257336035e-03 7.077614713796749613e-02 -6.651190251020880351e-02 5.354853180828199333e-02 -6.695455836468153232e-02 6.816450053831034361e-02 4.341956142320764489e-02 -4.012764446306310573e-02 2.583490701801625412e-03 7.669040360254807120e-02 -6.761442618691235196e-02 -1.807276990072115633e-02 -3.862437914381676440e-02 2.556543600144481343e-02 -3.454575036970099905e-02 6.982807504847984847e-02 -1.011625639562036168e-02 -8.406989201112664845e-02 -2.267936208427565048e-02 3.483383444601047263e-02 9.768099631379822956e-02 -3.734455127909105249e-02 -9.803894051815774391e-02 -6.701751349135208480e-02 -5.809110775298956253e-02 6.625030576033918983e-02 -6.341803516321008194e-02 6.870411073620398545e-02 -8.669939402122038563e-02 -8.277708646273283788e-02 5.308705695967663729e-02 -6.080899220431869312e-02 -2.590423108935442989e-02 6.230676483680060163e-02 3.071052001015878857e-02 -3.565075358264047090e-02 -1.487687134717497091e-02 4.505488117252564456e-02 -5.577504405684142151e-03 -9.882665406729083946e-02 4.474351116498166692e-02 -2.017974453302739165e-03 -1.870723002457085754e-02 -8.648586945960337613e-02 5.362876846417218013e-02 4.846341874495450897e-02 -8.345418456627377857e-02 -4.892342187592369634e-02 -4.540138586124428666e-02 -1.173132771388683687e-01 -1.103297174148379356e-02 -8.166474960428848906e-02 9.874022750792832426e-02 9.624159209167761075e-02 -6.468729769844756838e-03 4.416060676499173818e-03 -1.017838684755642403e-01 4.434508909293396334e-02 9.812285800158816740e-02 -2.633010295741710152e-02 -4.279386938568725124e-02 -4.272934080320984346e-02 4.932856645582377186e-02 -7.418626629978458675e-02 -7.915203302067456981e-02 1.672091072632667097e-02 -9.895975580377346092e-02 -8.862794706800394481e-03 -7.793778885254291910e-02 -1.586437610387525510e-02 6.815244941033542225e-02 -7.803457486717373104e-02 -6.866551043172132440e-02 8.287970172942125957e-02 4.078282393942464501e-03 -5.525621933906910144e-02 5.785727674802517567e-02 1.555546444323949867e-02 2.133885918253002403e-02 9.626854518931335369e-02 -7.228016931891836916e-02 -1.717801578058350542e-02 -9.937985703269870685e-02 3.833417585316721294e-03 6.263818057717671084e-02 1.755887141668908621e-02 1.436165171895642002e-02 1.401237861454869560e-02 5.385353370361944253e-02 -9.452824700575758465e-02 4.636776161995563583e-02 -8.643823597823468985e-02 6.004811467865792812e-02 3.387642856604517611e-02 4.438719102328010646e-02 8.771532080005664533e-02 -9.274968230464065988e-02 4.873426021019759691e-02 7.423350167503377228e-02 -6.735379753502211686e-02 -5.540418441143225847e-02 6.270471910390630621e-02 8.350435363609536032e-02 3.215638923613292621e-02 9.481371847558572874e-02 9.834074101420668679e-02 -3.301730147739107696e-02 -5.374388416504753685e-02 -3.994798060968008518e-02 -5.016796826834326456e-02 -9.841453858051822656e-02 -5.056500326273959123e-02 -2.354334068494408697e-02 8.420344837697542328e-02 -3.857719401455369720e-04 -8.453265256792549809e-02 -1.177168336821116275e-02 4.140591370861362169e-02 -8.780026780979827139e-02 -7.864788611069012392e-03 -2.919625700267982835e-02 -2.599017561266060705e-02 9.503957816750954746e-02 7.102632073098862076e-02 -1.116131036748846395e-01 -4.246462006645721626e-02 3.452534682841082447e-02 -8.114584741947335200e-02 7.419375903760161428e-02 1.020896950441248369e-01 1.140005242016222803e-01 -1.722074096855011945e-03 4.905007632268853363e-02 -2.558055620097139313e-02 8.606997927640619439e-02 6.656379392398230344e-02 -6.143637002558362259e-02 9.531611276459464599e-02 -5.774119165012794180e-02 -6.263147184557525671e-02 4.114509707524480892e-02 7.170601160728137802e-02 3.254925798641824207e-03 4.301787886797110716e-02 -5.201842320685004517e-02 7.828563138433923541e-02 9.344836624679886405e-03 -9.067650610509127296e-02 4.174710031626398428e-03 8.124387329148016756e-02 5.339294133324613834e-02 1.244264642120704659e-02 -6.527804564929499953e-02 7.321846063884127065e-02 -9.141988385672987494e-02 9.717435994147602396e-02 -5.657554292831293297e-02 -1.043491392356391129e-01 2.316636907047216892e-02 1.005763447541083988e-01 -1.695318399532028250e-03 8.041139613815477538e-02 1.085005739189938284e-01 9.731899389001905099e-02 -5.394374879482970175e-02 8.267984022285236601e-02 -4.354407624427489992e-02 -3.732087339292009670e-02 -1.769209081678036616e-02 9.464664799994991495e-02 7.413491986202491724e-02 5.129189649427536024e-02 -6.855868143313141594e-02 -6.120108001536523484e-03 -3.454276604981450227e-02 1.199719487625656132e-02 -1.075911796320584146e-01 -5.944625640042642406e-02 -4.957061980708781651e-02 -5.291209002418122836e-02 1.311386695264870478e-02 1.774491028052339534e-02 -4.631289203461591564e-03 -9.815807517179578334e-02 -5.593601554926341118e-03 1.094646578137641046e-02 9.669205506168794539e-02 -8.850565001537620546e-02 1.061333968828617469e-01 8.068432331758706999e-02 8.663027757831963382e-02 4.153574206320598261e-02 -4.269779782696206394e-02 1.067066743012133135e-03 -9.592913182876630640e-02 5.631317255460519672e-02
2.828310784245118004e-02 2.624011078574620473e-02 -1.922140380011812949e-02 -3.302355006976025187e-02 1.124042042680383630e-01 -4.202737678654144826e-02 -7.695410018306630962e-02 -2.461239545616444521e-02 -2.134484981935090217e-02 5.869714749182119301e-02 4.996171134832385480e-02 -5.971061007796391040e-02 -5.271895366149980527e-02 -6.428699668031680192e-02 -8.387864024285111852e-02 1.056479486891076097e-01 5.162443398189755367e-02 3.457813818440251021e-03 -3.615779132584762828e-02 -3.885647014111263953e-02 4.961920850786817605e-02 -9.964985433150612415e-02 -6.573730665691635000e-02 1.842890010355942298e-02 3.134769596218441728e-02 -6.053647903295643340e-02 6.507479054929883600e-02 3.512461108599923554e-02 -2.700877526369072079e-02 -6.843704335689929086e-02 -1.077542631905769460e-01 -5.941483481978306058e-02 5.290482220286196052e-02 1.207609841038626425e-01 4.099998343358358249e-02 7.275248139178489004e-02 1.408916161663672888e-02 -4.237618449080334665e-02 -7.789772939656784689e-02 6.727289798532409826e-02 -1.099857841166029804e-01 -8.532121098556563754e-02 -9.169105989005202351e-02 -1.212200149604315408e-01 -3.270140985524698507e-02 -1.005203857937103512e-01 -5.451322706803699014e-02 -1.112415861286965985e-02 3.067274695718091512e-02 -1.068135456817844026e-01 -3.865552432110710285e-02 -8.406415273379223840e-02 7.805120397341039351e-02 -6.456029284223863129e-02 -4.458473618268468663e-02 3.218039043388516013e-02 -6.739006751711530685e-02 -2.067060879186521580e-02 -5.296672110642269837e-02 2.574745817524604422e-02 2.602645179434453365e-02 -5.451213408558262807e-02 -1.064826747447525507e-01 -1.137439748168061066e-01 -2.953216189789097806e-02 -1.281445615219588448e-02 -8.296069516150642031e-02 -8.174441675737831314e-03 2.720294286013212257e-02 -8.736450923733016238e-02 -7.178819514181164485e-02 -1.014330604676656755e-01 -6.140118974346431974e-02 7.537493621296703639e-02 6.210291600351143526e-02 -8.623508918024772041e-02 8.513715779848915477e-02 -5.838205296558259677e-02 -9.157978746471140755e-03 3.166956657713755618e-02 -8.718380553401029742e-02 2.765032856358751526e-02 9.454672026644896088e-02 -5.193509931071832453e-02 -1.013629347877286618e-02 -4.029510689952103819e-02 -7.585410079499536884e-02 7.502162250706488622e-02 -2.725423768652136813e-02 -5.995089566169961581e-02 -1.061054288535518281e-01 -5.539102255868613017e-02 3.134617314278474037e-02 1.004070429533315996e-02 7.283206181178473668e-03 3.375856418153495159e-02 1.074613140749230700e-01 4.648140511583741946e-02 -3.813708430033083130e-02 7.091342363323412112e-02 1.013458103974846786e-01 -7.100696578502585510e-02 -3.976290121899473534e-02 -1.663800675088873346e-02 -2.629947095425845538e-02 2.932469232923029002e-04 6.340835670572056437e-02 -4.005000274941077770e-02 -5.434819144298799060e-02 9.041877590109326235e-03 7.367442409165311790e-02 3.227431802052996984e-02 1.507428594501740438e-02 -9.905009088513232196e-02 9.035879308607719373e-02 -1.177265520976362653e-02 6.085978465289543921e-02 9.983049483487728415e-02 3.430339639570603033e-02 -3.011483439473181672e-02 -9.770906525987685387e-02 9.136280701807423035e-03 7.449127942913665035e-02 -6.900224723240276636e-02 6.590291025203066921e-02 -1.068725083500849382e-01 -4.425524157447796592e-02 1.886801296635205391e-02 -6.480056250148619190e-02 6.981205840937951268e-02 3.934006794074960262e-02 1.133752165377492106e-03 -8.364802476213591131e-02 3.572525441442304939e-02 1.124642946590159731e-01 -9.106442597352036594e-02 9.566745093193367022e-02 9.956777217233885036e-02 4.003495529159382255e-02 -6.304452465840400255e-02 -8.338552057149493935e-02 1.536618307017736766e-02 -2.409426359730817632e-02 -7.846577459465049753e-02 -3.251387957005456852e-02 4.956183757058461870e-02 -6.361241150930620203e-02 -6.744431113941792844e-02 -2.935349120194232983e-02 -1.006479466539548714e-02 -5.094656186425764594e-02 -8.780068914431742380e-03 8.290313633430008988e-02 1.096598814082165446e-01 6.901401636034872056e-02 -9.910317560890503918e-02 -2.920861113155530028e-02 -6.708441646980402295e-02 3.690908676459032922e-02 -8.192759802352168885e-02 6.253113745647112531e-02 2.516087804127889807e-02 4.499978683282547520e-02 5.580731782099367100e-02 -4.882270000972482871e-02 6.559766271574962726e-02 6.889279843328381669e-02 1.021462712744397421e-02 -8.567079946084527053e-02 -7.427660611933470380e-02 -4.611669252743391678e-02 3.989625211601579430e-02 4.360113541782106167e-02 -6.134070832910689525e-02 -2.954319949358236077e-03 8.999899601810648631e-02 6.602404186256106977e-02 1.643327958352027232e-02 3.112106510961622739e-03 1.083184926623856001e-02 2.606029239236705083e-02 4.222575690800467463e-02 -3.405511474960809526e-02 -1.039129311858199428e-01 -7.562364698127040097e-02 -4.548777412305928664e-02 -5.005257560956657276e-02 3.957362250248026847e-02 -8.238811078635142893e-02 9.986836971044876776e-02 -2.729017739270424986e-02 -6.651566679557781303e-02 1.183096025192373855e-02 9.188009490508777799e-02 7.120086547096046714e-02 8.641255290024330016e-02 8.743706394082099986e-02 9.650299836355485938e-02 -3.762036309858234409e-03 -6.399623195849837853e-02 9.272875908865214900e-02 -2.979157028321923611e-02 -6.614521132891755528e-02 -1.100274250447635070e-02 -5.289227395241306862e-02 -1.020995300161944702e-01 -1.020073150905644460e-01 -8.999823841391704771e-02 -7.877629470480576601e-02 -4.225661478630200057e-02 3.947481957152863125e-02 5.879341162178915864e-02 9.483637368984518257e-02 -7.310971170927773113e-03 -2.174340278513964622e-02 1.062217264991771049e-01 8.831585856668286438e-02 -3.133472639562823875e-02 -5.161120470290873029e-03 2.600148005850481947e-02 1.242808697453807142e-02 6.902481621611922247e-02 -9.582805752975094571e-02 9.635185270220678055e-02 -8.531665055779600465e-03 -4.803142195031911282e-02 -8.450726456919339935e-02 -6.090984351262360846e-02 -1.918251187481002928e-02 -6.498304088019182974e-03 1.181252895341073084e-01 1.452316625609298417e-02 -1.979924326523621950e-02 -5.516168450698693410e-02 -6.101068379621290422e-02 7.057831349372549468e-02 -4.931025209575536083e-02 -2.528894893500445093e-02 4.521067009733028413e-02 -2.292282741990157163e-02 1.571761670929957416e-02 6.462538542203001557e-02 4.115187672225645993e-02 -3.172732146354794759e-03 -4.196641021781317982e-02 1.094357496347930087e-01 -5.092158278046504671e-02 -7.210573464991199000e-02 -7.856511561506984709e-02 -1.908807819418089149e-02
2.281401111121594480e-02 -9.160446695841209519e-02 3.172737533385304454e-02 6.039537507602938532e-02 -2.679212551512953622e-03 8.286764240853272678e-02 8.863330810736175236e-02 -1.015542794782643178e-02 5.994582921179747448e-02 -7.112921601657896942e-02 -6.854513464322298244e-02 1.012807742183941956e-01 8.367895950108231173e-02 1.096119611588146636e-01 -5.454907695069174250e-02 -1.960167904722118909e-02 4.724075728190326069e-03 3.550741908885921873e-03 -1.114958289163943406e-02 5.333751019144337274e-02 1.308033636200025933e-02 4.828564209470827262e-02 6.577499289041977004e-02 8.822591704492367681e-02 -2.459496408088393191e-02 -3.559806308312311873e-02 7.622150456934659313e-02 -8.185283332249858324e-02 -2.972099060942497151e-02 9.247418504157151053e-02 -1.624320819978671698e-02 6.168317161621407474e-02 7.000388148451711090e-02 -8.493064393036653392e-02 7.219820760119309566e-02 -9.623469762676935269e-02 8.329677301689354663e-02 3.751970733202027175e-02 -4.235814282420060500e-02 -2.248558053420247720e-03 -6.286864707923339735e-02 -1.096748069182184593e-01 -4.537402238890273290e-03 -9.219519743121050437e-02 -6.460466822631105721e-02 5.997844731088202569e-02 1.131338178045692838e-01 -5.460022277029150800e-02 -2.489868293702830401e-02 -2.866920827424889254e-02 2.327308767660482211e-02 -7.535445504912598180e-02 4.649989898082655670e-02 6.157225898192857094e-02 -4.606612721853362014e-02 3.762216662743893270e-02 9.901669784769781546e-02 5.412093354614768564e-02 5.672341396334457109e-02 7.160586739311772426e-03 3.160413582365705076e-02 1.038993050458768275e-02 7.528171855979108595e-02 -3.775530473994855030e-02 -3.433835600036779651e-02 -7.460631558060387691e-02 3.279303121786183994e-02 -4.544184216100460166e-02 -3.330141419591797769e-02 -8.897010219724545144e-02 1.652503344147909087e-02 -4.583784281028304569e-02 1.161519702407102931e-03 3.541075888003041711e-02 -7.216957936020929054e-02 -8.254786805933227167e-02 -3.555720552787437067e-02 6.591346908517742298e-02 -2.319664071284164436e-02 -1.125838882774199690e-01 8.118128365877815000e-02 -1.211356220852821131e-01 -8.897953130319305806e-03 9.540809055510222902e-02 8.129111486084837634e-02 1.916026293132022315e-02 2.077384449867325511e-02 1.034774049136699264e-01 4.459041330295567679e-02 -1.084192073639802523e-01 9.337513855749751679e-02 -5.688797961957908073e-02 -2.658131858847460546e-02 -7.828684743684849456e-02 -9.263325734597609162e-02 -2.891202102225187351e-03 1.611956453115650362e-02 -4.290750717153421490e-02 6.320181032996179116e-02 -1.393509297053178476e-02 -7.213925380483376948e-02 -5.669699836197564236e-02 -8.501953625165680969e-03 -9.625365595482864500e-04 8.435308471410192521e-02 2.405589317854035791e-02 8.278644831645463886e-02 7.155746443394898904e-02 1.056432189695889201e-01 -4.225673021310169530e-02 4.563982084660258426e-02 -7.362585582290349928e-02 5.086081710198703254e-02 -8.833125741365879802e-02 1.007659381769943768e-01 4.387641095265361335e-02 -4.560805038972522499e-03 7.899066133570668835e-02 -6.433027868782791037e-02 -6.272428937942771399e-02 1.866040168915049369e-02 4.685345304173776232e-02 -8.354601650227509724e-02 -1.812129558203517954e-02 -5.605089034011077193e-02 -2.194117051077073069e-02 2.023165278723977265e-02 9.031083954792361312e-02 -2.017461620478682230e-02 -9.042903194884967244e-02 2.815300517660049989e-03 6.039834523161667634e-02 3.228360077692405544e-02 7.202663121477252683e-02 1.004934699609669052e-01 8.464136201699495876e-02 -6.835809881949099498e-02 1.117230812535746805e-02 7.880080512477163901e-02 -3.254805887383268367e-03 6.412264540945079860e-02 -3.619487650746960883e-02 1.651953164497644427e-02 -6.394383240763069909e-02 4.063591981536344294e-02 -5.116632967864689907e-02 -2.613590960572976466e-03 3.127937856295849584e-02 2.081023014330730947e-02 4.491251399099855518e-02 -6.914382423611421802e-02 -4.088209423133802069e-03 1.076464625122098978e-01 -2.172754569334084396e-02 2.372203017354742455e-02 -1.212564981220810439e-01 4.428559396946682436e-02 4.328079946145622220e-02 8.060585641101512822e-02 4.595982146409291480e-02 8.358724782571716472e-02 5.197367445675912800e-02 -4.374432454709335782e-02 7.939540345890915007e-02 -1.046992365304819372e-01 3.471382951798136079e-02 9.675894809394810711e-03 -8.195433828121317932e-02 1.608667058341351624e-02 8.773943796941452433e-02 8.217106318011077604e-02 -7.616896677561045548e-02 9.921864826018476913e-02 3.063221023085962655e-02 -5.208584138514646411e-02 -8.844009964228927156e-02 1.100631324330413191e-01 -7.537474603287175334e-02 7.043400083848745663e-02 1.041686275806054246e-01 1.977498004148823055e-02 -1.973298212892074868e-02 2.218558710902866077e-02 -5.075474362108688131e-02 -5.703901061315011511e-02 6.699777613589097403e-02 -8.647976023994237427e-02 4.643459447962224734e-02 -1.061082867484587910e-01 -9.538796867338127095e-02 4.717605540995788160e-02 5.477983426916453041e-02 8.898828151994359059e-02 -1.165708167738931100e-02 1.010933961635343686e-01 3.539777949052394512e-02 5.978375157484637492e-02 5.317996367247513484e-02 1.001136407964360736e-01 -7.094594297216687273e-02 1.853789945989314444e-02 -2.752502501104113139e-02 8.097495673849935960e-02 -5.765460438743679611e-02 5.965857251965381303e-02 -9.579440561535135235e-02 1.239471661739268218e-02 -8.090333320860158828e-02 2.618149200129692156e-02 8.208637902553299337e-02 8.619147978587381187e-02 2.180572334963393200e-02 1.742840810516682604e-02 -2.589888949726717668e-02 -9.103667729183761992e-02 -7.202167959265706743e-02 -6.853875595732648873e-02 -9.830580433779869884e-03 5.902878311354270435e-02 -1.337680383753326978e-02 -2.887498043752622853e-02 7.585844919688890242e-02 -1.330845947263805534e-02 -4.356399049180389310e-02 -5.485423220103624597e-02 2.833017454400060288e-03 6.241428116880197441e-02 2.082169797887747573e-02 8.810772921370914335e-02 -6.019035173975752911e-02 -7.095539331948796935e-02 -8.382683545043460860e-02 3.090163862771004577e-02 -6.467775961411648122e-02 -6.542171197318222275e-02 7.555084321170565942e-02 -1.019865724821641118e-01 4.145033598743706055e-02 9.105272363914523881e-02 2.357880170422557015e-02 -8.433511422326750440e-02 -4.893977160120138725e-02 1.221709485132708856e-01 -3.758554494600296891e-02 4.110012723138890822e-02 -1.642516833053358008e-02 -1.637626664085362060e-02 5.673962125359608560e-02 -8.370867989583416491e-02 -7.578008828449700474e-02
